{"learner":{"attributes":{"scikit_learn":"{\"_estimator_type\": \"classifier\"}"},"feature_names":["p1_target","elo_diff","finish_diff","edge_speed_diff","edge_burst_diff","l5_goal_diff","l5_xg_diff","l5_corsi_diff","l5_pdo_diff","l5_st_net","l5_royal_road_diff","l5_pressure_diff","l5_rebound_diff","l5_lateral_diff","p1_xg_diff","p2_xg_diff","p3_xg_diff","p1_p2_dominance","h_preservation_rate","a_preservation_rate","h_comeback_rate","a_comeback_rate","l5_nzt_possession_diff","l5_ca_shots_diff","l5_rush_sv_pct_diff","home_sos","away_sos","l5_std_diff","l10_goal_diff","l10_xg_diff","elo_rest_inter","speed_finish_inter","season_month","is_late_season","h_desperation","a_desperation","home_xg","away_xg","home_elo","away_elo","away_win_rate","home_win_rate_away_sos","away_b2b_home_strength","pressure_index","xg_efficiency","power_momentum"],"feature_types":["int","float","float","float","float","float","float","float","float","float","float","float","float","float","float","float","float","float","float","float","float","float","float","float","float","float","float","float","float","float","float","float","int","int","float","float","float","float","float","float","float","float","float","float","float","float"],"gradient_booster":{"model":{"cats":{"enc":[],"feature_segments":[],"sorted_idx":[]},"gbtree_model_param":{"num_parallel_tree":"1","num_trees":"50"},"iteration_indptr":[0,1,2,3,4,5,6,7,8,9,10,11,12,13,14,15,16,17,18,19,20,21,22,23,24,25,26,27,28,29,30,31,32,33,34,35,36,37,38,39,40,41,42,43,44,45,46,47,48,49,50],"tree_info":[0,0,0,0,0,0,0,0,0,0,0,0,0,0,0,0,0,0,0,0,0,0,0,0,0,0,0,0,0,0,0,0,0,0,0,0,0,0,0,0,0,0,0,0,0,0,0,0,0,0],"trees":[{"base_weights":[-1.0576847E-2,-7.5745183E-1,2.8310624E-1,-9.03651E-1,8.810959E-1,-1.3998155E-2,7.3563725E-1,4.0331755E-2,-4.9744096E-2,-3.4346078E-3,7.033274E-2,-1.7080953E-2,3.231788E-2,-6.256328E-3,4.330465E-2],"categories":[],"categories_nodes":[],"categories_segments":[],"categories_sizes":[],"default_left":[0,0,0,0,0,0,0,0,0,0,0,0,0,0,0],"id":0,"left_children":[1,3,5,7,9,11,13,-1,-1,-1,-1,-1,-1,-1,-1],"loss_changes":[4.880547E1,1.58391E1,2.1486221E1,9.874947E0,2.9170632E0,2.129446E1,7.2193336E0,0E0,0E0,0E0,0E0,0E0,0E0,0E0,0E0],"parents":[2147483647,0,0,1,1,2,2,3,3,4,4,5,5,6,6],"right_children":[2,4,6,8,10,12,14,-1,-1,-1,-1,-1,-1,-1,-1],"split_conditions":[7.182629E2,3.6666667E-1,5.3525287E-1,-5.34687E0,5.0472856E-1,8.4781616E2,5E-1,4.0331755E-2,-4.9744096E-2,-3.4346078E-3,7.033274E-2,-1.7080953E-2,3.231788E-2,-6.256328E-3,4.330465E-2],"split_indices":[41,4,40,13,40,41,20,0,0,0,0,0,0,0,0],"split_type":[0,0,0,0,0,0,0,0,0,0,0,0,0,0,0],"sum_hessian":[2.2052832E2,6.179537E1,1.5873296E2,5.714511E1,4.6502576E0,9.640702E1,6.2325935E1,2.4967825E0,5.4648327E1,1.9662163E0,2.6840413E0,6.47603E1,3.1646719E1,8.208173E0,5.4117764E1],"tree_param":{"num_deleted":"0","num_feature":"46","num_nodes":"15","size_leaf_vector":"1"}},{"base_weights":[-4.908705E-4,-6.867112E-1,2.805435E-1,-8.0065686E-1,9.144591E-1,1.6190965E-2,7.195954E-1,-2.2213962E-2,-7.015359E-2,7.000391E-2,-1.3069878E-2,-1.2989257E-2,3.49231E-2,4.180893E-2,-4.4933627E-3],"categories":[],"categories_nodes":[],"categories_segments":[],"categories_sizes":[],"default_left":[0,0,0,0,0,0,0,0,0,0,0,0,0,0,0],"id":1,"left_children":[1,3,5,7,9,11,13,-1,-1,-1,-1,-1,-1,-1,-1],"loss_changes":[4.3352497E1,1.2648521E1,1.8498781E1,1.25816765E1,3.1103215E0,1.9117823E1,5.7292194E0,0E0,0E0,0E0,0E0,0E0,0E0,0E0,0E0],"parents":[2147483647,0,0,1,1,2,2,3,3,4,4,5,5,6,6],"right_children":[2,4,6,8,10,12,14,-1,-1,-1,-1,-1,-1,-1,-1],"split_conditions":[7.182629E2,6.528999E-1,5.5147266E-1,8.281947E-2,1.1E1,8.6665173E2,9.38782E-1,-2.2213962E-2,-7.015359E-2,7.000391E-2,-1.3069878E-2,-1.2989257E-2,3.49231E-2,4.180893E-2,-4.4933627E-3],"split_indices":[41,40,40,8,32,41,27,0,0,0,0,0,0,0,0],"split_type":[0,0,0,0,0,0,0,0,0,0,0,0,0,0,0],"sum_hessian":[2.2279834E2,6.431431E1,1.5848404E2,6.0508255E1,3.8060524E0,9.956997E1,5.8914062E1,3.9109367E1,2.1398888E1,2.5586596E0,1.2473929E0,7.133462E1,2.8235357E1,5.1468315E1,7.445748E0],"tree_param":{"num_deleted":"0","num_feature":"46","num_nodes":"15","size_leaf_vector":"1"}},{"base_weights":[1.6863056E-2,-3.6760753E-1,3.7141895E-1,-7.346624E-1,2.435143E-1,7.318361E-1,2.1480747E-1,-5.6601305E-2,-1.9294674E-2,2.4264999E-2,-5.1078927E-2,-3.0154432E-3,5.6720268E-2,1.4741749E-3,3.588776E-2],"categories":[],"categories_nodes":[],"categories_segments":[],"categories_sizes":[],"default_left":[0,0,0,0,0,0,0,0,0,0,0,0,0,0,0],"id":2,"left_children":[1,3,5,7,9,11,13,-1,-1,-1,-1,-1,-1,-1,-1],"loss_changes":[3.0597483E1,2.4339638E1,6.432745E0,8.923496E0,1.3088341E1,1.1213284E1,7.696516E0,0E0,0E0,0E0,0E0,0E0,0E0,0E0,0E0],"parents":[2147483647,0,0,1,1,2,2,3,3,4,4,5,5,6,6],"right_children":[2,4,6,8,10,12,14,-1,-1,-1,-1,-1,-1,-1,-1],"split_conditions":[7.751076E2,5.3525287E-1,1.4914595E3,1E1,9.7681975E-1,8.2949164E2,1.5160869E3,-5.6601305E-2,-1.9294674E-2,2.4264999E-2,-5.1078927E-2,-3.0154432E-3,5.6720268E-2,1.4741749E-3,3.588776E-2],"split_indices":[41,40,26,32,27,41,39,0,0,0,0,0,0,0,0],"split_type":[0,0,0,0,0,0,0,0,0,0,0,0,0,0,0],"sum_hessian":[2.2245781E2,1.0670887E2,1.1574895E2,6.654072E1,4.016815E1,3.3948586E1,8.180036E1,3.0053745E1,3.6486973E1,3.4240475E1,5.927678E0,1.1725749E1,2.2222837E1,6.054838E1,2.1251982E1],"tree_param":{"num_deleted":"0","num_feature":"46","num_nodes":"15","size_leaf_vector":"1"}},{"base_weights":[-1.784482E-2,-6.070798E-1,2.1898174E-1,-7.9456127E-1,3.4048924E-1,-6.2391575E-2,6.426215E-1,-1.9780207E-2,-7.2841965E-2,3.790689E-2,-1.5877193E-2,-2.3083014E-2,1.2760597E-2,-8.023969E-3,3.7164252E-2],"categories":[],"categories_nodes":[],"categories_segments":[],"categories_sizes":[],"default_left":[0,0,0,0,0,0,0,0,0,0,0,0,0,0,0],"id":3,"left_children":[1,3,5,7,9,11,13,-1,-1,-1,-1,-1,-1,-1,-1],"loss_changes":[3.2397526E1,1.2093538E1,1.9786762E1,1.4182751E1,3.454193E0,1.2856461E1,5.471369E0,0E0,0E0,0E0,0E0,0E0,0E0,0E0,0E0],"parents":[2147483647,0,0,1,1,2,2,3,3,4,4,5,5,6,6],"right_children":[2,4,6,8,10,12,14,-1,-1,-1,-1,-1,-1,-1,-1],"split_conditions":[7.182629E2,5.940764E-1,5.3525287E-1,8.281947E-2,1.1E1,8.18812E2,5E-1,-1.9780207E-2,-7.2841965E-2,3.790689E-2,-1.5877193E-2,-2.3083014E-2,1.2760597E-2,-8.023969E-3,3.7164252E-2],"split_indices":[41,40,40,8,32,41,20,0,0,0,0,0,0,0,0],"split_type":[0,0,0,0,0,0,0,0,0,0,0,0,0,0,0],"sum_hessian":[2.302103E2,6.55516E1,1.6465869E2,5.4858948E1,1.0692651E1,9.94552E1,6.520349E1,3.5232307E1,1.9626644E1,6.448017E0,4.2446337E0,4.386174E1,5.559346E1,7.196342E0,5.800715E1],"tree_param":{"num_deleted":"0","num_feature":"46","num_nodes":"15","size_leaf_vector":"1"}},{"base_weights":[-4.4356E-3,-4.9213007E-1,2.8439745E-1,-6.2083864E-1,7.3637617E-1,-3.573113E-1,4.544361E-1,-5.5916463E-3,-4.7133576E-2,-2.002219E-2,6.2737875E-2,-5.187893E-2,6.851081E-5,3.3353966E-2,-2.3439557E-3],"categories":[],"categories_nodes":[],"categories_segments":[],"categories_sizes":[],"default_left":[0,0,0,0,0,0,0,0,0,0,0,0,0,0,0],"id":4,"left_children":[1,3,5,7,9,11,13,-1,-1,-1,-1,-1,-1,-1,-1],"loss_changes":[3.1479092E1,1.359988E1,1.547798E1,1.2308313E1,5.4171824E0,7.3120594E0,1.1906647E1,0E0,0E0,0E0,0E0,0E0,0E0,0E0,0E0],"parents":[2147483647,0,0,1,1,2,2,3,3,4,4,5,5,6,6],"right_children":[2,4,6,8,10,12,14,-1,-1,-1,-1,-1,-1,-1,-1],"split_conditions":[7.4510706E2,3.6666667E-1,4.7642934E-1,-3.0117269E0,-1.0886012E0,1.484832E3,1.5067996E3,-5.5916463E-3,-4.7133576E-2,-2.002219E-2,6.2737875E-2,-5.187893E-2,6.851081E-5,3.3353966E-2,-2.3439557E-3],"split_indices":[41,4,40,8,5,25,25,0,0,0,0,0,0,0,0],"split_type":[0,0,0,0,0,0,0,0,0,0,0,0,0,0,0],"sum_hessian":[2.2148064E2,8.211896E1,1.3936168E2,7.477911E1,7.3398457E0,2.8961714E1,1.1039996E2,2.9488325E1,4.5290787E1,2.3699691E0,4.9698763E0,9.345153E0,1.9616562E1,7.7286606E1,3.311336E1],"tree_param":{"num_deleted":"0","num_feature":"46","num_nodes":"15","size_leaf_vector":"1"}},{"base_weights":[1.1443925E-2,-5.2497363E-1,2.2771956E-1,-7.169547E-1,4.2654055E-1,-5.0282314E-2,5.1971775E-1,-1.7202685E-2,-6.433444E-2,-7.4846023E-3,4.4437237E-2,-2.4163468E-2,1.4072127E-2,2.1353533E-2,7.7149086E-2],"categories":[],"categories_nodes":[],"categories_segments":[],"categories_sizes":[],"default_left":[0,0,0,0,0,0,0,0,0,0,0,0,0,0,0],"id":5,"left_children":[1,3,5,7,9,11,13,-1,-1,-1,-1,-1,-1,-1,-1],"loss_changes":[2.6560076E1,1.2323605E1,1.3267517E1,1.1267035E1,3.2417834E0,1.2269251E1,6.891592E0,0E0,0E0,0E0,0E0,0E0,0E0,0E0,0E0],"parents":[2147483647,0,0,1,1,2,2,3,3,4,4,5,5,6,6],"right_children":[2,4,6,8,10,12,14,-1,-1,-1,-1,-1,-1,-1,-1],"split_conditions":[7.182629E2,5.940764E-1,5.055166E-1,8.281947E-2,-2.431952E-3,8.18812E2,1E0,-1.7202685E-2,-6.433444E-2,-7.4846023E-3,4.4437237E-2,-2.4163468E-2,1.4072127E-2,2.1353533E-2,7.7149086E-2],"split_indices":[41,40,40,8,31,41,0,0,0,0,0,0,0,0,0],"split_type":[0,0,0,0,0,0,0,0,0,0,0,0,0,0,0],"sum_hessian":[2.26908E2,6.478865E1,1.6211935E2,5.4116425E1,1.0672222E1,8.347416E1,7.86452E1,3.3677673E1,2.0438753E1,5.0511093E0,5.6211133E0,3.6012135E1,4.746202E1,7.3415474E1,5.229728E0],"tree_param":{"num_deleted":"0","num_feature":"46","num_nodes":"15","size_leaf_vector":"1"}},{"base_weights":[1.2499335E-2,-5.129643E-1,2.2620408E-1,-6.495306E-1,8.363648E-1,-1.29770795E-2,5.928011E-1,-1.7271962E-2,-5.5206787E-2,7.840442E-3,6.7973875E-2,-1.1159954E-2,2.5053794E-2,-1.5632918E-2,3.5686996E-2],"categories":[],"categories_nodes":[],"categories_segments":[],"categories_sizes":[],"default_left":[0,0,0,0,0,0,0,0,0,0,0,0,0,0,0],"id":6,"left_children":[1,3,5,7,9,11,13,-1,-1,-1,-1,-1,-1,-1,-1],"loss_changes":[2.5413057E1,1.2601397E1,1.4110505E1,7.9110184E0,2.080153E0,1.0736024E1,7.179552E0,0E0,0E0,0E0,0E0,0E0,0E0,0E0,0E0],"parents":[2147483647,0,0,1,1,2,2,3,3,4,4,5,5,6,6],"right_children":[2,4,6,8,10,12,14,-1,-1,-1,-1,-1,-1,-1,-1],"split_conditions":[7.182629E2,3.6666667E-1,5.3525287E-1,8.281947E-2,1.5061965E3,8.6332306E2,5E-1,-1.7271962E-2,-5.5206787E-2,7.840442E-3,6.7973875E-2,-1.1159954E-2,2.5053794E-2,-1.5632918E-2,3.5686996E-2],"split_indices":[41,4,40,8,25,41,20,0,0,0,0,0,0,0,0],"split_type":[0,0,0,0,0,0,0,0,0,0,0,0,0,0,0],"sum_hessian":[2.242748E2,6.443637E1,1.5983842E2,5.898509E1,5.451286E0,9.7312706E1,6.2525723E1,3.639791E1,2.2587175E1,2.9364347E0,2.514851E0,6.946911E1,2.7843594E1,7.1805134E0,5.534521E1],"tree_param":{"num_deleted":"0","num_feature":"46","num_nodes":"15","size_leaf_vector":"1"}},{"base_weights":[-1.3958245E-4,-5.92351E-1,1.9380327E-1,-8.0958396E-1,5.267271E-1,-3.525342E-2,5.1810867E-1,-4.53741E-2,3.759254E-2,6.5934315E-2,-1.6322725E-2,2.289677E-2,-1.21893855E-2,-2.8775788E-3,3.3874486E-2],"categories":[],"categories_nodes":[],"categories_segments":[],"categories_sizes":[],"default_left":[0,0,0,0,0,0,0,0,0,0,0,0,0,0,0],"id":7,"left_children":[1,3,5,7,9,11,13,-1,-1,-1,-1,-1,-1,-1,-1],"loss_changes":[2.6080853E1,1.4044735E1,1.2725142E1,7.9136696E0,6.993019E0,1.0518372E1,6.541315E0,0E0,0E0,0E0,0E0,0E0,0E0,0E0,0E0],"parents":[2147483647,0,0,1,1,2,2,3,3,4,4,5,5,6,6],"right_children":[2,4,6,8,10,12,14,-1,-1,-1,-1,-1,-1,-1,-1],"split_conditions":[7.1316614E2,5.8884996E-1,5.3525287E-1,4.0666667E-1,1.5130792E3,-1.5E-1,-4.1136956E0,-4.53741E-2,3.759254E-2,6.5934315E-2,-1.6322725E-2,2.289677E-2,-1.21893855E-2,-2.8775788E-3,3.3874486E-2],"split_indices":[41,40,40,4,38,4,45,0,0,0,0,0,0,0,0],"split_type":[0,0,0,0,0,0,0,0,0,0,0,0,0,0,0],"sum_hessian":[2.2507649E2,5.5019184E1,1.700573E2,4.6306774E1,8.712408E0,1.0018676E2,6.987054E1,4.3968853E1,2.3379204E0,4.2353587E0,4.4770494E0,2.941755E1,7.076921E1,1.5288755E1,5.4581783E1],"tree_param":{"num_deleted":"0","num_feature":"46","num_nodes":"15","size_leaf_vector":"1"}},{"base_weights":[-4.801532E-3,-2.4467033E-1,4.1780207E-1,-7.650585E-2,-9.8498195E-1,9.610552E-1,2.0088932E-1,-3.6266208E-2,9.148533E-3,-5.7870716E-2,2.5171822E-2,1.1909197E-2,6.666986E-2,-4.385413E-2,1.9353924E-2],"categories":[],"categories_nodes":[],"categories_segments":[],"categories_sizes":[],"default_left":[0,0,0,0,0,0,0,0,0,0,0,0,0,0,0],"id":8,"left_children":[1,3,5,7,9,11,13,-1,-1,-1,-1,-1,-1,-1,-1],"loss_changes":[2.2811405E1,1.7794506E1,9.408915E0,2.0007454E1,7.3803215E0,5.869526E0,1.2280951E1,0E0,0E0,0E0,0E0,0E0,0E0,0E0,0E0],"parents":[2147483647,0,0,1,1,2,2,3,3,4,4,5,5,6,6],"right_children":[2,4,6,8,10,12,14,-1,-1,-1,-1,-1,-1,-1,-1],"split_conditions":[8.30672E2,9.38782E-1,1.4914595E3,4.7996494E-1,5.233333E-1,1.4920365E3,1.4954277E3,-3.6266208E-2,9.148533E-3,-5.7870716E-2,2.5171822E-2,1.1909197E-2,6.666986E-2,-4.385413E-2,1.9353924E-2],"split_indices":[41,27,26,40,3,25,26,0,0,0,0,0,0,0,0],"split_type":[0,0,0,0,0,0,0,0,0,0,0,0,0,0,0],"sum_hessian":[2.23024E2,1.425398E2,8.048421E1,1.1705391E2,2.548588E1,2.1987183E1,5.849703E1,3.2926414E1,8.4127495E1,2.303919E1,2.446689E0,8.032477E0,1.3954706E1,8.069081E0,5.0427944E1],"tree_param":{"num_deleted":"0","num_feature":"46","num_nodes":"15","size_leaf_vector":"1"}},{"base_weights":[-1.2277925E-3,-6.417544E-1,1.290653E-1,-8.788957E-1,4.6081102E-1,-9.329137E-2,4.5610008E-1,-1.0288417E-2,-5.299563E-2,-1.773157E-2,5.8894675E-2,-1.4425851E-2,2.408572E-2,8.451286E-3,4.2038288E-2],"categories":[],"categories_nodes":[],"categories_segments":[],"categories_sizes":[],"default_left":[0,0,0,0,0,0,0,0,0,0,0,0,0,0,0],"id":9,"left_children":[1,3,5,7,9,11,13,-1,-1,-1,-1,-1,-1,-1,-1],"loss_changes":[1.8615292E1,1.0262982E1,1.3521564E1,3.6046429E0,4.7037673E0,1.2618293E1,8.161022E0,0E0,0E0,0E0,0E0,0E0,0E0,0E0,0E0],"parents":[2147483647,0,0,1,1,2,2,3,3,4,4,5,5,6,6],"right_children":[2,4,6,8,10,12,14,-1,-1,-1,-1,-1,-1,-1,-1],"split_conditions":[6.5532056E2,5.8884996E-1,5.3525287E-1,-2.213479E0,-2.431952E-3,8.6665173E2,2.0333333E-1,-1.0288417E-2,-5.299563E-2,-1.773157E-2,5.8894675E-2,-1.4425851E-2,2.408572E-2,8.451286E-3,4.2038288E-2],"split_indices":[41,40,40,28,31,41,3,0,0,0,0,0,0,0,0],"split_type":[0,0,0,0,0,0,0,0,0,0,0,0,0,0,0],"sum_hessian":[2.2106218E2,3.6703026E1,1.8435916E2,3.037318E1,6.329845E0,1.1016844E2,7.419072E1,6.889752E0,2.3483429E1,3.1982985E0,3.1315465E0,8.26167E1,2.7551743E1,4.3308887E1,3.088183E1],"tree_param":{"num_deleted":"0","num_feature":"46","num_nodes":"15","size_leaf_vector":"1"}},{"base_weights":[-2.2156058E-2,-3.9169613E-1,2.0576237E-1,-7.8881216E-1,-6.363745E-2,-2.5752366E-1,3.391119E-1,-4.264177E-2,2.1160357E-2,2.318414E-2,-2.804323E-2,-2.1271726E-2,6.8080656E-2,2.704647E-2,-4.7594807E-3],"categories":[],"categories_nodes":[],"categories_segments":[],"categories_sizes":[],"default_left":[0,0,0,0,0,0,0,0,0,0,0,0,0,0,0],"id":10,"left_children":[1,3,5,7,9,11,13,-1,-1,-1,-1,-1,-1,-1,-1],"loss_changes":[1.8742195E1,1.1006219E1,8.594303E0,3.333332E0,1.2730943E1,9.100981E0,9.461155E0,0E0,0E0,0E0,0E0,0E0,0E0,0E0,0E0],"parents":[2147483647,0,0,1,1,2,2,3,3,4,4,5,5,6,6],"right_children":[2,4,6,8,10,12,14,-1,-1,-1,-1,-1,-1,-1,-1],"split_conditions":[7.4510706E2,5.0472856E-1,4.7642934E-1,4.1333333E-1,-3.0356935E-1,1.6119666E3,1.5067996E3,-4.264177E-2,2.1160357E-2,2.318414E-2,-2.804323E-2,-2.1271726E-2,6.8080656E-2,2.704647E-2,-4.7594807E-3],"split_indices":[41,40,40,4,29,39,25,0,0,0,0,0,0,0,0],"split_type":[0,0,0,0,0,0,0,0,0,0,0,0,0,0,0],"sum_hessian":[2.2056844E2,8.386831E1,1.3670013E2,3.7305458E1,4.656285E1,3.0344696E1,1.0635543E2,3.5715202E1,1.5902555E0,2.2630342E1,2.3932508E1,2.8161486E1,2.1832113E0,7.244509E1,3.391034E1],"tree_param":{"num_deleted":"0","num_feature":"46","num_nodes":"15","size_leaf_vector":"1"}},{"base_weights":[-2.1094442E-3,-4.6418127E-1,1.8449754E-1,-6.414318E-1,3.9155278E-1,2.9246614E-3,4.9858558E-1,-1.7048907E-2,-5.8035553E-2,-9.042128E-3,4.2137835E-2,3.8748644E-2,-5.928963E-3,-3.3455156E-2,3.1957876E-2],"categories":[],"categories_nodes":[],"categories_segments":[],"categories_sizes":[],"default_left":[0,0,0,0,0,0,0,0,0,0,0,0,0,0,0],"id":11,"left_children":[1,3,5,7,9,11,13,-1,-1,-1,-1,-1,-1,-1,-1],"loss_changes":[1.9106903E1,9.919863E0,9.000923E0,7.9022007E0,3.1376889E0,9.569574E0,9.918455E0,0E0,0E0,0E0,0E0,0E0,0E0,0E0,0E0],"parents":[2147483647,0,0,1,1,2,2,3,3,4,4,5,5,6,6],"right_children":[2,4,6,8,10,12,14,-1,-1,-1,-1,-1,-1,-1,-1],"split_conditions":[7.182629E2,5.940764E-1,5.5147266E-1,8.281947E-2,-3.3333334E-3,-6.7752094E0,5E-1,-1.7048907E-2,-5.8035553E-2,-9.042128E-3,4.2137835E-2,3.8748644E-2,-5.928963E-3,-3.3455156E-2,3.1957876E-2],"split_indices":[41,40,40,8,4,8,20,0,0,0,0,0,0,0,0],"split_type":[0,0,0,0,0,0,0,0,0,0,0,0,0,0,0],"sum_hessian":[2.1959822E2,6.2744434E1,1.5685379E2,5.2185535E1,1.05589E1,1.00033936E2,5.6819847E1,3.41076E1,1.8077932E1,4.918505E0,5.640394E0,1.2871154E1,8.716278E1,5.7012672E0,5.1118584E1],"tree_param":{"num_deleted":"0","num_feature":"46","num_nodes":"15","size_leaf_vector":"1"}},{"base_weights":[1.263652E-2,-5.749808E-1,1.3768062E-1,-7.913958E-1,4.5307913E-1,2.988362E-1,-1.6637608E-1,6.666593E-3,-4.7271375E-2,-6.2582507E-3,6.3965224E-2,1.0959708E-2,5.5048566E-2,3.5139024E-3,-4.7779724E-2],"categories":[],"categories_nodes":[],"categories_segments":[],"categories_sizes":[],"default_left":[0,0,0,0,0,0,0,0,0,0,0,0,0,0,0],"id":12,"left_children":[1,3,5,7,9,11,13,-1,-1,-1,-1,-1,-1,-1,-1],"loss_changes":[1.6343155E1,9.042369E0,9.0322E0,4.7705345E0,3.7067077E0,7.435541E0,1.2047602E1,0E0,0E0,0E0,0E0,0E0,0E0,0E0,0E0],"parents":[2147483647,0,0,1,1,2,2,3,3,4,4,5,5,6,6],"right_children":[2,4,6,8,10,12,14,-1,-1,-1,-1,-1,-1,-1,-1],"split_conditions":[6.518298E2,5.8884996E-1,1.5054011E3,-2.1908709E1,3.166741E1,1.2400695E-2,9.150376E-2,6.666593E-3,-4.7271375E-2,-6.2582507E-3,6.3965224E-2,1.0959708E-2,5.5048566E-2,3.5139024E-3,-4.7779724E-2],"split_indices":[41,40,25,30,45,42,2,0,0,0,0,0,0,0,0],"split_type":[0,0,0,0,0,0,0,0,0,0,0,0,0,0,0],"sum_hessian":[2.2034482E2,3.8030518E1,1.823143E2,3.1607159E1,6.4233584E0,1.1916947E2,6.3144825E1,4.5322475E0,2.7074911E1,4.277915E0,2.145443E0,1.0956436E2,9.605117E0,4.9279026E1,1.38658E1],"tree_param":{"num_deleted":"0","num_feature":"46","num_nodes":"15","size_leaf_vector":"1"}},{"base_weights":[-2.2765381E-2,-4.5373502E-1,1.548352E-1,9.169746E-1,-5.503541E-1,-4.5426164E-2,4.5745653E-1,1.01401005E-2,6.317633E-2,1.3916693E-2,-3.441397E-2,1.8449232E-3,-5.5011995E-2,-4.7868155E-2,2.6582165E-2],"categories":[],"categories_nodes":[],"categories_segments":[],"categories_sizes":[],"default_left":[0,0,0,0,0,0,0,0,0,0,0,0,0,0,0],"id":13,"left_children":[1,3,5,7,9,11,13,-1,-1,-1,-1,-1,-1,-1,-1],"loss_changes":[1.7233315E1,9.204901E0,9.689539E0,9.071896E-1,7.277157E0,8.45664E0,7.1870155E0,0E0,0E0,0E0,0E0,0E0,0E0,0E0,0E0],"parents":[2147483647,0,0,1,1,2,2,3,3,4,4,5,5,6,6],"right_children":[2,4,6,8,10,12,14,-1,-1,-1,-1,-1,-1,-1,-1],"split_conditions":[7.21685E2,-5.34687E0,5.3525287E-1,1.4946615E3,-2.1908709E1,1.291754E2,1.4098164E3,1.01401005E-2,6.317633E-2,1.3916693E-2,-3.441397E-2,1.8449232E-3,-5.5011995E-2,-4.7868155E-2,2.6582165E-2],"split_indices":[41,13,40,26,30,1,39,0,0,0,0,0,0,0,0],"split_type":[0,0,0,0,0,0,0,0,0,0,0,0,0,0,0],"sum_hessian":[2.2323515E2,6.4693535E1,1.5854163E2,3.700791E0,6.0992744E1,9.591754E1,6.262408E1,1.7269986E0,1.9737923E0,8.557747E0,5.2434998E1,8.986862E1,6.0489216E0,2.526988E0,6.009709E1],"tree_param":{"num_deleted":"0","num_feature":"46","num_nodes":"15","size_leaf_vector":"1"}},{"base_weights":[-1.9030953E-2,-3.3981746E-1,2.1127492E-1,-1.5790279E-1,-1.1456653E0,-2.3157163E-1,3.3564982E-1,-1.48819415E-2,4.7071744E-2,1.8995019E-2,-6.417095E-2,-4.9272906E-2,4.507725E-3,2.6346976E-2,-3.926527E-3],"categories":[],"categories_nodes":[],"categories_segments":[],"categories_sizes":[],"default_left":[0,0,0,0,0,0,0,0,0,0,0,0,0,0,0],"id":14,"left_children":[1,3,5,7,9,11,13,-1,-1,-1,-1,-1,-1,-1,-1],"loss_changes":[1.6277578E1,1.3313782E1,7.144464E0,1.1995091E1,4.016773E0,7.055837E0,8.009959E0,0E0,0E0,0E0,0E0,0E0,0E0,0E0,0E0],"parents":[2147483647,0,0,1,1,2,2,3,3,4,4,5,5,6,6],"right_children":[2,4,6,8,10,12,14,-1,-1,-1,-1,-1,-1,-1,-1],"split_conditions":[7.5512274E2,9.38782E-1,4.7642934E-1,3.6666667E-1,-8.575014E1,1.484381E3,1.5063717E3,-1.48819415E-2,4.7071744E-2,1.8995019E-2,-6.417095E-2,-4.9272906E-2,4.507725E-3,2.6346976E-2,-3.926527E-3],"split_indices":[41,27,40,4,1,25,25,0,0,0,0,0,0,0,0],"split_type":[0,0,0,0,0,0,0,0,0,0,0,0,0,0,0],"sum_hessian":[2.1835568E2,9.105385E1,1.27301834E2,7.526029E1,1.5793556E1,2.7724545E1,9.9577286E1,6.741986E1,7.840435E0,1.1624182E0,1.4631138E1,7.6756063E0,2.0048939E1,6.793102E1,3.1646265E1],"tree_param":{"num_deleted":"0","num_feature":"46","num_nodes":"15","size_leaf_vector":"1"}},{"base_weights":[2.5186144E-2,-1.5239276E-1,3.423324E-1,-4.6700794E-1,1.292144E-1,-4.6473646E-1,4.5140323E-1,-3.9174642E-2,-9.41781E-3,1.2004293E-2,-4.7135044E-2,-5.259941E-2,4.3063052E-2,5.3676188E-2,1.5780149E-2],"categories":[],"categories_nodes":[],"categories_segments":[],"categories_sizes":[],"default_left":[0,0,0,0,0,0,0,0,0,0,0,0,0,0,0],"id":15,"left_children":[1,3,5,7,9,11,13,-1,-1,-1,-1,-1,-1,-1,-1],"loss_changes":[1.2625213E1,1.2801334E1,7.290907E0,5.86158E0,9.337858E0,8.74728E0,5.691019E0,0E0,0E0,0E0,0E0,0E0,0E0,0E0,0E0],"parents":[2147483647,0,0,1,1,2,2,3,3,4,4,5,5,6,6],"right_children":[2,4,6,8,10,12,14,-1,-1,-1,-1,-1,-1,-1,-1],"split_conditions":[5.5147266E-1,7.751076E2,5E-1,1E1,1.291754E2,5.274963E0,-3.273062E0,-3.9174642E-2,-9.41781E-3,1.2004293E-2,-4.7135044E-2,-5.259941E-2,4.3063052E-2,5.3676188E-2,1.5780149E-2],"split_indices":[40,41,20,32,1,8,1,0,0,0,0,0,0,0,0],"split_type":[0,0,0,0,0,0,0,0,0,0,0,0,0,0,0],"sum_hessian":[2.2224896E2,1.4280693E2,7.944204E1,6.713947E1,7.566746E1,9.069733E0,7.037231E1,3.0587414E1,3.655206E1,6.927786E1,6.3895984E0,6.42909E0,2.6406424E0,1.1371706E1,5.90006E1],"tree_param":{"num_deleted":"0","num_feature":"46","num_nodes":"15","size_leaf_vector":"1"}},{"base_weights":[-7.2824727E-3,-2.070056E-1,3.2850927E-1,-5.568567E-1,8.708701E-2,-9.015457E-1,3.8575304E-1,4.383654E-2,-3.1076953E-2,1.3793354E-2,-4.588728E-2,2.0226663E-2,-7.747495E-2,1.39582725E-2,6.667327E-2],"categories":[],"categories_nodes":[],"categories_segments":[],"categories_sizes":[],"default_left":[0,0,0,0,0,0,0,0,0,0,0,0,0,0,0],"id":16,"left_children":[1,3,5,7,9,11,13,-1,-1,-1,-1,-1,-1,-1,-1],"loss_changes":[1.4530025E1,1.402383E1,6.0379095E0,6.309761E0,1.4415669E1,3.92153E0,7.4985533E0,0E0,0E0,0E0,0E0,0E0,0E0,0E0,0E0],"parents":[2147483647,0,0,1,1,2,2,3,3,4,4,5,5,6,6],"right_children":[2,4,6,8,10,12,14,-1,-1,-1,-1,-1,-1,-1,-1],"split_conditions":[8.30672E2,5.0472856E-1,1.4182297E3,-9.0044506E-2,9.7681975E-1,1E0,1.0427948E-2,4.383654E-2,-3.1076953E-2,1.3793354E-2,-4.588728E-2,2.0226663E-2,-7.747495E-2,1.39582725E-2,6.667327E-2],"split_indices":[41,40,39,44,27,33,42,0,0,0,0,0,0,0,0],"split_type":[0,0,0,0,0,0,0,0,0,0,0,0,0,0,0],"sum_hessian":[2.1464064E2,1.3482976E2,7.981088E1,6.1169437E1,7.3660324E1,2.8931708E0,7.691772E1,2.0987782E0,5.907066E1,6.2621037E1,1.1039289E1,1.0839431E0,1.8092277E0,7.0305176E1,6.6125364E0],"tree_param":{"num_deleted":"0","num_feature":"46","num_nodes":"15","size_leaf_vector":"1"}},{"base_weights":[-2.7044479E-2,-2.0613056E-1,3.0008212E-1,-4.5296726E-1,1.6496427E-1,-2.4473248E-1,4.8321903E-1,1.1320558E-3,-3.433622E-2,-1.3097659E-2,2.249068E-2,-3.023665E-2,2.8584396E-2,4.3037336E-2,9.506774E-3],"categories":[],"categories_nodes":[],"categories_segments":[],"categories_sizes":[],"default_left":[0,0,0,0,0,0,0,0,0,0,0,0,0,0,0],"id":17,"left_children":[1,3,5,7,9,11,13,-1,-1,-1,-1,-1,-1,-1,-1],"loss_changes":[1.2767377E1,1.2966874E1,7.814296E0,9.442234E0,7.043871E0,6.244207E0,6.261012E0,0E0,0E0,0E0,0E0,0E0,0E0,0E0,0E0],"parents":[2147483647,0,0,1,1,2,2,3,3,4,4,5,5,6,6],"right_children":[2,4,6,8,10,12,14,-1,-1,-1,-1,-1,-1,-1,-1],"split_conditions":[5.5147266E-1,8.18812E2,-1.579857E0,-4.1118846E0,1.4945823E3,1.5418633E3,6.836293E-1,1.1320558E-3,-3.433622E-2,-1.3097659E-2,2.249068E-2,-3.023665E-2,2.8584396E-2,4.3037336E-2,9.506774E-3],"split_indices":[40,41,45,8,25,38,28,0,0,0,0,0,0,0,0],"split_type":[0,0,0,0,0,0,0,0,0,0,0,0,0,0,0],"sum_hessian":[2.1587766E2,1.3974426E2,7.613339E1,8.379003E1,5.595423E1,1.9068907E1,5.7064484E1,2.7908926E1,5.5881104E1,2.2425074E1,3.352916E1,1.3413508E1,5.6553984E0,2.4092943E1,3.2971542E1],"tree_param":{"num_deleted":"0","num_feature":"46","num_nodes":"15","size_leaf_vector":"1"}},{"base_weights":[-1.4256564E-2,-5.268412E-1,8.573391E-2,-7.1321E-1,3.722539E-1,4.9655784E-2,6.2868804E-2,-1.8954277E-2,-6.349143E-2,-1.3331547E-2,6.1630078E-2,-3.112578E-4,3.5751242E-2],"categories":[],"categories_nodes":[],"categories_segments":[],"categories_sizes":[],"default_left":[0,0,0,0,0,0,0,0,0,0,0,0,0],"id":18,"left_children":[1,3,5,7,9,11,-1,-1,-1,-1,-1,-1,-1],"loss_changes":[1.139748E1,6.347068E0,7.8083096E0,5.173459E0,4.115052E0,6.759488E0,0E0,0E0,0E0,0E0,0E0,0E0,0E0],"parents":[2147483647,0,0,1,1,2,2,3,3,4,4,5,5],"right_children":[2,4,6,8,10,12,-1,-1,-1,-1,-1,-1,-1],"split_conditions":[6.518298E2,5.8884996E-1,1.5478598E-1,1.5666667E-1,3.3768215E1,1.0427948E-2,6.2868804E-2,-1.8954277E-2,-6.349143E-2,-1.3331547E-2,6.1630078E-2,-3.112578E-4,3.5751242E-2],"split_indices":[41,40,31,3,45,42,0,0,0,0,0,0,0],"split_type":[0,0,0,0,0,0,0,0,0,0,0,0,0],"sum_hessian":[2.2049301E2,3.52942E1,1.851988E2,2.9405613E1,5.8885884E0,1.8067763E2,4.521187E0,1.9425821E1,9.979791E0,3.7752316E0,2.1133568E0,1.6759299E2,1.3084633E1],"tree_param":{"num_deleted":"0","num_feature":"46","num_nodes":"13","size_leaf_vector":"1"}},{"base_weights":[5.184403E-2,-1.527621E-1,3.855283E-1,-9.058188E-1,-1.7274855E-2,1.9654033E-1,6.881242E-1,3.44367E-2,-5.631013E-2,6.6311136E-3,-4.3284956E-2,1.6669849E-2,-3.3785354E-2,-1.51833E-2,4.6383172E-2],"categories":[],"categories_nodes":[],"categories_segments":[],"categories_sizes":[],"default_left":[0,0,0,0,0,0,0,0,0,0,0,0,0,0,0],"id":19,"left_children":[1,3,5,7,9,11,13,-1,-1,-1,-1,-1,-1,-1,-1],"loss_changes":[1.4685974E1,1.3607712E1,4.537945E0,7.9235992E0,1.4636198E1,6.3970203E0,7.6503325E0,0E0,0E0,0E0,0E0,0E0,0E0,0E0,0E0],"parents":[2147483647,0,0,1,1,2,2,3,3,4,4,5,5,6,6],"right_children":[2,4,6,8,10,12,14,-1,-1,-1,-1,-1,-1,-1,-1],"split_conditions":[8.30672E2,4.409897E-1,1.4210855E-14,-1.2136744E2,9.38782E-1,3.8E-1,1.4835695E3,3.44367E-2,-5.631013E-2,6.6311136E-3,-4.3284956E-2,1.6669849E-2,-3.3785354E-2,-1.51833E-2,4.6383172E-2],"split_indices":[41,40,9,30,27,3,25,0,0,0,0,0,0,0,0],"split_type":[0,0,0,0,0,0,0,0,0,0,0,0,0,0,0],"sum_hessian":[2.1324132E2,1.3252362E2,8.071769E1,1.9340551E1,1.13183075E2,5.0701374E1,3.0016317E1,2.0904279E0,1.7250124E1,9.690573E1,1.6277338E1,4.4359146E1,6.34223E0,5.787209E0,2.4229109E1],"tree_param":{"num_deleted":"0","num_feature":"46","num_nodes":"15","size_leaf_vector":"1"}},{"base_weights":[1.6440395E-2,-5.0772995E-1,1.2248542E-1,-6.1688274E-1,7.2384775E-1,9.6652836E-1,5.7954103E-2,-1.9600479E-2,-5.293698E-2,5.2451264E-2,1.5417868E-3,6.072199E-2,-4.71683E-2,-2.9745423E-3,2.3648119E-2],"categories":[],"categories_nodes":[],"categories_segments":[],"categories_sizes":[],"default_left":[0,0,0,0,0,0,0,0,0,0,0,0,0,0,0],"id":20,"left_children":[1,3,5,7,9,11,13,-1,-1,-1,-1,-1,-1,-1,-1],"loss_changes":[1.2359102E1,5.476815E0,1.0009809E1,3.0539618E0,7.578552E-1,7.3303003E0,8.447751E0,0E0,0E0,0E0,0E0,0E0,0E0,0E0,0E0],"parents":[2147483647,0,0,1,1,2,2,3,3,4,4,5,5,6,6],"right_children":[2,4,6,8,10,12,14,-1,-1,-1,-1,-1,-1,-1,-1],"split_conditions":[6.5532056E2,6.528999E-1,1.4750483E3,1.5666667E-1,1.4964406E3,9.944128E-1,9.1968317E2,-1.9600479E-2,-5.293698E-2,5.2451264E-2,1.5417868E-3,6.072199E-2,-4.71683E-2,-2.9745423E-3,2.3648119E-2],"split_indices":[41,40,38,3,26,28,41,0,0,0,0,0,0,0,0],"split_type":[0,0,0,0,0,0,0,0,0,0,0,0,0,0,0],"sum_hessian":[2.2022456E2,3.641935E1,1.838052E2,3.3912823E1,2.5065272E0,1.206197E1,1.7174324E2,2.3725464E1,1.0187358E1,1.3563683E0,1.1501589E0,1.0998462E1,1.0635085E0,1.3452898E2,3.721427E1],"tree_param":{"num_deleted":"0","num_feature":"46","num_nodes":"15","size_leaf_vector":"1"}},{"base_weights":[2.8364686E-3,-1.5145098E-1,2.7591226E-1,-2.799481E-1,3.8433805E-1,5.497413E-1,-2.0764688E-2,5.633061E-2,-1.6598916E-2,5.8604605E-2,8.724004E-3,4.0569577E-2,-2.4799637E-3,-2.5279665E-2,2.1517513E-2],"categories":[],"categories_nodes":[],"categories_segments":[],"categories_sizes":[],"default_left":[0,0,0,0,0,0,0,0,0,0,0,0,0,0,0],"id":21,"left_children":[1,3,5,7,9,11,13,-1,-1,-1,-1,-1,-1,-1,-1],"loss_changes":[9.235043E0,9.751104E0,6.4398E0,8.684359E0,4.34438E0,6.4988775E0,8.735126E0,0E0,0E0,0E0,0E0,0E0,0E0,0E0,0E0],"parents":[2147483647,0,0,1,1,2,2,3,3,4,4,5,5,6,6],"right_children":[2,4,6,8,10,12,14,-1,-1,-1,-1,-1,-1,-1,-1],"split_conditions":[5.5147266E-1,8.6665173E2,7.1985536E-4,-8.705881E-2,-5.953452E0,1.1E1,8E-2,5.633061E-2,-1.6598916E-2,5.8604605E-2,8.724004E-3,4.0569577E-2,-2.4799637E-3,-2.5279665E-2,2.1517513E-2],"split_indices":[40,41,44,44,8,32,3,0,0,0,0,0,0,0,0],"split_type":[0,0,0,0,0,0,0,0,0,0,0,0,0,0,0],"sum_hessian":[2.1720041E2,1.3907092E2,7.812949E1,1.1255468E2,2.6516237E1,4.0185646E1,3.7943844E1,3.2782774E0,1.09276405E2,4.6134267E0,2.1902811E1,2.772717E1,1.2458477E1,1.8230326E1,1.9713518E1],"tree_param":{"num_deleted":"0","num_feature":"46","num_nodes":"15","size_leaf_vector":"1"}},{"base_weights":[2.2362338E-2,-1.3364886E-1,3.304666E-1,-2.6136506E-1,2.5244173E-1,-9.7522557E-1,3.9793485E-1,-5.89413E-3,-3.8131792E-2,1.8204061E-2,-5.2321024E-2,1.77174E-2,-7.896387E-2,4.5273523E-3,3.6502726E-2],"categories":[],"categories_nodes":[],"categories_segments":[],"categories_sizes":[],"default_left":[0,0,0,0,0,0,0,0,0,0,0,0,0,0,0],"id":22,"left_children":[1,3,5,7,9,11,13,-1,-1,-1,-1,-1,-1,-1,-1],"loss_changes":[1.042509E1,7.1706014E0,6.808623E0,7.732367E0,5.647916E0,3.6684065E0,7.0814953E0,0E0,0E0,0E0,0E0,0E0,0E0,0E0,0E0],"parents":[2147483647,0,0,1,1,2,2,3,3,4,4,5,5,6,6],"right_children":[2,4,6,8,10,12,14,-1,-1,-1,-1,-1,-1,-1,-1],"split_conditions":[5.729351E-1,8.4781616E2,1.4098164E3,8.1696355E-1,4.0666667E-1,1.4824945E3,8E-2,-5.89413E-3,-3.8131792E-2,1.8204061E-2,-5.2321024E-2,1.77174E-2,-7.896387E-2,4.5273523E-3,3.6502726E-2],"split_indices":[40,41,39,27,4,26,3,0,0,0,0,0,0,0,0],"split_type":[0,0,0,0,0,0,0,0,0,0,0,0,0,0,0],"sum_hessian":[2.1496458E2,1.4308069E2,7.1883896E1,1.0775808E2,3.532261E1,2.8708405E0,6.9013054E1,8.4738045E1,2.3020033E1,3.3189598E1,2.1330116E0,1.0259693E0,1.8448714E0,3.650193E1,3.2511124E1],"tree_param":{"num_deleted":"0","num_feature":"46","num_nodes":"15","size_leaf_vector":"1"}},{"base_weights":[1.5725438E-2,-3.6662742E-1,1.2006253E-1,-8.95158E-1,-1.6056076E-1,2.838012E-1,-1.8976912E-1,4.373499E-2,-6.862964E-2,4.5890734E-2,-1.4734996E-2,-3.2440376E-2,1.7840112E-2,2.1487353E-3,-3.5237864E-2],"categories":[],"categories_nodes":[],"categories_segments":[],"categories_sizes":[],"default_left":[0,0,0,0,0,0,0,0,0,0,0,0,0,0,0],"id":23,"left_children":[1,3,5,7,9,11,13,-1,-1,-1,-1,-1,-1,-1,-1],"loss_changes":[8.666657E0,4.9297695E0,8.706495E0,1.2057728E1,5.2948976E0,7.8557587E0,7.170397E0,0E0,0E0,0E0,0E0,0E0,0E0,0E0,0E0],"parents":[2147483647,0,0,1,1,2,2,3,3,4,4,5,5,6,6],"right_children":[2,4,6,8,10,12,14,-1,-1,-1,-1,-1,-1,-1,-1],"split_conditions":[4.7642934E-1,1.484381E3,1.5063717E3,-9.0044506E-2,1.4883068E3,5.5448175E2,9.150376E-2,4.373499E-2,-6.862964E-2,4.5890734E-2,-1.4734996E-2,-3.2440376E-2,1.7840112E-2,2.1487353E-3,-3.5237864E-2],"split_indices":[40,25,25,44,25,41,2,0,0,0,0,0,0,0,0],"split_type":[0,0,0,0,0,0,0,0,0,0,0,0,0,0,0],"sum_hessian":[2.1514099E2,4.558322E1,1.6955777E2,1.1848794E1,3.3734425E1,1.1098752E2,5.8570255E1,2.3404877E0,9.5083065E0,3.0856805E0,3.0648746E1,7.484409E0,1.0350311E2,4.0970566E1,1.7599691E1],"tree_param":{"num_deleted":"0","num_feature":"46","num_nodes":"15","size_leaf_vector":"1"}},{"base_weights":[3.565006E-2,-2.662118E-1,1.5579109E-1,-3.8559514E-1,8.116831E-1,-1.7090583E-1,2.753202E-1,-2.951014E-3,-4.295538E-2,1.0262271E-2,6.431349E-2,-1.7143179E-2,3.9985366E-2,6.440343E-2,1.0377913E-2],"categories":[],"categories_nodes":[],"categories_segments":[],"categories_sizes":[],"default_left":[0,0,0,0,0,0,0,0,0,0,0,0,0,0,0],"id":24,"left_children":[1,3,5,7,9,11,13,-1,-1,-1,-1,-1,-1,-1,-1],"loss_changes":[7.8784904E0,8.277242E0,6.1078763E0,8.670428E0,1.6048245E0,7.31621E0,7.5570602E0,0E0,0E0,0E0,0E0,0E0,0E0,0E0,0E0],"parents":[2147483647,0,0,1,1,2,2,3,3,4,4,5,5,6,6],"right_children":[2,4,6,8,10,12,14,-1,-1,-1,-1,-1,-1,-1,-1],"split_conditions":[7.182629E2,3.6666667E-1,-2.6639898E0,8.281947E-2,1.5061965E3,1.5432618E3,-2.0626245E-1,-2.951014E-3,-4.295538E-2,1.0262271E-2,6.431349E-2,-1.7143179E-2,3.9985366E-2,6.440343E-2,1.0377913E-2],"split_indices":[41,4,45,8,25,39,45,0,0,0,0,0,0,0,0],"split_type":[0,0,0,0,0,0,0,0,0,0,0,0,0,0,0],"sum_hessian":[2.1509822E2,6.0890697E1,1.5420753E2,5.5397377E1,5.4933214E0,4.1191933E1,1.13015594E2,3.34512E1,2.1946178E1,3.0405324E0,2.452789E0,3.5541935E1,5.6499968E0,5.958156E0,1.0705744E2],"tree_param":{"num_deleted":"0","num_feature":"46","num_nodes":"15","size_leaf_vector":"1"}},{"base_weights":[-2.6293032E-2,1.0887239E-1,-3.035716E-1,2.2060335E-2,1.1114169E0,-2.0803677E-1,-1.4799392E0,-4.264537E-2,4.4714175E-3,6.4530335E-2,-1.27657745E-2,-3.2865487E-3,-4.192477E-2,-1.649178E-2,-8.590483E-2],"categories":[],"categories_nodes":[],"categories_segments":[],"categories_sizes":[],"default_left":[0,0,0,0,0,0,0,0,0,0,0,0,0,0,0],"id":25,"left_children":[1,3,5,7,9,11,13,-1,-1,-1,-1,-1,-1,-1,-1],"loss_changes":[8.098041E0,1.2630446E1,7.6472974E0,8.024226E0,3.162364E0,5.9230013E0,8.4481907E-1,0E0,0E0,0E0,0E0,0E0,0E0,0E0,0E0],"parents":[2147483647,0,0,1,1,2,2,3,3,4,4,5,5,6,6],"right_children":[2,4,6,8,10,12,14,-1,-1,-1,-1,-1,-1,-1,-1],"split_conditions":[1.5063717E3,1.2400695E-2,1.4102684E2,5.530132E2,8E-1,9.8527175E-1,1.4885312E3,-4.264537E-2,4.4714175E-3,6.4530335E-2,-1.27657745E-2,-3.2865487E-3,-4.192477E-2,-1.649178E-2,-8.590483E-2],"split_indices":[25,42,1,41,27,27,26,0,0,0,0,0,0,0,0],"split_type":[0,0,0,0,0,0,0,0,0,0,0,0,0,0,0],"sum_hessian":[2.1418993E2,1.444043E2,6.978564E1,1.3383711E2,1.0567181E1,6.563236E1,4.15327E0,8.7344675E0,1.2510264E2,9.391569E0,1.1756114E0,5.4446968E1,1.1185396E1,1.1216369E0,3.0316331E0],"tree_param":{"num_deleted":"0","num_feature":"46","num_nodes":"15","size_leaf_vector":"1"}},{"base_weights":[-1.8070856E-2,-7.237983E-1,5.1206037E-2,-1.1428406E0,-1.0605189E-1,8.3654496E-4,9.6458524E-1,-1.6221778E-2,-6.776656E-2,6.007258E-2,-3.203858E-2,7.3585436E-3,-1.7084714E-2,-3.947174E-2,6.6259906E-2],"categories":[],"categories_nodes":[],"categories_segments":[],"categories_sizes":[],"default_left":[0,0,0,0,0,0,0,0,0,0,0,0,0,0,0],"id":26,"left_children":[1,3,5,7,9,11,13,-1,-1,-1,-1,-1,-1,-1,-1],"loss_changes":[1.0593543E1,4.8921757E0,9.087924E0,1.5492287E0,7.013183E0,9.485098E0,7.576374E0,0E0,0E0,0E0,0E0,0E0,0E0,0E0,0E0],"parents":[2147483647,0,0,1,1,2,2,3,3,4,4,5,5,6,6],"right_children":[2,4,6,8,10,12,14,-1,-1,-1,-1,-1,-1,-1,-1],"split_conditions":[4.1534868E-1,8.348461E2,1E0,4.2334753E-1,-1.7138735E1,1.5087294E3,-2.508102E0,-1.6221778E-2,-6.776656E-2,6.007258E-2,-3.203858E-2,7.3585436E-3,-1.7084714E-2,-3.947174E-2,6.6259906E-2],"split_indices":[40,41,0,45,1,25,28,0,0,0,0,0,0,0,0],"split_type":[0,0,0,0,0,0,0,0,0,0,0,0,0,0,0],"sum_hessian":[2.1492043E2,1.8366991E1,1.9655342E2,1.0437081E1,7.9299107E0,1.8722934E2,9.324091E0,2.67215E0,7.764931E0,1.9398015E0,5.990109E0,1.3158472E2,5.5644627E1,1.387269E0,7.936822E0],"tree_param":{"num_deleted":"0","num_feature":"46","num_nodes":"15","size_leaf_vector":"1"}},{"base_weights":[2.2309986E-3,-3.951874E-1,1.0876509E-1,-1.1345457E0,-1.4764968E-1,4.9999297E-1,-5.143874E-3,-6.542302E-2,9.7807925E-3,6.260871E-2,-1.5383041E-2,1.6569695E-2,6.798605E-2,-3.8492333E-3,6.0562164E-2],"categories":[],"categories_nodes":[],"categories_segments":[],"categories_sizes":[],"default_left":[0,0,0,0,0,0,0,0,0,0,0,0,0,0,0],"id":27,"left_children":[1,3,5,7,9,11,13,-1,-1,-1,-1,-1,-1,-1,-1],"loss_changes":[9.140411E0,8.185362E0,7.58893E0,2.8695383E0,8.301299E0,5.1151743E0,1.1701253E1,0E0,0E0,0E0,0E0,0E0,0E0,0E0,0E0],"parents":[2147483647,0,0,1,1,2,2,3,3,4,4,5,5,6,6],"right_children":[2,4,6,8,10,12,14,-1,-1,-1,-1,-1,-1,-1,-1],"split_conditions":[4.7642934E-1,1.484832E3,-4.773719E0,1.6031028E3,1.4883068E3,1.5505953E3,1.5449293E3,-6.542302E-2,9.7807925E-3,6.260871E-2,-1.5383041E-2,1.6569695E-2,6.798605E-2,-3.8492333E-3,6.0562164E-2],"split_indices":[40,25,8,39,25,38,39,0,0,0,0,0,0,0,0],"split_type":[0,0,0,0,0,0,0,0,0,0,0,0,0,0,0],"sum_hessian":[2.1387312E2,4.4639378E1,1.6923375E2,1.0297864E1,3.434151E1,3.7398094E1,1.3183565E2,9.121562E0,1.1763017E0,2.8226454E0,3.1518866E1,3.2424812E1,4.973284E0,1.2536803E2,6.4676247E0],"tree_param":{"num_deleted":"0","num_feature":"46","num_nodes":"15","size_leaf_vector":"1"}},{"base_weights":[3.0914962E-2,-3.8357508E-1,1.146744E-1,-5.14022E-1,6.775719E-1,6.363349E-1,4.025532E-2,3.8384557E-2,-2.935106E-2,5.3561505E-2,-3.0899812E-3,4.078457E-2,-4.748388E-2,-2.7791501E-3,2.287567E-2],"categories":[],"categories_nodes":[],"categories_segments":[],"categories_sizes":[],"default_left":[0,0,0,0,0,0,0,0,0,0,0,0,0,0,0],"id":28,"left_children":[1,3,5,7,9,11,13,-1,-1,-1,-1,-1,-1,-1,-1],"loss_changes":[7.462908E0,5.352809E0,6.905595E0,3.5162334E0,1.3437257E0,7.096183E0,6.3164577E0,0E0,0E0,0E0,0E0,0E0,0E0,0E0,0E0],"parents":[2147483647,0,0,1,1,2,2,3,3,4,4,5,5,6,6],"right_children":[2,4,6,8,10,12,14,-1,-1,-1,-1,-1,-1,-1,-1],"split_conditions":[6.5532056E2,6.528999E-1,1.4900563E3,-7.2E-1,1.1E1,3.7253373E0,9.403729E2,3.8384557E-2,-2.935106E-2,5.3561505E-2,-3.0899812E-3,4.078457E-2,-4.748388E-2,-2.7791501E-3,2.287567E-2],"split_indices":[41,40,38,3,32,13,41,0,0,0,0,0,0,0,0],"split_type":[0,0,0,0,0,0,0,0,0,0,0,0,0,0,0],"sum_hessian":[2.1269429E2,3.5153748E1,1.7754054E2,3.176453E1,3.3892183E0,2.1222815E1,1.5631772E2,1.1988481E0,3.0565683E1,1.9187784E0,1.4704399E0,1.9502989E1,1.7198269E0,1.2782492E2,2.8492802E1],"tree_param":{"num_deleted":"0","num_feature":"46","num_nodes":"15","size_leaf_vector":"1"}},{"base_weights":[2.0262452E-2,-3.057955E-1,1.2792414E-1,-8.535406E-1,-1.1767991E-1,2.1191157E-1,-3.6297652E-1,1.1964402E-2,-6.687761E-2,-1.2980101E-2,5.4631103E-2,6.7265606E-3,5.749181E-2,-3.822317E-2,2.8532907E-2],"categories":[],"categories_nodes":[],"categories_segments":[],"categories_sizes":[],"default_left":[0,0,0,0,0,0,0,0,0,0,0,0,0,0,0],"id":29,"left_children":[1,3,5,7,9,11,13,-1,-1,-1,-1,-1,-1,-1,-1],"loss_changes":[7.5618176E0,5.4111147E0,6.7481785E0,7.468299E0,7.321966E0,9.91901E0,9.435345E0,0E0,0E0,0E0,0E0,0E0,0E0,0E0,0E0],"parents":[2147483647,0,0,1,1,2,2,3,3,4,4,5,5,6,6],"right_children":[2,4,6,8,10,12,14,-1,-1,-1,-1,-1,-1,-1,-1],"split_conditions":[4.7891048E-1,1.484381E3,9.8527175E-1,-7.301658E-2,6E-2,1.5484967E3,8.471224E2,1.1964402E-2,-6.687761E-2,-1.2980101E-2,5.4631103E-2,6.7265606E-3,5.749181E-2,-3.822317E-2,2.8532907E-2],"split_indices":[40,25,27,44,35,39,41,0,0,0,0,0,0,0,0],"split_type":[0,0,0,0,0,0,0,0,0,0,0,0,0,0,0],"sum_hessian":[2.1329779E2,5.2489822E1,1.6080797E2,1.2514229E1,3.9975594E1,1.3780025E2,2.300771E1,3.996445E0,8.517784E0,3.6483036E1,3.492557E0,1.2835425E2,9.446008E0,1.6215729E1,6.7919817E0],"tree_param":{"num_deleted":"0","num_feature":"46","num_nodes":"15","size_leaf_vector":"1"}},{"base_weights":[-4.1899253E-3,-6.2000707E-2,6.60967E-1,-3.818923E-1,6.0869806E-2,1.1567503E0,-3.6319035E-1,4.1667324E-2,-2.2951558E-2,-8.709811E-4,3.0135205E-2,6.3548855E-2,3.0405512E-3,3.4498923E-2,-5.7908725E-2],"categories":[],"categories_nodes":[],"categories_segments":[],"categories_sizes":[],"default_left":[0,0,0,0,0,0,0,0,0,0,0,0,0,0,0],"id":30,"left_children":[1,3,5,7,9,11,13,-1,-1,-1,-1,-1,-1,-1,-1],"loss_changes":[8.262256E0,7.7906475E0,9.144368E0,5.5363016E0,6.1036654E0,1.4019432E0,6.128663E0,0E0,0E0,0E0,0E0,0E0,0E0,0E0,0E0],"parents":[2147483647,0,0,1,1,2,2,3,3,4,4,5,5,6,6],"right_children":[2,4,6,8,10,12,14,-1,-1,-1,-1,-1,-1,-1,-1],"split_conditions":[1.0427948E-2,7.182629E2,1.5089742E3,-5.5905538E0,1.5484967E3,2.5666957E0,5.403622E-1,4.1667324E-2,-2.2951558E-2,-8.709811E-4,3.0135205E-2,6.3548855E-2,3.0405512E-3,3.4498923E-2,-5.7908725E-2],"split_indices":[42,41,25,13,39,6,8,0,0,0,0,0,0,0,0],"split_type":[0,0,0,0,0,0,0,0,0,0,0,0,0,0,0],"sum_hessian":[2.1279929E2,1.9661746E2,1.6181826E1,5.3978127E1,1.4263934E2,1.0816305E1,5.36552E0,2.636695E0,5.134143E1,1.25477066E2,1.7162281E1,9.650722E0,1.1655837E0,2.3647985E0,3.0007215E0],"tree_param":{"num_deleted":"0","num_feature":"46","num_nodes":"15","size_leaf_vector":"1"}},{"base_weights":[1.245784E-2,-6.0826603E-2,5.831405E-1,-2.1811698E-1,1.974447E-1,3.1799087E-1,1.1912541E0,-1.132992E-3,-3.0719599E-2,-1.6916126E-2,1.9485906E-2,3.076656E-2,-2.1097435E-2,1.4119674E-2,6.506634E-2],"categories":[],"categories_nodes":[],"categories_segments":[],"categories_sizes":[],"default_left":[0,0,0,0,0,0,0,0,0,0,0,0,0,0,0],"id":31,"left_children":[1,3,5,7,9,11,13,-1,-1,-1,-1,-1,-1,-1,-1],"loss_changes":[9.147732E0,7.923699E0,3.63443E0,9.361259E0,7.749801E0,4.373136E0,3.521204E-1,0E0,0E0,0E0,0E0,0E0,0E0,0E0,0E0],"parents":[2147483647,0,0,1,1,2,2,3,3,4,4,5,5,6,6],"right_children":[2,4,6,8,10,12,14,-1,-1,-1,-1,-1,-1,-1,-1],"split_conditions":[9.641507E2,5.5147266E-1,1.2136476E0,4.0168333E-1,-2.6639898E0,1.06386375E-2,1.4835695E3,-1.132992E-3,-3.0719599E-2,-1.6916126E-2,1.9485906E-2,3.076656E-2,-2.1097435E-2,1.4119674E-2,6.506634E-2],"split_indices":[41,40,9,29,45,31,25,0,0,0,0,0,0,0,0],"split_type":[0,0,0,0,0,0,0,0,0,0,0,0,0,0,0],"sum_hessian":[2.1688118E2,1.9299152E2,2.388967E1,1.2004072E2,7.295079E1,1.769654E1,6.193128E0,8.1097626E1,3.8943096E1,1.9065485E1,5.3885307E1,1.2743889E1,4.952652E0,1.0542004E0,5.1389275E0],"tree_param":{"num_deleted":"0","num_feature":"46","num_nodes":"15","size_leaf_vector":"1"}},{"base_weights":[1.30665125E-2,-4.1588387E-1,9.200555E-2,-7.612085E-2,-8.296195E-1,4.7262996E-2,8.743705E-1,-4.4542857E-2,8.803119E-3,-1.9100146E-2,-6.9567025E-2,-1.8225542E-3,2.5394266E-2,-3.9830834E-2,6.239846E-2],"categories":[],"categories_nodes":[],"categories_segments":[],"categories_sizes":[],"default_left":[0,0,0,0,0,0,0,0,0,0,0,0,0,0,0],"id":32,"left_children":[1,3,5,7,9,11,13,-1,-1,-1,-1,-1,-1,-1,-1],"loss_changes":[7.215013E0,4.593056E0,6.253433E0,4.119927E0,3.1984816E0,6.6183105E0,7.031239E0,0E0,0E0,0E0,0E0,0E0,0E0,0E0,0E0],"parents":[2147483647,0,0,1,1,2,2,3,3,4,4,5,5,6,6],"right_children":[2,4,6,8,10,12,14,-1,-1,-1,-1,-1,-1,-1,-1],"split_conditions":[4.409897E-1,5.055652E-4,1E0,1.484832E3,2.8405606E-3,1.5356362E3,-2.508102E0,-4.4542857E-2,8.803119E-3,-1.9100146E-2,-6.9567025E-2,-1.8225542E-3,2.5394266E-2,-3.9830834E-2,6.239846E-2],"split_indices":[40,31,0,25,44,39,28,0,0,0,0,0,0,0,0],"split_type":[0,0,0,0,0,0,0,0,0,0,0,0,0,0,0],"sum_hessian":[2.109478E2,3.2123276E1,1.7882452E2,1.8288553E1,1.3834722E1,1.7015402E2,8.670504E0,3.7241728E0,1.4564381E1,8.634354E0,5.2003684E0,1.4476509E2,2.5388922E1,1.377428E0,7.293075E0],"tree_param":{"num_deleted":"0","num_feature":"46","num_nodes":"15","size_leaf_vector":"1"}},{"base_weights":[1.659249E-2,-6.271121E-1,6.951783E-2,4.5112636E-2,-8.018061E-1,2.848583E-2,7.92769E-1,1.8908339E-2,-5.415177E-2,3.9790846E-2,-6.623236E-4,-4.101323E-3,6.3177146E-2],"categories":[],"categories_nodes":[],"categories_segments":[],"categories_sizes":[],"default_left":[0,0,0,0,0,0,0,0,0,0,0,0,0],"id":33,"left_children":[1,3,5,-1,7,9,11,-1,-1,-1,-1,-1,-1],"loss_changes":[7.2862053E0,5.0652394E0,5.8337636E0,0E0,5.4252157E0,6.02381E0,4.4514666E0,0E0,0E0,0E0,0E0,0E0,0E0],"parents":[2147483647,0,0,1,1,2,2,4,4,5,5,6,6],"right_children":[2,4,6,-1,8,10,12,-1,-1,-1,-1,-1,-1],"split_conditions":[1.473858E3,-4.0196443E0,1E0,4.5112636E-2,-2.6534681E1,9.131916E-1,5.055166E-1,1.8908339E-2,-5.415177E-2,3.9790846E-2,-6.623236E-4,-4.101323E-3,6.3177146E-2],"split_indices":[26,13,0,0,30,43,40,0,0,0,0,0,0],"split_type":[0,0,0,0,0,0,0,0,0,0,0,0,0],"sum_hessian":[2.1159097E2,1.525105E1,1.9633992E2,1.136527E0,1.4114523E1,1.8678262E2,9.557299E0,2.650201E0,1.1464322E1,8.702389E0,1.7808023E2,3.6327174E0,5.9245806E0],"tree_param":{"num_deleted":"0","num_feature":"46","num_nodes":"13","size_leaf_vector":"1"}},{"base_weights":[-6.2244604E-3,-4.6242625E-1,5.1107764E-2,-6.5047354E-1,5.2830454E-2,-4.9400203E-2,4.3274546E-1,2.2307448E-2,-4.6285417E-2,-2.415642E-2,2.364812E-3,-9.852893E-3,3.362934E-2],"categories":[],"categories_nodes":[],"categories_segments":[],"categories_sizes":[],"default_left":[0,0,0,0,0,0,0,0,0,0,0,0,0],"id":34,"left_children":[1,3,5,7,-1,9,11,-1,-1,-1,-1,-1,-1],"loss_changes":[5.565481E0,7.47287E0,7.275937E0,6.9798937E0,0E0,6.339058E0,6.1034064E0,0E0,0E0,0E0,0E0,0E0,0E0],"parents":[2147483647,0,0,1,1,2,2,3,3,5,5,6,6],"right_children":[2,4,6,8,-1,10,12,-1,-1,-1,-1,-1,-1],"split_conditions":[1.4752155E3,2.533272E2,5.870516E-1,-1.1276363E0,5.2830454E-2,6.5669995E2,1.4936364E3,2.2307448E-2,-4.6285417E-2,-2.415642E-2,2.364812E-3,-9.852893E-3,3.362934E-2],"split_indices":[25,45,40,27,0,41,26,0,0,0,0,0,0],"split_type":[0,0,0,0,0,0,0,0,0,0,0,0,0],"sum_hessian":[2.1088431E2,2.2754816E1,1.8812949E2,2.075701E1,1.9978054E0,1.4960114E2,3.8528343E1,4.0398793E0,1.671713E1,2.6543764E1,1.2305737E2,1.0675018E1,2.7853327E1],"tree_param":{"num_deleted":"0","num_feature":"46","num_nodes":"13","size_leaf_vector":"1"}},{"base_weights":[2.7852096E-2,-2.932789E-1,1.14178486E-1,-1.7465419E-1,-1.1559603E0,2.8171188E-1,-1.1110948E-1,-3.8632795E-2,1.7394128E-3,-7.2060905E-2,-3.3227832E-3,-3.0936087E-2,1.7609034E-2,-1.9622775E-2,9.975088E-3],"categories":[],"categories_nodes":[],"categories_segments":[],"categories_sizes":[],"default_left":[0,0,0,0,0,0,0,0,0,0,0,0,0,0,0],"id":35,"left_children":[1,3,5,7,9,11,13,-1,-1,-1,-1,-1,-1,-1,-1],"loss_changes":[6.087958E0,4.561975E0,6.5551243E0,5.300045E0,1.5978332E0,6.5259013E0,6.58306E0,0E0,0E0,0E0,0E0,0E0,0E0,0E0,0E0],"parents":[2147483647,0,0,1,1,2,2,3,3,4,4,5,5,6,6],"right_children":[2,4,6,8,10,12,14,-1,-1,-1,-1,-1,-1,-1,-1],"split_conditions":[4.7642934E-1,8.064899E1,1.5024324E3,1.484381E3,2.3499992E-2,5.530132E2,4.6666667E-2,-3.8632795E-2,1.7394128E-3,-7.2060905E-2,-3.3227832E-3,-3.0936087E-2,1.7609034E-2,-1.9622775E-2,9.975088E-3],"split_indices":[40,30,25,25,31,41,3,0,0,0,0,0,0,0,0],"split_type":[0,0,0,0,0,0,0,0,0,0,0,0,0,0,0],"sum_hessian":[2.1739891E2,4.5551537E1,1.7184737E2,4.1102158E1,4.4493785E0,9.841298E1,7.343439E1,9.963937E0,3.113822E1,3.2703147E0,1.179064E0,6.578201E0,9.183478E1,3.839416E1,3.5040226E1],"tree_param":{"num_deleted":"0","num_feature":"46","num_nodes":"15","size_leaf_vector":"1"}},{"base_weights":[-2.5679303E-2,-1.5296766E-1,2.1872796E-1,1.8603837E-1,-3.0188075E-1,-4.582694E-1,3.1412873E-1,-1.4905591E-4,6.284096E-2,-2.8884957E-2,-4.578271E-3,-4.674678E-2,4.139511E-2,2.1463776E-2,-2.467668E-2],"categories":[],"categories_nodes":[],"categories_segments":[],"categories_sizes":[],"default_left":[0,0,0,0,0,0,0,0,0,0,0,0,0,0,0],"id":36,"left_children":[1,3,5,7,9,11,13,-1,-1,-1,-1,-1,-1,-1,-1],"loss_changes":[6.621208E0,7.114992E0,4.8540764E0,8.766405E0,5.6048985E0,6.545631E0,6.211611E0,0E0,0E0,0E0,0E0,0E0,0E0,0E0,0E0],"parents":[2147483647,0,0,1,1,2,2,3,3,4,4,5,5,6,6],"right_children":[2,4,6,8,10,12,14,-1,-1,-1,-1,-1,-1,-1,-1],"split_conditions":[5.729351E-1,-4.1118846E0,5E-1,-1.0227888E0,-4.7477894E-3,5.274963E0,1.5239584E3,-1.4905591E-4,6.284096E-2,-2.8884957E-2,-4.578271E-3,-4.674678E-2,4.139511E-2,2.1463776E-2,-2.467668E-2],"split_indices":[40,8,20,28,2,8,25,0,0,0,0,0,0,0,0],"split_type":[0,0,0,0,0,0,0,0,0,0,0,0,0,0,0],"sum_hessian":[2.1075531E2,1.3882748E2,7.1927826E1,4.2294106E1,9.653338E1,8.414185E0,6.3513638E1,3.6795925E1,5.498182E0,4.1007374E1,5.5526005E1,6.3382583E0,2.0759263E0,5.599854E1,7.515101E0],"tree_param":{"num_deleted":"0","num_feature":"46","num_nodes":"15","size_leaf_vector":"1"}},{"base_weights":[-8.096452E-3,-1.3588914E-1,2.4003875E-1,-3.2518384E-1,2.9343605E-2,-2.5251314E-1,4.0962788E-1,-9.540436E-3,-4.228167E-2,6.038547E-3,-3.6441818E-2,-3.071558E-2,2.601536E-2,2.9657772E-2,-1.6808918E-2],"categories":[],"categories_nodes":[],"categories_segments":[],"categories_sizes":[],"default_left":[0,0,0,0,0,0,0,0,0,0,0,0,0,0,0],"id":37,"left_children":[1,3,5,7,9,11,13,-1,-1,-1,-1,-1,-1,-1,-1],"loss_changes":[6.762139E0,4.4108653E0,6.159799E0,4.4310503E0,5.3597784E0,5.684844E0,7.6338835E0,0E0,0E0,0E0,0E0,0E0,0E0,0E0,0E0],"parents":[2147483647,0,0,1,1,2,2,3,3,4,4,5,5,6,6],"right_children":[2,4,6,8,10,12,14,-1,-1,-1,-1,-1,-1,-1,-1],"split_conditions":[5.729351E-1,7.751076E2,-3.143919E0,9.38782E-1,1.291754E2,1.5418633E3,5.6401234E-2,-9.540436E-3,-4.228167E-2,6.038547E-3,-3.6441818E-2,-3.071558E-2,2.601536E-2,2.9657772E-2,-1.6808918E-2],"split_indices":[40,41,45,27,1,38,2,0,0,0,0,0,0,0,0],"split_type":[0,0,0,0,0,0,0,0,0,0,0,0,0,0,0],"sum_hessian":[2.1122165E2,1.3971768E2,7.1503975E1,6.466632E1,7.505136E1,1.8188534E1,5.331544E1,5.2482468E1,1.2183853E1,6.772523E1,7.3261333E0,1.2528418E1,5.6601167E0,4.2950813E1,1.0364629E1],"tree_param":{"num_deleted":"0","num_feature":"46","num_nodes":"15","size_leaf_vector":"1"}},{"base_weights":[-1.4105624E-2,-9.863004E-2,3.9090663E-1,-5.3732328E-2,-9.943758E-1,-3.982538E-1,5.301599E-1,-1.1120083E-2,8.898029E-3,-6.422862E-2,1.1774381E-2,-5.421104E-2,3.688841E-2,-2.2167027E-2,3.2182448E-2],"categories":[],"categories_nodes":[],"categories_segments":[],"categories_sizes":[],"default_left":[0,0,0,0,0,0,0,0,0,0,0,0,0,0,0],"id":38,"left_children":[1,3,5,7,9,11,13,-1,-1,-1,-1,-1,-1,-1,-1],"loss_changes":[7.2108235E0,6.949733E0,4.208615E0,6.561171E0,3.248539E0,5.496661E0,3.7488365E0,0E0,0E0,0E0,0E0,0E0,0E0,0E0,0E0],"parents":[2147483647,0,0,1,1,2,2,3,3,4,4,5,5,6,6],"right_children":[2,4,6,8,10,12,14,-1,-1,-1,-1,-1,-1,-1,-1],"split_conditions":[9.1968317E2,1.4630533E2,-3.3666667E-1,5.3154206E-1,3.8666666E-1,1.4945823E3,4.1534868E-1,-1.1120083E-2,8.898029E-3,-6.422862E-2,1.1774381E-2,-5.421104E-2,3.688841E-2,-2.2167027E-2,3.2182448E-2],"split_indices":[41,30,3,40,3,25,40,0,0,0,0,0,0,0,0],"split_type":[0,0,0,0,0,0,0,0,0,0,0,0,0,0,0],"sum_hessian":[2.085107E2,1.7313466E2,3.5376026E1,1.6588019E2,7.2544727E0,5.0270977E0,3.034893E1,9.601943E1,6.9860756E1,5.8335214E0,1.4209515E0,3.1628594E0,1.8642384E0,2.865179E0,2.7483751E1],"tree_param":{"num_deleted":"0","num_feature":"46","num_nodes":"15","size_leaf_vector":"1"}},{"base_weights":[-1.5712982E-2,1.6103322E-2,-7.292175E-1,-2.280892E-1,1.1946631E-1,-1.0336993E0,1.7964577E-2,-1.6925875E-2,4.2688087E-2,5.2155394E-2,3.97223E-3,-1.3589732E-3,-7.003366E-2],"categories":[],"categories_nodes":[],"categories_segments":[],"categories_sizes":[],"default_left":[0,0,0,0,0,0,0,0,0,0,0,0,0],"id":39,"left_children":[1,3,5,7,9,11,-1,-1,-1,-1,-1,-1,-1],"loss_changes":[4.6138234E0,4.950394E0,3.246748E0,7.260087E0,5.007242E0,2.561223E0,0E0,0E0,0E0,0E0,0E0,0E0,0E0],"parents":[2147483647,0,0,1,1,2,2,3,3,4,4,5,5],"right_children":[2,4,6,8,10,12,-1,-1,-1,-1,-1,-1,-1],"split_conditions":[1.4210855E-14,7.21685E2,1.5471745E0,3.6666667E-1,9.131916E-1,-4.5063887E0,1.7964577E-2,-1.6925875E-2,4.2688087E-2,5.2155394E-2,3.97223E-3,-1.3589732E-3,-7.003366E-2],"split_indices":[7,41,28,4,43,8,0,0,0,0,0,0,0],"split_type":[0,0,0,0,0,0,0,0,0,0,0,0,0],"sum_hessian":[2.017252E2,1.9404965E2,7.675553E0,5.735149E1,1.3669817E2,6.037167E0,1.6383854E0,5.266308E1,4.688409E0,4.6362753E0,1.3206189E2,1.8999984E0,4.137169E0],"tree_param":{"num_deleted":"0","num_feature":"46","num_nodes":"13","size_leaf_vector":"1"}},{"base_weights":[8.727109E-3,-3.7429985E-2,5.462147E-1,-6.990298E-2,7.662257E-1,1.0862498E0,-4.748006E-1,2.28262E-3,-1.4747003E-2,6.0044337E-2,-8.9397E-3,5.9805512E-2,3.4229008E-3,2.337909E-2,-5.532781E-2],"categories":[],"categories_nodes":[],"categories_segments":[],"categories_sizes":[],"default_left":[0,0,0,0,0,0,0,0,0,0,0,0,0,0,0],"id":40,"left_children":[1,3,5,7,9,11,13,-1,-1,-1,-1,-1,-1,-1,-1],"loss_changes":[5.2375584E0,5.1319895E0,9.721077E0,4.901122E0,3.3534536E0,1.1730804E0,4.3701577E0,0E0,0E0,0E0,0E0,0E0,0E0,0E0,0E0],"parents":[2147483647,0,0,1,1,2,2,3,3,4,4,5,5,6,6],"right_children":[2,4,6,8,10,12,14,-1,-1,-1,-1,-1,-1,-1,-1],"split_conditions":[1.2400695E-2,1.5478598E-1,1.5089742E3,5.936073E-1,5.5E-1,2.5666957E0,5.403622E-1,2.28262E-3,-1.4747003E-2,6.0044337E-2,-8.9397E-3,5.9805512E-2,3.4229008E-3,2.337909E-2,-5.532781E-2],"split_indices":[42,31,25,28,3,6,8,0,0,0,0,0,0,0,0],"split_type":[0,0,0,0,0,0,0,0,0,0,0,0,0,0,0],"sum_hessian":[2.0929231E2,1.9359738E2,1.5694937E1,1.8695613E2,6.6412435E0,1.0223588E1,5.4713492E0,1.24052795E2,6.2903336E1,4.3635015E0,2.277742E0,9.069433E0,1.154155E0,2.3001347E0,3.1712146E0],"tree_param":{"num_deleted":"0","num_feature":"46","num_nodes":"15","size_leaf_vector":"1"}},{"base_weights":[2.820435E-3,-9.280751E-2,3.5284033E-1,-9.5229757E-1,-4.9578175E-2,-5.5001922E-2,4.4538763E-1,1.8223675E-3,-5.8253903E-2,1.1253005E-2,-9.860507E-3,-4.6826317E-3,3.3166073E-2],"categories":[],"categories_nodes":[],"categories_segments":[],"categories_sizes":[],"default_left":[0,0,0,0,0,0,0,0,0,0,0,0,0],"id":41,"left_children":[1,3,5,7,9,-1,11,-1,-1,-1,-1,-1,-1],"loss_changes":[7.0271277E0,6.0802703E0,6.5471196E0,1.6924248E0,6.4535317E0,0E0,5.120867E0,0E0,0E0,0E0,0E0,0E0,0E0],"parents":[2147483647,0,0,1,1,2,2,3,3,4,4,6,6],"right_children":[2,4,6,8,10,-1,12,-1,-1,-1,-1,-1,-1],"split_conditions":[5.870516E-1,5.4810095E2,1.4098164E3,4.409897E-1,-2.8753757E0,-5.5001922E-2,-4.1136956E0,1.8223675E-3,-5.8253903E-2,1.1253005E-2,-9.860507E-3,-4.6826317E-3,3.3166073E-2],"split_indices":[40,41,39,40,8,0,45,0,0,0,0,0,0],"split_type":[0,0,0,0,0,0,0,0,0,0,0,0,0],"sum_hessian":[2.0796414E2,1.6391597E2,4.404817E1,6.8425574E0,1.5707343E2,1.985891E0,4.2062275E1,1.3585196E0,5.484038E0,5.4731846E1,1.02341576E2,1.2273965E1,2.9788311E1],"tree_param":{"num_deleted":"0","num_feature":"46","num_nodes":"13","size_leaf_vector":"1"}},{"base_weights":[-4.023117E-2,-5.710251E-1,1.2788341E-2,-1.6084848E-2,-1.0832534E0,1.539295E-1,-1.6656253E-1,-3.2034174E-2,3.7189614E-2,-6.302852E-2,-1.0429635E-2,-1.0582443E-2,1.5060824E-2,1.42504E-2,-1.6518693E-2],"categories":[],"categories_nodes":[],"categories_segments":[],"categories_sizes":[],"default_left":[0,0,0,0,0,0,0,0,0,0,0,0,0,0,0],"id":42,"left_children":[1,3,5,7,9,11,13,-1,-1,-1,-1,-1,-1,-1,-1],"loss_changes":[5.9326997E0,5.4241486E0,4.896191E0,5.3193426E0,1.2786131E0,5.8893886E0,6.3976574E0,0E0,0E0,0E0,0E0,0E0,0E0,0E0,0E0],"parents":[2147483647,0,0,1,1,2,2,3,3,4,4,5,5,6,6],"right_children":[2,4,6,8,10,12,14,-1,-1,-1,-1,-1,-1,-1,-1],"split_conditions":[4.1534868E-1,3.6380574E-4,1.5029027E3,8.358838E2,1.5796975E3,-4.3780867E-2,1.5040946E3,-3.2034174E-2,3.7189614E-2,-6.302852E-2,-1.0429635E-2,-1.0582443E-2,1.5060824E-2,1.42504E-2,-1.6518693E-2],"split_indices":[40,44,25,41,39,44,38,0,0,0,0,0,0,0,0],"split_type":[0,0,0,0,0,0,0,0,0,0,0,0,0,0,0],"sum_hessian":[2.0955028E2,1.8143208E1,1.9140707E2,9.203586E0,8.939621E0,1.07192825E2,8.421425E1,5.1375318E0,4.0660543E0,7.0659533E0,1.8736676E0,3.0658627E1,7.6534195E1,2.2220432E1,6.1993813E1],"tree_param":{"num_deleted":"0","num_feature":"46","num_nodes":"15","size_leaf_vector":"1"}},{"base_weights":[2.8193388E-2,-9.938785E-2,2.532082E-1,9.296991E-3,-5.804305E-1,6.968165E-2,6.9723505E-1,-2.0293523E-2,8.867397E-3,6.48844E-2,-3.6243718E-2,3.9893147E-2,-2.3371964E-3,-2.356997E-2,4.7856044E-2],"categories":[],"categories_nodes":[],"categories_segments":[],"categories_sizes":[],"default_left":[0,0,0,0,0,0,0,0,0,0,0,0,0,0,0],"id":43,"left_children":[1,3,5,7,9,11,13,-1,-1,-1,-1,-1,-1,-1,-1],"loss_changes":[6.0966926E0,7.0993915E0,6.210551E0,7.862738E0,7.728812E0,4.738853E0,7.239526E0,0E0,0E0,0E0,0E0,0E0,0E0,0E0,0E0],"parents":[2147483647,0,0,1,1,2,2,3,3,4,4,5,5,6,6],"right_children":[2,4,6,8,10,12,14,-1,-1,-1,-1,-1,-1,-1,-1],"split_conditions":[8.3264197E2,9.38782E-1,2E1,4.7996494E-1,-8.1950066E1,1.472098E3,1.4835695E3,-2.0293523E-2,8.867397E-3,6.48844E-2,-3.6243718E-2,3.9893147E-2,-2.3371964E-3,-2.356997E-2,4.7856044E-2],"split_indices":[41,27,9,40,1,25,25,0,0,0,0,0,0,0,0],"split_type":[0,0,0,0,0,0,0,0,0,0,0,0,0,0,0],"sum_hessian":[2.1049496E2,1.3468703E2,7.5807945E1,1.1066459E2,2.4022436E1,5.4456676E1,2.1351269E1,3.147958E1,7.918501E1,1.145403E0,2.2877033E1,6.6998177E0,4.7756855E1,3.7362995E0,1.761497E1],"tree_param":{"num_deleted":"0","num_feature":"46","num_nodes":"15","size_leaf_vector":"1"}},{"base_weights":[-2.8850983E-3,-4.1840214E-2,6.952187E-1,-1.5502582E-1,1.9892837E-1,8.870263E-1,-2.4893401E-2,-3.8898457E-3,-4.2328876E-2,5.6960904E-3,4.190898E-2,-1.2043286E-2,5.4635014E-2],"categories":[],"categories_nodes":[],"categories_segments":[],"categories_sizes":[],"default_left":[0,0,0,0,0,0,0,0,0,0,0,0,0],"id":44,"left_children":[1,3,5,7,9,11,-1,-1,-1,-1,-1,-1,-1],"loss_changes":[5.702883E0,5.441695E0,2.9780312E0,7.177426E0,3.3785045E0,2.5616407E0,0E0,0E0,0E0,0E0,0E0,0E0,0E0],"parents":[2147483647,0,0,1,1,2,2,3,3,4,4,5,5],"right_children":[2,4,6,8,10,12,-1,-1,-1,-1,-1,-1,-1],"split_conditions":[9.930676E2,1.9E-1,2.371212E0,1.0260019E0,6.31376E-2,4.3026054E-1,-2.4893401E-2,-3.8898457E-3,-4.2328876E-2,5.6960904E-3,4.190898E-2,-1.2043286E-2,5.4635014E-2],"split_indices":[41,4,13,43,31,40,0,0,0,0,0,0,0],"split_type":[0,0,0,0,0,0,0,0,0,0,0,0,0],"sum_hessian":[2.0763596E2,1.9755234E2,1.0083616E1,1.3462233E2,6.2930004E1,8.908036E0,1.1755799E0,1.22099396E2,1.2522933E1,5.6583794E1,6.346208E0,1.3474845E0,7.5605516E0],"tree_param":{"num_deleted":"0","num_feature":"46","num_nodes":"13","size_leaf_vector":"1"}},{"base_weights":[-1.38490135E-2,-1.0819367E0,1.1076893E-2,-6.1583456E-2,-1.3385582E-2,1.3100806E-1,-1.726569E-1,3.5373722E-3,5.6375723E-2,-1.7176112E-2,1.4141619E-2],"categories":[],"categories_nodes":[],"categories_segments":[],"categories_sizes":[],"default_left":[0,0,0,0,0,0,0,0,0,0,0],"id":45,"left_children":[1,3,5,-1,-1,7,9,-1,-1,-1,-1],"loss_changes":[5.5630593E0,2.5120544E-1,4.534176E0,0E0,0E0,7.3933525E0,6.4239845E0,0E0,0E0,0E0,0E0],"parents":[2147483647,0,0,1,1,2,2,5,5,6,6],"right_children":[2,4,6,-1,-1,8,10,-1,-1,-1,-1],"split_conditions":[1.4644254E3,8.7050456E-1,4.9323863E-1,-6.1583456E-2,-1.3385582E-2,3.3162257E-1,2E0,3.5373722E-3,5.6375723E-2,-1.7176112E-2,1.4141619E-2],"split_indices":[26,27,5,0,0,6,29,0,0,0,0],"split_type":[0,0,0,0,0,0,0,0,0,0,0],"sum_hessian":[2.075063E2,3.7650692E0,2.0374124E2,2.7471855E0,1.0178839E0,1.2344814E2,8.02931E1,1.1741862E2,6.029529E0,5.8568436E1,2.172466E1],"tree_param":{"num_deleted":"0","num_feature":"46","num_nodes":"11","size_leaf_vector":"1"}},{"base_weights":[2.6806774E-2,-4.7084883E-1,7.7341735E-2,-9.291186E-2,-9.6964717E-1,5.753475E-1,6.811385E-3,1.6163995E-2,-4.1962247E-2,-6.777558E-5,-5.6213625E-2,3.81092E-2,-5.0652254E-2,-7.977939E-3,1.3361958E-2],"categories":[],"categories_nodes":[],"categories_segments":[],"categories_sizes":[],"default_left":[0,0,0,0,0,0,0,0,0,0,0,0,0,0,0],"id":46,"left_children":[1,3,5,7,9,11,13,-1,-1,-1,-1,-1,-1,-1,-1],"loss_changes":[5.3186994E0,3.5866117E0,6.723686E0,4.0614944E0,1.241395E0,7.8201704E0,7.355729E0,0E0,0E0,0E0,0E0,0E0,0E0,0E0,0E0],"parents":[2147483647,0,0,1,1,2,2,3,3,4,4,5,5,6,6],"right_children":[2,4,6,8,10,12,14,-1,-1,-1,-1,-1,-1,-1,-1],"split_conditions":[5.694886E2,1.5012158E3,1.4881033E3,1.5343297E3,-1.7749084E1,3.7253373E0,1.4333333E-1,1.6163995E-2,-4.1962247E-2,-6.777558E-5,-5.6213625E-2,3.81092E-2,-5.0652254E-2,-7.977939E-3,1.3361958E-2],"split_indices":[41,26,38,38,45,13,3,0,0,0,0,0,0,0,0],"split_type":[0,0,0,0,0,0,0,0,0,0,0,0,0,0,0],"sum_hessian":[2.0903944E2,1.8503578E1,1.9053587E2,1.12020855E1,7.3014917E0,2.2749207E1,1.6778667E2,7.555572E0,3.6465137E0,1.1443198E0,6.157172E0,2.0820343E1,1.9288626E0,1.0261806E2,6.516861E1],"tree_param":{"num_deleted":"0","num_feature":"46","num_nodes":"15","size_leaf_vector":"1"}},{"base_weights":[4.917356E-3,4.021661E-2,-6.87326E-1,-5.622495E-2,4.4353807E-1,-1.1356158E0,9.414793E-2,-5.0152056E-3,4.0760692E-2,-3.1689264E-2,3.0105645E-2,-7.963189E-2,-1.7841175E-2,3.2804143E-2,-4.388499E-2],"categories":[],"categories_nodes":[],"categories_segments":[],"categories_sizes":[],"default_left":[0,0,0,0,0,0,0,0,0,0,0,0,0,0,0],"id":47,"left_children":[1,3,5,7,9,11,13,-1,-1,-1,-1,-1,-1,-1,-1],"loss_changes":[5.136017E0,7.798715E0,3.679638E0,6.3113265E0,6.989488E0,1.765585E0,3.1103892E0,0E0,0E0,0E0,0E0,0E0,0E0,0E0,0E0],"parents":[2147483647,0,0,1,1,2,2,3,3,4,4,5,5,6,6],"right_children":[2,4,6,8,10,12,14,-1,-1,-1,-1,-1,-1,-1,-1],"split_conditions":[1.4630533E2,1.6497087E1,1.5850203E3,1.0427948E-2,-5.233333E-1,2.030317E2,1.635794E3,-5.0152056E-3,4.0760692E-2,-3.1689264E-2,3.0105645E-2,-7.963189E-2,-1.7841175E-2,3.2804143E-2,-4.388499E-2],"split_indices":[30,30,38,42,3,30,38,0,0,0,0,0,0,0,0],"split_type":[0,0,0,0,0,0,0,0,0,0,0,0,0,0,0],"sum_hessian":[2.0805397E2,1.9885571E2,9.198256E0,1.6117613E2,3.7679577E1,5.55721E0,3.641046E0,1.5425833E2,6.917806E0,4.450061E0,3.3229515E1,2.843524E0,2.713686E0,2.512942E0,1.128104E0],"tree_param":{"num_deleted":"0","num_feature":"46","num_nodes":"15","size_leaf_vector":"1"}},{"base_weights":[1.3177153E-2,5.24906E-2,-7.996791E-1,4.2286908E-4,7.973931E-1,-7.023691E-2,1.0942361E-1,-1.7748093E-2,3.5143842E-3,5.0481953E-2,-2.4237191E-2,3.9109167E-2,-3.816422E-2],"categories":[],"categories_nodes":[],"categories_segments":[],"categories_sizes":[],"default_left":[0,0,0,0,0,0,0,0,0,0,0,0,0],"id":48,"left_children":[1,3,5,7,9,-1,11,-1,-1,-1,-1,-1,-1],"loss_changes":[6.668921E0,7.7081594E0,5.449998E0,4.662077E0,4.022746E0,0E0,3.4007158E0,0E0,0E0,0E0,0E0,0E0,0E0],"parents":[2147483647,0,0,1,1,2,2,3,3,4,4,6,6],"right_children":[2,4,6,8,10,-1,12,-1,-1,-1,-1,-1,-1],"split_conditions":[1.4630533E2,1.2400695E-2,1.065429E2,6.5532056E2,9.797959E-1,-7.023691E-2,3.8154885E-2,-1.7748093E-2,3.5143842E-3,5.0481953E-2,-2.4237191E-2,3.9109167E-2,-3.816422E-2],"split_indices":[30,42,1,41,27,0,44,0,0,0,0,0,0],"split_type":[0,0,0,0,0,0,0,0,0,0,0,0,0],"sum_hessian":[2.06376E2,1.9774747E2,8.628548E0,1.857634E2,1.1984056E1,4.8532467E0,3.7753005E0,2.9848896E1,1.559145E2,1.0464319E1,1.5197378E0,2.1904433E0,1.5848571E0],"tree_param":{"num_deleted":"0","num_feature":"46","num_nodes":"13","size_leaf_vector":"1"}},{"base_weights":[-1.9620573E-2,-4.9529593E-2,8.262559E-1,-9.928788E-2,5.2982384E-1,-1.1826098E-2,6.487778E-2,3.4233425E-2,-6.721414E-3,4.876439E-2,-1.9728033E-2],"categories":[],"categories_nodes":[],"categories_segments":[],"categories_sizes":[],"default_left":[0,0,0,0,0,0,0,0,0,0,0],"id":49,"left_children":[1,3,5,7,9,-1,-1,-1,-1,-1,-1],"loss_changes":[5.381966E0,5.9578767E0,3.9465055E0,5.31215E0,7.1214542E0,0E0,0E0,0E0,0E0,0E0,0E0],"parents":[2147483647,0,0,1,1,2,2,3,3,4,4],"right_children":[2,4,6,8,10,-1,-1,-1,-1,-1,-1],"split_conditions":[1.5478598E-1,1.2400695E-2,6.0046094E2,1.4513677E3,1.5089742E3,-1.1826098E-2,6.487778E-2,3.4233425E-2,-6.721414E-3,4.876439E-2,-1.9728033E-2],"split_indices":[31,42,41,38,25,0,0,0,0,0,0],"split_type":[0,0,0,0,0,0,0,0,0,0,0],"sum_hessian":[2.101139E2,2.0384758E2,6.266322E0,1.8848776E2,1.5359818E1,2.0781827E0,4.1881394E0,7.293408E0,1.8119435E2,1.0327766E1,5.032052E0],"tree_param":{"num_deleted":"0","num_feature":"46","num_nodes":"11","size_leaf_vector":"1"}}]},"name":"gbtree"},"learner_model_param":{"base_score":"[5.1793724E-1]","boost_from_average":"1","num_class":"0","num_feature":"46","num_target":"1"},"objective":{"name":"binary:logistic","reg_loss_param":{"scale_pos_weight":"1"}}},"version":[3,2,0]}