{"learner":{"attributes":{"scikit_learn":"{\"_estimator_type\": \"classifier\"}"},"feature_names":["p1_target","elo_diff","finish_diff","edge_speed_diff","edge_burst_diff","l5_goal_diff","l5_xg_diff","l5_corsi_diff","l5_pdo_diff","l5_st_net","l5_royal_road_diff","l5_pressure_diff","l5_rebound_diff","l5_lateral_diff","p1_xg_diff","p2_xg_diff","p3_xg_diff","p1_p2_dominance","h_preservation_rate","a_preservation_rate","h_comeback_rate","a_comeback_rate","l5_nzt_possession_diff","l5_ca_shots_diff","l5_rush_sv_pct_diff","home_sos","away_sos","l5_std_diff","l10_goal_diff","l10_xg_diff","elo_rest_inter","speed_finish_inter","season_month","is_late_season","h_desperation","a_desperation","home_xg","away_xg","home_elo","away_elo","away_win_rate","home_win_rate_away_sos","away_b2b_home_strength","pressure_index","xg_efficiency","power_momentum"],"feature_types":["int","float","float","float","float","float","float","float","float","float","float","float","float","float","float","float","float","float","float","float","float","float","float","float","float","float","float","float","float","float","float","float","int","int","float","float","float","float","float","float","float","float","float","float","float","float"],"gradient_booster":{"model":{"cats":{"enc":[],"feature_segments":[],"sorted_idx":[]},"gbtree_model_param":{"num_parallel_tree":"1","num_trees":"50"},"iteration_indptr":[0,1,2,3,4,5,6,7,8,9,10,11,12,13,14,15,16,17,18,19,20,21,22,23,24,25,26,27,28,29,30,31,32,33,34,35,36,37,38,39,40,41,42,43,44,45,46,47,48,49,50],"tree_info":[0,0,0,0,0,0,0,0,0,0,0,0,0,0,0,0,0,0,0,0,0,0,0,0,0,0,0,0,0,0,0,0,0,0,0,0,0,0,0,0,0,0,0,0,0,0,0,0,0,0],"trees":[{"base_weights":[4.7654398E-2,-5.993426E-1,3.3476558E-1,-7.845425E-1,1.037218E0,9.0966545E-2,7.492664E-1,-1.1690362E-2,-5.714607E-2,7.131718E-4,7.533102E-2,-6.255664E-3,3.456265E-2,4.4118892E-2,-2.3283662E-2],"categories":[],"categories_nodes":[],"categories_segments":[],"categories_sizes":[],"default_left":[0,0,0,0,0,0,0,0,0,0,0,0,0,0,0],"id":0,"left_children":[1,3,5,7,9,11,13,-1,-1,-1,-1,-1,-1,-1,-1],"loss_changes":[3.677006E1,1.9262037E1,1.3776015E1,1.0637333E1,3.156518E0,1.1422933E1,8.593731E0,0E0,0E0,0E0,0E0,0E0,0E0,0E0,0E0],"parents":[2147483647,0,0,1,1,2,2,3,3,4,4,5,5,6,6],"right_children":[2,4,6,8,10,12,14,-1,-1,-1,-1,-1,-1,-1,-1],"split_conditions":[7.283927E2,3.2666665E-1,5.511992E-1,-3.0117269E0,5.045137E-1,9.151821E2,1.5231682E3,-1.1690362E-2,-5.714607E-2,7.131718E-4,7.533102E-2,-6.255664E-3,3.456265E-2,4.4118892E-2,-2.3283662E-2],"split_indices":[41,4,40,8,40,41,25,0,0,0,0,0,0,0,0],"split_type":[0,0,0,0,0,0,0,0,0,0,0,0,0,0,0],"sum_hessian":[1.9586377E2,5.9867203E1,1.3599657E2,5.42488E1,5.618403E0,8.639855E1,4.959801E1,2.2036625E1,3.2212177E1,2.0912943E0,3.5271084E0,6.411222E1,2.2286331E1,4.4947224E1,4.650789E0],"tree_param":{"num_deleted":"0","num_feature":"46","num_nodes":"15","size_leaf_vector":"1"}},{"base_weights":[-2.7450943E-2,-6.5690553E-1,2.3886572E-1,-8.114694E-1,6.849629E-1,-1.708254E-1,6.253189E-1,1.6226381E-3,-5.6547225E-2,-1.7162E-2,5.4792553E-2,-3.795536E-2,1.1609561E-2,4.476886E-2,1.3371897E-2],"categories":[],"categories_nodes":[],"categories_segments":[],"categories_sizes":[],"default_left":[0,0,0,0,0,0,0,0,0,0,0,0,0,0,0],"id":1,"left_children":[1,3,5,7,9,11,13,-1,-1,-1,-1,-1,-1,-1,-1],"loss_changes":[3.2600586E1,1.2545147E1,2.175511E1,1.4135654E1,3.1277292E0,1.6098083E1,6.581623E0,0E0,0E0,0E0,0E0,0E0,0E0,0E0,0E0],"parents":[2147483647,0,0,1,1,2,2,3,3,4,4,5,5,6,6],"right_children":[2,4,6,8,10,12,14,-1,-1,-1,-1,-1,-1,-1,-1],"split_conditions":[7.283927E2,3.6E-1,5.0526595E-1,-5.3850684E0,-1.2335653E0,8.115423E2,2.401271E-3,1.6226381E-3,-5.6547225E-2,-1.7162E-2,5.4792553E-2,-3.795536E-2,1.1609561E-2,4.476886E-2,1.3371897E-2],"split_indices":[41,4,40,8,5,41,44,0,0,0,0,0,0,0,0],"split_type":[0,0,0,0,0,0,0,0,0,0,0,0,0,0,0],"sum_hessian":[1.9253848E2,5.6806484E1,1.35732E2,5.1293484E1,5.513E0,6.615595E1,6.9576035E1,1.4332174E1,3.696131E1,1.6210753E0,3.8919249E0,2.6536772E1,3.9619183E1,3.879745E1,3.0778585E1],"tree_param":{"num_deleted":"0","num_feature":"46","num_nodes":"15","size_leaf_vector":"1"}},{"base_weights":[8.774218E-4,-4.119308E-1,3.392445E-1,-8.6842227E-1,-2.1445816E-2,4.1481337E-1,-6.4978856E-1,2.1713315E-2,-5.244839E-2,6.904779E-2,-9.127143E-3,1.3092472E-2,4.8246413E-2,-6.5886326E-2,2.613308E-2],"categories":[],"categories_nodes":[],"categories_segments":[],"categories_sizes":[],"default_left":[0,0,0,0,0,0,0,0,0,0,0,0,0,0,0],"id":2,"left_children":[1,3,5,7,9,11,13,-1,-1,-1,-1,-1,-1,-1,-1],"loss_changes":[2.7179876E1,1.5605641E1,8.261733E0,9.953934E0,1.1156661E1,8.158155E0,6.93813E0,0E0,0E0,0E0,0E0,0E0,0E0,0E0,0E0],"parents":[2147483647,0,0,1,1,2,2,3,3,4,4,5,5,6,6],"right_children":[2,4,6,8,10,12,14,-1,-1,-1,-1,-1,-1,-1,-1],"split_conditions":[7.588759E2,5.045137E-1,1.3561345E2,-2.6515577E1,1.4505166E3,2.0727432E-1,9.147722E2,2.1713315E-2,-5.244839E-2,6.904779E-2,-9.127143E-3,1.3092472E-2,4.8246413E-2,-6.5886326E-2,2.613308E-2],"split_indices":[41,40,30,30,38,30,41,0,0,0,0,0,0,0,0],"split_type":[0,0,0,0,0,0,0,0,0,0,0,0,0,0,0],"sum_hessian":[1.9258528E2,8.665215E1,1.0593313E2,3.9385307E1,4.726685E1,9.8953026E1,6.9800963E0,4.623084E0,3.4762222E1,4.089988E0,4.317686E1,7.857938E1,2.037365E1,4.36785E0,2.6122468E0],"tree_param":{"num_deleted":"0","num_feature":"46","num_nodes":"15","size_leaf_vector":"1"}},{"base_weights":[-2.7758919E-2,-3.6556458E-1,4.3048537E-1,-7.400186E-1,1.5877199E-1,8.539429E-1,1.1957114E-1,-2.6507515E-2,-6.7666195E-2,-1.368614E-2,2.3467688E-2,5.8915954E-2,1.8755065E-2,-1.9608045E-2,3.398174E-2],"categories":[],"categories_nodes":[],"categories_segments":[],"categories_sizes":[],"default_left":[0,0,0,0,0,0,0,0,0,0,0,0,0,0,0],"id":3,"left_children":[1,3,5,7,9,11,13,-1,-1,-1,-1,-1,-1,-1,-1],"loss_changes":[3.1406065E1,2.3039345E1,1.1236688E1,8.071571E0,6.772448E0,5.196186E0,1.4832594E1,0E0,0E0,0E0,0E0,0E0,0E0,0E0,0E0],"parents":[2147483647,0,0,1,1,2,2,3,3,4,4,5,5,6,6],"right_children":[2,4,6,8,10,12,14,-1,-1,-1,-1,-1,-1,-1,-1],"split_conditions":[5.3498745E-1,8.115423E2,1.4967058E3,1.5123867E3,1.4946179E3,1.5023092E3,8E-2,-2.6507515E-2,-6.7666195E-2,-1.368614E-2,2.3467688E-2,5.8915954E-2,1.8755065E-2,-1.9608045E-2,3.398174E-2],"split_indices":[40,41,25,25,25,26,3,0,0,0,0,0,0,0,0],"split_type":[0,0,0,0,0,0,0,0,0,0,0,0,0,0,0],"sum_hessian":[2.0086821E2,1.15745735E2,8.512247E1,6.728379E1,4.8461945E1,3.529923E1,4.9823242E1,5.1518852E1,1.5764939E1,2.0305115E1,2.815683E1,2.0172935E1,1.5126294E1,2.6191643E1,2.3631598E1],"tree_param":{"num_deleted":"0","num_feature":"46","num_nodes":"15","size_leaf_vector":"1"}},{"base_weights":[3.24102E-2,-5.7728916E-1,2.8683993E-1,-7.1039367E-1,7.232612E-1,-6.514815E-2,6.1629516E-1,6.8357954E-4,-5.1705252E-2,6.690841E-2,-4.1309875E-3,7.4689716E-2,-8.471487E-3,-5.630582E-3,3.7607566E-2],"categories":[],"categories_nodes":[],"categories_segments":[],"categories_sizes":[],"default_left":[0,0,0,0,0,0,0,0,0,0,0,0,0,0,0],"id":4,"left_children":[1,3,5,7,9,11,13,-1,-1,-1,-1,-1,-1,-1,-1],"loss_changes":[3.052627E1,1.0546818E1,1.6131237E1,1.2455769E1,3.0225964E0,1.1306116E1,7.1917553E0,0E0,0E0,0E0,0E0,0E0,0E0,0E0,0E0],"parents":[2147483647,0,0,1,1,2,2,3,3,4,4,5,5,6,6],"right_children":[2,4,6,8,10,12,14,-1,-1,-1,-1,-1,-1,-1,-1],"split_conditions":[7.280136E2,3.6E-1,5.0526595E-1,-4.520402E0,1E1,-6.2733315E1,1.4340026E3,6.8357954E-4,-5.1705252E-2,6.690841E-2,-4.1309875E-3,7.4689716E-2,-8.471487E-3,-5.630582E-3,3.7607566E-2],"split_indices":[41,4,40,8,32,45,39,0,0,0,0,0,0,0,0],"split_type":[0,0,0,0,0,0,0,0,0,0,0,0,0,0,0],"sum_hessian":[1.9471672E2,5.6957767E1,1.3775896E2,5.2081295E1,4.8764715E0,6.698974E1,7.076921E1,1.638646E1,3.5694836E1,2.391327E0,2.4851446E0,3.3647203E0,6.3625023E1,1.1144877E1,5.962433E1],"tree_param":{"num_deleted":"0","num_feature":"46","num_nodes":"15","size_leaf_vector":"1"}},{"base_weights":[2.6418123E-2,-5.516652E-1,2.8755894E-1,-7.3052233E-1,3.0130032E-1,1.8459098E-2,6.0983616E-1,-1.2160148E-2,-5.231154E-2,4.8784126E-2,-1.0001676E-2,-2.283456E-2,1.5161377E-2,4.847386E-2,6.776642E-3],"categories":[],"categories_nodes":[],"categories_segments":[],"categories_sizes":[],"default_left":[0,0,0,0,0,0,0,0,0,0,0,0,0,0,0],"id":5,"left_children":[1,3,5,7,9,11,13,-1,-1,-1,-1,-1,-1,-1,-1],"loss_changes":[3.1007189E1,9.9731045E0,1.2253205E1,7.921158E0,4.1811123E0,1.070583E1,1.0840187E1,0E0,0E0,0E0,0E0,0E0,0E0,0E0,0E0],"parents":[2147483647,0,0,1,1,2,2,3,3,4,4,5,5,6,6],"right_children":[2,4,6,8,10,12,14,-1,-1,-1,-1,-1,-1,-1,-1],"split_conditions":[7.283927E2,5.8393615E-1,5.3498745E-1,-2.8753757E0,-5.9815425E-1,8.115423E2,1.5028652E3,-1.2160148E-2,-5.231154E-2,4.8784126E-2,-1.0001676E-2,-2.283456E-2,1.5161377E-2,4.847386E-2,6.776642E-3],"split_indices":[41,40,40,8,28,41,25,0,0,0,0,0,0,0,0],"split_type":[0,0,0,0,0,0,0,0,0,0,0,0,0,0,0],"sum_hessian":[2.0334763E2,6.2929363E1,1.4041826E2,5.2139793E1,1.0789572E1,7.7098595E1,6.3319664E1,2.1194637E1,3.0945154E1,4.197296E0,6.592275E0,2.8665335E1,4.8433258E1,3.541909E1,2.7900574E1],"tree_param":{"num_deleted":"0","num_feature":"46","num_nodes":"15","size_leaf_vector":"1"}},{"base_weights":[-1.3691549E-2,-5.929257E-1,2.3353264E-1,-7.262745E-1,6.324628E-1,-5.2045083E-1,3.3993924E-1,8.082993E-3,-4.288083E-2,-1.6048243E-2,5.177198E-2,-4.5212638E-2,2.5439924E-2,7.6295817E-3,3.6573965E-2],"categories":[],"categories_nodes":[],"categories_segments":[],"categories_sizes":[],"default_left":[0,0,0,0,0,0,0,0,0,0,0,0,0,0,0],"id":6,"left_children":[1,3,5,7,9,11,13,-1,-1,-1,-1,-1,-1,-1,-1],"loss_changes":[2.7864582E1,9.969561E0,1.112146E1,6.3143234E0,2.7322757E0,7.280663E0,8.701911E0,0E0,0E0,0E0,0E0,0E0,0E0,0E0,0E0],"parents":[2147483647,0,0,1,1,2,2,3,3,4,4,5,5,6,6],"right_children":[2,4,6,8,10,12,14,-1,-1,-1,-1,-1,-1,-1,-1],"split_conditions":[7.283927E2,3.6E-1,4.2998707E-1,1.4528596E3,-1.2335653E0,8.8915485E-1,2.0333333E-1,8.082993E-3,-4.288083E-2,-1.6048243E-2,5.177198E-2,-4.5212638E-2,2.5439924E-2,7.6295817E-3,3.6573965E-2],"split_indices":[41,4,40,38,5,27,3,0,0,0,0,0,0,0,0],"split_type":[0,0,0,0,0,0,0,0,0,0,0,0,0,0,0],"sum_hessian":[1.9261719E2,5.720061E1,1.3541658E2,5.195418E1,5.2464285E0,1.6266077E1,1.191505E2,6.664972E0,4.528921E1,1.6191344E0,3.627294E0,1.1936472E1,4.3296056E0,8.152933E1,3.7621166E1],"tree_param":{"num_deleted":"0","num_feature":"46","num_nodes":"15","size_leaf_vector":"1"}},{"base_weights":[3.616707E-2,-3.951287E-1,4.1980714E-1,-8.5073566E-1,-1.1273832E-2,8.7926227E-1,2.555486E-1,9.371888E-3,-5.1199097E-2,1.047451E-2,-5.8222104E-2,4.937009E-2,-3.7244845E-2,1.654688E-2,-4.0581793E-2],"categories":[],"categories_nodes":[],"categories_segments":[],"categories_sizes":[],"default_left":[0,0,0,0,0,0,0,0,0,0,0,0,0,0,0],"id":7,"left_children":[1,3,5,7,9,11,13,-1,-1,-1,-1,-1,-1,-1,-1],"loss_changes":[3.2326576E1,1.6082867E1,7.575247E0,7.7572346E0,1.3215737E1,5.4440823E0,6.5072947E0,0E0,0E0,0E0,0E0,0E0,0E0,0E0,0E0],"parents":[2147483647,0,0,1,1,2,2,3,3,4,4,5,5,6,6],"right_children":[2,4,6,8,10,12,14,-1,-1,-1,-1,-1,-1,-1,-1],"split_conditions":[7.628939E2,5.045137E-1,-1.0333333E-1,-2.6515577E1,9.0501446E-1,1.4210855E-14,1.3561345E2,9.371888E-3,-5.1199097E-2,1.047451E-2,-5.8222104E-2,4.937009E-2,-3.7244845E-2,1.654688E-2,-4.0581793E-2],"split_indices":[41,40,4,30,27,7,30,0,0,0,0,0,0,0,0],"split_type":[0,0,0,0,0,0,0,0,0,0,0,0,0,0,0],"sum_hessian":[1.933687E2,9.101636E1,1.0235234E2,4.1062252E1,4.9954105E1,2.5808706E1,7.654363E1,5.8606377E0,3.5201614E1,4.2614304E1,7.3398023E0,2.4565166E1,1.243541E0,7.213753E1,4.4061084E0],"tree_param":{"num_deleted":"0","num_feature":"46","num_nodes":"15","size_leaf_vector":"1"}},{"base_weights":[1.32001825E-2,-6.7732817E-1,1.5582554E-1,-9.115518E-1,9.391481E-1,-4.0464357E-2,4.7733003E-1,-5.0302964E-2,3.225147E-2,6.1744153E-2,1.3446554E-2,2.4016801E-2,-1.4116913E-2,-2.7227072E-2,2.9951526E-2],"categories":[],"categories_nodes":[],"categories_segments":[],"categories_sizes":[],"default_left":[0,0,0,0,0,0,0,0,0,0,0,0,0,0,0],"id":8,"left_children":[1,3,5,7,9,11,13,-1,-1,-1,-1,-1,-1,-1,-1],"loss_changes":[1.9471941E1,1.3671966E1,1.0355801E1,5.072891E0,6.146321E-1,1.3062592E1,8.057691E0,0E0,0E0,0E0,0E0,0E0,0E0,0E0,0E0],"parents":[2147483647,0,0,1,1,2,2,3,3,4,4,5,5,6,6],"right_children":[2,4,6,8,10,12,14,-1,-1,-1,-1,-1,-1,-1,-1],"split_conditions":[6.5495544E2,6.2024546E-1,5.511992E-1,3.2666665E-1,1.5127706E3,-1.6333333E-1,5E-1,-5.0302964E-2,3.225147E-2,6.1744153E-2,1.3446554E-2,2.4016801E-2,-1.4116913E-2,-2.7227072E-2,2.9951526E-2],"split_indices":[41,40,40,4,38,4,20,0,0,0,0,0,0,0,0],"split_type":[0,0,0,0,0,0,0,0,0,0,0,0,0,0,0],"sum_hessian":[1.9563942E2,3.284921E1,1.6279022E2,2.9072725E1,3.7764828E0,1.01621086E2,6.1169132E1,2.7742048E1,1.3306783E0,2.035709E0,1.7407737E0,3.1915363E1,6.970572E1,6.139948E0,5.5029186E1],"tree_param":{"num_deleted":"0","num_feature":"46","num_nodes":"15","size_leaf_vector":"1"}},{"base_weights":[-2.8287418E-2,-4.9690062E-1,1.775604E-1,-2.8207326E-1,-1.3254033E0,-3.7827194E-1,3.1991288E-1,-4.279689E-2,-2.1292186E-4,-7.308056E-2,-3.6253005E-3,-3.4303013E-2,1.720059E-2,4.194657E-2,6.1952765E-3],"categories":[],"categories_nodes":[],"categories_segments":[],"categories_sizes":[],"default_left":[0,0,0,0,0,0,0,0,0,0,0,0,0,0,0],"id":9,"left_children":[1,3,5,7,9,11,13,-1,-1,-1,-1,-1,-1,-1,-1],"loss_changes":[1.8802542E1,1.021167E1,1.0844767E1,7.728387E0,1.9377384E0,6.4810457E0,1.0927737E1,0E0,0E0,0E0,0E0,0E0,0E0,0E0,0E0],"parents":[2147483647,0,0,1,1,2,2,3,3,4,4,5,5,6,6],"right_children":[2,4,6,8,10,12,14,-1,-1,-1,-1,-1,-1,-1,-1],"split_conditions":[7.280136E2,8.087657E-1,4.7616392E-1,4.9161008E-1,1.6497087E1,9.147722E2,1.4918783E3,-4.279689E-2,-2.1292186E-4,-7.308056E-2,-3.6253005E-3,-3.4303013E-2,1.720059E-2,4.194657E-2,6.1952765E-3],"split_indices":[41,27,40,40,30,41,26,0,0,0,0,0,0,0,0],"split_type":[0,0,0,0,0,0,0,0,0,0,0,0,0,0,0],"sum_hessian":[1.9300507E2,5.8474274E1,1.3453079E2,4.7498558E1,1.09757185E1,2.7091496E1,1.0743929E2,1.4815059E1,3.26835E1,9.749249E0,1.226469E0,1.9031649E1,8.059846E0,2.8552767E1,7.888653E1],"tree_param":{"num_deleted":"0","num_feature":"46","num_nodes":"15","size_leaf_vector":"1"}},{"base_weights":[1.6426964E-2,-3.700956E-1,2.5646648E-1,-5.40703E-1,6.063206E-1,-1.3590401E-1,4.8559687E-1,-3.3150136E-2,4.5730777E-2,-6.4866744E-2,4.9414884E-2,2.6339681E-3,-6.707476E-2,4.6228684E-2,1.00069195E-2],"categories":[],"categories_nodes":[],"categories_segments":[],"categories_sizes":[],"default_left":[0,0,0,0,0,0,0,0,0,0,0,0,0,0,0],"id":10,"left_children":[1,3,5,7,9,11,13,-1,-1,-1,-1,-1,-1,-1,-1],"loss_changes":[1.8627123E1,1.3143411E1,1.119705E1,1.2356522E1,9.945562E0,1.062602E1,9.6371765E0,0E0,0E0,0E0,0E0,0E0,0E0,0E0,0E0],"parents":[2147483647,0,0,1,1,2,2,3,3,4,4,5,5,6,6],"right_children":[2,4,6,8,10,12,14,-1,-1,-1,-1,-1,-1,-1,-1],"split_conditions":[4.9204034E-1,9.331654E2,2.545673E0,1.5356621E3,1.4834608E3,3.6042696E-1,4.8306948E-1,-3.3150136E-2,4.5730777E-2,-6.4866744E-2,4.9414884E-2,2.6339681E-3,-6.707476E-2,4.6228684E-2,1.00069195E-2],"split_indices":[40,41,45,26,25,5,5,0,0,0,0,0,0,0,0],"split_type":[0,0,0,0,0,0,0,0,0,0,0,0,0,0,0],"sum_hessian":[1.987421E2,7.5931656E1,1.2281043E2,6.50175E1,1.0914151E1,4.5426853E1,7.7383575E1,6.0479458E1,4.5380487E0,1.4235E0,9.490651E0,4.0109127E1,5.3177257E0,2.9610212E1,4.777337E1],"tree_param":{"num_deleted":"0","num_feature":"46","num_nodes":"15","size_leaf_vector":"1"}},{"base_weights":[-5.372421E-2,-5.543596E-1,1.2148006E-1,-3.221358E-1,-1.2625092E0,1.865698E-1,-1.0155166E0,-2.3193955E-2,3.980529E-2,-1.22021055E-2,-6.915845E-2,1.8329489E-4,2.5481084E-2,-6.784418E-2,1.3537573E-2],"categories":[],"categories_nodes":[],"categories_segments":[],"categories_sizes":[],"default_left":[0,0,0,0,0,0,0,0,0,0,0,0,0,0,0],"id":11,"left_children":[1,3,5,7,9,11,13,-1,-1,-1,-1,-1,-1,-1,-1],"loss_changes":[1.6708208E1,7.710884E0,1.0650788E1,6.4740305E0,1.1183453E0,7.9481673E0,3.7963428E0,0E0,0E0,0E0,0E0,0E0,0E0,0E0,0E0],"parents":[2147483647,0,0,1,1,2,2,3,3,4,4,5,5,6,6],"right_children":[2,4,6,8,10,12,14,-1,-1,-1,-1,-1,-1,-1,-1],"split_conditions":[7.190568E2,7.9421496E-1,1.4630533E2,3.6E-1,-4.6666667E-1,5.511992E-1,9.147722E2,-2.3193955E-2,3.980529E-2,-1.22021055E-2,-6.915845E-2,1.8329489E-4,2.5481084E-2,-6.784418E-2,1.3537573E-2],"split_indices":[41,27,30,4,3,40,41,0,0,0,0,0,0,0,0],"split_type":[0,0,0,0,0,0,0,0,0,0,0,0,0,0,0],"sum_hessian":[1.8871846E2,4.836225E1,1.4035622E2,3.7514877E1,1.0847371E1,1.3354695E2,6.8092623E0,3.3813946E1,3.7009337E0,1.4691446E0,9.378227E0,8.591524E1,4.7631718E1,5.3377576E0,1.4715048E0],"tree_param":{"num_deleted":"0","num_feature":"46","num_nodes":"15","size_leaf_vector":"1"}},{"base_weights":[-1.6423255E-2,-6.580175E-1,1.2313406E-1,-1.1441255E0,-1.5445842E-1,-5.654809E-1,2.1775867E-1,-6.65363E-2,1.3777486E-2,4.214155E-2,-2.4779864E-2,-4.313714E-2,2.4758372E-2,1.7610897E-3,2.905262E-2],"categories":[],"categories_nodes":[],"categories_segments":[],"categories_sizes":[],"default_left":[0,0,0,0,0,0,0,0,0,0,0,0,0,0,0],"id":12,"left_children":[1,3,5,7,9,11,13,-1,-1,-1,-1,-1,-1,-1,-1],"loss_changes":[1.7833223E1,8.532272E0,1.0788743E1,5.1209927E0,6.7564116E0,6.7496977E0,9.570642E0,0E0,0E0,0E0,0E0,0E0,0E0,0E0,0E0],"parents":[2147483647,0,0,1,1,2,2,3,3,4,4,5,5,6,6],"right_children":[2,4,6,8,10,12,14,-1,-1,-1,-1,-1,-1,-1,-1],"split_conditions":[6.5495544E2,5.045137E-1,4.2998707E-1,1.2E1,-2.2464191E1,1.112932E0,1.4666666E-1,-6.65363E-2,1.3777486E-2,4.214155E-2,-2.4779864E-2,-4.313714E-2,2.4758372E-2,1.7610897E-3,2.905262E-2],"split_indices":[41,40,40,32,1,27,3,0,0,0,0,0,0,0,0],"split_type":[0,0,0,0,0,0,0,0,0,0,0,0,0,0,0],"sum_hessian":[1.972618E2,3.4578266E1,1.6268353E2,1.6946745E1,1.7631521E1,1.905293E1,1.436306E2,1.50334215E1,1.9133224E0,4.1190886E0,1.3512433E1,1.5027771E1,4.0251594E0,9.632771E1,4.730289E1],"tree_param":{"num_deleted":"0","num_feature":"46","num_nodes":"15","size_leaf_vector":"1"}},{"base_weights":[4.221974E-3,-3.109417E-1,2.92016E-1,-6.669047E-1,9.626055E-3,4.233795E-1,-2.7484855E-1,7.470108E-3,-4.1015394E-2,1.0114928E-2,-4.856157E-2,-5.351202E-2,2.492836E-2,2.118889E-2,-5.5405047E-2],"categories":[],"categories_nodes":[],"categories_segments":[],"categories_sizes":[],"default_left":[0,0,0,0,0,0,0,0,0,0,0,0,0,0,0],"id":13,"left_children":[1,3,5,7,9,11,13,-1,-1,-1,-1,-1,-1,-1,-1],"loss_changes":[1.7443325E1,1.0481604E1,7.6011934E0,5.571333E0,9.510863E0,9.742037E0,1.1831039E1,0E0,0E0,0E0,0E0,0E0,0E0,0E0,0E0],"parents":[2147483647,0,0,1,1,2,2,3,3,4,4,5,5,6,6],"right_children":[2,4,6,8,10,12,14,-1,-1,-1,-1,-1,-1,-1,-1],"split_conditions":[7.628939E2,5.045137E-1,1.3584432E-1,-2.6515577E1,9.38782E-1,1.4178638E3,1.5030599E3,7.470108E-3,-4.1015394E-2,1.0114928E-2,-4.856157E-2,-5.351202E-2,2.492836E-2,2.118889E-2,-5.5405047E-2],"split_indices":[41,40,2,30,27,39,25,0,0,0,0,0,0,0,0],"split_type":[0,0,0,0,0,0,0,0,0,0,0,0,0,0,0],"sum_hessian":[1.9031311E2,9.079879E1,9.951432E1,4.2512222E1,4.8286568E1,8.099735E1,1.8516966E1,6.729341E0,3.5782883E1,4.1022217E1,7.264353E0,3.2476563E0,7.7749695E1,1.0339448E1,8.177517E0],"tree_param":{"num_deleted":"0","num_feature":"46","num_nodes":"15","size_leaf_vector":"1"}},{"base_weights":[3.0005183E-2,-1.1807658E-1,6.614922E-1,-3.2554603E-1,3.4381515E-1,8.1841886E-1,-6.829558E-1,-5.4298785E-2,-1.1468872E-2,-1.7061437E-2,2.7773121E-2,4.8334707E-2,-1.0806947E-2,2.1789677E-2,-6.17852E-2],"categories":[],"categories_nodes":[],"categories_segments":[],"categories_sizes":[],"default_left":[0,0,0,0,0,0,0,0,0,0,0,0,0,0,0],"id":14,"left_children":[1,3,5,7,9,11,13,-1,-1,-1,-1,-1,-1,-1,-1],"loss_changes":[1.7745634E1,1.4859323E1,8.162671E0,7.5543823E0,7.175905E0,5.229391E0,3.205053E0,0E0,0E0,0E0,0E0,0E0,0E0,0E0,0E0],"parents":[2147483647,0,0,1,1,2,2,3,3,4,4,5,5,6,6],"right_children":[2,4,6,8,10,12,14,-1,-1,-1,-1,-1,-1,-1,-1],"split_conditions":[8.6526746E2,5.726912E-1,5.4E-1,1.4752155E3,-6.093802E0,1.8748903E0,1.4631997E3,-5.4298785E-2,-1.1468872E-2,-1.7061437E-2,2.7773121E-2,4.8334707E-2,-1.0806947E-2,2.1789677E-2,-6.17852E-2],"split_indices":[41,40,4,25,45,13,39,0,0,0,0,0,0,0,0],"split_type":[0,0,0,0,0,0,0,0,0,0,0,0,0,0,0],"sum_hessian":[1.8793384E2,1.5289374E2,3.5040092E1,1.0570781E2,4.7185936E1,3.1727999E1,3.3120937E0,1.0712095E1,9.499571E1,1.0992853E1,3.6193085E1,2.7808077E1,3.9199216E0,1.1652474E0,2.1468463E0],"tree_param":{"num_deleted":"0","num_feature":"46","num_nodes":"15","size_leaf_vector":"1"}},{"base_weights":[6.1595142E-2,-1.257418E-1,4.2722976E-1,-2.9980633E-1,4.886865E-1,2.0243289E-1,9.20888E-1,-3.2711567E-3,-3.5158046E-2,3.0156923E-2,-5.9072327E-2,-2.7441908E-2,1.8122E-2,5.4092962E-2,-1.9193765E-2],"categories":[],"categories_nodes":[],"categories_segments":[],"categories_sizes":[],"default_left":[0,0,0,0,0,0,0,0,0,0,0,0,0,0,0],"id":15,"left_children":[1,3,5,7,9,11,13,-1,-1,-1,-1,-1,-1,-1,-1],"loss_changes":[1.3233824E1,1.3836512E1,7.0729294E0,9.442527E0,6.1866865E0,5.756109E0,4.6549644E0,0E0,0E0,0E0,0E0,0E0,0E0,0E0,0E0],"parents":[2147483647,0,0,1,1,2,2,3,3,4,4,5,5,6,6],"right_children":[2,4,6,8,10,12,14,-1,-1,-1,-1,-1,-1,-1,-1],"split_conditions":[8.310812E2,5.815022E-1,3.1716611E0,2.6757059E-1,1.453246E2,-3.323322E-2,1.3561345E2,-3.2711567E-3,-3.5158046E-2,3.0156923E-2,-5.9072327E-2,-2.7441908E-2,1.8122E-2,5.4092962E-2,-1.9193765E-2],"split_indices":[41,40,9,6,1,31,30,0,0,0,0,0,0,0,0],"split_type":[0,0,0,0,0,0,0,0,0,0,0,0,0,0,0],"sum_hessian":[1.9141908E2,1.2700352E2,6.441556E1,9.9365746E1,2.7637775E1,4.5229496E1,1.9186062E1,6.3581623E1,3.578412E1,2.646316E1,1.1746165E0,7.5149503E0,3.7714546E1,1.723107E1,1.9549928E0],"tree_param":{"num_deleted":"0","num_feature":"46","num_nodes":"15","size_leaf_vector":"1"}},{"base_weights":[-4.434222E-3,-4.9087313E-1,1.8996248E-1,-6.102046E-1,7.4652433E-1,9.939398E-2,7.96402E-1,-2.0734707E-2,-5.9713256E-2,6.446486E-2,-1.10464385E-2,4.195113E-2,1.2303772E-4,5.0203342E-2,-3.504589E-2],"categories":[],"categories_nodes":[],"categories_segments":[],"categories_sizes":[],"default_left":[0,0,0,0,0,0,0,0,0,0,0,0,0,0,0],"id":16,"left_children":[1,3,5,7,9,11,13,-1,-1,-1,-1,-1,-1,-1,-1],"loss_changes":[1.8004875E1,8.48272E0,7.393519E0,5.229229E0,3.0317986E0,8.566725E0,6.15646E0,0E0,0E0,0E0,0E0,0E0,0E0,0E0,0E0],"parents":[2147483647,0,0,1,1,2,2,3,3,4,4,5,5,6,6],"right_children":[2,4,6,8,10,12,14,-1,-1,-1,-1,-1,-1,-1,-1],"split_conditions":[7.283927E2,6.526345E-1,9.7062164E2,1.5358962E3,1.1E1,7.374318E2,2.4811475E0,-2.0734707E-2,-5.9713256E-2,6.446486E-2,-1.10464385E-2,4.195113E-2,1.2303772E-4,5.0203342E-2,-3.504589E-2],"split_indices":[41,40,41,38,32,41,13,0,0,0,0,0,0,0,0],"split_type":[0,0,0,0,0,0,0,0,0,0,0,0,0,0,0],"sum_hessian":[1.8841653E2,5.336248E1,1.3505406E2,4.9131252E1,4.2312293E0,1.1851794E2,1.653612E1,3.8090668E1,1.1040585E1,2.4974225E0,1.7338067E0,1.2845716E1,1.0567222E2,1.4811344E1,1.7247764E0],"tree_param":{"num_deleted":"0","num_feature":"46","num_nodes":"15","size_leaf_vector":"1"}},{"base_weights":[-3.9634805E-2,-2.916591E-1,4.0560672E-1,-5.5488783E-1,6.65695E-2,-5.9182066E-1,5.237374E-1,-1.0324897E-2,-4.4165015E-2,7.5399177E-3,-7.093655E-2,-5.0504964E-2,2.2313539E-2,5.9801716E-2,1.7531594E-2],"categories":[],"categories_nodes":[],"categories_segments":[],"categories_sizes":[],"default_left":[0,0,0,0,0,0,0,0,0,0,0,0,0,0,0],"id":17,"left_children":[1,3,5,7,9,11,13,-1,-1,-1,-1,-1,-1,-1,-1],"loss_changes":[2.149987E1,1.1565203E1,8.474262E0,7.8929977E0,6.804043E0,3.8406415E0,6.852392E0,0E0,0E0,0E0,0E0,0E0,0E0,0E0,0E0],"parents":[2147483647,0,0,1,1,2,2,3,3,4,4,5,5,6,6],"right_children":[2,4,6,8,10,12,14,-1,-1,-1,-1,-1,-1,-1,-1],"split_conditions":[5.511992E-1,8.115423E2,5E-1,-1.2666667E-1,4.9333334E-1,6.102519E-1,1.7911904E0,-1.0324897E-2,-4.4165015E-2,7.5399177E-3,-7.093655E-2,-5.0504964E-2,2.2313539E-2,5.9801716E-2,1.7531594E-2],"split_indices":[40,41,20,4,4,40,1,0,0,0,0,0,0,0,0],"split_type":[0,0,0,0,0,0,0,0,0,0,0,0,0,0,0],"sum_hessian":[1.8954678E2,1.2125603E2,6.829075E1,6.957954E1,5.1676487E1,6.806943E0,6.1483807E1,3.455322E1,3.502632E1,4.9753525E1,1.9229645E0,4.8711667E0,1.9357762E0,1.13795E1,5.010431E1],"tree_param":{"num_deleted":"0","num_feature":"46","num_nodes":"15","size_leaf_vector":"1"}},{"base_weights":[-1.6563348E-2,-3.3492318E-1,2.539195E-1,-7.687331E-1,1.299495E-2,1.10016E0,1.7751263E-1,-2.0458621E-3,-4.5136284E-2,1.5331854E-2,-2.5477434E-2,6.9010624E-4,6.6544086E-2,4.787867E-3,4.730187E-2],"categories":[],"categories_nodes":[],"categories_segments":[],"categories_sizes":[],"default_left":[0,0,0,0,0,0,0,0,0,0,0,0,0,0,0],"id":18,"left_children":[1,3,5,7,9,11,13,-1,-1,-1,-1,-1,-1,-1,-1],"loss_changes":[1.6684502E1,1.3439578E1,6.580262E0,3.826662E0,7.883676E0,2.1084948E0,6.023126E0,0E0,0E0,0E0,0E0,0E0,0E0,0E0,0E0],"parents":[2147483647,0,0,1,1,2,2,3,3,4,4,5,5,6,6],"right_children":[2,4,6,8,10,12,14,-1,-1,-1,-1,-1,-1,-1,-1],"split_conditions":[7.6148065E2,5.045137E-1,7.817454E2,-2.6515577E1,1.469114E0,5E-1,1.0427948E-2,-2.0458621E-3,-4.5136284E-2,1.5331854E-2,-2.5477434E-2,6.9010624E-4,6.6544086E-2,4.787867E-3,4.730187E-2],"split_indices":[41,40,41,30,8,20,42,0,0,0,0,0,0,0,0],"split_type":[0,0,0,0,0,0,0,0,0,0,0,0,0,0,0],"sum_hessian":[1.9176843E2,8.797873E1,1.037897E2,3.8617756E1,4.9360977E1,7.4855175E0,9.6304184E1,6.2071843E0,3.2410572E1,3.186673E1,1.7494247E1,1.4969443E0,5.9885736E0,8.8060905E1,8.2432785E0],"tree_param":{"num_deleted":"0","num_feature":"46","num_nodes":"15","size_leaf_vector":"1"}},{"base_weights":[3.1039754E-2,-1.0389306E-1,3.8027593E-1,1.0593504E-2,-7.1472424E-1,6.0945578E-2,2.6692647E-1,-3.431467E-2,6.766807E-3,-1.6273556E-2,-6.308403E-2,7.0661516E-3,5.7871934E-2],"categories":[],"categories_nodes":[],"categories_segments":[],"categories_sizes":[],"default_left":[0,0,0,0,0,0,0,0,0,0,0,0,0],"id":19,"left_children":[1,3,5,7,9,-1,11,-1,-1,-1,-1,-1,-1],"loss_changes":[8.818411E0,9.459763E0,4.6303754E0,1.0073793E1,4.1346817E0,0E0,5.1165266E0,0E0,0E0,0E0,0E0,0E0,0E0],"parents":[2147483647,0,0,1,1,2,2,3,3,4,4,6,6],"right_children":[2,4,6,8,10,-1,12,-1,-1,-1,-1,-1,-1],"split_conditions":[8.410493E2,9.38782E-1,-6.9162903E0,4.407583E-1,4.8494823E-2,6.0945578E-2,6.2024546E-1,-3.431467E-2,6.766807E-3,-1.6273556E-2,-6.308403E-2,7.0661516E-3,5.7871934E-2],"split_indices":[41,27,8,40,2,0,40,0,0,0,0,0,0],"split_type":[0,0,0,0,0,0,0,0,0,0,0,0,0],"sum_hessian":[1.8529597E2,1.3416266E2,5.113331E1,1.1381354E2,2.0349127E1,4.926937E0,4.620637E1,1.6596104E1,9.721743E1,1.2820327E1,7.528801E0,4.151021E1,4.696163E0],"tree_param":{"num_deleted":"0","num_feature":"46","num_nodes":"13","size_leaf_vector":"1"}},{"base_weights":[2.0465083E-2,-8.1638134E-1,8.53471E-2,-1.0322121E0,1.8388987E-2,-1.4263208E-3,5.683366E-1,-5.842749E-2,9.341373E-3,3.5667162E-2,-3.6577869E-3,3.750226E-2,-1.231129E-2],"categories":[],"categories_nodes":[],"categories_segments":[],"categories_sizes":[],"default_left":[0,0,0,0,0,0,0,0,0,0,0,0,0],"id":20,"left_children":[1,3,5,7,-1,9,11,-1,-1,-1,-1,-1,-1],"loss_changes":[1.0607535E1,3.972889E0,7.587534E0,2.2384157E0,0E0,7.9708266E0,4.2656336E0,0E0,0E0,0E0,0E0,0E0,0E0],"parents":[2147483647,0,0,1,1,2,2,3,3,5,5,6,6],"right_children":[2,4,6,8,-1,10,12,-1,-1,-1,-1,-1,-1],"split_conditions":[5.690992E2,4.7825138E1,9.331654E2,3E-1,1.8388987E-2,1.4728744E3,1.6275936E3,-5.842749E-2,9.341373E-3,3.5667162E-2,-3.6577869E-3,3.750226E-2,-1.231129E-2],"split_indices":[41,30,41,4,0,38,38,0,0,0,0,0,0],"split_type":[0,0,0,0,0,0,0,0,0,0,0,0,0],"sum_hessian":[1.9308069E2,1.3059326E1,1.8002136E2,1.115456E1,1.9047656E0,1.5344978E2,2.6571589E1,1.0069773E1,1.0847878E0,1.3178973E1,1.402708E2,2.178999E1,4.781598E0],"tree_param":{"num_deleted":"0","num_feature":"46","num_nodes":"13","size_leaf_vector":"1"}},{"base_weights":[-3.5923277E-3,-1.7181565E-1,3.0405995E-1,1.963537E-1,-3.1272545E-1,9.225703E-1,1.4572711E-1,-4.265849E-2,1.9956179E-2,-2.1249382E-2,1.7704343E-2,-3.209601E-2,6.006659E-2,-1.0728643E-2,2.7227608E-2],"categories":[],"categories_nodes":[],"categories_segments":[],"categories_sizes":[],"default_left":[0,0,0,0,0,0,0,0,0,0,0,0,0,0,0],"id":21,"left_children":[1,3,5,7,9,11,13,-1,-1,-1,-1,-1,-1,-1,-1],"loss_changes":[9.907859E0,6.4814944E0,6.4933853E0,7.760851E0,6.8789988E0,6.7051907E0,8.030576E0,0E0,0E0,0E0,0E0,0E0,0E0,0E0,0E0],"parents":[2147483647,0,0,1,1,2,2,3,3,4,4,5,5,6,6],"right_children":[2,4,6,8,10,12,14,-1,-1,-1,-1,-1,-1,-1,-1],"split_conditions":[5.511992E-1,-4.44184E0,-4.312361E0,-1.06128536E-1,1.5448785E3,5E-1,1.5421731E3,-4.265849E-2,1.9956179E-2,-2.1249382E-2,1.7704343E-2,-3.209601E-2,6.006659E-2,-1.0728643E-2,2.7227608E-2],"split_indices":[40,8,1,2,39,20,38,0,0,0,0,0,0,0,0],"split_type":[0,0,0,0,0,0,0,0,0,0,0,0,0,0,0],"sum_hessian":[1.8943091E2,1.22752014E2,6.66789E1,3.386805E1,8.8883965E1,1.2606434E1,5.4072468E1,4.9645085E0,2.8903542E1,7.638647E1,1.24974985E1,1.7094944E0,1.0896939E1,2.865102E1,2.5421446E1],"tree_param":{"num_deleted":"0","num_feature":"46","num_nodes":"15","size_leaf_vector":"1"}},{"base_weights":[-2.6025444E-2,-2.0600924E-1,3.0955604E-1,2.5890502E-1,-3.8512808E-1,4.1587353E-1,-6.5290225E-1,1.048819E-3,5.3476956E-2,-2.1395309E-2,5.252598E-2,-4.1584566E-2,2.7267555E-2,-5.918585E-2,8.643045E-3],"categories":[],"categories_nodes":[],"categories_segments":[],"categories_sizes":[],"default_left":[0,0,0,0,0,0,0,0,0,0,0,0,0,0,0],"id":22,"left_children":[1,3,5,7,9,11,13,-1,-1,-1,-1,-1,-1,-1,-1],"loss_changes":[1.1331938E1,1.026202E1,6.976768E0,6.6390057E0,5.8843985E0,1.008417E1,3.2324028E0,0E0,0E0,0E0,0E0,0E0,0E0,0E0,0E0],"parents":[2147483647,0,0,1,1,2,2,3,3,4,4,5,5,6,6],"right_children":[2,4,6,8,10,12,14,-1,-1,-1,-1,-1,-1,-1,-1],"split_conditions":[5.608215E-1,-4.478742E0,4.5422148E-2,-1.502362E0,1.0588575E3,-4.5850506E1,6.446393E-2,1.048819E-3,5.3476956E-2,-2.1395309E-2,5.252598E-2,-4.1584566E-2,2.7267555E-2,-5.918585E-2,8.643045E-3],"split_indices":[40,8,44,5,41,45,44,0,0,0,0,0,0,0,0],"split_type":[0,0,0,0,0,0,0,0,0,0,0,0,0,0,0],"sum_hessian":[1.8556142E2,1.2103327E2,6.452815E1,3.3537952E1,8.7495316E1,5.8620567E1,5.907587E0,2.6720974E1,6.816978E0,8.564528E1,1.8500367E0,5.0019045E0,5.3618664E1,3.3321445E0,2.5754428E0],"tree_param":{"num_deleted":"0","num_feature":"46","num_nodes":"15","size_leaf_vector":"1"}},{"base_weights":[-3.5402574E-2,-8.5067354E-2,1.136491E0,-3.4392405E-2,-8.567393E-1,2.1802431E-3,1.3183007E0,-2.4829065E-2,2.2963788E-3,9.697028E-4,-7.719733E-2,7.407263E-2,1.7043902E-2],"categories":[],"categories_nodes":[],"categories_segments":[],"categories_sizes":[],"default_left":[0,0,0,0,0,0,0,0,0,0,0,0,0],"id":23,"left_children":[1,3,5,7,9,-1,11,-1,-1,-1,-1,-1,-1],"loss_changes":[1.1371405E1,7.274152E0,1.5212841E0,6.5677633E0,6.9343643E0,0E0,5.759001E-1,0E0,0E0,0E0,0E0,0E0,0E0],"parents":[2147483647,0,0,1,1,2,2,3,3,4,4,6,6],"right_children":[2,4,6,8,10,-1,12,-1,-1,-1,-1,-1,-1],"split_conditions":[1E0,1.2160099E2,-2.356187E-2,-4.9473226E-2,1.5030599E3,2.1802431E-3,1.5203335E3,-2.4829065E-2,2.2963788E-3,9.697028E-4,-7.719733E-2,7.407263E-2,1.7043902E-2],"split_indices":[0,30,31,44,25,0,26,0,0,0,0,0,0],"split_type":[0,0,0,0,0,0,0,0,0,0,0,0,0],"sum_hessian":[1.9271771E2,1.8577211E2,6.945601E0,1.753046E2,1.0467515E1,1.1674882E0,5.778113E0,2.5187054E1,1.5011754E2,5.0284405E0,5.439074E0,4.509682E0,1.2684308E0],"tree_param":{"num_deleted":"0","num_feature":"46","num_nodes":"13","size_leaf_vector":"1"}},{"base_weights":[5.5482663E-2,-2.028092E-1,2.714705E-1,4.577671E-2,-5.747565E-1,4.6893123E-1,-4.6375465E-2,-1.33835245E-2,2.6139906E-2,-3.6342863E-2,4.0969916E-2,-1.875253E-3,3.8409837E-2,-1.7694242E-2,4.303782E-2],"categories":[],"categories_nodes":[],"categories_segments":[],"categories_sizes":[],"default_left":[0,0,0,0,0,0,0,0,0,0,0,0,0,0,0],"id":24,"left_children":[1,3,5,7,9,11,13,-1,-1,-1,-1,-1,-1,-1,-1],"loss_changes":[1.0525705E1,7.98213E0,6.4637403E0,7.9900484E0,7.9206104E0,9.637677E0,1.1529972E1,0E0,0E0,0E0,0E0,0E0,0E0,0E0,0E0],"parents":[2147483647,0,0,1,1,2,2,3,3,4,4,5,5,6,6],"right_children":[2,4,6,8,10,12,14,-1,-1,-1,-1,-1,-1,-1,-1],"split_conditions":[7.628939E2,4.3958026E-1,1.5036102E3,5.3498745E-1,3.6E-1,-5.2093584E-2,1.5183729E3,-1.33835245E-2,2.6139906E-2,-3.6342863E-2,4.0969916E-2,-1.875253E-3,3.8409837E-2,-1.7694242E-2,4.303782E-2],"split_indices":[41,8,25,40,4,2,39,0,0,0,0,0,0,0,0],"split_type":[0,0,0,0,0,0,0,0,0,0,0,0,0,0,0],"sum_hessian":[1.8668672E2,8.504526E1,1.01641464E2,5.1501717E1,3.354354E1,6.2400208E1,3.924126E1,3.1344412E1,2.0157307E1,3.0675518E1,2.8680253E0,2.3502478E1,3.8897728E1,2.9762075E1,9.479185E0],"tree_param":{"num_deleted":"0","num_feature":"46","num_nodes":"15","size_leaf_vector":"1"}},{"base_weights":[1.6139302E-3,-5.7036288E-2,6.7647177E-1,5.0435585E-1,-1.2689917E-1,1.1702459E0,-3.5964546E-1,-4.5449853E-2,4.3923814E-2,-3.6532413E-2,-2.1378556E-3,1.1951451E-2,6.73943E-2,2.1665696E-2,-5.06815E-2],"categories":[],"categories_nodes":[],"categories_segments":[],"categories_sizes":[],"default_left":[0,0,0,0,0,0,0,0,0,0,0,0,0,0,0],"id":25,"left_children":[1,3,5,7,9,11,13,-1,-1,-1,-1,-1,-1,-1,-1],"loss_changes":[7.55292E0,6.950779E0,8.226894E0,1.1180418E1,7.9422894E0,1.4260578E0,3.3896468E0,0E0,0E0,0E0,0E0,0E0,0E0,0E0,0E0],"parents":[2147483647,0,0,1,1,2,2,3,3,4,4,5,5,6,6],"right_children":[2,4,6,8,10,12,14,-1,-1,-1,-1,-1,-1,-1,-1],"split_conditions":[1.2400695E-2,1.443957E3,1.5089742E3,-3.8836725E-2,1.4685162E3,-1.862975E0,6.020448E-1,-4.5449853E-2,4.3923814E-2,-3.6532413E-2,-2.1378556E-3,1.1951451E-2,6.73943E-2,2.1665696E-2,-5.06815E-2],"split_indices":[42,39,25,31,39,13,8,0,0,0,0,0,0,0,0],"split_type":[0,0,0,0,0,0,0,0,0,0,0,0,0,0,0],"sum_hessian":[1.8884918E2,1.7459137E2,1.4257818E1,1.8634249E1,1.5595712E2,9.568419E0,4.689399E0,3.6009352E0,1.5033314E1,1.8136658E1,1.3782047E2,1.9086348E0,7.6597843E0,2.2720058E0,2.417393E0],"tree_param":{"num_deleted":"0","num_feature":"46","num_nodes":"15","size_leaf_vector":"1"}},{"base_weights":[2.1132529E-2,7.955942E-2,-1.0018538E0,-1.2268304E-1,3.2290968E-1,2.3000943E-2,-1.396222E0,-2.4982652E-2,7.6179043E-3,1.940861E-2,-3.0568758E-2,-7.757577E-2,-1.2959616E-2],"categories":[],"categories_nodes":[],"categories_segments":[],"categories_sizes":[],"default_left":[0,0,0,0,0,0,0,0,0,0,0,0,0],"id":26,"left_children":[1,3,5,7,9,-1,11,-1,-1,-1,-1,-1,-1],"loss_changes":[1.1205493E1,8.751445E0,6.4827366E0,1.0174391E1,5.1528234E0,0E0,1.0503693E0,0E0,0E0,0E0,0E0,0E0,0E0],"parents":[2147483647,0,0,1,1,2,2,3,3,4,4,6,6],"right_children":[2,4,6,8,10,-1,12,-1,-1,-1,-1,-1,-1],"split_conditions":[7.1054274E-15,8.115423E2,-5.8169726E-2,5.045137E-1,5.4E-1,2.3000943E-2,1.5471745E0,-2.4982652E-2,7.6179043E-3,1.940861E-2,-3.0568758E-2,-7.757577E-2,-1.2959616E-2],"split_indices":[7,41,31,40,4,0,28,0,0,0,0,0,0],"split_type":[0,0,0,0,0,0,0,0,0,0,0,0,0],"sum_hessian":[1.851436E2,1.76013E2,9.130588E0,9.639628E1,7.961673E1,1.904474E0,7.2261133E0,4.0318836E1,5.607744E1,7.496475E1,4.651979E0,6.0370507E0,1.189063E0],"tree_param":{"num_deleted":"0","num_feature":"46","num_nodes":"13","size_leaf_vector":"1"}},{"base_weights":[-1.8268717E-2,-4.6435782E-1,1.0635081E-1,-1.1135194E0,-2.1212973E-1,2.0255178E-1,-3.5292205E-1,-6.951402E-2,2.459134E-2,-2.875316E-2,1.3504016E-2,5.983434E-3,5.7851195E-2,-4.780423E-2,2.1836149E-2],"categories":[],"categories_nodes":[],"categories_segments":[],"categories_sizes":[],"default_left":[0,0,0,0,0,0,0,0,0,0,0,0,0,0,0],"id":27,"left_children":[1,3,5,7,9,11,13,-1,-1,-1,-1,-1,-1,-1,-1],"loss_changes":[1.0700447E1,6.6445007E0,6.724154E0,5.8036785E0,5.6680284E0,9.760574E0,1.3011395E1,0E0,0E0,0E0,0E0,0E0,0E0,0E0,0E0],"parents":[2147483647,0,0,1,1,2,2,3,3,4,4,5,5,6,6],"right_children":[2,4,6,8,10,12,14,-1,-1,-1,-1,-1,-1,-1,-1],"split_conditions":[4.7616392E-1,1.4845996E3,9.38782E-1,2.1333334E-1,1.4463957E-1,1.5462855E3,8.062811E2,-6.951402E-2,2.459134E-2,-2.875316E-2,1.3504016E-2,5.983434E-3,5.7851195E-2,-4.780423E-2,2.1836149E-2],"split_indices":[40,25,27,4,5,39,41,0,0,0,0,0,0,0,0],"split_type":[0,0,0,0,0,0,0,0,0,0,0,0,0,0,0],"sum_hessian":[1.9059549E2,4.1023003E1,1.4957248E2,1.0523598E1,3.0499403E1,1.241306E2,2.544188E1,9.090387E0,1.4332105E0,1.7292053E1,1.3207351E1,1.15248215E2,8.882384E0,1.4304642E1,1.1137238E1],"tree_param":{"num_deleted":"0","num_feature":"46","num_nodes":"15","size_leaf_vector":"1"}},{"base_weights":[4.5082614E-2,-1.3487704E-1,2.9610598E-1,-1.9893248E-3,-7.465794E-1,7.8559995E-1,8.7174535E-2,6.5274215E-3,-3.2562383E-2,2.1126024E-2,-4.5288444E-2,5.060497E-2,-3.731404E-2,3.4204338E-2,-6.293802E-3],"categories":[],"categories_nodes":[],"categories_segments":[],"categories_sizes":[],"default_left":[0,0,0,0,0,0,0,0,0,0,0,0,0,0,0],"id":28,"left_children":[1,3,5,7,9,11,13,-1,-1,-1,-1,-1,-1,-1,-1],"loss_changes":[8.549768E0,8.97325E0,8.007998E0,7.976368E0,4.0493727E0,8.908855E0,7.2678423E0,0E0,0E0,0E0,0E0,0E0,0E0,0E0,0E0],"parents":[2147483647,0,0,1,1,2,2,3,3,4,4,5,5,6,6],"right_children":[2,4,6,8,10,12,14,-1,-1,-1,-1,-1,-1,-1,-1],"split_conditions":[8.1286957E2,4.1136213E-2,1.4914691E3,9.38782E-1,-2.3920522E0,1.5673402E3,2.3827246E1,6.5274215E-3,-3.2562383E-2,2.1126024E-2,-4.5288444E-2,5.060497E-2,-3.731404E-2,3.4204338E-2,-6.293802E-3],"split_indices":[41,44,26,27,5,39,1,0,0,0,0,0,0,0,0],"split_type":[0,0,0,0,0,0,0,0,0,0,0,0,0,0,0],"sum_hessian":[1.8737865E2,1.09407005E2,7.7971634E1,9.070523E1,1.8701775E1,2.2499264E1,5.547237E1,7.599147E1,1.4713759E1,2.0430746E0,1.6658699E1,1.9896702E1,2.6025605E0,1.400976E1,4.146261E1],"tree_param":{"num_deleted":"0","num_feature":"46","num_nodes":"15","size_leaf_vector":"1"}},{"base_weights":[-2.56864E-2,-1.7753588E-1,2.6696518E-1,1.4327699E-1,-3.734661E-1,-2.8418127E-1,4.542816E-1,-2.3439422E-2,2.1779926E-2,-2.2169372E-2,4.4070236E-2,-3.326333E-2,2.7110621E-2,2.829673E-2,-3.849448E-2],"categories":[],"categories_nodes":[],"categories_segments":[],"categories_sizes":[],"default_left":[0,0,0,0,0,0,0,0,0,0,0,0,0,0,0],"id":29,"left_children":[1,3,5,7,9,11,13,-1,-1,-1,-1,-1,-1,-1,-1],"loss_changes":[8.403563E0,7.8729553E0,6.802054E0,8.772849E0,7.191683E0,5.717801E0,7.0819616E0,0E0,0E0,0E0,0E0,0E0,0E0,0E0,0E0],"parents":[2147483647,0,0,1,1,2,2,3,3,4,4,5,5,6,6],"right_children":[2,4,6,8,10,12,14,-1,-1,-1,-1,-1,-1,-1,-1],"split_conditions":[5.608215E-1,-1.2666667E-1,-3.19578E0,-2.210425E-2,3.6570582E-1,1.541699E3,1.3249701E-1,-2.3439422E-2,2.1779926E-2,-2.2169372E-2,4.4070236E-2,-3.326333E-2,2.7110621E-2,2.829673E-2,-3.849448E-2],"split_indices":[40,4,45,2,2,38,2,0,0,0,0,0,0,0,0],"split_type":[0,0,0,0,0,0,0,0,0,0,0,0,0,0,0],"sum_hessian":[1.8703682E2,1.23400696E2,6.363613E1,4.6890957E1,7.6509735E1,1.6010592E1,4.762554E1,1.4961262E1,3.1929695E1,7.308416E1,3.425579E0,1.1091024E1,4.919567E0,4.4137585E1,3.487957E0],"tree_param":{"num_deleted":"0","num_feature":"46","num_nodes":"15","size_leaf_vector":"1"}},{"base_weights":[-2.7591681E-2,-5.6106126E-1,8.7246574E-2,-6.8849343E-1,5.7535976E-1,-1.1030496E0,1.3119316E-1,-1.3751956E-2,-6.796566E-2,-1.7172927E-2,5.314807E-2,-6.678389E-2,-1.135201E-2,5.6454755E-2,4.247002E-3],"categories":[],"categories_nodes":[],"categories_segments":[],"categories_sizes":[],"default_left":[0,0,0,0,0,0,0,0,0,0,0,0,0,0,0],"id":30,"left_children":[1,3,5,7,9,11,13,-1,-1,-1,-1,-1,-1,-1,-1],"loss_changes":[1.1606287E1,5.2549477E0,8.3102455E0,8.119753E0,2.1247604E0,8.51068E-1,6.8937902E0,0E0,0E0,0E0,0E0,0E0,0E0,0E0,0E0],"parents":[2147483647,0,0,1,1,2,2,3,3,4,4,5,5,6,6],"right_children":[2,4,6,8,10,12,14,-1,-1,-1,-1,-1,-1,-1,-1],"split_conditions":[6.5495544E2,6.526345E-1,1.4659867E3,1.1333334E-1,1.1500011E1,5.049888E-1,9.141918E-1,-1.3751956E-2,-6.796566E-2,-1.7172927E-2,5.314807E-2,-6.678389E-2,-1.135201E-2,5.6454755E-2,4.247002E-3],"split_indices":[41,40,26,3,45,40,43,0,0,0,0,0,0,0,0],"split_type":[0,0,0,0,0,0,0,0,0,0,0,0,0,0,0],"sum_hessian":[1.8765202E2,3.255152E1,1.551005E2,2.9623823E1,2.9276998E0,4.6644263E0,1.5043608E2,1.9200039E1,1.0423784E1,1.1175141E0,1.8101856E0,3.2710543E0,1.3933722E0,5.6268425E0,1.4480923E2],"tree_param":{"num_deleted":"0","num_feature":"46","num_nodes":"15","size_leaf_vector":"1"}},{"base_weights":[8.2047125E-3,-5.1062864E-1,1.1148423E-1,-7.0418626E-1,6.91621E-1,9.7843826E-1,4.0141214E-2,2.5972305E-2,-3.9292883E-2,-5.590334E-3,6.1282378E-2,6.201895E-2,-3.633135E-2,1.0747467E-2,-1.1912637E-2],"categories":[],"categories_nodes":[],"categories_segments":[],"categories_sizes":[],"default_left":[0,0,0,0,0,0,0,0,0,0,0,0,0,0,0],"id":31,"left_children":[1,3,5,7,9,11,13,-1,-1,-1,-1,-1,-1,-1,-1],"loss_changes":[1.0187382E1,7.832328E0,9.763479E0,3.1747618E0,2.2315075E0,6.2643347E0,7.228483E0,0E0,0E0,0E0,0E0,0E0,0E0,0E0,0E0],"parents":[2147483647,0,0,1,1,2,2,3,3,4,4,5,5,6,6],"right_children":[2,4,6,8,10,12,14,-1,-1,-1,-1,-1,-1,-1,-1],"split_conditions":[6.5495544E2,6.2024546E-1,1.4750483E3,-1.4979276E-1,-4.6342923E-3,3.646346E0,1.5030599E3,2.5972305E-2,-3.9292883E-2,-5.590334E-3,6.1282378E-2,6.201895E-2,-3.633135E-2,1.0747467E-2,-1.1912637E-2],"split_indices":[41,40,38,42,31,13,25,0,0,0,0,0,0,0,0],"split_type":[0,0,0,0,0,0,0,0,0,0,0,0,0,0,0],"sum_hessian":[1.8805444E2,3.0564907E1,1.5748953E2,2.6683277E1,3.88163E0,1.1007902E1,1.4648163E2,1.3341626E0,2.5349115E1,1.865569E0,2.0160608E0,9.778252E0,1.2296513E0,9.012104E1,5.6360584E1],"tree_param":{"num_deleted":"0","num_feature":"46","num_nodes":"15","size_leaf_vector":"1"}},{"base_weights":[-3.4023624E-2,-5.6130844E-1,6.342714E-2,8.2977706E-1,-7.2041965E-1,-3.4080124E-1,2.1672958E-1,6.326012E-2,-6.696511E-4,2.7243072E-2,-4.0611647E-2,-2.4676628E-2,5.319179E-2,2.148434E-3,2.7855286E-2],"categories":[],"categories_nodes":[],"categories_segments":[],"categories_sizes":[],"default_left":[0,0,0,0,0,0,0,0,0,0,0,0,0,0,0],"id":32,"left_children":[1,3,5,7,9,11,13,-1,-1,-1,-1,-1,-1,-1,-1],"loss_changes":[9.584877E0,7.03654E0,9.849504E0,1.2837644E0,3.5372763E0,9.913979E0,6.7767596E0,0E0,0E0,0E0,0E0,0E0,0E0,0E0,0E0],"parents":[2147483647,0,0,1,1,2,2,3,3,4,4,5,5,6,6],"right_children":[2,4,6,8,10,12,14,-1,-1,-1,-1,-1,-1,-1,-1],"split_conditions":[4.407583E-1,-1.2013866E2,7.2134576E2,-1.0514529E-2,-8.3960783E-1,3.6E-1,2.1666667E-1,6.326012E-2,-6.696511E-4,2.7243072E-2,-4.0611647E-2,-2.4676628E-2,5.319179E-2,2.148434E-3,2.7855286E-2],"split_indices":[40,30,41,42,27,4,3,0,0,0,0,0,0,0,0],"split_type":[0,0,0,0,0,0,0,0,0,0,0,0,0,0,0],"sum_hessian":[1.8484026E2,2.809023E1,1.5675003E2,2.4505308E0,2.5639702E1,4.2764748E1,1.1398528E2,1.2859281E0,1.1646025E0,1.4007987E0,2.4238903E1,3.915583E1,3.6089163E0,7.6207726E1,3.7777557E1],"tree_param":{"num_deleted":"0","num_feature":"46","num_nodes":"15","size_leaf_vector":"1"}},{"base_weights":[1.0614414E-2,-1.3222285E-1,3.0472282E-1,5.2803632E-2,-5.0012594E-1,1.1020905E-1,7.798611E-1,3.9554592E-2,-4.571074E-3,4.0778834E-2,-3.0681E-2,-4.717588E-3,4.1481115E-2,-3.264833E-2,5.291461E-2],"categories":[],"categories_nodes":[],"categories_segments":[],"categories_sizes":[],"default_left":[0,0,0,0,0,0,0,0,0,0,0,0,0,0,0],"id":33,"left_children":[1,3,5,7,9,11,13,-1,-1,-1,-1,-1,-1,-1,-1],"loss_changes":[8.020424E0,8.777674E0,5.6811438E0,9.276863E0,6.9386063E0,6.765315E0,7.8563843E0,0E0,0E0,0E0,0E0,0E0,0E0,0E0,0E0],"parents":[2147483647,0,0,1,1,2,2,3,3,4,4,5,5,6,6],"right_children":[2,4,6,8,10,12,14,-1,-1,-1,-1,-1,-1,-1,-1],"split_conditions":[8.3249243E2,2.8860602E0,2E1,-6.6770244E0,-6.8333334E-1,1.5147516E1,1.4826542E3,3.9554592E-2,-4.571074E-3,4.0778834E-2,-3.0681E-2,-4.717588E-3,4.1481115E-2,-3.264833E-2,5.291461E-2],"split_indices":[41,9,9,8,3,30,25,0,0,0,0,0,0,0,0],"split_type":[0,0,0,0,0,0,0,0,0,0,0,0,0,0,0],"sum_hessian":[1.8895956E2,1.27559296E2,6.1400265E1,8.5444084E1,4.211521E1,4.443944E1,1.6960823E1,1.3230754E1,7.221333E1,2.8531709E0,3.9262043E1,3.527738E1,9.162061E0,2.5407517E0,1.4420072E1],"tree_param":{"num_deleted":"0","num_feature":"46","num_nodes":"15","size_leaf_vector":"1"}},{"base_weights":[-4.1366804E-2,-7.005106E-1,2.355621E-4,3.3029236E-2,-1.042629E0,1.3150583E-1,-2.007712E-1,-6.3946756E-4,-5.916016E-2,6.33432E-4,3.4881778E-2,-2.5801493E-2,5.6407508E-3],"categories":[],"categories_nodes":[],"categories_segments":[],"categories_sizes":[],"default_left":[0,0,0,0,0,0,0,0,0,0,0,0,0],"id":34,"left_children":[1,3,5,-1,7,9,11,-1,-1,-1,-1,-1,-1],"loss_changes":[5.1264586E0,5.85696E0,4.692606E0,0E0,1.3250313E0,7.229041E0,7.004138E0,0E0,0E0,0E0,0E0,0E0,0E0],"parents":[2147483647,0,0,1,1,2,2,4,4,5,5,6,6],"right_children":[2,4,6,-1,8,10,12,-1,-1,-1,-1,-1,-1],"split_conditions":[1.4692604E3,-2.6515577E1,4.8306948E-1,3.3029236E-2,1.7466497E-2,2.638758E-2,1.3364788E0,-6.3946756E-4,-5.916016E-2,6.33432E-4,3.4881778E-2,-2.5801493E-2,5.6407508E-3],"split_indices":[26,30,5,0,44,28,29,0,0,0,0,0,0],"split_type":[0,0,0,0,0,0,0,0,0,0,0,0,0],"sum_hessian":[1.8594128E2,1.0098791E1,1.758425E2,1.8415276E0,8.257263E0,1.0658284E2,6.925965E1,1.1227846E0,7.1344786E0,8.893643E1,1.7646412E1,3.4215797E1,3.5043854E1],"tree_param":{"num_deleted":"0","num_feature":"46","num_nodes":"13","size_leaf_vector":"1"}},{"base_weights":[1.9401586E-2,-4.1690576E-1,1.0499416E-1,3.4698883E-1,-6.032699E-1,8.820928E-1,3.9756853E-2,5.895717E-2,-2.4823653E-2,-6.817961E-2,-1.2797094E-2,5.6033224E-2,-3.59051E-2,4.4797333E-3,-4.6434585E-2],"categories":[],"categories_nodes":[],"categories_segments":[],"categories_sizes":[],"default_left":[0,0,0,0,0,0,0,0,0,0,0,0,0,0,0],"id":35,"left_children":[1,3,5,7,9,11,13,-1,-1,-1,-1,-1,-1,-1,-1],"loss_changes":[7.269171E0,4.7552547E0,8.205367E0,5.426592E0,6.5262775E0,5.592699E0,7.371513E0,0E0,0E0,0E0,0E0,0E0,0E0,0E0,0E0],"parents":[2147483647,0,0,1,1,2,2,3,3,4,4,5,5,6,6],"right_children":[2,4,6,8,10,12,14,-1,-1,-1,-1,-1,-1,-1,-1],"split_conditions":[6.514666E2,-7.9148216E0,1.4750483E3,1.0140458E-2,1.320097E1,3.646346E0,1.4210855E-14,5.895717E-2,-2.4823653E-2,-6.817961E-2,-1.2797094E-2,5.6033224E-2,-3.59051E-2,4.4797333E-3,-4.6434585E-2],"split_indices":[41,45,38,44,45,13,7,0,0,0,0,0,0,0,0],"split_type":[0,0,0,0,0,0,0,0,0,0,0,0,0,0,0],"sum_hessian":[1.9247871E2,3.0932053E1,1.6154666E2,5.897341E0,2.5034712E1,1.154173E1,1.5000493E2,2.7682352E0,3.1291056E0,6.932686E0,1.8102026E1,1.0305031E1,1.2366986E0,1.4352634E2,6.4785933E0],"tree_param":{"num_deleted":"0","num_feature":"46","num_nodes":"15","size_leaf_vector":"1"}},{"base_weights":[3.5051204E-2,4.0461993E-1,-8.029832E-2,-5.280746E-1,6.5576684E-1,-1.5977941E-1,7.871805E-1,3.8392734E-2,-4.668579E-2,4.261287E-2,-8.833414E-3,-3.5986353E-2,5.7210086E-4,-2.917403E-2,5.98167E-2],"categories":[],"categories_nodes":[],"categories_segments":[],"categories_sizes":[],"default_left":[0,0,0,0,0,0,0,0,0,0,0,0,0,0,0],"id":36,"left_children":[1,3,5,7,9,11,13,-1,-1,-1,-1,-1,-1,-1,-1],"loss_changes":[7.7601776E0,1.0485823E1,9.70881E0,5.835491E0,5.801652E0,1.2295052E1,7.3349395E0,0E0,0E0,0E0,0E0,0E0,0E0,0E0,0E0],"parents":[2147483647,0,0,1,1,2,2,3,3,4,4,5,5,6,6],"right_children":[2,4,6,8,10,12,14,-1,-1,-1,-1,-1,-1,-1,-1],"split_conditions":[-4.7915087E0,-1.1222327E-1,1.5487384E3,1.494851E3,2.9333332E-1,-2.6639898E0,-2.5666666E-1,3.8392734E-2,-4.668579E-2,4.261287E-2,-8.833414E-3,-3.5986353E-2,5.7210086E-4,-2.917403E-2,5.98167E-2],"split_indices":[8,2,39,39,4,45,4,0,0,0,0,0,0,0,0],"split_type":[0,0,0,0,0,0,0,0,0,0,0,0,0,0,0],"sum_hessian":[1.8027527E2,4.2286293E1,1.3798897E2,8.736935E0,3.354936E1,1.27154495E2,1.0834477E1,1.8699472E0,6.8669877E0,2.7123285E1,6.4260736E0,2.9026213E1,9.812828E1,2.392742E0,8.441735E0],"tree_param":{"num_deleted":"0","num_feature":"46","num_nodes":"15","size_leaf_vector":"1"}},{"base_weights":[-1.4363776E-2,-7.193036E-2,6.6698116E-1,-2.1985872E-1,2.041964E-1,1.0711993E0,1.9371665E-1,-7.071972E-3,-4.9168598E-2,5.6194714E-3,5.3776354E-2,1.2196333E-2,6.341266E-2,5.6532353E-2,-2.7402809E-2],"categories":[],"categories_nodes":[],"categories_segments":[],"categories_sizes":[],"default_left":[0,0,0,0,0,0,0,0,0,0,0,0,0,0,0],"id":37,"left_children":[1,3,5,7,9,11,13,-1,-1,-1,-1,-1,-1,-1,-1],"loss_changes":[7.4426594E0,7.1827183E0,2.620942E0,6.702635E0,4.796933E0,9.5460415E-1,6.2016E0,0E0,0E0,0E0,0E0,0E0,0E0,0E0,0E0],"parents":[2147483647,0,0,1,1,2,2,3,3,4,4,5,5,6,6],"right_children":[2,4,6,8,10,12,14,-1,-1,-1,-1,-1,-1,-1,-1],"split_conditions":[9.778115E2,5.511992E-1,-2.4570161E-1,1.0252169E0,1.0427948E-2,1.4962719E3,1.5017931E3,-7.071972E-3,-4.9168598E-2,5.6194714E-3,5.3776354E-2,1.2196333E-2,6.341266E-2,5.6532353E-2,-2.7402809E-2],"split_indices":[41,40,27,43,42,26,26,0,0,0,0,0,0,0,0],"split_type":[0,0,0,0,0,0,0,0,0,0,0,0,0,0,0],"sum_hessian":[1.8753073E2,1.7374547E2,1.3785261E1,1.1326839E2,6.0477077E1,6.7535686E0,7.031692E0,1.0379319E2,9.475194E0,5.573373E1,4.7433476E0,1.7297186E0,5.0238504E0,2.8754597E0,4.1562324E0],"tree_param":{"num_deleted":"0","num_feature":"46","num_nodes":"15","size_leaf_vector":"1"}},{"base_weights":[2.1075902E-3,-3.259272E-1,1.19125724E-1,-4.433156E-1,7.4754786E-1,8.04437E-2,5.7364088E-2,-4.4871308E-2,-4.0421127E-3,-1.3193321E-2,5.4999765E-2,1.3541676E-2,-7.9121925E-3],"categories":[],"categories_nodes":[],"categories_segments":[],"categories_sizes":[],"default_left":[0,0,0,0,0,0,0,0,0,0,0,0,0],"id":38,"left_children":[1,3,5,7,9,11,-1,-1,-1,-1,-1,-1,-1],"loss_changes":[7.141075E0,6.495426E0,5.360578E0,7.288744E0,2.1417868E0,6.0964255E0,0E0,0E0,0E0,0E0,0E0,0E0,0E0],"parents":[2147483647,0,0,1,1,2,2,3,3,4,4,5,5],"right_children":[2,4,6,8,10,12,-1,-1,-1,-1,-1,-1,-1],"split_conditions":[7.190568E2,3.6E-1,1.5478598E-1,1E1,-4.0271315E-3,3.8089016E-1,5.7364088E-2,-4.4871308E-2,-4.0421127E-3,-1.3193321E-2,5.4999765E-2,1.3541676E-2,-7.9121925E-3],"split_indices":[41,4,31,32,31,29,0,0,0,0,0,0,0],"split_type":[0,0,0,0,0,0,0,0,0,0,0,0,0],"sum_hessian":[1.8402177E2,4.7915596E1,1.3610619E2,4.3721516E1,4.194079E0,1.3221031E2,3.8958695E0,1.875243E1,2.4969086E1,1.1487774E0,3.0453014E0,7.347115E1,5.873916E1],"tree_param":{"num_deleted":"0","num_feature":"46","num_nodes":"13","size_leaf_vector":"1"}},{"base_weights":[-4.4336323E-2,-4.5973176E-1,4.7518406E-2,-1.1497642E0,-2.2051333E-1,2.2096436E-1,-1.795884E-1,-1.1453592E-2,-6.7202866E-2,-2.7520483E-2,1.2414149E-2,1.414623E-2,-6.1163526E-2,-2.0903131E-2,1.570556E-2],"categories":[],"categories_nodes":[],"categories_segments":[],"categories_sizes":[],"default_left":[0,0,0,0,0,0,0,0,0,0,0,0,0,0,0],"id":39,"left_children":[1,3,5,7,9,11,13,-1,-1,-1,-1,-1,-1,-1,-1],"loss_changes":[6.5178022E0,4.8508186E0,5.567171E0,1.0736666E0,3.879211E0,7.505801E0,7.350155E0,0E0,0E0,0E0,0E0,0E0,0E0,0E0,0E0],"parents":[2147483647,0,0,1,1,2,2,3,3,4,4,5,5,6,6],"right_children":[2,4,6,8,10,12,14,-1,-1,-1,-1,-1,-1,-1,-1],"split_conditions":[4.6458307E-1,1.4845996E3,4.8306948E-1,-9.814325E-3,1.4463957E-1,1.4630533E2,1.6041322E-2,-1.1453592E-2,-6.7202866E-2,-2.7520483E-2,1.2414149E-2,1.414623E-2,-6.1163526E-2,-2.0903131E-2,1.570556E-2],"split_indices":[40,25,5,31,5,30,31,0,0,0,0,0,0,0,0],"split_type":[0,0,0,0,0,0,0,0,0,0,0,0,0,0,0],"sum_hessian":[1.6924716E2,2.992266E1,1.3932451E2,6.7231646E0,2.3199497E1,7.901003E1,6.0314472E1,1.5512571E0,5.1719074E0,1.3514867E1,9.684629E0,7.653082E1,2.4792063E0,4.0772923E1,1.954155E1],"tree_param":{"num_deleted":"0","num_feature":"46","num_nodes":"15","size_leaf_vector":"1"}},{"base_weights":[4.1892473E-2,-2.3956028E-1,1.4778575E-1,-2.3296133E-2,-9.099641E-1,8.124583E-2,1.0373287E0,-5.3352416E-2,7.4740946E-3,-6.240533E-2,1.7580675E-2,5.63878E-2,1.8980465E-3,-4.632793E-3,6.0363032E-2],"categories":[],"categories_nodes":[],"categories_segments":[],"categories_sizes":[],"default_left":[0,0,0,0,0,0,0,0,0,0,0,0,0,0,0],"id":40,"left_children":[1,3,5,7,9,11,13,-1,-1,-1,-1,-1,-1,-1,-1],"loss_changes":[5.5721397E0,7.39738E0,7.9421225E0,7.3214583E0,5.751628E0,5.721424E0,1.9077406E0,0E0,0E0,0E0,0E0,0E0,0E0,0E0,0E0],"parents":[2147483647,0,0,1,1,2,2,3,3,4,4,5,5,6,6],"right_children":[2,4,6,8,10,12,14,-1,-1,-1,-1,-1,-1,-1,-1],"split_conditions":[7.280136E2,1.5358962E3,9.206307E-2,2E0,1.6301314E2,-6.200463E1,-6.883535E0,-5.3352416E-2,7.4740946E-3,-6.240533E-2,1.7580675E-2,5.63878E-2,1.8980465E-3,-4.632793E-3,6.0363032E-2],"split_indices":[41,38,31,32,45,1,13,0,0,0,0,0,0,0,0],"split_type":[0,0,0,0,0,0,0,0,0,0,0,0,0,0,0],"sum_hessian":[1.8477188E2,5.0168148E1,1.3460373E2,3.8714176E1,1.1453974E1,1.2625118E2,8.352552E0,4.763292E0,3.3950882E1,9.0413E0,2.4126747E0,4.0193787E0,1.22231804E2,1.1513364E0,7.201216E0],"tree_param":{"num_deleted":"0","num_feature":"46","num_nodes":"15","size_leaf_vector":"1"}},{"base_weights":[1.8476294E-3,-3.530473E-1,8.895951E-2,-9.937182E-1,-7.568314E-2,3.9376598E-2,6.521933E-2,-6.329868E-2,2.3565648E-2,5.3299308E-2,-1.1926779E-2,3.420008E-3,-4.999536E-2],"categories":[],"categories_nodes":[],"categories_segments":[],"categories_sizes":[],"default_left":[0,0,0,0,0,0,0,0,0,0,0,0,0],"id":41,"left_children":[1,3,5,7,9,11,-1,-1,-1,-1,-1,-1,-1],"loss_changes":[5.7464504E0,6.434607E0,8.941644E0,4.978451E0,5.208808E0,4.424274E0,0E0,0E0,0E0,0E0,0E0,0E0,0E0],"parents":[2147483647,0,0,1,1,2,2,3,3,4,4,5,5],"right_children":[2,4,6,8,10,12,-1,-1,-1,-1,-1,-1,-1],"split_conditions":[4.6458307E-1,1.4842323E3,1E0,2.1333334E-1,1.4883068E3,1.5432501E3,6.521933E-2,-6.329868E-2,2.3565648E-2,5.3299308E-2,-1.1926779E-2,3.420008E-3,-4.999536E-2],"split_indices":[40,25,0,4,25,26,0,0,0,0,0,0,0],"split_type":[0,0,0,0,0,0,0,0,0,0,0,0,0],"sum_hessian":[1.8385973E2,3.5633907E1,1.4822581E2,9.985692E0,2.5648216E1,1.4340794E2,4.8178782E0,8.535384E0,1.4503081E0,2.5095332E0,2.3138683E1,1.4042067E2,2.9872735E0],"tree_param":{"num_deleted":"0","num_feature":"46","num_nodes":"13","size_leaf_vector":"1"}},{"base_weights":[1.749146E-2,-7.475723E-2,4.39407E-1,-1.09974615E-1,9.164058E-1,6.308987E-1,-6.303669E-1,-1.0642023E-2,1.0767911E-2,4.7951913E-3,6.1535366E-2,-1.4450452E-2,3.9214816E-2,4.363172E-2,-6.1841734E-2],"categories":[],"categories_nodes":[],"categories_segments":[],"categories_sizes":[],"default_left":[0,0,0,0,0,0,0,0,0,0,0,0,0,0,0],"id":42,"left_children":[1,3,5,7,9,11,13,-1,-1,-1,-1,-1,-1,-1,-1],"loss_changes":[7.140973E0,5.361738E0,7.1397557E0,4.946494E0,1.2432384E0,4.236312E0,6.0899706E0,0E0,0E0,0E0,0E0,0E0,0E0,0E0,0E0],"parents":[2147483647,0,0,1,1,2,2,3,3,4,4,5,5,6,6],"right_children":[2,4,6,8,10,12,14,-1,-1,-1,-1,-1,-1,-1,-1],"split_conditions":[9.174154E2,1E0,1.93041E0,5.815022E-1,-1.3335407E-2,-3.6666667E-1,2.6549166E1,-1.0642023E-2,1.0767911E-2,4.7951913E-3,6.1535366E-2,-1.4450452E-2,3.9214816E-2,4.363172E-2,-6.1841734E-2],"split_indices":[41,0,13,40,31,3,1,0,0,0,0,0,0,0,0],"split_type":[0,0,0,0,0,0,0,0,0,0,0,0,0,0,0],"sum_hessian":[1.8162881E2,1.497171E2,3.1911715E1,1.454385E2,4.2785854E0,2.7414682E1,4.4970336E0,1.1076264E2,3.467587E1,1.546498E0,2.7320876E0,3.7917788E0,2.3622904E1,1.1667103E0,3.3303232E0],"tree_param":{"num_deleted":"0","num_feature":"46","num_nodes":"15","size_leaf_vector":"1"}},{"base_weights":[-1.3575057E-3,-2.852223E-1,9.83938E-2,-5.766195E-1,2.0787682E-1,-8.87699E-1,1.632262E-1,-1.1641099E-2,-5.8520176E-2,-3.7797507E-2,2.2019072E-2,-6.299863E-2,-7.066651E-3,3.1437963E-2,2.5864118E-3],"categories":[],"categories_nodes":[],"categories_segments":[],"categories_sizes":[],"default_left":[0,0,0,0,0,0,0,0,0,0,0,0,0,0,0],"id":43,"left_children":[1,3,5,7,9,11,13,-1,-1,-1,-1,-1,-1,-1,-1],"loss_changes":[5.1819344E0,6.957281E0,8.80292E0,5.887458E0,4.4585533E0,2.1864438E0,6.607193E0,0E0,0E0,0E0,0E0,0E0,0E0,0E0,0E0],"parents":[2147483647,0,0,1,1,2,2,3,3,4,4,5,5,6,6],"right_children":[2,4,6,8,10,12,14,-1,-1,-1,-1,-1,-1,-1,-1],"split_conditions":[-3.19578E0,1.3333334E-1,1.4692604E3,-2.8605872E-1,1.4765035E3,5.045137E-1,8.372303E0,-1.1641099E-2,-5.8520176E-2,-3.7797507E-2,2.2019072E-2,-6.299863E-2,-7.066651E-3,3.1437963E-2,2.5864118E-3],"split_indices":[45,4,26,29,25,40,45,0,0,0,0,0,0,0,0],"split_type":[0,0,0,0,0,0,0,0,0,0,0,0,0,0,0],"sum_hessian":[1.8101338E2,4.6585247E1,1.3442813E2,2.9174927E1,1.7410322E1,7.5099854E0,1.2691815E2,1.9358541E1,9.816386E0,2.9461184E0,1.4464203E1,4.5515924E0,2.9583933E0,2.3627596E1,1.0329056E2],"tree_param":{"num_deleted":"0","num_feature":"46","num_nodes":"15","size_leaf_vector":"1"}},{"base_weights":[4.5637153E-2,-6.3045627E-1,1.02187105E-1,-8.268895E-1,3.3558127E-2,1.388985E-1,-7.965955E-1,-1.2297698E-2,-6.149603E-2,4.195769E-3,4.2492714E-2,4.491333E-3,-5.554674E-2],"categories":[],"categories_nodes":[],"categories_segments":[],"categories_sizes":[],"default_left":[0,0,0,0,0,0,0,0,0,0,0,0,0],"id":44,"left_children":[1,3,5,7,-1,9,11,-1,-1,-1,-1,-1,-1],"loss_changes":[6.9089737E0,4.1236444E0,5.5900326E0,2.64182E0,0E0,6.1987724E0,1.9569931E0,0E0,0E0,0E0,0E0,0E0,0E0],"parents":[2147483647,0,0,1,1,2,2,3,3,5,5,6,6],"right_children":[2,4,6,8,-1,10,12,-1,-1,-1,-1,-1,-1],"split_conditions":[1.473858E3,5.8666664E-1,1.4210855E-14,1.4888439E3,3.3558127E-2,1.2400695E-2,-3.2250416E-2,-1.2297698E-2,-6.149603E-2,4.195769E-3,4.2492714E-2,4.491333E-3,-5.554674E-2],"split_indices":[26,3,7,25,0,42,31,0,0,0,0,0,0],"split_type":[0,0,0,0,0,0,0,0,0,0,0,0,0],"sum_hessian":[1.7802179E2,1.2957487E1,1.650643E2,1.1575324E1,1.382163E0,1.59399E2,5.6653037E0,5.4007936E0,6.174531E0,1.4899426E2,1.0404728E1,1.6700566E0,3.9952471E0],"tree_param":{"num_deleted":"0","num_feature":"46","num_nodes":"13","size_leaf_vector":"1"}},{"base_weights":[7.2462703E-3,-7.3253065E-2,5.375737E-1,9.131818E-1,-1.0731408E-1,-2.1565382E-1,8.483128E-1,-2.8712123E-3,6.5278105E-2,-3.815797E-2,-2.4765984E-3,-4.5696616E-2,3.0741576E-2,-1.5834101E-3,4.924145E-2],"categories":[],"categories_nodes":[],"categories_segments":[],"categories_sizes":[],"default_left":[0,0,0,0,0,0,0,0,0,0,0,0,0,0,0],"id":45,"left_children":[1,3,5,7,9,11,13,-1,-1,-1,-1,-1,-1,-1,-1],"loss_changes":[7.7681627E0,5.408697E0,5.7953415E0,2.1242151E0,5.7860994E0,5.085489E0,2.094841E0,0E0,0E0,0E0,0E0,0E0,0E0,0E0,0E0],"parents":[2147483647,0,0,1,1,2,2,3,3,4,4,5,5,6,6],"right_children":[2,4,6,8,10,12,14,-1,-1,-1,-1,-1,-1,-1,-1],"split_conditions":[6.102519E-1,-9.234975E-2,-2.5043054E-2,-8.678623E-2,1.4744655E3,1.4702083E3,-2.1978023E0,-2.8712123E-3,6.5278105E-2,-3.815797E-2,-2.4765984E-3,-4.5696616E-2,3.0741576E-2,-1.5834101E-3,4.924145E-2],"split_indices":[40,44,31,2,25,39,13,0,0,0,0,0,0,0,0],"split_type":[0,0,0,0,0,0,0,0,0,0,0,0,0,0,0],"sum_hessian":[1.8004012E2,1.5706137E2,2.2978748E1,4.380761E0,1.526806E2,6.8004766E0,1.617827E1,1.506897E0,2.8738642E0,1.1374044E1,1.4130656E2,3.6397047E0,3.1607718E0,2.275897E0,1.3902374E1],"tree_param":{"num_deleted":"0","num_feature":"46","num_nodes":"15","size_leaf_vector":"1"}},{"base_weights":[3.4978237E-2,3.7347013E-1,-4.2639866E-2,-4.6583828E-1,5.716053E-1,-1.3629358E-1,3.7356067E-1,4.904552E-2,-5.066858E-2,-3.755622E-2,3.6885343E-2,-9.927262E-3,3.2447748E-2,-1.0612171E-2,3.217437E-2],"categories":[],"categories_nodes":[],"categories_segments":[],"categories_sizes":[],"default_left":[0,0,0,0,0,0,0,0,0,0,0,0,0,0,0],"id":46,"left_children":[1,3,5,7,9,11,13,-1,-1,-1,-1,-1,-1,-1,-1],"loss_changes":[4.917299E0,6.0701995E0,6.001165E0,6.7105417E0,6.856311E0,6.256134E0,4.612735E0,0E0,0E0,0E0,0E0,0E0,0E0,0E0,0E0],"parents":[2147483647,0,0,1,1,2,2,3,3,4,4,5,5,6,6],"right_children":[2,4,6,8,10,12,14,-1,-1,-1,-1,-1,-1,-1,-1],"split_conditions":[1.497395E3,-4.1457567E0,9.331654E2,-5.0146046E0,1.4735564E3,9.206307E-2,-5.942808E-1,4.904552E-2,-5.066858E-2,-3.755622E-2,3.6885343E-2,-9.927262E-3,3.2447748E-2,-1.0612171E-2,3.217437E-2],"split_indices":[38,45,41,8,26,31,8,0,0,0,0,0,0,0,0],"split_type":[0,0,0,0,0,0,0,0,0,0,0,0,0,0,0],"sum_hessian":[1.8555487E2,3.3901047E1,1.5165382E2,6.2165184E0,2.7684528E1,1.2434595E2,2.7307875E1,1.4894451E0,4.7270737E0,2.6956842E0,2.4988844E1,1.159046E2,8.44134E0,8.681244E0,1.862663E1],"tree_param":{"num_deleted":"0","num_feature":"46","num_nodes":"15","size_leaf_vector":"1"}},{"base_weights":[-4.1740347E-2,-4.502712E-1,4.674211E-2,-1.1448429E0,-1.7222634E-1,-6.339929E-2,4.9502528E-1,-6.4173974E-2,-1.7581586E-2,1.736239E-2,-3.0600697E-2,4.8321392E-3,-1.9684851E-2,-2.661728E-2,3.564564E-2],"categories":[],"categories_nodes":[],"categories_segments":[],"categories_sizes":[],"default_left":[0,0,0,0,0,0,0,0,0,0,0,0,0,0,0],"id":47,"left_children":[1,3,5,7,9,11,13,-1,-1,-1,-1,-1,-1,-1,-1],"loss_changes":[6.709123E0,6.182209E0,7.585063E0,5.6766605E-1,5.870691E0,6.5769773E0,7.159556E0,0E0,0E0,0E0,0E0,0E0,0E0,0E0,0E0],"parents":[2147483647,0,0,1,1,2,2,3,3,4,4,5,5,6,6],"right_children":[2,4,6,8,10,12,14,-1,-1,-1,-1,-1,-1,-1,-1],"split_conditions":[4.6458307E-1,1.4848445E3,1.5248766E3,2.4333334E-1,3.6380574E-4,1.5082705E3,-2.7333334E-1,-6.4173974E-2,-1.7581586E-2,1.736239E-2,-3.0600697E-2,4.8321392E-3,-1.9684851E-2,-2.661728E-2,3.564564E-2],"split_indices":[40,25,39,3,44,25,4,0,0,0,0,0,0,0,0],"split_type":[0,0,0,0,0,0,0,0,0,0,0,0,0,0,0],"sum_hessian":[1.8402022E2,3.203289E1,1.5198734E2,8.266138E0,2.3766754E1,1.22699196E2,2.9288136E1,6.5102105E0,1.7559279E0,1.0992687E1,1.2774067E1,8.312791E1,3.9571293E1,4.8721304E0,2.4416004E1],"tree_param":{"num_deleted":"0","num_feature":"46","num_nodes":"15","size_leaf_vector":"1"}},{"base_weights":[-2.0842584E-2,-3.7071908E-1,7.464035E-2,-9.745639E-1,-1.4878297E-1,2.4380264E-1,-1.5925965E-1,-5.7852734E-2,1.2623829E-2,-1.766684E-2,5.0514527E-2,3.107943E-2,4.217671E-4,-3.5909665E-4,-5.0863493E-2],"categories":[],"categories_nodes":[],"categories_segments":[],"categories_sizes":[],"default_left":[0,0,0,0,0,0,0,0,0,0,0,0,0,0,0],"id":48,"left_children":[1,3,5,7,9,11,13,-1,-1,-1,-1,-1,-1,-1,-1],"loss_changes":[6.0308175E0,5.040518E0,5.6574473E0,2.5804214E0,7.3451657E0,7.3572235E0,7.848141E0,0E0,0E0,0E0,0E0,0E0,0E0,0E0,0E0],"parents":[2147483647,0,0,1,1,2,2,3,3,4,4,5,5,6,6],"right_children":[2,4,6,8,10,12,14,-1,-1,-1,-1,-1,-1,-1,-1],"split_conditions":[4.7616392E-1,1.4842323E3,1.5030599E3,1.5367408E3,9.2407763E-1,-2.0719008E-1,9.872105E1,-5.7852734E-2,1.2623829E-2,-1.766684E-2,5.0514527E-2,3.107943E-2,4.217671E-4,-3.5909665E-4,-5.0863493E-2],"split_indices":[40,25,25,26,27,29,1,0,0,0,0,0,0,0,0],"split_type":[0,0,0,0,0,0,0,0,0,0,0,0,0,0,0],"sum_hessian":[1.7869603E2,3.7693565E1,1.4100246E2,9.219074E0,2.847449E1,8.180019E1,5.920227E1,8.07514E0,1.1439338E0,2.4793991E1,3.6804998E0,3.0770233E1,5.1029957E1,5.1145393E1,8.056877E0],"tree_param":{"num_deleted":"0","num_feature":"46","num_nodes":"15","size_leaf_vector":"1"}},{"base_weights":[-7.2257104E-3,-4.0288198E-1,7.303607E-2,6.385296E-2,-7.26679E-1,7.4064654E-1,-1.6890358E-2,-3.418856E-2,2.3215165E-2,1.4499674E-2,-5.1284708E-2,4.4505488E-2,-3.6504425E-2,8.0895955E-3,-1.5095639E-2],"categories":[],"categories_nodes":[],"categories_segments":[],"categories_sizes":[],"default_left":[0,0,0,0,0,0,0,0,0,0,0,0,0,0,0],"id":49,"left_children":[1,3,5,7,9,11,13,-1,-1,-1,-1,-1,-1,-1,-1],"loss_changes":[5.847869E0,4.7394104E0,9.208178E0,4.400653E0,5.895566E0,4.651678E0,6.973323E0,0E0,0E0,0E0,0E0,0E0,0E0,0E0,0E0],"parents":[2147483647,0,0,1,1,2,2,3,3,4,4,5,5,6,6],"right_children":[2,4,6,8,10,12,14,-1,-1,-1,-1,-1,-1,-1,-1],"split_conditions":[6.5633405E2,-3.222747E0,1.4905653E3,-2.9333332E-1,-3.006487E-1,3.761566E0,1.5030599E3,-3.418856E-2,2.3215165E-2,1.4499674E-2,-5.1284708E-2,4.4505488E-2,-3.6504425E-2,8.0895955E-3,-1.5095639E-2],"split_indices":[41,8,38,4,2,13,25,0,0,0,0,0,0,0,0],"split_type":[0,0,0,0,0,0,0,0,0,0,0,0,0,0,0],"sum_hessian":[1.8222302E2,3.0053335E1,1.521697E2,1.2638484E1,1.741485E1,1.7204914E1,1.3496477E2,4.1615458E0,8.476938E0,3.9647136E0,1.3450137E1,1.5976128E1,1.2287856E0,8.3223694E1,5.1741077E1],"tree_param":{"num_deleted":"0","num_feature":"46","num_nodes":"15","size_leaf_vector":"1"}}]},"name":"gbtree"},"learner_model_param":{"base_score":"[5.171233E-1]","boost_from_average":"1","num_class":"0","num_feature":"46","num_target":"1"},"objective":{"name":"binary:logistic","reg_loss_param":{"scale_pos_weight":"1"}}},"version":[3,2,0]}