{"learner":{"attributes":{"scikit_learn":"{\"_estimator_type\": \"classifier\"}"},"feature_names":["elo_diff","finish_diff","edge_speed_diff","edge_burst_diff","l5_goal_diff","l5_xg_diff","l5_corsi_diff","l5_pdo_diff","l5_st_net","home_sos","away_sos","l5_std_diff","l10_goal_diff","l10_xg_diff","elo_rest_inter","speed_finish_inter","home_xg","away_xg","home_elo","away_elo","away_win_rate","home_win_rate_away_sos","away_b2b_home_strength","pressure_index","xg_efficiency","power_momentum"],"feature_types":["float","float","float","float","float","float","float","float","float","float","float","float","float","float","float","float","float","float","float","float","float","float","float","float","float","float"],"gradient_booster":{"model":{"gbtree_model_param":{"num_parallel_tree":"1","num_trees":"50"},"iteration_indptr":[0,1,2,3,4,5,6,7,8,9,10,11,12,13,14,15,16,17,18,19,20,21,22,23,24,25,26,27,28,29,30,31,32,33,34,35,36,37,38,39,40,41,42,43,44,45,46,47,48,49,50],"tree_info":[0,0,0,0,0,0,0,0,0,0,0,0,0,0,0,0,0,0,0,0,0,0,0,0,0,0,0,0,0,0,0,0,0,0,0,0,0,0,0,0,0,0,0,0,0,0,0,0,0,0],"trees":[{"base_weights":[-1.1762547E-2,-4.5258376E-1,5.1955605E-1,-1.0302842E0,-1.3154925E-1,7.3108447E-1,1.1333695E-1,-2.8280276E-3,-1.1737664E-2,-7.735014E-3,2.0388616E-3,2.534507E-3,1.0547276E-2,-3.8508445E-3,8.038971E-3],"categories":[],"categories_nodes":[],"categories_segments":[],"categories_sizes":[],"default_left":[0,0,0,0,0,0,0,0,0,0,0,0,0,0,0],"id":0,"left_children":[1,3,5,7,9,11,13,-1,-1,-1,-1,-1,-1,-1,-1],"loss_changes":[4.1433197E1,1.7793118E1,6.810795E0,3.355854E0,1.3785165E1,7.859455E0,1.017223E1,0E0,0E0,0E0,0E0,0E0,0E0,0E0,0E0],"parents":[2147483647,0,0,1,1,2,2,3,3,4,4,5,5,6,6],"right_children":[2,4,6,8,10,12,14,-1,-1,-1,-1,-1,-1,-1,-1],"split_conditions":[7.988363E2,5.067422E-1,1.5029027E3,-2.5260627E-2,6.532219E2,-2.210425E-2,2.4670877E-2,-2.8280276E-3,-1.1737664E-2,-7.735014E-3,2.0388616E-3,2.534507E-3,1.0547276E-2,-3.8508445E-3,8.038971E-3],"split_indices":[21,20,9,15,21,1,24,0,0,0,0,0,0,0,0],"split_type":[0,0,0,0,0,0,0,0,0,0,0,0,0,0,0],"sum_hessian":[1.7489731E2,9.567033E1,7.922699E1,3.3384956E1,6.2285366E1,5.1572285E1,2.7654703E1,5.8548245E0,2.7530132E1,2.0927883E1,4.1357483E1,2.1550737E1,3.0021547E1,1.6318766E1,1.1335937E1],"tree_param":{"num_deleted":"0","num_feature":"26","num_nodes":"15","size_leaf_vector":"1"}},{"base_weights":[4.5516793E-2,-4.0448737E-1,5.579075E-1,-9.183166E-1,2.364618E-2,8.4316766E-1,-1.8241622E-2,-1.0982041E-2,-6.867732E-4,-3.3456741E-3,5.2691954E-3,3.0292328E-3,1.1187907E-2,-4.2379717E-3,5.0210063E-3],"categories":[],"categories_nodes":[],"categories_segments":[],"categories_sizes":[],"default_left":[0,0,0,0,0,0,0,0,0,0,0,0,0,0,0],"id":1,"left_children":[1,3,5,7,9,11,13,-1,-1,-1,-1,-1,-1,-1,-1],"loss_changes":[4.1041756E1,2.0882124E1,1.3688026E1,6.5156937E0,9.677194E0,7.949539E0,6.232979E0,0E0,0E0,0E0,0E0,0E0,0E0,0E0,0E0],"parents":[2147483647,0,0,1,1,2,2,3,3,4,4,5,5,6,6],"right_children":[2,4,6,8,10,12,14,-1,-1,-1,-1,-1,-1,-1,-1],"split_conditions":[7.9780853E2,5.225066E-1,1.5038286E3,1.2286134E1,8E-2,-5.4393E-1,2.5900738E-2,-1.0982041E-2,-6.867732E-4,-3.3456741E-3,5.2691954E-3,3.0292328E-3,1.1187907E-2,-4.2379717E-3,5.0210063E-3],"split_indices":[21,20,9,14,2,13,24,0,0,0,0,0,0,0,0],"split_type":[0,0,0,0,0,0,0,0,0,0,0,0,0,0,0],"sum_hessian":[1.7601643E2,9.382541E1,8.219103E1,4.2124405E1,5.1701004E1,5.4663063E1,2.7527964E1,3.4522636E1,7.6017647E0,3.0399118E1,2.1301884E1,1.9175848E1,3.5487217E1,1.5574622E1,1.19533415E1],"tree_param":{"num_deleted":"0","num_feature":"26","num_nodes":"15","size_leaf_vector":"1"}},{"base_weights":[-1.4757263E-2,-4.5884788E-1,5.1359725E-1,-9.762617E-1,1.8774542E-3,7.49068E-1,7.928177E-2,-1.1282586E-2,-3.0466788E-3,-3.4291914E-3,6.0021556E-3,1.1483476E-3,9.767895E-3,4.122471E-3,-8.330441E-3],"categories":[],"categories_nodes":[],"categories_segments":[],"categories_sizes":[],"default_left":[0,0,0,0,0,0,0,0,0,0,0,0,0,0,0],"id":2,"left_children":[1,3,5,7,9,11,13,-1,-1,-1,-1,-1,-1,-1,-1],"loss_changes":[4.15053E1,2.2908798E1,8.20339E0,4.2767563E0,1.0898329E1,7.4374256E0,9.311617E0,0E0,0E0,0E0,0E0,0E0,0E0,0E0,0E0],"parents":[2147483647,0,0,1,1,2,2,3,3,4,4,5,5,6,6],"right_children":[2,4,6,8,10,12,14,-1,-1,-1,-1,-1,-1,-1,-1],"split_conditions":[7.9780853E2,5.225066E-1,1.5029027E3,1.2286134E1,1.3333334E-2,-7.72464E-1,1.185015E-1,-1.1282586E-2,-3.0466788E-3,-3.4291914E-3,6.0021556E-3,1.1483476E-3,9.767895E-3,4.122471E-3,-8.330441E-3],"split_indices":[21,20,9,14,3,12,1,0,0,0,0,0,0,0,0],"split_type":[0,0,0,0,0,0,0,0,0,0,0,0,0,0,0],"sum_hessian":[1.7488693E2,9.509206E1,7.9794876E1,4.426342E1,5.0828636E1,5.1272175E1,2.8522703E1,3.553995E1,8.723467E0,3.251723E1,1.8311405E1,1.3943111E1,3.7329063E1,2.1297894E1,7.224809E0],"tree_param":{"num_deleted":"0","num_feature":"26","num_nodes":"15","size_leaf_vector":"1"}},{"base_weights":[1.0887501E-3,-9.647399E-1,2.4185152E-1,-1.0746695E0,4.3747377E-1,-6.590768E-2,7.111579E-1,2.6803783E-3,-1.166256E-2,9.982624E-3,-2.8696354E-3,-5.6803804E-3,3.4774775E-3,9.758061E-3,2.844663E-3],"categories":[],"categories_nodes":[],"categories_segments":[],"categories_sizes":[],"default_left":[0,0,0,0,0,0,0,0,0,0,0,0,0,0,0],"id":3,"left_children":[1,3,5,7,9,11,13,-1,-1,-1,-1,-1,-1,-1,-1],"loss_changes":[4.2579395E1,6.1022415E0,2.121618E1,4.514721E0,1.6542923E0,1.877388E1,6.287039E0,0E0,0E0,0E0,0E0,0E0,0E0,0E0,0E0],"parents":[2147483647,0,0,1,1,2,2,3,3,4,4,5,5,6,6],"right_children":[2,4,6,8,10,12,14,-1,-1,-1,-1,-1,-1,-1,-1],"split_conditions":[6.48123E2,6.437187E-1,5.4979193E-1,1.4492334E3,-1.3329246E0,7.995331E2,1.5028652E3,2.6803783E-3,-1.166256E-2,9.982624E-3,-2.8696354E-3,-5.6803804E-3,3.4774775E-3,9.758061E-3,2.844663E-3],"split_indices":[21,20,20,18,7,21,9,0,0,0,0,0,0,0,0],"split_type":[0,0,0,0,0,0,0,0,0,0,0,0,0,0,0],"sum_hessian":[1.8110579E2,3.5537758E1,1.4556802E2,3.317085E1,2.3669086E0,8.8434494E1,5.7133533E1,1.9950947E0,3.1175755E1,1.1210883E0,1.2458203E0,3.97768E1,4.86577E1,3.4468266E1,2.2665266E1],"tree_param":{"num_deleted":"0","num_feature":"26","num_nodes":"15","size_leaf_vector":"1"}},{"base_weights":[2.0343592E-2,-4.027896E-1,5.09019E-1,-8.370506E-1,-3.1750157E-2,7.9402137E-1,2.301184E-2,1.3222536E-3,-9.084649E-3,-6.4554135E-3,2.985946E-3,-4.4962782E-3,8.693031E-3,-8.165925E-3,3.195319E-3],"categories":[],"categories_nodes":[],"categories_segments":[],"categories_sizes":[],"default_left":[0,0,0,0,0,0,0,0,0,0,0,0,0,0,0],"id":4,"left_children":[1,3,5,7,9,11,13,-1,-1,-1,-1,-1,-1,-1,-1],"loss_changes":[3.6594715E1,1.5260748E1,1.1355066E1,3.143301E0,1.0777399E1,5.2338943E0,8.0737095E0,0E0,0E0,0E0,0E0,0E0,0E0,0E0,0E0],"parents":[2147483647,0,0,1,1,2,2,3,3,4,4,5,5,6,6],"right_children":[2,4,6,8,10,12,14,-1,-1,-1,-1,-1,-1,-1,-1],"split_conditions":[7.9780853E2,5.225066E-1,1.5024126E3,-2.8786474E1,6.48123E2,-1.0489606E-1,1.4725736E3,1.3222536E-3,-9.084649E-3,-6.4554135E-3,2.985946E-3,-4.4962782E-3,8.693031E-3,-8.165925E-3,3.195319E-3],"split_indices":[21,20,9,25,21,22,19,0,0,0,0,0,0,0,0],"split_type":[0,0,0,0,0,0,0,0,0,0,0,0,0,0,0],"sum_hessian":[1.7498708E2,9.387691E1,8.1110176E1,4.267478E1,5.120212E1,5.0728443E1,3.038173E1,2.8699996E0,3.9804783E1,1.758132E1,3.36208E1,2.6116452E0,4.81168E1,7.471647E0,2.2910084E1],"tree_param":{"num_deleted":"0","num_feature":"26","num_nodes":"15","size_leaf_vector":"1"}},{"base_weights":[2.0347277E-2,-4.021836E-1,5.029765E-1,-8.562123E-1,8.967316E-3,7.305187E-1,7.052639E-2,-1.0039553E-2,-1.3670154E-3,-3.3233548E-3,4.8330138E-3,5.8858045E-3,1.595638E-2,4.270746E-3,-8.226849E-3],"categories":[],"categories_nodes":[],"categories_segments":[],"categories_sizes":[],"default_left":[0,0,0,0,0,0,0,0,0,0,0,0,0,0,0],"id":5,"left_children":[1,3,5,7,9,11,13,-1,-1,-1,-1,-1,-1,-1,-1],"loss_changes":[3.695165E1,1.8048437E1,8.269882E0,4.7459908E0,8.531367E0,5.851824E0,9.989118E0,0E0,0E0,0E0,0E0,0E0,0E0,0E0,0E0],"parents":[2147483647,0,0,1,1,2,2,3,3,4,4,5,5,6,6],"right_children":[2,4,6,8,10,12,14,-1,-1,-1,-1,-1,-1,-1,-1],"split_conditions":[7.9729614E2,5.225066E-1,1.5029027E3,1.2286134E1,8E-2,1.0427948E-2,1.185015E-1,-1.0039553E-2,-1.3670154E-3,-3.3233548E-3,4.8330138E-3,5.8858045E-3,1.595638E-2,4.270746E-3,-8.226849E-3],"split_indices":[21,20,9,14,2,22,1,0,0,0,0,0,0,0,0],"split_type":[0,0,0,0,0,0,0,0,0,0,0,0,0,0,0],"sum_hessian":[1.7920952E2,9.564296E1,8.356655E1,4.4937057E1,5.0705902E1,5.4304108E1,2.9262445E1,3.695372E1,7.9833374E0,2.9662142E1,2.1043762E1,4.8093807E1,6.2102995E0,2.1287043E1,7.975403E0],"tree_param":{"num_deleted":"0","num_feature":"26","num_nodes":"15","size_leaf_vector":"1"}},{"base_weights":[-4.4513553E-2,-4.7880685E-1,4.6432465E-1,-9.3167067E-1,-6.354071E-2,7.5929743E-1,-2.2349475E-2,1.0739011E-4,-9.994235E-3,-5.7261945E-3,2.4825851E-3,2.591623E-3,1.0926055E-2,-8.862065E-3,2.9453598E-3],"categories":[],"categories_nodes":[],"categories_segments":[],"categories_sizes":[],"default_left":[0,0,0,0,0,0,0,0,0,0,0,0,0,0,0],"id":6,"left_children":[1,3,5,7,9,11,13,-1,-1,-1,-1,-1,-1,-1,-1],"loss_changes":[4.0070156E1,1.8328854E1,1.2009762E1,2.9924736E0,8.408766E0,8.392437E0,9.157032E0,0E0,0E0,0E0,0E0,0E0,0E0,0E0,0E0],"parents":[2147483647,0,0,1,1,2,2,3,3,4,4,5,5,6,6],"right_children":[2,4,6,8,10,12,14,-1,-1,-1,-1,-1,-1,-1,-1],"split_conditions":[7.9780853E2,5.225066E-1,1.5024126E3,-1.4696939E0,6.48123E2,-2.210425E-2,1.4746886E3,1.0739011E-4,-9.994235E-3,-5.7261945E-3,2.4825851E-3,2.591623E-3,1.0926055E-2,-8.862065E-3,2.9453598E-3],"split_indices":[21,20,9,11,21,1,19,0,0,0,0,0,0,0,0],"split_type":[0,0,0,0,0,0,0,0,0,0,0,0,0,0,0],"sum_hessian":[1.7931917E2,9.67781E1,8.254107E1,4.5698532E1,5.1079567E1,5.104348E1,3.1497591E1,3.1214967E0,4.2577038E1,1.9084139E1,3.1995426E1,2.1124023E1,2.9919458E1,7.9710917E0,2.3526499E1],"tree_param":{"num_deleted":"0","num_feature":"26","num_nodes":"15","size_leaf_vector":"1"}},{"base_weights":[2.1132413E-2,-4.5093995E-1,5.4740447E-1,-9.898862E-1,-2.7698394E-2,6.304301E-3,6.8307513E-1,-6.871641E-3,-1.5289827E-2,-3.3714413E-3,5.313768E-3,4.607763E-3,-8.414687E-3,4.4277916E-5,8.398893E-3],"categories":[],"categories_nodes":[],"categories_segments":[],"categories_sizes":[],"default_left":[0,0,0,0,0,0,0,0,0,0,0,0,0,0,0],"id":7,"left_children":[1,3,5,7,9,11,13,-1,-1,-1,-1,-1,-1,-1,-1],"loss_changes":[4.5251003E1,2.1879639E1,6.3170414E0,5.838928E0,9.663728E0,7.4274573E0,7.322048E0,0E0,0E0,0E0,0E0,0E0,0E0,0E0,0E0],"parents":[2147483647,0,0,1,1,2,2,3,3,4,4,5,5,6,6],"right_children":[2,4,6,8,10,12,14,-1,-1,-1,-1,-1,-1,-1,-1],"split_conditions":[7.9780853E2,5.075849E-1,-1.9721558E1,1.5071987E3,1.3333334E-2,1.5013718E3,-1.968756E1,-6.871641E-3,-1.5289827E-2,-3.3714413E-3,5.313768E-3,4.607763E-3,-8.414687E-3,4.4277916E-5,8.398893E-3],"split_indices":[21,20,14,9,3,9,25,0,0,0,0,0,0,0,0],"split_type":[0,0,0,0,0,0,0,0,0,0,0,0,0,0,0],"sum_hessian":[1.801481E2,9.503959E1,8.510851E1,4.121655E1,5.3823044E1,1.7271288E1,6.783723E1,2.7851557E1,1.3364991E1,3.490193E1,1.8921108E1,1.1540937E1,5.730351E0,1.2925892E1,5.4911335E1],"tree_param":{"num_deleted":"0","num_feature":"26","num_nodes":"15","size_leaf_vector":"1"}},{"base_weights":[-3.9333183E-2,-4.481252E-1,4.401963E-1,-9.46714E-1,9.703002E-3,6.903321E-1,4.2713666E-3,-1.0726291E-2,-2.9381828E-3,-5.687793E-3,3.6841163E-3,2.2757612E-3,9.01203E-3,-9.119798E-3,3.731615E-3],"categories":[],"categories_nodes":[],"categories_segments":[],"categories_sizes":[],"default_left":[0,0,0,0,0,0,0,0,0,0,0,0,0,0,0],"id":8,"left_children":[1,3,5,7,9,11,13,-1,-1,-1,-1,-1,-1,-1,-1],"loss_changes":[3.5169353E1,2.2105661E1,9.004131E0,3.49506E0,1.0886354E1,4.916008E0,1.08597975E1,0E0,0E0,0E0,0E0,0E0,0E0,0E0,0E0],"parents":[2147483647,0,0,1,1,2,2,3,3,4,4,5,5,6,6],"right_children":[2,4,6,8,10,12,14,-1,-1,-1,-1,-1,-1,-1,-1],"split_conditions":[7.9780853E2,5.225066E-1,1.5029027E3,3.6333334E-1,6.532219E2,-6.5214545E-1,1.4746886E3,-1.0726291E-2,-2.9381828E-3,-5.687793E-3,3.6841163E-3,2.2757612E-3,9.01203E-3,-9.119798E-3,3.731615E-3],"split_indices":[21,20,9,2,21,12,19,0,0,0,0,0,0,0,0],"split_type":[0,0,0,0,0,0,0,0,0,0,0,0,0,0,0],"sum_hessian":[1.774037E2,9.5800575E1,8.160313E1,4.534771E1,5.0452866E1,5.1480038E1,3.0123093E1,3.7477127E1,7.8705826E0,1.908662E1,3.1366245E1,1.6766092E1,3.4713943E1,8.224015E0,2.1899078E1],"tree_param":{"num_deleted":"0","num_feature":"26","num_nodes":"15","size_leaf_vector":"1"}},{"base_weights":[7.488826E-3,-3.1773683E-1,6.81676E-1,-6.3119924E-1,2.4386099E-1,8.806009E-1,1.3866471E-1,-3.8360478E-3,-1.0481641E-2,-4.508488E-3,5.3954143E-3,4.9075736E-3,1.2065427E-2,-2.9926621E-3,1.1437398E-2],"categories":[],"categories_nodes":[],"categories_segments":[],"categories_sizes":[],"default_left":[0,0,0,0,0,0,0,0,0,0,0,0,0,0,0],"id":9,"left_children":[1,3,5,7,9,11,13,-1,-1,-1,-1,-1,-1,-1,-1],"loss_changes":[3.8640766E1,2.1084648E1,6.0721855E0,7.504421E0,9.140188E0,4.7170715E0,7.6320786E0,0E0,0E0,0E0,0E0,0E0,0E0,0E0,0E0],"parents":[2147483647,0,0,1,1,2,2,3,3,4,4,5,5,6,6],"right_children":[2,4,6,8,10,12,14,-1,-1,-1,-1,-1,-1,-1,-1],"split_conditions":[8.358732E2,5.562167E-1,1.5054725E3,1.5055896E3,6.496433E2,5.365505E-1,2.3054944E-2,-3.8360478E-3,-1.0481641E-2,-4.508488E-3,5.3954143E-3,4.9075736E-3,1.2065427E-2,-2.9926621E-3,1.1437398E-2],"split_indices":[21,20,9,9,21,20,15,0,0,0,0,0,0,0,0],"split_type":[0,0,0,0,0,0,0,0,0,0,0,0,0,0,0],"sum_hessian":[1.7424243E2,1.1789769E2,5.6344746E1,7.558507E1,4.2312622E1,4.0782806E1,1.5561942E1,4.8629047E1,2.6956018E1,1.2475735E1,2.983689E1,1.9711943E1,2.1070862E1,1.1328247E1,4.233695E0],"tree_param":{"num_deleted":"0","num_feature":"26","num_nodes":"15","size_leaf_vector":"1"}},{"base_weights":[-2.3310693E-2,-3.1556332E-1,7.6318306E-1,-1.0410378E0,-9.603204E-2,5.550623E-1,1.1736398E0,5.6161047E-3,-1.1650209E-2,-6.303057E-3,9.5853297E-4,8.079726E-3,-9.2379644E-4,-6.319031E-3,1.4821403E-2],"categories":[],"categories_nodes":[],"categories_segments":[],"categories_sizes":[],"default_left":[0,0,0,0,0,0,0,0,0,0,0,0,0,0,0],"id":10,"left_children":[1,3,5,7,9,11,13,-1,-1,-1,-1,-1,-1,-1,-1],"loss_changes":[4.166061E1,2.0936886E1,3.5439281E0,6.7312202E0,1.05690975E1,5.72147E0,9.640673E0,0E0,0E0,0E0,0E0,0E0,0E0,0E0,0E0],"parents":[2147483647,0,0,1,1,2,2,3,3,4,4,5,5,6,6],"right_children":[2,4,6,8,10,12,14,-1,-1,-1,-1,-1,-1,-1,-1],"split_conditions":[8.8138715E2,4.7633496E-1,2.6E-1,-1.4432349E0,6.532219E2,1.5029027E3,-5.0796367E-2,5.6161047E-3,-1.1650209E-2,-6.303057E-3,9.5853297E-4,8.079726E-3,-9.2379644E-4,-6.319031E-3,1.4821403E-2],"split_indices":[21,20,2,11,21,9,24,0,0,0,0,0,0,0,0],"split_type":[0,0,0,0,0,0,0,0,0,0,0,0,0,0,0],"sum_hessian":[1.7919969E2,1.3108768E2,4.8112003E1,2.9583246E1,1.0150444E2,3.3485558E1,1.4626444E1,1.8708079E0,2.7712439E1,2.621849E1,7.528595E1,2.3901115E1,9.584443E0,1.9814467E0,1.2644997E1],"tree_param":{"num_deleted":"0","num_feature":"26","num_nodes":"15","size_leaf_vector":"1"}},{"base_weights":[-2.0634156E-2,-9.8223525E-1,2.023433E-1,-6.460256E-1,-1.4869199E0,-4.647265E-2,6.868038E-1,-8.234404E-3,6.8249595E-3,-4.2925514E-3,-1.7379794E-2,-3.8470812E-3,5.1485286E-3,9.320232E-3,1.1155199E-3],"categories":[],"categories_nodes":[],"categories_segments":[],"categories_sizes":[],"default_left":[0,0,0,0,0,0,0,0,0,0,0,0,0,0,0],"id":11,"left_children":[1,3,5,7,9,11,13,-1,-1,-1,-1,-1,-1,-1,-1],"loss_changes":[3.8138714E1,4.7199593E0,1.744632E1,5.71461E0,2.6042519E0,1.8497498E1,6.8200207E0,0E0,0E0,0E0,0E0,0E0,0E0,0E0,0E0],"parents":[2147483647,0,0,1,1,2,2,3,3,4,4,5,5,6,6],"right_children":[2,4,6,8,10,12,14,-1,-1,-1,-1,-1,-1,-1,-1],"split_conditions":[6.48123E2,0E0,8.8138715E2,1.6333333E-1,-3.5E-1,5.562167E-1,1.5029027E3,-8.234404E-3,6.8249595E-3,-4.2925514E-3,-1.7379794E-2,-3.8470812E-3,5.1485286E-3,9.320232E-3,1.1155199E-3],"split_indices":[21,7,21,3,3,20,9,0,0,0,0,0,0,0,0],"split_type":[0,0,0,0,0,0,0,0,0,0,0,0,0,0,0],"sum_hessian":[1.7594612E2,3.2478016E1,1.4346811E2,2.0860964E1,1.1617051E1,9.53837E1,4.808441E1,1.8738722E1,2.122243E0,2.7483907E0,8.868661E0,5.9715706E1,3.566799E1,3.3278282E1,1.4806129E1],"tree_param":{"num_deleted":"0","num_feature":"26","num_nodes":"15","size_leaf_vector":"1"}},{"base_weights":[-3.9664738E-2,-4.6192408E-1,4.4921702E-1,-1.0760468E0,-2.4609146E-1,7.072846E-1,-3.5247173E-2,4.548241E-3,-1.2039521E-2,-8.899706E-4,-9.910664E-3,1.5588353E-3,9.7488845E-3,-1.0000029E-2,3.410113E-3],"categories":[],"categories_nodes":[],"categories_segments":[],"categories_sizes":[],"default_left":[0,0,0,0,0,0,0,0,0,0,0,0,0,0,0],"id":12,"left_children":[1,3,5,7,9,11,13,-1,-1,-1,-1,-1,-1,-1,-1],"loss_changes":[3.6884624E1,1.243634E1,1.0382713E1,5.3688545E0,8.36153E0,7.830904E0,1.1138642E1,0E0,0E0,0E0,0E0,0E0,0E0,0E0,0E0],"parents":[2147483647,0,0,1,1,2,2,3,3,4,4,5,5,6,6],"right_children":[2,4,6,8,10,12,14,-1,-1,-1,-1,-1,-1,-1,-1],"split_conditions":[7.961058E2,4.7633496E-1,1.5029027E3,-1.3266499E0,9.9682325E-1,-6.5214545E-1,1.4746886E3,4.548241E-3,-1.2039521E-2,-8.899706E-4,-9.910664E-3,1.5588353E-3,9.7488845E-3,-1.0000029E-2,3.410113E-3],"split_indices":[21,20,9,11,11,12,19,0,0,0,0,0,0,0,0],"split_type":[0,0,0,0,0,0,0,0,0,0,0,0,0,0,0],"sum_hessian":[1.766692E2,9.482319E1,8.184601E1,2.3622622E1,7.120057E1,5.310027E1,2.8745737E1,1.6244127E0,2.1998209E1,5.972558E1,1.1474993E1,1.7867197E1,3.5233074E1,7.60028E0,2.1145458E1],"tree_param":{"num_deleted":"0","num_feature":"26","num_nodes":"15","size_leaf_vector":"1"}},{"base_weights":[2.3525821E-2,-8.923468E-1,2.3573828E-1,-1.0963033E0,9.045159E-2,-9.989806E-2,6.092517E-1,-1.2680757E-3,-1.2402541E-2,1.0592409E-2,-6.773803E-3,-6.1134794E-3,3.5210862E-3,9.155373E-3,1.4923962E-3],"categories":[],"categories_nodes":[],"categories_segments":[],"categories_sizes":[],"default_left":[0,0,0,0,0,0,0,0,0,0,0,0,0,0,0],"id":13,"left_children":[1,3,5,7,9,11,13,-1,-1,-1,-1,-1,-1,-1,-1],"loss_changes":[3.497619E1,6.8859863E0,1.8366047E1,3.7665253E0,5.7331724E0,1.8193197E1,9.620234E0,0E0,0E0,0E0,0E0,0E0,0E0,0E0,0E0],"parents":[2147483647,0,0,1,1,2,2,3,3,4,4,5,5,6,6],"right_children":[2,4,6,8,10,12,14,-1,-1,-1,-1,-1,-1,-1,-1],"split_conditions":[6.48123E2,5.8311266E-1,5.365505E-1,-4.6E-1,-1.5612028E0,7.995331E2,1.5028652E3,-1.2680757E-3,-1.2402541E-2,1.0592409E-2,-6.773803E-3,-6.1134794E-3,3.5210862E-3,9.155373E-3,1.4923962E-3],"split_indices":[21,20,20,2,7,21,9,0,0,0,0,0,0,0,0],"split_type":[0,0,0,0,0,0,0,0,0,0,0,0,0,0,0],"sum_hessian":[1.7787375E2,3.2858242E1,1.4501552E2,2.7115557E1,5.742685E0,7.676637E1,6.8249146E1,3.7487762E0,2.336678E1,2.3712757E0,3.3714094E0,3.584964E1,4.091673E1,4.0375824E1,2.7873318E1],"tree_param":{"num_deleted":"0","num_feature":"26","num_nodes":"15","size_leaf_vector":"1"}},{"base_weights":[7.6753763E-3,-2.417653E-1,6.7173386E-1,-7.247734E-1,2.466115E-2,8.6996794E-1,1.356853E-1,-9.811938E-3,-2.088553E-3,-5.33176E-3,2.3579497E-3,-6.1003654E-3,9.586359E-3,8.025264E-3,-6.8061566E-3],"categories":[],"categories_nodes":[],"categories_segments":[],"categories_sizes":[],"default_left":[0,0,0,0,0,0,0,0,0,0,0,0,0,0,0],"id":14,"left_children":[1,3,5,7,9,11,13,-1,-1,-1,-1,-1,-1,-1,-1],"loss_changes":[2.9495632E1,1.6678448E1,5.048479E0,5.8882732E0,1.0067147E1,5.21842E0,8.336166E0,0E0,0E0,0E0,0E0,0E0,0E0,0E0,0E0],"parents":[2147483647,0,0,1,1,2,2,3,3,4,4,5,5,6,6],"right_children":[2,4,6,8,10,12,14,-1,-1,-1,-1,-1,-1,-1,-1],"split_conditions":[8.8138715E2,5.067422E-1,1.5038286E3,7.7026825E2,6.532219E2,-3.6666667E-1,1.0050577E0,-9.811938E-3,-2.088553E-3,-5.33176E-3,2.3579497E-3,-6.1003654E-3,9.586359E-3,8.025264E-3,-6.8061566E-3],"split_indices":[21,20,9,21,21,2,23,0,0,0,0,0,0,0,0],"split_type":[0,0,0,0,0,0,0,0,0,0,0,0,0,0,0],"sum_hessian":[1.7608684E2,1.2846674E2,4.762011E1,4.5058758E1,8.3407974E1,3.430937E1,1.3310742E1,2.9496592E1,1.5562167E1,2.2482258E1,6.092572E1,1.6069484E0,3.270242E1,7.3353357E0,5.975406E0],"tree_param":{"num_deleted":"0","num_feature":"26","num_nodes":"15","size_leaf_vector":"1"}},{"base_weights":[1.2753025E-2,-3.741847E-1,4.674262E-1,-7.775055E-1,7.2681E-3,7.0841545E-1,1.981344E-2,-9.289806E-3,-7.3759933E-4,-2.9665295E-3,4.573966E-3,2.2911662E-3,9.555661E-3,-8.71901E-3,3.5986765E-3],"categories":[],"categories_nodes":[],"categories_segments":[],"categories_sizes":[],"default_left":[0,0,0,0,0,0,0,0,0,0,0,0,0,0,0],"id":15,"left_children":[1,3,5,7,9,11,13,-1,-1,-1,-1,-1,-1,-1,-1],"loss_changes":[3.1805521E1,1.5034406E1,8.9504795E0,4.994028E0,7.1393003E0,6.1769047E0,9.444942E0,0E0,0E0,0E0,0E0,0E0,0E0,0E0,0E0],"parents":[2147483647,0,0,1,1,2,2,3,3,4,4,5,5,6,6],"right_children":[2,4,6,8,10,12,14,-1,-1,-1,-1,-1,-1,-1,-1],"split_conditions":[7.9780853E2,5.225066E-1,1.5029027E3,7.2345195E0,8E-2,-5.446806E-2,1.4725736E3,-9.289806E-3,-7.3759933E-4,-2.9665295E-3,4.573966E-3,2.2911662E-3,9.555661E-3,-8.71901E-3,3.5986765E-3],"split_indices":[21,20,9,14,2,1,19,0,0,0,0,0,0,0,0],"split_type":[0,0,0,0,0,0,0,0,0,0,0,0,0,0,0],"sum_hessian":[1.7879073E2,9.6685814E1,8.2104904E1,4.649114E1,5.0194675E1,5.2992004E1,2.9112902E1,3.7993355E1,8.4977865E0,3.0167154E1,2.002752E1,1.8684402E1,3.4307602E1,7.60542E0,2.1507483E1],"tree_param":{"num_deleted":"0","num_feature":"26","num_nodes":"15","size_leaf_vector":"1"}},{"base_weights":[2.5784234E-2,-8.081646E-1,2.3337659E-1,-1.520843E0,-5.406442E-1,4.7690928E-1,-1.6753201E-1,-1.6954478E-2,-4.5076087E-3,-6.884907E-3,9.3933875E-3,1.2924473E-2,3.5213951E-3,4.182018E-3,-4.626571E-3],"categories":[],"categories_nodes":[],"categories_segments":[],"categories_sizes":[],"default_left":[0,0,0,0,0,0,0,0,0,0,0,0,0,0,0],"id":16,"left_children":[1,3,5,7,9,11,13,-1,-1,-1,-1,-1,-1,-1,-1],"loss_changes":[3.0380695E1,5.8476505E0,1.3789175E1,9.166584E-1,6.551862E0,8.45981E0,9.494007E0,0E0,0E0,0E0,0E0,0E0,0E0,0E0,0E0],"parents":[2147483647,0,0,1,1,2,2,3,3,4,4,5,5,6,6],"right_children":[2,4,6,8,10,12,14,-1,-1,-1,-1,-1,-1,-1,-1],"split_conditions":[6.48123E2,4.7475728E-1,1.503251E3,4.6756696E-2,1.5462855E3,1.4487786E3,-4.4232693E-1,-1.6954478E-2,-4.5076087E-3,-6.884907E-3,9.3933875E-3,1.2924473E-2,3.5213951E-3,4.182018E-3,-4.626571E-3],"split_indices":[21,20,9,24,19,19,11,0,0,0,0,0,0,0,0],"split_type":[0,0,0,0,0,0,0,0,0,0,0,0,0,0,0],"sum_hessian":[1.7339836E2,3.398387E1,1.3941449E2,7.9963927E0,2.5987478E1,8.661218E1,5.2802303E1,6.37223E0,1.6241624E0,2.4113409E1,1.8740686E0,1.0250793E1,7.636139E1,1.7551289E1,3.5251015E1],"tree_param":{"num_deleted":"0","num_feature":"26","num_nodes":"15","size_leaf_vector":"1"}},{"base_weights":[1.583969E-2,-4.1555658E-1,4.9022585E-1,-8.443189E-1,-6.414002E-2,6.7411053E-1,1.465307E-1,1.1823728E-3,-9.427426E-3,-3.99885E-3,3.7562165E-3,7.040747E-4,9.623638E-3,-8.687702E-3,4.979899E-3],"categories":[],"categories_nodes":[],"categories_segments":[],"categories_sizes":[],"default_left":[0,0,0,0,0,0,0,0,0,0,0,0,0,0,0],"id":17,"left_children":[1,3,5,7,9,11,13,-1,-1,-1,-1,-1,-1,-1,-1],"loss_changes":[3.616221E1,1.3893043E1,5.2191124E0,4.0537186E0,7.820984E0,9.422913E0,1.1353774E1,0E0,0E0,0E0,0E0,0E0,0E0,0E0,0E0],"parents":[2147483647,0,0,1,1,2,2,3,3,4,4,5,5,6,6],"right_children":[2,4,6,8,10,12,14,-1,-1,-1,-1,-1,-1,-1,-1],"split_conditions":[7.961058E2,5.075849E-1,1.5029027E3,-7.988753E1,7.222381E2,-6.71595E-1,1.4746886E3,1.1823728E-3,-9.427426E-3,-3.99885E-3,3.7562165E-3,7.040747E-4,9.623638E-3,-8.687702E-3,4.979899E-3],"split_indices":[21,20,9,0,21,5,19,0,0,0,0,0,0,0,0],"split_type":[0,0,0,0,0,0,0,0,0,0,0,0,0,0,0],"sum_hessian":[1.7470865E2,9.1565254E1,8.31434E1,4.061202E1,5.095323E1,5.3537994E1,2.9605404E1,3.748774E0,3.6863247E1,2.8945148E1,2.2008083E1,1.7703964E1,3.583403E1,7.234467E0,2.2370937E1],"tree_param":{"num_deleted":"0","num_feature":"26","num_nodes":"15","size_leaf_vector":"1"}},{"base_weights":[2.0923595E-4,-3.994681E-1,4.6793342E-1,-8.813223E-1,8.131883E-3,6.767675E-1,8.0771044E-2,-1.0486246E-2,-1.1926343E-3,-3.1836405E-3,3.8637617E-3,3.31971E-4,9.342306E-3,4.899762E-3,-7.386531E-3],"categories":[],"categories_nodes":[],"categories_segments":[],"categories_sizes":[],"default_left":[0,0,0,0,0,0,0,0,0,0,0,0,0,0,0],"id":18,"left_children":[1,3,5,7,9,11,13,-1,-1,-1,-1,-1,-1,-1,-1],"loss_changes":[3.4117374E1,1.9335611E1,6.7445564E0,5.625843E0,6.8293676E0,8.998127E0,1.0623023E1,0E0,0E0,0E0,0E0,0E0,0E0,0E0,0E0],"parents":[2147483647,0,0,1,1,2,2,3,3,4,4,5,5,6,6],"right_children":[2,4,6,8,10,12,14,-1,-1,-1,-1,-1,-1,-1,-1],"split_conditions":[7.9729614E2,5.075849E-1,1.5029027E3,1.2286134E1,7.222381E2,-7.459249E-1,9.2349425E-2,-1.0486246E-2,-1.1926343E-3,-3.1836405E-3,3.8637617E-3,3.31971E-4,9.342306E-3,4.899762E-3,-7.386531E-3],"split_indices":[21,20,9,14,21,12,1,0,0,0,0,0,0,0,0],"split_type":[0,0,0,0,0,0,0,0,0,0,0,0,0,0,0],"sum_hessian":[1.8050569E2,9.741179E1,8.30939E1,4.4107185E1,5.3304607E1,5.349231E1,2.9601593E1,3.5858727E1,8.248462E0,2.8694323E1,2.4610285E1,1.5607586E1,3.7884724E1,2.0010681E1,9.590914E0],"tree_param":{"num_deleted":"0","num_feature":"26","num_nodes":"15","size_leaf_vector":"1"}},{"base_weights":[4.3557245E-2,-3.5642856E-1,5.2375174E-1,-8.971476E-1,-3.5215482E-2,7.5487804E-1,9.127742E-2,1.6922018E-4,-9.894567E-3,-5.34183E-3,2.4198955E-3,3.305001E-3,1.2098721E-2,8.323229E-3,-3.1943857E-3],"categories":[],"categories_nodes":[],"categories_segments":[],"categories_sizes":[],"default_left":[0,0,0,0,0,0,0,0,0,0,0,0,0,0,0],"id":19,"left_children":[1,3,5,7,9,11,13,-1,-1,-1,-1,-1,-1,-1,-1],"loss_changes":[3.3650482E1,1.6580875E1,7.8855743E0,3.020853E0,8.572532E0,9.587727E0,9.047993E0,0E0,0E0,0E0,0E0,0E0,0E0,0E0,0E0],"parents":[2147483647,0,0,1,1,2,2,3,3,4,4,5,5,6,6],"right_children":[2,4,6,8,10,12,14,-1,-1,-1,-1,-1,-1,-1,-1],"split_conditions":[7.9780853E2,5.067422E-1,1.5029027E3,-2.0919327E1,6.532219E2,5.365505E-1,-3.0991772E-1,1.6922018E-4,-9.894567E-3,-5.34183E-3,2.4198955E-3,3.305001E-3,1.2098721E-2,8.323229E-3,-3.1943857E-3],"split_indices":[21,20,9,25,21,20,12,0,0,0,0,0,0,0,0],"split_type":[0,0,0,0,0,0,0,0,0,0,0,0,0,0,0],"sum_hessian":[1.7322621E2,9.464656E1,7.857965E1,3.46034E1,6.0043163E1,5.072521E1,2.7854446E1,3.2488732E0,3.1354527E1,2.1112946E1,3.8930218E1,2.7138872E1,2.3586336E1,9.566789E0,1.8287657E1],"tree_param":{"num_deleted":"0","num_feature":"26","num_nodes":"15","size_leaf_vector":"1"}},{"base_weights":[3.4259057E-3,-8.14532E-1,2.0420718E-1,-9.0745866E-1,5.6791166E-3,-5.698186E-2,5.7851636E-1,3.359548E-3,-9.956906E-3,-3.1792738E-3,4.5217583E-3,1.1670119E-2,4.2629503E-3],"categories":[],"categories_nodes":[],"categories_segments":[],"categories_sizes":[],"default_left":[0,0,0,0,0,0,0,0,0,0,0,0,0],"id":20,"left_children":[1,3,5,7,-1,9,11,-1,-1,-1,-1,-1,-1],"loss_changes":[2.987007E1,5.120466E0,1.4308584E1,4.061764E0,0E0,1.1691591E1,4.886656E0,0E0,0E0,0E0,0E0,0E0,0E0],"parents":[2147483647,0,0,1,1,2,2,3,3,5,5,6,6],"right_children":[2,4,6,8,-1,10,12,-1,-1,-1,-1,-1,-1],"split_conditions":[6.532219E2,6.437187E-1,5.4979193E-1,1.4492334E3,5.6791166E-3,8.8138715E2,1.503978E3,3.359548E-3,-9.956906E-3,-3.1792738E-3,4.5217583E-3,1.1670119E-2,4.2629503E-3],"split_indices":[21,20,20,18,0,21,18,0,0,0,0,0,0],"split_type":[0,0,0,0,0,0,0,0,0,0,0,0,0],"sum_hessian":[1.79866E2,3.484697E1,1.4501903E2,3.2974068E1,1.872904E0,8.591572E1,5.9103313E1,1.9987624E0,3.0975304E1,5.7051933E1,2.8863781E1,1.0776041E1,4.8327274E1],"tree_param":{"num_deleted":"0","num_feature":"26","num_nodes":"13","size_leaf_vector":"1"}},{"base_weights":[-1.9078046E-2,-4.0316254E-1,4.35308E-1,-8.7512916E-1,-2.2502564E-2,6.581109E-1,1.5740195E-2,2.7929172E-3,-9.591643E-3,-4.167134E-3,2.7959559E-3,1.0283113E-3,9.255867E-3,-8.153221E-3,3.4341488E-3],"categories":[],"categories_nodes":[],"categories_segments":[],"categories_sizes":[],"default_left":[0,0,0,0,0,0,0,0,0,0,0,0,0,0,0],"id":21,"left_children":[1,3,5,7,9,11,13,-1,-1,-1,-1,-1,-1,-1,-1],"loss_changes":[3.1649996E1,1.7632294E1,7.757289E0,4.520809E0,6.7157474E0,7.962002E0,8.407329E0,0E0,0E0,0E0,0E0,0E0,0E0,0E0,0E0],"parents":[2147483647,0,0,1,1,2,2,3,3,4,4,5,5,6,6],"right_children":[2,4,6,8,10,12,14,-1,-1,-1,-1,-1,-1,-1,-1],"split_conditions":[7.9780853E2,5.075849E-1,1.5030599E3,-2.8786474E1,-1.2666667E-1,-5.446806E-2,1.4746886E3,2.7929172E-3,-9.591643E-3,-4.167134E-3,2.7959559E-3,1.0283113E-3,9.255867E-3,-8.153221E-3,3.4341488E-3],"split_indices":[21,20,9,25,2,1,19,0,0,0,0,0,0,0,0],"split_type":[0,0,0,0,0,0,0,0,0,0,0,0,0,0,0],"sum_hessian":[1.793462E2,9.725284E1,8.2093376E1,4.2839146E1,5.4413692E1,5.3248367E1,2.8845007E1,2.7491777E0,4.0089966E1,2.3443129E1,3.0970566E1,1.7760994E1,3.5487373E1,7.736123E0,2.1108885E1],"tree_param":{"num_deleted":"0","num_feature":"26","num_nodes":"15","size_leaf_vector":"1"}},{"base_weights":[1.6271314E-2,-3.793882E-1,4.7310227E-1,-8.380837E-1,1.1592116E-2,5.290663E-1,-6.592452E-1,-1.012894E-2,-4.6372364E-4,2.0314676E-3,-8.149323E-3,3.80607E-3,1.0223276E-2,3.0854358E-3,-1.3331487E-2],"categories":[],"categories_nodes":[],"categories_segments":[],"categories_sizes":[],"default_left":[0,0,0,0,0,0,0,0,0,0,0,0,0,0,0],"id":22,"left_children":[1,3,5,7,9,11,13,-1,-1,-1,-1,-1,-1,-1,-1],"loss_changes":[3.2201714E1,1.7135519E1,5.587673E0,6.0363655E0,8.483614E0,5.420307E0,3.2409713E0,0E0,0E0,0E0,0E0,0E0,0E0,0E0,0E0],"parents":[2147483647,0,0,1,1,2,2,3,3,4,4,5,5,6,6],"right_children":[2,4,6,8,10,12,14,-1,-1,-1,-1,-1,-1,-1,-1],"split_conditions":[7.9729614E2,5.225066E-1,1.6187604E2,1.2286134E1,9.0974027E-1,7.613811E0,1.5068589E3,-1.012894E-2,-4.6372364E-4,2.0314676E-3,-8.149323E-3,3.80607E-3,1.0223276E-2,3.0854358E-3,-1.3331487E-2],"split_indices":[21,20,14,14,11,14,9,0,0,0,0,0,0,0,0],"split_type":[0,0,0,0,0,0,0,0,0,0,0,0,0,0,0],"sum_hessian":[1.7616353E2,9.449302E1,8.167051E1,4.295498E1,5.1538036E1,7.833189E1,3.3386269E0,3.4957066E1,7.9979157E0,4.245331E1,9.084729E0,6.1571903E1,1.6759983E1,1.5930345E0,1.7455924E0],"tree_param":{"num_deleted":"0","num_feature":"26","num_nodes":"15","size_leaf_vector":"1"}},{"base_weights":[3.6618013E-3,-2.5516182E-1,7.218181E-1,-8.864654E-1,-6.8447515E-2,9.5951897E-1,1.5364037E-1,3.8562778E-3,-9.973763E-3,7.762127E-4,-8.310549E-3,-3.112865E-4,1.0930819E-2,1.3867929E-2,-2.7815637E-3],"categories":[],"categories_nodes":[],"categories_segments":[],"categories_sizes":[],"default_left":[0,0,0,0,0,0,0,0,0,0,0,0,0,0,0],"id":23,"left_children":[1,3,5,7,9,11,13,-1,-1,-1,-1,-1,-1,-1,-1],"loss_changes":[3.3224285E1,1.5428078E1,6.247772E0,4.6044483E0,1.148148E1,4.4261208E0,8.456704E0,0E0,0E0,0E0,0E0,0E0,0E0,0E0,0E0],"parents":[2147483647,0,0,1,1,2,2,3,3,4,4,5,5,6,6],"right_children":[2,4,6,8,10,12,14,-1,-1,-1,-1,-1,-1,-1,-1],"split_conditions":[8.8138715E2,4.7633496E-1,1.5029027E3,-1.3266499E0,9.9682325E-1,-1.1178218E0,-5.7217408E-2,3.8562778E-3,-9.973763E-3,7.762127E-4,-8.310549E-3,-3.112865E-4,1.0930819E-2,1.3867929E-2,-2.7815637E-3],"split_indices":[21,20,9,11,11,11,1,0,0,0,0,0,0,0,0],"split_type":[0,0,0,0,0,0,0,0,0,0,0,0,0,0,0],"sum_hessian":[1.7675366E2,1.3040161E2,4.6352055E1,2.8909018E1,1.01492584E2,3.2194508E1,1.4157549E1,2.119739E0,2.6789278E1,8.593159E1,1.5561004E1,3.9160168E0,2.827849E1,3.098105E0,1.1059444E1],"tree_param":{"num_deleted":"0","num_feature":"26","num_nodes":"15","size_leaf_vector":"1"}},{"base_weights":[-4.359305E-3,-7.7397853E-1,1.868436E-1,-1.5419557E-2,-5.2279115E-1,-1.07851155E-1,5.9449154E-1,1.0923569E-2,-6.3648378E-3,-3.8606005E-3,4.505429E-3,8.527168E-3,2.1466617E-3],"categories":[],"categories_nodes":[],"categories_segments":[],"categories_sizes":[],"default_left":[0,0,0,0,0,0,0,0,0,0,0,0,0],"id":24,"left_children":[1,3,5,-1,7,9,11,-1,-1,-1,-1,-1,-1],"loss_changes":[2.6586369E1,6.129299E0,1.74515E1,0E0,5.94789E0,1.3355855E1,5.7883987E0,0E0,0E0,0E0,0E0,0E0,0E0],"parents":[2147483647,0,0,1,1,2,2,4,4,5,5,6,6],"right_children":[2,4,6,-1,8,10,12,-1,-1,-1,-1,-1,-1],"split_conditions":[6.48123E2,4.7475728E-1,5.4979193E-1,-1.5419557E-2,1.4492334E3,8.8138715E2,1.5028652E3,1.0923569E-2,-6.3648378E-3,-3.8606005E-3,4.505429E-3,8.527168E-3,2.1466617E-3],"split_indices":[21,20,20,0,18,21,9,0,0,0,0,0,0],"split_type":[0,0,0,0,0,0,0,0,0,0,0,0,0],"sum_hessian":[1.7868832E2,3.495231E1,1.4373601E2,7.3479886E0,2.760432E1,8.385292E1,5.9883095E1,1.2492434E0,2.6355076E1,5.6173965E1,2.7678953E1,3.4906673E1,2.497642E1],"tree_param":{"num_deleted":"0","num_feature":"26","num_nodes":"13","size_leaf_vector":"1"}},{"base_weights":[-2.6378226E-2,-3.7972158E-1,4.0169072E-1,-7.9905915E-1,-2.7801037E-2,-5.355943E-1,4.8647636E-1,-1.5516111E-3,-9.301011E-3,-4.4303024E-3,3.3191086E-3,2.3300482E-3,-1.5512352E-2,-1.1952079E-3,6.4796153E-3],"categories":[],"categories_nodes":[],"categories_segments":[],"categories_sizes":[],"default_left":[0,0,0,0,0,0,0,0,0,0,0,0,0,0,0],"id":25,"left_children":[1,3,5,7,9,11,13,-1,-1,-1,-1,-1,-1,-1,-1],"loss_changes":[2.698579E1,1.4395481E1,6.6740723E0,3.61413E0,8.23583E0,5.9591713E0,7.371359E0,0E0,0E0,0E0,0E0,0E0,0E0,0E0,0E0],"parents":[2147483647,0,0,1,1,2,2,3,3,4,4,5,5,6,6],"right_children":[2,4,6,8,10,12,14,-1,-1,-1,-1,-1,-1,-1,-1],"split_conditions":[7.988363E2,5.075849E-1,4.4142395E-1,-4.4996426E1,-1.2666667E-1,2.575001E1,-1.9721558E1,-1.5516111E-3,-9.301011E-3,-4.4303024E-3,3.3191086E-3,2.3300482E-3,-1.5512352E-2,-1.1952079E-3,6.4796153E-3],"split_indices":[21,20,20,0,2,0,14,0,0,0,0,0,0,0,0],"split_type":[0,0,0,0,0,0,0,0,0,0,0,0,0,0,0],"sum_hessian":[1.7640375E2,9.6698395E1,7.970535E1,4.3543156E1,5.315524E1,6.170865E0,7.3534485E1,7.7324505E0,3.5810707E1,2.4566067E1,2.8589174E1,3.9512727E0,2.219592E0,1.5526997E1,5.8007492E1],"tree_param":{"num_deleted":"0","num_feature":"26","num_nodes":"15","size_leaf_vector":"1"}},{"base_weights":[1.4400039E-3,-3.615317E-1,4.207709E-1,-7.9659504E-1,-3.4471487E-3,4.9509144E-1,-6.4243233E-1,-9.375885E-3,-1.1413737E-3,1.2107715E-3,-1.1366147E-2,-5.6374486E-4,6.4678756E-3,-1.3799048E-2,7.151445E-3],"categories":[],"categories_nodes":[],"categories_segments":[],"categories_sizes":[],"default_left":[0,0,0,0,0,0,0,0,0,0,0,0,0,0,0],"id":26,"left_children":[1,3,5,7,9,11,13,-1,-1,-1,-1,-1,-1,-1,-1],"loss_changes":[2.6991539E1,1.4806326E1,6.8195515E0,4.0220566E0,7.636942E0,6.517048E0,6.804611E0,0E0,0E0,0E0,0E0,0E0,0E0,0E0,0E0],"parents":[2147483647,0,0,1,1,2,2,3,3,4,4,5,5,6,6],"right_children":[2,4,6,8,10,12,14,-1,-1,-1,-1,-1,-1,-1,-1],"split_conditions":[7.9780853E2,5.075849E-1,1.5577242E2,3.6333334E-1,1.3856181E0,-1.9721558E1,9.6240656E2,-9.375885E-3,-1.1413737E-3,1.2107715E-3,-1.1366147E-2,-5.6374486E-4,6.4678756E-3,-1.3799048E-2,7.151445E-3],"split_indices":[21,20,14,2,11,14,21,0,0,0,0,0,0,0,0],"split_type":[0,0,0,0,0,0,0,0,0,0,0,0,0,0,0],"sum_hessian":[1.7533699E2,9.405826E1,8.127874E1,4.1911858E1,5.21464E1,7.646779E1,4.810948E0,3.4425766E1,7.48609E0,4.7788097E1,4.3583045E0,1.663228E1,5.983551E1,3.106802E0,1.704146E0],"tree_param":{"num_deleted":"0","num_feature":"26","num_nodes":"15","size_leaf_vector":"1"}},{"base_weights":[-1.4529952E-2,-4.020257E-1,4.2769074E-1,-8.37924E-1,-4.5782395E-2,1.1836797E-1,6.546285E-1,-9.205182E-3,2.3492891E-3,4.5520305E-3,-3.0359481E-3,-6.1766426E-3,4.890829E-3,1.0947054E-2,4.361207E-3],"categories":[],"categories_nodes":[],"categories_segments":[],"categories_sizes":[],"default_left":[0,0,0,0,0,0,0,0,0,0,0,0,0,0,0],"id":27,"left_children":[1,3,5,7,9,11,13,-1,-1,-1,-1,-1,-1,-1,-1],"loss_changes":[3.0802849E1,1.4836007E1,5.8166895E0,4.0282936E0,7.0827985E0,1.0330723E1,4.1586723E0,0E0,0E0,0E0,0E0,0E0,0E0,0E0,0E0],"parents":[2147483647,0,0,1,1,2,2,3,3,4,4,5,5,6,6],"right_children":[2,4,6,8,10,12,14,-1,-1,-1,-1,-1,-1,-1,-1],"split_conditions":[7.9780853E2,5.075849E-1,8.8138715E2,1.5021389E0,-4.6292883E-1,1.4873206E3,1.4925093E3,-9.205182E-3,2.3492891E-3,4.5520305E-3,-3.0359481E-3,-6.1766426E-3,4.890829E-3,1.0947054E-2,4.361207E-3],"split_indices":[21,20,21,11,11,19,10,0,0,0,0,0,0,0,0],"split_type":[0,0,0,0,0,0,0,0,0,0,0,0,0,0,0],"sum_hessian":[1.7775322E2,9.478702E1,8.29662E1,4.2019707E1,5.276731E1,3.5754017E1,4.721218E1,3.9147877E1,2.8718307E0,1.7668314E1,3.5099E1,1.1752999E1,2.4001019E1,1.4333814E1,3.287837E1],"tree_param":{"num_deleted":"0","num_feature":"26","num_nodes":"15","size_leaf_vector":"1"}},{"base_weights":[4.8791417E-3,-8.4118575E-1,1.9864596E-1,-9.7220623E-1,2.780306E-1,-2.6695324E-2,6.5229684E-1,-1.0655748E-2,6.455501E-3,1.314438E-2,-1.0957659E-2,-3.5437564E-3,4.625905E-3,-9.097414E-3,7.218455E-3],"categories":[],"categories_nodes":[],"categories_segments":[],"categories_sizes":[],"default_left":[0,0,0,0,0,0,0,0,0,0,0,0,0,0,0],"id":28,"left_children":[1,3,5,7,9,11,13,-1,-1,-1,-1,-1,-1,-1,-1],"loss_changes":[2.9071804E1,5.116186E0,1.4765329E1,5.189905E0,7.4783244E0,1.5771861E1,5.8624153E0,0E0,0E0,0E0,0E0,0E0,0E0,0E0,0E0],"parents":[2147483647,0,0,1,1,2,2,3,3,4,4,5,5,6,6],"right_children":[2,4,6,8,10,12,14,-1,-1,-1,-1,-1,-1,-1,-1],"split_conditions":[6.48123E2,6.2011383E-2,8.8138715E2,7.81626E1,1.4989207E3,5.4979193E-1,-1.8871192E0,-1.0655748E-2,6.455501E-3,1.314438E-2,-1.0957659E-2,-3.5437564E-3,4.625905E-3,-9.097414E-3,7.218455E-3],"split_indices":[21,24,21,0,18,20,11,0,0,0,0,0,0,0,0],"split_type":[0,0,0,0,0,0,0,0,0,0,0,0,0,0,0],"sum_hessian":[1.7531346E2,3.2046062E1,1.432674E2,2.8805332E1,3.2407308E0,9.6349174E1,4.691822E1,2.7556253E1,1.249079E0,1.8718181E0,1.3689128E0,5.7869225E1,3.8479954E1,1.485E0,4.543322E1],"tree_param":{"num_deleted":"0","num_feature":"26","num_nodes":"15","size_leaf_vector":"1"}},{"base_weights":[5.0694603E-2,-7.575817E-1,2.3877826E-1,-8.607121E-1,1.0720006E-2,-2.972303E-2,6.248813E-1,-1.1101551E-3,-1.0476044E-2,-4.449137E-3,3.277514E-3,8.645638E-3,2.6137768E-3],"categories":[],"categories_nodes":[],"categories_segments":[],"categories_sizes":[],"default_left":[0,0,0,0,0,0,0,0,0,0,0,0,0],"id":29,"left_children":[1,3,5,7,-1,9,11,-1,-1,-1,-1,-1,-1],"loss_changes":[2.7198349E1,7.297947E0,1.5043457E1,4.442896E0,0E0,1.2975072E1,4.9573135E0,0E0,0E0,0E0,0E0,0E0,0E0],"parents":[2147483647,0,0,1,1,2,2,3,3,5,5,6,6],"right_children":[2,4,6,8,-1,10,12,-1,-1,-1,-1,-1,-1],"split_conditions":[6.48123E2,6.437187E-1,5.4979193E-1,-4.4333333E-1,1.0720006E-2,7.995331E2,1.5028652E3,-1.1101551E-3,-1.0476044E-2,-4.449137E-3,3.277514E-3,8.645638E-3,2.6137768E-3],"split_indices":[21,20,20,2,0,21,9,0,0,0,0,0,0],"split_type":[0,0,0,0,0,0,0,0,0,0,0,0,0],"sum_hessian":[1.7671887E2,3.278778E1,1.4393109E2,3.153951E1,1.2482693E0,8.5438805E1,5.8492283E1,6.6116524E0,2.4927858E1,3.9415195E1,4.6023605E1,3.441906E1,2.4073225E1],"tree_param":{"num_deleted":"0","num_feature":"26","num_nodes":"13","size_leaf_vector":"1"}},{"base_weights":[3.6847284E-3,-2.4590653E-1,6.9501114E-1,-7.153211E-1,4.066213E-3,9.219106E-1,5.685277E-2,-5.6259916E-3,-1.5266445E-2,-6.226624E-3,2.24831E-3,-4.561481E-3,1.0110928E-2,-6.358701E-3,9.283069E-3],"categories":[],"categories_nodes":[],"categories_segments":[],"categories_sizes":[],"default_left":[0,0,0,0,0,0,0,0,0,0,0,0,0,0,0],"id":30,"left_children":[1,3,5,7,9,11,13,-1,-1,-1,-1,-1,-1,-1,-1],"loss_changes":[3.1190416E1,1.5588566E1,6.8904057E0,4.8605614E0,1.2269224E1,4.8002644E0,8.825807E0,0E0,0E0,0E0,0E0,0E0,0E0,0E0,0E0],"parents":[2147483647,0,0,1,1,2,2,3,3,4,4,5,5,6,6],"right_children":[2,4,6,8,10,12,14,-1,-1,-1,-1,-1,-1,-1,-1],"split_conditions":[8.8138715E2,5.067422E-1,1.5038286E3,5.898218E1,6.532219E2,-3.6666667E-1,2.2882601E-2,-5.6259916E-3,-1.5266445E-2,-6.226624E-3,2.24831E-3,-4.561481E-3,1.0110928E-2,-6.358701E-3,9.283069E-3],"split_indices":[21,20,9,0,21,2,24,0,0,0,0,0,0,0,0],"split_type":[0,0,0,0,0,0,0,0,0,0,0,0,0,0,0],"sum_hessian":[1.7877216E2,1.3182379E2,4.6948364E1,4.5159267E1,8.666452E1,3.4306076E1,1.2642287E1,3.94304E1,5.728867E0,2.2101147E1,6.456337E1,1.8350956E0,3.247098E1,7.1940436E0,5.4482436E0],"tree_param":{"num_deleted":"0","num_feature":"26","num_nodes":"15","size_leaf_vector":"1"}},{"base_weights":[1.4800361E-2,-8.526388E-1,2.2683568E-1,-9.5966333E-1,4.71886E-1,5.525186E-3,6.6134804E-1,3.5692118E-3,-1.0535872E-2,1.0139883E-2,-2.4956902E-3,-2.7481567E-3,4.1578137E-3,8.555219E-3,1.8079007E-3],"categories":[],"categories_nodes":[],"categories_segments":[],"categories_sizes":[],"default_left":[0,0,0,0,0,0,0,0,0,0,0,0,0,0,0],"id":31,"left_children":[1,3,5,7,9,11,13,-1,-1,-1,-1,-1,-1,-1,-1],"loss_changes":[3.383482E1,5.575556E0,1.4206063E1,4.5514126E0,1.5718726E0,1.1490244E1,4.4975414E0,0E0,0E0,0E0,0E0,0E0,0E0,0E0,0E0],"parents":[2147483647,0,0,1,1,2,2,3,3,4,4,5,5,6,6],"right_children":[2,4,6,8,10,12,14,-1,-1,-1,-1,-1,-1,-1,-1],"split_conditions":[6.48123E2,6.437187E-1,8.8138715E2,1.4492334E3,-1.3329246E0,5.4979193E-1,1.5029027E3,3.5692118E-3,-1.0535872E-2,1.0139883E-2,-2.4956902E-3,-2.7481567E-3,4.1578137E-3,8.555219E-3,1.8079007E-3],"split_indices":[21,20,21,18,7,20,9,0,0,0,0,0,0,0,0],"split_type":[0,0,0,0,0,0,0,0,0,0,0,0,0,0,0],"sum_hessian":[1.819056E2,3.513729E1,1.467683E2,3.276525E1,2.3720396E0,9.791161E1,4.885668E1,1.9953377E0,3.0769913E1,1.1228511E0,1.2491884E0,5.836151E1,3.9550106E1,3.424102E1,1.46156645E1],"tree_param":{"num_deleted":"0","num_feature":"26","num_nodes":"15","size_leaf_vector":"1"}},{"base_weights":[1.2017245E-2,-2.6206195E-1,6.145178E-1,-8.447791E-1,-8.252583E-2,3.74233E-1,1.1834352E0,-1.028052E-2,2.1974528E-3,-1.751549E-3,9.33676E-3,4.853083E-3,-9.942268E-3,-2.6947816E-3,1.3930354E-2],"categories":[],"categories_nodes":[],"categories_segments":[],"categories_sizes":[],"default_left":[0,0,0,0,0,0,0,0,0,0,0,0,0,0,0],"id":32,"left_children":[1,3,5,7,9,11,13,-1,-1,-1,-1,-1,-1,-1,-1],"loss_changes":[2.9011059E1,1.2566476E1,7.065445E0,5.755043E0,8.959311E0,6.574415E0,5.201256E0,0E0,0E0,0E0,0E0,0E0,0E0,0E0,0E0],"parents":[2147483647,0,0,1,1,2,2,3,3,4,4,5,5,6,6],"right_children":[2,4,6,8,10,12,14,-1,-1,-1,-1,-1,-1,-1,-1],"split_conditions":[8.358732E2,4.7633496E-1,5.659623E-1,1.2286134E1,1.546983E3,4.4E-1,-5.5969715E-1,-1.028052E-2,2.1974528E-3,-1.751549E-3,9.33676E-3,4.853083E-3,-9.942268E-3,-2.6947816E-3,1.3930354E-2],"split_indices":[21,20,20,14,19,3,12,0,0,0,0,0,0,0,0],"split_type":[0,0,0,0,0,0,0,0,0,0,0,0,0,0,0],"sum_hessian":[1.737079E2,1.1978321E2,5.3924683E1,2.734022E1,9.244299E1,3.90778E1,1.4846882E1,2.3353796E1,3.986424E0,8.547903E1,6.963966E0,3.6740967E1,2.3368328E0,1.8357927E0,1.3011088E1],"tree_param":{"num_deleted":"0","num_feature":"26","num_nodes":"15","size_leaf_vector":"1"}},{"base_weights":[2.0534893E-2,-7.785784E-1,2.104029E-1,5.285632E-3,-8.494931E-1,-5.3626597E-1,3.2482058E-1,-1.5850352E-3,-1.0141331E-2,-1.1964207E-2,8.9838594E-4,2.037993E-3,9.005426E-3],"categories":[],"categories_nodes":[],"categories_segments":[],"categories_sizes":[],"default_left":[0,0,0,0,0,0,0,0,0,0,0,0,0],"id":33,"left_children":[1,3,5,-1,7,9,11,-1,-1,-1,-1,-1,-1],"loss_changes":[2.6962904E1,3.6120033E0,1.2434186E1,0E0,3.5650482E0,8.144886E0,8.529981E0,0E0,0E0,0E0,0E0,0E0,0E0],"parents":[2147483647,0,0,1,1,2,2,4,4,5,5,6,6],"right_children":[2,4,6,-1,8,10,12,-1,-1,-1,-1,-1,-1],"split_conditions":[6.48123E2,1.4492334E3,4.6407768E-1,5.285632E-3,-1.603676E1,1.4977484E3,9.637742E2,-1.5850352E-3,-1.0141331E-2,-1.1964207E-2,8.9838594E-4,2.037993E-3,9.005426E-3],"split_indices":[21,18,20,0,25,10,21,0,0,0,0,0,0],"split_type":[0,0,0,0,0,0,0,0,0,0,0,0,0],"sum_hessian":[1.7562811E2,3.3122414E1,1.425057E2,1.3723794E0,3.1750036E1,1.8445675E1,1.2406003E2,6.487001E0,2.5263035E1,8.535296E0,9.9103775E0,1.0363015E2,2.0429878E1],"tree_param":{"num_deleted":"0","num_feature":"26","num_nodes":"13","size_leaf_vector":"1"}},{"base_weights":[-2.1023115E-2,-7.7813596E-1,1.785869E-1,-9.410095E-1,5.1732425E-2,-7.804224E-2,5.699403E-1,-1.7483053E-3,-1.11341225E-2,1.0779944E-2,-7.0806686E-3,-4.4667358E-3,2.5913806E-3,3.0740376E-3,9.395759E-3],"categories":[],"categories_nodes":[],"categories_segments":[],"categories_sizes":[],"default_left":[0,0,0,0,0,0,0,0,0,0,0,0,0,0,0],"id":34,"left_children":[1,3,5,7,9,11,13,-1,-1,-1,-1,-1,-1,-1,-1],"loss_changes":[2.6692257E1,5.0287704E0,1.4090652E1,3.8806343E0,6.2159696E0,1.0723961E1,5.097988E0,0E0,0E0,0E0,0E0,0E0,0E0,0E0,0E0],"parents":[2147483647,0,0,1,1,2,2,3,3,4,4,5,5,6,6],"right_children":[2,4,6,8,10,12,14,-1,-1,-1,-1,-1,-1,-1,-1],"split_conditions":[6.532219E2,5.8311266E-1,5.4979193E-1,-4.4333333E-1,-1.5612028E0,7.995331E2,1.4E-1,-1.7483053E-3,-1.11341225E-2,1.0779944E-2,-7.0806686E-3,-4.4667358E-3,2.5913806E-3,3.0740376E-3,9.395759E-3],"split_indices":[21,20,20,2,7,21,2,0,0,0,0,0,0,0,0],"split_type":[0,0,0,0,0,0,0,0,0,0,0,0,0,0,0],"sum_hessian":[1.7470148E2,3.5844902E1,1.3885657E2,2.985208E1,5.992824E0,8.434688E1,5.4509693E1,5.853315E0,2.3998764E1,2.371222E0,3.6216018E0,4.0139053E1,4.420782E1,3.2943176E1,2.1566515E1],"tree_param":{"num_deleted":"0","num_feature":"26","num_nodes":"15","size_leaf_vector":"1"}},{"base_weights":[-8.984812E-3,-3.598423E-1,4.117645E-1,-7.73246E-1,-2.6428968E-2,5.96708E-1,4.282734E-2,3.990055E-3,-8.5557755E-3,-4.3059336E-3,2.5918717E-3,1.272081E-4,7.8269895E-3,4.3044E-3,-8.046129E-3],"categories":[],"categories_nodes":[],"categories_segments":[],"categories_sizes":[],"default_left":[0,0,0,0,0,0,0,0,0,0,0,0,0,0,0],"id":35,"left_children":[1,3,5,7,9,11,13,-1,-1,-1,-1,-1,-1,-1,-1],"loss_changes":[2.7166758E1,1.3809154E1,5.6847773E0,4.66119E0,6.6425247E0,6.0364647E0,9.879312E0,0E0,0E0,0E0,0E0,0E0,0E0,0E0,0E0],"parents":[2147483647,0,0,1,1,2,2,3,3,4,4,5,5,6,6],"right_children":[2,4,6,8,10,12,14,-1,-1,-1,-1,-1,-1,-1,-1],"split_conditions":[7.9780853E2,5.075849E-1,1.5038286E3,-1.4696939E0,-1.5E-1,-1.0323016E-1,9.2349425E-2,3.990055E-3,-8.5557755E-3,-4.3059336E-3,2.5918717E-3,1.272081E-4,7.8269895E-3,4.3044E-3,-8.046129E-3],"split_indices":[21,20,9,11,2,1,1,0,0,0,0,0,0,0,0],"split_type":[0,0,0,0,0,0,0,0,0,0,0,0,0,0,0],"sum_hessian":[1.8202419E2,9.933487E1,8.2689316E1,4.375869E1,5.5576176E1,5.4667717E1,2.8021599E1,2.619236E0,4.1139454E1,2.2802143E1,3.2774033E1,1.3463252E1,4.1204464E1,1.9564854E1,8.456745E0],"tree_param":{"num_deleted":"0","num_feature":"26","num_nodes":"15","size_leaf_vector":"1"}},{"base_weights":[-1.5535185E-2,-7.8023565E-1,1.6135173E-1,-9.703396E-1,9.327606E-2,-8.69426E-2,5.209522E-1,-8.417775E-4,-1.1629351E-2,-9.980872E-3,7.461342E-3,-4.4428776E-3,2.1644456E-3,2.081042E-3,9.014065E-3],"categories":[],"categories_nodes":[],"categories_segments":[],"categories_sizes":[],"default_left":[0,0,0,0,0,0,0,0,0,0,0,0,0,0,0],"id":36,"left_children":[1,3,5,7,9,11,13,-1,-1,-1,-1,-1,-1,-1,-1],"loss_changes":[2.399991E1,5.6249275E0,1.2917697E1,4.588566E0,5.639035E0,9.434979E0,6.8382874E0,0E0,0E0,0E0,0E0,0E0,0E0,0E0,0E0],"parents":[2147483647,0,0,1,1,2,2,3,3,4,4,5,5,6,6],"right_children":[2,4,6,8,10,12,14,-1,-1,-1,-1,-1,-1,-1,-1],"split_conditions":[6.48123E2,5.8311266E-1,5.4979193E-1,-4.4333333E-1,-7.931525E-3,7.995331E2,1.4E-1,-8.417775E-4,-1.1629351E-2,-9.980872E-3,7.461342E-3,-4.4428776E-3,2.1644456E-3,2.081042E-3,9.014065E-3],"split_indices":[21,20,20,2,24,21,2,0,0,0,0,0,0,0,0],"split_type":[0,0,0,0,0,0,0,0,0,0,0,0,0,0,0],"sum_hessian":[1.7549745E2,3.2328228E1,1.4316922E2,2.645905E1,5.8691797E0,8.514036E1,5.8028866E1,4.980424E0,2.1478626E1,1.9988934E0,3.8702865E0,3.8880478E1,4.6259876E1,3.269265E1,2.5336214E1],"tree_param":{"num_deleted":"0","num_feature":"26","num_nodes":"15","size_leaf_vector":"1"}},{"base_weights":[-5.5867255E-2,-3.9765203E-1,3.5092533E-1,-8.288964E-1,-7.084107E-2,5.6946504E-1,-1.0476116E-1,-9.561911E-3,-1.478606E-3,-3.6989131E-3,3.063948E-3,1.5286662E-3,8.480246E-3,-1.0917407E-2,2.25647E-3],"categories":[],"categories_nodes":[],"categories_segments":[],"categories_sizes":[],"default_left":[0,0,0,0,0,0,0,0,0,0,0,0,0,0,0],"id":37,"left_children":[1,3,5,7,9,11,13,-1,-1,-1,-1,-1,-1,-1,-1],"loss_changes":[2.4688948E1,1.3530302E1,8.140935E0,3.4541817E0,6.4246526E0,6.253126E0,9.099411E0,0E0,0E0,0E0,0E0,0E0,0E0,0E0,0E0],"parents":[2147483647,0,0,1,1,2,2,3,3,4,4,5,5,6,6],"right_children":[2,4,6,8,10,12,14,-1,-1,-1,-1,-1,-1,-1,-1],"split_conditions":[7.9780853E2,5.075849E-1,1.5038286E3,3.6333334E-1,7.222381E2,-2.210425E-2,1.4746886E3,-9.561911E-3,-1.478606E-3,-3.6989131E-3,3.063948E-3,1.5286662E-3,8.480246E-3,-1.0917407E-2,2.25647E-3],"split_indices":[21,20,9,2,21,1,19,0,0,0,0,0,0,0,0],"split_type":[0,0,0,0,0,0,0,0,0,0,0,0,0,0,0],"sum_hessian":[1.755693E2,9.5420235E1,8.014906E1,4.0475006E1,5.4945232E1,5.4001263E1,2.61478E1,3.376066E1,6.714348E0,3.0659592E1,2.428564E1,2.2259684E1,3.174158E1,5.980103E0,2.0167698E1],"tree_param":{"num_deleted":"0","num_feature":"26","num_nodes":"15","size_leaf_vector":"1"}},{"base_weights":[1.6368565E-3,-2.5538638E-1,5.872493E-1,-6.685783E-1,-3.275073E-2,6.6764516E-1,-6.495782E-1,-7.812834E-3,4.787353E-3,-2.7880778E-3,3.5300693E-3,2.4352423E-3,9.534631E-3,-1.3541523E-2,4.7649518E-3],"categories":[],"categories_nodes":[],"categories_segments":[],"categories_sizes":[],"default_left":[0,0,0,0,0,0,0,0,0,0,0,0,0,0,0],"id":38,"left_children":[1,3,5,7,9,11,13,-1,-1,-1,-1,-1,-1,-1,-1],"loss_changes":[2.6730904E1,1.1332487E1,5.8201027E0,5.955906E0,7.8116503E0,5.9933357E0,3.670548E0,0E0,0E0,0E0,0E0,0E0,0E0,0E0,0E0],"parents":[2147483647,0,0,1,1,2,2,3,3,4,4,5,5,6,6],"right_children":[2,4,6,8,10,12,14,-1,-1,-1,-1,-1,-1,-1,-1],"split_conditions":[8.365851E2,5.067422E-1,3.0941906E0,1.5021389E0,8E-2,-5.010151E-1,4E0,-7.812834E-3,4.787353E-3,-2.7880778E-3,3.5300693E-3,2.4352423E-3,9.534631E-3,-1.3541523E-2,4.7649518E-3],"split_indices":[21,20,4,11,2,7,12,0,0,0,0,0,0,0,0],"split_type":[0,0,0,0,0,0,0,0,0,0,0,0,0,0,0],"sum_hessian":[1.7559868E2,1.2242895E2,5.316974E1,4.216726E1,8.026169E1,5.0356667E1,2.8130744E0,3.8686012E1,3.4812465E0,4.917345E1,3.1088236E1,2.1018967E1,2.93377E1,1.6057975E0,1.2072767E0],"tree_param":{"num_deleted":"0","num_feature":"26","num_nodes":"15","size_leaf_vector":"1"}},{"base_weights":[2.5529338E-2,-7.2464836E-1,2.151845E-1,-8.361231E-1,6.6988734E-3,-9.9761695E-2,5.569994E-1,-2.9166073E-3,-1.0974584E-2,1.3391528E-2,-1.9228024E-3,7.410487E-3,-2.6751056E-4],"categories":[],"categories_nodes":[],"categories_segments":[],"categories_sizes":[],"default_left":[0,0,0,0,0,0,0,0,0,0,0,0,0],"id":39,"left_children":[1,3,5,7,-1,9,11,-1,-1,-1,-1,-1,-1],"loss_changes":[2.4428062E1,5.9474964E0,1.4798098E1,4.3092422E0,0E0,9.858779E0,7.0917664E0,0E0,0E0,0E0,0E0,0E0,0E0],"parents":[2147483647,0,0,1,1,2,2,3,3,5,5,6,6],"right_children":[2,4,6,8,-1,10,12,-1,-1,-1,-1,-1,-1],"split_conditions":[6.532219E2,6.437187E-1,5.365505E-1,-2.1593512E1,6.6988734E-3,-7.860406E1,1.5110114E3,-2.9166073E-3,-1.0974584E-2,1.3391528E-2,-1.9228024E-3,7.410487E-3,-2.6751056E-4],"split_indices":[21,20,20,0,0,0,9,0,0,0,0,0,0],"split_type":[0,0,0,0,0,0,0,0,0,0,0,0,0],"sum_hessian":[1.6960004E2,3.3655483E1,1.3594455E2,3.1535095E1,2.120386E0,7.112164E1,6.4822914E1,1.0913697E1,2.0621399E1,3.4826443E0,6.7639E1,4.9079338E1,1.5743575E1],"tree_param":{"num_deleted":"0","num_feature":"26","num_nodes":"13","size_leaf_vector":"1"}},{"base_weights":[1.4716967E-2,-2.0059882E-1,6.123409E-1,-4.895027E-1,2.9430348E-1,7.53498E-1,-1.342789E-1,1.7968006E-3,-6.1657596E-3,-3.3132564E-3,4.928911E-3,8.395725E-3,-5.040127E-3,1.1380994E-2,-7.2339475E-3],"categories":[],"categories_nodes":[],"categories_segments":[],"categories_sizes":[],"default_left":[0,0,0,0,0,0,0,0,0,0,0,0,0,0,0],"id":40,"left_children":[1,3,5,7,9,11,13,-1,-1,-1,-1,-1,-1,-1,-1],"loss_changes":[2.3112476E1,1.903069E1,5.1142826E0,7.235079E0,6.2900653E0,4.769512E0,7.128679E0,0E0,0E0,0E0,0E0,0E0,0E0,0E0,0E0],"parents":[2147483647,0,0,1,1,2,2,3,3,4,4,5,5,6,6],"right_children":[2,4,6,8,10,12,14,-1,-1,-1,-1,-1,-1,-1,-1],"split_conditions":[8.8138715E2,5.562167E-1,1.9384804E0,-4.236339E1,6.496433E2,1.4493689E2,1.5586133E3,1.7968006E-3,-6.1657596E-3,-3.3132564E-3,4.928911E-3,8.395725E-3,-5.040127E-3,1.1380994E-2,-7.2339475E-3],"split_indices":[21,20,4,0,21,14,18,0,0,0,0,0,0,0,0],"split_type":[0,0,0,0,0,0,0,0,0,0,0,0,0,0,0],"sum_hessian":[1.776604E2,1.3109352E2,4.6566875E1,8.2780525E1,4.8313E1,3.915497E1,7.411909E0,1.3144746E1,6.963578E1,1.1479538E1,3.683346E1,3.6957634E1,2.1973338E0,2.0507662E0,5.3611426E0],"tree_param":{"num_deleted":"0","num_feature":"26","num_nodes":"15","size_leaf_vector":"1"}},{"base_weights":[3.365314E-2,-6.886089E-1,2.0455082E-1,-1.336706E0,-4.4611445E-1,4.7028363E-1,-2.4465927E-1,-1.5298656E-2,-1.718581E-3,1.0991307E-2,-5.6906794E-3,-2.333062E-3,5.86071E-3,2.461944E-3,-5.045453E-3],"categories":[],"categories_nodes":[],"categories_segments":[],"categories_sizes":[],"default_left":[0,0,0,0,0,0,0,0,0,0,0,0,0,0,0],"id":41,"left_children":[1,3,5,7,9,11,13,-1,-1,-1,-1,-1,-1,-1,-1],"loss_changes":[2.1604889E1,4.6687975E0,1.6992838E1,1.6768351E0,5.542619E0,7.4019623E0,6.9120574E0,0E0,0E0,0E0,0E0,0E0,0E0,0E0,0E0],"parents":[2147483647,0,0,1,1,2,2,3,3,4,4,5,5,6,6],"right_children":[2,4,6,8,10,12,14,-1,-1,-1,-1,-1,-1,-1,-1],"split_conditions":[6.48123E2,4.7475728E-1,1.503251E3,4.6756696E-2,1.4492334E3,4.6407768E-1,1.5233051E1,-1.5298656E-2,-1.718581E-3,1.0991307E-2,-5.6906794E-3,-2.333062E-3,5.86071E-3,2.461944E-3,-5.045453E-3],"split_indices":[21,20,9,24,18,20,0,0,0,0,0,0,0,0,0],"split_type":[0,0,0,0,0,0,0,0,0,0,0,0,0,0,0],"sum_hessian":[1.728923E2,3.250167E1,1.4039064E2,7.621073E0,2.4880598E1,8.8180214E1,5.2210423E1,6.268281E0,1.3527917E0,1.2486395E0,2.363196E1,1.2317449E1,7.586276E1,1.8092093E1,3.4118332E1],"tree_param":{"num_deleted":"0","num_feature":"26","num_nodes":"15","size_leaf_vector":"1"}},{"base_weights":[-1.6218582E-2,-7.5155747E-1,1.7110078E-1,-4.0509877E-1,-1.2859043E0,-7.442556E-2,5.4400456E-1,-8.545843E-3,3.1987403E-4,-1.4651731E-2,2.7782482E-3,-4.4057835E-3,2.3615896E-3,6.4641633E-3,-3.226821E-3],"categories":[],"categories_nodes":[],"categories_segments":[],"categories_sizes":[],"default_left":[0,0,0,0,0,0,0,0,0,0,0,0,0,0,0],"id":42,"left_children":[1,3,5,7,9,11,13,-1,-1,-1,-1,-1,-1,-1,-1],"loss_changes":[2.4319841E1,6.114336E0,1.2930394E1,4.5859365E0,4.2301674E0,9.85799E0,5.1803265E0,0E0,0E0,0E0,0E0,0E0,0E0,0E0,0E0],"parents":[2147483647,0,0,1,1,2,2,3,3,4,4,5,5,6,6],"right_children":[2,4,6,8,10,12,14,-1,-1,-1,-1,-1,-1,-1,-1],"split_conditions":[6.532219E2,0E0,5.4979193E-1,5.225066E-1,1.404406E2,7.995331E2,1.5226787E3,-8.545843E-3,3.1987403E-4,-1.4651731E-2,2.7782482E-3,-4.4057835E-3,2.3615896E-3,6.4641633E-3,-3.226821E-3],"split_indices":[21,7,20,20,25,21,9,0,0,0,0,0,0,0,0],"split_type":[0,0,0,0,0,0,0,0,0,0,0,0,0,0,0],"sum_hessian":[1.7462572E2,3.484122E1,1.397845E2,2.2203247E1,1.2637975E1,8.477052E1,5.501397E1,1.0475446E1,1.17278E1,1.1394691E1,1.243283E0,3.8712833E1,4.605769E1,4.9427532E1,5.5864377E0],"tree_param":{"num_deleted":"0","num_feature":"26","num_nodes":"15","size_leaf_vector":"1"}},{"base_weights":[2.6215922E-2,-7.5105995E-1,2.1500728E-1,-8.385323E-1,5.687996E-3,-4.2074874E-2,5.725661E-1,3.737539E-3,-9.289121E-3,2.0519763E-3,-5.10342E-3,2.5564313E-3,9.5933825E-3],"categories":[],"categories_nodes":[],"categories_segments":[],"categories_sizes":[],"default_left":[0,0,0,0,0,0,0,0,0,0,0,0,0],"id":43,"left_children":[1,3,5,7,-1,9,11,-1,-1,-1,-1,-1,-1],"loss_changes":[2.5946955E1,4.4671783E0,1.30914135E1,3.9429207E0,0E0,9.788113E0,7.0514507E0,0E0,0E0,0E0,0E0,0E0,0E0],"parents":[2147483647,0,0,1,1,2,2,3,3,5,5,6,6],"right_children":[2,4,6,8,-1,10,12,-1,-1,-1,-1,-1,-1],"split_conditions":[6.48123E2,7.81626E1,5.4979193E-1,1.4492334E3,5.687996E-3,1.5038286E3,1.4E-1,3.737539E-3,-9.289121E-3,2.0519763E-3,-5.10342E-3,2.5564313E-3,9.5933825E-3],"split_indices":[21,0,20,18,0,9,2,0,0,0,0,0,0],"split_type":[0,0,0,0,0,0,0,0,0,0,0,0,0],"sum_hessian":[1.7471863E2,3.3561947E1,1.4115668E2,3.1817926E1,1.7440202E0,8.262921E1,5.8527466E1,1.9900151E0,2.9827911E1,5.4442287E1,2.8186928E1,3.3081387E1,2.5446081E1],"tree_param":{"num_deleted":"0","num_feature":"26","num_nodes":"13","size_leaf_vector":"1"}},{"base_weights":[3.2321237E-2,-2.8532177E-1,3.861675E-1,-7.8596973E-1,1.2422816E-2,6.2728965E-1,-2.1500655E-2,-1.0558728E-3,-9.276515E-3,-2.3417252E-3,5.305904E-3,3.376529E-3,1.0466032E-2,2.1625787E-3,-8.9995125E-3],"categories":[],"categories_nodes":[],"categories_segments":[],"categories_sizes":[],"default_left":[0,0,0,0,0,0,0,0,0,0,0,0,0,0,0],"id":44,"left_children":[1,3,5,7,9,11,13,-1,-1,-1,-1,-1,-1,-1,-1],"loss_changes":[1.9710485E1,1.3793603E1,8.163988E0,3.2277603E0,7.6591315E0,5.978182E0,6.832716E0,0E0,0E0,0E0,0E0,0E0,0E0,0E0,0E0],"parents":[2147483647,0,0,1,1,2,2,3,3,4,4,5,5,6,6],"right_children":[2,4,6,8,10,12,14,-1,-1,-1,-1,-1,-1,-1,-1],"split_conditions":[7.9729614E2,5.067422E-1,1.5024126E3,-2.5260627E-2,2.6666667E-2,1.4946179E3,1.3236801E-1,-1.0558728E-3,-9.276515E-3,-2.3417252E-3,5.305904E-3,3.376529E-3,1.0466032E-2,2.1625787E-3,-8.9995125E-3],"split_indices":[21,20,9,15,3,9,1,0,0,0,0,0,0,0,0],"split_type":[0,0,0,0,0,0,0,0,0,0,0,0,0,0,0],"sum_hessian":[1.733849E2,9.146851E1,8.191639E1,3.3499847E1,5.796867E1,5.113375E1,3.0782639E1,6.0744457E0,2.7425402E1,3.964821E1,1.832046E1,3.131114E1,1.9822613E1,2.4819023E1,5.9636154E0],"tree_param":{"num_deleted":"0","num_feature":"26","num_nodes":"15","size_leaf_vector":"1"}},{"base_weights":[-2.5611186E-2,-7.3644763E-1,1.4058645E-1,-8.257772E-1,5.6315707E-3,1.7122928E-2,6.8998486E-1,-9.568332E-3,1.5496119E-3,1.3694697E-2,-4.056478E-4,-8.218003E-3,7.96638E-3],"categories":[],"categories_nodes":[],"categories_segments":[],"categories_sizes":[],"default_left":[0,0,0,0,0,0,0,0,0,0,0,0,0],"id":45,"left_children":[1,3,5,7,-1,9,11,-1,-1,-1,-1,-1,-1],"loss_changes":[2.0837336E1,4.3446465E0,9.693728E0,4.219412E0,0E0,9.249922E0,4.883787E0,0E0,0E0,0E0,0E0,0E0,0E0],"parents":[2147483647,0,0,1,1,2,2,3,3,5,5,6,6],"right_children":[2,4,6,8,-1,10,12,-1,-1,-1,-1,-1,-1],"split_conditions":[6.48123E2,7.81626E1,5.800971E-1,6.2011383E-2,5.6315707E-3,-7.860406E1,-1.8147196E-1,-9.568332E-3,1.5496119E-3,1.3694697E-2,-4.056478E-4,-8.218003E-3,7.96638E-3],"split_indices":[21,0,20,24,0,0,6,0,0,0,0,0,0],"split_type":[0,0,0,0,0,0,0,0,0,0,0,0,0],"sum_hessian":[1.7450294E2,3.241804E1,1.4208492E2,3.0674213E1,1.743827E0,1.1685569E2,2.522922E1,2.7079903E1,3.5943117E0,3.8505118E0,1.1300518E2,1.2206993E0,2.400852E1],"tree_param":{"num_deleted":"0","num_feature":"26","num_nodes":"13","size_leaf_vector":"1"}},{"base_weights":[-5.3451057E-3,-7.3016566E-1,1.6348544E-1,6.8961876E-3,-8.238208E-1,-6.2923834E-2,4.9666977E-1,-9.121178E-3,2.4057738E-3,-2.3303304E-3,5.479354E-3,1.3419746E-3,9.09271E-3],"categories":[],"categories_nodes":[],"categories_segments":[],"categories_sizes":[],"default_left":[0,0,0,0,0,0,0,0,0,0,0,0,0],"id":46,"left_children":[1,3,5,-1,7,9,11,-1,-1,-1,-1,-1,-1],"loss_changes":[2.1704647E1,5.0235653E0,1.0885271E1,0E0,3.216488E0,9.122019E0,8.601196E0,0E0,0E0,0E0,0E0,0E0,0E0],"parents":[2147483647,0,0,1,1,2,2,4,4,5,5,6,6],"right_children":[2,4,6,-1,8,10,12,-1,-1,-1,-1,-1,-1],"split_conditions":[6.48123E2,1.4492334E3,5.4979193E-1,6.8961876E-3,1.0427948E-2,9.153962E2,1.2666667E-1,-9.121178E-3,2.4057738E-3,-2.3303304E-3,5.479354E-3,1.3419746E-3,9.09271E-3],"split_indices":[21,18,20,0,22,21,2,0,0,0,0,0,0],"split_type":[0,0,0,0,0,0,0,0,0,0,0,0,0],"sum_hessian":[1.7539085E2,3.250709E1,1.4288376E2,1.6178333E0,3.088926E1,8.555654E1,5.7327225E1,2.8655237E1,2.2340226E0,6.740456E1,1.8151987E1,3.1222952E1,2.6104273E1],"tree_param":{"num_deleted":"0","num_feature":"26","num_nodes":"13","size_leaf_vector":"1"}},{"base_weights":[1.372736E-2,-7.41981E-1,1.9134459E-1,-1.4208101E0,-4.8548675E-1,-1.3480467E-2,5.841403E-1,-1.5035881E-2,-4.41456E-3,-6.3278675E-3,8.0943E-3,7.5749843E-4,-1.3723485E-2,1.0432145E-2,4.064064E-3],"categories":[],"categories_nodes":[],"categories_segments":[],"categories_sizes":[],"default_left":[0,0,0,0,0,0,0,0,0,0,0,0,0,0,0],"id":47,"left_children":[1,3,5,7,9,11,13,-1,-1,-1,-1,-1,-1,-1,-1],"loss_changes":[2.3970436E1,5.2282066E0,1.1636353E1,4.9776077E-2,5.5071564E0,1.1741182E1,3.6197548E0,0E0,0E0,0E0,0E0,0E0,0E0,0E0,0E0],"parents":[2147483647,0,0,1,1,2,2,3,3,4,4,5,5,6,6],"right_children":[2,4,6,8,10,12,14,-1,-1,-1,-1,-1,-1,-1,-1],"split_conditions":[6.48123E2,4.7475728E-1,8.8138715E2,1.6333333E-1,1.5462855E3,1.4210855E-14,-1.6908305E-2,-1.5035881E-2,-4.41456E-3,-6.3278675E-3,8.0943E-3,7.5749843E-4,-1.3723485E-2,1.0432145E-2,4.064064E-3],"split_indices":[21,20,21,3,19,6,15,0,0,0,0,0,0,0,0],"split_type":[0,0,0,0,0,0,0,0,0,0,0,0,0,0,0],"sum_hessian":[1.7652385E2,3.2988823E1,1.4353503E2,7.801718E0,2.5187103E1,9.497538E1,4.855965E1,6.700118E0,1.1016002E0,2.3073738E1,2.1133647E0,9.000916E1,4.9662123E0,1.2193965E1,3.6365685E1],"tree_param":{"num_deleted":"0","num_feature":"26","num_nodes":"15","size_leaf_vector":"1"}},{"base_weights":[1.8163795E-2,-6.965578E-1,2.0342067E-1,-3.682453E-1,-1.1253448E0,6.757937E-2,8.4776074E-1,-6.6857315E-3,4.37742E-3,-1.2675568E-2,2.6972303E-3,1.3335159E-3,-1.1324437E-2,3.6708792E-3,1.2731608E-2],"categories":[],"categories_nodes":[],"categories_segments":[],"categories_sizes":[],"default_left":[0,0,0,0,0,0,0,0,0,0,0,0,0,0,0],"id":48,"left_children":[1,3,5,7,9,11,13,-1,-1,-1,-1,-1,-1,-1,-1],"loss_changes":[2.3438406E1,4.7160606E0,1.22407E1,5.6486607E0,3.3808002E0,9.395583E0,4.517233E0,0E0,0E0,0E0,0E0,0E0,0E0,0E0,0E0],"parents":[2147483647,0,0,1,1,2,2,3,3,4,4,5,5,6,6],"right_children":[2,4,6,8,10,12,14,-1,-1,-1,-1,-1,-1,-1,-1],"split_conditions":[6.532219E2,-1.2121212E0,9.637742E2,5.6009376E-1,1.404406E2,1.4210855E-14,5.239587E-1,-6.6857315E-3,4.37742E-3,-1.2675568E-2,2.6972303E-3,1.3335159E-3,-1.1324437E-2,3.6708792E-3,1.2731608E-2],"split_indices":[21,7,21,20,25,6,20,0,0,0,0,0,0,0,0],"split_type":[0,0,0,0,0,0,0,0,0,0,0,0,0,0,0],"sum_hessian":[1.7494763E2,3.5444126E1,1.3950351E2,2.1126696E1,1.4317429E1,1.1612636E2,2.337715E1,1.5515709E1,5.610987E0,1.3075884E1,1.2415442E0,1.1093498E2,5.191373E0,1.18501835E1,1.1526967E1],"tree_param":{"num_deleted":"0","num_feature":"26","num_nodes":"15","size_leaf_vector":"1"}},{"base_weights":[2.813848E-2,-1.6029099E-1,5.480533E-1,-7.378331E-1,1.9615866E-2,7.4698377E-1,-5.391423E-2,-8.793584E-3,9.711685E-3,-8.51635E-4,1.0772111E-2,-5.0469476E-4,9.074615E-3,5.206668E-3,-9.798845E-3],"categories":[],"categories_nodes":[],"categories_segments":[],"categories_sizes":[],"default_left":[0,0,0,0,0,0,0,0,0,0,0,0,0,0,0],"id":49,"left_children":[1,3,5,7,9,11,13,-1,-1,-1,-1,-1,-1,-1,-1],"loss_changes":[1.7503214E1,1.3652085E1,5.730159E0,8.400393E0,1.128971E1,4.6247177E0,7.285583E0,0E0,0E0,0E0,0E0,0E0,0E0,0E0,0E0],"parents":[2147483647,0,0,1,1,2,2,3,3,4,4,5,5,6,6],"right_children":[2,4,6,8,10,12,14,-1,-1,-1,-1,-1,-1,-1,-1],"split_conditions":[8.8138715E2,4.7633496E-1,1.5054725E3,1.5021389E0,1.546983E3,4.7475728E-1,1.1555633E-1,-8.793584E-3,9.711685E-3,-8.51635E-4,1.0772111E-2,-5.0469476E-4,9.074615E-3,5.206668E-3,-9.798845E-3],"split_indices":[21,20,9,11,19,20,1,0,0,0,0,0,0,0,0],"split_type":[0,0,0,0,0,0,0,0,0,0,0,0,0,0,0],"sum_hessian":[1.7676717E2,1.3025233E2,4.651484E1,3.0200535E1,1.000518E2,3.478022E1,1.1734619E1,2.8339172E1,1.861362E0,9.186947E1,8.18233E0,5.9414086E0,2.883881E1,7.5113807E0,4.2232385E0],"tree_param":{"num_deleted":"0","num_feature":"26","num_nodes":"15","size_leaf_vector":"1"}}]},"name":"gbtree"},"learner_model_param":{"base_score":"5.293006E-1","boost_from_average":"1","num_class":"0","num_feature":"26","num_target":"1"},"objective":{"name":"binary:logistic","reg_loss_param":{"scale_pos_weight":"1"}}},"version":[3,0,5]}