{"learner":{"attributes":{"scikit_learn":"{\"_estimator_type\": \"classifier\"}"},"feature_names":["elo_diff","finish_diff","edge_speed_diff","edge_burst_diff","l5_goal_diff","l5_xg_diff","l5_corsi_diff","l5_pdo_diff","l5_st_net","l5_royal_road_diff","l5_pressure_diff","l5_rebound_diff","l5_lateral_diff","p1_xg_diff","p2_xg_diff","p3_xg_diff","p1_p2_dominance","h_preservation_rate","a_preservation_rate","h_comeback_rate","a_comeback_rate","l5_nzt_possession_diff","l5_ca_shots_diff","l5_rush_sv_pct_diff","home_sos","away_sos","l5_std_diff","l10_goal_diff","l10_xg_diff","elo_rest_inter","speed_finish_inter","season_month","is_late_season","h_desperation","a_desperation","home_xg","away_xg","home_elo","away_elo","away_win_rate","home_win_rate_away_sos","away_b2b_home_strength","pressure_index","xg_efficiency","power_momentum"],"feature_types":["float","float","float","float","float","float","float","float","float","float","float","float","float","float","float","float","float","float","float","float","float","float","float","float","float","float","float","float","float","float","float","int","int","float","float","float","float","float","float","float","float","float","float","float","float"],"gradient_booster":{"model":{"gbtree_model_param":{"num_parallel_tree":"1","num_trees":"50"},"iteration_indptr":[0,1,2,3,4,5,6,7,8,9,10,11,12,13,14,15,16,17,18,19,20,21,22,23,24,25,26,27,28,29,30,31,32,33,34,35,36,37,38,39,40,41,42,43,44,45,46,47,48,49,50],"tree_info":[0,0,0,0,0,0,0,0,0,0,0,0,0,0,0,0,0,0,0,0,0,0,0,0,0,0,0,0,0,0,0,0,0,0,0,0,0,0,0,0,0,0,0,0,0,0,0,0,0,0],"trees":[{"base_weights":[6.198556E-2,-8.746533E-1,4.3340164E-1,-1.0785176E0,8.364828E-3,1.6453645E-1,7.315889E-2,-3.0232407E-3,-6.329818E-2,3.181364E-2,-1.8746087E-2],"categories":[],"categories_nodes":[],"categories_segments":[],"categories_sizes":[],"default_left":[0,0,0,0,0,0,0,0,0,0,0],"id":0,"left_children":[1,3,5,7,-1,9,-1,-1,-1,-1,-1],"loss_changes":[8.866752E0,1.7223759E0,4.7814274E0,1.1076431E0,0E0,4.185647E0,0E0,0E0,0E0,0E0,0E0],"parents":[2147483647,0,0,1,1,2,2,3,3,5,5],"right_children":[2,4,6,8,-1,10,-1,-1,-1,-1,-1],"split_conditions":[7.1869025E2,5.8367383E-1,4.9953487E-2,-1.3562802E1,8.364828E-3,4.9323863E-1,7.315889E-2,-3.0232407E-3,-6.329818E-2,3.181364E-2,-1.8746087E-2],"split_indices":[40,39,13,29,0,4,0,0,0,0,0],"split_type":[0,0,0,0,0,0,0,0,0,0,0],"sum_hessian":[2.3398094E1,6.259058E0,1.7139036E1,5.2054768E0,1.0535811E0,1.4510306E1,2.62873E0,1.0150625E0,4.1904144E0,7.6453032E0,6.865003E0],"tree_param":{"num_deleted":"0","num_feature":"45","num_nodes":"11","size_leaf_vector":"1"}},{"base_weights":[4.8816413E-2,-9.540923E-1,3.5785747E-1,-1.2091286E0,4.6881824E-3,-6.3379E-1,5.9930706E-1,-1.8864615E-2,-6.7049496E-2,-4.756321E-2,5.428855E-3,5.412377E-2,9.341351E-3],"categories":[],"categories_nodes":[],"categories_segments":[],"categories_sizes":[],"default_left":[0,0,0,0,0,0,0,0,0,0,0,0,0],"id":1,"left_children":[1,3,5,7,-1,9,11,-1,-1,-1,-1,-1,-1],"loss_changes":[7.7639294E0,1.69383E0,4.937253E0,2.3655415E-2,0E0,1.0962294E0,2.9508786E0,0E0,0E0,0E0,0E0,0E0,0E0],"parents":[2147483647,0,0,1,1,2,2,3,3,5,5,6,6],"right_children":[2,4,6,8,-1,10,12,-1,-1,-1,-1,-1,-1],"split_conditions":[6.829591E2,5.724218E-1,-5.5931354E0,-4.2686286E0,4.6881824E-3,1.0097078E0,-1.963437E-1,-1.8864615E-2,-6.7049496E-2,-4.756321E-2,5.428855E-3,5.412377E-2,9.341351E-3],"split_indices":[40,39,6,7,0,42,26,0,0,0,0,0,0],"split_type":[0,0,0,0,0,0,0,0,0,0,0,0,0],"sum_hessian":[2.2948187E1,4.913969E0,1.8034218E1,3.8282974E0,1.0856718E0,3.2130597E0,1.4821158E1,1.0521535E0,2.7761438E0,2.0534894E0,1.1595703E0,6.07765E0,8.743509E0],"tree_param":{"num_deleted":"0","num_feature":"45","num_nodes":"13","size_leaf_vector":"1"}},{"base_weights":[-2.433503E-2,-9.421095E-1,3.4694907E-1,-6.262195E-2,-2.7502444E-1,-6.677289E-1,5.986748E-1,3.3427697E-2,-4.651806E-2,-5.467968E-2,8.673341E-3,5.559663E-2,6.8481374E-3],"categories":[],"categories_nodes":[],"categories_segments":[],"categories_sizes":[],"default_left":[0,0,0,0,0,0,0,0,0,0,0,0,0],"id":2,"left_children":[1,3,5,-1,7,9,11,-1,-1,-1,-1,-1,-1],"loss_changes":[8.862765E0,1.2049036E0,5.141823E0,0E0,2.88373E0,1.6810677E0,3.4977856E0,0E0,0E0,0E0,0E0,0E0,0E0],"parents":[2147483647,0,0,1,1,2,2,4,4,5,5,6,6],"right_children":[2,4,6,-1,8,10,12,-1,-1,-1,-1,-1,-1],"split_conditions":[7.1869025E2,-1.6253254E0,-5.323057E0,-6.262195E-2,1.5042264E3,4.524731E-2,-2.0554614E-1,3.3427697E-2,-4.651806E-2,-5.467968E-2,8.673341E-3,5.559663E-2,6.8481374E-3],"split_indices":[40,8,6,0,37,43,11,0,0,0,0,0,0],"split_type":[0,0,0,0,0,0,0,0,0,0,0,0,0],"sum_hessian":[2.404996E1,6.484222E0,1.7565737E1,3.826599E0,2.6576228E0,3.1630867E0,1.440265E1,1.080996E0,1.5766268E0,1.9007593E0,1.2623272E0,6.1536837E0,8.248966E0],"tree_param":{"num_deleted":"0","num_feature":"45","num_nodes":"13","size_leaf_vector":"1"}},{"base_weights":[6.9476007E-3,-8.109563E-1,3.3282334E-1,-1.2065176E0,-8.9174025E-2,8.216862E-2,6.86865E-2,-1.8290373E-2,-6.6571675E-2,4.1893657E-2,-4.550424E-2,-1.9151548E-2,3.0571485E-2],"categories":[],"categories_nodes":[],"categories_segments":[],"categories_sizes":[],"default_left":[0,0,0,0,0,0,0,0,0,0,0,0,0],"id":3,"left_children":[1,3,5,7,9,11,-1,-1,-1,-1,-1,-1,-1],"loss_changes":[7.0812488E0,2.0542665E0,4.8399982E0,1.8248558E-2,3.6243017E0,4.2629004E0,0E0,0E0,0E0,0E0,0E0,0E0,0E0],"parents":[2147483647,0,0,1,1,2,2,3,3,4,4,5,5],"right_children":[2,4,6,8,10,12,-1,-1,-1,-1,-1,-1,-1],"split_conditions":[7.1869025E2,-1.6253254E0,6.7569554E-2,-1.2218456E0,1.5111191E3,5.04989E-1,6.86865E-2,-1.8290373E-2,-6.6571675E-2,4.1893657E-2,-4.550424E-2,-1.9151548E-2,3.0571485E-2],"split_indices":[40,8,13,4,37,39,0,0,0,0,0,0,0],"split_type":[0,0,0,0,0,0,0,0,0,0,0,0,0],"sum_hessian":[2.4555153E1,6.571937E0,1.7983215E1,3.8115158E0,2.7604213E0,1.5362742E1,2.6204736E0,1.0012598E0,2.810256E0,1.2866998E0,1.4737214E0,8.323237E0,7.0395055E0],"tree_param":{"num_deleted":"0","num_feature":"45","num_nodes":"13","size_leaf_vector":"1"}},{"base_weights":[-7.362149E-2,-9.453905E-1,2.5096488E-1,-5.483784E-3,-5.6802332E-2,-6.650967E-1,5.0981605E-1,-5.2221186E-2,8.9483283E-4,5.319457E-2,-1.6662196E-3],"categories":[],"categories_nodes":[],"categories_segments":[],"categories_sizes":[],"default_left":[0,0,0,0,0,0,0,0,0,0,0],"id":4,"left_children":[1,3,5,-1,-1,7,9,-1,-1,-1,-1],"loss_changes":[6.9606833E0,9.3598604E-1,4.6320405E0,0E0,0E0,1.1644834E0,4.453789E0,0E0,0E0,0E0,0E0],"parents":[2147483647,0,0,1,1,2,2,5,5,6,6],"right_children":[2,4,6,-1,-1,8,10,-1,-1,-1,-1],"split_conditions":[7.128985E2,-3.4549665E-2,-5.5931354E0,-5.483784E-3,-5.6802332E-2,4.524731E-2,-8.6581804E-2,-5.2221186E-2,8.9483283E-4,5.319457E-2,-1.6662196E-3],"split_indices":[40,43,6,0,0,43,11,0,0,0,0],"split_type":[0,0,0,0,0,0,0,0,0,0,0],"sum_hessian":[2.2760672E1,5.6563454E0,1.7104326E1,1.3433237E0,4.3130217E0,3.4225771E0,1.3681748E1,1.8602364E0,1.5623406E0,6.298087E0,7.3836617E0],"tree_param":{"num_deleted":"0","num_feature":"45","num_nodes":"11","size_leaf_vector":"1"}},{"base_weights":[2.8514454E-2,-8.311281E-1,3.6458474E-1,-1.1138258E0,-2.8619492E-1,1.3570222E-1,6.5627225E-2,-1.6177608E-2,-6.2321313E-2,3.560842E-2,-4.9309164E-2,-1.6733896E-2,3.0773198E-2],"categories":[],"categories_nodes":[],"categories_segments":[],"categories_sizes":[],"default_left":[0,0,0,0,0,0,0,0,0,0,0,0,0],"id":5,"left_children":[1,3,5,7,9,11,-1,-1,-1,-1,-1,-1,-1],"loss_changes":[7.699413E0,8.3671427E-1,3.96631E0,7.799959E-2,3.4332879E0,3.9299006E0,0E0,0E0,0E0,0E0,0E0,0E0,0E0],"parents":[2147483647,0,0,1,1,2,2,3,3,4,4,5,5],"right_children":[2,4,6,8,10,12,-1,-1,-1,-1,-1,-1,-1],"split_conditions":[7.1869025E2,-1.6253254E0,6.7569554E-2,-3.2972727E0,1.5042264E3,5.04989E-1,6.5627225E-2,-1.6177608E-2,-6.2321313E-2,3.560842E-2,-4.9309164E-2,-1.6733896E-2,3.0773198E-2],"split_indices":[40,8,13,7,37,39,0,0,0,0,0,0,0],"split_type":[0,0,0,0,0,0,0,0,0,0,0,0,0],"sum_hessian":[2.4601898E1,6.500648E0,1.810125E1,3.592817E0,2.9078312E0,1.5501583E1,2.5996666E0,1.0104966E0,2.5823205E0,1.1913128E0,1.7165183E0,7.980019E0,7.5215635E0],"tree_param":{"num_deleted":"0","num_feature":"45","num_nodes":"13","size_leaf_vector":"1"}},{"base_weights":[-4.1792933E-2,-9.252638E-1,2.4714151E-1,-5.6297254E-2,-9.727328E-3,3.3639606E-2,6.1638005E-2,-3.335179E-2,1.5711438E-2],"categories":[],"categories_nodes":[],"categories_segments":[],"categories_sizes":[],"default_left":[0,0,0,0,0,0,0,0,0],"id":6,"left_children":[1,3,5,-1,-1,7,-1,-1,-1],"loss_changes":[6.289601E0,6.699381E-1,3.8896704E0,0E0,0E0,3.43057E0,0E0,0E0,0E0],"parents":[2147483647,0,0,1,1,2,2,5,5],"right_children":[2,4,6,-1,-1,8,-1,-1,-1],"split_conditions":[6.829591E2,5.724218E-1,6.7569554E-2,-5.6297254E-2,-9.727328E-3,-3.37889E0,6.1638005E-2,-3.335179E-2,1.5711438E-2],"split_indices":[40,39,13,0,0,6,0,0,0],"split_type":[0,0,0,0,0,0,0,0,0],"sum_hessian":[2.274366E1,5.0623255E0,1.7681335E1,3.5472472E0,1.5150782E0,1.53832E1,2.2981348E0,4.0049467E0,1.1378254E1],"tree_param":{"num_deleted":"0","num_feature":"45","num_nodes":"9","size_leaf_vector":"1"}},{"base_weights":[-4.501785E-2,-8.614409E-1,2.3592883E-1,-1.022006E0,-4.091848E-3,1.4281411E-2,6.1813623E-2,-9.352416E-3,-5.9402045E-2,1.9377435E-2,-2.3443326E-2],"categories":[],"categories_nodes":[],"categories_segments":[],"categories_sizes":[],"default_left":[0,0,0,0,0,0,0,0,0,0,0],"id":7,"left_children":[1,3,5,7,-1,9,-1,-1,-1,-1,-1],"loss_changes":[6.0256968E0,7.567849E-1,4.343768E0,5.375109E-1,0E0,3.2681665E0,0E0,0E0,0E0,0E0,0E0],"parents":[2147483647,0,0,1,1,2,2,3,3,5,5],"right_children":[2,4,6,8,-1,10,-1,-1,-1,-1,-1],"split_conditions":[7.128985E2,-6.503011E-2,6.7569554E-2,1.4383972E3,-4.091848E-3,9.201349E-3,6.1813623E-2,-9.352416E-3,-5.9402045E-2,1.9377435E-2,-2.3443326E-2],"split_indices":[40,5,13,37,0,43,0,0,0,0,0],"split_type":[0,0,0,0,0,0,0,0,0,0,0],"sum_hessian":[2.4384415E1,5.713868E0,1.8670547E1,4.4802074E0,1.2336609E0,1.6114347E1,2.5562E0,1.0958657E0,3.3843415E0,9.20256E0,6.911786E0],"tree_param":{"num_deleted":"0","num_feature":"45","num_nodes":"11","size_leaf_vector":"1"}},{"base_weights":[-1.7527837E-2,-9.434688E-1,2.3205765E-1,3.150876E-3,-6.443757E-2,7.319711E-1,-1.4143255E-1,4.688419E-2,-8.6049065E-3,2.8180694E-2,-2.5142176E-2],"categories":[],"categories_nodes":[],"categories_segments":[],"categories_sizes":[],"default_left":[0,0,0,0,0,0,0,0,0,0,0],"id":8,"left_children":[1,3,5,-1,-1,7,9,-1,-1,-1,-1],"loss_changes":[5.9086885E0,1.9664192E0,3.8742695E0,0E0,0E0,1.7976184E0,3.4424114E0,0E0,0E0,0E0,0E0],"parents":[2147483647,0,0,1,1,2,2,5,5,6,6],"right_children":[2,4,6,-1,-1,8,10,-1,-1,-1,-1],"split_conditions":[-6.646369E0,-4.2130466E0,-4.7192672E-1,3.150876E-3,-6.443757E-2,1.1785913E1,-2.5912514E-1,4.688419E-2,-8.6049065E-3,2.8180694E-2,-2.5142176E-2],"split_indices":[6,11,11,0,0,8,44,0,0,0,0],"split_type":[0,0,0,0,0,0,0,0,0,0,0],"sum_hessian":[2.362014E1,4.4247074E0,1.9195433E1,1.3390154E0,3.0856922E0,7.7980266E0,1.1397407E1,6.3222704E0,1.4757565E0,3.672856E0,7.7245502E0],"tree_param":{"num_deleted":"0","num_feature":"45","num_nodes":"11","size_leaf_vector":"1"}},{"base_weights":[-9.769302E-3,-7.395483E-1,2.4617717E-1,-5.310276E-2,-1.3842146E-1,3.0818386E-2,5.996097E-2,2.6333628E-2,-4.3874994E-2,-3.706973E-2,1.1001997E-2],"categories":[],"categories_nodes":[],"categories_segments":[],"categories_sizes":[],"default_left":[0,0,0,0,0,0,0,0,0,0,0],"id":9,"left_children":[1,3,5,-1,7,9,-1,-1,-1,-1,-1],"loss_changes":[4.850217E0,1.159471E0,3.9146795E0,0E0,2.1840537E0,2.6078331E0,0E0,0E0,0E0,0E0,0E0],"parents":[2147483647,0,0,1,1,2,2,4,4,5,5],"right_children":[2,4,6,-1,8,10,-1,-1,-1,-1,-1],"split_conditions":[7.128985E2,-1.6253254E0,6.7569554E-2,-5.310276E-2,1.0097003E0,-7.1064987E0,5.996097E-2,2.6333628E-2,-4.3874994E-2,-3.706973E-2,1.1001997E-2],"split_indices":[40,8,13,0,11,6,0,0,0,0,0],"split_type":[0,0,0,0,0,0,0,0,0,0,0],"sum_hessian":[2.3992224E1,5.7390447E0,1.8253178E1,3.2360938E0,2.502951E0,1.57308235E1,2.5223546E0,1.468682E0,1.0342689E0,2.521688E0,1.3209136E1],"tree_param":{"num_deleted":"0","num_feature":"45","num_nodes":"11","size_leaf_vector":"1"}},{"base_weights":[-6.561458E-2,-8.6191016E-1,1.5440467E-1,3.987588E-3,-6.031939E-2,-5.855802E-1,3.5998207E-1,-3.880956E-2,1.802567E-3,2.762914E-2,-2.832017E-2],"categories":[],"categories_nodes":[],"categories_segments":[],"categories_sizes":[],"default_left":[0,0,0,0,0,0,0,0,0,0,0],"id":10,"left_children":[1,3,5,-1,-1,7,9,-1,-1,-1,-1],"loss_changes":[4.222256E0,1.7845316E0,3.1217322E0,0E0,0E0,5.660397E-1,3.0953577E0,0E0,0E0,0E0,0E0],"parents":[2147483647,0,0,1,1,2,2,5,5,6,6],"right_children":[2,4,6,-1,-1,8,10,-1,-1,-1,-1],"split_conditions":[-6.646369E0,-4.2130466E0,6.829591E2,3.987588E-3,-6.031939E-2,1.3E-1,1.6102297E3,-3.880956E-2,1.802567E-3,2.762914E-2,-2.832017E-2],"split_indices":[6,11,40,0,0,2,37,0,0,0,0],"split_type":[0,0,0,0,0,0,0,0,0,0,0],"sum_hessian":[2.2339981E1,4.2047353E0,1.8135246E1,1.3320194E0,2.8727157E0,3.5409555E0,1.4594291E1,2.5197034E0,1.021252E0,1.2416366E1,2.1779253E0],"tree_param":{"num_deleted":"0","num_feature":"45","num_nodes":"11","size_leaf_vector":"1"}},{"base_weights":[2.8575214E-3,-6.9106627E-1,2.490718E-1,-5.181072E-2,-8.024606E-2,5.8392626E-1,-1.812658E-1,-4.2525046E-2,3.1094E-2,4.244643E-2,-4.0459377E-3,1.8730937E-2,-4.478613E-2],"categories":[],"categories_nodes":[],"categories_segments":[],"categories_sizes":[],"default_left":[0,0,0,0,0,0,0,0,0,0,0,0,0],"id":11,"left_children":[1,3,5,-1,7,9,11,-1,-1,-1,-1,-1,-1],"loss_changes":[4.1679335E0,1.2639804E0,2.6992812E0,0E0,2.3628023E0,1.893708E0,3.7665522E0,0E0,0E0,0E0,0E0,0E0,0E0],"parents":[2147483647,0,0,1,1,2,2,4,4,5,5,6,6],"right_children":[2,4,6,-1,8,10,12,-1,-1,-1,-1,-1,-1],"split_conditions":[7.128985E2,-1.6253254E0,4.9323863E-1,-5.181072E-2,1.4848326E3,8.203772E-2,1.4929143E3,-4.2525046E-2,3.1094E-2,4.244643E-2,-4.0459377E-3,1.8730937E-2,-4.478613E-2],"split_indices":[40,8,4,0,25,1,38,0,0,0,0,0,0],"split_type":[0,0,0,0,0,0,0,0,0,0,0,0,0],"sum_hessian":[2.2387272E1,5.389862E0,1.699741E1,2.9988883E0,2.3909736E0,9.358481E0,7.6389284E0,1.0393982E0,1.3515754E0,6.493385E0,2.8650968E0,4.5637517E0,3.0751767E0],"tree_param":{"num_deleted":"0","num_feature":"45","num_nodes":"13","size_leaf_vector":"1"}},{"base_weights":[-5.410166E-2,-7.3880285E-1,2.1489286E-1,-9.4263357E-1,2.954139E-4,1.5803401E-3,5.7312388E-2,-5.319512E-2,-1.5533282E-2,2.753882E-2,-1.6791224E-2],"categories":[],"categories_nodes":[],"categories_segments":[],"categories_sizes":[],"default_left":[0,0,0,0,0,0,0,0,0,0,0],"id":12,"left_children":[1,3,5,7,-1,9,-1,-1,-1,-1,-1],"loss_changes":[4.7291937E0,1.1022103E0,3.691539E0,1.0465288E-1,0E0,3.1733954E0,0E0,0E0,0E0,0E0,0E0],"parents":[2147483647,0,0,1,1,2,2,3,3,5,5],"right_children":[2,4,6,8,-1,10,-1,-1,-1,-1,-1],"split_conditions":[7.1869025E2,-6.503011E-2,4.9953487E-2,5.724218E-1,2.954139E-4,-4.34099E0,5.7312388E-2,-5.319512E-2,-1.5533282E-2,2.753882E-2,-1.6791224E-2],"split_indices":[40,5,13,39,0,8,0,0,0,0,0],"split_type":[0,0,0,0,0,0,0,0,0,0,0],"sum_hessian":[2.3814901E1,6.22449E0,1.759041E1,4.6782594E0,1.5462308E0,1.5127408E1,2.4630034E0,3.351636E0,1.3266234E0,5.516224E0,9.611184E0],"tree_param":{"num_deleted":"0","num_feature":"45","num_nodes":"11","size_leaf_vector":"1"}},{"base_weights":[-4.2101882E-2,-4.4007677E-1,3.0751032E-1,-8.639834E-1,3.0673662E-1,5.591767E-1,-5.2107376E-1,-4.9703505E-2,-9.001946E-3,-1.3429426E-2,3.6654945E-2,-3.8838808E-3,4.2602208E-2,1.26721775E-2,-5.0323647E-2],"categories":[],"categories_nodes":[],"categories_segments":[],"categories_sizes":[],"default_left":[0,0,0,0,0,0,0,0,0,0,0,0,0,0,0],"id":13,"left_children":[1,3,5,7,9,11,13,-1,-1,-1,-1,-1,-1,-1,-1],"loss_changes":[3.59909E0,4.080876E0,3.1776366E0,5.2844524E-1,1.4485099E0,2.1363006E0,1.661976E0,0E0,0E0,0E0,0E0,0E0,0E0,0E0,0E0],"parents":[2147483647,0,0,1,1,2,2,3,3,4,4,5,5,6,6],"right_children":[2,4,6,8,10,12,14,-1,-1,-1,-1,-1,-1,-1,-1],"split_conditions":[7.6961316E2,5.346943E-1,1.6102297E3,3.8404997E-2,-3.2055318E-1,-1.593473E0,1.2873679E0,-4.9703505E-2,-9.001946E-3,-1.3429426E-2,3.6654945E-2,-3.8838808E-3,4.2602208E-2,1.26721775E-2,-5.0323647E-2],"split_indices":[40,39,37,28,5,6,11,0,0,0,0,0,0,0,0],"split_type":[0,0,0,0,0,0,0,0,0,0,0,0,0,0,0],"sum_hessian":[2.3894636E1,1.1053417E1,1.2841219E1,6.950996E0,4.102421E0,1.0098989E1,2.7422304E0,5.459213E0,1.4917833E0,1.9036789E0,2.1987422E0,3.4126933E0,6.6862955E0,1.2405839E0,1.5016465E0],"tree_param":{"num_deleted":"0","num_feature":"45","num_nodes":"15","size_leaf_vector":"1"}},{"base_weights":[-3.632418E-2,-9.0454507E-1,1.09262265E-1,-5.2057397E-2,-1.38133755E-2,3.4322834E-1,-4.192026E-1,-2.8856773E-2,2.4241492E-2,7.726022E-3,-4.90965E-2],"categories":[],"categories_nodes":[],"categories_segments":[],"categories_sizes":[],"default_left":[0,0,0,0,0,0,0,0,0,0,0],"id":14,"left_children":[1,3,5,-1,-1,7,9,-1,-1,-1,-1],"loss_changes":[3.1582484E0,1.992178E-2,2.8170965E0,0E0,0E0,2.304493E0,2.4390576E0,0E0,0E0,0E0,0E0],"parents":[2147483647,0,0,1,1,2,2,5,5,6,6],"right_children":[2,4,6,-1,-1,8,10,-1,-1,-1,-1],"split_conditions":[-4.5141628E-1,1.995119E1,8.880195E-2,-5.2057397E-2,-1.38133755E-2,-7.5624185E0,1.0818218E0,-2.8856773E-2,2.4241492E-2,7.726022E-3,-4.90965E-2],"split_indices":[13,29,1,0,0,6,11,0,0,0,0],"split_type":[0,0,0,0,0,0,0,0,0,0,0],"sum_hessian":[2.320401E1,2.5835586E0,2.0620451E1,1.582367E0,1.0011916E0,1.4535638E1,6.0848126E0,1.5280483E0,1.3007589E1,3.3721645E0,2.7126484E0],"tree_param":{"num_deleted":"0","num_feature":"45","num_nodes":"11","size_leaf_vector":"1"}},{"base_weights":[-1.3679763E-3,-5.815762E-1,2.2457448E-1,-7.5456524E-1,1.18376715E-2,2.1883588E-2,5.5072248E-2,2.4440913E-3,-4.666E-2,2.523537E-2,-1.4438815E-2],"categories":[],"categories_nodes":[],"categories_segments":[],"categories_sizes":[],"default_left":[0,0,0,0,0,0,0,0,0,0,0],"id":15,"left_children":[1,3,5,7,-1,9,-1,-1,-1,-1,-1],"loss_changes":[3.3211243E0,1.1837051E0,3.217387E0,9.21062E-1,0E0,2.5207465E0,0E0,0E0,0E0,0E0,0E0],"parents":[2147483647,0,0,1,1,2,2,3,3,5,5],"right_children":[2,4,6,8,-1,10,-1,-1,-1,-1,-1],"split_conditions":[7.1869025E2,5.9351784E-1,6.7569554E-2,-1.5453719E0,1.18376715E-2,-4.34099E0,5.5072248E-2,2.4440913E-3,-4.666E-2,2.523537E-2,-1.4438815E-2],"split_indices":[40,39,13,29,0,8,0,0,0,0,0],"split_type":[0,0,0,0,0,0,0,0,0,0,0],"sum_hessian":[2.3337688E1,6.099778E0,1.723791E1,5.0996656E0,1.0001124E0,1.4833959E1,2.4039514E0,1.0597183E0,4.0399475E0,5.563149E0,9.270809E0],"tree_param":{"num_deleted":"0","num_feature":"45","num_nodes":"11","size_leaf_vector":"1"}},{"base_weights":[2.8599476E-2,-5.53279E-1,2.2524172E-1,-8.043372E-1,6.497161E-3,3.3047967E-2,5.3760257E-2,-8.641287E-3,-4.63729E-2,2.0519724E-2,-1.5142168E-2],"categories":[],"categories_nodes":[],"categories_segments":[],"categories_sizes":[],"default_left":[0,0,0,0,0,0,0,0,0,0,0],"id":16,"left_children":[1,3,5,7,-1,9,-1,-1,-1,-1,-1],"loss_changes":[2.8354032E0,1.180573E0,2.9731526E0,2.0721912E-1,0E0,2.1589494E0,0E0,0E0,0E0,0E0,0E0],"parents":[2147483647,0,0,1,1,2,2,3,3,5,5],"right_children":[2,4,6,8,-1,10,-1,-1,-1,-1,-1],"split_conditions":[7.128985E2,5.724218E-1,6.7569554E-2,-3.2972727E0,6.497161E-3,-1.7370452E-1,5.3760257E-2,-8.641287E-3,-4.63729E-2,2.0519724E-2,-1.5142168E-2],"split_indices":[40,39,13,7,0,11,0,0,0,0,0],"split_type":[0,0,0,0,0,0,0,0,0,0,0],"sum_hessian":[2.2691113E1,5.273328E0,1.7417786E1,3.7266536E0,1.5466741E0,1.5052903E1,2.3648818E0,1.0001894E0,2.7264643E0,6.984538E0,8.068365E0],"tree_param":{"num_deleted":"0","num_feature":"45","num_nodes":"11","size_leaf_vector":"1"}},{"base_weights":[-1.5335669E-2,-4.6570215E-1,3.2278726E-1,-7.804004E-1,1.3175943E-1,5.583333E-1,-4.779223E-1,1.4423478E-3,-5.115757E-2,-2.5412848E-2,2.6869953E-2,4.202893E-2,-6.208155E-3,1.7740225E-2,-4.5622066E-2],"categories":[],"categories_nodes":[],"categories_segments":[],"categories_sizes":[],"default_left":[0,0,0,0,0,0,0,0,0,0,0,0,0,0,0],"id":17,"left_children":[1,3,5,7,9,11,13,-1,-1,-1,-1,-1,-1,-1,-1],"loss_changes":[3.7443438E0,2.0827265E0,2.9207342E0,1.4128332E0,1.4384309E0,2.2876506E0,1.6760135E0,0E0,0E0,0E0,0E0,0E0,0E0,0E0,0E0],"parents":[2147483647,0,0,1,1,2,2,3,3,4,4,5,5,6,6],"right_children":[2,4,6,8,10,12,14,-1,-1,-1,-1,-1,-1,-1,-1],"split_conditions":[7.5420044E2,5.346943E-1,1.6102297E3,-3.5666665E-1,-2.5666666E-1,1.0896972E1,1.0587429E0,1.4423478E-3,-5.115757E-2,-2.5412848E-2,2.6869953E-2,4.202893E-2,-6.208155E-3,1.7740225E-2,-4.5622066E-2],"split_indices":[40,39,37,3,2,8,11,0,0,0,0,0,0,0,0],"split_type":[0,0,0,0,0,0,0,0,0,0,0,0,0,0,0],"sum_hessian":[2.2601519E1,9.530265E0,1.3071255E1,6.041735E0,3.4885292E0,1.033399E1,2.7372644E0,1.5974754E0,4.4442596E0,1.2551627E0,2.2333665E0,7.1468134E0,3.1871767E0,1.0014695E0,1.735795E0],"tree_param":{"num_deleted":"0","num_feature":"45","num_nodes":"15","size_leaf_vector":"1"}},{"base_weights":[-1.4963284E-2,-4.1047728E-1,3.3371982E-1,-7.451415E-1,1.6958529E-1,6.211363E-1,-5.2436143E-1,3.0304232E-4,-4.7790855E-2,3.0273706E-2,-1.5006216E-2,4.7931194E-2,3.940202E-3,1.48223145E-2,-4.6277847E-2],"categories":[],"categories_nodes":[],"categories_segments":[],"categories_sizes":[],"default_left":[0,0,0,0,0,0,0,0,0,0,0,0,0,0,0],"id":18,"left_children":[1,3,5,7,9,11,13,-1,-1,-1,-1,-1,-1,-1,-1],"loss_changes":[3.4159603E0,2.3759985E0,3.5781765E0,1.1981406E0,1.2165626E0,1.8163781E0,1.5425953E0,0E0,0E0,0E0,0E0,0E0,0E0,0E0,0E0],"parents":[2147483647,0,0,1,1,2,2,3,3,4,4,5,5,6,6],"right_children":[2,4,6,8,10,12,14,-1,-1,-1,-1,-1,-1,-1,-1],"split_conditions":[7.6961316E2,5.346943E-1,1.6102297E3,-3.5666665E-1,1.0666667E-1,2.6960234E1,1.0587429E0,3.0304232E-4,-4.7790855E-2,3.0273706E-2,-1.5006216E-2,4.7931194E-2,3.940202E-3,1.48223145E-2,-4.6277847E-2],"split_indices":[40,39,37,3,3,44,11,0,0,0,0,0,0,0,0],"split_type":[0,0,0,0,0,0,0,0,0,0,0,0,0,0,0],"sum_hessian":[2.2776363E1,1.05885105E1,1.2187853E1,6.534104E0,4.054407E0,9.336652E0,2.8512018E0,1.6438586E0,4.8902454E0,1.9529953E0,2.1014118E0,5.2820764E0,4.054575E0,1.0217962E0,1.8294054E0],"tree_param":{"num_deleted":"0","num_feature":"45","num_nodes":"15","size_leaf_vector":"1"}},{"base_weights":[9.226133E-3,-6.0669154E-1,2.2160622E-1,-4.435463E-2,-5.8651265E-2,3.4590174E-2,5.1783204E-2,1.6506245E-2,-2.1146072E-2,-1.9659037E-2,2.2410318E-2],"categories":[],"categories_nodes":[],"categories_segments":[],"categories_sizes":[],"default_left":[0,0,0,0,0,0,0,0,0,0,0],"id":19,"left_children":[1,3,5,-1,7,9,-1,-1,-1,-1,-1],"loss_changes":[3.1479464E0,8.9680934E-1,2.6836715E0,0E0,5.8722824E-1,2.9293845E0,0E0,0E0,0E0,0E0,0E0],"parents":[2147483647,0,0,1,1,2,2,4,4,5,5],"right_children":[2,4,6,-1,8,10,-1,-1,-1,-1,-1],"split_conditions":[7.1869025E2,-1.6253254E0,6.7569554E-2,-4.435463E-2,1.8322002E-2,5.04989E-1,5.1783204E-2,1.6506245E-2,-2.1146072E-2,-1.9659037E-2,2.2410318E-2],"split_indices":[40,8,13,0,43,39,0,0,0,0,0],"split_type":[0,0,0,0,0,0,0,0,0,0,0],"sum_hessian":[2.2037466E1,5.174477E0,1.686299E1,3.013816E0,2.160661E0,1.4560461E1,2.3025289E0,1.0905167E0,1.0701443E0,7.1820426E0,7.3784184E0],"tree_param":{"num_deleted":"0","num_feature":"45","num_nodes":"11","size_leaf_vector":"1"}},{"base_weights":[-5.4444697E-2,-4.88376E-2,1.5664001E-1,6.564543E-1,-1.1081551E-1,-6.7210435E-3,4.550187E-2,2.4034157E-2,-2.0937447E-2],"categories":[],"categories_nodes":[],"categories_segments":[],"categories_sizes":[],"default_left":[0,0,0,0,0,0,0,0,0],"id":20,"left_children":[1,-1,3,5,7,-1,-1,-1,-1],"loss_changes":[4.821639E0,0E0,2.7965865E0,1.5757632E0,2.774767E0,0E0,0E0,0E0,0E0],"parents":[2147483647,0,0,2,2,3,3,4,4],"right_children":[2,-1,4,6,8,-1,-1,-1,-1],"split_conditions":[-6.646369E0,-4.88376E-2,-8.039018E-1,7.1869025E2,-3.0710897E-1,-6.7210435E-3,4.550187E-2,2.4034157E-2,-2.0937447E-2],"split_indices":[6,0,11,40,26,0,0,0,0],"split_type":[0,0,0,0,0,0,0,0,0],"sum_hessian":[2.2980492E1,3.604369E0,1.9376122E1,6.247153E0,1.3128969E1,1.6308304E0,4.616322E0,4.3028245E0,8.826145E0],"tree_param":{"num_deleted":"0","num_feature":"45","num_nodes":"9","size_leaf_vector":"1"}},{"base_weights":[1.0693766E-1,-1.9213931E-1,5.353782E-1,-6.521162E-1,2.3476766E-1,-1.6520958E-2,6.808395E-1,5.208011E-4,-4.275832E-2,2.2572186E-2,-3.114813E-2,-7.89377E-3,4.25505E-2],"categories":[],"categories_nodes":[],"categories_segments":[],"categories_sizes":[],"default_left":[0,0,0,0,0,0,0,0,0,0,0,0,0],"id":21,"left_children":[1,3,5,7,9,-1,11,-1,-1,-1,-1,-1,-1],"loss_changes":[2.9502163E0,2.8673086E0,1.4086802E0,9.395764E-1,1.7501963E0,0E0,1.3295038E0,0E0,0E0,0E0,0E0,0E0,0E0],"parents":[2147483647,0,0,1,1,2,2,3,3,4,4,6,6],"right_children":[2,4,6,8,10,-1,12,-1,-1,-1,-1,-1,-1],"split_conditions":[5.346943E-1,7.7383234E2,1.4179807E3,-3.5666665E-1,1.2976256E2,-1.6520958E-2,-5.6003027E0,5.208011E-4,-4.275832E-2,2.2572186E-2,-3.114813E-2,-7.89377E-3,4.25505E-2],"split_indices":[39,40,38,3,0,0,6,0,0,0,0,0,0],"split_type":[0,0,0,0,0,0,0,0,0,0,0,0,0],"sum_hessian":[2.1221182E1,1.2822119E1,8.399062E0,5.9180717E0,6.9040465E0,1.0252374E0,7.373825E0,1.6108226E0,4.3072495E0,5.889854E0,1.0141927E0,1.2559431E0,6.117882E0],"tree_param":{"num_deleted":"0","num_feature":"45","num_nodes":"13","size_leaf_vector":"1"}},{"base_weights":[-9.4639175E-2,-2.5921628E-1,4.915436E-1,-5.237177E-1,2.3381749E-1,4.8922624E-2,-1.2633121E-2,5.7296036E-3,-4.6411604E-2,-2.5361037E-2,2.3202648E-2,-1.9895839E-2,2.4417086E-2],"categories":[],"categories_nodes":[],"categories_segments":[],"categories_sizes":[],"default_left":[0,0,0,0,0,0,0,0,0,0,0,0,0],"id":22,"left_children":[1,3,5,7,9,-1,11,-1,-1,-1,-1,-1,-1],"loss_changes":[2.333983E0,2.5367384E0,1.3279948E0,3.2972302E0,1.4561931E0,0E0,8.930798E-1,0E0,0E0,0E0,0E0,0E0,0E0],"parents":[2147483647,0,0,1,1,2,2,3,3,4,4,6,6],"right_children":[2,4,6,8,10,-1,12,-1,-1,-1,-1,-1,-1],"split_conditions":[2.9333332E-1,8.238214E2,2.7017787E-1,-1.7333333E-1,4.2968503E-1,4.8922624E-2,1.4995808E3,5.7296036E-3,-4.6411604E-2,-2.5361037E-2,2.3202648E-2,-1.9895839E-2,2.4417086E-2],"split_indices":[3,40,26,3,39,0,24,0,0,0,0,0,0],"split_type":[0,0,0,0,0,0,0,0,0,0,0,0,0],"sum_hessian":[2.1872553E1,1.7513296E1,4.3592567E0,1.135784E1,6.155457E0,1.7390627E0,2.6201942E0,4.6837544E0,6.674085E0,1.1739422E0,4.981515E0,1.5974001E0,1.022794E0],"tree_param":{"num_deleted":"0","num_feature":"45","num_nodes":"13","size_leaf_vector":"1"}},{"base_weights":[-7.309426E-2,-4.9378317E-2,4.902782E-2,3.037962E-1,-4.674829E-1,1.1550263E-3,3.8867302E-2,6.390467E-3,-3.805048E-2],"categories":[],"categories_nodes":[],"categories_segments":[],"categories_sizes":[],"default_left":[0,0,0,0,0,0,0,0,0],"id":23,"left_children":[1,-1,3,5,7,-1,-1,-1,-1],"loss_changes":[2.6194088E0,0E0,2.9399152E0,1.9552835E0,1.3932981E0,0E0,0E0,0E0,0E0],"parents":[2147483647,0,0,2,2,3,3,4,4],"right_children":[2,-1,4,6,8,-1,-1,-1,-1],"split_conditions":[-4.5141628E-1,-4.9378317E-2,8.203772E-2,8.63777E-1,-2.480768E-2,1.1550263E-3,3.8867302E-2,6.390467E-3,-3.805048E-2],"split_indices":[13,0,1,6,26,0,0,0,0],"split_type":[0,0,0,0,0,0,0,0,0],"sum_hessian":[2.2021616E1,1.7594944E0,2.0262121E1,1.3844946E1,6.417176E0,9.350963E0,4.4939833E0,2.3056774E0,4.1114984E0],"tree_param":{"num_deleted":"0","num_feature":"45","num_nodes":"9","size_leaf_vector":"1"}},{"base_weights":[4.4139596E-3,-3.321909E-1,3.6204147E-1,-5.1216346E-1,3.801657E-2,6.408046E-1,-2.1535647E-1,-4.264723E-2,3.0976264E-3,6.448158E-3,5.314399E-2,3.5876613E-2,-3.525795E-2],"categories":[],"categories_nodes":[],"categories_segments":[],"categories_sizes":[],"default_left":[0,0,0,0,0,0,0,0,0,0,0,0,0],"id":24,"left_children":[1,3,5,7,-1,9,11,-1,-1,-1,-1,-1,-1],"loss_changes":[2.8518806E0,2.790379E0,1.9859196E0,2.2209005E0,0E0,1.5899653E0,2.55603E0,0E0,0E0,0E0,0E0,0E0,0E0],"parents":[2147483647,0,0,1,1,2,2,3,3,5,5,6,6],"right_children":[2,4,6,8,-1,10,12,-1,-1,-1,-1,-1,-1],"split_conditions":[5.04989E-1,3.503624E-1,3.272471E-2,8.30277E2,3.801657E-2,1.4755026E3,1.4439316E3,-4.264723E-2,3.0976264E-3,6.448158E-3,5.314399E-2,3.5876613E-2,-3.525795E-2],"split_indices":[39,13,43,40,0,38,38,0,0,0,0,0,0],"split_type":[0,0,0,0,0,0,0,0,0,0,0,0,0],"sum_hessian":[2.1691748E1,1.1210947E1,1.0480801E1,1.008143E1,1.1295164E0,6.9942284E0,3.4865725E0,6.0215316E0,4.0598993E0,3.751008E0,3.2432203E0,1.0402836E0,2.4462888E0],"tree_param":{"num_deleted":"0","num_feature":"45","num_nodes":"13","size_leaf_vector":"1"}},{"base_weights":[-5.0231144E-2,2.7124742E-1,-5.090207E-1,3.993645E-1,-3.0564858E-2,2.3329262E-1,-7.8122675E-1,2.8189013E-2,-1.1075653E-2,-1.2299107E-2,3.2311928E-2,-4.8081074E-2,5.5709137E-3],"categories":[],"categories_nodes":[],"categories_segments":[],"categories_sizes":[],"default_left":[0,0,0,0,0,0,0,0,0,0,0,0,0],"id":25,"left_children":[1,3,5,7,-1,9,11,-1,-1,-1,-1,-1,-1],"loss_changes":[3.5350187E0,1.8491102E0,2.1699162E0,1.4519651E0,0E0,8.3372945E-1,1.3031797E0,0E0,0E0,0E0,0E0,0E0,0E0],"parents":[2147483647,0,0,1,1,2,2,3,3,5,5,6,6],"right_children":[2,4,6,8,-1,10,12,-1,-1,-1,-1,-1,-1],"split_conditions":[2.0595044E-2,1.1269804E0,-9.05244E-2,1.9911652E1,-3.0564858E-2,1.3E-1,6.7569554E-2,2.8189013E-2,-1.1075653E-2,-1.2299107E-2,3.2311928E-2,-4.8081074E-2,5.5709137E-3],"split_indices":[43,26,1,8,0,2,13,0,0,0,0,0,0],"split_type":[0,0,0,0,0,0,0,0,0,0,0,0,0],"sum_hessian":[2.2031563E1,1.3194686E1,8.836877E0,1.2000136E1,1.1945488E0,2.4093823E0,6.427494E0,9.560394E0,2.439743E0,1.3022656E0,1.1071168E0,5.282651E0,1.1448432E0],"tree_param":{"num_deleted":"0","num_feature":"45","num_nodes":"13","size_leaf_vector":"1"}},{"base_weights":[2.7040292E-2,1.9238327E-1,-5.145412E-1,3.056184E-1,-3.588212E-2,-7.33178E-1,1.1460296E-2,5.325866E-3,3.964492E-2,-4.233628E-2,-1.0453443E-2],"categories":[],"categories_nodes":[],"categories_segments":[],"categories_sizes":[],"default_left":[0,0,0,0,0,0,0,0,0,0,0],"id":26,"left_children":[1,3,5,7,-1,9,-1,-1,-1,-1,-1],"loss_changes":[2.1808257E0,2.129694E0,1.0965178E0,1.5831496E0,0E0,9.975004E-2,0E0,0E0,0E0,0E0,0E0],"parents":[2147483647,0,0,1,1,2,2,3,3,5,5],"right_children":[2,4,6,8,-1,10,-1,-1,-1,-1,-1],"split_conditions":[2.3054944E-2,1.2858312E0,3.5666665E-1,6E-2,-3.588212E-2,-8.7506294E-1,1.1460296E-2,5.325866E-3,3.964492E-2,-4.233628E-2,-1.0453443E-2],"split_indices":[30,26,3,33,0,6,0,0,0,0,0],"split_type":[0,0,0,0,0,0,0,0,0,0,0],"sum_hessian":[2.2248613E1,1.753884E1,4.7097735E0,1.618864E1,1.350199E0,3.650777E0,1.0589962E0,1.2357855E1,3.8307862E0,2.4947426E0,1.1560345E0],"tree_param":{"num_deleted":"0","num_feature":"45","num_nodes":"11","size_leaf_vector":"1"}},{"base_weights":[-6.794492E-2,-5.028635E-2,7.8074716E-2,5.6202394E-1,-1.8128684E-1,4.1641355E-2,7.524443E-3,5.0821207E-3,-3.4333225E-2],"categories":[],"categories_nodes":[],"categories_segments":[],"categories_sizes":[],"default_left":[0,0,0,0,0,0,0,0,0],"id":27,"left_children":[1,-1,3,5,7,-1,-1,-1,-1],"loss_changes":[3.1669266E0,0E0,2.667869E0,6.968069E-1,2.0810504E0,0E0,0E0,0E0,0E0],"parents":[2147483647,0,0,2,2,3,3,4,4],"right_children":[2,-1,4,6,8,-1,-1,-1,-1],"split_conditions":[-4.5141628E-1,-5.028635E-2,-2.9837847E0,-2.6973423E-2,1.1115358E0,4.1641355E-2,7.524443E-3,5.0821207E-3,-3.4333225E-2],"split_indices":[13,0,7,11,11,0,0,0,0],"split_type":[0,0,0,0,0,0,0,0,0],"sum_hessian":[2.1553867E1,2.1107006E0,1.9443167E1,6.3770742E0,1.3066093E1,3.228747E0,3.1483274E0,8.888729E0,4.177364E0],"tree_param":{"num_deleted":"0","num_feature":"45","num_nodes":"9","size_leaf_vector":"1"}},{"base_weights":[1.4457374E-2,-5.1004E-1,1.8412822E-1,8.205504E-3,-6.8939793E-1,1.8328674E-2,4.8049863E-2,-4.1882236E-2,-5.486495E-3,2.2768857E-2,-1.2405088E-2],"categories":[],"categories_nodes":[],"categories_segments":[],"categories_sizes":[],"default_left":[0,0,0,0,0,0,0,0,0,0,0],"id":28,"left_children":[1,3,5,-1,7,9,-1,-1,-1,-1,-1],"loss_changes":[2.121526E0,8.1858015E-1,2.2944264E0,0E0,3.2061148E-1,1.9542153E0,0E0,0E0,0E0,0E0,0E0],"parents":[2147483647,0,0,1,1,2,2,4,4,5,5],"right_children":[2,4,6,-1,8,10,-1,-1,-1,-1,-1],"split_conditions":[7.128985E2,1.4391571E3,6.7569554E-2,8.205504E-3,3.7842765E-1,-1.963437E-1,4.8049863E-2,-4.1882236E-2,-5.486495E-3,2.2768857E-2,-1.2405088E-2],"split_indices":[40,37,13,0,27,26,0,0,0,0,0],"split_type":[0,0,0,0,0,0,0,0,0,0,0],"sum_hessian":[2.1784237E1,4.8342476E0,1.694999E1,1.0337436E0,3.800504E0,1.4812332E1,2.137658E0,2.6720903E0,1.1284138E0,5.341325E0,9.471007E0],"tree_param":{"num_deleted":"0","num_feature":"45","num_nodes":"11","size_leaf_vector":"1"}},{"base_weights":[-1.7745622E-5,2.8689182E-1,-3.9384297E-1,-1.1084621E-1,6.142351E-1,-6.861781E-1,2.7233684E-1,-4.2407647E-2,9.078232E-3,4.172048E-2,-1.3823233E-2,3.2847945E-3,-4.456946E-2,4.1056003E-2,-1.7474249E-2],"categories":[],"categories_nodes":[],"categories_segments":[],"categories_sizes":[],"default_left":[0,0,0,0,0,0,0,0,0,0,0,0,0,0,0],"id":29,"left_children":[1,3,5,7,9,11,13,-1,-1,-1,-1,-1,-1,-1,-1],"loss_changes":[2.6579337E0,1.8399189E0,2.1176581E0,1.6612196E0,1.7246311E0,1.1655626E0,1.5630947E0,0E0,0E0,0E0,0E0,0E0,0E0,0E0,0E0],"parents":[2147483647,0,0,1,1,2,2,3,3,4,4,5,5,6,6],"right_children":[2,4,6,8,10,12,14,-1,-1,-1,-1,-1,-1,-1,-1],"split_conditions":[2.0595044E-2,5.0472647E-1,7.641128E1,-3.1560411E0,2.6937363E0,-1.5453719E0,1.2976256E2,-4.2407647E-2,9.078232E-3,4.172048E-2,-1.3823233E-2,3.2847945E-3,-4.456946E-2,4.1056003E-2,-1.7474249E-2],"split_indices":[43,39,0,6,11,29,0,0,0,0,0,0,0,0,0],"split_type":[0,0,0,0,0,0,0,0,0,0,0,0,0,0,0],"sum_hessian":[2.1523172E1,1.2608877E1,8.914295E0,5.9909534E0,6.6179237E0,6.174682E0,2.739613E0,1.1615589E0,4.829395E0,5.356928E0,1.2609959E0,1.4697003E0,4.704982E0,1.2850215E0,1.4545914E0],"tree_param":{"num_deleted":"0","num_feature":"45","num_nodes":"15","size_leaf_vector":"1"}},{"base_weights":[7.522493E-2,4.5781615E-1,-1.4765179E-1,-7.298921E-2,7.5099885E-1,2.7739061E-2,-3.033931E-1,-3.3753004E-2,2.6483912E-2,1.2601546E-3,4.718527E-2,1.611182E-2,-2.6027668E-2],"categories":[],"categories_nodes":[],"categories_segments":[],"categories_sizes":[],"default_left":[0,0,0,0,0,0,0,0,0,0,0,0,0],"id":30,"left_children":[1,3,5,7,9,-1,11,-1,-1,-1,-1,-1,-1],"loss_changes":[1.937474E0,1.3489704E0,1.7669199E0,1.7619041E0,7.3787475E-1,0E0,1.880592E0,0E0,0E0,0E0,0E0,0E0,0E0],"parents":[2147483647,0,0,1,1,2,2,3,3,4,4,6,6],"right_children":[2,4,6,8,10,-1,12,-1,-1,-1,-1,-1,-1],"split_conditions":[-2.526523E-2,5.0472647E-1,1.4439316E3,8.3634204E2,-3.2250416E-2,2.7739061E-2,-1.5453719E0,-3.3753004E-2,2.6483912E-2,1.2601546E-3,4.718527E-2,1.611182E-2,-2.6027668E-2],"split_indices":[43,39,38,40,30,0,29,0,0,0,0,0,0],"split_type":[0,0,0,0,0,0,0,0,0,0,0,0,0],"sum_hessian":[2.0928717E1,7.3159685E0,1.3612749E1,2.8703196E0,4.445649E0,2.005452E0,1.1607297E1,1.3757805E0,1.494539E0,1.1699644E0,3.2756846E0,2.8661568E0,8.74114E0],"tree_param":{"num_deleted":"0","num_feature":"45","num_nodes":"13","size_leaf_vector":"1"}},{"base_weights":[-5.0431967E-2,1.15652174E-1,-5.8719283E-1,-1.2959296E-1,5.361433E-1,-2.3601262E-1,-4.7335617E-2,2.273776E-2,-1.8080838E-2,3.816378E-2,-4.711232E-3,-3.8862817E-2,1.4364009E-2],"categories":[],"categories_nodes":[],"categories_segments":[],"categories_sizes":[],"default_left":[0,0,0,0,0,0,0,0,0,0,0,0,0],"id":31,"left_children":[1,3,5,7,9,11,-1,-1,-1,-1,-1,-1,-1],"loss_changes":[2.0476491E0,1.9045851E0,4.5989108E-1,1.7975582E0,1.038378E0,1.3760191E0,0E0,0E0,0E0,0E0,0E0,0E0,0E0],"parents":[2147483647,0,0,1,1,2,2,3,3,4,4,5,5],"right_children":[2,4,6,8,10,12,-1,-1,-1,-1,-1,-1,-1],"split_conditions":[2.3054944E-2,1.4333333E-1,1.3847679E0,1.4905687E3,6.385393E0,-7.114855E0,-4.7335617E-2,2.273776E-2,-1.8080838E-2,3.816378E-2,-4.711232E-3,-3.8862817E-2,1.4364009E-2],"split_indices":[30,2,11,37,7,6,0,0,0,0,0,0,0],"split_type":[0,0,0,0,0,0,0,0,0,0,0,0,0],"sum_hessian":[2.1207462E1,1.679523E1,4.412231E0,1.1045131E1,5.7501006E0,3.069954E0,1.3422773E0,2.8663428E0,8.178788E0,4.0720353E0,1.6780652E0,1.2705259E0,1.799428E0],"tree_param":{"num_deleted":"0","num_feature":"45","num_nodes":"13","size_leaf_vector":"1"}},{"base_weights":[-1.7186675E-2,-6.2323874E-1,1.4160466E-1,-4.0896215E-2,-3.273226E-4,5.422232E-1,-1.2676795E-1,-5.569609E-3,4.051396E-2,2.1646027E-2,-1.85562E-2],"categories":[],"categories_nodes":[],"categories_segments":[],"categories_sizes":[],"default_left":[0,0,0,0,0,0,0,0,0,0,0],"id":32,"left_children":[1,3,5,-1,-1,7,9,-1,-1,-1,-1],"loss_changes":[2.270978E0,5.822253E-1,2.0886204E0,0E0,0E0,1.4439113E0,1.810156E0,0E0,0E0,0E0,0E0],"parents":[2147483647,0,0,1,1,2,2,5,5,6,6],"right_children":[2,4,6,-1,-1,8,10,-1,-1,-1,-1],"split_conditions":[-6.646369E0,6.485053E-2,-4.7192672E-1,-4.0896215E-2,-3.273226E-4,7.437452E2,-2.1866894E0,-5.569609E-3,4.051396E-2,2.1646027E-2,-1.85562E-2],"split_indices":[6,43,11,0,0,40,44,0,0,0,0],"split_type":[0,0,0,0,0,0,0,0,0,0,0],"sum_hessian":[2.1681E1,3.8940096E0,1.778699E1,2.7116513E0,1.1823583E0,6.7260833E0,1.1060906E1,2.1261704E0,4.5999126E0,3.1269846E0,7.933922E0],"tree_param":{"num_deleted":"0","num_feature":"45","num_nodes":"11","size_leaf_vector":"1"}},{"base_weights":[-9.308212E-3,-7.1710205E-1,1.7067446E-1,-4.3494225E-2,-4.2301053E-3,2.9107913E-1,-4.8884308E-1,1.4354334E-3,4.323695E-2,1.3171462E-3,-3.763017E-2],"categories":[],"categories_nodes":[],"categories_segments":[],"categories_sizes":[],"default_left":[0,0,0,0,0,0,0,0,0,0,0],"id":33,"left_children":[1,3,5,-1,-1,7,9,-1,-1,-1,-1],"loss_changes":[2.901979E0,3.7245226E-1,1.5878227E0,0E0,0E0,2.386385E0,4.524172E-1,0E0,0E0,0E0,0E0],"parents":[2147483647,0,0,1,1,2,2,5,5,6,6],"right_children":[2,4,6,-1,-1,8,10,-1,-1,-1,-1],"split_conditions":[4.643137E-1,1.5888656E3,1.6102297E3,-4.3494225E-2,-4.2301053E-3,1.341459E0,1.1236522E0,1.4354334E-3,4.323695E-2,1.3171462E-3,-3.763017E-2],"split_indices":[39,38,37,0,0,6,11,0,0,0,0],"split_type":[0,0,0,0,0,0,0,0,0,0,0],"sum_hessian":[2.0819407E1,3.6157894E0,1.7203617E1,2.6100192E0,1.0057701E0,1.502012E1,2.1834965E0,1.1026883E1,3.9932373E0,1.0441505E0,1.1393461E0],"tree_param":{"num_deleted":"0","num_feature":"45","num_nodes":"11","size_leaf_vector":"1"}},{"base_weights":[-3.8308475E-2,-2.93999E-1,3.0298847E-1,3.6079716E-2,-6.226532E-1,5.7263964E-1,-3.5552642E-1,-2.1888774E-2,2.2113997E-2,1.3080321E-2,-4.4561226E-2,3.9430838E-2,3.049788E-4,1.1237534E-2,-3.8741857E-2],"categories":[],"categories_nodes":[],"categories_segments":[],"categories_sizes":[],"default_left":[0,0,0,0,0,0,0,0,0,0,0,0,0,0,0],"id":34,"left_children":[1,3,5,7,9,11,13,-1,-1,-1,-1,-1,-1,-1,-1],"loss_changes":[2.065488E0,1.4821264E0,2.013489E0,1.6677014E0,1.847348E0,9.268992E-1,1.0447625E0,0E0,0E0,0E0,0E0,0E0,0E0,0E0,0E0],"parents":[2147483647,0,0,1,1,2,2,3,3,4,4,5,5,6,6],"right_children":[2,4,6,8,10,12,14,-1,-1,-1,-1,-1,-1,-1,-1],"split_conditions":[8.238214E2,2.0595044E-2,1.6102297E3,5.0427634E-1,-9.194131E-2,8.787204E2,1.2873679E0,-2.1888774E-2,2.2113997E-2,1.3080321E-2,-4.4561226E-2,3.9430838E-2,3.049788E-4,1.1237534E-2,-3.8741857E-2],"split_indices":[40,43,37,39,1,40,11,0,0,0,0,0,0,0,0],"split_type":[0,0,0,0,0,0,0,0,0,0,0,0,0,0,0],"sum_hessian":[2.1648005E1,1.2455363E1,9.192641E0,6.658362E0,5.797002E0,6.6145124E0,2.5781286E0,3.037369E0,3.620993E0,1.3565506E0,4.440451E0,4.5050893E0,2.1094234E0,1.276123E0,1.3020056E0],"tree_param":{"num_deleted":"0","num_feature":"45","num_nodes":"15","size_leaf_vector":"1"}},{"base_weights":[-3.7148166E-2,-3.0083582E-1,3.310325E-1,2.4130028E-1,-6.497039E-1,4.7706747E-1,-1.9290388E-2,3.8467377E-2,-1.0395904E-2,-4.6162467E-2,-4.7167325E-3,-2.0744326E-2,3.416845E-2],"categories":[],"categories_nodes":[],"categories_segments":[],"categories_sizes":[],"default_left":[0,0,0,0,0,0,0,0,0,0,0,0,0],"id":35,"left_children":[1,3,5,7,9,11,-1,-1,-1,-1,-1,-1,-1],"loss_changes":[2.3166497E0,2.7725596E0,1.2315274E0,1.6174599E0,1.2324648E0,1.8954098E0,0E0,0E0,0E0,0E0,0E0,0E0,0E0],"parents":[2147483647,0,0,1,1,2,2,3,3,4,4,5,5],"right_children":[2,4,6,8,10,12,-1,-1,-1,-1,-1,-1,-1],"split_conditions":[5.346943E-1,-3.6052313E0,1.6102297E3,4.0414273E-3,1.5686013E3,1.4835659E3,-1.9290388E-2,3.8467377E-2,-1.0395904E-2,-4.6162467E-2,-4.7167325E-3,-2.0744326E-2,3.416845E-2],"split_indices":[39,7,37,43,37,25,0,0,0,0,0,0,0],"split_type":[0,0,0,0,0,0,0,0,0,0,0,0,0],"sum_hessian":[2.1836386E1,1.2830332E1,9.006054E0,5.1443768E0,7.685955E0,7.7597256E0,1.2463285E0,2.0371323E0,3.1072445E0,4.705747E0,2.9802077E0,1.2676994E0,6.4920263E0],"tree_param":{"num_deleted":"0","num_feature":"45","num_nodes":"13","size_leaf_vector":"1"}},{"base_weights":[1.4097171E-2,-2.0114541E-1,3.4579283E-1,-5.1253325E-1,1.934962E-1,-1.5350525E-2,5.370245E-1,-3.3024147E-2,1.2978703E-2,3.2571718E-2,-9.30604E-3,3.7881657E-2,-1.2353607E-2],"categories":[],"categories_nodes":[],"categories_segments":[],"categories_sizes":[],"default_left":[0,0,0,0,0,0,0,0,0,0,0,0,0],"id":36,"left_children":[1,3,5,7,9,-1,11,-1,-1,-1,-1,-1,-1],"loss_changes":[1.6413316E0,1.8175654E0,1.2923534E0,1.0956233E0,1.3195771E0,0E0,1.4584279E0,0E0,0E0,0E0,0E0,0E0,0E0],"parents":[2147483647,0,0,1,1,2,2,3,3,4,4,6,6],"right_children":[2,4,6,8,10,-1,12,-1,-1,-1,-1,-1,-1],"split_conditions":[5.508972E-1,8.2879175E2,-2.9455881E1,2.1333334E-1,-3.9975113E-1,-1.5350525E-2,1.5238813E3,-3.3024147E-2,1.2978703E-2,3.2571718E-2,-9.30604E-3,3.7881657E-2,-1.2353607E-2],"split_indices":[39,40,44,3,27,0,24,0,0,0,0,0,0],"split_type":[0,0,0,0,0,0,0,0,0,0,0,0,0],"sum_hessian":[2.1015211E1,1.2983559E1,8.031652E0,7.0903006E0,5.893258E0,1.6825458E0,6.3491073E0,6.071469E0,1.0188317E0,2.3465483E0,3.5467098E0,4.9813385E0,1.3677688E0],"tree_param":{"num_deleted":"0","num_feature":"45","num_nodes":"13","size_leaf_vector":"1"}},{"base_weights":[-5.284034E-2,-5.349295E-1,1.0303794E-1,-7.1449345E-1,3.8352273E-3,7.47315E-1,-5.8959387E-2,-8.38755E-3,-4.326456E-2,1.0536928E-2,4.4243272E-2,-8.357175E-3,3.537806E-2],"categories":[],"categories_nodes":[],"categories_segments":[],"categories_sizes":[],"default_left":[0,0,0,0,0,0,0,0,0,0,0,0,0],"id":37,"left_children":[1,3,5,7,-1,9,11,-1,-1,-1,-1,-1,-1],"loss_changes":[1.6954254E0,6.5829E-1,1.8531334E0,2.1305871E-1,0E0,7.5957656E-2,1.3436824E0,0E0,0E0,0E0,0E0,0E0,0E0],"parents":[2147483647,0,0,1,1,2,2,3,3,5,5,6,6],"right_children":[2,4,6,8,-1,10,12,-1,-1,-1,-1,-1,-1],"split_conditions":[7.128985E2,5.864389E-1,1.4905687E3,-2.9837847E0,3.8352273E-3,5.04989E-1,6.7569554E-2,-8.38755E-3,-4.326456E-2,1.0536928E-2,4.4243272E-2,-8.357175E-3,3.537806E-2],"split_indices":[40,39,37,7,0,39,13,0,0,0,0,0,0],"split_type":[0,0,0,0,0,0,0,0,0,0,0,0,0],"sum_hessian":[2.0827913E1,4.49485E0,1.6333063E1,3.3447306E0,1.1501197E0,2.5556993E0,1.3777365E1,1.1797549E0,2.1649756E0,1.0381227E0,1.5175767E0,1.2758604E1,1.0187608E0],"tree_param":{"num_deleted":"0","num_feature":"45","num_nodes":"13","size_leaf_vector":"1"}},{"base_weights":[8.8414446E-2,-1.1578199E-1,5.1418036E-1,5.042283E-1,-3.2264462E-1,4.741734E-2,-5.3646456E-2,3.8395997E-2,-8.54659E-3,1.4998197E-2,-2.562669E-2,2.7147276E-2,-2.693519E-2],"categories":[],"categories_nodes":[],"categories_segments":[],"categories_sizes":[],"default_left":[0,0,0,0,0,0,0,0,0,0,0,0,0],"id":38,"left_children":[1,3,5,7,9,-1,11,-1,-1,-1,-1,-1,-1],"loss_changes":[1.9661334E0,2.168352E0,1.8486389E0,8.972354E-1,1.6121233E0,0E0,1.4807456E0,0E0,0E0,0E0,0E0,0E0,0E0],"parents":[2147483647,0,0,1,1,2,2,3,3,4,4,6,6],"right_children":[2,4,6,8,10,-1,12,-1,-1,-1,-1,-1,-1],"split_conditions":[1.414994E0,-1.5453719E0,4.2944856E0,4.6666667E-2,1.4848057E3,4.741734E-2,1.1615152E-2,3.8395997E-2,-8.54659E-3,1.4998197E-2,-2.562669E-2,2.7147276E-2,-2.693519E-2],"split_indices":[6,29,6,3,24,0,1,0,0,0,0,0,0],"split_type":[0,0,0,0,0,0,0,0,0,0,0,0,0],"sum_hessian":[2.0930101E1,1.4637871E1,6.2922306E0,3.3023973E0,1.1335474E1,3.1860266E0,3.1062043E0,2.2760642E0,1.0263331E0,2.5137415E0,8.8217325E0,1.3394351E0,1.766769E0],"tree_param":{"num_deleted":"0","num_feature":"45","num_nodes":"13","size_leaf_vector":"1"}},{"base_weights":[-4.4484552E-2,-2.6995513E-1,3.8573146E-1,4.1053483E-1,-4.9668968E-1,6.63292E-1,-1.977939E-2,3.6927324E-2,-1.1227893E-2,-4.0868323E-2,-1.723064E-3,-5.329236E-3,4.320338E-2],"categories":[],"categories_nodes":[],"categories_segments":[],"categories_sizes":[],"default_left":[0,0,0,0,0,0,0,0,0,0,0,0,0],"id":39,"left_children":[1,3,5,7,9,11,-1,-1,-1,-1,-1,-1,-1],"loss_changes":[2.121342E0,2.3999307E0,1.9024727E0,1.0209107E0,1.6213512E0,1.0124109E0,0E0,0E0,0E0,0E0,0E0,0E0,0E0],"parents":[2147483647,0,0,1,1,2,2,3,3,4,4,5,5],"right_children":[2,4,6,8,10,12,-1,-1,-1,-1,-1,-1,-1],"split_conditions":[1.414994E0,-1.5453719E0,1.6102297E3,1.5137561E3,-3.538044E-1,4.2949015E-1,-1.977939E-2,3.6927324E-2,-1.1227893E-2,-4.0868323E-2,-1.723064E-3,-5.329236E-3,4.320338E-2],"split_indices":[6,29,37,24,5,39,0,0,0,0,0,0,0],"split_type":[0,0,0,0,0,0,0,0,0,0,0,0,0],"sum_hessian":[1.9795773E1,1.3233028E1,6.562744E0,3.1046169E0,1.0128411E1,4.9539385E0,1.6088055E0,1.9398375E0,1.1647794E0,5.5262136E0,4.6021976E0,1.121741E0,3.8321977E0],"tree_param":{"num_deleted":"0","num_feature":"45","num_nodes":"13","size_leaf_vector":"1"}},{"base_weights":[-2.1397319E-2,-4.6060723E-1,1.4719006E-1,-7.235145E-1,-1.0792378E-2,-2.3244612E-2,4.4729125E-2,-8.5895145E-3,-4.3472026E-2,2.4671713E-2,-2.6583383E-2,2.4377787E-2,-1.1548619E-2],"categories":[],"categories_nodes":[],"categories_segments":[],"categories_sizes":[],"default_left":[0,0,0,0,0,0,0,0,0,0,0,0,0],"id":40,"left_children":[1,3,5,7,9,11,-1,-1,-1,-1,-1,-1,-1],"loss_changes":[1.61485E0,7.061777E-1,2.0405436E0,1.5619564E-1,1.1138775E0,1.5860442E0,0E0,0E0,0E0,0E0,0E0,0E0,0E0],"parents":[2147483647,0,0,1,1,2,2,3,3,4,4,5,5],"right_children":[2,4,6,8,10,12,-1,-1,-1,-1,-1,-1,-1],"split_conditions":[7.1869025E2,-1.6253254E0,4.9953487E-2,-2.9837847E0,1.5111191E3,-1.3666667E-1,4.4729125E-2,-8.5895145E-3,-4.3472026E-2,2.4671713E-2,-2.6583383E-2,2.4377787E-2,-1.1548619E-2],"split_indices":[40,8,13,7,37,3,0,0,0,0,0,0,0],"split_type":[0,0,0,0,0,0,0,0,0,0,0,0,0],"sum_hessian":[1.9893349E1,5.0374484E0,1.48559E1,2.7952263E0,2.2422223E0,1.2886233E1,1.9696658E0,1.0400805E0,1.7551457E0,1.1660881E0,1.0761342E0,3.335987E0,9.550246E0],"tree_param":{"num_deleted":"0","num_feature":"45","num_nodes":"13","size_leaf_vector":"1"}},{"base_weights":[1.4581388E-2,1.5633343E-1,-4.3166447E-1,-1.4316941E-2,6.2803596E-1,4.4636773E-3,-6.204229E-1,-1.3938605E-2,3.3261165E-2,3.6176216E-2,8.101019E-3,-5.509902E-3,-3.9230343E-2],"categories":[],"categories_nodes":[],"categories_segments":[],"categories_sizes":[],"default_left":[0,0,0,0,0,0,0,0,0,0,0,0,0],"id":41,"left_children":[1,3,5,7,9,-1,11,-1,-1,-1,-1,-1,-1],"loss_changes":[1.460791E0,1.4136901E0,6.0367405E-1,2.6640177E0,9.006274E-2,0E0,2.669388E-1,0E0,0E0,0E0,0E0,0E0,0E0],"parents":[2147483647,0,0,1,1,2,2,3,3,4,4,6,6],"right_children":[2,4,6,8,10,-1,12,-1,-1,-1,-1,-1,-1],"split_conditions":[2.3054944E-2,4.7164476E-3,-2.1047139E-1,6E-2,8.203772E-2,4.4636773E-3,-8.2817066E-1,-1.3938605E-2,3.3261165E-2,3.6176216E-2,8.101019E-3,-5.509902E-3,-3.9230343E-2],"split_indices":[30,30,1,33,1,0,11,0,0,0,0,0,0],"split_type":[0,0,0,0,0,0,0,0,0,0,0,0,0],"sum_hessian":[2.1026396E1,1.645049E1,4.5759044E0,1.2792227E1,3.6582644E0,1.3572359E0,3.2186685E0,9.633099E0,3.1591275E0,2.577541E0,1.0807232E0,1.1904286E0,2.0282397E0],"tree_param":{"num_deleted":"0","num_feature":"45","num_nodes":"13","size_leaf_vector":"1"}},{"base_weights":[1.7849842E-2,1.5224116E-1,-4.3845206E-1,3.615597E-1,-1.7458259E-1,1.9931556E-3,-6.285931E-1,-3.4378048E-3,3.0348018E-2,1.3660873E-2,-3.2508355E-2,-3.882207E-2,-9.534619E-3],"categories":[],"categories_nodes":[],"categories_segments":[],"categories_sizes":[],"default_left":[0,0,0,0,0,0,0,0,0,0,0,0,0],"id":42,"left_children":[1,3,5,7,9,-1,11,-1,-1,-1,-1,-1,-1],"loss_changes":[1.4016422E0,1.2642618E0,4.989221E-1,1.2063533E0,1.7811176E0,0E0,9.717715E-2,0E0,0E0,0E0,0E0,0E0,0E0],"parents":[2147483647,0,0,1,1,2,2,3,3,4,4,6,6],"right_children":[2,4,6,8,10,-1,12,-1,-1,-1,-1,-1,-1],"split_conditions":[2.3054944E-2,1.6441287E0,1.4595598E3,-1.0198774E0,1.4940939E3,1.9931556E-3,-2.4666667E-1,-3.4378048E-3,3.0348018E-2,1.3660873E-2,-3.2508355E-2,-3.882207E-2,-9.534619E-3],"split_indices":[30,7,38,5,38,0,2,0,0,0,0,0,0],"split_type":[0,0,0,0,0,0,0,0,0,0,0,0,0],"sum_hessian":[2.0768202E1,1.6557886E1,4.210316E0,1.0028633E1,6.5292525E0,1.4224294E0,2.7878869E0,3.9035275E0,6.125106E0,3.582016E0,2.9472368E0,1.5062373E0,1.2816497E0],"tree_param":{"num_deleted":"0","num_feature":"45","num_nodes":"13","size_leaf_vector":"1"}},{"base_weights":[-1.6366716E-2,-4.8234862E-1,1.2995265E-1,-6.1658204E-1,1.0505865E-3,-1.4132907E-2,4.3305892E-2,-2.6440138E-3,-3.85226E-2,2.8236387E-2,-9.381725E-3],"categories":[],"categories_nodes":[],"categories_segments":[],"categories_sizes":[],"default_left":[0,0,0,0,0,0,0,0,0,0,0],"id":43,"left_children":[1,3,5,7,-1,9,-1,-1,-1,-1,-1],"loss_changes":[1.5659132E0,3.832804E-1,1.8755306E0,3.3741903E-1,0E0,1.6802552E0,0E0,0E0,0E0,0E0,0E0],"parents":[2147483647,0,0,1,1,2,2,3,3,5,5],"right_children":[2,4,6,8,-1,10,-1,-1,-1,-1,-1],"split_conditions":[7.128985E2,-6.503011E-2,6.7569554E-2,1.4391506E3,1.0505865E-3,-2.2125736E1,4.3305892E-2,-2.6440138E-3,-3.85226E-2,2.8236387E-2,-9.381725E-3],"split_indices":[40,5,13,37,0,8,0,0,0,0,0],"split_type":[0,0,0,0,0,0,0,0,0,0,0],"sum_hessian":[2.1047266E1,4.48079E0,1.6566477E1,3.359867E0,1.120923E0,1.4675018E1,1.8914585E0,1.0085859E0,2.3512812E0,2.864196E0,1.18108225E1],"tree_param":{"num_deleted":"0","num_feature":"45","num_nodes":"11","size_leaf_vector":"1"}},{"base_weights":[-2.2815453E-2,3.3346483E-1,-1.9697838E-1,-2.6943132E-2,5.5838805E-1,9.430743E-2,-5.2917224E-1,-6.6683427E-3,4.047181E-2,-3.0923E-2,1.3553003E-2,-8.869857E-4,-4.563212E-2],"categories":[],"categories_nodes":[],"categories_segments":[],"categories_sizes":[],"default_left":[0,0,0,0,0,0,0,0,0,0,0,0,0],"id":44,"left_children":[1,3,5,-1,7,9,11,-1,-1,-1,-1,-1,-1],"loss_changes":[1.407921E0,1.767271E0,1.5166051E0,0E0,1.2250843E0,1.292018E0,1.4022996E0,0E0,0E0,0E0,0E0,0E0,0E0],"parents":[2147483647,0,0,1,1,2,2,4,4,5,5,6,6],"right_children":[2,4,6,-1,8,10,12,-1,-1,-1,-1,-1,-1],"split_conditions":[-7.599816E-1,1.4671594E3,1.4940939E3,-2.6943132E-2,-3.549136E-2,-4.567692E-1,1.6441287E0,-6.6683427E-3,4.047181E-2,-3.0923E-2,1.3553003E-2,-8.869857E-4,-4.563212E-2],"split_indices":[27,25,38,0,1,7,7,0,0,0,0,0,0],"split_type":[0,0,0,0,0,0,0,0,0,0,0,0,0],"sum_hessian":[2.0631231E1,6.4736314E0,1.41576E1,1.0409023E0,5.4327292E0,7.924804E0,6.232796E0,1.5714394E0,3.8612897E0,1.0781348E0,6.846669E0,3.1191115E0,3.113685E0],"tree_param":{"num_deleted":"0","num_feature":"45","num_nodes":"13","size_leaf_vector":"1"}},{"base_weights":[1.2738924E-2,-4.8188064E-1,1.3119379E-1,1.4966594E-2,-4.1441806E-2,6.195738E-1,-3.4314867E-2,-2.541896E-3,4.522803E-2,-1.4888975E-2,1.6194943E-2],"categories":[],"categories_nodes":[],"categories_segments":[],"categories_sizes":[],"default_left":[0,0,0,0,0,0,0,0,0,0,0],"id":45,"left_children":[1,3,5,-1,-1,7,9,-1,-1,-1,-1],"loss_changes":[1.3072442E0,1.4180542E0,1.4694486E0,0E0,0E0,9.2243505E-1,1.4487629E0,0E0,0E0,0E0,0E0],"parents":[2147483647,0,0,1,1,2,2,5,5,6,6],"right_children":[2,4,6,-1,-1,8,10,-1,-1,-1,-1],"split_conditions":[-6.646369E0,-3.4282932E0,-6.781585E-1,1.4966594E-2,-4.1441806E-2,-4.771587E-3,3.9318675E-1,-2.541896E-3,4.522803E-2,-1.4888975E-2,1.6194943E-2],"split_indices":[6,11,26,0,0,30,26,0,0,0,0],"split_type":[0,0,0,0,0,0,0,0,0,0,0],"sum_hessian":[2.0232674E1,3.3164537E0,1.691622E1,1.0621514E0,2.2543023E0,3.587332E0,1.3328888E1,1.3151487E0,2.2721834E0,7.777374E0,5.551514E0],"tree_param":{"num_deleted":"0","num_feature":"45","num_nodes":"11","size_leaf_vector":"1"}},{"base_weights":[-4.4725705E-2,-1.3628809E-1,3.1661432E-2,-3.371395E-1,1.9310312E-1,-2.2851255E-2,2.3120193E-2,1.8764129E-2,-2.2281831E-2],"categories":[],"categories_nodes":[],"categories_segments":[],"categories_sizes":[],"default_left":[0,0,0,0,0,0,0,0,0],"id":46,"left_children":[1,3,-1,5,7,-1,-1,-1,-1],"loss_changes":[1.4002177E0,1.353272E0,0E0,1.4056356E0,1.0994687E0,0E0,0E0,0E0,0E0],"parents":[2147483647,0,0,1,1,3,3,4,4],"right_children":[2,4,-1,6,8,-1,-1,-1,-1],"split_conditions":[6.7569554E-2,5.508972E-1,3.1661432E-2,1.5319719E3,1.577426E2,-2.2851255E-2,2.3120193E-2,1.8764129E-2,-2.2281831E-2],"split_indices":[13,39,0,25,0,0,0,0,0],"split_type":[0,0,0,0,0,0,0,0,0],"sum_hessian":[2.0166552E1,1.8470901E1,1.6956502E0,1.1459667E1,7.011234E0,1.0337959E1,1.1217079E0,5.7762213E0,1.2350124E0],"tree_param":{"num_deleted":"0","num_feature":"45","num_nodes":"9","size_leaf_vector":"1"}},{"base_weights":[1.95506E-2,-3.9514013E-2,1.1827488E-1,3.105104E-1,-3.2718155E-1,3.407703E-3,3.4112662E-2,1.3599552E-2,-2.7654631E-2],"categories":[],"categories_nodes":[],"categories_segments":[],"categories_sizes":[],"default_left":[0,0,0,0,0,0,0,0,0],"id":47,"left_children":[1,-1,3,5,7,-1,-1,-1,-1],"loss_changes":[1.7601398E0,0E0,1.7672356E0,1.223875E0,1.0100439E0,0E0,0E0,0E0,0E0],"parents":[2147483647,0,0,2,2,3,3,4,4],"right_children":[2,-1,4,6,8,-1,-1,-1,-1],"split_conditions":[-4.5141628E-1,-3.9514013E-2,8.203772E-2,8.63777E-1,-1.4520243E0,3.407703E-3,3.4112662E-2,1.3599552E-2,-2.7654631E-2],"split_indices":[13,0,1,6,28,0,0,0,0],"split_type":[0,0,0,0,0,0,0,0,0],"sum_hessian":[1.9846407E1,1.3953655E0,1.8451042E1,1.3100496E1,5.350545E0,8.646669E0,4.453827E0,1.4091506E0,3.941394E0],"tree_param":{"num_deleted":"0","num_feature":"45","num_nodes":"9","size_leaf_vector":"1"}},{"base_weights":[3.1869564E-2,-2.9862285E-2,1.2591514E-1,5.44039E-1,-8.282405E-2,-1.0439369E-2,3.9101206E-2,6.364293E-3,-2.6379151E-2],"categories":[],"categories_nodes":[],"categories_segments":[],"categories_sizes":[],"default_left":[0,0,0,0,0,0,0,0,0],"id":48,"left_children":[1,-1,3,5,7,-1,-1,-1,-1],"loss_changes":[1.3249662E0,0E0,1.7209913E0,1.3325224E0,1.345136E0,0E0,0E0,0E0,0E0],"parents":[2147483647,0,0,2,2,3,3,4,4],"right_children":[2,-1,4,6,8,-1,-1,-1,-1],"split_conditions":[-4.5141628E-1,-2.9862285E-2,-7.599816E-1,1.4725831E3,8.203772E-2,-1.0439369E-2,3.9101206E-2,6.364293E-3,-2.6379151E-2],"split_indices":[13,0,27,25,1,0,0,0,0],"split_type":[0,0,0,0,0,0,0,0,0],"sum_hessian":[2.0123184E1,1.9211444E0,1.820204E1,5.5262136E0,1.2675827E1,1.3568213E0,4.1693926E0,9.093669E0,3.582158E0],"tree_param":{"num_deleted":"0","num_feature":"45","num_nodes":"9","size_leaf_vector":"1"}},{"base_weights":[-1.696914E-3,-4.2560127E-2,1.2127995E-1,2.9904002E-1,-2.465105E-1,4.5026685E-4,3.157296E-2,6.5398603E-3,-4.182693E-2],"categories":[],"categories_nodes":[],"categories_segments":[],"categories_sizes":[],"default_left":[0,0,0,0,0,0,0,0,0],"id":49,"left_children":[1,-1,3,5,7,-1,-1,-1,-1],"loss_changes":[2.284281E0,0E0,1.3232664E0,1.2801608E0,1.6178392E0,0E0,0E0,0E0,0E0],"parents":[2147483647,0,0,2,2,3,3,4,4],"right_children":[2,-1,4,6,8,-1,-1,-1,-1],"split_conditions":[-4.5141628E-1,-4.2560127E-2,8.203772E-2,8.2329425E2,1.7164906E0,4.5026685E-4,3.157296E-2,6.5398603E-3,-4.182693E-2],"split_indices":[13,0,1,40,11,0,0,0,0],"split_type":[0,0,0,0,0,0,0,0,0],"sum_hessian":[1.9877352E1,1.7647915E0,1.811256E1,1.2336854E1,5.775707E0,7.1369643E0,5.1998897E0,3.99764E0,1.7780668E0],"tree_param":{"num_deleted":"0","num_feature":"45","num_nodes":"9","size_leaf_vector":"1"}}]},"name":"gbtree"},"learner_model_param":{"base_score":"4.9510145E-1","boost_from_average":"1","num_class":"0","num_feature":"45","num_target":"1"},"objective":{"name":"binary:logistic","reg_loss_param":{"scale_pos_weight":"1"}}},"version":[3,0,5]}