{"learner":{"attributes":{"scikit_learn":"{\"_estimator_type\": \"classifier\"}"},"feature_names":["p1_target","elo_diff","finish_diff","edge_speed_diff","edge_burst_diff","l5_goal_diff","l5_xg_diff","l5_corsi_diff","l5_pdo_diff","l5_st_net","l5_royal_road_diff","l5_pressure_diff","l5_rebound_diff","l5_lateral_diff","p1_xg_diff","p2_xg_diff","p3_xg_diff","p1_p2_dominance","h_preservation_rate","a_preservation_rate","h_comeback_rate","a_comeback_rate","l5_nzt_possession_diff","l5_ca_shots_diff","l5_rush_sv_pct_diff","home_sos","away_sos","l5_std_diff","l10_goal_diff","l10_xg_diff","elo_rest_inter","speed_finish_inter","season_month","is_late_season","h_desperation","a_desperation","home_xg","away_xg","home_elo","away_elo","away_win_rate","home_win_rate_away_sos","away_b2b_home_strength","pressure_index","xg_efficiency","power_momentum"],"feature_types":["int","float","float","float","float","float","float","float","float","float","float","float","float","float","float","float","float","float","float","float","float","float","float","float","float","float","float","float","float","float","float","float","int","int","float","float","float","float","float","float","float","float","float","float","float","float"],"gradient_booster":{"model":{"cats":{"enc":[],"feature_segments":[],"sorted_idx":[]},"gbtree_model_param":{"num_parallel_tree":"1","num_trees":"50"},"iteration_indptr":[0,1,2,3,4,5,6,7,8,9,10,11,12,13,14,15,16,17,18,19,20,21,22,23,24,25,26,27,28,29,30,31,32,33,34,35,36,37,38,39,40,41,42,43,44,45,46,47,48,49,50],"tree_info":[0,0,0,0,0,0,0,0,0,0,0,0,0,0,0,0,0,0,0,0,0,0,0,0,0,0,0,0,0,0,0,0,0,0,0,0,0,0,0,0,0,0,0,0,0,0,0,0,0,0],"trees":[{"base_weights":[6.287708E-2,-3.804176E-1,4.9587762E-1,-8.443297E-1,2.8654507E-1,2.6404655E-1,9.1281974E-1,-7.2455094E-3,-5.0026853E-2,2.574331E-2,-5.405687E-2,-1.959944E-3,3.9149303E-2,-1.6713029E-2,5.4674238E-2],"categories":[],"categories_nodes":[],"categories_segments":[],"categories_sizes":[],"default_left":[0,0,0,0,0,0,0,0,0,0,0,0,0,0,0],"id":0,"left_children":[1,3,5,7,9,11,13,-1,-1,-1,-1,-1,-1,-1,-1],"loss_changes":[3.8052578E1,3.0576248E1,9.446646E0,6.1998634E0,1.3348624E1,1.0388092E1,8.342802E0,0E0,0E0,0E0,0E0,0E0,0E0,0E0,0E0],"parents":[2147483647,0,0,1,1,2,2,3,3,4,4,5,5,6,6],"right_children":[2,4,6,8,10,12,14,-1,-1,-1,-1,-1,-1,-1,-1],"split_conditions":[7.624062E2,5.346266E-1,5.604807E-1,-1.0627691E1,9.38782E-1,1.5171002E3,5E-1,-7.2455094E-3,-5.0026853E-2,2.574331E-2,-5.405687E-2,-1.959944E-3,3.9149303E-2,-1.6713029E-2,5.4674238E-2],"split_indices":[41,40,40,30,27,39,20,0,0,0,0,0,0,0,0],"split_type":[0,0,0,0,0,0,0,0,0,0,0,0,0,0,0],"sum_hessian":[1.9626263E2,9.7038536E1,9.922409E1,5.7074146E1,3.9964394E1,6.4817245E1,3.4406845E1,1.0771652E1,4.6302494E1,3.478151E1,5.1828823E0,4.1494278E1,2.332297E1,4.246217E0,3.0160627E1],"tree_param":{"num_deleted":"0","num_feature":"46","num_nodes":"15","size_leaf_vector":"1"}},{"base_weights":[1.9750083E-3,-6.8211746E-1,2.8305224E-1,-8.41265E-1,7.9840046E-1,-7.85971E-2,6.6108024E-1,-7.039558E-2,-1.9534139E-2,-6.342375E-3,5.4947235E-2,-3.2653537E-2,1.8692302E-2,-3.1738166E-2,3.6740016E-2],"categories":[],"categories_nodes":[],"categories_segments":[],"categories_sizes":[],"default_left":[0,0,0,0,0,0,0,0,0,0,0,0,0,0,0],"id":1,"left_children":[1,3,5,7,9,11,13,-1,-1,-1,-1,-1,-1,-1,-1],"loss_changes":[3.7503647E1,1.4055328E1,1.8951015E1,1.26693E1,1.8151801E0,1.8839474E1,6.9332886E0,0E0,0E0,0E0,0E0,0E0,0E0,0E0,0E0],"parents":[2147483647,0,0,1,1,2,2,3,3,4,4,5,5,6,6],"right_children":[2,4,6,8,10,12,14,-1,-1,-1,-1,-1,-1,-1,-1],"split_conditions":[7.181892E2,3.6E-1,5.0492513E-1,1E1,-1.2352941E0,8.1111725E2,-1.422308E-1,-7.039558E-2,-1.9534139E-2,-6.342375E-3,5.4947235E-2,-3.2653537E-2,1.8692302E-2,-3.1738166E-2,3.6740016E-2],"split_indices":[41,4,40,32,5,41,42,0,0,0,0,0,0,0,0],"split_type":[0,0,0,0,0,0,0,0,0,0,0,0,0,0,0],"sum_hessian":[1.9304005E2,5.5801712E1,1.3723834E2,5.0775414E1,5.0263014E0,7.054341E1,6.669492E1,2.1549889E1,2.9225523E1,1.3740683E0,3.652233E0,3.0884933E1,3.965848E1,3.1803608E0,6.351456E1],"tree_param":{"num_deleted":"0","num_feature":"46","num_nodes":"15","size_leaf_vector":"1"}},{"base_weights":[1.2992784E-2,-6.3164353E-1,2.7686855E-1,-7.643906E-1,8.013658E-1,-7.5763196E-2,6.206416E-1,-8.967856E-3,-5.816954E-2,4.192592E-3,6.500424E-2,-3.1926688E-2,1.7108038E-2,2.3646401E-2,7.4196994E-2],"categories":[],"categories_nodes":[],"categories_segments":[],"categories_sizes":[],"default_left":[0,0,0,0,0,0,0,0,0,0,0,0,0,0,0],"id":2,"left_children":[1,3,5,7,9,11,13,-1,-1,-1,-1,-1,-1,-1,-1],"loss_changes":[3.324807E1,1.1413006E1,1.6855259E1,1.2040415E1,1.7881615E0,1.6525936E1,8.265102E0,0E0,0E0,0E0,0E0,0E0,0E0,0E0,0E0],"parents":[2147483647,0,0,1,1,2,2,3,3,4,4,5,5,6,6],"right_children":[2,4,6,8,10,12,14,-1,-1,-1,-1,-1,-1,-1,-1],"split_conditions":[7.165244E2,3.6E-1,5.0492513E-1,-2.9837847E0,1.5060532E3,8.1111725E2,1.5253846E3,-8.967856E-3,-5.816954E-2,4.192592E-3,6.500424E-2,-3.1926688E-2,1.7108038E-2,2.3646401E-2,7.4196994E-2],"split_indices":[41,4,40,8,25,41,39,0,0,0,0,0,0,0,0],"split_type":[0,0,0,0,0,0,0,0,0,0,0,0,0,0,0],"sum_hessian":[1.9342934E2,5.5776413E1,1.3765292E2,5.1474636E1,4.301777E0,6.833579E1,6.931713E1,2.1459373E1,3.001526E1,2.2429492E0,2.0588279E0,2.8896414E1,3.9439377E1,6.0511246E1,8.805883E0],"tree_param":{"num_deleted":"0","num_feature":"46","num_nodes":"15","size_leaf_vector":"1"}},{"base_weights":[-8.0946825E-2,-6.5470314E-1,1.5012074E-1,-9.074048E-1,2.3799431E-1,-1.0313248E-1,6.2900645E-1,-1.3930583E-2,-6.1979253E-2,5.1211417E-2,-1.18685495E-2,2.4574012E-2,-1.4868132E-2,5.0329346E-2,-2.7048888E-3],"categories":[],"categories_nodes":[],"categories_segments":[],"categories_sizes":[],"default_left":[0,0,0,0,0,0,0,0,0,0,0,0,0,0,0],"id":3,"left_children":[1,3,5,7,9,11,13,-1,-1,-1,-1,-1,-1,-1,-1],"loss_changes":[2.6962881E1,1.3381981E1,1.7683254E1,9.199078E0,5.351734E0,1.121946E1,1.3051746E1,0E0,0E0,0E0,0E0,0E0,0E0,0E0,0E0],"parents":[2147483647,0,0,1,1,2,2,3,3,4,4,5,5,6,6],"right_children":[2,4,6,8,10,12,14,-1,-1,-1,-1,-1,-1,-1,-1],"split_conditions":[7.165244E2,5.8113045E-1,5.5082744E-1,-4.264468E0,-5.6299496E-1,-4.8089094E0,1.5036102E3,-1.3930583E-2,-6.1979253E-2,5.1211417E-2,-1.18685495E-2,2.4574012E-2,-1.4868132E-2,5.0329346E-2,-2.7048888E-3],"split_indices":[41,40,40,8,28,8,25,0,0,0,0,0,0,0,0],"split_type":[0,0,0,0,0,0,0,0,0,0,0,0,0,0,0],"sum_hessian":[2.0163472E2,5.7363617E1,1.442711E2,4.469503E1,1.2668586E1,9.487971E1,4.9391403E1,1.6085356E1,2.8609674E1,4.338416E0,8.33017E0,2.2984615E1,7.189509E1,3.1504171E1,1.788723E1],"tree_param":{"num_deleted":"0","num_feature":"46","num_nodes":"15","size_leaf_vector":"1"}},{"base_weights":[-9.956972E-4,-6.8584776E-1,1.8594573E-1,-1.4504652E0,-3.7118497E-1,-3.3707207E-1,3.8184464E-1,-8.622896E-2,6.197228E-3,-2.5959013E-2,6.390084E-2,-4.166266E-2,1.0793519E-2,2.1617282E-2,-7.053014E-2],"categories":[],"categories_nodes":[],"categories_segments":[],"categories_sizes":[],"default_left":[0,0,0,0,0,0,0,0,0,0,0,0,0,0,0],"id":4,"left_children":[1,3,5,7,9,11,13,-1,-1,-1,-1,-1,-1,-1,-1],"loss_changes":[2.5296886E1,9.655569E0,1.6032772E1,5.396393E0,8.317844E0,1.1930279E1,1.0874496E1,0E0,0E0,0E0,0E0,0E0,0E0,0E0,0E0],"parents":[2147483647,0,0,1,1,2,2,3,3,4,4,5,5,6,6],"right_children":[2,4,6,8,10,12,14,-1,-1,-1,-1,-1,-1,-1,-1],"split_conditions":[4.7580308E-1,1.484676E3,7.160079E2,2.1333334E-1,6E-2,1.5763584E1,6E-2,-8.622896E-2,6.197228E-3,-2.5959013E-2,6.390084E-2,-4.166266E-2,1.0793519E-2,2.1617282E-2,-7.053014E-2],"split_indices":[40,25,41,4,35,45,35,0,0,0,0,0,0,0,0],"split_type":[0,0,0,0,0,0,0,0,0,0,0,0,0,0,0],"sum_hessian":[1.9559378E2,4.1369514E1,1.5422426E2,1.1008859E1,3.0360657E1,4.1828476E1,1.1239578E2,9.295138E0,1.7137202E0,2.8489292E1,1.8713651E0,2.1778587E1,2.0049889E1,1.1005389E2,2.3418982E0],"tree_param":{"num_deleted":"0","num_feature":"46","num_nodes":"15","size_leaf_vector":"1"}},{"base_weights":[-6.7663123E-3,-5.578473E-1,2.2512649E-1,-7.446122E-1,5.7518435E-1,-5.107066E-2,5.1005316E-1,-1.9299334E-2,-6.348208E-2,-1.0377853E-2,5.995166E-2,-3.0427342E-2,7.503143E-3,3.9329357E-2,4.494295E-3],"categories":[],"categories_nodes":[],"categories_segments":[],"categories_sizes":[],"default_left":[0,0,0,0,0,0,0,0,0,0,0,0,0,0,0],"id":5,"left_children":[1,3,5,7,9,11,13,-1,-1,-1,-1,-1,-1,-1,-1],"loss_changes":[2.6343386E1,1.3347059E1,1.1445667E1,9.460323E0,4.7429805E0,8.455231E0,8.238964E0,0E0,0E0,0E0,0E0,0E0,0E0,0E0,0E0],"parents":[2147483647,0,0,1,1,2,2,3,3,4,4,5,5,6,6],"right_children":[2,4,6,8,10,12,14,-1,-1,-1,-1,-1,-1,-1,-1],"split_conditions":[7.165244E2,6.099291E-1,5.0492513E-1,1.3125665E-1,-4.4678915E-3,7.624062E2,1.5024324E3,-1.9299334E-2,-6.348208E-2,-1.0377853E-2,5.995166E-2,-3.0427342E-2,7.503143E-3,3.9329357E-2,4.494295E-3],"split_indices":[41,40,40,8,31,41,25,0,0,0,0,0,0,0,0],"split_type":[0,0,0,0,0,0,0,0,0,0,0,0,0,0,0],"sum_hessian":[2.041604E2,6.0049736E1,1.4411066E2,5.184638E1,8.203358E0,7.359308E1,7.0517586E1,3.1835829E1,2.001055E1,3.934299E0,4.2690587E0,1.8975002E1,5.4618076E1,4.200188E1,2.8515703E1],"tree_param":{"num_deleted":"0","num_feature":"46","num_nodes":"15","size_leaf_vector":"1"}},{"base_weights":[4.971739E-2,-4.8986563E-1,2.7413014E-1,-6.354901E-1,8.082408E-1,-4.440422E-1,3.8791335E-1,2.9185688E-2,-3.852388E-2,6.089679E-2,-2.0369836E-3,-3.716724E-3,-6.595562E-2,2.9963452E-2,3.1764114E-3],"categories":[],"categories_nodes":[],"categories_segments":[],"categories_sizes":[],"default_left":[0,0,0,0,0,0,0,0,0,0,0,0,0,0,0],"id":6,"left_children":[1,3,5,7,9,11,13,-1,-1,-1,-1,-1,-1,-1,-1],"loss_changes":[2.3629042E1,1.1355195E1,1.142261E1,9.028622E0,2.21484E0,6.1445E0,8.146753E0,0E0,0E0,0E0,0E0,0E0,0E0,0E0,0E0],"parents":[2147483647,0,0,1,1,2,2,3,3,4,4,5,5,6,6],"right_children":[2,4,6,8,10,12,14,-1,-1,-1,-1,-1,-1,-1,-1],"split_conditions":[7.2149786E2,3.6E-1,4.296153E-1,1.4528596E3,1E1,4.356792E-3,1.5024324E3,2.9185688E-2,-3.852388E-2,6.089679E-2,-2.0369836E-3,-3.716724E-3,-6.595562E-2,2.9963452E-2,3.1764114E-3],"split_indices":[41,4,40,38,32,31,25,0,0,0,0,0,0,0,0],"split_type":[0,0,0,0,0,0,0,0,0,0,0,0,0,0,0],"sum_hessian":[1.930283E2,5.6351833E1,1.3667648E2,5.1126766E1,5.225067E0,1.8295721E1,1.1838076E2,4.765019E0,4.6361748E1,3.231194E0,1.9938731E0,1.3624474E1,4.671247E0,7.116514E1,4.721562E1],"tree_param":{"num_deleted":"0","num_feature":"46","num_nodes":"15","size_leaf_vector":"1"}},{"base_weights":[-7.2925026E-3,-3.7813264E-1,3.1521645E-1,-8.140556E-1,-1.2010211E-2,7.357043E-2,6.9297034E-1,1.1136825E-3,-4.9274303E-2,1.035453E-2,-5.734223E-2,3.3657126E-2,-8.163962E-3,-2.5563473E-2,3.957155E-2],"categories":[],"categories_nodes":[],"categories_segments":[],"categories_sizes":[],"default_left":[0,0,0,0,0,0,0,0,0,0,0,0,0,0,0],"id":7,"left_children":[1,3,5,7,9,11,13,-1,-1,-1,-1,-1,-1,-1,-1],"loss_changes":[2.347378E1,1.4559498E1,9.532626E0,5.9942074E0,1.2826287E1,9.361475E0,5.247059E0,0E0,0E0,0E0,0E0,0E0,0E0,0E0,0E0],"parents":[2147483647,0,0,1,1,2,2,3,3,4,4,5,5,6,6],"right_children":[2,4,6,8,10,12,14,-1,-1,-1,-1,-1,-1,-1,-1],"split_conditions":[7.624062E2,5.0422156E-1,5.604807E-1,-2.6515577E1,9.759148E-1,-1.2E-1,1.4146633E3,1.1136825E-3,-4.9274303E-2,1.035453E-2,-5.734223E-2,3.3657126E-2,-8.163962E-3,-2.5563473E-2,3.957155E-2],"split_indices":[41,40,40,30,27,4,39,0,0,0,0,0,0,0,0],"split_type":[0,0,0,0,0,0,0,0,0,0,0,0,0,0,0],"sum_hessian":[1.9427368E2,9.028551E1,1.03988174E2,4.0655575E1,4.9629932E1,6.4147995E1,3.9840176E1,7.063944E0,3.359163E1,4.2283783E1,7.3461523E0,1.764318E1,4.6504814E1,2.6943092E0,3.7145866E1],"tree_param":{"num_deleted":"0","num_feature":"46","num_nodes":"15","size_leaf_vector":"1"}},{"base_weights":[6.457886E-4,-3.095215E-1,2.657981E-1,-8.253938E-1,-5.1405232E-2,7.378273E-1,1.3961305E-1,4.928409E-3,-5.3424962E-2,1.0215404E-2,-5.7448972E-2,-1.921384E-2,5.3466536E-2,-1.5128629E-2,1.7607655E-2],"categories":[],"categories_nodes":[],"categories_segments":[],"categories_sizes":[],"default_left":[0,0,0,0,0,0,0,0,0,0,0,0,0,0,0],"id":8,"left_children":[1,3,5,7,9,11,13,-1,-1,-1,-1,-1,-1,-1,-1],"loss_changes":[1.6294218E1,1.21163645E1,6.259087E0,6.9305E0,1.7615622E1,8.705103E0,8.143488E0,0E0,0E0,0E0,0E0,0E0,0E0,0E0,0E0],"parents":[2147483647,0,0,1,1,2,2,3,3,4,4,5,5,6,6],"right_children":[2,4,6,8,10,12,14,-1,-1,-1,-1,-1,-1,-1,-1],"split_conditions":[7.624062E2,4.912785E-1,1.8882773E0,-1.3509674E1,9.38782E-1,1.4849261E3,-4.567692E-1,4.928409E-3,-5.3424962E-2,1.0215404E-2,-5.7448972E-2,-1.921384E-2,5.3466536E-2,-1.5128629E-2,1.7607655E-2],"split_indices":[41,40,1,30,27,26,8,0,0,0,0,0,0,0,0],"split_type":[0,0,0,0,0,0,0,0,0,0,0,0,0,0,0],"sum_hessian":[1.9612595E2,9.0313065E1,1.05812874E2,2.9385439E1,6.0927628E1,2.1297318E1,8.451556E1,6.2449656E0,2.3140472E1,5.007499E1,1.0852638E1,4.8206677E0,1.647665E1,2.7298313E1,5.7217243E1],"tree_param":{"num_deleted":"0","num_feature":"46","num_nodes":"15","size_leaf_vector":"1"}},{"base_weights":[-3.541707E-3,-2.740815E-1,3.8845858E-1,-5.861063E-1,1.2506188E-1,-5.01281E-1,4.861057E-1,-6.437178E-2,-2.1187725E-2,-1.9002443E-2,2.2801666E-2,-4.9065936E-2,2.3412278E-2,4.2158943E-2,9.41768E-3],"categories":[],"categories_nodes":[],"categories_segments":[],"categories_sizes":[],"default_left":[0,0,0,0,0,0,0,0,0,0,0,0,0,0,0],"id":9,"left_children":[1,3,5,7,9,11,13,-1,-1,-1,-1,-1,-1,-1,-1],"loss_changes":[2.078098E1,1.4511464E1,7.1956825E0,6.8829575E0,8.8144E0,4.3715696E0,7.5612755E0,0E0,0E0,0E0,0E0,0E0,0E0,0E0,0E0],"parents":[2147483647,0,0,1,1,2,2,3,3,4,4,5,5,6,6],"right_children":[2,4,6,8,10,12,14,-1,-1,-1,-1,-1,-1,-1,-1],"split_conditions":[5.4533255E-1,8.0053705E2,5E-1,5.700031E2,1.4946179E3,4.3221183E0,1.4985859E3,-6.437178E-2,-2.1187725E-2,-1.9002443E-2,2.2801666E-2,-4.9065936E-2,2.3412278E-2,4.2158943E-2,9.41768E-3],"split_indices":[40,41,20,41,25,8,25,0,0,0,0,0,0,0,0],"split_type":[0,0,0,0,0,0,0,0,0,0,0,0,0,0,0],"sum_hessian":[1.939475E2,1.1492949E2,7.901801E1,6.424132E1,5.068817E1,7.4056573E0,7.161235E1,1.0773204E1,5.3468113E1,2.0006718E1,3.0681456E1,4.945065E0,2.4605923E0,3.1729538E1,3.9882812E1],"tree_param":{"num_deleted":"0","num_feature":"46","num_nodes":"15","size_leaf_vector":"1"}},{"base_weights":[-2.1698823E-2,-2.3917653E-1,4.285057E-1,-3.7780824E-1,4.5367923E-1,-1.4407943E-1,6.408798E-1,-7.965728E-3,-3.573809E-2,-4.2295437E-2,3.409637E-2,-2.4811797E-2,3.4226235E-2,3.676283E-2,-3.1263772E-2],"categories":[],"categories_nodes":[],"categories_segments":[],"categories_sizes":[],"default_left":[0,0,0,0,0,0,0,0,0,0,0,0,0,0,0],"id":10,"left_children":[1,3,5,7,9,11,13,-1,-1,-1,-1,-1,-1,-1,-1],"loss_changes":[1.9662678E1,1.3171846E1,8.048786E0,8.229557E0,7.4054246E0,5.7434554E0,6.184929E0,0E0,0E0,0E0,0E0,0E0,0E0,0E0,0E0],"parents":[2147483647,0,0,1,1,2,2,3,3,4,4,5,5,6,6],"right_children":[2,4,6,8,10,12,14,-1,-1,-1,-1,-1,-1,-1,-1],"split_conditions":[5.604807E-1,9.261491E2,-2.8029752E0,2.1676102E-1,-3.3666667E-1,1.5417583E3,1.8099184E-1,-7.965728E-3,-3.573809E-2,-4.2295437E-2,3.409637E-2,-2.4811797E-2,3.4226235E-2,3.676283E-2,-3.1263772E-2],"split_indices":[40,41,45,5,3,38,2,0,0,0,0,0,0,0,0],"split_type":[0,0,0,0,0,0,0,0,0,0,0,0,0,0,0],"sum_hessian":[1.9877838E2,1.3434827E2,6.443011E1,1.1232763E2,2.2020634E1,1.7518848E1,4.691126E1,6.9035286E1,4.3292343E1,2.8854587E0,1.9135176E1,1.25754175E1,4.9434304E0,4.404735E1,2.8639066E0],"tree_param":{"num_deleted":"0","num_feature":"46","num_nodes":"15","size_leaf_vector":"1"}},{"base_weights":[-5.5341054E-2,-5.644384E-1,1.4548823E-1,7.4878347E-1,-6.476571E-1,2.0817332E-1,-9.8417115E-1,6.2157065E-2,-6.654177E-3,-3.7338592E-2,2.4019657E-2,7.3663928E-3,6.234006E-2,-7.787742E-2,3.4599658E-2],"categories":[],"categories_nodes":[],"categories_segments":[],"categories_sizes":[],"default_left":[0,0,0,0,0,0,0,0,0,0,0,0,0,0,0],"id":11,"left_children":[1,3,5,7,9,11,13,-1,-1,-1,-1,-1,-1,-1,-1],"loss_changes":[1.9588385E1,6.4055424E0,9.949432E0,1.775136E0,6.114935E0,8.1076565E0,8.198566E0,0E0,0E0,0E0,0E0,0E0,0E0,0E0,0E0],"parents":[2147483647,0,0,1,1,2,2,3,3,4,4,5,5,6,6],"right_children":[2,4,6,8,10,12,14,-1,-1,-1,-1,-1,-1,-1,-1],"split_conditions":[7.165244E2,-7.7666664E-1,1.4630533E2,-7.0592475E-1,3.6E-1,1.02742635E-1,9.143083E2,6.2157065E-2,-6.654177E-3,-3.7338592E-2,2.4019657E-2,7.3663928E-3,6.234006E-2,-7.787742E-2,3.4599658E-2],"split_indices":[41,3,30,5,4,31,41,0,0,0,0,0,0,0,0],"split_type":[0,0,0,0,0,0,0,0,0,0,0,0,0,0,0],"sum_hessian":[1.897859E2,5.3175858E1,1.3661005E2,2.6923158E0,5.048354E1,1.3020088E2,6.409161E0,1.4626899E0,1.2296259E0,4.6716824E1,3.766719E0,1.2407415E2,6.1267323E0,4.828283E0,1.580878E0],"tree_param":{"num_deleted":"0","num_feature":"46","num_nodes":"15","size_leaf_vector":"1"}},{"base_weights":[-1.2358855E-2,-5.520872E-1,1.08828664E-1,-6.765761E-1,5.1550597E-2,-2.4971524E-1,2.7324143E-1,-4.6428032E-2,5.4877554E-3,-1.9280419E-2,4.3648582E-2,3.426912E-2,4.7139055E-3],"categories":[],"categories_nodes":[],"categories_segments":[],"categories_sizes":[],"default_left":[0,0,0,0,0,0,0,0,0,0,0,0,0],"id":12,"left_children":[1,3,5,7,-1,9,11,-1,-1,-1,-1,-1,-1],"loss_changes":[1.3094929E1,7.931514E0,9.711034E0,6.964369E0,0E0,8.262395E0,8.242629E0,0E0,0E0,0E0,0E0,0E0,0E0],"parents":[2147483647,0,0,1,1,2,2,3,3,5,5,6,6],"right_children":[2,4,6,8,-1,10,12,-1,-1,-1,-1,-1,-1],"split_conditions":[4.642515E-1,1.6165566E3,7.2545306E2,8.393149E2,5.1550597E-2,3.6E-1,1.4913674E3,-4.6428032E-2,5.4877554E-3,-1.9280419E-2,4.3648582E-2,3.426912E-2,4.7139055E-3],"split_indices":[40,39,41,41,0,4,26,0,0,0,0,0,0],"split_type":[0,0,0,0,0,0,0,0,0,0,0,0,0],"sum_hessian":[1.9828416E2,3.570601E1,1.6257816E2,3.36338E1,2.072208E0,5.0949963E1,1.116282E2,2.5334372E1,8.29943E0,4.6034367E1,4.915597E0,3.293993E1,7.868826E1],"tree_param":{"num_deleted":"0","num_feature":"46","num_nodes":"13","size_leaf_vector":"1"}},{"base_weights":[3.276162E-2,-1.9085374E-1,5.190583E-1,-4.374006E-1,2.0924987E-1,2.8173426E-1,1.0848614E0,-2.312083E-3,-3.5859697E-2,-2.7254198E-3,4.9640965E-2,4.0433925E-2,4.3675565E-4,-2.7042642E-2,6.757075E-2],"categories":[],"categories_nodes":[],"categories_segments":[],"categories_sizes":[],"default_left":[0,0,0,0,0,0,0,0,0,0,0,0,0,0,0],"id":13,"left_children":[1,3,5,7,9,11,13,-1,-1,-1,-1,-1,-1,-1,-1],"loss_changes":[2.1018585E1,1.3162876E1,7.867243E0,8.975339E0,1.063539E1,6.355694E0,8.372801E0,0E0,0E0,0E0,0E0,0E0,0E0,0E0,0E0],"parents":[2147483647,0,0,1,1,2,2,3,3,4,4,5,5,6,6],"right_children":[2,4,6,8,10,12,14,-1,-1,-1,-1,-1,-1,-1,-1],"split_conditions":[8.3387787E2,5.4533255E-1,2E1,-1.3333334E-1,2.7666667E-1,-1.3333334E-1,1.4835695E3,-2.312083E-3,-3.5859697E-2,-2.7254198E-3,4.9640965E-2,4.0433925E-2,4.3675565E-4,-2.7042642E-2,6.757075E-2],"split_indices":[41,40,9,4,4,4,25,0,0,0,0,0,0,0,0],"split_type":[0,0,0,0,0,0,0,0,0,0,0,0,0,0,0],"sum_hessian":[1.9137508E2,1.3150996E2,5.986511E1,8.13118E1,5.0198162E1,4.3230267E1,1.6634844E1,3.43937E1,4.69181E1,3.8252407E1,1.1945754E1,1.408368E1,2.9146585E1,2.198304E0,1.443654E1],"tree_param":{"num_deleted":"0","num_feature":"46","num_nodes":"15","size_leaf_vector":"1"}},{"base_weights":[-2.5596207E-2,-2.1959321E-1,4.206266E-1,-4.12546E-1,4.4361714E-1,1.3385205E-1,9.130891E-1,-6.956389E-2,-1.5252108E-2,-4.3676134E-2,3.065752E-2,6.380662E-2,3.7557443E-4,-4.1891556E-2,5.311505E-2],"categories":[],"categories_nodes":[],"categories_segments":[],"categories_sizes":[],"default_left":[0,0,0,0,0,0,0,0,0,0,0,0,0,0,0],"id":14,"left_children":[1,3,5,7,9,11,13,-1,-1,-1,-1,-1,-1,-1,-1],"loss_changes":[1.6540236E1,1.7213896E1,8.057197E0,1.0477312E1,7.340752E0,5.4418745E0,6.4137955E0,0E0,0E0,0E0,0E0,0E0,0E0,0E0,0E0],"parents":[2147483647,0,0,1,1,2,2,3,3,4,4,5,5,6,6],"right_children":[2,4,6,8,10,12,14,-1,-1,-1,-1,-1,-1,-1,-1],"split_conditions":[8.319328E2,5.8113045E-1,2.842171E-14,-5.4057047E-2,1.4846936E3,1.4574719E3,5E-1,-6.956389E-2,-1.5252108E-2,-4.3676134E-2,3.065752E-2,6.380662E-2,3.7557443E-4,-4.1891556E-2,5.311505E-2],"split_indices":[41,40,9,44,26,25,21,0,0,0,0,0,0,0,0],"split_type":[0,0,0,0,0,0,0,0,0,0,0,0,0,0,0],"sum_hessian":[1.8900406E2,1.3208675E2,5.6917313E1,1.0261124E2,2.9475506E1,3.6774376E1,2.0142937E1,8.973495E0,9.363774E1,2.8877163E0,2.658779E1,2.7559876E0,3.4018387E1,1.2193613E0,1.8923574E1],"tree_param":{"num_deleted":"0","num_feature":"46","num_nodes":"15","size_leaf_vector":"1"}},{"base_weights":[2.3671765E-2,-4.9375352E-1,1.3363586E-1,-6.599704E-1,9.163348E-1,3.290974E-1,-2.4574463E-1,-1.4475167E-2,-6.4357154E-2,5.756291E-3,5.9361655E-2,1.2191615E-2,6.0164597E-2,3.5701286E-2,-2.1748459E-2],"categories":[],"categories_nodes":[],"categories_segments":[],"categories_sizes":[],"default_left":[0,0,0,0,0,0,0,0,0,0,0,0,0,0,0],"id":15,"left_children":[1,3,5,7,9,11,13,-1,-1,-1,-1,-1,-1,-1,-1],"loss_changes":[1.1085227E1,8.61056E0,1.1983277E1,6.861912E0,7.359469E-1,7.634409E0,1.032643E1,0E0,0E0,0E0,0E0,0E0,0E0,0E0,0E0],"parents":[2147483647,0,0,1,1,2,2,3,3,4,4,5,5,6,6],"right_children":[2,4,6,8,10,12,14,-1,-1,-1,-1,-1,-1,-1,-1],"split_conditions":[6.5496906E2,6.5227365E-1,1.5062086E3,1.5666667E-1,4.3333333E-2,1.2400695E-2,1.4930328E3,-1.4475167E-2,-6.4357154E-2,5.756291E-3,5.9361655E-2,1.2191615E-2,6.0164597E-2,3.5701286E-2,-2.1748459E-2],"split_indices":[41,40,25,3,3,42,38,0,0,0,0,0,0,0,0],"split_type":[0,0,0,0,0,0,0,0,0,0,0,0,0,0,0],"sum_hessian":[1.9266595E2,3.3157314E1,1.5950864E2,3.013684E1,3.0204728E0,1.0535894E2,5.4149693E1,1.9864565E1,1.0272277E1,1.1232691E0,1.8972038E0,9.7161194E1,8.197751E0,8.461004E0,4.5688686E1],"tree_param":{"num_deleted":"0","num_feature":"46","num_nodes":"15","size_leaf_vector":"1"}},{"base_weights":[-5.3164843E-2,-4.595759E-1,9.459764E-2,-6.4086926E-1,4.7628742E-1,-7.1913487E-1,1.5351738E-1,2.5205359E-2,-3.714269E-2,-1.2043412E-2,6.0155835E-2,3.0900193E-2,-5.6876447E-2,-2.2299593E-2,1.1259734E-2],"categories":[],"categories_nodes":[],"categories_segments":[],"categories_sizes":[],"default_left":[0,0,0,0,0,0,0,0,0,0,0,0,0,0,0],"id":16,"left_children":[1,3,5,7,9,11,13,-1,-1,-1,-1,-1,-1,-1,-1],"loss_changes":[1.14961195E1,8.961778E0,6.855771E0,5.415167E0,4.904636E0,6.115704E0,5.7732787E0,0E0,0E0,0E0,0E0,0E0,0E0,0E0,0E0],"parents":[2147483647,0,0,1,1,2,2,3,3,4,4,5,5,6,6],"right_children":[2,4,6,8,10,12,14,-1,-1,-1,-1,-1,-1,-1,-1],"split_conditions":[7.1537994E2,6.099291E-1,1.473858E3,-6.2666667E-1,-2.4367715E-3,-9.9616595E-2,4.296153E-1,2.5205359E-2,-3.714269E-2,-1.2043412E-2,6.0155835E-2,3.0900193E-2,-5.6876447E-2,-2.2299593E-2,1.1259734E-2],"split_indices":[41,40,26,3,31,2,40,0,0,0,0,0,0,0,0],"split_type":[0,0,0,0,0,0,0,0,0,0,0,0,0,0,0],"sum_hessian":[1.8971117E2,5.0021114E1,1.3969005E2,4.2167694E1,7.853422E0,8.675033E0,1.3101501E2,3.1262646E0,3.9041428E1,4.289559E0,3.5638635E0,1.9538074E0,6.7212257E0,1.3433654E1,1.1758136E2],"tree_param":{"num_deleted":"0","num_feature":"46","num_nodes":"15","size_leaf_vector":"1"}},{"base_weights":[-6.613334E-2,-2.758617E-1,3.1203714E-1,-4.0828875E-1,3.1699446E-1,-1.4952971E-1,6.555956E-1,-2.759437E-2,4.820978E-3,-4.9735945E-2,2.5604917E-2,-1.5573231E-2,6.2434472E-2,4.9545642E-2,5.351127E-4],"categories":[],"categories_nodes":[],"categories_segments":[],"categories_sizes":[],"default_left":[0,0,0,0,0,0,0,0,0,0,0,0,0,0,0],"id":17,"left_children":[1,3,5,7,9,11,13,-1,-1,-1,-1,-1,-1,-1,-1],"loss_changes":[1.5316965E1,9.869304E0,1.103595E1,7.4344234E0,6.4504337E0,7.237557E0,8.580503E0,0E0,0E0,0E0,0E0,0E0,0E0,0E0,0E0],"parents":[2147483647,0,0,1,1,2,2,3,3,4,4,5,5,6,6],"right_children":[2,4,6,8,10,12,14,-1,-1,-1,-1,-1,-1,-1,-1],"split_conditions":[5.5082744E-1,9.1471094E2,-4.3333333E-2,1.5487384E3,-7.983435E-2,2.4012911E0,4.5E-1,-2.759437E-2,4.820978E-3,-4.9735945E-2,2.5604917E-2,-1.5573231E-2,6.2434472E-2,4.9545642E-2,5.351127E-4],"split_indices":[40,41,3,39,44,28,3,0,0,0,0,0,0,0,0],"split_type":[0,0,0,0,0,0,0,0,0,0,0,0,0,0,0],"sum_hessian":[1.9103497E2,1.23058754E2,6.797623E1,1.00844345E2,2.2214413E1,2.9247417E1,3.872881E1,7.843476E1,2.2409582E1,2.3456743E0,1.9868738E1,2.6908274E1,2.3391428E0,2.5127186E1,1.3601623E1],"tree_param":{"num_deleted":"0","num_feature":"46","num_nodes":"15","size_leaf_vector":"1"}},{"base_weights":[-2.2829108E-2,-4.5372579E-1,1.3170916E-1,-6.144884E-1,7.9096293E-1,9.92155E-1,6.494498E-2,-1.1590117E-2,-6.1540093E-2,-6.4209066E-3,6.0396083E-2,6.339123E-2,-5.9774965E-3,6.047053E-3,-4.3515544E-2],"categories":[],"categories_nodes":[],"categories_segments":[],"categories_sizes":[],"default_left":[0,0,0,0,0,0,0,0,0,0,0,0,0,0,0],"id":18,"left_children":[1,3,5,7,9,11,13,-1,-1,-1,-1,-1,-1,-1,-1],"loss_changes":[1.2997502E1,1.0793544E1,8.195148E0,1.060705E1,2.581459E0,3.302846E0,7.1488385E0,0E0,0E0,0E0,0E0,0E0,0E0,0E0,0E0],"parents":[2147483647,0,0,1,1,2,2,3,3,4,4,5,5,6,6],"right_children":[2,4,6,8,10,12,14,-1,-1,-1,-1,-1,-1,-1,-1],"split_conditions":[7.1537994E2,3.1E-1,1.4807794E3,1.3125665E-1,-1.4210855E-14,2.7069716E0,1.4630533E2,-1.1590117E-2,-6.1540093E-2,-6.4209066E-3,6.0396083E-2,6.339123E-2,-5.9774965E-3,6.047053E-3,-4.3515544E-2],"split_indices":[41,4,38,8,9,13,30,0,0,0,0,0,0,0,0],"split_type":[0,0,0,0,0,0,0,0,0,0,0,0,0,0,0],"sum_hessian":[1.932895E2,5.0511913E1,1.4277759E2,4.5182503E1,5.329411E0,9.282727E0,1.3349486E2,2.8723436E1,1.6459066E1,1.8787771E0,3.4506338E0,7.325732E0,1.9569948E0,1.2677521E2,6.719656E0],"tree_param":{"num_deleted":"0","num_feature":"46","num_nodes":"15","size_leaf_vector":"1"}},{"base_weights":[2.5843285E-2,-2.453692E-1,2.6240072E-1,5.350212E-2,-3.0703357E-1,-8.279624E-1,3.124818E-1,-5.400836E-2,-1.0720264E-2,7.7924156E-3,-6.3847266E-2,1.7345062E-2,-5.8748882E-2],"categories":[],"categories_nodes":[],"categories_segments":[],"categories_sizes":[],"default_left":[0,0,0,0,0,0,0,0,0,0,0,0,0],"id":19,"left_children":[1,3,5,-1,7,9,11,-1,-1,-1,-1,-1,-1],"loss_changes":[1.2112204E1,7.4666877E0,5.7621956E0,0E0,5.8439837E0,2.2749772E0,5.3780766E0,0E0,0E0,0E0,0E0,0E0,0E0],"parents":[2147483647,0,0,1,1,2,2,4,4,5,5,6,6],"right_children":[2,4,6,-1,8,10,12,-1,-1,-1,-1,-1,-1],"split_conditions":[7.624062E2,1.4241891E3,1.4178638E3,5.350212E-2,1.4752723E3,1.4210855E-14,1.0795321E-1,-5.400836E-2,-1.0720264E-2,7.7924156E-3,-6.3847266E-2,1.7345062E-2,-5.8748882E-2],"split_indices":[41,39,39,0,25,9,44,0,0,0,0,0,0],"split_type":[0,0,0,0,0,0,0,0,0,0,0,0,0],"sum_hessian":[1.8678555E2,8.700141E1,9.9784134E1,3.1635935E0,8.3837814E1,3.6997986E0,9.6084335E1,7.8291883E0,7.600863E1,1.3639654E0,2.3358333E0,9.46607E1,1.4236413E0],"tree_param":{"num_deleted":"0","num_feature":"46","num_nodes":"13","size_leaf_vector":"1"}},{"base_weights":[2.0227578E-2,-5.3030396E-1,1.4733538E-1,-1.2822297E0,-2.782835E-1,3.160758E-1,-1.8802397E-1,-1.7965248E-2,-6.840209E-2,-4.5740243E-2,2.9048036E-4,-3.4571733E-2,1.892813E-2,-3.1001085E-2,7.943289E-3],"categories":[],"categories_nodes":[],"categories_segments":[],"categories_sizes":[],"default_left":[0,0,0,0,0,0,0,0,0,0,0,0,0,0,0],"id":20,"left_children":[1,3,5,7,9,11,13,-1,-1,-1,-1,-1,-1,-1,-1],"loss_changes":[1.3750563E1,6.6294336E0,9.086365E0,2.194519E-1,5.2293906E0,6.9662447E0,8.194234E0,0E0,0E0,0E0,0E0,0E0,0E0,0E0,0E0],"parents":[2147483647,0,0,1,1,2,2,3,3,4,4,5,5,6,6],"right_children":[2,4,6,8,10,12,14,-1,-1,-1,-1,-1,-1,-1,-1],"split_conditions":[4.642515E-1,6.619075E2,1.5060532E3,-2.5721326E-2,1.484381E3,5.657693E2,-4.4678915E-3,-1.7965248E-2,-6.840209E-2,-4.5740243E-2,2.9048036E-4,-3.4571733E-2,1.892813E-2,-3.1001085E-2,7.943289E-3],"split_indices":[40,41,25,31,25,41,31,0,0,0,0,0,0,0,0],"split_type":[0,0,0,0,0,0,0,0,0,0,0,0,0,0,0],"sum_hessian":[1.9438504E2,3.586666E1,1.5851839E2,7.9774423E0,2.788922E1,1.05494804E2,5.3023582E1,1.1198936E0,6.857548E0,7.9212565E0,1.9967962E1,5.572987E0,9.9921814E1,2.3264215E1,2.9759367E1],"tree_param":{"num_deleted":"0","num_feature":"46","num_nodes":"15","size_leaf_vector":"1"}},{"base_weights":[2.039615E-3,-1.7544918E-1,3.4245464E-1,-6.34028E-2,-6.718428E-1,-1.6532196E-1,4.7944856E-1,-2.5900582E-2,4.5766043E-3,-4.4454476E-3,-5.9345275E-2,-4.381625E-2,1.5694713E-2,1.3965542E-2,4.726394E-2],"categories":[],"categories_nodes":[],"categories_segments":[],"categories_sizes":[],"default_left":[0,0,0,0,0,0,0,0,0,0,0,0,0,0,0],"id":21,"left_children":[1,3,5,7,9,11,13,-1,-1,-1,-1,-1,-1,-1,-1],"loss_changes":[1.1624905E1,6.99168E0,4.665878E0,7.3927884E0,6.8560476E0,5.3017178E0,4.600958E0,0E0,0E0,0E0,0E0,0E0,0E0,0E0,0E0],"parents":[2147483647,0,0,1,1,2,2,3,3,4,4,5,5,6,6],"right_children":[2,4,6,8,10,12,14,-1,-1,-1,-1,-1,-1,-1,-1],"split_conditions":[8.305498E2,9.38782E-1,-1.7814722E1,4.7835013E-1,-1.0498139E-2,1.4904579E3,6.377478E-1,-2.5900582E-2,4.5766043E-3,-4.4454476E-3,-5.9345275E-2,-4.381625E-2,1.5694713E-2,1.3965542E-2,4.726394E-2],"split_indices":[41,27,30,40,2,25,27,0,0,0,0,0,0,0,0],"split_type":[0,0,0,0,0,0,0,0,0,0,0,0,0,0,0],"sum_hessian":[1.9040764E2,1.2547231E2,6.493533E1,1.032862E2,2.2186115E1,1.3752826E1,5.1182503E1,2.5657814E1,7.762839E1,1.0957421E1,1.1228693E1,5.2036366E0,8.54919E0,3.6919945E1,1.426256E1],"tree_param":{"num_deleted":"0","num_feature":"46","num_nodes":"15","size_leaf_vector":"1"}},{"base_weights":[2.965896E-2,-1.2354619E-1,3.517284E-1,-4.4081458E-1,1.21942714E-1,1.38325E-1,8.75975E-1,6.2277365E-2,-2.5210032E-2,1.4364813E-2,-4.562733E-2,2.3325602E-2,-1.5667608E-2,5.4361947E-2,-2.245449E-2],"categories":[],"categories_nodes":[],"categories_segments":[],"categories_sizes":[],"default_left":[0,0,0,0,0,0,0,0,0,0,0,0,0,0,0],"id":22,"left_children":[1,3,5,7,9,11,13,-1,-1,-1,-1,-1,-1,-1,-1],"loss_changes":[9.317991E0,1.0031878E1,6.6864367E0,6.624896E0,1.2750955E1,6.7327175E0,5.3637743E0,0E0,0E0,0E0,0E0,0E0,0E0,0E0,0E0],"parents":[2147483647,0,0,1,1,2,2,3,3,4,4,5,5,6,6],"right_children":[2,4,6,8,10,12,14,-1,-1,-1,-1,-1,-1,-1,-1],"split_conditions":[8.319328E2,5.0422156E-1,2E1,-1.4287907E-1,9.797959E-1,5.3960826E-2,4.3333334E-1,6.2277365E-2,-2.5210032E-2,1.4364813E-2,-4.562733E-2,2.3325602E-2,-1.5667608E-2,5.4361947E-2,-2.245449E-2],"split_indices":[41,40,9,42,27,2,4,0,0,0,0,0,0,0,0],"split_type":[0,0,0,0,0,0,0,0,0,0,0,0,0,0,0],"sum_hessian":[1.8696169E2,1.2711214E2,5.984955E1,5.510243E1,7.2009705E1,4.3433193E1,1.6416355E1,1.3205116E0,5.3781914E1,6.27086E1,9.301108E0,2.5136358E1,1.8296833E1,1.4313708E1,2.1026475E0],"tree_param":{"num_deleted":"0","num_feature":"46","num_nodes":"15","size_leaf_vector":"1"}},{"base_weights":[1.812309E-2,-3.152018E-2,1.1821501E0,1.294014E-1,-2.6194042E-1,7.621919E-2,6.270036E-3,-4.6140842E-2,1.04356585E-2,-5.254739E-3,-6.354783E-2],"categories":[],"categories_nodes":[],"categories_segments":[],"categories_sizes":[],"default_left":[0,0,0,0,0,0,0,0,0,0,0],"id":23,"left_children":[1,3,5,7,9,-1,-1,-1,-1,-1,-1],"loss_changes":[1.1284487E1,6.9918156E0,2.697464E0,9.468915E0,1.2130372E1,0E0,0E0,0E0,0E0,0E0,0E0],"parents":[2147483647,0,0,1,1,2,2,3,3,4,4],"right_children":[2,4,6,8,10,-1,-1,-1,-1,-1,-1],"split_conditions":[1E0,1.5030599E3,1.7666666E-1,5.6855585E2,1.0265914E0,7.621919E-2,6.270036E-3,-4.6140842E-2,1.04356585E-2,-5.254739E-3,-6.354783E-2],"split_indices":[0,25,3,41,43,0,0,0,0,0,0],"split_type":[0,0,0,0,0,0,0,0,0,0,0],"sum_hessian":[1.9363545E2,1.8664822E2,6.9872274E0,1.1015574E2,7.6492485E1,4.943672E0,2.0435548E0,6.975635E0,1.0318011E2,6.715741E1,9.335072E0],"tree_param":{"num_deleted":"0","num_feature":"46","num_nodes":"11","size_leaf_vector":"1"}},{"base_weights":[4.2897567E-2,-1.2259866E-1,3.509809E-1,-2.3118667E-1,4.340338E-1,-5.7275504E-1,4.7403482E-1,-9.5783715E-4,-2.9077752E-2,3.843918E-2,-2.7058452E-2,-4.9222104E-2,2.6616028E-2,5.9708156E-2,1.4004982E-2],"categories":[],"categories_nodes":[],"categories_segments":[],"categories_sizes":[],"default_left":[0,0,0,0,0,0,0,0,0,0,0,0,0,0,0],"id":24,"left_children":[1,3,5,7,9,11,13,-1,-1,-1,-1,-1,-1,-1,-1],"loss_changes":[9.650543E0,7.5544925E0,7.7859526E0,7.7033978E0,7.1012187E0,4.265543E0,7.8891354E0,0E0,0E0,0E0,0E0,0E0,0E0,0E0,0E0],"parents":[2147483647,0,0,1,1,2,2,3,3,4,4,5,5,6,6],"right_children":[2,4,6,8,10,12,14,-1,-1,-1,-1,-1,-1,-1,-1],"split_conditions":[5.604807E-1,9.304839E2,5E-1,2.1676102E-1,1.08508255E2,5.274963E0,1.8882773E0,-9.5783715E-4,-2.9077752E-2,3.843918E-2,-2.7058452E-2,-4.9222104E-2,2.6616028E-2,5.9708156E-2,1.4004982E-2],"split_indices":[40,41,20,6,1,8,1,0,0,0,0,0,0,0,0],"split_type":[0,0,0,0,0,0,0,0,0,0,0,0,0,0,0],"sum_hessian":[1.8743199E2,1.2232403E2,6.510796E1,1.0284556E2,1.9478472E1,7.2240744E0,5.7883892E1,6.4728775E1,3.8116783E1,1.4658453E1,4.8200183E0,5.342815E0,1.8812592E0,1.1186855E1,4.6697037E1],"tree_param":{"num_deleted":"0","num_feature":"46","num_nodes":"15","size_leaf_vector":"1"}},{"base_weights":[-3.5185825E-2,-1.889317E-1,3.0466205E-1,1.6992971E-1,-4.1522166E-1,4.863806E-1,-3.7998012E-1,5.6522787E-2,-3.2476604E-3,-2.800761E-2,1.9392764E-2,7.671961E-3,4.8535958E-2,1.6147505E-2,-6.9867566E-2],"categories":[],"categories_nodes":[],"categories_segments":[],"categories_sizes":[],"default_left":[0,0,0,0,0,0,0,0,0,0,0,0,0,0,0],"id":25,"left_children":[1,3,5,7,9,11,13,-1,-1,-1,-1,-1,-1,-1,-1],"loss_changes":[1.00492935E1,1.0812701E1,7.642968E0,1.1774866E1,9.693283E0,7.56102E0,9.844849E0,0E0,0E0,0E0,0E0,0E0,0E0,0E0,0E0],"parents":[2147483647,0,0,1,1,2,2,3,3,4,4,5,5,6,6],"right_children":[2,4,6,8,10,12,14,-1,-1,-1,-1,-1,-1,-1,-1],"split_conditions":[8.3387787E2,-2.9837847E0,3.2666665E-1,1.4698882E3,3.2666665E-1,1.4210855E-14,1.4999261E3,5.6522787E-2,-3.2476604E-3,-2.800761E-2,1.9392764E-2,7.671961E-3,4.8535958E-2,1.6147505E-2,-6.9867566E-2],"split_indices":[41,8,4,38,4,9,25,0,0,0,0,0,0,0,0],"split_type":[0,0,0,0,0,0,0,0,0,0,0,0,0,0,0],"sum_hessian":[1.9022856E2,1.3128142E2,5.8947144E1,5.0865517E1,8.041591E1,4.6811867E1,1.2135277E1,9.245262E0,4.1620255E1,6.837824E1,1.2037662E1,2.8522137E1,1.828973E1,7.580359E0,4.554918E0],"tree_param":{"num_deleted":"0","num_feature":"46","num_nodes":"15","size_leaf_vector":"1"}},{"base_weights":[-4.2789288E-2,-1.0840727E-1,7.7054626E-1,-2.9174292E-1,1.4893219E-1,1.2331641E0,-2.0472187E-1,-6.200911E-4,-2.9682681E-2,-3.523249E-2,1.2555258E-2,6.7272134E-2,1.1439258E-2,3.762344E-2,-5.8005746E-2],"categories":[],"categories_nodes":[],"categories_segments":[],"categories_sizes":[],"default_left":[0,0,0,0,0,0,0,0,0,0,0,0,0,0,0],"id":26,"left_children":[1,3,5,7,9,11,13,-1,-1,-1,-1,-1,-1,-1,-1],"loss_changes":[1.0072585E1,8.256068E0,6.6123753E0,8.594073E0,6.5506196E0,7.86438E-1,5.804714E0,0E0,0E0,0E0,0E0,0E0,0E0,0E0,0E0],"parents":[2147483647,0,0,1,1,2,2,3,3,4,4,5,5,6,6],"right_children":[2,4,6,8,10,12,14,-1,-1,-1,-1,-1,-1,-1,-1],"split_conditions":[1.2400695E-2,5.346266E-1,1.5090018E3,-4.6666667E-2,5E-1,8E-1,5.7384634E-1,-6.200911E-4,-2.9682681E-2,-3.523249E-2,1.2555258E-2,6.7272134E-2,1.1439258E-2,3.762344E-2,-5.8005746E-2],"split_indices":[42,40,25,3,20,27,8,0,0,0,0,0,0,0,0],"split_type":[0,0,0,0,0,0,0,0,0,0,0,0,0,0,0],"sum_hessian":[1.8616805E2,1.7307175E2,1.3096303E1,1.0099001E2,7.208173E1,8.70341E0,4.3928933E0,5.2996445E1,4.799357E1,7.075378E0,6.5006355E1,7.52286E0,1.1805497E0,2.3004818E0,2.0924115E0],"tree_param":{"num_deleted":"0","num_feature":"46","num_nodes":"15","size_leaf_vector":"1"}},{"base_weights":[-2.4745489E-2,-1.7784455E-1,2.3944506E-1,-2.9614154E-1,4.5986447E-1,-5.8467764E-1,3.5259798E-1,1.0395768E-2,-2.0806931E-2,3.4123253E-2,-3.021316E-2,-5.2461572E-2,3.8498305E-2,4.7529493E-2,1.1208835E-2],"categories":[],"categories_nodes":[],"categories_segments":[],"categories_sizes":[],"default_left":[0,0,0,0,0,0,0,0,0,0,0,0,0,0,0],"id":27,"left_children":[1,3,5,7,9,11,13,-1,-1,-1,-1,-1,-1,-1,-1],"loss_changes":[7.847609E0,9.395853E0,6.847922E0,6.3858004E0,5.054718E0,6.4557123E0,4.6441145E0,0E0,0E0,0E0,0E0,0E0,0E0,0E0,0E0],"parents":[2147483647,0,0,1,1,2,2,3,3,4,4,5,5,6,6],"right_children":[2,4,6,8,10,12,14,-1,-1,-1,-1,-1,-1,-1,-1],"split_conditions":[5.5082744E-1,9.304839E2,5E-1,-6.7752094E0,1.289388E2,5.274963E0,-3.6962957E0,1.0395768E-2,-2.0806931E-2,3.4123253E-2,-3.021316E-2,-5.2461572E-2,3.8498305E-2,4.7529493E-2,1.1208835E-2],"split_indices":[40,41,20,8,1,8,1,0,0,0,0,0,0,0,0],"split_type":[0,0,0,0,0,0,0,0,0,0,0,0,0,0,0],"sum_hessian":[1.9196762E2,1.2174369E2,7.022393E1,1.031455E2,1.859819E1,7.974728E0,6.2249203E1,1.9692595E1,8.34529E1,1.5677368E1,2.9208226E0,6.1061687E0,1.8685591E0,9.873107E0,5.23761E1],"tree_param":{"num_deleted":"0","num_feature":"46","num_nodes":"15","size_leaf_vector":"1"}},{"base_weights":[4.6172507E-2,-7.442464E-1,1.0992012E-1,2.4081562E-1,-1.024792E0,2.5563493E-1,-1.3007462E-1,4.4980265E-2,-3.928021E-2,-6.2274463E-2,7.27876E-3,6.7347735E-3,3.5844706E-2,-2.61134E-2,1.1140149E-2],"categories":[],"categories_nodes":[],"categories_segments":[],"categories_sizes":[],"default_left":[0,0,0,0,0,0,0,0,0,0,0,0,0,0,0],"id":28,"left_children":[1,3,5,7,9,11,13,-1,-1,-1,-1,-1,-1,-1,-1],"loss_changes":[9.593366E0,4.1756563E0,6.172447E0,3.3852317E0,3.088605E0,6.0156603E0,9.386629E0,0E0,0E0,0E0,0E0,0E0,0E0,0E0,0E0],"parents":[2147483647,0,0,1,1,2,2,3,3,4,4,5,5,6,6],"right_children":[2,4,6,8,10,12,14,-1,-1,-1,-1,-1,-1,-1,-1],"split_conditions":[5.6855585E2,5.204537E2,5.522799E-1,-8.193473E-2,6.099291E-1,2.638758E-2,1.3923532E0,4.4980265E-2,-3.928021E-2,-6.2274463E-2,7.27876E-3,6.7347735E-3,3.5844706E-2,-2.61134E-2,1.1140149E-2],"split_indices":[41,41,28,27,40,28,28,0,0,0,0,0,0,0,0],"split_type":[0,0,0,0,0,0,0,0,0,0,0,0,0,0,0],"sum_hessian":[1.8776886E2,1.3216764E1,1.745521E2,2.9611347E0,1.025563E1,1.0856859E2,6.5983505E1,1.8788061E0,1.0823284E0,8.574535E0,1.6810945E0,8.703938E1,2.1529205E1,3.1023499E1,3.4960003E1],"tree_param":{"num_deleted":"0","num_feature":"46","num_nodes":"15","size_leaf_vector":"1"}},{"base_weights":[1.3752195E-2,-4.7956282E-1,1.13552816E-1,-6.1742973E-1,4.4996604E-2,-5.8387525E-2,1.5057774E-1,-1.6629169E-2,-4.9644332E-2,1.6248675E-2,-4.804901E-3],"categories":[],"categories_nodes":[],"categories_segments":[],"categories_sizes":[],"default_left":[0,0,0,0,0,0,0,0,0,0,0],"id":29,"left_children":[1,3,5,7,-1,-1,9,-1,-1,-1,-1],"loss_changes":[9.359409E0,6.6403217E0,7.671599E0,2.8439178E0,0E0,0E0,6.675667E0,0E0,0E0,0E0,0E0],"parents":[2147483647,0,0,1,1,2,2,3,3,6,6],"right_children":[2,4,6,8,-1,-1,10,-1,-1,-1,-1],"split_conditions":[6.5496906E2,6.5227365E-1,3.9940277E-1,1.5043363E3,4.4996604E-2,-5.8387525E-2,4.9323863E-1,-1.6629169E-2,-4.9644332E-2,1.6248675E-2,-4.804901E-3],"split_indices":[41,40,40,26,0,0,6,0,0,0,0],"split_type":[0,0,0,0,0,0,0,0,0,0,0],"sum_hessian":[1.8799776E2,3.0993164E1,1.570046E2,2.8679367E1,2.3137972E0,3.551738E0,1.5345285E2,1.7379751E1,1.1299616E1,8.971113E1,6.3741722E1],"tree_param":{"num_deleted":"0","num_feature":"46","num_nodes":"11","size_leaf_vector":"1"}},{"base_weights":[-1.947687E-2,-8.348902E-2,7.468717E-1,-5.3884673E-1,8.420081E-3,1.1379282E0,-1.2493023E-1,-3.4071844E-2,2.8333647E-2,3.7826724E-2,-2.7527912E-3,1.0332218E-2,6.62319E-2,-2.9012812E-2,4.5402538E-2],"categories":[],"categories_nodes":[],"categories_segments":[],"categories_sizes":[],"default_left":[0,0,0,0,0,0,0,0,0,0,0,0,0,0,0],"id":30,"left_children":[1,3,5,7,9,11,13,-1,-1,-1,-1,-1,-1,-1,-1],"loss_changes":[9.382311E0,7.3804855E0,5.169629E0,5.0543327E0,7.052061E0,1.5135984E0,3.098504E0,0E0,0E0,0E0,0E0,0E0,0E0,0E0,0E0],"parents":[2147483647,0,0,1,1,2,2,3,3,4,4,5,5,6,6],"right_children":[2,4,6,8,10,12,14,-1,-1,-1,-1,-1,-1,-1,-1],"split_conditions":[1.0427948E-2,6.558367E2,1.5090018E3,6.5227365E-1,1.4750483E3,-1.8038065E0,5.1270384E-2,-3.4071844E-2,2.8333647E-2,3.7826724E-2,-2.7527912E-3,1.0332218E-2,6.62319E-2,-2.9012812E-2,4.5402538E-2],"split_indices":[42,41,25,40,38,13,44,0,0,0,0,0,0,0,0],"split_type":[0,0,0,0,0,0,0,0,0,0,0,0,0,0,0],"sum_hessian":[1.8898747E2,1.7524088E2,1.3746598E1,2.8613638E1,1.4662724E2,9.279097E0,4.467502E0,2.5684458E1,2.929181E0,1.0614023E1,1.3601321E2,1.9014893E0,7.3776073E0,3.4049222E0,1.0625799E0],"tree_param":{"num_deleted":"0","num_feature":"46","num_nodes":"15","size_leaf_vector":"1"}},{"base_weights":[7.1058705E-2,-2.4736398E-1,1.9576438E-1,-3.725229E-1,7.801697E-1,2.3132166E-1,-6.551305E-2,1.949845E-2,-2.7058477E-2,2.6608186E-3,6.789816E-2,1.3956457E-2,-3.256046E-2],"categories":[],"categories_nodes":[],"categories_segments":[],"categories_sizes":[],"default_left":[0,0,0,0,0,0,0,0,0,0,0,0,0],"id":31,"left_children":[1,3,5,7,9,11,-1,-1,-1,-1,-1,-1,-1],"loss_changes":[7.6147356E0,7.243622E0,7.665097E0,6.4954715E0,2.5291834E0,5.884288E0,0E0,0E0,0E0,0E0,0E0,0E0,0E0],"parents":[2147483647,0,0,1,1,2,2,3,3,4,4,5,5],"right_children":[2,4,6,8,10,12,-1,-1,-1,-1,-1,-1,-1],"split_conditions":[7.165244E2,3.1E-1,6E-2,-1.0627691E1,1.5060532E3,1.4630533E2,-6.551305E-2,1.949845E-2,-2.7058477E-2,2.6608186E-3,6.789816E-2,1.3956457E-2,-3.256046E-2],"split_indices":[41,4,35,30,25,30,0,0,0,0,0,0,0],"split_type":[0,0,0,0,0,0,0,0,0,0,0,0,0],"sum_hessian":[1.895434E2,5.3064713E1,1.3647868E2,4.7871212E1,5.193501E0,1.3415762E2,2.3210604E0,8.432683E0,3.943853E1,2.7835138E0,2.4099872E0,1.27912224E2,6.2454042E0],"tree_param":{"num_deleted":"0","num_feature":"46","num_nodes":"13","size_leaf_vector":"1"}},{"base_weights":[5.7459204E-3,-5.224082E-1,1.05799496E-1,-1.2018684E0,-2.1979257E-1,1.9094375E-1,-5.6772363E-1,-7.267571E-2,4.043855E-3,3.0277101E-2,-2.5245374E-2,6.2843673E-3,4.6461094E-2,-5.3780336E-2,2.4245001E-2],"categories":[],"categories_nodes":[],"categories_segments":[],"categories_sizes":[],"default_left":[0,0,0,0,0,0,0,0,0,0,0,0,0,0,0],"id":32,"left_children":[1,3,5,7,9,11,13,-1,-1,-1,-1,-1,-1,-1,-1],"loss_changes":[9.970976E0,5.91537E0,9.202905E0,3.0346622E0,5.4866533E0,6.702157E0,1.0171181E1,0E0,0E0,0E0,0E0,0E0,0E0,0E0,0E0],"parents":[2147483647,0,0,1,1,2,2,3,3,4,4,5,5,6,6],"right_children":[2,4,6,8,10,12,14,-1,-1,-1,-1,-1,-1,-1,-1],"split_conditions":[4.4044372E-1,1.484676E3,1.112932E0,2.1333334E-1,1.4931268E3,1.0427948E-2,8.2942505E2,-7.267571E-2,4.043855E-3,3.0277101E-2,-2.5245374E-2,6.2843673E-3,4.6461094E-2,-5.3780336E-2,2.4245001E-2],"split_indices":[40,25,27,4,25,42,41,0,0,0,0,0,0,0,0],"split_type":[0,0,0,0,0,0,0,0,0,0,0,0,0,0,0],"sum_hessian":[1.8664212E2,2.9053856E1,1.5758826E2,8.036954E0,2.1016903E1,1.4053842E2,1.7049837E1,6.60757E0,1.4293838E0,5.107666E0,1.5909236E1,1.3020027E2,1.0338156E1,1.1486063E1,5.563774E0],"tree_param":{"num_deleted":"0","num_feature":"46","num_nodes":"15","size_leaf_vector":"1"}},{"base_weights":[1.4305439E-2,-3.5412036E-2,8.764561E-1,-9.132009E-2,6.767654E-1,1.1064135E0,-2.5676047E-2,-3.0009302E-3,-4.840176E-2,5.0956365E-2,-5.7118004E-3,-7.6991916E-3,6.748881E-2],"categories":[],"categories_nodes":[],"categories_segments":[],"categories_sizes":[],"default_left":[0,0,0,0,0,0,0,0,0,0,0,0,0],"id":33,"left_children":[1,3,5,7,9,11,-1,-1,-1,-1,-1,-1,-1],"loss_changes":[8.241038E0,7.310561E0,3.9185524E0,4.598448E0,3.7372465E0,3.0638256E0,0E0,0E0,0E0,0E0,0E0,0E0,0E0],"parents":[2147483647,0,0,1,1,2,2,3,3,4,4,5,5],"right_children":[2,4,6,8,10,12,-1,-1,-1,-1,-1,-1,-1],"split_conditions":[9.9131836E2,1.2400695E-2,2.4811475E0,1.5577242E2,1.5090018E3,4.7580308E-1,-2.5676047E-2,-3.0009302E-3,-4.840176E-2,5.0956365E-2,-5.7118004E-3,-7.6991916E-3,6.748881E-2],"split_indices":[41,42,13,30,25,40,0,0,0,0,0,0,0],"split_type":[0,0,0,0,0,0,0,0,0,0,0,0,0],"sum_hessian":[1.9053624E2,1.8105435E2,9.4819E0,1.6868393E2,1.2370418E1,8.310946E0,1.1709542E0,1.6390062E2,4.783309E0,8.432329E0,3.938089E0,1.4044487E0,6.9064975E0],"tree_param":{"num_deleted":"0","num_feature":"46","num_nodes":"13","size_leaf_vector":"1"}},{"base_weights":[-4.2002765E-3,-1.4428975E-1,2.4333423E-1,1.12009265E-1,-3.376717E-1,-1.1484287E-1,4.1245568E-1,-1.9217921E-2,1.800966E-2,-3.600945E-2,-3.3793063E-3,1.976886E-2,-3.354326E-2,5.6471106E-2,1.36511E-2],"categories":[],"categories_nodes":[],"categories_segments":[],"categories_sizes":[],"default_left":[0,0,0,0,0,0,0,0,0,0,0,0,0,0,0],"id":34,"left_children":[1,3,5,7,9,11,13,-1,-1,-1,-1,-1,-1,-1,-1],"loss_changes":[6.5584507E0,6.0230446E0,4.188236E0,6.6283865E0,7.0877585E0,6.707101E0,4.355389E0,0E0,0E0,0E0,0E0,0E0,0E0,0E0,0E0],"parents":[2147483647,0,0,1,1,2,2,3,3,4,4,5,5,6,6],"right_children":[2,4,6,8,10,12,14,-1,-1,-1,-1,-1,-1,-1,-1],"split_conditions":[5.5082744E-1,-1.2666667E-1,7.20905E2,-1.9757606E-2,6E-2,0E0,7.448459E2,-1.9217921E-2,1.800966E-2,-3.600945E-2,-3.3793063E-3,1.976886E-2,-3.354326E-2,5.6471106E-2,1.36511E-2],"split_indices":[40,4,41,2,4,8,41,0,0,0,0,0,0,0,0],"split_type":[0,0,0,0,0,0,0,0,0,0,0,0,0,0,0],"sum_hessian":[1.8711732E2,1.1975843E2,6.735889E1,5.168218E1,6.8076256E1,2.1707077E1,4.565181E1,1.7044504E1,3.4637676E1,2.7484264E1,4.0591988E1,1.1470435E1,1.0236642E1,6.276752E0,3.9375057E1],"tree_param":{"num_deleted":"0","num_feature":"46","num_nodes":"15","size_leaf_vector":"1"}},{"base_weights":[1.4939041E-2,-4.8689675E-1,1.0363068E-1,-8.77402E-1,3.702517E-2,1.9405138E-1,-3.711329E-1,-6.723834E-2,-1.8054906E-2,2.0721987E-2,-5.0981965E-2,6.336824E-3,4.7861394E-2,-3.9918344E-2,2.8390318E-2],"categories":[],"categories_nodes":[],"categories_segments":[],"categories_sizes":[],"default_left":[0,0,0,0,0,0,0,0,0,0,0,0,0,0,0],"id":35,"left_children":[1,3,5,7,9,11,13,-1,-1,-1,-1,-1,-1,-1,-1],"loss_changes":[8.736277E0,6.0649533E0,7.2266493E0,3.6006117E0,5.826751E0,7.10468E0,1.12870865E1,0E0,0E0,0E0,0E0,0E0,0E0,0E0,0E0],"parents":[2147483647,0,0,1,1,2,2,3,3,4,4,5,5,6,6],"right_children":[2,4,6,8,10,12,14,-1,-1,-1,-1,-1,-1,-1,-1],"split_conditions":[4.4044372E-1,8.0193994E2,9.38782E-1,1E1,1.5794922E3,1.2400695E-2,8.3003033E2,-6.723834E-2,-1.8054906E-2,2.0721987E-2,-5.0981965E-2,6.336824E-3,4.7861394E-2,-3.9918344E-2,2.8390318E-2],"split_indices":[40,41,27,32,38,42,41,0,0,0,0,0,0,0,0],"split_type":[0,0,0,0,0,0,0,0,0,0,0,0,0,0,0],"sum_hessian":[1.9414905E2,2.8485031E1,1.6566402E2,1.5933967E1,1.25510645E1,1.3965703E2,2.6006996E1,7.5211368E0,8.41283E0,9.695762E0,2.8553028E0,1.2940877E2,1.0248255E1,1.7976902E1,8.030094E0],"tree_param":{"num_deleted":"0","num_feature":"46","num_nodes":"15","size_leaf_vector":"1"}},{"base_weights":[1.0194457E-2,-1.7301679E-1,2.567489E-1,-3.728671E-1,1.13230266E-1,-1.7936458E-1,4.076514E-1,-3.7709843E-2,-6.2352414E-3,1.1140198E-2,-5.3682275E-2,3.05254E-3,-5.871885E-2,4.3520015E-2,1.3379563E-3],"categories":[],"categories_nodes":[],"categories_segments":[],"categories_sizes":[],"default_left":[0,0,0,0,0,0,0,0,0,0,0,0,0,0,0],"id":36,"left_children":[1,3,5,7,9,11,13,-1,-1,-1,-1,-1,-1,-1,-1],"loss_changes":[8.239801E0,6.0307007E0,5.189643E0,5.7614355E0,5.936081E0,5.0187936E0,1.0211233E1,0E0,0E0,0E0,0E0,0E0,0E0,0E0,0E0],"parents":[2147483647,0,0,1,1,2,2,3,3,4,4,5,5,6,6],"right_children":[2,4,6,8,10,12,14,-1,-1,-1,-1,-1,-1,-1,-1],"split_conditions":[5.346266E-1,8.152808E2,-2.6639898E0,-3.2003235E-2,4.4E-1,-7.2012973E0,6.81334E-1,-3.7709843E-2,-6.2352414E-3,1.1140198E-2,-5.3682275E-2,3.05254E-3,-5.871885E-2,4.3520015E-2,1.3379563E-3],"split_indices":[40,41,45,2,4,45,28,0,0,0,0,0,0,0,0],"split_type":[0,0,0,0,0,0,0,0,0,0,0,0,0,0,0],"sum_hessian":[1.804279E2,1.0368171E2,7.67462E1,6.0876614E1,4.280509E1,1.9680435E1,5.706576E1,2.319528E1,3.7681335E1,3.9930904E1,2.8741891E0,1.6606586E1,3.0738482E0,2.5184168E1,3.1881596E1],"tree_param":{"num_deleted":"0","num_feature":"46","num_nodes":"15","size_leaf_vector":"1"}},{"base_weights":[7.4143395E-2,2.443211E-1,-1.6113588E-1,-2.7183062E-1,3.4864247E-1,-9.9433385E-2,-6.12829E-2,1.9420011E-2,-4.5618586E-2,-2.9206392E-3,2.4727555E-2,2.8625164E-2,-1.0400294E-2],"categories":[],"categories_nodes":[],"categories_segments":[],"categories_sizes":[],"default_left":[0,0,0,0,0,0,0,0,0,0,0,0,0],"id":37,"left_children":[1,3,5,7,9,11,-1,-1,-1,-1,-1,-1,-1],"loss_changes":[7.632281E0,6.0414886E0,5.145729E0,8.444709E0,5.511422E0,5.728583E0,0E0,0E0,0E0,0E0,0E0,0E0,0E0],"parents":[2147483647,0,0,1,1,2,2,3,3,4,4,5,5],"right_children":[2,4,6,8,10,12,-1,-1,-1,-1,-1,-1,-1],"split_conditions":[1.5030599E3,4.4044372E-1,3.761566E0,-3.0187115E-3,7.2545306E2,-4.5666668E-1,-6.12829E-2,1.9420011E-2,-4.5618586E-2,-2.9206392E-3,2.4727555E-2,2.8625164E-2,-1.0400294E-2],"split_indices":[25,40,13,31,41,3,0,0,0,0,0,0,0],"split_type":[0,0,0,0,0,0,0,0,0,0,0,0,0],"sum_hessian":[1.8863655E2,1.0944004E2,7.91965E1,1.8130405E1,9.130964E1,7.589107E1,3.3054388E0,9.121821E0,9.008583E0,2.4251778E1,6.705786E1,9.96241E0,6.592866E1],"tree_param":{"num_deleted":"0","num_feature":"46","num_nodes":"13","size_leaf_vector":"1"}},{"base_weights":[6.1278893E-3,-3.1850897E-2,9.133886E-1,-4.176513E-1,5.5507883E-2,1.119626E0,-1.0215771E-2,2.486454E-3,-3.968315E-2,-4.580513E-4,3.498626E-2,6.1241467E-2,1.9075753E-2],"categories":[],"categories_nodes":[],"categories_segments":[],"categories_sizes":[],"default_left":[0,0,0,0,0,0,0,0,0,0,0,0,0],"id":38,"left_children":[1,3,5,7,9,11,-1,-1,-1,-1,-1,-1,-1],"loss_changes":[6.419051E0,6.054825E0,1.9541082E0,5.8668933E0,6.122429E0,3.536606E-2,0E0,0E0,0E0,0E0,0E0,0E0,0E0],"parents":[2147483647,0,0,1,1,2,2,3,3,4,4,5,5],"right_children":[2,4,6,8,10,12,-1,-1,-1,-1,-1,-1,-1],"split_conditions":[9.9713135E2,4.642515E-1,4.6845283E-2,4.428817E-4,1.5456895E3,6.304662E0,-1.0215771E-2,2.486454E-3,-3.968315E-2,-4.580513E-4,3.498626E-2,6.1241467E-2,1.9075753E-2],"split_indices":[41,40,31,31,39,8,0,0,0,0,0,0,0],"split_type":[0,0,0,0,0,0,0,0,0,0,0,0,0],"sum_hessian":[1.8444914E2,1.7796428E2,6.4848585E0,3.2159264E1,1.4580502E2,5.473226E0,1.0116323E0,1.4724518E1,1.7434744E1,1.3339966E2,1.2405369E1,4.2132926E0,1.2599335E0],"tree_param":{"num_deleted":"0","num_feature":"46","num_nodes":"13","size_leaf_vector":"1"}},{"base_weights":[2.2981307E-2,6.663639E-2,-6.3754874E-1,-3.1994388E-1,1.4569816E-1,5.09511E-2,-9.467416E-1,1.4779285E-2,-2.8356884E-2,1.52128255E-2,-3.3539694E-3,-6.550095E-2,1.0928662E-2],"categories":[],"categories_nodes":[],"categories_segments":[],"categories_sizes":[],"default_left":[0,0,0,0,0,0,0,0,0,0,0,0,0],"id":39,"left_children":[1,3,5,7,9,-1,11,-1,-1,-1,-1,-1,-1],"loss_changes":[4.9746075E0,4.977925E0,6.4443955E0,4.383527E0,4.5627584E0,0E0,4.322356E0,0E0,0E0,0E0,0E0,0E0,0E0],"parents":[2147483647,0,0,1,1,2,2,3,3,4,4,6,6],"right_children":[2,4,6,8,10,-1,12,-1,-1,-1,-1,-1,-1],"split_conditions":[7.1054274E-15,6.5496906E2,1.497395E3,9.346913E-1,4.9323863E-1,5.09511E-2,1.5857456E0,1.4779285E-2,-2.8356884E-2,1.52128255E-2,-3.3539694E-3,-6.550095E-2,1.0928662E-2],"split_indices":[7,41,38,43,6,0,28,0,0,0,0,0,0],"split_type":[0,0,0,0,0,0,0,0,0,0,0,0,0],"sum_hessian":[1.7004347E2,1.6034521E2,9.6982565E0,2.6707842E1,1.3363737E2,1.1643324E0,8.533924E0,7.596434E0,1.9111408E1,7.632861E1,5.7308758E1,6.41113E0,2.122794E0],"tree_param":{"num_deleted":"0","num_feature":"46","num_nodes":"13","size_leaf_vector":"1"}},{"base_weights":[-8.744877E-4,1.533892E-1,-2.407437E-1,3.770693E-2,7.562879E-1,-5.880013E-1,7.673386E-2,-1.3384526E-2,1.5647897E-2,-4.346987E-2,4.5375377E-2,-4.6467792E-2,6.791732E-3,1.5574823E-2,-3.051797E-2],"categories":[],"categories_nodes":[],"categories_segments":[],"categories_sizes":[],"default_left":[0,0,0,0,0,0,0,0,0,0,0,0,0,0,0],"id":40,"left_children":[1,3,5,7,9,11,13,-1,-1,-1,-1,-1,-1,-1,-1],"loss_changes":[6.937432E0,7.929715E0,8.134922E0,8.219887E0,5.291952E0,8.814073E0,6.516116E0,0E0,0E0,0E0,0E0,0E0,0E0,0E0,0E0],"parents":[2147483647,0,0,1,1,2,2,3,3,4,4,5,5,6,6],"right_children":[2,4,6,8,10,12,14,-1,-1,-1,-1,-1,-1,-1,-1],"split_conditions":[4.9323863E-1,2.638758E-2,8.07357E2,1.4976788E3,4.296153E-1,2.1439905E0,1.3584432E-1,-1.3384526E-2,1.5647897E-2,-4.346987E-2,4.5375377E-2,-4.6467792E-2,6.791732E-3,1.5574823E-2,-3.051797E-2],"split_indices":[5,28,41,26,40,5,2,0,0,0,0,0,0,0,0],"split_type":[0,0,0,0,0,0,0,0,0,0,0,0,0,0,0],"sum_hessian":[1.8548445E2,1.1310522E2,7.237923E1,9.578822E1,1.7316994E1,3.4161358E1,3.821787E1,4.542054E1,5.0367683E1,1.0695518E0,1.6247442E1,2.302095E1,1.1140406E1,2.8892626E1,9.325244E0],"tree_param":{"num_deleted":"0","num_feature":"46","num_nodes":"15","size_leaf_vector":"1"}},{"base_weights":[-3.4922056E-2,-9.063509E-2,6.575504E-1,-7.5312823E-1,-4.0919293E-2,-1.9481796E-1,1.0992138E0,-6.300973E-2,4.2937896E-3,5.8517847E-3,-1.3101521E-2,-4.2413857E-2,2.6088849E-2,-1.6364543E-2,6.7611136E-2],"categories":[],"categories_nodes":[],"categories_segments":[],"categories_sizes":[],"default_left":[0,0,0,0,0,0,0,0,0,0,0,0,0,0,0],"id":41,"left_children":[1,3,5,7,9,11,13,-1,-1,-1,-1,-1,-1,-1,-1],"loss_changes":[7.210729E0,5.6485987E0,5.4559026E0,5.204648E0,5.669634E0,3.0657206E0,3.8070698E0,0E0,0E0,0E0,0E0,0E0,0E0,0E0,0E0],"parents":[2147483647,0,0,1,1,2,2,3,3,4,4,5,5,6,6],"right_children":[2,4,6,8,10,12,14,-1,-1,-1,-1,-1,-1,-1,-1],"split_conditions":[6.5227365E-1,5.6855585E2,1.5666667E-1,1.5060532E3,1.5030599E3,1.4301444E3,-4.7241822E-2,-6.300973E-2,4.2937896E-3,5.8517847E-3,-1.3101521E-2,-4.2413857E-2,2.6088849E-2,-1.6364543E-2,6.7611136E-2],"split_indices":[40,41,3,25,25,39,42,0,0,0,0,0,0,0,0],"split_type":[0,0,0,0,0,0,0,0,0,0,0,0,0,0,0],"sum_hessian":[1.8435979E2,1.7143597E2,1.2923808E1,1.0979451E1,1.6045653E2,4.601756E0,8.322052E0,6.530575E0,4.448877E0,9.386964E1,6.658689E1,2.310794E0,2.290962E0,1.20944E0,7.112612E0],"tree_param":{"num_deleted":"0","num_feature":"46","num_nodes":"15","size_leaf_vector":"1"}},{"base_weights":[-5.761831E-2,-1.7057319E-1,2.8148234E-1,-2.1210235E-1,1.0654442E0,-6.2371963E-1,4.390782E-1,-1.3595842E-2,2.1832919E-2,6.1881836E-3,6.582098E-2,-4.59783E-2,2.6487509E-2,-5.4057892E-2,2.7271664E-2],"categories":[],"categories_nodes":[],"categories_segments":[],"categories_sizes":[],"default_left":[0,0,0,0,0,0,0,0,0,0,0,0,0,0,0],"id":42,"left_children":[1,3,5,7,9,11,13,-1,-1,-1,-1,-1,-1,-1,-1],"loss_changes":[7.0828915E0,7.3298697E0,6.874451E0,5.3469534E0,9.3954706E-1,2.969432E0,7.056303E0,0E0,0E0,0E0,0E0,0E0,0E0,0E0,0E0],"parents":[2147483647,0,0,1,1,2,2,3,3,4,4,5,5,6,6],"right_children":[2,4,6,8,10,12,14,-1,-1,-1,-1,-1,-1,-1,-1],"split_conditions":[2.7E-1,1.5478598E-1,6.4891656E2,1.2400695E-2,1.494615E3,7.2468445E1,1.4098164E3,-1.3595842E-2,2.1832919E-2,6.1881836E-3,6.582098E-2,-4.59783E-2,2.6487509E-2,-5.4057892E-2,2.7271664E-2],"split_indices":[3,31,41,42,38,1,39,0,0,0,0,0,0,0,0],"split_type":[0,0,0,0,0,0,0,0,0,0,0,0,0,0,0],"sum_hessian":[1.8266356E2,1.3739432E2,4.5269245E1,1.337295E2,3.664803E0,6.2741203E0,3.8995125E1,1.2297255E2,1.0756966E1,1.0854045E0,2.5793986E0,5.1547847E0,1.119336E0,1.9504138E0,3.704471E1],"tree_param":{"num_deleted":"0","num_feature":"46","num_nodes":"15","size_leaf_vector":"1"}},{"base_weights":[1.2846646E-2,-6.719866E-2,3.872486E-1,1.470043E-1,-2.8023118E-1,7.790471E-1,1.0323301E-1,-1.3548657E-2,1.43429255E-2,-1.5990101E-3,-4.6719592E-2,5.441488E-2,-1.4047717E-2,3.977081E-2,-1.4082551E-2],"categories":[],"categories_nodes":[],"categories_segments":[],"categories_sizes":[],"default_left":[0,0,0,0,0,0,0,0,0,0,0,0,0,0,0],"id":43,"left_children":[1,3,5,7,9,11,13,-1,-1,-1,-1,-1,-1,-1,-1],"loss_changes":[5.4940386E0,6.9394126E0,3.5121593E0,4.522356E0,1.233432E1,4.703369E0,5.51755E0,0E0,0E0,0E0,0E0,0E0,0E0,0E0,0E0],"parents":[2147483647,0,0,1,1,2,2,3,3,4,4,5,5,6,6],"right_children":[2,4,6,8,10,12,14,-1,-1,-1,-1,-1,-1,-1,-1],"split_conditions":[9.2064E2,2.480768E-2,-1.8730097E-2,-1.272583E0,8.203772E-2,1.6275936E3,1.4918441E3,-1.3548657E-2,1.43429255E-2,-1.5990101E-3,-4.6719592E-2,5.441488E-2,-1.4047717E-2,3.977081E-2,-1.4082551E-2],"split_indices":[41,27,44,6,2,38,26,0,0,0,0,0,0,0,0],"split_type":[0,0,0,0,0,0,0,0,0,0,0,0,0,0,0],"sum_hessian":[1.8145503E2,1.5016995E2,3.128508E1,7.503382E1,7.513612E1,1.24152775E1,1.8869802E1,1.857671E1,5.6457115E1,5.5226723E1,1.9909403E1,9.590577E0,2.824701E0,6.361862E0,1.250794E1],"tree_param":{"num_deleted":"0","num_feature":"46","num_nodes":"15","size_leaf_vector":"1"}},{"base_weights":[3.7081107E-2,-9.0634614E-2,3.3370608E-1,2.3884775E-1,-2.1183214E-1,1.7791955E-1,9.193525E-1,-1.3952113E-2,2.9861946E-2,-2.27334E-2,3.430839E-3,1.5644373E-2,-4.478912E-2,-3.2661512E-2,6.0412433E-2],"categories":[],"categories_nodes":[],"categories_segments":[],"categories_sizes":[],"default_left":[0,0,0,0,0,0,0,0,0,0,0,0,0,0,0],"id":44,"left_children":[1,3,5,7,9,11,13,-1,-1,-1,-1,-1,-1,-1,-1],"loss_changes":[6.8156E0,5.081647E0,4.7742224E0,6.5424843E0,6.3401184E0,6.6550283E0,5.8465586E0,0E0,0E0,0E0,0E0,0E0,0E0,0E0,0E0],"parents":[2147483647,0,0,1,1,2,2,3,3,4,4,5,5,6,6],"right_children":[2,4,6,8,10,12,14,-1,-1,-1,-1,-1,-1,-1,-1],"split_conditions":[1.9E-1,-4.6772094E0,1.5743337E3,-2.2684915E0,8.0053705E2,1.5664563E3,-7.983435E-2,-1.3952113E-2,2.9861946E-2,-2.27334E-2,3.430839E-3,1.5644373E-2,-4.478912E-2,-3.2661512E-2,6.0412433E-2],"split_indices":[4,8,38,29,41,38,44,0,0,0,0,0,0,0,0],"split_type":[0,0,0,0,0,0,0,0,0,0,0,0,0,0,0],"sum_hessian":[1.7811026E2,1.2498906E2,5.3121212E1,3.3351196E1,9.1637856E1,4.2989475E1,1.0131737E1,1.3730894E1,1.9620304E1,4.8779404E1,4.2858456E1,3.8818455E1,4.171019E0,1.3766938E0,8.755043E0],"tree_param":{"num_deleted":"0","num_feature":"46","num_nodes":"15","size_leaf_vector":"1"}},{"base_weights":[2.1116112E-3,-9.4759315E-2,3.2036313E-1,3.2539517E-1,-2.0510818E-1,-5.529735E-1,4.8743212E-1,-2.9931923E-2,2.5709061E-2,-1.4954056E-2,2.6575103E-2,-5.385769E-2,2.2115331E-2,-1.985438E-2,3.622021E-2],"categories":[],"categories_nodes":[],"categories_segments":[],"categories_sizes":[],"default_left":[0,0,0,0,0,0,0,0,0,0,0,0,0,0,0],"id":45,"left_children":[1,3,5,7,9,11,13,-1,-1,-1,-1,-1,-1,-1,-1],"loss_changes":[5.6218386E0,6.5491714E0,6.478138E0,5.4486446E0,7.866602E0,4.285654E0,7.8859215E0,0E0,0E0,0E0,0E0,0E0,0E0,0E0,0E0],"parents":[2147483647,0,0,1,1,2,2,3,3,4,4,5,5,6,6],"right_children":[2,4,6,8,10,12,14,-1,-1,-1,-1,-1,-1,-1,-1],"split_conditions":[2.7333334E-1,1.4953135E3,-4.483137E-2,5E-1,2.0005112E0,9.746167E1,7.116506E2,-2.9931923E-2,2.5709061E-2,-1.4954056E-2,2.6575103E-2,-5.385769E-2,2.2115331E-2,-1.985438E-2,3.622021E-2],"split_indices":[3,38,44,20,29,1,41,0,0,0,0,0,0,0,0],"split_type":[0,0,0,0,0,0,0,0,0,0,0,0,0,0,0],"sum_hessian":[1.8036896E2,1.3881732E2,4.1551632E1,2.8469732E1,1.1034759E2,6.3014703E0,3.5250164E1,4.4614906E0,2.4008242E1,9.8389534E1,1.1958053E1,4.073719E0,2.2277513E0,7.305617E0,2.7944546E1],"tree_param":{"num_deleted":"0","num_feature":"46","num_nodes":"15","size_leaf_vector":"1"}},{"base_weights":[2.374178E-2,-1.1029377E0,5.3884555E-2,-6.3560955E-2,-1.5943164E-2,4.1771188E-1,-2.0575698E-2,-3.579701E-2,3.152568E-2,-8.089061E-3,1.3937815E-2],"categories":[],"categories_nodes":[],"categories_segments":[],"categories_sizes":[],"default_left":[0,0,0,0,0,0,0,0,0,0,0],"id":46,"left_children":[1,3,5,-1,-1,7,9,-1,-1,-1,-1],"loss_changes":[6.3957744E0,2.4225426E-1,4.957184E0,0E0,0E0,7.9492836E0,6.4945617E0,0E0,0E0,0E0,0E0],"parents":[2147483647,0,0,1,1,2,2,5,5,6,6],"right_children":[2,4,6,-1,-1,8,10,-1,-1,-1,-1],"split_conditions":[1.4638699E3,1.0489606E-1,1.4953135E3,-6.3560955E-2,-1.5943164E-2,-4.1136956E0,2.1666667E-1,-3.579701E-2,3.152568E-2,-8.089061E-3,1.3937815E-2],"split_indices":[26,2,38,0,0,45,3,0,0,0,0],"split_type":[0,0,0,0,0,0,0,0,0,0,0],"sum_hessian":[1.855757E2,3.9080954E0,1.816676E2,2.7060192E0,1.2020762E0,3.0080168E1,1.5158745E2,4.380374E0,2.5699795E1,1.0331134E2,4.82761E1],"tree_param":{"num_deleted":"0","num_feature":"46","num_nodes":"11","size_leaf_vector":"1"}},{"base_weights":[-1.8279988E-3,-7.182159E-2,4.2468524E-1,-5.113156E-1,8.1434045E-3,5.8877885E-1,-7.219797E-1,4.0498193E-2,-3.2722242E-2,1.799465E-2,-5.6462134E-3,-2.7962675E-2,3.7937146E-2,8.745235E-3,-7.301336E-2],"categories":[],"categories_nodes":[],"categories_segments":[],"categories_sizes":[],"default_left":[0,0,0,0,0,0,0,0,0,0,0,0,0,0,0],"id":47,"left_children":[1,3,5,7,9,11,13,-1,-1,-1,-1,-1,-1,-1,-1],"loss_changes":[5.5605145E0,5.626589E0,5.3658676E0,5.19043E0,5.8466945E0,5.014021E0,2.7295418E0,0E0,0E0,0E0,0E0,0E0,0E0,0E0,0E0],"parents":[2147483647,0,0,1,1,2,2,3,3,4,4,5,5,6,6],"right_children":[2,4,6,8,10,12,14,-1,-1,-1,-1,-1,-1,-1,-1],"split_conditions":[9.39842E2,4.4044372E-1,2.7069716E0,-7.9744536E-1,-4.5322876E0,-8.767029E-2,5.0422156E-1,4.0498193E-2,-3.2722242E-2,1.799465E-2,-5.6462134E-3,-2.7962675E-2,3.7937146E-2,8.745235E-3,-7.301336E-2],"split_indices":[41,40,13,27,8,44,40,0,0,0,0,0,0,0,0],"split_type":[0,0,0,0,0,0,0,0,0,0,0,0,0,0,0],"sum_hessian":[1.8424023E2,1.5898189E2,2.5258354E1,2.364313E1,1.3533875E2,2.2521887E1,2.7364674E0,1.8554847E0,2.1787643E1,3.414918E1,1.01189575E2,2.6089773E0,1.9912909E1,1.5800678E0,1.1563995E0],"tree_param":{"num_deleted":"0","num_feature":"46","num_nodes":"15","size_leaf_vector":"1"}},{"base_weights":[3.9340388E-2,7.8748964E-2,-8.475355E-1,3.3140283E-2,6.842842E-1,-6.8952344E-2,6.194222E-2,-2.2376308E-3,1.893758E-2,5.2999277E-2,-3.0649835E-2,4.658225E-2,-3.6360767E-2],"categories":[],"categories_nodes":[],"categories_segments":[],"categories_sizes":[],"default_left":[0,0,0,0,0,0,0,0,0,0,0,0,0],"id":48,"left_children":[1,3,5,7,9,-1,11,-1,-1,-1,-1,-1,-1],"loss_changes":[6.354603E0,4.7598286E0,3.8265057E0,4.380517E0,6.5367093E0,0E0,3.293539E0,0E0,0E0,0E0,0E0,0E0,0E0],"parents":[2147483647,0,0,1,1,2,2,3,3,4,4,6,6],"right_children":[2,4,6,8,10,-1,12,-1,-1,-1,-1,-1,-1],"split_conditions":[1.4630533E2,1.2400695E-2,1.5850336E3,7.613811E0,1.4445927E0,-6.8952344E-2,-1.943001E-1,-2.2376308E-3,1.893758E-2,5.2999277E-2,-3.0649835E-2,4.658225E-2,-3.6360767E-2],"split_indices":[30,42,38,30,6,0,27,0,0,0,0,0,0],"split_type":[0,0,0,0,0,0,0,0,0,0,0,0,0],"sum_hessian":[1.789075E2,1.7216835E2,6.739143E0,1.6108986E2,1.1078498E1,3.927532E0,2.8116112E0,1.3217186E2,2.8918003E1,8.732441E0,2.3460565E0,1.2516524E0,1.5599587E0],"tree_param":{"num_deleted":"0","num_feature":"46","num_nodes":"13","size_leaf_vector":"1"}},{"base_weights":[-2.6702713E-2,1.0944914E-2,-7.613769E-1,4.4534992E-2,-8.5740334E-1,-1.0419875E0,2.0258712E-2,-1.8040602E-4,3.2013938E-2,1.3309292E-2,-5.9556525E-2,-6.4678125E-2,1.30011365E-2],"categories":[],"categories_nodes":[],"categories_segments":[],"categories_sizes":[],"default_left":[0,0,0,0,0,0,0,0,0,0,0,0,0],"id":49,"left_children":[1,3,5,7,9,11,-1,-1,-1,-1,-1,-1,-1],"loss_changes":[5.0936823E0,5.168343E0,3.3606577E0,4.886223E0,2.791751E0,2.7982492E0,0E0,0E0,0E0,0E0,0E0,0E0,0E0],"parents":[2147483647,0,0,1,1,2,2,3,3,4,4,5,5],"right_children":[2,4,6,8,10,12,-1,-1,-1,-1,-1,-1,-1],"split_conditions":[1.4630533E2,1.4210855E-14,3.9333335E-1,1.2400695E-2,-1.2020242E1,9.143083E2,2.0258712E-2,-1.8040602E-4,3.2013938E-2,1.3309292E-2,-5.9556525E-2,-6.4678125E-2,1.30011365E-2],"split_indices":[30,7,3,42,9,41,0,0,0,0,0,0,0],"split_type":[0,0,0,0,0,0,0,0,0,0,0,0,0],"sum_hessian":[1.8286046E2,1.7488382E2,7.9766397E0,1.6928415E2,5.5996594E0,6.516011E0,1.4606287E0,1.5754648E2,1.1737669E1,1.3286749E0,4.2709846E0,5.466299E0,1.049712E0],"tree_param":{"num_deleted":"0","num_feature":"46","num_nodes":"13","size_leaf_vector":"1"}}]},"name":"gbtree"},"learner_model_param":{"base_score":"[5.1491785E-1]","boost_from_average":"1","num_class":"0","num_feature":"46","num_target":"1"},"objective":{"name":"binary:logistic","reg_loss_param":{"scale_pos_weight":"1"}}},"version":[3,2,0]}