{"learner":{"attributes":{"scikit_learn":"{\"_estimator_type\": \"classifier\"}"},"feature_names":["p1_target","elo_diff","finish_diff","edge_speed_diff","edge_burst_diff","l5_goal_diff","l5_xg_diff","l5_corsi_diff","l5_pdo_diff","l5_st_net","l5_royal_road_diff","l5_pressure_diff","l5_rebound_diff","l5_lateral_diff","p1_xg_diff","p2_xg_diff","p3_xg_diff","p1_p2_dominance","h_preservation_rate","a_preservation_rate","h_comeback_rate","a_comeback_rate","l5_nzt_possession_diff","l5_ca_shots_diff","l5_rush_sv_pct_diff","home_sos","away_sos","l5_std_diff","l10_goal_diff","l10_xg_diff","elo_rest_inter","speed_finish_inter","season_month","is_late_season","h_desperation","a_desperation","home_xg","away_xg","home_elo","away_elo","away_win_rate","home_win_rate_away_sos","away_b2b_home_strength","pressure_index","xg_efficiency","power_momentum"],"feature_types":["int","float","float","float","float","float","float","float","float","float","float","float","float","float","float","float","float","float","float","float","float","float","float","float","float","float","float","float","float","float","float","float","int","int","float","float","float","float","float","float","float","float","float","float","float","float"],"gradient_booster":{"model":{"cats":{"enc":[],"feature_segments":[],"sorted_idx":[]},"gbtree_model_param":{"num_parallel_tree":"1","num_trees":"50"},"iteration_indptr":[0,1,2,3,4,5,6,7,8,9,10,11,12,13,14,15,16,17,18,19,20,21,22,23,24,25,26,27,28,29,30,31,32,33,34,35,36,37,38,39,40,41,42,43,44,45,46,47,48,49,50],"tree_info":[0,0,0,0,0,0,0,0,0,0,0,0,0,0,0,0,0,0,0,0,0,0,0,0,0,0,0,0,0,0,0,0,0,0,0,0,0,0,0,0,0,0,0,0,0,0,0,0,0,0],"trees":[{"base_weights":[-1.4597138E-2,-3.9682126E-1,4.474292E-1,-6.4122605E-1,5.3725E-1,6.6303295E-1,6.1051022E-2,-4.910742E-2,-1.5251167E-2,-2.4639988E-2,4.260082E-2,1.4094727E-2,5.8487605E-2,2.0660905E-2,-3.561413E-2],"categories":[],"categories_nodes":[],"categories_segments":[],"categories_sizes":[],"default_left":[0,0,0,0,0,0,0,0,0,0,0,0,0,0,0],"id":0,"left_children":[1,3,5,7,9,11,13,-1,-1,-1,-1,-1,-1,-1,-1],"loss_changes":[3.2693806E1,2.346936E1,6.9430256E0,8.955162E0,7.4075117E0,1.0042294E1,8.77127E0,0E0,0E0,0E0,0E0,0E0,0E0,0E0,0E0],"parents":[2147483647,0,0,1,1,2,2,3,3,4,4,5,5,6,6],"right_children":[2,4,6,8,10,12,14,-1,-1,-1,-1,-1,-1,-1,-1],"split_conditions":[7.887283E2,5.7763976E-1,1.502936E3,5.0639385E-1,-6.503837E0,1.4946283E3,9.246566E-2,-4.910742E-2,-1.5251167E-2,-2.4639988E-2,4.260082E-2,1.4094727E-2,5.8487605E-2,2.0660905E-2,-3.561413E-2],"split_indices":[41,40,25,40,45,25,2,0,0,0,0,0,0,0,0],"split_type":[0,0,0,0,0,0,0,0,0,0,0,0,0,0,0],"sum_hessian":[1.8312627E2,1.0029531E2,8.2830956E1,7.974351E1,2.0551807E1,5.2704937E1,3.0126017E1,3.8639893E1,4.1103615E1,4.677953E0,1.5873854E1,3.096805E1,2.1736889E1,2.1019602E1,9.106415E0],"tree_param":{"num_deleted":"0","num_feature":"46","num_nodes":"15","size_leaf_vector":"1"}},{"base_weights":[3.5147402E-2,-4.0619195E-1,5.472398E-1,-7.7712953E-1,8.322498E-2,7.577327E-1,1.7184645E-1,9.040675E-3,-4.8989426E-2,3.609239E-2,-1.6884973E-2,1.0814684E-2,5.3250927E-2,2.1088624E-2,-5.068267E-2],"categories":[],"categories_nodes":[],"categories_segments":[],"categories_sizes":[],"default_left":[0,0,0,0,0,0,0,0,0,0,0,0,0,0,0],"id":1,"left_children":[1,3,5,7,9,11,13,-1,-1,-1,-1,-1,-1,-1,-1],"loss_changes":[4.1302807E1,1.7892544E1,6.5519295E0,1.1040863E1,1.1867866E1,8.735659E0,9.8125105E0,0E0,0E0,0E0,0E0,0E0,0E0,0E0,0E0],"parents":[2147483647,0,0,1,1,2,2,3,3,4,4,5,5,6,6],"right_children":[2,4,6,8,10,12,14,-1,-1,-1,-1,-1,-1,-1,-1],"split_conditions":[7.887283E2,5.338164E-1,1.502936E3,-2.5721326E-2,-6.7169356E-1,-5.7100326E-2,1.523702E-1,9.040675E-3,-4.8989426E-2,3.609239E-2,-1.6884973E-2,1.0814684E-2,5.3250927E-2,2.1088624E-2,-5.068267E-2],"split_indices":[41,40,25,31,28,2,2,0,0,0,0,0,0,0,0],"split_type":[0,0,0,0,0,0,0,0,0,0,0,0,0,0,0],"sum_hessian":[1.80767E2,9.720182E1,8.356518E1,5.4959324E1,4.2242493E1,5.2889904E1,3.067527E1,9.615569E0,4.5343758E1,1.649759E1,2.5744904E1,1.9766005E1,3.31239E1,2.586637E1,4.808901E0],"tree_param":{"num_deleted":"0","num_feature":"46","num_nodes":"15","size_leaf_vector":"1"}},{"base_weights":[-9.4341105E-3,-6.617388E-1,1.7802706E-1,-8.05361E-1,5.383153E-2,-1.1688259E-1,6.238087E-1,-1.4924216E-2,-6.121263E-2,-1.6921297E-2,2.5437627E-2,-3.1534918E-2,3.882044E-2],"categories":[],"categories_nodes":[],"categories_segments":[],"categories_sizes":[],"default_left":[0,0,0,0,0,0,0,0,0,0,0,0,0],"id":2,"left_children":[1,3,5,7,-1,9,11,-1,-1,-1,-1,-1,-1],"loss_changes":[2.2434351E1,1.1091429E1,1.8813189E1,7.7876167E0,0E0,1.2180215E1,1.1385258E1,0E0,0E0,0E0,0E0,0E0,0E0],"parents":[2147483647,0,0,1,1,2,2,3,3,5,5,6,6],"right_children":[2,4,6,8,-1,10,12,-1,-1,-1,-1,-1,-1],"split_conditions":[6.8167584E2,6.545241E-1,5.3580564E-1,-2.7117562E0,5.383153E-2,8.666772E2,5E-1,-1.4924216E-2,-6.121263E-2,-1.6921297E-2,2.5437627E-2,-3.1534918E-2,3.882044E-2],"split_indices":[41,40,40,8,0,41,20,0,0,0,0,0,0],"split_type":[0,0,0,0,0,0,0,0,0,0,0,0,0],"sum_hessian":[1.8150093E2,3.9951733E1,1.415492E2,3.7398613E1,2.5531173E0,8.563477E1,5.5914425E1,1.7697023E1,1.9701591E1,6.3579678E1,2.20551E1,5.7241197E0,5.0190304E1],"tree_param":{"num_deleted":"0","num_feature":"46","num_nodes":"13","size_leaf_vector":"1"}},{"base_weights":[-4.5656607E-2,-4.7921416E-1,2.7303505E-1,-5.7940674E-1,9.893424E-1,-5.04463E-1,4.3514985E-1,3.5584755E-2,-3.4505036E-2,-1.5586044E-2,7.207828E-2,6.257399E-2,-3.8889516E-2,5.1345814E-2,1.0585953E-2],"categories":[],"categories_nodes":[],"categories_segments":[],"categories_sizes":[],"default_left":[0,0,0,0,0,0,0,0,0,0,0,0,0,0,0],"id":3,"left_children":[1,3,5,7,9,11,13,-1,-1,-1,-1,-1,-1,-1,-1],"loss_changes":[2.6233818E1,1.2402908E1,1.4023779E1,1.1337706E1,3.687879E0,1.0264637E1,1.1835724E1,0E0,0E0,0E0,0E0,0E0,0E0,0E0,0E0],"parents":[2147483647,0,0,1,1,2,2,3,3,4,4,5,5,6,6],"right_children":[2,4,6,8,10,12,14,-1,-1,-1,-1,-1,-1,-1,-1],"split_conditions":[7.489855E2,4.6E-1,4.557721E-1,-4.810666E0,-1.6142945E0,-9.6705145E-1,1.4917422E3,3.5584755E-2,-3.4505036E-2,-1.5586044E-2,7.207828E-2,6.257399E-2,-3.8889516E-2,5.1345814E-2,1.0585953E-2],"split_indices":[41,4,40,13,5,27,26,0,0,0,0,0,0,0,0],"split_type":[0,0,0,0,0,0,0,0,0,0,0,0,0,0,0],"sum_hessian":[1.8791768E2,7.9398254E1,1.08519424E2,7.489405E1,4.5042043E0,1.83589E1,9.016053E1,5.4853344E0,6.9408714E1,1.2419007E0,3.2623038E0,1.9907829E0,1.6368116E1,2.3725733E1,6.643479E1],"tree_param":{"num_deleted":"0","num_feature":"46","num_nodes":"15","size_leaf_vector":"1"}},{"base_weights":[-8.1111705E-3,-2.1019115E-1,5.5821323E-1,-5.4198813E-1,2.7588764E-1,7.380516E-2,1.0379753E0,-7.2459444E-2,-1.9982135E-2,-3.1103132E-2,2.0953368E-2,5.115802E-2,-2.1386543E-2,5.973376E-2,-4.401069E-2],"categories":[],"categories_nodes":[],"categories_segments":[],"categories_sizes":[],"default_left":[0,0,0,0,0,0,0,0,0,0,0,0,0,0,0],"id":4,"left_children":[1,3,5,7,9,11,13,-1,-1,-1,-1,-1,-1,-1,-1],"loss_changes":[2.1281584E1,2.224878E1,1.1289739E1,9.98074E0,7.4927793E0,1.253764E1,8.414427E0,0E0,0E0,0E0,0E0,0E0,0E0,0E0,0E0],"parents":[2147483647,0,0,1,1,2,2,3,3,4,4,5,5,6,6],"right_children":[2,4,6,8,10,12,14,-1,-1,-1,-1,-1,-1,-1,-1],"split_conditions":[5.652174E-1,8.184772E2,5E-2,1.4752155E3,1.4635563E3,-5.0666666E-1,7.7666664E-1,-7.2459444E-2,-1.9982135E-2,-3.1103132E-2,2.0953368E-2,5.115802E-2,-2.1386543E-2,5.973376E-2,-4.401069E-2],"split_indices":[40,41,3,25,39,3,3,0,0,0,0,0,0,0,0],"split_type":[0,0,0,0,0,0,0,0,0,0,0,0,0,0,0],"sum_hessian":[1.83933E2,1.3602458E2,4.7908424E1,8.0773575E1,5.5251E1,2.4412924E1,2.34955E1,9.709821E0,7.106376E1,7.1383395E0,4.811266E1,8.079404E0,1.6333519E1,2.2069773E1,1.4257289E0],"tree_param":{"num_deleted":"0","num_feature":"46","num_nodes":"15","size_leaf_vector":"1"}},{"base_weights":[4.107841E-2,-5.9171927E-1,1.7833424E-1,-7.7505594E-1,5.418078E-2,5.3281017E-2,6.9796795E-1,-2.0977026E-2,-6.472157E-2,4.138049E-2,-3.4802125E-3,4.517193E-2,-2.6774434E-2],"categories":[],"categories_nodes":[],"categories_segments":[],"categories_sizes":[],"default_left":[0,0,0,0,0,0,0,0,0,0,0,0,0],"id":5,"left_children":[1,3,5,7,-1,9,11,-1,-1,-1,-1,-1,-1],"loss_changes":[1.6626625E1,1.1324667E1,1.0170071E1,5.2458954E0,0E0,1.2207949E1,8.18496E0,0E0,0E0,0E0,0E0,0E0,0E0],"parents":[2147483647,0,0,1,1,2,2,3,3,5,5,6,6],"right_children":[2,4,6,8,-1,10,12,-1,-1,-1,-1,-1,-1],"split_conditions":[6.5742413E2,6.545241E-1,9.0421387E2,1.22031875E-1,5.418078E-2,1.4884589E3,1.93041E0,-2.0977026E-2,-6.472157E-2,4.138049E-2,-3.4802125E-3,4.517193E-2,-2.6774434E-2],"split_indices":[41,40,41,27,0,38,13,0,0,0,0,0,0],"split_type":[0,0,0,0,0,0,0,0,0,0,0,0,0],"sum_hessian":[1.8921436E2,3.313576E1,1.560786E2,3.0351665E1,2.7840958E0,1.266919E2,2.9386694E1,1.9091324E1,1.1260341E1,1.6566664E1,1.1012524E2,2.5419788E1,3.9669042E0],"tree_param":{"num_deleted":"0","num_feature":"46","num_nodes":"13","size_leaf_vector":"1"}},{"base_weights":[-3.1819332E-2,-5.025263E-1,1.4830966E-1,-8.7758297E-1,-1.5415536E-2,-3.207013E-1,3.3323067E-1,9.898368E-3,-5.088628E-2,-7.3502384E-2,1.1184776E-2,-2.6398642E-2,5.610862E-2,2.475253E-3,4.15471E-2],"categories":[],"categories_nodes":[],"categories_segments":[],"categories_sizes":[],"default_left":[0,0,0,0,0,0,0,0,0,0,0,0,0,0,0],"id":6,"left_children":[1,3,5,7,9,11,13,-1,-1,-1,-1,-1,-1,-1,-1],"loss_changes":[1.559542E1,9.284009E0,1.165618E1,4.5326996E0,8.383074E0,1.2006693E1,1.3515059E1,0E0,0E0,0E0,0E0,0E0,0E0,0E0,0E0],"parents":[2147483647,0,0,1,1,2,2,3,3,4,4,5,5,6,6],"right_children":[2,4,6,8,10,12,14,-1,-1,-1,-1,-1,-1,-1,-1],"split_conditions":[4.9192548E-1,7.8175183E2,7.194955E2,1.4709631E3,1.4768114E3,3.6E-1,2.0333333E-1,9.898368E-3,-5.088628E-2,-7.3502384E-2,1.1184776E-2,-2.6398642E-2,5.610862E-2,2.475253E-3,4.15471E-2],"split_indices":[40,41,41,38,26,4,3,0,0,0,0,0,0,0,0],"split_type":[0,0,0,0,0,0,0,0,0,0,0,0,0,0,0],"sum_hessian":[1.8205531E2,4.989129E1,1.3216403E2,2.7734882E1,2.2156406E1,3.7166138E1,9.4997894E1,3.1496549E0,2.4585226E1,2.4011343E0,1.9755272E1,3.3052208E1,4.113929E0,6.120615E1,3.3791744E1],"tree_param":{"num_deleted":"0","num_feature":"46","num_nodes":"15","size_leaf_vector":"1"}},{"base_weights":[7.973781E-2,-2.2829129E-1,4.528842E-1,-7.704203E-1,1.2197236E-1,7.1201587E-1,1.4010561E-2,-1.37039935E-2,-5.4777842E-2,1.592592E-2,-4.1968822E-2,4.1402023E-2,-5.1080227E-2,3.628389E-2,-2.5725538E-2],"categories":[],"categories_nodes":[],"categories_segments":[],"categories_sizes":[],"default_left":[0,0,0,0,0,0,0,0,0,0,0,0,0,0,0],"id":7,"left_children":[1,3,5,7,9,11,13,-1,-1,-1,-1,-1,-1,-1,-1],"loss_changes":[2.1211481E1,1.932297E1,9.47246E0,6.1359997E0,1.2054354E1,1.1386843E1,1.2399949E1,0E0,0E0,0E0,0E0,0E0,0E0,0E0,0E0],"parents":[2147483647,0,0,1,1,2,2,3,3,4,4,5,5,6,6],"right_children":[2,4,6,8,10,12,14,-1,-1,-1,-1,-1,-1,-1,-1],"split_conditions":[7.880382E2,5.0639385E-1,1.502936E3,-1.0333333E-1,9.38782E-1,1.5796625E3,9.9389994E-1,-1.37039935E-2,-5.4777842E-2,1.592592E-2,-4.1968822E-2,4.1402023E-2,-5.1080227E-2,3.628389E-2,-2.5725538E-2],"split_indices":[41,40,25,3,27,39,43,0,0,0,0,0,0,0,0],"split_type":[0,0,0,0,0,0,0,0,0,0,0,0,0,0,0],"sum_hessian":[1.8264452E2,1.002649E2,8.237961E1,3.88831E1,6.13818E1,5.140519E1,3.0974422E1,1.6119177E1,2.2763924E1,5.1517765E1,9.8640375E0,4.8670242E1,2.734949E0,1.3041151E1,1.7933271E1],"tree_param":{"num_deleted":"0","num_feature":"46","num_nodes":"15","size_leaf_vector":"1"}},{"base_weights":[5.4572158E-2,-2.2882394E-1,4.2977896E-1,-5.88363E-1,1.6013512E-1,-2.208748E-1,6.619649E-1,-6.8370313E-3,-4.7965776E-2,-4.682393E-2,1.6038265E-2,-4.2661477E-2,1.44773815E-2,4.7585394E-2,1.7235372E-3],"categories":[],"categories_nodes":[],"categories_segments":[],"categories_sizes":[],"default_left":[0,0,0,0,0,0,0,0,0,0,0,0,0,0,0],"id":8,"left_children":[1,3,5,7,9,11,13,-1,-1,-1,-1,-1,-1,-1,-1],"loss_changes":[1.9587532E1,1.4787943E1,1.2113457E1,9.051878E0,9.329187E0,7.2134566E0,1.0627172E1,0E0,0E0,0E0,0E0,0E0,0E0,0E0,0E0],"parents":[2147483647,0,0,1,1,2,2,3,3,4,4,5,5,6,6],"right_children":[2,4,6,8,10,12,14,-1,-1,-1,-1,-1,-1,-1,-1],"split_conditions":[5.338164E-1,7.8074536E2,-2.6750388E0,-1.4333333E-1,1.4635563E3,1.3333334E-2,1.1E1,-6.8370313E-3,-4.7965776E-2,-4.682393E-2,1.6038265E-2,-4.2661477E-2,1.44773815E-2,4.7585394E-2,1.7235372E-3],"split_indices":[40,41,45,4,39,4,32,0,0,0,0,0,0,0,0],"split_type":[0,0,0,0,0,0,0,0,0,0,0,0,0,0,0],"sum_hessian":[1.8228595E2,1.0407077E2,7.821518E1,5.381425E1,5.025652E1,2.0583323E1,5.763186E1,2.4885546E1,2.8928707E1,5.8038583E0,4.445266E1,8.893582E0,1.168974E1,3.9073254E1,1.8558605E1],"tree_param":{"num_deleted":"0","num_feature":"46","num_nodes":"15","size_leaf_vector":"1"}},{"base_weights":[-1.7785203E-2,-2.9320362E-1,3.4551612E-1,-5.162446E-1,5.777514E-1,-3.1199905E-1,6.0780424E-1,4.7811884E-2,-2.8700953E-2,-1.985535E-2,4.2322543E-2,-2.4158334E-2,5.5627774E-2,4.3726984E-2,5.67721E-4],"categories":[],"categories_nodes":[],"categories_segments":[],"categories_sizes":[],"default_left":[0,0,0,0,0,0,0,0,0,0,0,0,0,0,0],"id":9,"left_children":[1,3,5,7,9,11,13,-1,-1,-1,-1,-1,-1,-1,-1],"loss_changes":[1.8578836E1,2.0807606E1,1.4001348E1,7.7443485E0,6.0980453E0,6.2672963E0,9.152145E0,0E0,0E0,0E0,0E0,0E0,0E0,0E0,0E0],"parents":[2147483647,0,0,1,1,2,2,3,3,4,4,5,5,6,6],"right_children":[2,4,6,8,10,12,14,-1,-1,-1,-1,-1,-1,-1,-1],"split_conditions":[5.338164E-1,8.666772E2,-2.6750388E0,-8.84814E-2,1.4834608E3,1.5739689E3,1.1E1,4.7811884E-2,-2.8700953E-2,-1.985535E-2,4.2322543E-2,-2.4158334E-2,5.5627774E-2,4.3726984E-2,5.67721E-4],"split_indices":[40,41,45,44,25,38,32,0,0,0,0,0,0,0,0],"split_type":[0,0,0,0,0,0,0,0,0,0,0,0,0,0,0],"sum_hessian":[1.8366472E2,1.0457752E2,7.908719E1,8.358077E1,2.099675E1,2.2498201E1,5.6588985E1,2.5684416E0,8.101234E1,4.4335747E0,1.6563175E1,2.0674843E1,1.8233601E0,3.878009E1,1.7808895E1],"tree_param":{"num_deleted":"0","num_feature":"46","num_nodes":"15","size_leaf_vector":"1"}},{"base_weights":[-3.7178777E-2,-5.5100024E-1,1.3482381E-1,-1.0201849E0,-7.1123436E-2,-4.7344753E-1,3.0155784E-1,1.3224393E-2,-5.7860594E-2,-3.9740596E-2,2.8646586E-2,1.7821008E-2,-4.1969642E-2,4.2057345E-3,3.6854193E-2],"categories":[],"categories_nodes":[],"categories_segments":[],"categories_sizes":[],"default_left":[0,0,0,0,0,0,0,0,0,0,0,0,0,0,0],"id":10,"left_children":[1,3,5,7,9,11,13,-1,-1,-1,-1,-1,-1,-1,-1],"loss_changes":[1.6843323E1,1.0685827E1,1.4641488E1,4.5459957E0,1.1966664E1,9.757462E0,1.0621625E1,0E0,0E0,0E0,0E0,0E0,0E0,0E0,0E0],"parents":[2147483647,0,0,1,1,2,2,3,3,4,4,5,5,6,6],"right_children":[2,4,6,8,10,12,14,-1,-1,-1,-1,-1,-1,-1,-1],"split_conditions":[4.7940505E-1,7.571085E2,6.8167584E2,-9.058763E1,1.4996505E3,-4.7915087E0,2.0333333E-1,1.3224393E-2,-5.7860594E-2,-3.9740596E-2,2.8646586E-2,1.7821008E-2,-4.1969642E-2,4.2057345E-3,3.6854193E-2],"split_indices":[40,41,41,30,26,8,3,0,0,0,0,0,0,0,0],"split_type":[0,0,0,0,0,0,0,0,0,0,0,0,0,0,0],"sum_hessian":[1.8874086E2,4.678302E1,1.4195784E2,2.3085732E1,2.369729E1,3.0144938E1,1.11812904E2,2.135406E0,2.0950325E1,1.1048566E1,1.2648725E1,9.232985E0,2.0911953E1,7.537427E1,3.643864E1],"tree_param":{"num_deleted":"0","num_feature":"46","num_nodes":"15","size_leaf_vector":"1"}},{"base_weights":[-4.9075134E-2,-2.885527E-1,2.5243568E-1,-6.891433E-1,7.652963E-2,4.7039548E-1,-2.668692E-1,-1.2661576E-2,-4.6356972E-2,1.4060333E-2,-4.4066336E-2,2.8328976E-2,-5.753382E-2,2.4708305E-2,-3.7596714E-2],"categories":[],"categories_nodes":[],"categories_segments":[],"categories_sizes":[],"default_left":[0,0,0,0,0,0,0,0,0,0,0,0,0,0,0],"id":11,"left_children":[1,3,5,7,9,11,13,-1,-1,-1,-1,-1,-1,-1,-1],"loss_changes":[1.2986116E1,1.4698216E1,9.146656E0,4.729271E0,1.069591E1,9.461572E0,9.305112E0,0E0,0E0,0E0,0E0,0E0,0E0,0E0,0E0],"parents":[2147483647,0,0,1,1,2,2,3,3,4,4,5,5,6,6],"right_children":[2,4,6,8,10,12,14,-1,-1,-1,-1,-1,-1,-1,-1],"split_conditions":[7.897345E2,5.204969E-1,1.5060446E3,-1.0333333E-1,9.38782E-1,1.5796625E3,9.9624574E-1,-1.2661576E-2,-4.6356972E-2,1.4060333E-2,-4.4066336E-2,2.8328976E-2,-5.753382E-2,2.4708305E-2,-3.7596714E-2],"split_indices":[41,40,25,3,27,39,43,0,0,0,0,0,0,0,0],"split_type":[0,0,0,0,0,0,0,0,0,0,0,0,0,0,0],"sum_hessian":[1.7784166E2,9.914102E1,7.870064E1,4.684843E1,5.2292595E1,5.5500465E1,2.320017E1,1.7273834E1,2.9574594E1,4.3667946E1,8.62465E0,5.3005924E1,2.4945416E0,9.023745E0,1.4176426E1],"tree_param":{"num_deleted":"0","num_feature":"46","num_nodes":"15","size_leaf_vector":"1"}},{"base_weights":[-2.7196603E-2,-2.0008428E-1,4.7061038E-1,-5.7522106E-1,6.19989E-2,7.3642224E-1,-4.982443E-2,4.541022E-2,-3.355528E-2,7.7020437E-3,-6.0252827E-2,4.0064093E-2,-2.8751034E-2,2.3355778E-2,-5.9625138E-2],"categories":[],"categories_nodes":[],"categories_segments":[],"categories_sizes":[],"default_left":[0,0,0,0,0,0,0,0,0,0,0,0,0,0,0],"id":12,"left_children":[1,3,5,7,9,11,13,-1,-1,-1,-1,-1,-1,-1,-1],"loss_changes":[1.613907E1,1.3708979E1,6.725978E0,8.759306E0,9.839222E0,3.1886597E0,1.0766778E1,0E0,0E0,0E0,0E0,0E0,0E0,0E0,0E0],"parents":[2147483647,0,0,1,1,2,2,3,3,4,4,5,5,6,6],"right_children":[2,4,6,8,10,12,14,-1,-1,-1,-1,-1,-1,-1,-1],"split_conditions":[8.4395447E2,5.19389E-1,1.502936E3,-8.75114E1,1.4493689E2,1.587951E3,1.01944774E-1,4.541022E-2,-3.355528E-2,7.7020437E-3,-6.0252827E-2,4.0064093E-2,-2.8751034E-2,2.3355778E-2,-5.9625138E-2],"split_indices":[41,40,25,30,30,39,2,0,0,0,0,0,0,0,0],"split_type":[0,0,0,0,0,0,0,0,0,0,0,0,0,0,0],"sum_hessian":[1.8542847E2,1.3807372E2,4.7354744E1,5.6297142E1,8.177657E1,3.1070492E1,1.6284254E1,2.9036129E0,5.339353E1,7.705737E1,4.719208E0,2.9976938E1,1.0935533E0,1.1619073E1,4.66518E0],"tree_param":{"num_deleted":"0","num_feature":"46","num_nodes":"15","size_leaf_vector":"1"}},{"base_weights":[5.3881012E-2,-1.8270804E-1,3.1429186E-1,-5.226252E-1,5.992122E-2,-6.137119E-2,3.724704E-1,9.212175E-3,-3.947283E-2,1.2787384E-2,-3.8999237E-2,7.426895E-3,3.7921023E-2],"categories":[],"categories_nodes":[],"categories_segments":[],"categories_sizes":[],"default_left":[0,0,0,0,0,0,0,0,0,0,0,0,0],"id":13,"left_children":[1,3,5,7,9,-1,11,-1,-1,-1,-1,-1,-1],"loss_changes":[1.1078929E1,7.8139467E0,8.128381E0,7.5779285E0,9.403419E0,0E0,7.076564E0,0E0,0E0,0E0,0E0,0E0,0E0],"parents":[2147483647,0,0,1,1,2,2,3,3,4,4,6,6],"right_children":[2,4,6,8,10,-1,12,-1,-1,-1,-1,-1,-1],"split_conditions":[7.880382E2,5.19389E-1,1.4177421E3,-1.8E-1,9.38782E-1,-6.137119E-2,5.592204E-1,9.212175E-3,-3.947283E-2,1.2787384E-2,-3.8999237E-2,7.426895E-3,3.7921023E-2],"split_indices":[41,40,39,3,27,0,40,0,0,0,0,0,0],"split_type":[0,0,0,0,0,0,0,0,0,0,0,0,0],"sum_hessian":[1.7789046E2,9.336482E1,8.4525635E1,3.8405598E1,5.4959225E1,2.3428626E0,8.218277E1,1.0609434E1,2.7796164E1,4.513206E1,9.827165E0,5.2883842E1,2.9298927E1],"tree_param":{"num_deleted":"0","num_feature":"46","num_nodes":"13","size_leaf_vector":"1"}},{"base_weights":[-5.6936186E-2,-1.8883748E-1,7.0660657E-1,-4.6623653E-1,1.7029393E-1,9.527055E-1,-1.0712911E-1,-3.50124E-2,-1.0880284E-2,-2.7191121E-2,1.9282822E-2,-4.522281E-3,5.6854267E-2,-3.8385678E-2,4.485173E-2],"categories":[],"categories_nodes":[],"categories_segments":[],"categories_sizes":[],"default_left":[0,0,0,0,0,0,0,0,0,0,0,0,0,0,0],"id":14,"left_children":[1,3,5,7,9,11,13,-1,-1,-1,-1,-1,-1,-1,-1],"loss_changes":[1.803608E1,1.5258394E1,5.3880014E0,4.8648167E0,1.0534349E1,4.0202236E0,5.3506336E0,0E0,0E0,0E0,0E0,0E0,0E0,0E0,0E0],"parents":[2147483647,0,0,1,1,2,2,3,3,4,4,5,5,6,6],"right_children":[2,4,6,8,10,12,14,-1,-1,-1,-1,-1,-1,-1,-1],"split_conditions":[9.497994E2,5.338164E-1,1.5037787E3,2.9659625E-3,6.8167584E2,4.5308924E-1,1.5139224E3,-3.50124E-2,-1.0880284E-2,-2.7191121E-2,1.9282822E-2,-4.522281E-3,5.6854267E-2,-3.8385678E-2,4.485173E-2],"split_indices":[41,40,25,2,41,40,39,0,0,0,0,0,0,0,0],"split_type":[0,0,0,0,0,0,0,0,0,0,0,0,0,0,0],"sum_hessian":[1.7676031E2,1.5136485E2,2.5395454E1,8.523201E1,6.613285E1,1.9367378E1,6.0280757E0,4.2971134E1,4.226087E1,1.496976E1,5.116309E1,2.9855762E0,1.6381802E1,3.778124E0,2.2499516E0],"tree_param":{"num_deleted":"0","num_feature":"46","num_nodes":"15","size_leaf_vector":"1"}},{"base_weights":[4.212267E-2,-1.2022242E-1,5.065767E-1,-8.1555337E-1,-3.3815823E-2,2.3480129E-1,1.1175194E0,-5.0461788E-2,3.4134753E-2,-1.1613713E-2,1.5487413E-2,2.4707306E-3,6.153999E-2,6.462326E-2,-2.1355063E-2],"categories":[],"categories_nodes":[],"categories_segments":[],"categories_sizes":[],"default_left":[0,0,0,0,0,0,0,0,0,0,0,0,0,0,0],"id":15,"left_children":[1,3,5,7,9,11,13,-1,-1,-1,-1,-1,-1,-1,-1],"loss_changes":[1.3696424E1,8.071846E0,7.546438E0,5.000347E0,8.318755E0,6.1831713E0,4.3929462E0,0E0,0E0,0E0,0E0,0E0,0E0,0E0,0E0],"parents":[2147483647,0,0,1,1,2,2,3,3,4,4,5,5,6,6],"right_children":[2,4,6,8,10,12,14,-1,-1,-1,-1,-1,-1,-1,-1],"split_conditions":[8.4395447E2,1.4752155E3,2.842171E-14,2.533272E2,5.520422E-1,1.5382325E3,1.2E1,-5.0461788E-2,3.4134753E-2,-1.1613713E-2,1.5487413E-2,2.4707306E-3,6.153999E-2,6.462326E-2,-2.1355063E-2],"split_indices":[41,25,9,45,40,39,32,0,0,0,0,0,0,0,0],"split_type":[0,0,0,0,0,0,0,0,0,0,0,0,0,0,0],"sum_hessian":[1.7983807E2,1.3380801E2,4.6030052E1,1.385727E1,1.19950745E2,3.2816216E1,1.3213836E1,1.2559998E1,1.2972733E0,7.623679E1,4.3713955E1,2.8551495E1,4.2647195E0,1.2016121E1,1.1977146E0],"tree_param":{"num_deleted":"0","num_feature":"46","num_nodes":"15","size_leaf_vector":"1"}},{"base_weights":[-5.14464E-2,-5.683542E-1,5.9056614E-2,-7.953409E-1,3.639933E-1,-3.613619E-1,2.2758089E-1,-4.7796912E-2,1.8437348E-2,-3.5429634E-2,3.822277E-2,9.456138E-3,-3.7050676E-2,2.2265196E-2,-4.0913476E-3],"categories":[],"categories_nodes":[],"categories_segments":[],"categories_sizes":[],"default_left":[0,0,0,0,0,0,0,0,0,0,0,0,0,0,0],"id":16,"left_children":[1,3,5,7,9,11,13,-1,-1,-1,-1,-1,-1,-1,-1],"loss_changes":[1.015633E1,6.915019E0,1.0491108E1,5.1180973E0,3.4692152E0,9.006655E0,7.1426325E0,0E0,0E0,0E0,0E0,0E0,0E0,0E0,0E0],"parents":[2147483647,0,0,1,1,2,2,3,3,4,4,5,5,6,6],"right_children":[2,4,6,8,10,12,14,-1,-1,-1,-1,-1,-1,-1,-1],"split_conditions":[6.560809E2,5.823452E-1,4.9275362E-1,1.520478E3,-8.3333336E-2,-1.4666666E-1,1.502936E3,-4.7796912E-2,1.8437348E-2,-3.5429634E-2,3.822277E-2,9.456138E-3,-3.7050676E-2,2.2265196E-2,-4.0913476E-3],"split_indices":[41,40,40,25,4,3,25,0,0,0,0,0,0,0,0],"split_type":[0,0,0,0,0,0,0,0,0,0,0,0,0,0,0],"sum_hessian":[1.762197E2,3.0307028E1,1.4591266E2,2.4491375E1,5.815654E0,4.1425056E1,1.0448761E2,2.167931E1,2.8120646E0,1.3718617E0,4.443792E0,1.711321E1,2.4311846E1,6.1072857E1,4.341475E1],"tree_param":{"num_deleted":"0","num_feature":"46","num_nodes":"15","size_leaf_vector":"1"}},{"base_weights":[-5.0613873E-2,-1.4337806E-1,4.120303E-1,-3.9303887E-1,1.2233071E-1,-4.809394E-2,5.13748E-1,-6.1483466E-4,-3.0784851E-2,-2.6098177E-2,2.3094809E-2,-2.2641849E-2,3.6567885E-2],"categories":[],"categories_nodes":[],"categories_segments":[],"categories_sizes":[],"default_left":[0,0,0,0,0,0,0,0,0,0,0,0,0],"id":17,"left_children":[1,3,5,7,9,-1,11,-1,-1,-1,-1,-1,-1],"loss_changes":[7.7235913E0,9.965726E0,4.6987386E0,6.547E0,1.6252922E1,0E0,6.360357E0,0E0,0E0,0E0,0E0,0E0,0E0],"parents":[2147483647,0,0,1,1,2,2,3,3,4,4,6,6],"right_children":[2,4,6,8,10,-1,12,-1,-1,-1,-1,-1,-1],"split_conditions":[9.007051E2,5.304348E-1,-2.239687E0,-1.3666667E-1,2.038423E0,-4.809394E-2,4.557721E-1,-6.1483466E-4,-3.0784851E-2,-2.6098177E-2,2.3094809E-2,-2.2641849E-2,3.6567885E-2],"split_indices":[41,40,27,4,45,0,40,0,0,0,0,0,0],"split_type":[0,0,0,0,0,0,0,0,0,0,0,0,0],"sum_hessian":[1.7759004E2,1.4850383E2,2.908622E1,7.631696E1,7.218687E1,1.4220546E0,2.7664165E1,2.8550776E1,4.7766186E1,2.4728899E1,4.745797E1,4.884977E0,2.2779188E1],"tree_param":{"num_deleted":"0","num_feature":"46","num_nodes":"13","size_leaf_vector":"1"}},{"base_weights":[3.5139509E-3,-4.812858E-1,1.2705107E-1,6.288784E-2,-8.170615E-1,3.5424146E-1,-2.2495486E-1,-4.442929E-2,3.688841E-2,-5.107633E-2,1.4311529E-2,5.1635094E-2,1.2287407E-2,-2.6007285E-2,1.7523317E-2],"categories":[],"categories_nodes":[],"categories_segments":[],"categories_sizes":[],"default_left":[0,0,0,0,0,0,0,0,0,0,0,0,0,0,0],"id":18,"left_children":[1,3,5,7,9,11,13,-1,-1,-1,-1,-1,-1,-1,-1],"loss_changes":[1.0890732E1,6.7990704E0,1.166714E1,1.0300452E1,5.4603004E0,6.256666E0,9.94004E0,0E0,0E0,0E0,0E0,0E0,0E0,0E0,0E0],"parents":[2147483647,0,0,1,1,2,2,3,3,4,4,5,5,6,6],"right_children":[2,4,6,8,10,12,14,-1,-1,-1,-1,-1,-1,-1,-1],"split_conditions":[6.8167584E2,-1.3932617E-1,1.502936E3,1.160912E1,6.2095875E-1,1.4487786E3,1.8666667E-1,-4.442929E-2,3.688841E-2,-5.107633E-2,1.4311529E-2,5.1635094E-2,1.2287407E-2,-2.6007285E-2,1.7523317E-2],"split_indices":[41,27,25,45,40,39,3,0,0,0,0,0,0,0,0],"split_type":[0,0,0,0,0,0,0,0,0,0,0,0,0,0,0],"sum_hessian":[1.7982227E2,3.5929066E1,1.438932E2,1.4020119E1,2.1908947E1,8.744707E1,5.6446125E1,5.68646E0,8.333658E0,1.8546053E1,3.3628936E0,1.0881473E1,7.65656E1,3.737092E1,1.9075209E1],"tree_param":{"num_deleted":"0","num_feature":"46","num_nodes":"15","size_leaf_vector":"1"}},{"base_weights":[1.7532682E-2,-4.4141737E-1,1.5120041E-1,1.552964E-1,-7.788532E-1,2.7069333E-1,-4.3248734E-1,-4.1051555E-2,2.5890961E-2,-5.6337584E-2,-2.3121076E-2,9.663666E-3,6.444319E-2,-3.927453E-2,2.2163916E-2],"categories":[],"categories_nodes":[],"categories_segments":[],"categories_sizes":[],"default_left":[0,0,0,0,0,0,0,0,0,0,0,0,0,0,0],"id":19,"left_children":[1,3,5,7,9,11,13,-1,-1,-1,-1,-1,-1,-1,-1],"loss_changes":[1.0880142E1,8.177656E0,9.690047E0,5.8359556E0,2.310996E0,8.780109E0,7.677709E0,0E0,0E0,0E0,0E0,0E0,0E0,0E0,0E0],"parents":[2147483647,0,0,1,1,2,2,3,3,4,4,5,5,6,6],"right_children":[2,4,6,8,10,12,14,-1,-1,-1,-1,-1,-1,-1,-1],"split_conditions":[4.6113306E-1,-1.3E-1,8.819347E-1,1.481571E3,1E1,1.546983E3,1.8865181E1,-4.1051555E-2,2.5890961E-2,-5.6337584E-2,-2.3121076E-2,9.663666E-3,6.444319E-2,-3.927453E-2,2.2163916E-2],"split_indices":[40,3,27,25,32,39,30,0,0,0,0,0,0,0,0],"split_type":[0,0,0,0,0,0,0,0,0,0,0,0,0,0,0],"sum_hessian":[1.7526666E2,3.9012917E1,1.3625375E2,1.4287321E1,2.4725597E1,1.1354498E2,2.2708763E1,3.5261388E0,1.0761182E1,1.0557465E1,1.4168133E1,1.0662706E2,6.917925E0,1.6258411E1,6.450352E0],"tree_param":{"num_deleted":"0","num_feature":"46","num_nodes":"15","size_leaf_vector":"1"}},{"base_weights":[6.747345E-3,-1.9150618E-1,2.4026127E-1,-3.3921528E-1,4.143427E-1,5.899274E-1,8.869994E-2,6.213253E-4,-3.073207E-2,-3.783309E-2,2.8252993E-2,-3.9839935E-2,4.816275E-2,-2.6790831E-2,1.54703995E-2],"categories":[],"categories_nodes":[],"categories_segments":[],"categories_sizes":[],"default_left":[0,0,0,0,0,0,0,0,0,0,0,0,0,0,0],"id":20,"left_children":[1,3,5,7,9,11,13,-1,-1,-1,-1,-1,-1,-1,-1],"loss_changes":[8.504203E0,9.032915E0,4.41705E0,7.798358E0,3.9446228E0,1.3877891E1,8.437358E0,0E0,0E0,0E0,0E0,0E0,0E0,0E0,0E0],"parents":[2147483647,0,0,1,1,2,2,3,3,4,4,5,5,6,6],"right_children":[2,4,6,8,10,12,14,-1,-1,-1,-1,-1,-1,-1,-1],"split_conditions":[7.897345E2,5.7763976E-1,1.4914691E3,-2.4071536E0,1.4853359E3,4.557721E-1,1.4982528E3,6.213253E-4,-3.073207E-2,-3.783309E-2,2.8252993E-2,-3.9839935E-2,4.816275E-2,-2.6790831E-2,1.54703995E-2],"split_indices":[41,40,26,8,26,40,26,0,0,0,0,0,0,0,0],"split_type":[0,0,0,0,0,0,0,0,0,0,0,0,0,0,0],"sum_hessian":[1.8170221E2,9.8367775E1,8.3334435E1,7.9439995E1,1.8927784E1,2.432411E1,5.9010323E1,3.5311718E1,4.4128273E1,1.6999013E0,1.7227882E1,4.9188223E0,1.9405289E1,1.5036175E1,4.3974148E1],"tree_param":{"num_deleted":"0","num_feature":"46","num_nodes":"15","size_leaf_vector":"1"}},{"base_weights":[-2.8204666E-3,-3.518968E-1,1.2842661E-1,-6.9604707E-1,8.360827E-2,3.5685144E-2,9.258457E-1,3.4108862E-2,-4.172791E-2,-6.259029E-2,1.44232735E-2,1.799472E-2,-8.057155E-3,-3.7953105E-2,5.765767E-2],"categories":[],"categories_nodes":[],"categories_segments":[],"categories_sizes":[],"default_left":[0,0,0,0,0,0,0,0,0,0,0,0,0,0,0],"id":21,"left_children":[1,3,5,7,9,11,13,-1,-1,-1,-1,-1,-1,-1,-1],"loss_changes":[8.327026E0,7.5013714E0,9.73661E0,5.885353E0,6.6022744E0,7.676148E0,6.131222E0,0E0,0E0,0E0,0E0,0E0,0E0,0E0,0E0],"parents":[2147483647,0,0,1,1,2,2,3,3,4,4,5,5,6,6],"right_children":[2,4,6,8,10,12,14,-1,-1,-1,-1,-1,-1,-1,-1],"split_conditions":[4.9192548E-1,7.8175183E2,1.5448785E3,-8.0048636E-2,1.4768114E3,-3.2166454E-1,-3.2668855E0,3.4108862E-2,-4.172791E-2,-6.259029E-2,1.44232735E-2,1.799472E-2,-8.057155E-3,-3.7953105E-2,5.765767E-2],"split_indices":[40,41,39,44,26,29,5,0,0,0,0,0,0,0,0],"split_type":[0,0,0,0,0,0,0,0,0,0,0,0,0,0,0],"sum_hessian":[1.797659E2,4.866117E1,1.3110472E2,2.6847303E1,2.1813866E1,1.1838147E2,1.2723256E1,2.0933025E0,2.4754002E1,2.2215428E0,1.9592323E1,4.4407074E1,7.3974396E1,1.2343485E0,1.1488907E1],"tree_param":{"num_deleted":"0","num_feature":"46","num_nodes":"15","size_leaf_vector":"1"}},{"base_weights":[1.3316472E-2,-1.7531228E-1,4.0677455E-1,2.2784165E-1,-3.4078693E-1,-2.714878E-1,6.0582274E-1,-3.2313678E-3,5.1014867E-2,4.7928374E-2,-1.984773E-2,2.4595082E-2,-4.601118E-2,-4.993479E-3,4.3499313E-2],"categories":[],"categories_nodes":[],"categories_segments":[],"categories_sizes":[],"default_left":[0,0,0,0,0,0,0,0,0,0,0,0,0,0,0],"id":22,"left_children":[1,3,5,7,9,11,13,-1,-1,-1,-1,-1,-1,-1,-1],"loss_changes":[1.313775E1,8.063231E0,7.907548E0,8.278344E0,6.6035976E0,7.2389536E0,8.410475E0,0E0,0E0,0E0,0E0,0E0,0E0,0E0,0E0],"parents":[2147483647,0,0,1,1,2,2,3,3,4,4,5,5,6,6],"right_children":[2,4,6,8,10,12,14,-1,-1,-1,-1,-1,-1,-1,-1],"split_conditions":[5.615942E-1,-4.47153E0,-5.900095E0,1.5333334E-1,-6.0586494E1,1.4999058E3,-4.3333333E-2,-3.2313678E-3,5.1014867E-2,4.7928374E-2,-1.984773E-2,2.4595082E-2,-4.601118E-2,-4.993479E-3,4.3499313E-2],"split_indices":[40,8,45,3,1,26,4,0,0,0,0,0,0,0,0],"split_type":[0,0,0,0,0,0,0,0,0,0,0,0,0,0,0],"sum_hessian":[1.75056E2,1.1870281E2,5.6353188E1,3.443362E1,8.426919E1,1.2703095E1,4.3650093E1,2.582202E1,8.611601E0,2.8260725E0,8.1443115E1,5.9469132E0,6.756182E0,1.2058552E1,3.1591541E1],"tree_param":{"num_deleted":"0","num_feature":"46","num_nodes":"15","size_leaf_vector":"1"}},{"base_weights":[-1.6647043E-2,-3.726767E-1,1.383953E-1,-1.3938719E-1,-1.0193381E0,6.746711E-2,1.1283574E0,4.541117E-2,-1.3906066E-2,-7.834467E-2,-2.3084907E-2,5.3569388E-2,6.751625E-4,1.6414799E-3,7.157843E-2],"categories":[],"categories_nodes":[],"categories_segments":[],"categories_sizes":[],"default_left":[0,0,0,0,0,0,0,0,0,0,0,0,0,0,0],"id":23,"left_children":[1,3,5,7,9,11,13,-1,-1,-1,-1,-1,-1,-1,-1],"loss_changes":[1.0119253E1,8.245822E0,8.896502E0,6.3595443E0,3.7291088E0,6.503157E0,2.7697887E0,0E0,0E0,0E0,0E0,0E0,0E0,0E0,0E0],"parents":[2147483647,0,0,1,1,2,2,3,3,4,4,5,5,6,6],"right_children":[2,4,6,8,10,12,14,-1,-1,-1,-1,-1,-1,-1,-1],"split_conditions":[7.209943E2,6.319205E-1,9.9588774E-2,1.4543365E3,1.4515407E0,1.4728577E3,-1.40164795E1,4.541117E-2,-1.3906066E-2,-7.834467E-2,-2.3084907E-2,5.3569388E-2,6.751625E-4,1.6414799E-3,7.157843E-2],"split_indices":[41,29,31,39,28,38,9,0,0,0,0,0,0,0,0],"split_type":[0,0,0,0,0,0,0,0,0,0,0,0,0,0,0],"sum_hessian":[1.8138655E2,5.460084E1,1.2678571E2,4.1018543E1,1.3582296E1,1.1930591E2,7.4798036E0,4.1481895E0,3.6870354E1,5.939925E0,7.6423707E0,5.124173E0,1.1418173E2,1.861677E0,5.6181264E0],"tree_param":{"num_deleted":"0","num_feature":"46","num_nodes":"15","size_leaf_vector":"1"}},{"base_weights":[-6.085301E-4,-9.80537E-2,5.9596443E-1,-6.531463E-2,-6.1424315E-2,7.696726E-1,-3.312873E-1,3.97678E-4,-3.79882E-2,5.754856E-2,1.6045991E-2,-4.9122386E-2,3.2050543E-2],"categories":[],"categories_nodes":[],"categories_segments":[],"categories_sizes":[],"default_left":[0,0,0,0,0,0,0,0,0,0,0,0,0],"id":24,"left_children":[1,3,5,-1,7,9,11,-1,-1,-1,-1,-1,-1],"loss_changes":[1.0289542E1,6.653125E0,4.257948E0,0E0,7.211175E0,3.2635984E0,3.5549326E0,0E0,0E0,0E0,0E0,0E0,0E0],"parents":[2147483647,0,0,1,1,2,2,4,4,5,5,6,6],"right_children":[2,4,6,-1,8,10,12,-1,-1,-1,-1,-1,-1],"split_conditions":[9.497994E2,1.4658792E3,1.93041E0,-6.531463E-2,9.155319E1,-1.7666666E-1,1.1E1,3.97678E-4,-3.79882E-2,5.754856E-2,1.6045991E-2,-4.9122386E-2,3.2050543E-2],"split_indices":[41,26,13,0,30,4,32,0,0,0,0,0,0],"split_type":[0,0,0,0,0,0,0,0,0,0,0,0,0],"sum_hessian":[1.7499431E2,1.5114215E2,2.3852158E1,3.4273355E0,1.4771481E2,2.0231922E1,3.6202357E0,1.3526524E2,1.2449571E1,1.0092041E1,1.0139882E1,2.161927E0,1.4583086E0],"tree_param":{"num_deleted":"0","num_feature":"46","num_nodes":"13","size_leaf_vector":"1"}},{"base_weights":[-3.1942774E-2,1.31811155E-2,-9.7018486E-1,-1.7980142E-1,2.5068295E-1,1.525853E-2,-1.2773621E0,7.2265463E-3,-2.261426E-2,5.220362E-3,3.9209988E-2,-7.5551E-2,-2.1518916E-2],"categories":[],"categories_nodes":[],"categories_segments":[],"categories_sizes":[],"default_left":[0,0,0,0,0,0,0,0,0,0,0,0,0],"id":25,"left_children":[1,3,5,7,9,-1,11,-1,-1,-1,-1,-1,-1],"loss_changes":[7.637107E0,7.9655423E0,3.6324263E0,8.54254E0,5.996422E0,0E0,7.079582E-1,0E0,0E0,0E0,0E0,0E0,0E0],"parents":[2147483647,0,0,1,1,2,2,3,3,4,4,6,6],"right_children":[2,4,6,8,10,-1,12,-1,-1,-1,-1,-1,-1],"split_conditions":[1.4943712E2,7.897345E2,1.481571E3,-1.9024601E0,7.6365185E0,1.525853E-2,1.5850203E3,7.2265463E-3,-2.261426E-2,5.220362E-3,3.9209988E-2,-7.5551E-2,-2.1518916E-2],"split_indices":[30,41,25,8,30,0,38,0,0,0,0,0,0],"split_type":[0,0,0,0,0,0,0,0,0,0,0,0,0],"sum_hessian":[1.7908585E2,1.7180882E2,7.2770357E0,9.49224E1,7.688641E1,1.4137759E0,5.86326E0,4.3552387E1,5.1370018E1,6.1280636E1,1.5605779E1,3.981014E0,1.8822458E0],"tree_param":{"num_deleted":"0","num_feature":"46","num_nodes":"13","size_leaf_vector":"1"}},{"base_weights":[2.1525886E-2,-1.1273931E-1,4.0012157E-1,-8.983028E-1,-1.6968943E-2,8.8273615E-1,1.9189867E-1,-5.6980904E-2,-3.8828522E-3,-3.7281338E-2,4.036899E-3,6.806323E-2,1.5202699E-3,-7.32063E-2,2.0566965E-2],"categories":[],"categories_nodes":[],"categories_segments":[],"categories_sizes":[],"default_left":[0,0,0,0,0,0,0,0,0,0,0,0,0,0,0],"id":26,"left_children":[1,3,5,7,9,11,13,-1,-1,-1,-1,-1,-1,-1,-1],"loss_changes":[8.916669E0,9.736254E0,4.444185E0,2.6969547E0,8.358007E0,5.489192E0,1.2721734E1,0E0,0E0,0E0,0E0,0E0,0E0,0E0,0E0],"parents":[2147483647,0,0,1,1,2,2,3,3,4,4,5,5,6,6],"right_children":[2,4,6,8,10,12,14,-1,-1,-1,-1,-1,-1,-1,-1],"split_conditions":[8.4395447E2,1.4752155E3,1.4925093E3,1.5424424E3,5.903272E2,1.515012E3,1.495553E3,-5.6980904E-2,-3.8828522E-3,-3.7281338E-2,4.036899E-3,6.806323E-2,1.5202699E-3,-7.32063E-2,2.0566965E-2],"split_indices":[41,25,26,38,41,39,26,0,0,0,0,0,0,0,0],"split_type":[0,0,0,0,0,0,0,0,0,0,0,0,0,0,0],"sum_hessian":[1.7352628E2,1.2861607E2,4.49102E1,1.3065511E1,1.1555057E2,1.25598545E1,3.235034E1,9.796202E0,3.2693086E0,1.2878298E1,1.0267227E2,7.6613784E0,4.898476E0,3.1215153E0,2.9228828E1],"tree_param":{"num_deleted":"0","num_feature":"46","num_nodes":"15","size_leaf_vector":"1"}},{"base_weights":[1.2712238E-2,-5.7495636E-1,1.1122781E-1,7.045452E-1,-8.027686E-1,-4.201836E-1,2.5638062E-1,-1.8134613E-2,5.8225255E-2,-5.2722957E-2,-8.391864E-3,-9.826931E-3,-5.768462E-2,4.806138E-3,2.9203355E-2],"categories":[],"categories_nodes":[],"categories_segments":[],"categories_sizes":[],"default_left":[0,0,0,0,0,0,0,0,0,0,0,0,0,0,0],"id":27,"left_children":[1,3,5,7,9,11,13,-1,-1,-1,-1,-1,-1,-1,-1],"loss_changes":[1.05732565E1,8.209424E0,1.2164169E1,2.6293688E0,3.4550495E0,5.336445E0,6.423545E0,0E0,0E0,0E0,0E0,0E0,0E0,0E0,0E0],"parents":[2147483647,0,0,1,1,2,2,3,3,4,4,5,5,6,6],"right_children":[2,4,6,8,10,12,14,-1,-1,-1,-1,-1,-1,-1,-1],"split_conditions":[4.5308924E-1,-7.9744536E-1,6.84553E2,1.4901168E3,5.716744E-1,8.10657E-1,2.1666667E-1,-1.8134613E-2,5.8225255E-2,-5.2722957E-2,-8.391864E-3,-9.826931E-3,-5.768462E-2,4.806138E-3,2.9203355E-2],"split_indices":[40,27,41,39,27,27,3,0,0,0,0,0,0,0,0],"split_type":[0,0,0,0,0,0,0,0,0,0,0,0,0,0,0],"sum_hessian":[1.8052507E2,2.5223679E1,1.5530139E2,3.4959733E0,2.1727705E1,3.291247E1,1.22388916E2,1.1166043E0,2.379369E0,1.5086559E1,6.6411467E0,2.6193947E1,6.7185264E0,8.306071E1,3.932821E1],"tree_param":{"num_deleted":"0","num_feature":"46","num_nodes":"15","size_leaf_vector":"1"}},{"base_weights":[1.2416502E-3,-8.08268E-2,6.2026596E-1,-3.745789E-1,1.11008205E-1,-3.7325617E-2,7.412286E-1,6.5736845E-2,-2.3031367E-2,1.1838172E-2,-3.4757584E-2,1.4067211E-3,4.920485E-2],"categories":[],"categories_nodes":[],"categories_segments":[],"categories_sizes":[],"default_left":[0,0,0,0,0,0,0,0,0,0,0,0,0],"id":28,"left_children":[1,3,5,7,9,-1,11,-1,-1,-1,-1,-1,-1],"loss_changes":[9.01577E0,8.87232E0,3.9878402E0,9.63801E0,9.853361E0,0E0,3.3644562E0,0E0,0E0,0E0,0E0,0E0,0E0],"parents":[2147483647,0,0,1,1,2,2,3,3,4,4,6,6],"right_children":[2,4,6,8,10,-1,12,-1,-1,-1,-1,-1,-1],"split_conditions":[9.8443024E2,5.19389E-1,-2.239687E0,-8.84814E-2,9.9682325E-1,-3.7325617E-2,-4.7E-1,6.5736845E-2,-2.3031367E-2,1.1838172E-2,-3.4757584E-2,1.4067211E-3,4.920485E-2],"split_indices":[41,40,27,44,27,0,4,0,0,0,0,0,0],"split_type":[0,0,0,0,0,0,0,0,0,0,0,0,0],"sum_hessian":[1.7548065E2,1.5570691E2,1.9773743E1,6.11369E1,9.457001E1,1.1872591E0,1.8586483E1,2.2711096E0,5.8865795E1,8.2419464E1,1.2150546E1,5.005501E0,1.3580983E1],"tree_param":{"num_deleted":"0","num_feature":"46","num_nodes":"13","size_leaf_vector":"1"}},{"base_weights":[1.8041028E-2,-1.0408158E-1,3.466946E-1,-6.851901E-1,1.3038614E-2,1.5722003E-2,7.5064903E-1,-5.8199115E-2,-1.2178077E-2,3.527521E-2,-5.104355E-3,4.7322817E-2,-1.7369164E-2,4.58115E-2,-4.697665E-2],"categories":[],"categories_nodes":[],"categories_segments":[],"categories_sizes":[],"default_left":[0,0,0,0,0,0,0,0,0,0,0,0,0,0,0],"id":29,"left_children":[1,3,5,7,9,11,13,-1,-1,-1,-1,-1,-1,-1,-1],"loss_changes":[7.046747E0,8.728724E0,6.3458695E0,4.2646227E0,8.6508045E0,9.507209E0,6.8481283E0,0E0,0E0,0E0,0E0,0E0,0E0,0E0,0E0],"parents":[2147483647,0,0,1,1,2,2,3,3,4,4,5,5,6,6],"right_children":[2,4,6,8,10,12,14,-1,-1,-1,-1,-1,-1,-1,-1],"split_conditions":[5.652174E-1,6.560809E2,3E-2,7.269127E-4,-6.6770244E0,-5.733333E-1,8.8E-1,-5.8199115E-2,-1.2178077E-2,3.527521E-2,-5.104355E-3,4.7322817E-2,-1.7369164E-2,4.58115E-2,-4.697665E-2],"split_indices":[40,41,3,31,8,3,3,0,0,0,0,0,0,0,0],"split_type":[0,0,0,0,0,0,0,0,0,0,0,0,0,0,0],"sum_hessian":[1.7367255E2,1.2712002E2,4.655253E1,2.0509398E1,1.0661062E2,2.6158756E1,2.0393772E1,9.05584E0,1.1453559E1,1.4466781E1,9.214384E1,6.8903685E0,1.9268389E1,1.8991186E1,1.4025859E0],"tree_param":{"num_deleted":"0","num_feature":"46","num_nodes":"15","size_leaf_vector":"1"}},{"base_weights":[1.2007453E-3,-1.128026E-1,6.2819314E-1,-5.337958E-1,-9.644687E-3,9.0135324E-1,1.0542197E-1,-1.0373022E-2,-5.3223874E-2,3.8909752E-2,-3.7250598E-3,-9.729683E-3,5.069927E-2,-3.4103196E-2,2.3155376E-2],"categories":[],"categories_nodes":[],"categories_segments":[],"categories_sizes":[],"default_left":[0,0,0,0,0,0,0,0,0,0,0,0,0,0,0],"id":30,"left_children":[1,3,5,7,9,11,13,-1,-1,-1,-1,-1,-1,-1,-1],"loss_changes":[1.2694696E1,6.521534E0,3.8068123E0,4.898205E0,6.2777357E0,2.3962355E0,3.276197E0,0E0,0E0,0E0,0E0,0E0,0E0,0E0,0E0],"parents":[2147483647,0,0,1,1,2,2,3,3,4,4,5,5,6,6],"right_children":[2,4,6,8,10,12,14,-1,-1,-1,-1,-1,-1,-1,-1],"split_conditions":[9.0421387E2,6.560809E2,1.01103577E3,1.5043995E3,1.4728577E3,-1.3540659E0,1.02320447E3,-1.0373022E-2,-5.3223874E-2,3.8909752E-2,-3.7250598E-3,-9.729683E-3,5.069927E-2,-3.4103196E-2,2.3155376E-2],"split_indices":[41,41,41,26,38,27,41,0,0,0,0,0,0,0,0],"split_type":[0,0,0,0,0,0,0,0,0,0,0,0,0,0,0],"sum_hessian":[1.7560843E2,1.4928471E2,2.6323713E1,2.855906E1,1.2072566E2,1.6813883E1,9.509829E0,1.854562E1,1.001344E1,8.345887E0,1.1237977E2,1.4991335E0,1.531475E1,2.687065E0,6.822764E0],"tree_param":{"num_deleted":"0","num_feature":"46","num_nodes":"15","size_leaf_vector":"1"}},{"base_weights":[2.8175712E-2,-4.5352817E-1,1.3009216E-1,-7.105629E-1,4.3265036E-1,3.0828154E-1,-1.4220786E-1,-2.4770116E-2,-6.679728E-2,-2.0621251E-2,4.3893017E-2,3.8914632E-3,3.4551613E-2,2.3103023E-2,-1.8302046E-2],"categories":[],"categories_nodes":[],"categories_segments":[],"categories_sizes":[],"default_left":[0,0,0,0,0,0,0,0,0,0,0,0,0,0,0],"id":31,"left_children":[1,3,5,7,9,11,13,-1,-1,-1,-1,-1,-1,-1,-1],"loss_changes":[8.85354E0,7.4837046E0,7.2556543E0,2.675253E0,3.2609859E0,7.8986197E0,8.213508E0,0E0,0E0,0E0,0E0,0E0,0E0,0E0,0E0],"parents":[2147483647,0,0,1,1,2,2,3,3,4,4,5,5,6,6],"right_children":[2,4,6,8,10,12,14,-1,-1,-1,-1,-1,-1,-1,-1],"split_conditions":[6.592648E2,5.823452E-1,1.502936E3,6.31387E2,-1E-2,1.4946696E3,-6.034795E-2,-2.4770116E-2,-6.679728E-2,-2.0621251E-2,4.3893017E-2,3.8914632E-3,3.4551613E-2,2.3103023E-2,-1.8302046E-2],"split_indices":[41,40,25,41,4,25,2,0,0,0,0,0,0,0,0],"split_type":[0,0,0,0,0,0,0,0,0,0,0,0,0,0,0],"sum_hessian":[1.7813841E2,3.050549E1,1.4763292E2,2.3800392E1,6.7050962E0,8.915741E1,5.8475513E1,1.904142E1,4.758972E0,2.338987E0,4.3661094E0,5.640162E1,3.275579E1,1.5518059E1,4.2957455E1],"tree_param":{"num_deleted":"0","num_feature":"46","num_nodes":"15","size_leaf_vector":"1"}},{"base_weights":[-4.8407227E-2,-1.3529658E-1,4.750685E-1,-2.2658943E-1,4.1082498E-1,-5.572148E-1,7.3639727E-1,-3.9738152E-2,-5.454873E-3,-9.024076E-3,4.4480532E-2,-6.4675845E-2,1.9674923E-2,-3.4462087E-2,4.3103885E-2],"categories":[],"categories_nodes":[],"categories_segments":[],"categories_sizes":[],"default_left":[0,0,0,0,0,0,0,0,0,0,0,0,0,0,0],"id":32,"left_children":[1,3,5,7,9,11,13,-1,-1,-1,-1,-1,-1,-1,-1],"loss_changes":[7.9480977E0,7.5434046E0,7.1264863E0,8.503152E0,6.320426E0,4.428138E0,4.2310047E0,0E0,0E0,0E0,0E0,0E0,0E0,0E0,0E0],"parents":[2147483647,0,0,1,1,2,2,3,3,4,4,5,5,6,6],"right_children":[2,4,6,8,10,12,14,-1,-1,-1,-1,-1,-1,-1,-1],"split_conditions":[9.497994E2,1.546983E3,4.557721E-1,4.7940505E-1,-1.4801925E0,-1.0053586E-1,-1.5814538E0,-3.9738152E-2,-5.454873E-3,-9.024076E-3,4.4480532E-2,-6.4675845E-2,1.9674923E-2,-3.4462087E-2,4.3103885E-2],"split_indices":[41,39,40,40,28,27,27,0,0,0,0,0,0,0,0],"split_type":[0,0,0,0,0,0,0,0,0,0,0,0,0,0,0],"sum_hessian":[1.7233E2,1.484337E2,2.3896292E1,1.2767577E2,2.075793E1,4.5986753E0,1.9297617E1,2.0890078E1,1.067857E2,9.566376E0,1.1191555E1,2.3883705E0,2.2103047E0,1.2001215E0,1.8097494E1],"tree_param":{"num_deleted":"0","num_feature":"46","num_nodes":"15","size_leaf_vector":"1"}},{"base_weights":[7.4323523E-3,-1.2610671E-1,3.2757252E-1,3.9843658E-1,-2.2271258E-1,-8.0922574E-1,4.7575098E-1,-3.1532485E-2,3.4203824E-2,-8.441519E-5,-2.8683126E-2,4.6651788E-2,-8.2854584E-2,-2.3214757E-2,3.1425353E-2],"categories":[],"categories_nodes":[],"categories_segments":[],"categories_sizes":[],"default_left":[0,0,0,0,0,0,0,0,0,0,0,0,0,0,0],"id":33,"left_children":[1,3,5,7,9,11,13,-1,-1,-1,-1,-1,-1,-1,-1],"loss_changes":[7.630632E0,6.473233E0,9.233833E0,6.296777E0,8.3018E0,1.1041508E1,7.055749E0,0E0,0E0,0E0,0E0,0E0,0E0,0E0,0E0],"parents":[2147483647,0,0,1,1,2,2,3,3,4,4,5,5,6,6],"right_children":[2,4,6,8,10,12,14,-1,-1,-1,-1,-1,-1,-1,-1],"split_conditions":[2.1666667E-1,-7.3609557E0,-5.1148117E-2,-1.7257862E-1,8.907006E-3,1.4377931E3,6.5052454E2,-3.1532485E-2,3.4203824E-2,-8.441519E-5,-2.8683126E-2,4.6651788E-2,-8.2854584E-2,-2.3214757E-2,3.1425353E-2],"split_indices":[3,8,44,2,44,39,41,0,0,0,0,0,0,0,0],"split_type":[0,0,0,0,0,0,0,0,0,0,0,0,0,0,0],"sum_hessian":[1.7652296E2,1.2499167E2,5.1531292E1,1.895374E1,1.0603793E2,5.4279423E0,4.6103348E1,3.8555067E0,1.5098233E1,6.567891E1,4.035902E1,1.7439286E0,3.6840138E0,6.159421E0,3.9943928E1],"tree_param":{"num_deleted":"0","num_feature":"46","num_nodes":"15","size_leaf_vector":"1"}},{"base_weights":[-5.126717E-2,-9.4237095E-1,-1.1074668E-2,-1.1612923E0,3.3375665E-3,1.023146E0,-4.1324798E-2,-6.452995E-2,-1.289659E-2,9.230986E-3,6.515825E-2,-2.2679506E-2,2.8418892E-3],"categories":[],"categories_nodes":[],"categories_segments":[],"categories_sizes":[],"default_left":[0,0,0,0,0,0,0,0,0,0,0,0,0],"id":34,"left_children":[1,3,5,7,-1,9,11,-1,-1,-1,-1,-1,-1],"loss_changes":[6.2725444E0,1.7474499E0,5.3253174E0,3.990307E-1,0E0,8.95309E-1,6.70433E0,0E0,0E0,0E0,0E0,0E0,0E0],"parents":[2147483647,0,0,1,1,2,2,3,3,5,5,6,6],"right_children":[2,4,6,8,-1,10,12,-1,-1,-1,-1,-1,-1],"split_conditions":[1.4692542E3,5.304348E-1,1.4493733E3,1.3531188E0,3.3375665E-3,-2.7E-1,6.8167584E2,-6.452995E-2,-1.289659E-2,9.230986E-3,6.515825E-2,-2.2679506E-2,2.8418892E-3],"split_indices":[26,40,38,27,0,4,41,0,0,0,0,0,0],"split_type":[0,0,0,0,0,0,0,0,0,0,0,0,0],"sum_hessian":[1.7442537E2,6.5590444E0,1.6786632E2,5.2658615E0,1.293183E0,3.8376644E0,1.6402866E2,4.2315025E0,1.0343591E0,1.3761241E0,2.4615402E0,3.0848722E1,1.3317993E2],"tree_param":{"num_deleted":"0","num_feature":"46","num_nodes":"13","size_leaf_vector":"1"}},{"base_weights":[1.963747E-3,-1.6237566E-1,2.340595E-1,-3.0072203E-1,3.884762E-1,-7.173099E-1,2.9951924E-1,-5.096337E-2,-1.0208357E-2,4.2581446E-2,-2.13563E-2,-5.8566302E-2,2.2962859E-2,3.452548E-2,8.114341E-3],"categories":[],"categories_nodes":[],"categories_segments":[],"categories_sizes":[],"default_left":[0,0,0,0,0,0,0,0,0,0,0,0,0,0,0],"id":35,"left_children":[1,3,5,7,9,11,13,-1,-1,-1,-1,-1,-1,-1,-1],"loss_changes":[6.9253397E0,8.218195E0,4.9019575E0,5.725888E0,8.589453E0,3.2834778E0,3.7041717E0,0E0,0E0,0E0,0E0,0E0,0E0,0E0,0E0],"parents":[2147483647,0,0,1,1,2,2,3,3,4,4,5,5,6,6],"right_children":[2,4,6,8,10,12,14,-1,-1,-1,-1,-1,-1,-1,-1],"split_conditions":[8.184772E2,5.7763976E-1,-1.0489606E-1,1.4752155E3,1.1E1,1.5051937E3,-1.6666667E-1,-5.096337E-2,-1.0208357E-2,4.2581446E-2,-2.13563E-2,-5.8566302E-2,2.2962859E-2,3.452548E-2,8.114341E-3],"split_indices":[41,40,42,25,32,26,4,0,0,0,0,0,0,0,0],"split_type":[0,0,0,0,0,0,0,0,0,0,0,0,0,0,0],"sum_hessian":[1.7956859E2,1.0530556E2,7.426302E1,8.4529945E1,2.0775608E1,4.1397204E0,7.012331E1,8.881199E0,7.564875E1,1.3222709E1,7.5528984E0,2.9902794E0,1.1494408E0,1.7170622E1,5.2952682E1],"tree_param":{"num_deleted":"0","num_feature":"46","num_nodes":"15","size_leaf_vector":"1"}},{"base_weights":[4.7365706E-3,-6.1540004E-2,7.0983446E-1,2.576667E-1,-1.703734E-1,1.112961E0,-1.5603001E-1,1.26003E-3,6.706064E-2,-3.4898918E-2,1.5305463E-3,6.637619E-2,8.6598275E-3,5.5089563E-2,-5.2030604E-2],"categories":[],"categories_nodes":[],"categories_segments":[],"categories_sizes":[],"default_left":[0,0,0,0,0,0,0,0,0,0,0,0,0,0,0],"id":36,"left_children":[1,3,5,7,9,11,13,-1,-1,-1,-1,-1,-1,-1,-1],"loss_changes":[7.9951954E0,5.479162E0,5.304514E0,1.0086539E1,1.2457342E1,1.8172503E0,7.31801E0,0E0,0E0,0E0,0E0,0E0,0E0,0E0,0E0],"parents":[2147483647,0,0,1,1,2,2,3,3,4,4,5,5,6,6],"right_children":[2,4,6,8,10,12,14,-1,-1,-1,-1,-1,-1,-1,-1],"split_conditions":[1.2400695E-2,-4.8586497E0,1.5095659E3,-1.2473991E0,-2.5561042E0,7.3512435E-1,5.7947004E-1,1.26003E-3,6.706064E-2,-3.4898918E-2,1.5305463E-3,6.637619E-2,8.6598275E-3,5.5089563E-2,-5.2030604E-2],"split_indices":[42,8,25,28,45,27,8,0,0,0,0,0,0,0,0],"split_type":[0,0,0,0,0,0,0,0,0,0,0,0,0,0,0],"sum_hessian":[1.6915324E2,1.5545389E2,1.3699365E1,3.9177967E1,1.1627592E2,9.152701E0,4.546663E0,3.3099907E1,6.07806E0,3.1393055E1,8.4882866E1,7.115509E0,2.0371926E0,1.7758969E0,2.770766E0],"tree_param":{"num_deleted":"0","num_feature":"46","num_nodes":"15","size_leaf_vector":"1"}},{"base_weights":[2.501968E-2,1.726272E-1,-1.8861973E-1,-4.0303722E-1,2.971907E-1,7.8232974E-1,-2.9272088E-1,2.2239598E-2,-3.000643E-2,4.5616464E-3,3.3430424E-2,-2.7801603E-2,6.8020254E-2,-9.711598E-3,-6.474667E-2],"categories":[],"categories_nodes":[],"categories_segments":[],"categories_sizes":[],"default_left":[0,0,0,0,0,0,0,0,0,0,0,0,0,0,0],"id":37,"left_children":[1,3,5,7,9,11,13,-1,-1,-1,-1,-1,-1,-1,-1],"loss_changes":[5.603088E0,7.648288E0,7.572936E0,3.4587257E0,6.585701E0,6.4103746E0,6.297574E0,0E0,0E0,0E0,0E0,0E0,0E0,0E0,0E0],"parents":[2147483647,0,0,1,1,2,2,3,3,4,4,5,5,6,6],"right_children":[2,4,6,8,10,12,14,-1,-1,-1,-1,-1,-1,-1,-1],"split_conditions":[1.502936E3,6.729626E2,1.4750483E3,-7.4028254E0,1.4946283E3,2.1844568E1,1.19620346E2,2.2239598E-2,-3.000643E-2,4.5616464E-3,3.3430424E-2,-2.7801603E-2,6.8020254E-2,-9.711598E-3,-6.474667E-2],"split_indices":[25,41,38,45,25,45,30,0,0,0,0,0,0,0,0],"split_type":[0,0,0,0,0,0,0,0,0,0,0,0,0,0,0],"sum_hessian":[1.7564706E2,1.0399022E2,7.165684E1,1.8101122E1,8.58891E1,6.3079176E0,6.534892E1,3.1771545E0,1.4923966E1,5.6052578E1,2.983652E1,1.9142264E0,4.393691E0,6.0588593E1,4.7603292E0],"tree_param":{"num_deleted":"0","num_feature":"46","num_nodes":"15","size_leaf_vector":"1"}},{"base_weights":[-3.8278356E-2,-9.586223E-2,5.796109E-1,-5.9094828E-2,-9.373218E-1,1.0408273E0,-2.9013798E-1,-8.792545E-3,2.5998307E-2,-6.6396214E-2,1.3971344E-2,6.0759068E-2,-8.83058E-3,3.0453965E-2,-5.056661E-2],"categories":[],"categories_nodes":[],"categories_segments":[],"categories_sizes":[],"default_left":[0,0,0,0,0,0,0,0,0,0,0,0,0,0,0],"id":38,"left_children":[1,3,5,7,9,11,13,-1,-1,-1,-1,-1,-1,-1,-1],"loss_changes":[6.1916447E0,4.8518157E0,6.256457E0,1.0438274E1,3.495027E0,2.3198614E0,4.4589186E0,0E0,0E0,0E0,0E0,0E0,0E0,0E0,0E0],"parents":[2147483647,0,0,1,1,2,2,3,3,4,4,5,5,6,6],"right_children":[2,4,6,8,10,12,14,-1,-1,-1,-1,-1,-1,-1,-1],"split_conditions":[1.2400695E-2,1.4493689E2,1.5095659E3,1.8865181E1,3.4333333E-1,9.797959E-1,5.7947004E-1,-8.792545E-3,2.5998307E-2,-6.6396214E-2,1.3971344E-2,6.0759068E-2,-8.83058E-3,3.0453965E-2,-5.056661E-2],"split_indices":[42,30,25,30,3,27,8,0,0,0,0,0,0,0,0],"split_type":[0,0,0,0,0,0,0,0,0,0,0,0,0,0,0],"sum_hessian":[1.7145653E2,1.5761273E2,1.3843785E1,1.5203963E2,5.573112E0,8.917992E0,4.925793E0,1.2710729E2,2.4932327E1,4.149623E0,1.4234892E0,7.8024306E0,1.1155612E0,2.2615047E0,2.6642885E0],"tree_param":{"num_deleted":"0","num_feature":"46","num_nodes":"15","size_leaf_vector":"1"}},{"base_weights":[2.0212222E-2,1.2289434E-1,-4.1145006E-1,6.855224E-2,8.145184E-2,-7.411923E-1,7.224806E-2,6.6197426E-3,-4.0661316E-2,-4.9301565E-2,1.40848905E-2,-2.4479497E-2,2.8232003E-2],"categories":[],"categories_nodes":[],"categories_segments":[],"categories_sizes":[],"default_left":[0,0,0,0,0,0,0,0,0,0,0,0,0],"id":39,"left_children":[1,3,5,-1,7,9,11,-1,-1,-1,-1,-1,-1],"loss_changes":[7.0641313E0,6.540199E0,4.9400167E0,0E0,5.8289146E0,4.862523E0,3.9642296E0,0E0,0E0,0E0,0E0,0E0,0E0],"parents":[2147483647,0,0,1,1,2,2,4,4,5,5,6,6],"right_children":[2,4,6,-1,8,10,12,-1,-1,-1,-1,-1,-1],"split_conditions":[8.571271E-1,-8.3E-1,8.156321E2,6.855224E-2,7.1054274E-15,2.1333334E-1,-9.76445E-2,6.6197426E-3,-4.0661316E-2,-4.9301565E-2,1.40848905E-2,-2.4479497E-2,2.8232003E-2],"split_indices":[27,3,41,0,7,4,28,0,0,0,0,0,0],"split_type":[0,0,0,0,0,0,0,0,0,0,0,0,0],"sum_hessian":[1.5723407E2,1.27597084E2,2.963699E1,3.0694485E0,1.2452763E2,1.730657E1,1.233042E1,1.1862513E2,5.9024997E0,1.3993193E1,3.3133771E0,5.7617426E0,6.568677E0],"tree_param":{"num_deleted":"0","num_feature":"46","num_nodes":"13","size_leaf_vector":"1"}},{"base_weights":[3.233243E-2,7.517827E-2,-7.901801E-1,2.1321524E-2,9.091347E-1,-1.0817461E0,2.1620518E-2,-1.6172646E-3,3.7764512E-2,6.777552E-2,4.774384E-3,-6.6306315E-2,5.141079E-3],"categories":[],"categories_nodes":[],"categories_segments":[],"categories_sizes":[],"default_left":[0,0,0,0,0,0,0,0,0,0,0,0,0],"id":40,"left_children":[1,3,5,7,9,11,-1,-1,-1,-1,-1,-1,-1],"loss_changes":[6.175075E0,7.430003E0,3.5615592E0,6.2015676E0,3.5160418E0,2.2476902E0,0E0,0E0,0E0,0E0,0E0,0E0,0E0],"parents":[2147483647,0,0,1,1,2,2,3,3,4,4,5,5],"right_children":[2,4,6,8,10,12,-1,-1,-1,-1,-1,-1,-1],"split_conditions":[1.4493689E2,1.5349905E3,9.497994E2,1.2400695E-2,1.5127706E3,3.8666666E-1,2.1620518E-2,-1.6172646E-3,3.7764512E-2,6.777552E-2,4.774384E-3,-6.6306315E-2,5.141079E-3],"split_indices":[30,26,41,42,38,3,0,0,0,0,0,0,0],"split_type":[0,0,0,0,0,0,0,0,0,0,0,0,0],"sum_hessian":[1.7253732E2,1.6485823E2,7.679099E0,1.558209E2,9.037318E0,6.29343E0,1.3856689E0,1.4609459E2,9.726313E0,5.405715E0,3.6316032E0,5.1180563E0,1.1753739E0],"tree_param":{"num_deleted":"0","num_feature":"46","num_nodes":"13","size_leaf_vector":"1"}},{"base_weights":[-3.4160066E-2,-2.4394235E-1,1.0106571E-1,5.9582416E-2,-4.7125834E-1,2.2401301E-2,7.7999824E-1,2.5756205E-2,-1.9795401E-2,-1.5069097E-2,-7.1649864E-2,4.261081E-2,-2.4421753E-3,5.462841E-2,-3.8105752E-2],"categories":[],"categories_nodes":[],"categories_segments":[],"categories_sizes":[],"default_left":[0,0,0,0,0,0,0,0,0,0,0,0,0,0,0],"id":41,"left_children":[1,3,5,7,9,11,13,-1,-1,-1,-1,-1,-1,-1,-1],"loss_changes":[4.906023E0,4.701661E0,5.6083074E0,6.406794E0,5.914158E0,5.683348E0,6.0904827E0,0E0,0E0,0E0,0E0,0E0,0E0,0E0,0E0],"parents":[2147483647,0,0,1,1,2,2,3,3,4,4,5,5,6,6],"right_children":[2,4,6,8,10,12,14,-1,-1,-1,-1,-1,-1,-1,-1],"split_conditions":[5.19389E-1,-1.7681974E-1,1.5448785E3,2.7363834E-3,1.5236736E3,-5.5905538E0,9.2046505E-1,2.5756205E-2,-1.9795401E-2,-1.5069097E-2,-7.1649864E-2,4.261081E-2,-2.4421753E-3,5.462841E-2,-3.8105752E-2],"split_indices":[40,27,39,44,26,13,27,0,0,0,0,0,0,0,0],"split_type":[0,0,0,0,0,0,0,0,0,0,0,0,0,0,0],"sum_hessian":[1.7107323E2,6.673697E1,1.0433626E2,2.8894001E1,3.7842968E1,9.442833E1,9.907928E0,1.4380731E1,1.451327E1,3.327825E1,4.564719E0,6.599514E0,8.782881E1,8.480528E0,1.4273999E0],"tree_param":{"num_deleted":"0","num_feature":"46","num_nodes":"15","size_leaf_vector":"1"}},{"base_weights":[-4.869913E-3,-1.0327952E-1,3.6986217E-1,4.381607E-1,-1.9294666E-1,7.454137E-1,-9.552551E-2,-2.5553877E-2,3.9360035E-2,-1.545904E-2,1.1209754E-2,5.1957223E-4,5.602519E-2,-3.0746141E-2,4.226439E-2],"categories":[],"categories_nodes":[],"categories_segments":[],"categories_sizes":[],"default_left":[0,0,0,0,0,0,0,0,0,0,0,0,0,0,0],"id":42,"left_children":[1,3,5,7,9,11,13,-1,-1,-1,-1,-1,-1,-1,-1],"loss_changes":[6.458333E0,6.816701E0,6.438086E0,7.0311775E0,5.871112E0,5.5778008E0,8.902625E0,0E0,0E0,0E0,0E0,0E0,0E0,0E0,0E0],"parents":[2147483647,0,0,1,1,2,2,3,3,4,4,5,5,6,6],"right_children":[2,4,6,8,10,12,14,-1,-1,-1,-1,-1,-1,-1,-1],"split_conditions":[2.7E-1,-7.4826007E0,1.4943439E3,-7.8505486E-2,3.3610496E-1,-1.578147E-2,1.5358059E3,-2.5553877E-2,3.9360035E-2,-1.545904E-2,1.1209754E-2,5.1957223E-4,5.602519E-2,-3.0746141E-2,4.226439E-2],"split_indices":[4,8,39,2,13,31,39,0,0,0,0,0,0,0,0],"split_type":[0,0,0,0,0,0,0,0,0,0,0,0,0,0,0],"sum_hessian":[1.7309476E2,1.3766618E2,3.5428574E1,1.9007286E1,1.186589E2,1.9273682E1,1.6154892E1,4.9852686E0,1.4022018E1,9.300297E1,2.5655931E1,6.8595295E0,1.2414153E1,1.0631773E1,5.5231185E0],"tree_param":{"num_deleted":"0","num_feature":"46","num_nodes":"15","size_leaf_vector":"1"}},{"base_weights":[3.8263593E-2,7.5995736E-2,-8.3678246E-1,-4.7722977E-2,2.9385486E-1,-1.236725E0,2.50756E-2,-4.832884E-3,5.752584E-2,-2.9316638E-2,2.3341428E-2,-1.4869319E-2,-7.4231416E-2],"categories":[],"categories_nodes":[],"categories_segments":[],"categories_sizes":[],"default_left":[0,0,0,0,0,0,0,0,0,0,0,0,0],"id":43,"left_children":[1,3,5,7,9,11,-1,-1,-1,-1,-1,-1,-1],"loss_changes":[5.7071133E0,4.455298E0,4.4466376E0,6.323955E0,9.381505E0,9.073839E-1,0E0,0E0,0E0,0E0,0E0,0E0,0E0],"parents":[2147483647,0,0,1,1,2,2,3,3,4,4,5,5],"right_children":[2,4,6,8,10,12,-1,-1,-1,-1,-1,-1,-1],"split_conditions":[1.4210855E-14,1.4666666E-1,1.5471745E0,1.5478598E-1,-4.2881254E-2,-4.4866757E0,2.50756E-2,-4.832884E-3,5.752584E-2,-2.9316638E-2,2.3341428E-2,-1.4869319E-2,-7.4231416E-2],"split_indices":[7,3,28,31,44,8,0,0,0,0,0,0,0],"split_type":[0,0,0,0,0,0,0,0,0,0,0,0,0],"sum_hessian":[1.6992589E2,1.6377695E2,6.148939E0,1.0495541E2,5.8821545E1,4.7925916E0,1.3563472E0,1.0172059E2,3.2348156E0,9.268496E0,4.955305E1,1.4600135E0,3.3325782E0],"tree_param":{"num_deleted":"0","num_feature":"46","num_nodes":"13","size_leaf_vector":"1"}},{"base_weights":[4.525435E-2,2.7744346E-3,1.0809954E0,-1.2826881E-1,2.827646E-1,1.10038025E-2,5.9796866E-2,-1.2701908E-2,1.3966133E-2,-4.67472E-2,2.0936163E-2],"categories":[],"categories_nodes":[],"categories_segments":[],"categories_sizes":[],"default_left":[0,0,0,0,0,0,0,0,0,0,0],"id":44,"left_children":[1,3,5,7,9,-1,-1,-1,-1,-1,-1],"loss_changes":[7.386839E0,5.9927716E0,3.913598E-1,5.775131E0,9.011978E0,0E0,0E0,0E0,0E0,0E0,0E0],"parents":[2147483647,0,0,1,1,2,2,3,3,4,4],"right_children":[2,4,6,8,10,-1,-1,-1,-1,-1,-1],"split_conditions":[1.0273599E3,5.592204E-1,-1.0132502E0,1.5854066E1,5E-1,1.10038025E-2,5.9796866E-2,-1.2701908E-2,1.3966133E-2,-4.67472E-2,2.0936163E-2],"split_indices":[41,40,27,30,20,0,0,0,0,0,0],"split_type":[0,0,0,0,0,0,0,0,0,0,0],"sum_hessian":[1.6695776E2,1.6134311E2,5.6146526E0,1.1027377E2,5.1069332E1,1.004627E0,4.610026E0,8.4558525E1,2.5715248E1,4.539027E0,4.6530308E1],"tree_param":{"num_deleted":"0","num_feature":"46","num_nodes":"11","size_leaf_vector":"1"}},{"base_weights":[3.9438654E-2,-5.169256E-1,1.0347732E-1,3.6462498E-1,-7.0857435E-1,2.648567E-1,-1.6163895E-1,-3.8367573E-2,5.3867247E-2,-4.5796443E-2,2.5211334E-2,-5.29191E-2,1.6042529E-2,-3.1359237E-2,1.0669449E-2],"categories":[],"categories_nodes":[],"categories_segments":[],"categories_sizes":[],"default_left":[0,0,0,0,0,0,0,0,0,0,0,0,0,0,0],"id":45,"left_children":[1,3,5,7,9,11,13,-1,-1,-1,-1,-1,-1,-1,-1],"loss_changes":[6.1509233E0,3.2710142E0,6.6446786E0,3.9284546E0,4.230815E0,7.4746037E0,1.0436192E1,0E0,0E0,0E0,0E0,0E0,0E0,0E0,0E0],"parents":[2147483647,0,0,1,1,2,2,3,3,4,4,5,5,6,6],"right_children":[2,4,6,8,10,12,14,-1,-1,-1,-1,-1,-1,-1,-1],"split_conditions":[6.1609546E2,-1.0002697E0,5.522799E-1,-1.2734846E0,1.6333333E-1,1.4658792E3,1.6206051E0,-3.8367573E-2,5.3867247E-2,-4.5796443E-2,2.5211334E-2,-5.29191E-2,1.6042529E-2,-3.1359237E-2,1.0669449E-2],"split_indices":[41,13,28,6,4,26,5,0,0,0,0,0,0,0,0],"split_type":[0,0,0,0,0,0,0,0,0,0,0,0,0,0,0],"sum_hessian":[1.7013765E2,1.6831808E1,1.5330585E2,2.844597E0,1.398721E1,9.529788E1,5.800796E1,1.0694278E0,1.7751693E0,1.2154004E1,1.8332064E0,3.1421149E0,9.215577E1,2.558068E1,3.242728E1],"tree_param":{"num_deleted":"0","num_feature":"46","num_nodes":"15","size_leaf_vector":"1"}},{"base_weights":[-3.0050615E-2,-6.377929E-2,1.0356606E0,3.578435E-1,-1.4853415E-1,1.3950153E-2,6.0641523E-2,-1.805012E-2,3.6328666E-2,-3.2891493E-2,-2.810471E-3],"categories":[],"categories_nodes":[],"categories_segments":[],"categories_sizes":[],"default_left":[0,0,0,0,0,0,0,0,0,0,0],"id":46,"left_children":[1,3,5,7,9,-1,-1,-1,-1,-1,-1],"loss_changes":[6.345119E0,6.137616E0,3.878045E-1,7.893885E0,6.662344E0,0E0,0E0,0E0,0E0,0E0,0E0],"parents":[2147483647,0,0,1,1,2,2,3,3,4,4],"right_children":[2,4,6,8,10,-1,-1,-1,-1,-1,-1],"split_conditions":[1.5478598E-1,1.4962297E3,1.5283502E1,-2.6333332E-1,6.84553E2,1.3950153E-2,6.0641523E-2,-1.805012E-2,3.6328666E-2,-3.2891493E-2,-2.810471E-3],"split_indices":[31,38,1,4,41,0,0,0,0,0,0],"split_type":[0,0,0,0,0,0,0,0,0,0,0],"sum_hessian":[1.7368524E2,1.6926823E2,4.417013E0,2.7791943E1,1.4147629E2,1.3265133E0,3.0905E0,9.429639E0,1.8362303E1,2.0770996E1,1.2070529E2],"tree_param":{"num_deleted":"0","num_feature":"46","num_nodes":"11","size_leaf_vector":"1"}},{"base_weights":[2.8695837E-2,-1.13202736E-1,2.8967118E-1,-5.243347E-2,-8.433313E-1,7.805906E-1,9.425585E-2,6.01026E-3,-1.6478283E-2,-6.636869E-2,-5.0495225E-3,5.1531952E-2,-2.9536618E-2,-5.3941044E-3,3.643082E-2],"categories":[],"categories_nodes":[],"categories_segments":[],"categories_sizes":[],"default_left":[0,0,0,0,0,0,0,0,0,0,0,0,0,0,0],"id":47,"left_children":[1,3,5,7,9,11,13,-1,-1,-1,-1,-1,-1,-1,-1],"loss_changes":[6.486487E0,4.9966087E0,5.8419337E0,5.1085377E0,2.9787974E0,6.58193E0,5.8800807E0,0E0,0E0,0E0,0E0,0E0,0E0,0E0,0E0],"parents":[2147483647,0,0,1,1,2,2,3,3,4,4,5,5,6,6],"right_children":[2,4,6,8,10,12,14,-1,-1,-1,-1,-1,-1,-1,-1],"split_conditions":[1.4666666E-1,1.0666667E-1,1.4917422E3,7.878189E-3,2.3874847E1,1.558629E3,1.5139224E3,6.01026E-3,-1.6478283E-2,-6.636869E-2,-5.0495225E-3,5.1531952E-2,-2.9536618E-2,-5.3941044E-3,3.643082E-2],"split_indices":[3,3,26,44,45,39,39,0,0,0,0,0,0,0,0],"split_type":[0,0,0,0,0,0,0,0,0,0,0,0,0,0,0],"sum_hessian":[1.7327333E2,1.1261052E2,6.066281E1,1.0494746E2,7.6630583E0,1.6419495E1,4.4243317E1,6.501365E1,3.9933807E1,4.1614785E0,3.5015798E0,1.4097394E1,2.3220997E0,3.4181404E1,1.0061913E1],"tree_param":{"num_deleted":"0","num_feature":"46","num_nodes":"15","size_leaf_vector":"1"}},{"base_weights":[4.8664227E-2,9.066375E-2,-7.981673E-1,-8.33851E-3,4.7822422E-1,-1.1527988E0,3.7625216E-2,2.6843245E-3,-3.0453324E-2,9.771962E-3,5.620549E-2,-7.215236E-2,-5.371712E-3],"categories":[],"categories_nodes":[],"categories_segments":[],"categories_sizes":[],"default_left":[0,0,0,0,0,0,0,0,0,0,0,0,0],"id":48,"left_children":[1,3,5,7,9,11,-1,-1,-1,-1,-1,-1,-1],"loss_changes":[6.1252832E0,6.2598095E0,5.345854E0,4.908203E0,5.8426723E0,1.9758205E0,0E0,0E0,0E0,0E0,0E0,0E0,0E0],"parents":[2147483647,0,0,1,1,2,2,3,3,4,4,5,5],"right_children":[2,4,6,8,10,12,-1,-1,-1,-1,-1,-1,-1],"split_conditions":[1.4943712E2,2.7E-1,9.497994E2,4.9333334E-1,1.0191947E0,1.5850203E3,3.7625216E-2,2.6843245E-3,-3.0453324E-2,9.771962E-3,5.620549E-2,-7.215236E-2,-5.371712E-3],"split_indices":[30,4,41,3,43,38,0,0,0,0,0,0,0],"split_type":[0,0,0,0,0,0,0,0,0,0,0,0,0],"sum_hessian":[1.6918584E2,1.6204211E2,7.1437163E0,1.2985034E2,3.219177E1,6.02289E0,1.1208264E0,1.1852346E2,1.1326883E1,2.3295153E1,8.896616E0,4.416274E0,1.606616E0],"tree_param":{"num_deleted":"0","num_feature":"46","num_nodes":"13","size_leaf_vector":"1"}},{"base_weights":[2.9975444E-2,-8.446069E-2,3.9988753E-1,-2.635374E-1,1.5517631E-1,1.1771324E0,1.8790838E-1,1.796846E-2,-2.301371E-2,-3.2797493E-2,1.399066E-2,1.2167674E-2,6.352999E-2,-1.6695097E-2,3.1578906E-2],"categories":[],"categories_nodes":[],"categories_segments":[],"categories_sizes":[],"default_left":[0,0,0,0,0,0,0,0,0,0,0,0,0,0,0],"id":49,"left_children":[1,3,5,7,9,11,13,-1,-1,-1,-1,-1,-1,-1,-1],"loss_changes":[7.2718315E0,5.680274E0,6.463592E0,9.427696E0,5.929095E0,4.3303585E-1,7.8666415E0,0E0,0E0,0E0,0E0,0E0,0E0,0E0,0E0],"parents":[2147483647,0,0,1,1,2,2,3,3,4,4,5,5,6,6],"right_children":[2,4,6,8,10,12,14,-1,-1,-1,-1,-1,-1,-1,-1],"split_conditions":[5.652174E-1,8.184772E2,-5.0666666E-1,1.494615E3,1.4635563E3,-5.028237E1,5E-2,1.796846E-2,-2.301371E-2,-3.2797493E-2,1.399066E-2,1.2167674E-2,6.352999E-2,-1.6695097E-2,3.1578906E-2],"split_indices":[40,41,3,38,39,30,3,0,0,0,0,0,0,0,0],"split_type":[0,0,0,0,0,0,0,0,0,0,0,0,0,0,0],"sum_hessian":[1.6998593E2,1.30413E2,3.9572937E1,7.45805E1,5.583249E1,7.50435E0,3.2068584E1,1.7702938E1,5.6877563E1,6.868699E0,4.896379E1,1.0106956E0,6.4936547E0,1.4850258E1,1.7218327E1],"tree_param":{"num_deleted":"0","num_feature":"46","num_nodes":"15","size_leaf_vector":"1"}}]},"name":"gbtree"},"learner_model_param":{"base_score":"[5.22565E-1]","boost_from_average":"1","num_class":"0","num_feature":"46","num_target":"1"},"objective":{"name":"binary:logistic","reg_loss_param":{"scale_pos_weight":"1"}}},"version":[3,2,0]}