{"learner":{"attributes":{"scikit_learn":"{\"_estimator_type\": \"classifier\"}"},"feature_names":["elo_diff","rest_diff","home_b2b","away_b2b","gsax_diff","finish_diff","edge_speed_diff","edge_burst_diff","l5_goal_diff","l5_xg_diff","l5_corsi_diff","l5_pdo_diff","l5_pp_diff","l5_pk_diff","l5_st_net","l5_rush_diff","l5_nzt_diff","l5_ozs_diff","l5_hdc_diff","l5_pizza_diff","home_venue_goal_diff","away_venue_goal_diff","home_sos","away_sos","l5_std_diff","l10_goal_diff","l10_xg_diff"],"feature_types":["float","int","int","int","float","float","float","float","float","float","float","float","float","float","float","float","float","float","float","float","int","int","float","float","float","float","float"],"gradient_booster":{"model":{"gbtree_model_param":{"num_parallel_tree":"1","num_trees":"50"},"iteration_indptr":[0,1,2,3,4,5,6,7,8,9,10,11,12,13,14,15,16,17,18,19,20,21,22,23,24,25,26,27,28,29,30,31,32,33,34,35,36,37,38,39,40,41,42,43,44,45,46,47,48,49,50],"tree_info":[0,0,0,0,0,0,0,0,0,0,0,0,0,0,0,0,0,0,0,0,0,0,0,0,0,0,0,0,0,0,0,0,0,0,0,0,0,0,0,0,0,0,0,0,0,0,0,0,0,0],"trees":[{"base_weights":[3.7490893E-2,-2.2794832E-2,9.000756E-1,2.1494618E-2,-8.592569E-1,1.3139733E-2,3.0585647E-2,-4.366957E-3,1.2326429E-2,6.044518E-3,-1.265046E0,-7.312903E-3,5.9198188E-3,8.86337E-3,-4.083122E-4,-1.5893308E-2,-4.1018687E-3],"categories":[],"categories_nodes":[],"categories_segments":[],"categories_sizes":[],"default_left":[0,0,0,0,0,0,0,0,0,0,0,0,0,0,0,0,0],"id":0,"left_children":[1,3,5,7,9,-1,11,13,-1,-1,15,-1,-1,-1,-1,-1,-1],"loss_changes":[7.9381375E0,5.32673E0,3.5480967E0,4.298307E0,5.058799E0,0E0,2.2461843E0,4.4269423E0,0E0,0E0,1.0068855E0,0E0,0E0,0E0,0E0,0E0,0E0],"parents":[2147483647,0,0,1,1,2,2,3,3,4,4,6,6,7,7,10,10],"right_children":[2,4,6,8,10,-1,12,14,-1,-1,16,-1,-1,-1,-1,-1,-1],"split_conditions":[1.19704254E2,2.842171E-14,2.2627025E0,9.6E-1,-7.2121453E-1,1.3139733E-2,2.9695287E0,-7.937901E1,1.2326429E-2,6.044518E-3,6.6885436E-1,-7.312903E-3,5.9198188E-3,8.86337E-3,-4.083122E-4,-1.5893308E-2,-4.1018687E-3],"split_indices":[0,14,8,6,18,0,8,0,0,0,8,0,0,0,0,0,0],"split_type":[0,0,0,0,0,0,0,0,0,0,0,0,0,0,0,0,0],"sum_hessian":[1.5125742E2,1.4228662E2,8.970785E0,1.3605692E2,6.229712E0,5.731335E0,3.2394502E0,1.34188E2,1.8689137E0,1.2459424E0,4.9837694E0,1.2459424E0,1.9935079E0,4.3607984E0,1.298272E2,2.9902618E0,1.9935079E0],"tree_param":{"num_deleted":"0","num_feature":"27","num_nodes":"17","size_leaf_vector":"1"}},{"base_weights":[3.152487E-2,2.8457525E-1,-3.2733566E-1,2.0083822E-2,7.522911E-1,2.8630638E-1,-4.8651844E-1,-9.145335E-1,2.2631457E-1,2.585161E-1,1.5937185E0,9.1832834E-1,-4.701256E-1,-4.0903202E-1,-1.4617246E-2,-1.18531175E-2,6.046705E-3,-5.7216585E-3,3.9037E-3,9.023653E-3,-1.6227325E-3,1.7045913E-2,3.7950433E-3,-7.3247706E-4,1.22604985E-2,-1.0780108E-2,1.3250827E-4,-2.5580819E-3,-8.437512E-3],"categories":[],"categories_nodes":[],"categories_segments":[],"categories_sizes":[],"default_left":[0,0,0,0,0,0,0,0,0,0,0,0,0,0,0,0,0,0,0,0,0,0,0,0,0,0,0,0,0],"id":1,"left_children":[1,3,5,7,9,11,13,15,17,19,21,23,25,27,-1,-1,-1,-1,-1,-1,-1,-1,-1,-1,-1,-1,-1,-1,-1],"loss_changes":[1.3534727E1,1.0789692E1,6.163984E0,1.1158718E1,1.2684904E1,6.8062186E0,3.130766E0,5.023571E0,6.4259377E0,5.851783E0,8.964081E-1,2.4096112E0,1.9920391E0,2.9214635E0,0E0,0E0,0E0,0E0,0E0,0E0,0E0,0E0,0E0,0E0,0E0,0E0,0E0,0E0,0E0],"parents":[2147483647,0,0,1,1,2,2,3,3,4,4,5,5,6,6,7,7,8,8,9,9,10,10,11,11,12,12,13,13],"right_children":[2,4,6,8,10,12,14,16,18,20,22,24,26,28,-1,-1,-1,-1,-1,-1,-1,-1,-1,-1,-1,-1,-1,-1,-1],"split_conditions":[1.502936E3,5.853743E1,-8.7971354E-1,1.4775466E3,9.424749E-2,-1.5882228E-2,1.4210855E-14,2.8E-1,-3.2333332E-1,2.2431514E0,1.5093153E3,-2.2447803E0,-2.4535649E-1,1.185015E-1,-1.4617246E-2,-1.18531175E-2,6.046705E-3,-5.7216585E-3,3.9037E-3,9.023653E-3,-1.6227325E-3,1.7045913E-2,3.7950433E-3,-7.3247706E-4,1.22604985E-2,-1.0780108E-2,1.3250827E-4,-2.5580819E-3,-8.437512E-3],"split_indices":[22,0,24,22,5,5,13,7,7,11,23,9,25,5,0,0,0,0,0,0,0,0,0,0,0,0,0,0,0],"split_type":[0,0,0,0,0,0,0,0,0,0,0,0,0,0,0,0,0,0,0,0,0,0,0,0,0,0,0,0,0],"sum_hessian":[1.4701903E2,8.6341995E1,6.0677025E1,5.581933E1,3.0522667E1,1.2333474E1,4.834355E1,9.469586E0,4.6349743E1,2.0058796E1,1.0463871E1,6.602695E0,5.730779E0,4.6100037E1,2.2435155E0,8.223615E0,1.2459713E0,7.4758954E0,3.8873848E1,7.4757304E0,1.2583065E1,9.218265E0,1.245606E0,1.7442234E0,4.8584714E0,1.9935541E0,3.7372253E0,3.5260387E1,1.0839647E1],"tree_param":{"num_deleted":"0","num_feature":"27","num_nodes":"29","size_leaf_vector":"1"}},{"base_weights":[-5.2072905E-2,-1.2089085E-1,7.499477E-1,-3.8101384E-1,1.1906757E-1,1.0268866E0,-5.096119E-3,-2.5342435E-1,-9.5173466E-1,3.6578444E-1,-1.6301085E-1,-2.872854E-3,1.2384853E0,-3.5876292E-3,8.580612E-3,2.1543764E-3,-1.1528754E-2,-7.464157E-3,4.5562363E-3,7.270514E-3,-3.1568476E-3,2.5054445E-3,1.3813459E-2],"categories":[],"categories_nodes":[],"categories_segments":[],"categories_sizes":[],"default_left":[0,0,0,0,0,0,0,0,0,0,0,0,0,0,0,0,0,0,0,0,0,0,0],"id":2,"left_children":[1,3,5,7,9,11,-1,13,15,17,19,-1,21,-1,-1,-1,-1,-1,-1,-1,-1,-1,-1],"loss_changes":[8.521276E0,8.8799305E0,4.7822847E0,4.7215776E0,5.2362733E0,3.2312918E0,0E0,6.9889827E0,3.086567E0,4.3355913E0,5.0395455E0,0E0,9.375391E-1,0E0,0E0,0E0,0E0,0E0,0E0,0E0,0E0,0E0,0E0],"parents":[2147483647,0,0,1,1,2,2,3,3,4,4,5,5,7,7,8,8,9,9,10,10,12,12],"right_children":[2,4,6,8,10,12,-1,14,16,18,20,-1,22,-1,-1,-1,-1,-1,-1,-1,-1,-1,-1],"split_conditions":[4.7333333E-1,-4.183762E-3,1.513513E3,-2.706742E-2,1.5016692E3,-6.3969774E0,-5.096119E-3,-4.1596822E-2,-5.5E-1,-6.9666666E-1,1.8976703E-2,-2.872854E-3,-1.4400287E-1,-3.5876292E-3,8.580612E-3,2.1543764E-3,-1.1528754E-2,-7.464157E-3,4.5562363E-3,7.270514E-3,-3.1568476E-3,2.5054445E-3,1.3813459E-2],"split_indices":[7,5,23,5,22,11,0,5,6,6,5,0,5,0,0,0,0,0,0,0,0,0,0],"split_type":[0,0,0,0,0,0,0,0,0,0,0,0,0,0,0,0,0,0,0,0,0,0,0],"sum_hessian":[1.5174677E2,1.4053714E2,1.1209621E1,6.71531E1,7.338405E1,9.340628E0,1.8689942E0,5.6063637E1,1.1089459E1,3.8987392E1,3.4396656E1,1.2457825E0,8.094845E0,5.182889E1,4.2347455E0,1.6196923E0,9.469768E0,2.367659E0,3.6619736E1,4.485405E0,2.991125E1,1.3705684E0,6.724277E0],"tree_param":{"num_deleted":"0","num_feature":"27","num_nodes":"23","size_leaf_vector":"1"}},{"base_weights":[-4.3510795E-2,1.976392E-1,-3.9779022E-1,-3.4778927E-2,9.68648E-1,1.389423E-1,-6.67722E-1,6.3372356E-1,-1.8753754E-1,-2.2551735E-1,1.1521857E0,3.8710392E-1,-1.0895104E0,-9.557443E-1,-2.3837616E-1,2.0578331E-3,1.3237212E-2,-2.606819E-3,9.105324E-3,-1.1815229E-2,7.256247E-3,1.2606382E-2,-7.3061563E-4,1.0136945E-2,-4.3019725E-4,-2.8792417E-3,-1.348459E-2,-2.698056E-4,-1.2761759E-2,-5.140907E-3,6.090384E-3],"categories":[],"categories_nodes":[],"categories_segments":[],"categories_sizes":[],"default_left":[0,0,0,0,0,0,0,0,0,0,0,0,0,0,0,0,0,0,0,0,0,0,0,0,0,0,0,0,0,0,0],"id":3,"left_children":[1,3,5,7,9,11,13,15,17,19,21,23,25,27,29,-1,-1,-1,-1,-1,-1,-1,-1,-1,-1,-1,-1,-1,-1,-1,-1],"loss_changes":[1.3469305E1,1.6864874E1,9.337702E0,7.587431E0,5.0356865E0,7.183572E0,5.043846E0,3.8118696E0,5.080813E0,4.2573843E0,2.623623E0,5.2157016E0,4.3991375E-1,7.4598026E0,4.623414E0,0E0,0E0,0E0,0E0,0E0,0E0,0E0,0E0,0E0,0E0,0E0,0E0,0E0,0E0,0E0,0E0],"parents":[2147483647,0,0,1,1,2,2,3,3,4,4,5,5,6,6,7,7,8,8,9,9,10,10,11,11,12,12,13,13,14,14],"right_children":[2,4,6,8,10,12,14,16,18,20,22,24,26,28,30,-1,-1,-1,-1,-1,-1,-1,-1,-1,-1,-1,-1,-1,-1,-1,-1],"split_conditions":[1.502936E3,7.869112E1,-4.3258116E-1,-7.4212976E0,-1.1213634E0,1.8578846E0,6.666667E-2,-2.3235729E0,4.5666668E-1,-2E-1,1.7669756E0,-1.3666667E-1,1.5071987E3,-4.4333333E-1,3.2333332E-1,2.0578331E-3,1.3237212E-2,-2.606819E-3,9.105324E-3,-1.1815229E-2,7.256247E-3,1.2606382E-2,-7.3061563E-4,1.0136945E-2,-4.3019725E-4,-2.8792417E-3,-1.348459E-2,-2.698056E-4,-1.2761759E-2,-5.140907E-3,6.090384E-3],"split_indices":[22,0,24,11,24,8,6,9,7,7,13,6,22,6,7,0,0,0,0,0,0,0,0,0,0,0,0,0,0,0,0],"split_type":[0,0,0,0,0,0,0,0,0,0,0,0,0,0,0,0,0,0,0,0,0,0,0,0,0,0,0,0,0,0,0],"sum_hessian":[1.5573633E2,9.29259E1,6.281042E1,7.213572E1,2.0790186E1,2.1180456E1,4.1629967E1,1.2831957E1,5.930376E1,2.7391977E0,1.805099E1,1.8190624E1,2.989831E0,2.4181799E1,1.7448168E1,8.721236E0,4.1107206E0,5.6315113E1,2.9886472E0,1.2453074E0,1.4938903E0,1.6556599E1,1.4943897E0,6.852038E0,1.1338587E1,1.2456782E0,1.7441527E0,6.4809914E0,1.7700808E1,1.3461636E1,3.9865317E0],"tree_param":{"num_deleted":"0","num_feature":"27","num_nodes":"31","size_leaf_vector":"1"}},{"base_weights":[3.33123E-2,2.7085397E-1,-2.9408458E-1,-4.5579102E-2,8.12964E-1,5.198751E-1,-5.9236944E-1,-7.629996E-1,1.13670565E-1,5.9314954E-1,1.4355648E0,-6.7657495E-1,8.3218867E-1,6.967643E-3,-6.7144746E-1,-1.0907677E-2,7.2340425E-3,1.9874517E-3,-1.3450501E-2,7.356786E-3,-7.4321893E-3,1.5867263E-2,2.789724E-3,3.2743393E-3,-1.3424041E-2,-5.470261E-3,1.0468397E-2,-9.917129E-3,-2.5472888E-3],"categories":[],"categories_nodes":[],"categories_segments":[],"categories_sizes":[],"default_left":[0,0,0,0,0,0,0,0,0,0,0,0,0,0,0,0,0,0,0,0,0,0,0,0,0,0,0,0,0],"id":4,"left_children":[1,3,5,7,9,11,13,15,17,19,21,23,25,-1,27,-1,-1,-1,-1,-1,-1,-1,-1,-1,-1,-1,-1,-1,-1],"loss_changes":[1.19107275E1,1.5249861E1,1.5954757E1,6.592522E0,3.629036E0,7.220194E0,5.323305E0,5.891808E0,6.158389E0,5.4800453E0,9.277859E-1,3.2735925E0,4.8879614E0,0E0,5.8046265E0,0E0,0E0,0E0,0E0,0E0,0E0,0E0,0E0,0E0,0E0,0E0,0E0,0E0,0E0],"parents":[2147483647,0,0,1,1,2,2,3,3,4,4,5,5,6,6,7,7,8,8,9,9,10,10,11,11,12,12,14,14],"right_children":[2,4,6,8,10,12,14,16,18,20,22,24,26,-1,28,-1,-1,-1,-1,-1,-1,-1,-1,-1,-1,-1,-1,-1,-1],"split_conditions":[1.5028917E3,5.7708088E1,-5.1139116E-1,1.4775466E3,1.1122335E2,1.4896481E3,-6.533333E-1,2.8E-1,1.5226447E3,1.4210855E-14,1.5106871E3,1.5075685E3,1.5040828E3,6.967643E-3,6E-2,-1.0907677E-2,7.2340425E-3,1.9874517E-3,-1.3450501E-2,7.356786E-3,-7.4321893E-3,1.5867263E-2,2.789724E-3,3.2743393E-3,-1.3424041E-2,-5.470261E-3,1.0468397E-2,-9.917129E-3,-2.5472888E-3],"split_indices":[22,0,24,22,0,23,6,7,23,14,23,22,22,0,6,0,0,0,0,0,0,0,0,0,0,0,0,0,0],"split_type":[0,0,0,0,0,0,0,0,0,0,0,0,0,0,0,0,0,0,0,0,0,0,0,0,0,0,0,0,0],"sum_hessian":[1.5112823E2,8.7682915E1,6.3445328E1,5.594398E1,3.1738932E1,1.6815718E1,4.6629612E1,9.473701E0,4.647028E1,2.4900347E1,6.8385835E0,3.2394173E0,1.3576301E1,2.2435782E0,4.4386032E1,7.9801593E0,1.4935412E0,4.472558E1,1.7447038E0,2.2906744E1,1.9936025E0,5.71921E0,1.1193736E0,1.4943328E0,1.7450845E0,1.6198301E0,1.19564705E1,2.4317339E1,2.0068693E1],"tree_param":{"num_deleted":"0","num_feature":"27","num_nodes":"29","size_leaf_vector":"1"}},{"base_weights":[8.477041E-2,2.9993108E-1,-2.0442459E-1,4.5978516E-2,9.211244E-1,-1.3451227E-2,-1.2701139E-1,-9.023046E-1,2.0161317E-1,5.6343734E-1,1.4553171E0,6.2943864E-1,-2.8014493E-1,5.3726435E-3,-1.2502066E-2,8.317515E-3,5.745538E-4,8.807855E-3,-7.246723E-4,1.603174E-2,6.649457E-3,-1.1166777E-2,9.417683E-3,-7.847647E-4,-8.8652065E-3],"categories":[],"categories_nodes":[],"categories_segments":[],"categories_sizes":[],"default_left":[0,0,0,0,0,0,0,0,0,0,0,0,0,0,0,0,0,0,0,0,0,0,0,0,0],"id":5,"left_children":[1,3,5,7,9,-1,11,13,15,17,19,21,23,-1,-1,-1,-1,-1,-1,-1,-1,-1,-1,-1,-1],"loss_changes":[9.665478E0,1.3983319E1,5.6962385E0,9.651226E0,4.0996456E0,0E0,7.5115213E0,5.293522E0,5.0331345E0,3.5051985E0,6.685448E-2,7.033619E0,6.454936E0,0E0,0E0,0E0,0E0,0E0,0E0,0E0,0E0,0E0,0E0,0E0,0E0],"parents":[2147483647,0,0,1,1,2,2,3,3,4,4,6,6,7,7,8,8,9,9,10,10,11,11,12,12],"right_children":[2,4,6,8,10,-1,12,14,16,18,20,22,24,-1,-1,-1,-1,-1,-1,-1,-1,-1,-1,-1,-1],"split_conditions":[1.5028917E3,7.2095184E1,-3.2468357E0,1.4742792E3,9.424749E-2,-1.3451227E-2,-5.9488487E0,1.4599906E3,-6.9541907E0,1.8976703E-2,1.8049115E0,1.5040828E3,1.07393585E-1,5.3726435E-3,-1.2502066E-2,8.317515E-3,5.745538E-4,8.807855E-3,-7.246723E-4,1.603174E-2,6.649457E-3,-1.1166777E-2,9.417683E-3,-7.847647E-4,-8.8652065E-3],"split_indices":[22,0,9,22,5,0,11,22,11,5,8,22,5,0,0,0,0,0,0,0,0,0,0,0,0],"split_type":[0,0,0,0,0,0,0,0,0,0,0,0,0,0,0,0,0,0,0,0,0,0,0,0,0],"sum_hessian":[1.5334975E2,8.790869E1,6.544106E1,6.3161427E1,2.4747261E1,3.1181822E0,6.232288E1,8.228364E0,5.4933064E1,1.6053102E1,8.6941595E0,9.968758E0,5.2354122E1,1.4955775E0,6.732786E0,9.339366E0,4.5593697E1,1.0451961E1,5.601142E0,6.457716E0,2.2364433E0,1.1218128E0,8.846945E0,4.013533E1,1.2218791E1],"tree_param":{"num_deleted":"0","num_feature":"27","num_nodes":"25","size_leaf_vector":"1"}},{"base_weights":[-6.2665105E-2,-1.4832811E-1,9.562758E-1,9.500514E-3,-5.023254E-1,1.362926E0,-2.0698269E-1,-2.653553E-1,3.5333645E-1,4.4495323E-1,-6.486474E-1,1.4824923E-2,2.7086106E-3,-1.0233058E-2,9.954439E-3,-4.5120106E-3,5.9768655E-3,-4.2538205E-4,6.9153938E-3,-5.873423E-3,1.1825163E-2,-7.3295725E-3,1.0407804E-2],"categories":[],"categories_nodes":[],"categories_segments":[],"categories_sizes":[],"default_left":[0,0,0,0,0,0,0,0,0,0,0,0,0,0,0,0,0,0,0,0,0,0,0],"id":6,"left_children":[1,3,5,7,9,11,13,15,17,19,21,-1,-1,-1,-1,-1,-1,-1,-1,-1,-1,-1,-1],"loss_changes":[1.3559018E1,7.975362E0,5.9846296E0,9.511291E0,6.3887434E0,7.8202057E-1,4.9358478E0,9.243925E0,6.013999E0,5.6295214E0,6.250656E0,0E0,0E0,0E0,0E0,0E0,0E0,0E0,0E0,0E0,0E0,0E0,0E0],"parents":[2147483647,0,0,1,1,2,2,3,3,4,4,5,5,6,6,7,7,8,8,9,9,10,10],"right_children":[2,4,6,8,10,12,14,16,18,20,22,-1,-1,-1,-1,-1,-1,-1,-1,-1,-1,-1,-1],"split_conditions":[1.1690433E2,1.5082004E3,1.502936E3,3.7841137E1,-3.359982E1,1.5162223E3,2.6E-1,3.4333333E-1,1.4932404E3,-2.3E-1,9.9333334E-1,1.4824923E-2,2.7086106E-3,-1.0233058E-2,9.954439E-3,-4.5120106E-3,5.9768655E-3,-4.2538205E-4,6.9153938E-3,-5.873423E-3,1.1825163E-2,-7.3295725E-3,1.0407804E-2],"split_indices":[0,22,22,0,0,23,7,6,22,7,6,0,0,0,0,0,0,0,0,0,0,0,0],"split_type":[0,0,0,0,0,0,0,0,0,0,0,0,0,0,0,0,0,0,0,0,0,0,0],"sum_hessian":[1.527159E2,1.4166081E2,1.1055085E1,9.865081E1,4.3010002E1,8.064325E0,2.9907598E0,5.495172E1,4.369909E1,5.481598E0,3.7528404E1,6.9462876E0,1.1180375E0,1.8701129E0,1.1206468E0,4.560782E1,9.3439045E0,2.0535738E1,2.3163351E1,2.369254E0,3.1123435E0,3.6283833E1,1.2445709E0],"tree_param":{"num_deleted":"0","num_feature":"27","num_nodes":"23","size_leaf_vector":"1"}},{"base_weights":[3.835602E-2,2.5619882E-1,-2.658097E-1,-8.9287154E-2,6.0207194E-1,3.4044364E-1,-4.3010077E-1,-4.1738153E-1,2.2728768E-1,-5.211591E-3,7.9666746E-1,9.2456746E-1,-5.249184E-1,-3.118183E-1,-1.1726444E0,-6.175522E-3,8.091311E-3,-1.1553899E-3,1.0494412E-2,-8.614007E-3,5.1768576E-3,1.3436059E-3,1.02981115E-2,-8.068846E-4,1.1828812E-2,-9.858421E-3,6.669846E-3,-1.411719E-3,-8.893753E-3,-1.4995075E-2,4.4502792E-4],"categories":[],"categories_nodes":[],"categories_segments":[],"categories_sizes":[],"default_left":[0,0,0,0,0,0,0,0,0,0,0,0,0,0,0,0,0,0,0,0,0,0,0,0,0,0,0,0,0,0,0],"id":7,"left_children":[1,3,5,7,9,11,13,15,17,19,21,23,25,27,29,-1,-1,-1,-1,-1,-1,-1,-1,-1,-1,-1,-1,-1,-1,-1,-1],"loss_changes":[1.0145752E1,1.0704354E1,6.5170903E0,4.8167467E0,5.282955E0,7.660905E0,4.0930862E0,6.0671396E0,6.824961E0,5.7438445E0,5.086315E0,2.390191E0,4.150757E0,4.324572E0,2.697751E0,0E0,0E0,0E0,0E0,0E0,0E0,0E0,0E0,0E0,0E0,0E0,0E0,0E0,0E0,0E0,0E0],"parents":[2147483647,0,0,1,1,2,2,3,3,4,4,5,5,6,6,7,7,8,8,9,9,10,10,11,11,12,12,13,13,14,14],"right_children":[2,4,6,8,10,12,14,16,18,20,22,24,26,28,30,-1,-1,-1,-1,-1,-1,-1,-1,-1,-1,-1,-1,-1,-1,-1,-1],"split_conditions":[1.502936E3,4.183762E-3,-8.7971354E-1,1.4923802E3,-3.3666667E-1,-1.2400695E-2,2E0,2.0588236E0,1E0,-8.7971354E-1,1.484381E3,-2.2447803E0,4.7938247E0,1.1752907E-1,1.8333334E-1,-6.175522E-3,8.091311E-3,-1.1553899E-3,1.0494412E-2,-8.614007E-3,5.1768576E-3,1.3436059E-3,1.02981115E-2,-8.068846E-4,1.1828812E-2,-9.858421E-3,6.669846E-3,-1.411719E-3,-8.893753E-3,-1.4995075E-2,4.4502792E-4],"split_indices":[22,5,24,22,7,5,1,8,1,24,22,8,11,5,7,0,0,0,0,0,0,0,0,0,0,0,0,0,0,0,0],"split_type":[0,0,0,0,0,0,0,0,0,0,0,0,0,0,0,0,0,0,0,0,0,0,0,0,0,0,0,0,0,0,0],"sum_hessian":[1.510918E2,8.813058E1,6.2961224E1,4.4461098E1,4.3669483E1,1.31956215E1,4.9765602E1,2.1676943E1,2.2784153E1,1.0833641E1,3.2835842E1,7.8371134E0,5.3585086E0,4.4152348E1,5.613254E0,1.9062397E1,2.6145453E0,1.6685852E1,6.098302E0,3.8622513E0,6.9713893E0,8.959705E0,2.3876137E1,1.7427294E0,6.0943837E0,3.9888532E0,1.3696555E0,3.504291E1,9.109433E0,4.242068E0,1.3711864E0],"tree_param":{"num_deleted":"0","num_feature":"27","num_nodes":"31","size_leaf_vector":"1"}},{"base_weights":[5.742124E-2,2.4800536E-1,-2.3515083E-1,9.39839E-2,1.0441902E0,3.9642307E-1,-4.0042293E-1,7.92427E-3,9.6340036E-1,1.5701903E-2,5.9948653E-1,-8.71539E-3,6.354129E-1,-6.3615197E-1,-6.6624284E-2,-1.0001502E-3,7.520391E-3,1.323354E-2,-9.0529263E-4,-9.396982E-4,1.0031344E-2,1.17495535E-2,1.112739E-3,1.5684324E-3,-9.1548525E-3,2.6121344E-3,-8.505075E-3],"categories":[],"categories_nodes":[],"categories_segments":[],"categories_sizes":[],"default_left":[0,0,0,0,0,0,0,0,0,0,0,0,0,0,0,0,0,0,0,0,0,0,0,0,0,0,0],"id":8,"left_children":[1,3,5,7,9,11,13,15,17,-1,19,-1,21,23,25,-1,-1,-1,-1,-1,-1,-1,-1,-1,-1,-1,-1],"loss_changes":[8.552115E0,1.1273112E1,6.4843035E0,5.888071E0,2.5514278E0,4.514847E0,3.776166E0,5.915054E0,2.8090982E0,0E0,2.8118458E0,0E0,3.1431308E0,6.418008E0,5.671109E0,0E0,0E0,0E0,0E0,0E0,0E0,0E0,0E0,0E0,0E0,0E0,0E0],"parents":[2147483647,0,0,1,1,2,2,3,3,4,4,5,5,6,6,7,7,8,8,10,10,12,12,13,13,14,14],"right_children":[2,4,6,8,10,12,14,16,18,-1,20,-1,22,24,26,-1,-1,-1,-1,-1,-1,-1,-1,-1,-1,-1,-1],"split_conditions":[1.502936E3,1E0,-9.6705145E-1,4.5666668E-1,-2.4689662E-1,0E0,6.666667E-2,2.0588236E0,9.0974027E-1,1.5701903E-2,1.4923802E3,-8.71539E-3,1.1666667E-1,-4.3333334E-1,4.6666667E-1,-1.0001502E-3,7.520391E-3,1.323354E-2,-9.0529263E-4,-9.396982E-4,1.0031344E-2,1.17495535E-2,1.112739E-3,1.5684324E-3,-9.1548525E-3,2.6121344E-3,-8.505075E-3],"split_indices":[22,3,24,7,24,1,6,8,24,0,22,0,6,6,6,0,0,0,0,0,0,0,0,0,0,0,0],"split_type":[0,0,0,0,0,0,0,0,0,0,0,0,0,0,0,0,0,0,0,0,0,0,0,0,0,0,0],"sum_hessian":[1.5132889E2,9.172846E1,5.960043E1,7.779677E1,1.3931692E1,1.2071513E1,4.7528915E1,7.170785E1,6.0889235E0,5.2230015E0,8.708691E0,1.4946854E0,1.0576828E1,2.7325684E1,2.0203232E1,6.337974E1,8.328103E0,4.348218E0,1.7407055E0,3.486381E0,5.22231E0,4.5999775E0,5.97685E0,7.2323575E0,2.0093327E1,1.4715604E1,5.4876285E0],"tree_param":{"num_deleted":"0","num_feature":"27","num_nodes":"27","size_leaf_vector":"1"}},{"base_weights":[-1.7171256E-2,2.1758431E-1,-3.782479E-1,-1.12511374E-1,7.670184E-1,1.5402621E-1,-6.2506646E-1,-1.1018268E0,7.129546E-2,3.1578952E-1,1.4430641E0,-8.771203E-1,3.445172E-1,-7.921833E-1,8.675014E-2,-1.4419544E-2,5.9934394E-3,-1.5712237E-3,5.5163926E-3,1.1373949E-3,1.3237856E-2,1.5267579E-2,2.663669E-3,-1.5976706E-3,-1.1645629E-2,5.3292844E-3,-1.1662168E-2,5.981493E-3,-8.993578E-3,-3.1874264E-3,7.860229E-3],"categories":[],"categories_nodes":[],"categories_segments":[],"categories_sizes":[],"default_left":[0,0,0,0,0,0,0,0,0,0,0,0,0,0,0,0,0,0,0,0,0,0,0,0,0,0,0,0,0,0,0],"id":9,"left_children":[1,3,5,7,9,11,13,15,17,19,21,23,25,27,29,-1,-1,-1,-1,-1,-1,-1,-1,-1,-1,-1,-1,-1,-1,-1,-1],"loss_changes":[1.2909171E1,1.683312E1,7.9769354E0,1.072624E1,1.0154881E1,4.1925583E0,4.9673424E0,6.207835E0,5.6076446E0,4.3586035E0,9.369068E-1,5.089061E-1,5.584372E0,5.5221043E0,2.7262385E0,0E0,0E0,0E0,0E0,0E0,0E0,0E0,0E0,0E0,0E0,0E0,0E0,0E0,0E0,0E0,0E0],"parents":[2147483647,0,0,1,1,2,2,3,3,4,4,5,5,6,6,7,7,8,8,9,9,10,10,11,11,12,12,13,13,14,14],"right_children":[2,4,6,8,10,12,14,16,18,20,22,24,26,28,30,-1,-1,-1,-1,-1,-1,-1,-1,-1,-1,-1,-1,-1,-1,-1,-1],"split_conditions":[1.502936E3,5.853743E1,-3.8567767E-1,1.4764781E3,9.424749E-2,1.4849261E3,2.6666668E-1,2.8E-1,1.8333334E-1,1.1690433E2,1.5236736E3,-2.8333333E-1,3.1456676E-1,-6.533333E-1,5.6490326E1,-1.4419544E-2,5.9934394E-3,-1.5712237E-3,5.5163926E-3,1.1373949E-3,1.3237856E-2,1.5267579E-2,2.663669E-3,-1.5976706E-3,-1.1645629E-2,5.3292844E-3,-1.1662168E-2,5.981493E-3,-8.993578E-3,-3.1874264E-3,7.860229E-3],"split_indices":[22,0,24,22,5,23,7,7,7,0,23,7,5,6,0,0,0,0,0,0,0,0,0,0,0,0,0,0,0,0,0],"split_type":[0,0,0,0,0,0,0,0,0,0,0,0,0,0,0,0,0,0,0,0,0,0,0,0,0,0,0,0,0,0,0],"sum_hessian":[1.5032317E2,9.133725E1,5.8985916E1,5.7554302E1,3.3782948E1,1.8805994E1,4.017992E1,8.235165E0,4.9319138E1,2.114006E1,1.2642888E1,2.3703785E0,1.6435616E1,3.2448837E1,7.7310843E0,6.9899807E0,1.2451835E0,3.3880733E1,1.5438406E1,1.8537172E1,2.6028876E0,1.1525621E1,1.117266E0,1.123171E0,1.2472075E0,1.5188607E1,1.247009E0,1.9944581E0,3.0454378E1,5.237914E0,2.4931703E0],"tree_param":{"num_deleted":"0","num_feature":"27","num_nodes":"31","size_leaf_vector":"1"}},{"base_weights":[-1.0700789E-2,-1.8253955E-1,3.1639186E-1,-1.0024096E-1,-1.1513227E0,5.7517536E-2,7.590351E-1,-1.4447428E-1,1.0907199E-2,-1.4858133E0,3.839757E-3,7.341674E-1,-1.6605793E-1,1.221309E0,-8.73084E-2,8.286261E-3,-1.975109E-3,-1.7218994E-2,-1.4799848E-3,1.3552636E-2,-2.0476803E-3,-3.4307935E-3,1.281478E-2,2.4492398E-4,1.4172829E-2,4.6445783E-3,-1.329729E-2],"categories":[],"categories_nodes":[],"categories_segments":[],"categories_sizes":[],"default_left":[0,0,0,0,0,0,0,0,0,0,0,0,0,0,0,0,0,0,0,0,0,0,0,0,0,0,0],"id":10,"left_children":[1,3,5,7,9,11,13,15,-1,17,-1,19,21,23,25,-1,-1,-1,-1,-1,-1,-1,-1,-1,-1,-1,-1],"loss_changes":[8.989456E0,8.2411375E0,6.2696795E0,5.3044324E0,4.735985E0,5.5448E0,8.029047E0,5.070962E0,0E0,1.9135761E0,0E0,5.576791E0,7.5527773E0,3.0525875E0,6.1610713E0,0E0,0E0,0E0,0E0,0E0,0E0,0E0,0E0,0E0,0E0,0E0,0E0],"parents":[2147483647,0,0,1,1,2,2,3,3,4,4,5,5,6,6,7,7,9,9,11,11,12,12,13,13,14,14],"right_children":[2,4,6,8,10,12,14,16,-1,18,-1,20,22,24,26,-1,-1,-1,-1,-1,-1,-1,-1,-1,-1,-1,-1],"split_conditions":[5.6490326E1,1.5226447E3,8.0759704E-2,1.518826E3,1E0,-2.2666667E-1,1.9439977E0,-7.937901E1,1.0907199E-2,1.5429846E3,3.839757E-3,-6.2241767E-2,6.8666667E-1,-2.9E-1,1.5106871E3,8.286261E-3,-1.975109E-3,-1.7218994E-2,-1.4799848E-3,1.3552636E-2,-2.0476803E-3,-3.4307935E-3,1.281478E-2,2.4492398E-4,1.4172829E-2,4.6445783E-3,-1.329729E-2],"split_indices":[0,23,5,23,1,6,8,0,0,23,0,5,6,6,23,0,0,0,0,0,0,0,0,0,0,0,0],"split_type":[0,0,0,0,0,0,0,0,0,0,0,0,0,0,0,0,0,0,0,0,0,0,0,0,0,0,0],"sum_hessian":[1.5790675E2,1.0381124E2,5.4095512E1,9.6700005E1,7.1112404E0,3.484613E1,1.9249378E1,9.408432E1,2.6156826E0,5.865561E0,1.2456791E0,8.087029E0,2.6759102E1,1.21629305E1,7.086448E0,4.1069813E0,8.997734E1,4.7416897E0,1.1238713E0,4.600465E0,3.4865646E0,2.4523123E1,2.2359798E0,1.8696885E0,1.02932415E1,5.340755E0,1.7456934E0],"tree_param":{"num_deleted":"0","num_feature":"27","num_nodes":"27","size_leaf_vector":"1"}},{"base_weights":[-6.1297957E-2,1.6964632E-1,-4.0937874E-1,-3.4303345E-2,7.507955E-1,-3.216409E-1,-1.2302797E0,-7.186323E-1,1.02811456E-1,1.2253522E0,1.3815492E-1,-4.0593097E-1,6.559733E-1,-1.593053E-2,7.443162E-4,3.574916E-3,-9.682472E-3,6.479049E-3,-8.71423E-4,1.3714046E-2,3.96652E-3,1.2443965E-2,-2.5067446E-3,-2.6932957E-3,-1.0842939E-2,1.2962699E-2,-3.5717E-3],"categories":[],"categories_nodes":[],"categories_segments":[],"categories_sizes":[],"default_left":[0,0,0,0,0,0,0,0,0,0,0,0,0,0,0,0,0,0,0,0,0,0,0,0,0,0,0],"id":11,"left_children":[1,3,5,7,9,11,13,15,17,19,21,23,25,-1,-1,-1,-1,-1,-1,-1,-1,-1,-1,-1,-1,-1,-1],"loss_changes":[1.1952187E1,1.0641838E1,3.8717518E0,6.384701E0,6.608076E0,4.788833E0,2.6589584E0,3.3953748E0,5.94857E0,1.0305519E0,5.1735287E0,4.447294E0,3.5370398E0,0E0,0E0,0E0,0E0,0E0,0E0,0E0,0E0,0E0,0E0,0E0,0E0,0E0,0E0],"parents":[2147483647,0,0,1,1,2,2,3,3,4,4,5,5,6,6,7,7,8,8,9,9,10,10,11,11,12,12],"right_children":[2,4,6,8,10,12,14,16,18,20,22,24,26,-1,-1,-1,-1,-1,-1,-1,-1,-1,-1,-1,-1,-1,-1],"split_conditions":[1.5038286E3,7.869112E1,1.5361252E3,1.4764781E3,1.5842198E0,1.5324459E3,7.0006676E-2,1.4562708E3,1.4888356E3,1.5081816E3,1.4732296E3,1.9272986E-1,1.5336365E3,-1.593053E-2,7.443162E-4,3.574916E-3,-9.682472E-3,6.479049E-3,-8.71423E-4,1.3714046E-2,3.96652E-3,1.2443965E-2,-2.5067446E-3,-2.6932957E-3,-1.0842939E-2,1.2962699E-2,-3.5717E-3],"split_indices":[22,0,22,22,9,22,5,22,22,23,22,5,22,0,0,0,0,0,0,0,0,0,0,0,0,0,0],"split_type":[0,0,0,0,0,0,0,0,0,0,0,0,0,0,0,0,0,0,0,0,0,0,0,0,0,0,0],"sum_hessian":[1.4681865E2,8.856816E1,5.825049E1,6.625683E1,2.231133E1,5.3883263E1,4.3672237E0,1.0351622E1,5.5905205E1,1.2008966E1,1.0302365E1,5.0144566E1,3.738698E0,3.2441826E0,1.123041E0,1.8676699E0,8.483952E0,1.3824219E1,4.208099E1,9.652837E0,2.3561296E0,2.1071208E0,8.195245E0,4.2902378E1,7.242187E0,2.119648E0,1.6190501E0],"tree_param":{"num_deleted":"0","num_feature":"27","num_nodes":"27","size_leaf_vector":"1"}},{"base_weights":[-3.0591624E-2,-2.4446332E-1,1.6219635E-1,-8.6767936E-1,-1.2393506E-1,8.938455E-1,1.772628E-2,-1.4961594E0,-2.0459045E-3,6.34404E-2,-6.4501065E-1,-1.670479E-3,1.0029436E0,1.8585452E-1,-6.388241E-1,-1.7063338E-3,-1.725553E-2,6.2340987E-3,-7.755948E-3,-1.4469364E-4,1.0499138E-2,4.674391E-3,-8.045177E-3,3.9641694E-3,1.1523167E-2,5.612436E-4,8.674904E-3,5.330004E-3,-7.7726627E-3],"categories":[],"categories_nodes":[],"categories_segments":[],"categories_sizes":[],"default_left":[0,0,0,0,0,0,0,0,0,0,0,0,0,0,0,0,0,0,0,0,0,0,0,0,0,0,0,0,0],"id":12,"left_children":[1,3,5,7,9,11,13,15,17,19,21,-1,23,25,27,-1,-1,-1,-1,-1,-1,-1,-1,-1,-1,-1,-1,-1,-1],"loss_changes":[6.4528313E0,5.4612346E0,8.694254E0,6.442442E0,6.2202373E0,1.7378979E0,7.8274474E0,1.792284E0,3.3791428E0,3.6627939E0,3.3621836E0,0E0,6.70743E-1,4.936247E0,2.7605696E0,0E0,0E0,0E0,0E0,0E0,0E0,0E0,0E0,0E0,0E0,0E0,0E0,0E0,0E0],"parents":[2147483647,0,0,1,1,2,2,3,3,4,4,5,5,6,6,7,7,8,8,9,9,10,10,12,12,13,13,14,14],"right_children":[2,4,6,8,10,12,14,16,18,20,22,-1,24,26,28,-1,-1,-1,-1,-1,-1,-1,-1,-1,-1,-1,-1,-1,-1],"split_conditions":[-4.183762E-3,-2.5333333E-1,2.6968278E-2,-1.0489606E-1,-4.7241822E-2,-1E0,1.5106871E3,-5.233333E-1,-3.5E-1,6.8666667E-1,-4.5666668E-1,-1.670479E-3,3.1395012E-3,3.2333332E-1,-3.6666667E-1,-1.7063338E-3,-1.725553E-2,6.2340987E-3,-7.755948E-3,-1.4469364E-4,1.0499138E-2,4.674391E-3,-8.045177E-3,3.9641694E-3,1.1523167E-2,5.612436E-4,8.674904E-3,5.330004E-3,-7.7726627E-3],"split_indices":[5,7,5,5,5,1,23,6,7,6,6,0,5,7,7,0,0,0,0,0,0,0,0,0,0,0,0,0,0],"split_type":[0,0,0,0,0,0,0,0,0,0,0,0,0,0,0,0,0,0,0,0,0,0,0,0,0,0,0,0,0],"sum_hessian":[1.5453932E2,7.313646E1,8.140286E1,1.0847624E1,6.2288834E1,1.2567812E1,6.883505E1,5.8627005E0,4.984924E0,4.6460266E1,1.5828565E1,1.1223794E0,1.1445433E1,5.537233E1,1.3462725E1,1.1221756E0,4.7405252E0,2.8636227E0,2.1213012E0,4.397272E1,2.4875479E0,1.7428544E0,1.4085711E1,2.983769E0,8.461664E0,4.742807E1,7.944259E0,1.1213367E0,1.2341388E1],"tree_param":{"num_deleted":"0","num_feature":"27","num_nodes":"29","size_leaf_vector":"1"}},{"base_weights":[1.5829125E-1,4.0930396E-1,-2.1076815E-1,2.0354685E-1,9.091259E-1,-1.2445468E-1,-1.2170641E0,-4.7996095E-1,3.365338E-1,-3.478349E-3,1.0392737E0,-3.8665915E-1,1.7943197E-1,-2.7645328E-3,-1.4732397E-2,-7.441064E-3,7.1824617E-3,5.2603194E-3,-1.8187226E-3,-9.966304E-3,1.093214E-2,1.1545829E-2,-1.0701218E-3,2.5334118E-3,-6.700947E-3,1.1715589E-2,1.0098703E-4],"categories":[],"categories_nodes":[],"categories_segments":[],"categories_sizes":[],"default_left":[0,0,0,0,0,0,0,0,0,0,0,0,0,0,0,0,0,0,0,0,0,0,0,0,0,0,0],"id":13,"left_children":[1,3,5,7,9,11,13,15,17,19,21,23,25,-1,-1,-1,-1,-1,-1,-1,-1,-1,-1,-1,-1,-1,-1],"loss_changes":[1.4006793E1,9.04779E0,5.1893606E0,6.059434E0,3.0788727E0,4.6706324E0,7.357559E-1,4.0097513E0,5.489355E0,5.6948833E0,3.119156E0,5.850471E0,4.5964494E0,0E0,0E0,0E0,0E0,0E0,0E0,0E0,0E0,0E0,0E0,0E0,0E0,0E0,0E0],"parents":[2147483647,0,0,1,1,2,2,3,3,4,4,5,5,6,6,7,7,8,8,9,9,10,10,11,11,12,12],"right_children":[2,4,6,8,10,12,14,16,18,20,22,24,26,-1,-1,-1,-1,-1,-1,-1,-1,-1,-1,-1,-1,-1,-1],"split_conditions":[1.502936E3,7.7092964E1,1.4210855E-14,1.4764781E3,-1.1213634E0,8E-2,1.5062356E3,7.044121E1,3.2716694E0,1.505739E3,1.528856E3,-5.1139116E-1,-1.4400287E-1,-2.7645328E-3,-1.4732397E-2,-7.441064E-3,7.1824617E-3,5.2603194E-3,-1.8187226E-3,-9.966304E-3,1.093214E-2,1.1545829E-2,-1.0701218E-3,2.5334118E-3,-6.700947E-3,1.1715589E-2,1.0098703E-4],"split_indices":[22,0,14,22,24,6,22,0,11,23,23,24,5,0,0,0,0,0,0,0,0,0,0,0,0,0,0],"split_type":[0,0,0,0,0,0,0,0,0,0,0,0,0,0,0,0,0,0,0,0,0,0,0,0,0,0,0],"sum_hessian":[1.4926698E2,8.877699E1,6.048999E1,6.38852E1,2.4891794E1,5.6746338E1,3.7436528E0,9.980376E0,5.3904823E1,3.2282665E0,2.1663528E1,3.0316113E1,2.6430223E1,1.2463889E0,2.4972637E0,8.488144E0,1.492233E0,3.9464325E1,1.4440496E1,1.741985E0,1.4862815E0,1.9676916E1,1.9866115E0,9.337692E0,2.097842E1,2.9904516E0,2.3439772E1],"tree_param":{"num_deleted":"0","num_feature":"27","num_nodes":"27","size_leaf_vector":"1"}},{"base_weights":[-2.0774463E-2,2.0518406E-1,-3.3849463E-1,-9.143057E-2,4.9964294E-1,-1.2557988E-2,-2.740282E-1,-5.384536E-1,2.4788386E-1,5.2576892E-2,6.8938965E-1,9.423158E-1,-3.7969744E-1,-7.0033576E-3,1.0413197E-2,-6.8492163E-4,9.8940255E-3,-8.48858E-3,3.2362668E-3,7.917694E-3,-4.9421927E-3,1.332369E-2,1.2081134E-3,-4.2623673E-3,5.9117666E-3],"categories":[],"categories_nodes":[],"categories_segments":[],"categories_sizes":[],"default_left":[0,0,0,0,0,0,0,0,0,0,0,0,0,0,0,0,0,0,0,0,0,0,0,0,0],"id":14,"left_children":[1,3,5,7,9,-1,11,13,15,17,19,21,23,-1,-1,-1,-1,-1,-1,-1,-1,-1,-1,-1,-1],"loss_changes":[1.0928471E1,7.820405E0,3.395689E0,6.988098E0,3.7662249E0,0E0,8.116911E0,5.7968826E0,6.2553663E0,3.8025868E0,4.1946144E0,1.4772234E0,2.7938223E0,0E0,0E0,0E0,0E0,0E0,0E0,0E0,0E0,0E0,0E0,0E0,0E0],"parents":[2147483647,0,0,1,1,2,2,3,3,4,4,6,6,7,7,8,8,9,9,10,10,11,11,12,12],"right_children":[2,4,6,8,10,-1,12,14,16,18,20,22,24,-1,-1,-1,-1,-1,-1,-1,-1,-1,-1,-1,-1],"split_conditions":[1.502936E3,-7.991575E-3,-3.3773756E0,1.4902211E3,-2.1E-1,-1.2557988E-2,-2.3813782E0,2.054596E0,1E0,1.482533E3,7.7666664E-1,1.4992075E3,7.133333E-1,-7.0033576E-3,1.0413197E-2,-6.8492163E-4,9.8940255E-3,-8.48858E-3,3.2362668E-3,7.917694E-3,-4.9421927E-3,1.332369E-2,1.2081134E-3,-4.2623673E-3,5.9117666E-3],"split_indices":[22,5,9,22,6,0,9,9,1,23,6,23,6,0,0,0,0,0,0,0,0,0,0,0,0],"split_type":[0,0,0,0,0,0,0,0,0,0,0,0,0,0,0,0,0,0,0,0,0,0,0,0,0],"sum_hessian":[1.5025752E2,8.801592E1,6.2241596E1,4.4190945E1,4.3824974E1,2.8735447E0,5.9368053E1,1.8815695E1,2.537525E1,1.3438751E1,3.0386225E1,4.112463E0,5.525559E1,1.757177E1,1.2439249E0,1.8422674E1,6.952576E0,2.6139045E0,1.0824847E1,2.8271824E1,2.1144006E0,2.366823E0,1.7456403E0,5.3263363E1,1.9922272E0],"tree_param":{"num_deleted":"0","num_feature":"27","num_nodes":"25","size_leaf_vector":"1"}},{"base_weights":[2.1916453E-2,-1.6009389E-1,3.6997953E-1,-4.5177557E-2,-7.5699323E-1,8.063495E-2,9.422395E-1,2.324627E-2,-9.3921584E-1,-9.3586665E-1,4.635879E-3,1.9141307E-1,-1.3338703E-2,1.3907657E0,-4.5412045E-2,-8.139137E-4,7.6149926E-3,-1.3744006E-2,9.676041E-4,-1.0876772E-2,3.7553962E-3,-1.2976859E-3,5.5520628E-3,3.487037E-3,1.6235234E-2,-1.2822415E-2,6.3385903E-3],"categories":[],"categories_nodes":[],"categories_segments":[],"categories_sizes":[],"default_left":[0,0,0,0,0,0,0,0,0,0,0,0,0,0,0,0,0,0,0,0,0,0,0,0,0,0,0],"id":15,"left_children":[1,3,5,7,9,11,13,15,17,19,-1,21,-1,23,25,-1,-1,-1,-1,-1,-1,-1,-1,-1,-1,-1,-1],"loss_changes":[9.7202015E0,6.8823314E0,8.644361E0,5.2594113E0,3.9741182E0,5.9077907E0,7.8564167E0,6.2811017E0,2.8880668E0,3.2900095E0,0E0,4.0829906E0,0E0,2.3759518E0,6.242278E0,0E0,0E0,0E0,0E0,0E0,0E0,0E0,0E0,0E0,0E0,0E0,0E0],"parents":[2147483647,0,0,1,1,2,2,3,3,4,4,5,5,6,6,7,7,8,8,9,9,11,11,13,13,14,14],"right_children":[2,4,6,8,10,12,14,16,18,20,-1,22,-1,24,26,-1,-1,-1,-1,-1,-1,-1,-1,-1,-1,-1,-1],"split_conditions":[5.6490326E1,9.9682325E-1,9.6480004E-2,6.066667E-1,5.4E-1,6.0011726E-2,1.9396983E0,3.4333333E-1,-7.896858E-2,1.6280427E0,4.635879E-3,1.23333335E-1,-1.3338703E-2,-2.9E-1,2.3059392E0,-8.139137E-4,7.6149926E-3,-1.3744006E-2,9.676041E-4,-1.0876772E-2,3.7553962E-3,-1.2976859E-3,5.5520628E-3,3.487037E-3,1.6235234E-2,-1.2822415E-2,6.3385903E-3],"split_indices":[0,24,5,6,6,10,8,6,25,25,0,6,0,6,9,0,0,0,0,0,0,0,0,0,0,0,0],"split_type":[0,0,0,0,0,0,0,0,0,0,0,0,0,0,0,0,0,0,0,0,0,0,0,0,0,0,0],"sum_hessian":[1.5149892E2,9.983362E1,5.16653E1,8.461839E1,1.5215226E1,3.5072792E1,1.6592505E1,7.9507416E1,5.110977E0,1.3473916E1,1.7413102E0,3.3327408E1,1.7453843E0,1.11298895E1,5.4626155E0,7.041655E1,9.090866E0,3.3690577E0,1.7419195E0,1.2228883E1,1.2450331E0,1.804199E1,1.52854185E1,2.4882188E0,8.641671E0,1.6218493E0,3.840766E0],"tree_param":{"num_deleted":"0","num_feature":"27","num_nodes":"27","size_leaf_vector":"1"}},{"base_weights":[2.2961743E-2,2.3114116E-1,-2.6716E-1,-9.479255E-2,5.3275317E-1,3.026037E-1,-4.060301E-1,-3.3110836E-1,5.9788954E-1,-7.0436835E-2,7.3265135E-1,9.21131E-1,-4.2978477E-1,8.476044E-3,-4.6744335E-1,-1.049395E-3,-1.2759193E-2,-3.2484692E-3,1.1697673E-2,-1.0097488E-2,4.358992E-3,2.8982998E-3,9.761361E-3,1.1698946E-2,7.598116E-4,4.0477295E-3,-7.818087E-3,-5.402551E-3,3.8116747E-3],"categories":[],"categories_nodes":[],"categories_segments":[],"categories_sizes":[],"default_left":[0,0,0,0,0,0,0,0,0,0,0,0,0,0,0,0,0,0,0,0,0,0,0,0,0,0,0,0,0],"id":16,"left_children":[1,3,5,7,9,11,13,15,17,19,21,23,25,-1,27,-1,-1,-1,-1,-1,-1,-1,-1,-1,-1,-1,-1,-1,-1],"loss_changes":[9.120041E0,8.687298E0,5.1172357E0,7.248948E0,5.5718327E0,6.2590137E0,4.336442E0,6.8667235E0,6.3501234E0,6.2939043E0,3.4340782E0,1.4532375E0,2.2577305E0,0E0,3.2603455E0,0E0,0E0,0E0,0E0,0E0,0E0,0E0,0E0,0E0,0E0,0E0,0E0,0E0,0E0],"parents":[2147483647,0,0,1,1,2,2,3,3,4,4,5,5,6,6,7,7,8,8,9,9,10,10,11,11,12,12,14,14],"right_children":[2,4,6,8,10,12,14,16,18,20,22,24,26,-1,28,-1,-1,-1,-1,-1,-1,-1,-1,-1,-1,-1,-1,-1,-1],"split_conditions":[1.502936E3,-7.991575E-3,-9.6705145E-1,1E0,-3.3666667E-1,-1.2400695E-2,-7.133333E-1,-3.0540144E-2,1.4889769E3,-8.7971354E-1,1.4849135E3,2.3333333E-1,-2.5E-1,8.476044E-3,1.5240998E0,-1.049395E-3,-1.2759193E-2,-3.2484692E-3,1.1697673E-2,-1.0097488E-2,4.358992E-3,2.8982998E-3,9.761361E-3,1.1698946E-2,7.598116E-4,4.0477295E-3,-7.818087E-3,-5.402551E-3,3.8116747E-3],"split_indices":[22,5,24,1,7,5,6,5,22,24,22,7,6,0,24,0,0,0,0,0,0,0,0,0,0,0,0,0,0],"split_type":[0,0,0,0,0,0,0,0,0,0,0,0,0,0,0,0,0,0,0,0,0,0,0,0,0,0,0,0,0],"sum_hessian":[1.4897818E2,8.685668E1,6.2121487E1,4.2074764E1,4.478192E1,1.1942817E1,5.0178673E1,3.1761114E1,1.0313648E1,1.1307957E1,3.3473965E1,6.3349905E0,5.607826E0,1.7455218E0,4.843315E1,2.6523087E1,5.2380276E0,4.1115475E0,6.2021008E0,3.6123683E0,7.695588E0,1.2652833E1,2.0821133E1,4.5975037E0,1.737487E0,1.6192226E0,3.9886036E0,4.4940563E1,3.4925866E0],"tree_param":{"num_deleted":"0","num_feature":"27","num_nodes":"29","size_leaf_vector":"1"}},{"base_weights":[-8.164939E-2,-2.8515118E-1,3.2123455E-1,-1.9229512E-1,-8.3199203E-1,3.4162973E-3,8.6211616E-1,-5.139299E-1,-4.0763542E-2,3.8215125E-3,-1.0884503E0,8.422868E-2,-1.1470993E-2,1.319395E0,2.180101E-1,-6.457824E-3,5.507725E-3,-1.9431248E-3,4.201901E-3,-1.4325453E-3,-1.274785E-2,2.3282594E-3,-6.969336E-3,1.4622361E-2,1.1392871E-3,7.0428755E-3,-5.766067E-3],"categories":[],"categories_nodes":[],"categories_segments":[],"categories_sizes":[],"default_left":[0,0,0,0,0,0,0,0,0,0,0,0,0,0,0,0,0,0,0,0,0,0,0,0,0,0,0],"id":17,"left_children":[1,3,5,7,9,11,13,15,17,-1,19,21,-1,23,25,-1,-1,-1,-1,-1,-1,-1,-1,-1,-1,-1,-1],"loss_changes":[1.2469723E1,4.9603224E0,8.787664E0,4.2436833E0,4.8800745E0,3.184774E0,5.2857885E0,4.2774673E0,4.368395E0,0E0,1.9478312E0,3.8728654E0,0E0,1.7048359E0,3.9047515E0,0E0,0E0,0E0,0E0,0E0,0E0,0E0,0E0,0E0,0E0,0E0,0E0],"parents":[2147483647,0,0,1,1,2,2,3,3,4,4,5,5,6,6,7,7,8,8,10,10,11,11,13,13,14,14],"right_children":[2,4,6,8,10,12,14,16,18,-1,20,22,-1,24,26,-1,-1,-1,-1,-1,-1,-1,-1,-1,-1,-1,-1],"split_conditions":[5.676084E1,1.913739E-1,9.6480004E-2,-1.0003203E-1,-1.7807596E1,6.0011726E-2,1.5008562E3,1.7500631E0,1E0,3.8215125E-3,1.487472E3,2E0,-1.1470993E-2,3.2301395E0,1.4372723E0,-6.457824E-3,5.507725E-3,-1.9431248E-3,4.201901E-3,-1.4325453E-3,-1.274785E-2,2.3282594E-3,-6.969336E-3,1.4622361E-2,1.1392871E-3,7.0428755E-3,-5.766067E-3],"split_indices":[0,5,5,5,0,10,23,8,1,0,23,1,0,8,8,0,0,0,0,0,0,0,0,0,0,0,0],"split_type":[0,0,0,0,0,0,0,0,0,0,0,0,0,0,0,0,0,0,0,0,0,0,0,0,0,0,0],"sum_hessian":[1.4997552E2,9.98382E1,5.0137318E1,8.6501495E1,1.3336702E1,3.2214573E1,1.7922745E1,2.6936214E1,5.9565285E1,2.2403183E0,1.1096385E1,3.0966288E1,1.2482859E0,9.868357E0,8.054388E0,2.4318127E1,2.6180892E0,4.511531E1,1.4449971E1,2.1185741E0,8.977811E0,2.6606915E1,4.359373E0,8.632453E0,1.2359035E0,5.067148E0,2.9872394E0],"tree_param":{"num_deleted":"0","num_feature":"27","num_nodes":"27","size_leaf_vector":"1"}},{"base_weights":[-5.0569527E-2,-1.3641442E-1,8.591329E-1,-8.023692E-2,-1.0692476E0,1.2782898E0,-5.099893E-1,1.0835818E-1,-3.3230355E-1,-1.3271E0,1.7939421E-3,1.3695583E-2,2.658688E-3,-1.2292045E-2,4.6380195E-3,-8.232757E-4,6.806977E-3,-1.1499542E-2,-2.566883E-3,-1.5190992E-2,-2.6721267E-3],"categories":[],"categories_nodes":[],"categories_segments":[],"categories_sizes":[],"default_left":[0,0,0,0,0,0,0,0,0,0,0,0,0,0,0,0,0,0,0,0,0],"id":18,"left_children":[1,3,5,7,9,11,13,15,17,19,-1,-1,-1,-1,-1,-1,-1,-1,-1,-1,-1],"loss_changes":[1.2177425E1,7.354556E0,8.372658E0,6.453534E0,2.808507E0,6.139927E-1,3.2792845E0,8.565941E0,3.2921276E0,9.6487236E-1,0E0,0E0,0E0,0E0,0E0,0E0,0E0,0E0,0E0,0E0,0E0],"parents":[2147483647,0,0,1,1,2,2,3,3,4,4,5,5,6,6,7,7,8,8,9,9],"right_children":[2,4,6,8,10,12,14,16,18,20,-1,-1,-1,-1,-1,-1,-1,-1,-1,-1,-1],"split_conditions":[1.1122335E2,2.842171E-14,1.502936E3,1.503299E3,8.834878E0,1.521551E3,2.5333333E-1,8.716136E-2,-3.2468357E0,8.500809E-1,1.7939421E-3,1.3695583E-2,2.658688E-3,-1.2292045E-2,4.6380195E-3,-8.232757E-4,6.806977E-3,-1.1499542E-2,-2.566883E-3,-1.5190992E-2,-2.6721267E-3],"split_indices":[0,14,22,22,13,23,7,5,9,25,0,0,0,0,0,0,0,0,0,0,0],"split_type":[0,0,0,0,0,0,0,0,0,0,0,0,0,0,0,0,0,0,0,0,0],"sum_hessian":[1.5343353E2,1.4097989E2,1.2453651E1,1.339963E2,6.983573E0,9.585418E0,2.8682337E0,7.697448E1,5.702183E1,5.736181E0,1.2473922E0,8.469176E0,1.1162415E0,1.4989002E0,1.3693335E0,5.8380177E1,1.8594305E1,3.6242068E0,5.3397625E1,4.4896193E0,1.2465618E0],"tree_param":{"num_deleted":"0","num_feature":"27","num_nodes":"21","size_leaf_vector":"1"}},{"base_weights":[2.7915966E-2,9.101401E-2,-7.6032895E-1,-1.287131E-2,5.0868E-1,-1.127644E0,7.922149E-3,4.4123828E-1,-1.1502458E-1,9.04508E-1,-6.6515326E-1,-1.554964E-2,-3.0545607E-1,-4.584651E-3,1.13898E-2,-7.960065E-3,-8.221448E-5,1.3379153E-2,3.633116E-3,-1.3730047E-2,-1.9405913E-3,2.6048177E-3,-8.624238E-3],"categories":[],"categories_nodes":[],"categories_segments":[],"categories_sizes":[],"default_left":[0,0,0,0,0,0,0,0,0,0,0,0,0,0,0,0,0,0,0,0,0,0,0],"id":19,"left_children":[1,3,5,7,9,11,-1,13,15,17,19,-1,21,-1,-1,-1,-1,-1,-1,-1,-1,-1,-1],"loss_changes":[7.5195384E0,6.063112E0,7.2855988E0,5.2814674E0,1.3531633E1,2.854725E0,0E0,1.3651119E1,6.746111E0,4.4946346E0,2.2658215E0,0E0,1.6385403E0,0E0,0E0,0E0,0E0,0E0,0E0,0E0,0E0,0E0,0E0],"parents":[2147483647,0,0,1,1,2,2,3,3,4,4,5,5,7,7,8,8,9,9,10,10,12,12],"right_children":[2,4,6,8,10,12,-1,14,16,18,20,-1,22,-1,-1,-1,-1,-1,-1,-1,-1,-1,-1],"split_conditions":[1.4210855E-14,3.4333333E-1,1.749119E0,-6.9541907E0,1.5093153E3,2.0666666E-1,7.922149E-3,-2.5476198E0,1.4817499E3,5.133333E-1,5.4E-1,-1.554964E-2,8.6581804E-2,-4.584651E-3,1.13898E-2,-7.960065E-3,-8.221448E-5,1.3379153E-2,3.633116E-3,-1.3730047E-2,-1.9405913E-3,2.6048177E-3,-8.624238E-3],"split_indices":[14,6,25,11,23,6,0,25,23,6,6,0,18,0,0,0,0,0,0,0,0,0,0],"split_type":[0,0,0,0,0,0,0,0,0,0,0,0,0,0,0,0,0,0,0,0,0,0,0],"sum_hessian":[1.4879552E2,1.3858638E2,1.0209136E1,1.11758156E2,2.6828228E1,8.477202E0,1.7319337E0,1.9913923E1,9.184423E1,2.0234425E1,6.5938034E0,4.991626E0,3.4855766E0,8.847912E0,1.1066012E1,1.1576822E1,8.026741E1,1.04186735E1,9.81575E0,1.869799E0,4.7240043E0,1.992901E0,1.4926757E0],"tree_param":{"num_deleted":"0","num_feature":"27","num_nodes":"23","size_leaf_vector":"1"}},{"base_weights":[2.2159409E-2,2.2378239E-1,-2.702725E-1,-1.02434814E-1,5.08944E-1,2.766725E-1,-5.329439E-1,-2.7145576E-1,9.3308306E-1,-8.35471E-3,5.7586557E-1,5.6690466E-1,-6.036826E-1,-8.767906E-2,-7.9875916E-1,-5.1003536E-3,4.4625495E-3,1.2516616E-2,2.0228006E-7,3.8396146E-3,1.3865686E-2,8.386635E-3,-7.950972E-3,-4.989682E-6,-1.109713E-2,-7.111224E-3,4.806316E-3,4.132171E-3,-9.828705E-3],"categories":[],"categories_nodes":[],"categories_segments":[],"categories_sizes":[],"default_left":[0,0,0,0,0,0,0,0,0,0,0,0,0,0,0,0,0,0,0,0,0,0,0,0,0,0,0,0,0],"id":20,"left_children":[1,3,5,7,9,11,13,15,17,-1,19,21,23,25,27,-1,-1,-1,-1,-1,-1,-1,-1,-1,-1,-1,-1,-1,-1],"loss_changes":[9.134338E0,8.576753E0,9.235472E0,7.879924E0,4.895385E0,5.754267E0,5.0283766E0,6.774622E0,1.8844962E0,0E0,6.8309393E0,6.75391E0,1.7502358E0,6.445112E0,6.397442E0,0E0,0E0,0E0,0E0,0E0,0E0,0E0,0E0,0E0,0E0,0E0,0E0,0E0,0E0],"parents":[2147483647,0,0,1,1,2,2,3,3,4,4,5,5,6,6,7,7,8,8,10,10,11,11,12,12,13,13,14,14],"right_children":[2,4,6,8,10,12,14,16,18,-1,20,22,24,26,28,-1,-1,-1,-1,-1,-1,-1,-1,-1,-1,-1,-1,-1,-1],"split_conditions":[1.502936E3,-7.991575E-3,-4.3258116E-1,4.5666668E-1,1.4692542E3,2.8333333E-1,1.4958141E3,1E0,1.498844E3,-8.35471E-3,1E0,2.8905898E-1,1.4979922E3,1.0252985E-3,-4.7666666E-1,-5.1003536E-3,4.4625495E-3,1.2516616E-2,2.0228006E-7,3.8396146E-3,1.3865686E-2,8.386635E-3,-7.950972E-3,-4.989682E-6,-1.109713E-2,-7.111224E-3,4.806316E-3,4.132171E-3,-9.828705E-3],"split_indices":[22,5,24,7,23,7,23,1,22,0,3,5,23,5,6,0,0,0,0,0,0,0,0,0,0,0,0,0,0],"split_type":[0,0,0,0,0,0,0,0,0,0,0,0,0,0,0,0,0,0,0,0,0,0,0,0,0,0,0,0,0],"sum_hessian":[1.5289594E2,9.0638306E1,6.2257626E1,4.2574734E1,4.806357E1,2.0181528E1,4.20761E1,3.7234962E1,5.3397694E0,1.7344831E0,4.6329086E1,1.5445547E1,4.7359805E0,1.622597E1,2.5850128E1,2.8162584E1,9.072379E0,3.7261002E0,1.6136694E0,3.8653023E1,7.6760635E0,1.3196671E1,2.248877E0,2.6172407E0,2.1187398E0,7.6178303E0,8.608139E0,3.244924E0,2.2605204E1],"tree_param":{"num_deleted":"0","num_feature":"27","num_nodes":"29","size_leaf_vector":"1"}},{"base_weights":[-1.4585707E-2,1.6209148E-1,-2.765367E-1,-2.4248969E-2,4.3517292E-1,-1.432641E-1,-6.7044115E-1,-1.6045772E-1,8.47545E-1,-2.7078635E-1,7.465947E-1,5.836744E-1,-2.5425965E-1,-1.2144607E0,1.5995246E-1,-8.97521E-3,-9.34533E-5,1.3566928E-2,-4.3014693E-3,-7.905338E-3,1.5251434E-3,-3.086509E-3,8.982088E-3,9.420642E-3,-6.3872603E-3,-1.6773706E-3,-1.3467605E-2,-1.4950086E-2,-2.0350209E-3,7.6415753E-3,-5.862083E-3],"categories":[],"categories_nodes":[],"categories_segments":[],"categories_sizes":[],"default_left":[0,0,0,0,0,0,0,0,0,0,0,0,0,0,0,0,0,0,0,0,0,0,0,0,0,0,0,0,0,0,0],"id":21,"left_children":[1,3,5,7,9,11,13,15,17,19,21,23,25,27,29,-1,-1,-1,-1,-1,-1,-1,-1,-1,-1,-1,-1,-1,-1,-1,-1],"loss_changes":[7.2702956E0,4.787112E0,3.2246227E0,6.873922E0,8.584055E0,4.0645895E0,7.29548E0,5.5511966E0,5.675066E0,2.8495746E0,4.552368E0,3.551253E0,3.8200877E0,2.4224224E0,3.6514244E0,0E0,0E0,0E0,0E0,0E0,0E0,0E0,0E0,0E0,0E0,0E0,0E0,0E0,0E0,0E0,0E0],"parents":[2147483647,0,0,1,1,2,2,3,3,4,4,5,5,6,6,7,7,8,8,9,9,10,10,11,11,12,12,13,13,14,14],"right_children":[2,4,6,8,10,12,14,16,18,20,22,24,26,28,30,-1,-1,-1,-1,-1,-1,-1,-1,-1,-1,-1,-1,-1,-1,-1,-1],"split_conditions":[1.5031842E3,4.2852912E-2,1.334896E0,1.9396983E0,1.484381E3,-4.3333334E-1,2.6E-1,-3.2333332E-1,1.35949745E1,4.5845205E-1,1.4790798E3,7.285349E-1,1.4210855E-14,8.888007E0,8.629196E0,-8.97521E-3,-9.34533E-5,1.3566928E-2,-4.3014693E-3,-7.905338E-3,1.5251434E-3,-3.086509E-3,8.982088E-3,9.420642E-3,-6.3872603E-3,-1.6773706E-3,-1.3467605E-2,-1.4950086E-2,-2.0350209E-3,7.6415753E-3,-5.862083E-3],"split_indices":[22,5,8,8,22,6,6,7,11,11,23,8,14,11,11,0,0,0,0,0,0,0,0,0,0,0,0,0,0,0,0],"split_type":[0,0,0,0,0,0,0,0,0,0,0,0,0,0,0,0,0,0,0,0,0,0,0,0,0,0,0,0,0,0,0],"sum_hessian":[1.5512256E2,9.2867645E1,6.2254906E1,5.5742367E1,3.7125282E1,4.753555E1,1.4719355E1,4.8915737E1,6.826629E0,1.1404043E1,2.5721237E1,5.7326174E0,4.1802933E1,8.613706E0,6.105649E0,7.482039E0,4.1433697E1,4.8372154E0,1.989414E0,4.729458E0,6.6745853E0,3.1011603E0,2.2620077E1,4.610283E0,1.1223347E0,3.980411E1,1.9988233E0,6.367796E0,2.2459095E0,3.360422E0,2.745227E0],"tree_param":{"num_deleted":"0","num_feature":"27","num_nodes":"31","size_leaf_vector":"1"}},{"base_weights":[3.4462288E-2,2.8057522E-1,-3.2892993E-1,-6.997932E-2,6.3576704E-1,4.0017632E-1,-4.7842523E-1,-3.1626257E-1,8.747523E-1,9.730785E-1,1.756108E-1,1.0217705E0,-3.866492E-1,3.1016752E-1,-6.031105E-1,-5.7795933E-3,3.1795725E-3,-7.0827203E-3,1.1831188E-2,1.2581976E-2,5.0567654E-3,-5.719028E-3,8.2027605E-3,-1.8439576E-3,1.3092792E-2,-1.1480408E-2,9.418465E-4,-1.1452825E-2,7.6701688E-3,-1.0282742E-2,-1.6768407E-3],"categories":[],"categories_nodes":[],"categories_segments":[],"categories_sizes":[],"default_left":[0,0,0,0,0,0,0,0,0,0,0,0,0,0,0,0,0,0,0,0,0,0,0,0,0,0,0,0,0,0,0],"id":22,"left_children":[1,3,5,7,9,11,13,15,17,19,21,23,25,27,29,-1,-1,-1,-1,-1,-1,-1,-1,-1,-1,-1,-1,-1,-1,-1,-1],"loss_changes":[1.3698002E1,1.1405174E1,6.9371862E0,1.1170489E1,6.8789406E0,5.811679E0,5.2816877E0,6.4697285E0,5.693772E0,2.8270302E0,1.0315049E1,2.4822178E0,2.1631784E0,6.0211105E0,8.173012E0,0E0,0E0,0E0,0E0,0E0,0E0,0E0,0E0,0E0,0E0,0E0,0E0,0E0,0E0,0E0,0E0],"parents":[2147483647,0,0,1,1,2,2,3,3,4,4,5,5,6,6,7,7,8,8,9,9,10,10,11,11,12,12,13,13,14,14],"right_children":[2,4,6,8,10,12,14,16,18,20,22,24,26,28,30,-1,-1,-1,-1,-1,-1,-1,-1,-1,-1,-1,-1,-1,-1,-1,-1],"split_conditions":[1.502936E3,3.8139126E1,-8.7971354E-1,1E0,1.2109823E0,-2.706742E-2,-4.5666668E-1,1.9333333E-1,1.4775466E3,1.5008562E3,2E0,-2.6251488E0,-1.2029573E0,1.4857941E3,6E-2,-5.7795933E-3,3.1795725E-3,-7.0827203E-3,1.1831188E-2,1.2581976E-2,5.0567654E-3,-5.719028E-3,8.2027605E-3,-1.8439576E-3,1.3092792E-2,-1.1480408E-2,9.418465E-4,-1.1452825E-2,7.6701688E-3,-1.0282742E-2,-1.6768407E-3],"split_indices":[22,0,24,1,25,5,6,7,22,23,26,9,9,23,6,0,0,0,0,0,0,0,0,0,0,0,0,0,0,0,0],"split_type":[0,0,0,0,0,0,0,0,0,0,0,0,0,0,0,0,0,0,0,0,0,0,0,0,0,0,0,0,0,0,0],"sum_hessian":[1.5112871E2,9.024011E1,6.08886E1,4.582066E1,4.4419456E1,1.0074965E1,5.0813633E1,3.6873337E1,8.947321E0,2.4987806E1,1.9431648E1,5.4616494E0,4.6133156E0,6.734236E0,4.40794E1,2.6165451E1,1.0707887E1,1.2473089E0,7.700012E0,1.4469432E1,1.0518374E1,9.050325E0,1.0381324E1,1.1203139E0,4.341336E0,1.2485908E0,3.3647246E0,1.2488098E0,5.485426E0,2.1613646E1,2.2465754E1],"tree_param":{"num_deleted":"0","num_feature":"27","num_nodes":"31","size_leaf_vector":"1"}},{"base_weights":[3.0247035E-4,1.7688425E-1,-2.4735722E-1,-3.5360128E-2,7.9461664E-1,-1.6084927E-1,-9.884776E-1,-8.95303E-1,1.21092565E-1,-2.8964707E-3,8.94918E-1,-8.1149064E-2,-1.1176159E0,-1.6210178E-2,7.105226E-3,-1.1443024E-2,4.6528215E-3,6.5508145E-3,-1.8632971E-4,-2.615878E-3,1.0582212E-2,-1.32021345E-2,-1.08285174E-4,-2.4697196E-3,-1.376036E-2],"categories":[],"categories_nodes":[],"categories_segments":[],"categories_sizes":[],"default_left":[0,0,0,0,0,0,0,0,0,0,0,0,0,0,0,0,0,0,0,0,0,0,0,0,0],"id":23,"left_children":[1,3,5,7,9,11,13,15,17,-1,19,21,23,-1,-1,-1,-1,-1,-1,-1,-1,-1,-1,-1,-1],"loss_changes":[6.8416147E0,1.2001883E1,4.015829E0,9.382186E0,2.8036852E0,4.4468217E0,8.257595E0,4.167365E0,4.4292245E0,0E0,4.3675957E0,4.8657303E0,6.720362E-1,0E0,0E0,0E0,0E0,0E0,0E0,0E0,0E0,0E0,0E0,0E0,0E0],"parents":[2147483647,0,0,1,1,2,2,3,3,4,4,5,5,6,6,7,7,8,8,10,10,11,11,12,12],"right_children":[2,4,6,8,10,12,14,16,18,-1,20,22,24,-1,-1,-1,-1,-1,-1,-1,-1,-1,-1,-1,-1],"split_conditions":[1.5028917E3,7.869112E1,9.6827446E1,1.4742792E3,-1.1213634E0,1.4210855E-14,2.6E-1,2.8333333E-1,-6.9541907E0,-2.8964707E-3,-2.0741974E-1,-3.3695142E0,-1.0666667E-1,-1.6210178E-2,7.105226E-3,-1.1443024E-2,4.6528215E-3,6.5508145E-3,-1.8632971E-4,-2.615878E-3,1.0582212E-2,-1.32021345E-2,-1.08285174E-4,-2.4697196E-3,-1.376036E-2],"split_indices":[22,0,0,22,24,14,7,7,11,0,5,8,6,0,0,0,0,0,0,0,0,0,0,0,0],"split_type":[0,0,0,0,0,0,0,0,0,0,0,0,0,0,0,0,0,0,0,0,0,0,0,0,0],"sum_hessian":[1.5444296E2,9.032609E1,6.4116875E1,6.792928E1,2.239681E1,5.850488E1,5.6119995E0,9.72935E0,5.819993E1,1.736574E0,2.0660236E1,5.500748E1,3.4973967E0,4.1229267E0,1.4890726E0,8.358612E0,1.3707384E0,1.1305473E1,4.6894455E1,2.4818735E0,1.8178364E1,1.999613E0,5.300787E1,1.2481043E0,2.2492924E0],"tree_param":{"num_deleted":"0","num_feature":"27","num_nodes":"25","size_leaf_vector":"1"}},{"base_weights":[3.3666614E-2,-4.2815175E-2,8.240763E-1,4.4349757E-1,-1.3431107E-1,1.1034391E0,-5.6853123E-2,-2.5610876E-1,1.3640401E0,-7.6063955E-1,-2.6330907E-2,1.3769742E-2,3.3410782E-1,-9.548047E-3,1.0592154E-2,2.3956213E-3,-6.2752604E-3,1.5019721E-2,4.0462716E-3,-9.47774E-3,7.5071445E-3,1.07881185E-2,-8.731886E-4,-7.835415E-3,1.10153565E-2],"categories":[],"categories_nodes":[],"categories_segments":[],"categories_sizes":[],"default_left":[0,0,0,0,0,0,0,0,0,0,0,0,0,0,0,0,0,0,0,0,0,0,0,0,0],"id":24,"left_children":[1,3,5,7,9,11,13,15,17,19,21,-1,23,-1,-1,-1,-1,-1,-1,-1,-1,-1,-1,-1,-1],"loss_changes":[9.355688E0,6.3568926E0,3.4224405E0,1.4931959E1,8.08783E0,1.7314367E0,5.2585135E0,2.673879E0,7.071018E-1,5.6872864E0,7.0560284E0,0E0,4.338438E0,0E0,0E0,0E0,0E0,0E0,0E0,0E0,0E0,0E0,0E0,0E0,0E0],"parents":[2147483647,0,0,1,1,2,2,3,3,4,4,5,5,6,6,7,7,8,8,9,9,10,10,12,12],"right_children":[2,4,6,8,10,12,14,16,18,20,22,-1,24,-1,-1,-1,-1,-1,-1,-1,-1,-1,-1,-1,-1],"split_conditions":[1.0950056E2,-6.9541907E0,1.502936E3,-2.245554E0,-1.1970687E0,3.4333333E-1,2.6E-1,1.5003547E3,2.7666667E-1,-1.1765894E0,-4.865795E0,1.3769742E-2,1.4911829E3,-9.548047E-3,1.0592154E-2,2.3956213E-3,-6.2752604E-3,1.5019721E-2,4.0462716E-3,-9.47774E-3,7.5071445E-3,1.07881185E-2,-8.731886E-4,-7.835415E-3,1.10153565E-2],"split_indices":[0,11,22,25,25,7,7,22,7,9,11,0,22,0,0,0,0,0,0,0,0,0,0,0,0],"split_type":[0,0,0,0,0,0,0,0,0,0,0,0,0,0,0,0,0,0,0,0,0,0,0,0,0],"sum_hessian":[1.5317873E2,1.4052687E2,1.2651858E1,2.1643204E1,1.1888366E2,9.413909E0,3.2379498E0,1.2707428E1,8.935777E0,1.6593048E1,1.0229061E2,6.362053E0,3.051856E0,1.8743795E0,1.3635705E0,5.5952945E0,7.112133E0,7.318155E0,1.6176215E0,1.5096687E1,1.4963603E0,4.4769177E0,9.78137E1,1.2338835E0,1.8179727E0],"tree_param":{"num_deleted":"0","num_feature":"27","num_nodes":"25","size_leaf_vector":"1"}},{"base_weights":[-2.2124322E-2,-1.0416906E-1,1.0444227E0,-6.8791217E-1,-4.8329744E-2,1.3451389E0,1.2669502E-1,-1.3999764E0,7.987876E-1,1.7788453E-1,-2.4843267E-1,1.4820279E-2,2.40552E-3,-8.001671E-3,1.0537011E-2,1.077246E-3,-1.6326947E-2,1.0951205E-2,3.2249093E-3,2.4692256E-3,-8.451116E-3,-1.2027885E-2,-1.9068837E-3],"categories":[],"categories_nodes":[],"categories_segments":[],"categories_sizes":[],"default_left":[0,0,0,0,0,0,0,0,0,0,0,0,0,0,0,0,0,0,0,0,0,0,0],"id":25,"left_children":[1,3,5,7,9,11,13,15,17,19,21,-1,-1,-1,-1,-1,-1,-1,-1,-1,-1,-1,-1],"loss_changes":[1.36850395E1,4.692359E0,2.9130764E0,1.4437575E1,6.0824304E0,9.0025043E-1,4.1609964E0,3.288248E0,3.1179118E-1,4.671843E0,3.6943436E0,0E0,0E0,0E0,0E0,0E0,0E0,0E0,0E0,0E0,0E0,0E0,0E0],"parents":[2147483647,0,0,1,1,2,2,3,3,4,4,5,5,6,6,7,7,8,8,9,9,10,10],"right_children":[2,4,6,8,10,12,14,16,18,20,22,-1,-1,-1,-1,-1,-1,-1,-1,-1,-1,-1,-1],"split_conditions":[1.1690433E2,1.4742792E3,1.502936E3,7.044121E1,1.5001422E3,1.5106871E3,1.7E-1,1.4703591E3,-3.0540144E-2,1.0335192E2,-3.3695142E0,1.4820279E-2,2.40552E-3,-8.001671E-3,1.0537011E-2,1.077246E-3,-1.6326947E-2,1.0951205E-2,3.2249093E-3,2.4692256E-3,-8.451116E-3,-1.2027885E-2,-1.9068837E-3],"split_indices":[0,22,22,0,22,23,7,23,5,0,8,0,0,0,0,0,0,0,0,0,0,0,0],"split_type":[0,0,0,0,0,0,0,0,0,0,0,0,0,0,0,0,0,0,0,0,0,0,0],"sum_hessian":[1.5414893E2,1.4397583E2,1.0173092E1,1.1581681E1,1.3239415E2,7.311554E0,2.8615382E0,7.8704247E0,3.7112563E0,6.219471E1,7.019944E1,6.201333E0,1.110221E0,1.4992986E0,1.3622395E0,1.1242048E0,6.7462196E0,1.4869157E0,2.2243404E0,5.897345E1,3.2212594E0,2.8737998E0,6.732564E1],"tree_param":{"num_deleted":"0","num_feature":"27","num_nodes":"23","size_leaf_vector":"1"}},{"base_weights":[1.872648E-2,2.0563339E-1,-2.593806E-1,-6.975383E-2,6.8473566E-1,4.661976E-1,-4.3573573E-1,-7.376352E-1,7.611431E-2,3.1533328E-1,1.2542001E0,9.975518E-1,-8.322416E-1,1.3172126E-1,-6.14483E-1,-8.319875E-4,-1.107501E-2,8.484633E-3,-9.313907E-4,-9.948577E-4,8.636426E-3,1.6968162E-3,1.3691916E-2,1.3549505E-2,3.1765748E-3,1.7570627E-3,-1.3307737E-2,-6.002187E-3,5.7515255E-3,-6.8293563E-3,6.894494E-3],"categories":[],"categories_nodes":[],"categories_segments":[],"categories_sizes":[],"default_left":[0,0,0,0,0,0,0,0,0,0,0,0,0,0,0,0,0,0,0,0,0,0,0,0,0,0,0,0,0,0,0],"id":26,"left_children":[1,3,5,7,9,11,13,15,17,19,21,23,25,27,29,-1,-1,-1,-1,-1,-1,-1,-1,-1,-1,-1,-1,-1,-1,-1,-1],"loss_changes":[7.8199606E0,1.1911331E1,7.944415E0,5.707165E0,6.5279484E0,9.324824E0,5.069908E0,2.4472966E0,6.420905E0,4.9302506E0,1.3407192E0,1.8031206E0,2.3043718E0,4.436523E0,3.825159E0,0E0,0E0,0E0,0E0,0E0,0E0,0E0,0E0,0E0,0E0,0E0,0E0,0E0,0E0,0E0,0E0],"parents":[2147483647,0,0,1,1,2,2,3,3,4,4,5,5,6,6,7,7,8,8,9,9,10,10,11,11,12,12,13,13,14,14],"right_children":[2,4,6,8,10,12,14,16,18,20,22,24,26,28,30,-1,-1,-1,-1,-1,-1,-1,-1,-1,-1,-1,-1,-1,-1,-1,-1],"split_conditions":[1.5028917E3,5.7708088E1,-8.7971354E-1,1.4775466E3,7.566746E-2,6.1154984E-2,-4.7915087E0,1.766571E-1,-7.4212976E0,1.4935026E3,-1.2551334E0,1.5193881E3,1.4937742E3,-4.183762E-3,1.8185048E0,-8.319875E-4,-1.107501E-2,8.484633E-3,-9.313907E-4,-9.948577E-4,8.636426E-3,1.6968162E-3,1.3691916E-2,1.3549505E-2,3.1765748E-3,1.7570627E-3,-1.3307737E-2,-6.002187E-3,5.7515255E-3,-6.8293563E-3,6.894494E-3],"split_indices":[22,0,24,22,5,5,11,24,11,22,24,22,23,5,24,0,0,0,0,0,0,0,0,0,0,0,0,0,0,0,0],"split_type":[0,0,0,0,0,0,0,0,0,0,0,0,0,0,0,0,0,0,0,0,0,0,0,0,0,0,0,0,0,0,0],"sum_hessian":[1.484152E2,8.891732E1,5.9497894E1,5.700522E1,3.1912102E1,1.1312273E1,4.8185623E1,9.491223E0,4.7513996E1,2.0298517E1,1.16135845E1,8.191736E0,3.120536E0,1.1605502E1,3.658012E1,3.8695056E0,5.6217175E0,7.8193245E0,3.969467E1,1.2021959E1,8.276557E0,1.3506662E0,1.0262918E1,4.718492E0,3.4732447E0,1.2469554E0,1.8735808E0,4.2450037E0,7.3604984E0,3.520805E1,1.3720701E0],"tree_param":{"num_deleted":"0","num_feature":"27","num_nodes":"31","size_leaf_vector":"1"}},{"base_weights":[-4.595407E-2,-1.14083245E-1,7.7433354E-1,-1.9605492E-1,2.7275524E-1,-3.873349E-2,1.2084423E0,-2.818812E-1,2.52699E-1,4.6551895E-1,-1.3516993E-2,1.0953829E-2,-9.091878E-1,1.3402612E-2,2.0175378E-3,-4.1382643E-3,3.9272784E-4,-4.4768397E-3,4.4897622E-3,-3.6501193E-3,8.216225E-3,-1.1765109E-2,-1.782526E-3],"categories":[],"categories_nodes":[],"categories_segments":[],"categories_sizes":[],"default_left":[0,0,0,0,0,0,0,0,0,0,0,0,0,0,0,0,0,0,0,0,0,0,0],"id":27,"left_children":[1,3,5,7,9,11,13,15,17,19,-1,-1,21,-1,-1,-1,-1,-1,-1,-1,-1,-1,-1],"loss_changes":[8.839061E0,4.6655664E0,4.330375E0,4.7160177E0,8.723696E0,6.12263E0,7.836294E-1,4.32611E0,2.935131E0,7.354086E0,0E0,0E0,4.711566E-1,0E0,0E0,0E0,0E0,0E0,0E0,0E0,0E0,0E0,0E0],"parents":[2147483647,0,0,1,1,2,2,3,3,4,4,5,5,6,6,7,7,8,8,9,9,12,12],"right_children":[2,4,6,8,10,12,14,16,18,20,-1,-1,22,-1,-1,-1,-1,-1,-1,-1,-1,-1,-1],"split_conditions":[1.1690433E2,1E0,1.2E-1,3.4E-1,1.3968053E0,1.5471745E0,5.466667E-1,5.4787556E1,0E0,-7.140463E-2,-1.3516993E-2,1.0953829E-2,4.644224E-1,1.3402612E-2,2.0175378E-3,-4.1382643E-3,3.9272784E-4,-4.4768397E-3,4.4897622E-3,-3.6501193E-3,8.216225E-3,-1.1765109E-2,-1.782526E-3],"split_indices":[0,3,6,7,24,25,7,0,1,5,0,0,24,0,0,0,0,0,0,0,0,0,0],"split_type":[0,0,0,0,0,0,0,0,0,0,0,0,0,0,0,0,0,0,0,0,0,0,0],"sum_hessian":[1.5558302E2,1.4444687E2,1.1136146E1,1.1959722E2,2.4849651E1,4.1932125E0,6.9429326E0,1.0070817E2,1.888905E1,2.2851446E1,1.9982054E0,1.7086309E0,2.484582E0,5.8460727E0,1.0968596E0,7.117681E1,2.9531359E1,3.854396E0,1.5034653E1,6.8501067E0,1.6001339E1,1.3728837E0,1.1116982E0],"tree_param":{"num_deleted":"0","num_feature":"27","num_nodes":"23","size_leaf_vector":"1"}},{"base_weights":[2.7509414E-2,-9.1398515E-2,5.378433E-1,-1.8273221E-1,7.686352E-1,1.1675491E0,1.3718855E-1,3.9200273E-1,-2.9604933E-1,1.2691566E-2,-1.63846E-1,-6.2029767E-3,1.4332438E0,-1.0187231E-2,3.2635853E-1,-6.365513E-4,1.1623149E-2,-8.922671E-3,-1.9743198E-3,-1.1924433E-2,5.377629E-3,1.59683E-2,1.6389124E-3,4.939818E-3,-1.0631299E-2],"categories":[],"categories_nodes":[],"categories_segments":[],"categories_sizes":[],"default_left":[0,0,0,0,0,0,0,0,0,0,0,0,0,0,0,0,0,0,0,0,0,0,0,0,0],"id":28,"left_children":[1,3,5,7,9,11,13,15,17,-1,19,-1,21,-1,23,-1,-1,-1,-1,-1,-1,-1,-1,-1,-1],"loss_changes":[9.200463E0,9.81489E0,7.06631E0,7.4198637E0,5.8161373E0,6.1164904E0,4.408004E0,6.7078676E0,5.3652983E0,0E0,4.30925E0,0E0,1.7904644E0,0E0,4.4321165E0,0E0,0E0,0E0,0E0,0E0,0E0,0E0,0E0,0E0,0E0],"parents":[2147483647,0,0,1,1,2,2,3,3,4,4,5,5,6,6,7,7,8,8,10,10,12,12,14,14],"right_children":[2,4,6,8,10,12,14,16,18,-1,20,-1,22,-1,24,-1,-1,-1,-1,-1,-1,-1,-1,-1,-1],"split_conditions":[1E0,1.1122335E2,-2.4689662E-1,-6.9541907E0,2.2697341E0,-2.882406E0,4.440892E-16,-2.245554E0,1.4817499E3,1.2691566E-2,8.206354E0,-6.2029767E-3,2.5027266E-1,-1.0187231E-2,1.758652E0,-6.365513E-4,1.1623149E-2,-8.922671E-3,-1.9743198E-3,-1.1924433E-2,5.377629E-3,1.59683E-2,1.6389124E-3,4.939818E-3,-1.0631299E-2],"split_indices":[3,0,24,11,9,9,24,25,23,0,11,0,5,0,24,0,0,0,0,0,0,0,0,0,0],"split_type":[0,0,0,0,0,0,0,0,0,0,0,0,0,0,0,0,0,0,0,0,0,0,0,0,0],"sum_hessian":[1.4980573E2,1.2216269E2,2.7643034E1,1.1114668E2,1.10160055E1,1.000467E1,1.7638363E1,1.7900005E1,9.324668E1,6.9333735E0,4.0826316E0,1.1217616E0,8.882909E0,1.8638985E0,1.5774465E1,1.1823494E1,6.076512E0,1.2092204E1,8.115447E1,1.3718458E0,2.7107856E0,7.6402884E0,1.2426203E0,1.4651449E1,1.1230154E0],"tree_param":{"num_deleted":"0","num_feature":"27","num_nodes":"25","size_leaf_vector":"1"}},{"base_weights":[-5.3277407E-3,3.391799E-2,-8.859672E-1,-2.2246398E-2,8.7433326E-1,-1.3874945E-2,2.291748E-3,-8.586567E-1,2.056845E-2,1.1825734E0,-2.2646906E-3,-3.5179271E-3,-1.1969794E-2,-1.9921792E-4,1.06352065E-2,6.2177394E-4,1.3748543E-2],"categories":[],"categories_nodes":[],"categories_segments":[],"categories_sizes":[],"default_left":[0,0,0,0,0,0,0,0,0,0,0,0,0,0,0,0,0],"id":29,"left_children":[1,3,5,7,9,-1,-1,11,13,15,-1,-1,-1,-1,-1,-1,-1],"loss_changes":[5.2608247E0,6.9039493E0,3.9498625E0,4.9485235E0,3.376423E0,0E0,0E0,7.327328E-1,5.593932E0,1.4910545E0,0E0,0E0,0E0,0E0,0E0,0E0,0E0],"parents":[2147483647,0,0,1,1,2,2,3,3,4,4,7,7,8,8,9,9],"right_children":[2,4,6,8,10,-1,-1,12,14,16,-1,-1,-1,-1,-1,-1,-1],"split_conditions":[1.5335524E3,6.6E-1,5.508461E-2,-3.3695142E0,8.8717684E-2,-1.3874945E-2,2.291748E-3,-3.839639E0,3.6570582E-1,-1.945368E0,-2.2646906E-3,-3.5179271E-3,-1.1969794E-2,-1.9921792E-4,1.06352065E-2,6.2177394E-4,1.3748543E-2],"split_indices":[22,6,5,8,5,0,0,25,5,9,0,0,0,0,0,0,0],"split_type":[0,0,0,0,0,0,0,0,0,0,0,0,0,0,0,0,0],"sum_hessian":[1.5034756E2,1.4485364E2,5.493923E0,1.3669212E2,8.161513E0,3.6211193E0,1.8728043E0,5.728465E0,1.3096367E2,6.318079E0,1.8434343E0,3.109591E0,2.618874E0,1.2701355E2,3.9501128E0,1.119319E0,5.19876E0],"tree_param":{"num_deleted":"0","num_feature":"27","num_nodes":"17","size_leaf_vector":"1"}},{"base_weights":[1.8767785E-2,-1.8460228E-1,2.1387804E-1,-1.1757113E-1,-1.3070292E-2,-4.1526327E-1,3.2162085E-1,-3.0541632E-1,3.1008002E-1,-8.477153E-1,7.952108E-1,9.8013235E-3,6.391421E-1,-1.2196744E-3,-9.133413E-3,5.981013E-3,-3.084233E-3,-1.1239001E-2,5.5060796E-3,1.1230828E-2,1.3471118E-4,3.234288E-3,-1.0012567E-2,1.4693764E-2,4.6229516E-3],"categories":[],"categories_nodes":[],"categories_segments":[],"categories_sizes":[],"default_left":[0,0,0,0,0,0,0,0,0,0,0,0,0,0,0,0,0,0,0,0,0,0,0,0,0],"id":30,"left_children":[1,3,5,7,-1,9,11,13,15,17,19,21,23,-1,-1,-1,-1,-1,-1,-1,-1,-1,-1,-1,-1],"loss_changes":[6.242711E0,5.6458673E0,5.5733414E0,6.0262628E0,0E0,7.0448413E0,6.8332872E0,5.666267E0,4.2872624E0,4.2686577E0,9.381952E-1,1.1697559E1,4.343789E0,0E0,0E0,0E0,0E0,0E0,0E0,0E0,0E0,0E0,0E0,0E0,0E0],"parents":[2147483647,0,0,1,1,2,2,3,3,5,5,6,6,7,7,8,8,9,9,10,10,11,11,12,12],"right_children":[2,4,6,8,-1,10,12,14,16,18,20,22,24,-1,-1,-1,-1,-1,-1,-1,-1,-1,-1,-1,-1],"split_conditions":[-4.183762E-3,2.842171E-14,-1.0542539E0,4E-1,-1.3070292E-2,1E0,4.0625023E1,2.480768E-2,-6.2241767E-2,1.3701491E2,5.3699577E1,9.354156E-1,-5.4294485E-1,-1.2196744E-3,-9.133413E-3,5.981013E-3,-3.084233E-3,-1.1239001E-2,5.5060796E-3,1.1230828E-2,1.3471118E-4,3.234288E-3,-1.0012567E-2,1.4693764E-2,4.6229516E-3],"split_indices":[5,14,24,24,0,3,0,24,5,0,0,24,24,0,0,0,0,0,0,0,0,0,0,0,0],"split_type":[0,0,0,0,0,0,0,0,0,0,0,0,0,0,0,0,0,0,0,0,0,0,0,0,0],"sum_hessian":[1.5533301E2,7.608298E1,7.925002E1,7.283786E1,3.2451172E0,1.1170142E1,6.807988E1,5.080685E1,2.2031013E1,8.45073E0,2.7194114E0,3.486844E1,3.321144E1,3.995159E1,1.0855256E1,1.5053819E1,6.9771943E0,7.2207932E0,1.229937E0,1.6082461E0,1.1111654E0,2.713221E1,7.73623E0,4.5486007E0,2.8662842E1],"tree_param":{"num_deleted":"0","num_feature":"27","num_nodes":"25","size_leaf_vector":"1"}},{"base_weights":[1.930346E-2,2.566567E-1,-3.06915E-1,-1.2005215E-2,4.9669898E-1,4.3046817E-1,-4.9568984E-1,1.5253597E-1,-7.9444844E-1,3.358532E-1,1.0746671E0,1.1273919E0,-4.7711888E-1,-5.4694057E-1,1.0074205E-2,-1.853786E-3,6.2152445E-3,3.116199E-3,-1.0244903E-2,3.99309E-3,-8.259738E-3,1.3352021E-2,-1.8427823E-3,1.2807049E-3,1.2846763E-2,-8.992847E-3,3.1942108E-3,4.907164E-3,-6.002123E-3],"categories":[],"categories_nodes":[],"categories_segments":[],"categories_sizes":[],"default_left":[0,0,0,0,0,0,0,0,0,0,0,0,0,0,0,0,0,0,0,0,0,0,0,0,0,0,0,0,0],"id":31,"left_children":[1,3,5,7,9,11,13,15,17,19,21,23,25,27,-1,-1,-1,-1,-1,-1,-1,-1,-1,-1,-1,-1,-1,-1,-1],"loss_changes":[1.2284543E1,5.9256544E0,9.518322E0,5.823302E0,4.147971E0,9.494482E0,4.6867247E0,6.0476346E0,2.3183136E0,3.2343564E0,3.5603647E0,1.1411495E0,2.5917733E0,3.200159E0,0E0,0E0,0E0,0E0,0E0,0E0,0E0,0E0,0E0,0E0,0E0,0E0,0E0,0E0,0E0],"parents":[2147483647,0,0,1,1,2,2,3,3,4,4,5,5,6,6,7,7,8,8,9,9,10,10,11,11,12,12,13,13],"right_children":[2,4,6,8,10,12,14,16,18,20,22,24,26,28,-1,-1,-1,-1,-1,-1,-1,-1,-1,-1,-1,-1,-1,-1,-1],"split_conditions":[1.502936E3,-7.991575E-3,-8.7971354E-1,-2.8344715E-2,1E0,-1.2400695E-2,7.133333E-1,-1.04012184E-1,-1.4125707E0,7.7666664E-1,8E-1,-1.9780853E0,1.2966355E0,-7.133333E-1,1.0074205E-2,-1.853786E-3,6.2152445E-3,3.116199E-3,-1.0244903E-2,3.99309E-3,-8.259738E-3,1.3352021E-2,-1.8427823E-3,1.2807049E-3,1.2846763E-2,-8.992847E-3,3.1942108E-3,4.907164E-3,-6.002123E-3],"split_indices":[22,5,24,5,3,5,6,5,8,6,24,24,8,6,0,0,0,0,0,0,0,0,0,0,0,0,0,0,0],"split_type":[0,0,0,0,0,0,0,0,0,0,0,0,0,0,0,0,0,0,0,0,0,0,0,0,0,0,0,0,0],"sum_hessian":[1.5663823E2,9.079207E1,6.584615E1,4.3290333E1,4.7501736E1,1.3160179E1,5.2685978E1,3.6433685E1,6.8566446E0,3.83971E1,9.10464E0,7.3070264E0,5.8531523E0,5.1563957E1,1.1220206E0,2.152748E1,1.4906207E1,1.1194721E0,5.737172E0,3.7030884E1,1.3662153E0,7.4933424E0,1.6112975E0,1.2403843E0,6.0666423E0,3.7412846E0,2.111868E0,2.1169672E0,4.9446987E1],"tree_param":{"num_deleted":"0","num_feature":"27","num_nodes":"29","size_leaf_vector":"1"}},{"base_weights":[3.3753194E-2,-1.352719E-1,3.4873033E-1,-1.7434467E-2,-7.629979E-1,7.0661217E-1,-2.9636198E-1,2.1436341E-1,-4.2658627E-1,-9.2091364E-1,5.901672E-3,-1.3258763E-1,9.380079E-1,4.313486E-1,-7.0037186E-1,4.7823388E-4,1.0125948E-2,-1.6966065E-3,-1.2402117E-2,-1.0453483E-2,2.8960311E-3,1.1872439E-2,-7.307943E-3,1.0130433E-2,-3.514152E-3,-3.9981087E-3,9.472402E-3,1.4203851E-3,-1.0565912E-2],"categories":[],"categories_nodes":[],"categories_segments":[],"categories_sizes":[],"default_left":[0,0,0,0,0,0,0,0,0,0,0,0,0,0,0,0,0,0,0,0,0,0,0,0,0,0,0,0,0],"id":32,"left_children":[1,3,5,7,9,11,13,15,17,19,-1,21,23,25,27,-1,-1,-1,-1,-1,-1,-1,-1,-1,-1,-1,-1,-1,-1],"loss_changes":[8.0692E0,7.2933507E0,1.2422343E1,8.076094E0,3.8746014E0,6.788849E0,6.058799E0,7.1845202E0,6.22422E0,2.4643173E0,0E0,7.4159813E0,2.970827E0,3.641292E0,4.0426373E0,0E0,0E0,0E0,0E0,0E0,0E0,0E0,0E0,0E0,0E0,0E0,0E0,0E0,0E0],"parents":[2147483647,0,0,1,1,2,2,3,3,4,4,5,5,6,6,7,7,8,8,9,9,11,11,12,12,13,13,14,14],"right_children":[2,4,6,8,10,12,14,16,18,20,-1,22,24,26,28,-1,-1,-1,-1,-1,-1,-1,-1,-1,-1,-1,-1,-1,-1],"split_conditions":[5.6490326E1,9.9682325E-1,1.502936E3,2.5545038E1,5.233333E-1,-6.576534E-1,6.888927E1,5.4294485E-1,1.3511087E-1,1.6280427E0,5.901672E-3,7.874941E-1,1.7669756E0,-9.79992E-2,1.4958141E3,4.7823388E-4,1.0125948E-2,-1.6966065E-3,-1.2402117E-2,-1.0453483E-2,2.8960311E-3,1.1872439E-2,-7.307943E-3,1.0130433E-2,-3.514152E-3,-3.9981087E-3,9.472402E-3,1.4203851E-3,-1.0565912E-2],"split_indices":[0,24,22,0,6,24,0,24,5,25,0,8,13,24,23,0,0,0,0,0,0,0,0,0,0,0,0,0,0],"split_type":[0,0,0,0,0,0,0,0,0,0,0,0,0,0,0,0,0,0,0,0,0,0,0,0,0,0,0,0,0],"sum_hessian":[1.496794E2,9.777908E1,5.1900322E1,8.3190285E1,1.4588799E1,3.3319878E1,1.8580442E1,5.3408627E1,2.9781656E1,1.335025E1,1.2385498E0,7.293964E0,2.6025915E1,6.6088257E0,1.1971616E1,4.5066113E1,8.342514E0,2.3552729E1,6.228926E0,1.2229562E1,1.1206884E0,1.9677714E0,5.3261924E0,2.4797232E1,1.2286844E0,2.6172123E0,3.9916134E0,3.7365186E0,8.235097E0],"tree_param":{"num_deleted":"0","num_feature":"27","num_nodes":"29","size_leaf_vector":"1"}},{"base_weights":[3.6109496E-2,6.353989E-1,-6.852735E-2,-8.255544E-1,9.354918E-1,-7.6162076E-1,3.826125E-2,-1.2710207E-2,-7.8189035E-4,-4.8182225E-3,1.1330041E0,-5.412859E-2,-1.1605258E0,1.0628619E0,-1.1001941E-2,1.8847825E-3,1.5867764E-2,-9.0328595E-3,5.903183E-3,-1.3429524E-2,1.7679803E-3,1.4199854E-2,9.802776E-5,-8.881938E-3,3.803752E-4],"categories":[],"categories_nodes":[],"categories_segments":[],"categories_sizes":[],"default_left":[0,0,0,0,0,0,0,0,0,0,0,0,0,0,0,0,0,0,0,0,0,0,0,0,0],"id":33,"left_children":[1,3,5,7,9,11,13,-1,-1,-1,15,17,19,21,23,-1,-1,-1,-1,-1,-1,-1,-1,-1,-1],"loss_changes":[9.794553E0,1.0948911E1,9.894334E0,1.3943481E0,6.06773E0,4.9727097E0,5.889262E0,0E0,0E0,0E0,7.2490025E0,4.6276E0,3.0089836E0,1.9988661E0,4.855683E0,0E0,0E0,0E0,0E0,0E0,0E0,0E0,0E0,0E0,0E0],"parents":[2147483647,0,0,1,1,2,2,3,3,4,4,5,5,6,6,10,10,11,11,12,12,13,13,14,14],"right_children":[2,4,6,8,10,12,14,-1,-1,-1,16,18,20,22,24,-1,-1,-1,-1,-1,-1,-1,-1,-1,-1],"split_conditions":[-7.1696105E0,-1.3357492E-1,-1.1970687E0,-2.5708983E0,-1.407681E0,-6.454067E-2,-4.7915087E0,-1.2710207E-2,-7.8189035E-4,-4.8182225E-3,-1.1334672E1,-2.8613886E-1,-1.3875446E0,6.1154984E-2,1.4692542E3,1.8847825E-3,1.5867764E-2,-9.0328595E-3,5.903183E-3,-1.3429524E-2,1.7679803E-3,1.4199854E-2,9.802776E-5,-8.881938E-3,3.803752E-4],"split_indices":[11,5,25,25,24,5,11,0,0,0,11,5,8,5,23,0,0,0,0,0,0,0,0,0,0],"split_type":[0,0,0,0,0,0,0,0,0,0,0,0,0,0,0,0,0,0,0,0,0,0,0,0,0],"sum_hessian":[1.5449928E2,2.2211922E1,1.3228735E2,3.4866652E0,1.8725256E1,1.684242E1,1.1544494E2,1.7455583E0,1.7411071E0,2.1142566E0,1.6611E1,6.4819036E0,1.0360517E1,4.352123E0,1.1109281E2,5.849871E0,1.0761128E1,2.623455E0,3.8584485E0,9.113165E0,1.2473514E0,2.989766E0,1.3623568E0,4.9758387E0,1.06116974E2],"tree_param":{"num_deleted":"0","num_feature":"27","num_nodes":"25","size_leaf_vector":"1"}},{"base_weights":[-2.3662537E-2,1.513892E-1,-2.6958817E-1,-1.1546382E-2,1.9837031E-1,-1.3603695E-1,-7.1101904E-1,-1.5119353E-2,5.233299E-1,-9.717742E-1,-3.6953162E-2,6.389626E-2,-9.8673934E-1,-1.1693935E-3,7.471044E-3,-1.1784881E-3,7.590162E-3,-1.25595825E-2,-3.3909726E-4,1.1350461E-2,-1.0229675E-3,-9.050255E-3,9.335639E-3,4.9870387E-3,-1.25755435E-2],"categories":[],"categories_nodes":[],"categories_segments":[],"categories_sizes":[],"default_left":[0,0,0,0,0,0,0,0,0,0,0,0,0,0,0,0,0,0,0,0,0,0,0,0,0],"id":34,"left_children":[1,3,5,-1,7,9,11,13,15,17,19,21,23,-1,-1,-1,-1,-1,-1,-1,-1,-1,-1,-1,-1],"loss_changes":[6.5623937E0,5.6983833E0,3.6381245E0,0E0,6.0363293E0,4.0940614E0,3.1564736E0,4.232822E0,5.300152E0,1.355803E0,3.6103728E0,4.8379517E0,4.947447E0,0E0,0E0,0E0,0E0,0E0,0E0,0E0,0E0,0E0,0E0,0E0,0E0],"parents":[2147483647,0,0,1,1,2,2,4,4,5,5,6,6,7,7,8,8,9,9,10,10,11,11,12,12],"right_children":[2,4,6,-1,8,10,12,14,16,18,20,22,24,-1,-1,-1,-1,-1,-1,-1,-1,-1,-1,-1,-1],"split_conditions":[1.502936E3,1.4658792E3,9.2349425E-2,-1.1546382E-2,4.2852912E-2,1.4801779E3,1.4912062E3,2.0588236E0,1.484381E3,1.0427948E-2,1.4819403E3,1.3950011E-1,-5.2205114E0,-1.1693935E-3,7.471044E-3,-1.1784881E-3,7.590162E-3,-1.25595825E-2,-3.3909726E-4,1.1350461E-2,-1.0229675E-3,-9.050255E-3,9.335639E-3,4.9870387E-3,-1.25755435E-2],"split_indices":[22,23,5,0,5,23,23,26,22,5,23,26,11,0,0,0,0,0,0,0,0,0,0,0,0],"split_type":[0,0,0,0,0,0,0,0,0,0,0,0,0,0,0,0,0,0,0,0,0,0,0,0,0],"sum_hessian":[1.5048953E2,8.8137215E1,6.235232E1,2.2417655E0,8.589545E1,4.8874058E1,1.3478267E1,5.2414207E1,3.348124E1,4.246733E0,4.4627323E1,3.738742E0,9.739525E0,4.698447E1,5.4297366E0,9.133569E0,2.4347672E1,2.9988713E0,1.2478621E0,1.4922355E0,4.3135086E1,1.7492243E0,1.9895178E0,1.3720766E0,8.367448E0],"tree_param":{"num_deleted":"0","num_feature":"27","num_nodes":"25","size_leaf_vector":"1"}},{"base_weights":[4.51683E-2,-2.4747865E-2,8.019293E-1,1.785719E-2,-9.6184933E-1,1.1179157E0,9.4593376E-2,-6.4863116E-2,3.8818508E-1,-4.9931876E-4,-1.3553798E-2,3.4260317E-3,1.2443981E-2,6.7108774E-1,-1.0900382E-2,-6.877758E-5,-8.369848E-3,-4.867052E-3,7.865841E-3,-4.036585E-3,1.1911956E-2],"categories":[],"categories_nodes":[],"categories_segments":[],"categories_sizes":[],"default_left":[0,0,0,0,0,0,0,0,0,0,0,0,0,0,0,0,0,0,0,0,0],"id":35,"left_children":[1,3,5,7,9,11,13,15,17,-1,-1,-1,-1,19,-1,-1,-1,-1,-1,-1,-1],"loss_changes":[8.55954E0,5.9548807E0,2.9519415E0,4.412981E0,2.2598372E0,4.9189663E-1,4.3624916E0,5.2745767E0,9.548396E0,0E0,0E0,0E0,0E0,2.8259306E0,0E0,0E0,0E0,0E0,0E0,0E0,0E0],"parents":[2147483647,0,0,1,1,2,2,3,3,4,4,5,5,6,6,7,7,8,8,13,13],"right_children":[2,4,6,8,10,12,14,16,18,-1,-1,-1,-1,20,-1,-1,-1,-1,-1,-1,-1],"split_conditions":[1.0950056E2,6.0825657E-2,1.5106871E3,1E0,-1.0963976E0,0E0,1.4527737E2,1.524511E3,-8.8717684E-2,-4.9931876E-4,-1.3553798E-2,3.4260317E-3,1.2443981E-2,3.3333335E-2,-1.0900382E-2,-6.877758E-5,-8.369848E-3,-4.867052E-3,7.865841E-3,-4.036585E-3,1.1911956E-2],"split_indices":[0,10,23,3,25,1,0,23,5,0,0,0,0,6,0,0,0,0,0,0,0],"split_type":[0,0,0,0,0,0,0,0,0,0,0,0,0,0,0,0,0,0,0,0,0],"sum_hessian":[1.6040091E2,1.477205E2,1.26804085E1,1.4223479E2,5.4857206E0,8.3636675E0,4.316741E0,1.16938934E2,2.5295853E1,1.9933853E0,3.4923353E0,1.6932242E0,6.670443E0,3.1952808E0,1.1214603E0,1.0970885E2,7.230087E0,7.845456E0,1.7450396E1,1.1150488E0,2.080232E0],"tree_param":{"num_deleted":"0","num_feature":"27","num_nodes":"21","size_leaf_vector":"1"}},{"base_weights":[1.9052887E-2,-5.680287E-2,8.8793033E-1,-1.3597705E-2,-1.1229813E0,1.0456474E0,-2.2624694E-3,-9.016223E-2,3.488281E-1,-4.811475E-4,-1.5132778E-2,1.2829508E-2,1.2297273E-1,2.1508527E-3,-1.9886137E-3,6.1610066E-3,-3.1373252E-3,9.143046E-3,-6.7123524E-3],"categories":[],"categories_nodes":[],"categories_segments":[],"categories_sizes":[],"default_left":[0,0,0,0,0,0,0,0,0,0,0,0,0,0,0,0,0,0,0],"id":36,"left_children":[1,3,5,7,9,11,-1,13,15,-1,-1,-1,17,-1,-1,-1,-1,-1,-1],"loss_changes":[1.0107543E1,6.4926143E0,2.4001122E0,3.8271775E0,2.230268E0,2.2426748E0,0E0,3.8161967E0,4.4544106E0,0E0,0E0,0E0,2.718391E0,0E0,0E0,0E0,0E0,0E0,0E0],"parents":[2147483647,0,0,1,1,2,2,3,3,4,4,5,5,7,7,8,8,12,12],"right_children":[2,4,6,8,10,12,-1,14,16,-1,-1,-1,18,-1,-1,-1,-1,-1,-1],"split_conditions":[1.1122335E2,6.0825657E-2,1E0,1E0,-4.483389E0,1.5099224E3,-2.2624694E-3,-4.7915087E0,1.5051349E3,-4.811475E-4,-1.5132778E-2,1.2829508E-2,2.1658432E0,2.1508527E-3,-1.9886137E-3,6.1610066E-3,-3.1373252E-3,9.143046E-3,-6.7123524E-3],"split_indices":[0,10,2,3,11,23,0,11,23,0,0,0,9,0,0,0,0,0,0],"split_type":[0,0,0,0,0,0,0,0,0,0,0,0,0,0,0,0,0,0,0],"sum_hessian":[1.5158997E2,1.402779E2,1.131208E1,1.3578806E2,4.489838E0,9.9632435E0,1.3488368E0,1.12725395E2,2.306266E1,1.4952463E0,2.994592E0,7.6144166E0,2.3488264E0,2.9343798E1,8.338159E1,1.6483461E1,6.5791984E0,1.1007986E0,1.2480279E0],"tree_param":{"num_deleted":"0","num_feature":"27","num_nodes":"19","size_leaf_vector":"1"}},{"base_weights":[-7.869988E-3,1.6620882E-1,-2.719109E-1,-2.8829033E-2,7.472454E-1,-1.935385E-1,-1.4332071E-2,-6.820395E-1,1.4451087E-1,-4.0294593E-3,8.4957373E-1,-4.0663842E-2,-8.765492E-1,3.4360774E-3,-8.523149E-3,-4.4639545E-4,7.2958553E-3,9.289876E-3,-1.5312351E-3,6.2885014E-3,-1.9934652E-3,7.5670388E-3,-1.2226441E-2],"categories":[],"categories_nodes":[],"categories_segments":[],"categories_sizes":[],"default_left":[0,0,0,0,0,0,0,0,0,0,0,0,0,0,0,0,0,0,0,0,0,0,0],"id":37,"left_children":[1,3,5,7,9,11,-1,13,15,-1,17,19,21,-1,-1,-1,-1,-1,-1,-1,-1,-1,-1],"loss_changes":[7.14267E0,1.0637871E1,5.341156E0,8.149107E0,3.1176853E0,6.12341E0,0E0,2.9274669E0,6.342248E0,0E0,1.8921318E0,5.3573704E0,6.995697E0,0E0,0E0,0E0,0E0,0E0,0E0,0E0,0E0,0E0,0E0],"parents":[2147483647,0,0,1,1,2,2,3,3,4,4,5,5,7,7,8,8,10,10,11,11,12,12],"right_children":[2,4,6,8,10,12,-1,14,16,-1,18,20,22,-1,-1,-1,-1,-1,-1,-1,-1,-1,-1],"split_conditions":[1.502936E3,7.869112E1,1.4210855E-14,1.4775466E3,-1.31458E0,1.4400287E-1,-1.4332071E-2,1.4562708E3,1E0,-4.0294593E-3,2.8860602E0,-9.6705145E-1,-6.282019E0,3.4360774E-3,-8.523149E-3,-4.4639545E-4,7.2958553E-3,9.289876E-3,-1.5312351E-3,6.2885014E-3,-1.9934652E-3,7.5670388E-3,-1.2226441E-2],"split_indices":[22,0,13,22,24,5,0,22,1,0,14,24,11,0,0,0,0,0,0,0,0,0,0],"split_type":[0,0,0,0,0,0,0,0,0,0,0,0,0,0,0,0,0,0,0,0,0,0,0],"sum_hessian":[1.5341406E2,9.268111E1,6.0732952E1,7.010065E1,2.2580458E1,5.7986286E1,2.7466638E0,1.4085699E1,5.601495E1,1.6047685E0,2.097569E1,4.8246964E1,9.739326E0,1.8605851E0,1.2225114E1,4.3028008E1,1.2986942E1,1.9504446E1,1.4712441E0,8.676429E0,3.9570534E1,1.4955034E0,8.243822E0],"tree_param":{"num_deleted":"0","num_feature":"27","num_nodes":"23","size_leaf_vector":"1"}},{"base_weights":[-1.578182E-2,-1.8492931E-1,3.141149E-1,-4.403725E-2,-7.525365E-1,5.73539E-1,-2.138904E-1,-1.5697931E-1,4.6976268E-1,-9.088496E-1,3.5014893E-3,-2.4595982E-1,7.2257125E-1,9.3996376E-2,-9.315133E-1,-7.444553E-4,-1.3158233E-2,9.461461E-3,-3.3847168E-3,-1.4932518E-2,-5.776601E-3,1.0191538E-2,-8.5223E-3,8.875958E-3,1.7644343E-3,6.2962887E-3,-4.0149377E-3,-1.4961879E-2,5.587872E-3],"categories":[],"categories_nodes":[],"categories_segments":[],"categories_sizes":[],"default_left":[0,0,0,0,0,0,0,0,0,0,0,0,0,0,0,0,0,0,0,0,0,0,0,0,0,0,0,0,0],"id":38,"left_children":[1,3,5,7,9,11,13,15,17,19,-1,21,23,25,27,-1,-1,-1,-1,-1,-1,-1,-1,-1,-1,-1,-1,-1,-1],"loss_changes":[8.604842E0,8.114325E0,7.284468E0,4.871757E0,3.7995834E0,4.4927187E0,4.054406E0,6.4566965E0,6.15352E0,2.6150951E0,0E0,5.6105638E0,2.5604744E0,3.8282585E0,5.4492717E0,0E0,0E0,0E0,0E0,0E0,0E0,0E0,0E0,0E0,0E0,0E0,0E0,0E0,0E0],"parents":[2147483647,0,0,1,1,2,2,3,3,4,4,5,5,6,6,7,7,8,8,9,9,11,11,12,12,13,13,14,14],"right_children":[2,4,6,8,10,12,14,16,18,20,-1,22,24,26,28,-1,-1,-1,-1,-1,-1,-1,-1,-1,-1,-1,-1,-1,-1],"split_conditions":[5.6490326E1,9.0974027E-1,1.5028917E3,1E0,5.4E-1,-1.0099659E0,9.6827446E1,1.5226447E3,1.5040913E3,1.4901356E3,3.5014893E-3,6.9151455E-1,1.5070792E3,1.4958141E3,3.3666667E-1,-7.444553E-4,-1.3158233E-2,9.461461E-3,-3.3847168E-3,-1.4932518E-2,-5.776601E-3,1.0191538E-2,-8.5223E-3,8.875958E-3,1.7644343E-3,6.2962887E-3,-4.0149377E-3,-1.4961879E-2,5.587872E-3],"split_indices":[0,24,22,3,6,24,0,23,23,23,0,26,23,23,6,0,0,0,0,0,0,0,0,0,0,0,0,0,0],"split_type":[0,0,0,0,0,0,0,0,0,0,0,0,0,0,0,0,0,0,0,0,0,0,0,0,0,0,0,0,0],"sum_hessian":[1.5216434E2,1.008798E2,5.128453E1,8.168215E1,1.9197647E1,3.4330658E1,1.695387E1,6.7531944E1,1.4150209E1,1.6968092E1,2.2295566E0,5.182537E0,2.914812E1,1.2471957E1,4.481914E0,6.403552E1,3.4964192E0,8.795436E0,5.354773E0,4.8685365E0,1.2099555E1,1.4583507E0,3.7241862E0,2.190407E1,7.2440505E0,5.8631177E0,6.60884E0,3.2474904E0,1.2344238E0],"tree_param":{"num_deleted":"0","num_feature":"27","num_nodes":"29","size_leaf_vector":"1"}},{"base_weights":[4.307546E-2,2.3754354E-1,-2.6898894E-1,-1.0282844E-2,4.589624E-1,5.8946407E-1,-4.1110793E-1,1.8627192E-1,-9.0013117E-1,-2.4776359E-1,6.447477E-1,9.295143E-1,-4.909613E-3,-7.261768E-1,1.1809306E-1,-1.12438E-2,2.6651588E-3,1.8256065E-3,-1.1316794E-2,-5.1183323E-3,5.445064E-3,1.6550267E-3,8.13045E-3,1.4750424E-2,-2.9181663E-3,-4.9373275E-3,-1.1785803E-2,-3.7242454E-3,7.3890355E-3],"categories":[],"categories_nodes":[],"categories_segments":[],"categories_sizes":[],"default_left":[0,0,0,0,0,0,0,0,0,0,0,0,0,0,0,0,0,0,0,0,0,0,0,0,0,0,0,0,0],"id":39,"left_children":[1,3,5,7,9,11,13,15,17,19,21,23,-1,25,27,-1,-1,-1,-1,-1,-1,-1,-1,-1,-1,-1,-1,-1,-1],"loss_changes":[8.681489E0,4.8344264E0,6.950794E0,7.6026917E0,6.265976E0,3.4767404E0,8.049887E0,4.0487127E0,2.1776476E0,2.455183E0,2.8580112E0,4.8268876E0,0E0,2.581252E0,5.965238E0,0E0,0E0,0E0,0E0,0E0,0E0,0E0,0E0,0E0,0E0,0E0,0E0,0E0,0E0],"parents":[2147483647,0,0,1,1,2,2,3,3,4,4,5,5,6,6,7,7,8,8,9,9,10,10,11,11,13,13,14,14],"right_children":[2,4,6,8,10,12,14,16,18,20,22,24,-1,26,28,-1,-1,-1,-1,-1,-1,-1,-1,-1,-1,-1,-1,-1,-1],"split_conditions":[1.503299E3,-7.991575E-3,-4.5666668E-1,-2.8344715E-2,-3.3666667E-1,1.5298401E3,2.1666667E-1,-4.559965E-1,-1.4374527E0,1E0,-9.0115803E-1,1.0532231E0,-4.909613E-3,7.566746E-2,2.676578E-1,-1.12438E-2,2.6651588E-3,1.8256065E-3,-1.1316794E-2,-5.1183323E-3,5.445064E-3,1.6550267E-3,8.13045E-3,1.4750424E-2,-2.9181663E-3,-4.9373275E-3,-1.1785803E-2,-3.7242454E-3,7.3890355E-3],"split_indices":[22,5,6,5,7,22,6,5,8,3,25,8,0,5,25,0,0,0,0,0,0,0,0,0,0,0,0,0,0],"split_type":[0,0,0,0,0,0,0,0,0,0,0,0,0,0,0,0,0,0,0,0,0,0,0,0,0,0,0,0,0],"sum_hessian":[1.4100166E2,8.701539E1,5.398627E1,4.150918E1,4.5506207E1,7.220998E0,4.676527E1,3.4646854E1,6.862324E0,9.403136E0,3.6103073E1,5.59859E0,1.6224078E0,2.9079865E1,1.7685408E1,1.2481633E0,3.339869E1,1.2463071E0,5.6160173E0,7.3179674E0,2.0851684E0,9.898734E0,2.6204338E1,3.7263975E0,1.8721924E0,2.05914E1,8.488463E0,1.0102933E1,7.5824757E0],"tree_param":{"num_deleted":"0","num_feature":"27","num_nodes":"29","size_leaf_vector":"1"}},{"base_weights":[5.2336726E-2,1.6713685E-1,-4.8872438E-1,-1.3102981E-1,4.3617162E-1,-7.8433824E-1,9.000542E-2,5.819783E-1,-2.6267985E-1,6.9864655E-1,3.6806438E-2,-1.0125583E0,4.5668334E-1,7.49157E-1,-5.417387E-1,1.2378897E-2,-4.7995526E-4,6.76457E-3,-3.9875023E-3,8.012635E-3,-2.459012E-3,3.7836507E-3,-6.826157E-3,-1.3978628E-2,-2.632068E-3,1.0271136E-2,-3.1957203E-3,1.2991111E-2,-1.7979561E-3,3.884347E-3,-1.0390092E-2],"categories":[],"categories_nodes":[],"categories_segments":[],"categories_sizes":[],"default_left":[0,0,0,0,0,0,0,0,0,0,0,0,0,0,0,0,0,0,0,0,0,0,0,0,0,0,0,0,0,0,0],"id":40,"left_children":[1,3,5,7,9,11,13,15,17,19,21,23,25,27,29,-1,-1,-1,-1,-1,-1,-1,-1,-1,-1,-1,-1,-1,-1,-1,-1],"loss_changes":[9.560109E0,1.0215252E1,4.683796E0,5.863141E0,6.9764023E0,5.5466623E0,4.5757875E0,4.1057734E0,6.9199486E0,4.0985355E0,7.02728E0,4.0997496E0,1.8680995E0,2.9516199E0,3.037146E0,0E0,0E0,0E0,0E0,0E0,0E0,0E0,0E0,0E0,0E0,0E0,0E0,0E0,0E0,0E0,0E0],"parents":[2147483647,0,0,1,1,2,2,3,3,4,4,5,5,6,6,7,7,8,8,9,9,10,10,11,11,12,12,13,13,14,14],"right_children":[2,4,6,8,10,12,14,16,18,20,22,24,26,28,30,-1,-1,-1,-1,-1,-1,-1,-1,-1,-1,-1,-1,-1,-1,-1,-1],"split_conditions":[9.0974027E-1,-7.991575E-3,5.6490326E1,-1.216269E0,1.5016692E3,5.4E-1,1.2694372E0,-9.2349425E-2,-6.707896E0,1.4210855E-14,6.319205E-1,1.500593E3,-8.94997E-2,1.4986908E3,-1.4E-1,1.2378897E-2,-4.7995526E-4,6.76457E-3,-3.9875023E-3,8.012635E-3,-2.459012E-3,3.7836507E-3,-6.826157E-3,-1.3978628E-2,-2.632068E-3,1.0271136E-2,-3.1957203E-3,1.2991111E-2,-1.7979561E-3,3.884347E-3,-1.0390092E-2],"split_indices":[24,5,0,24,22,6,25,5,11,14,25,23,5,23,6,0,0,0,0,0,0,0,0,0,0,0,0,0,0,0,0],"split_type":[0,0,0,0,0,0,0,0,0,0,0,0,0,0,0,0,0,0,0,0,0,0,0,0,0,0,0,0,0,0,0],"sum_hessian":[1.5159753E2,1.2563245E2,2.5965082E1,5.9833244E1,6.57992E1,1.6951181E1,9.013901E0,8.792575E0,5.104067E1,3.9252125E1,2.6547077E1,1.447362E1,2.477562E0,4.320307E0,4.6935935E0,3.8348498E0,4.9577246E0,5.956747E0,4.508392E1,3.554244E1,3.7096846E0,1.8322306E1,8.224773E0,8.987144E0,5.486475E0,1.2418361E0,1.2357259E0,2.4634428E0,1.8568641E0,1.7113255E0,2.982268E0],"tree_param":{"num_deleted":"0","num_feature":"27","num_nodes":"31","size_leaf_vector":"1"}},{"base_weights":[1.7573722E-2,2.280551E-1,-2.8961706E-1,-2.1905106E-2,6.5450513E-1,-1.8260711E-1,-1.0586677E0,-1.183737E-2,1.3169219E-1,1.1253853E0,2.933566E-1,-1.0252523E-2,-1.2791625E-1,1.3971196E-3,-1.3245881E-2,7.165415E-5,7.4576233E-3,5.5476893E-3,1.4934611E-2,-1.7800365E-3,8.143398E-3,1.036715E-2,-1.7818928E-3],"categories":[],"categories_nodes":[],"categories_segments":[],"categories_sizes":[],"default_left":[0,0,0,0,0,0,0,0,0,0,0,0,0,0,0,0,0,0,0,0,0,0,0],"id":41,"left_children":[1,3,5,7,9,11,13,-1,15,17,19,-1,21,-1,-1,-1,-1,-1,-1,-1,-1,-1,-1],"loss_changes":[9.848912E0,9.644516E0,4.9056344E0,1.0492926E1,5.352803E0,2.4311285E0,2.5304184E0,0E0,3.9757118E0,2.1439571E0,5.12147E0,0E0,3.308515E0,0E0,0E0,0E0,0E0,0E0,0E0,0E0,0E0,0E0,0E0],"parents":[2147483647,0,0,1,1,2,2,3,3,4,4,5,5,6,6,8,8,9,9,10,10,12,12],"right_children":[2,4,6,8,10,12,14,-1,16,18,20,-1,22,-1,-1,-1,-1,-1,-1,-1,-1,-1,-1],"split_conditions":[1.502936E3,5.853743E1,2E0,1.472593E3,7.874941E-1,-3.3695142E0,-6.09922E-1,-1.183737E-2,1E0,2.8344715E-2,2.0226817E0,-1.0252523E-2,-8.2936356E1,1.3971196E-3,-1.3245881E-2,7.165415E-5,7.4576233E-3,5.5476893E-3,1.4934611E-2,-1.7800365E-3,8.143398E-3,1.036715E-2,-1.7818928E-3],"split_indices":[22,0,1,22,8,8,24,0,3,5,25,0,0,0,0,0,0,0,0,0,0,0,0],"split_type":[0,0,0,0,0,0,0,0,0,0,0,0,0,0,0,0,0,0,0,0,0,0,0],"sum_hessian":[1.5030182E2,8.934316E1,6.0958656E1,5.6925423E1,3.241774E1,5.4598907E1,6.3597484E0,5.8638287E0,5.1061592E1,1.3152651E1,1.926509E1,2.246092E0,5.2352818E1,1.2411356E0,5.118613E0,4.329376E1,7.767836E0,6.1404777E0,7.0121727E0,1.0459854E1,8.805236E0,1.3544223E0,5.0998394E1],"tree_param":{"num_deleted":"0","num_feature":"27","num_nodes":"23","size_leaf_vector":"1"}},{"base_weights":[-1.0581427E-2,1.7832313E-1,-2.915304E-1,1.5211145E-2,6.097777E-1,-5.6031793E-1,3.157304E-2,-1.06130034E-1,6.788292E-1,-2.922363E-1,7.384277E-1,-2.4178597E-1,-1.107742E0,3.1584343E-1,-6.622409E-1,-2.8887088E-3,2.282298E-3,-3.9149243E-3,1.0547537E-2,-7.6296437E-3,2.7563667E-3,8.0806725E-3,-1.4686335E-3,-5.6233E-3,4.3031294E-3,-3.1825851E-3,-1.2554451E-2,4.8525007E-3,-1.1465752E-2,-1.2025689E-2,8.2359253E-4],"categories":[],"categories_nodes":[],"categories_segments":[],"categories_sizes":[],"default_left":[0,0,0,0,0,0,0,0,0,0,0,0,0,0,0,0,0,0,0,0,0,0,0,0,0,0,0,0,0,0,0],"id":42,"left_children":[1,3,5,7,9,11,13,15,17,19,21,23,25,27,29,-1,-1,-1,-1,-1,-1,-1,-1,-1,-1,-1,-1,-1,-1,-1,-1],"loss_changes":[8.130092E0,6.4394846E0,5.365248E0,5.5090947E0,3.1300106E0,5.6025944E0,5.910891E0,3.6066198E0,4.66698E0,1.239759E0,1.491148E0,5.1025977E0,1.011939E0,5.804549E0,3.609358E0,0E0,0E0,0E0,0E0,0E0,0E0,0E0,0E0,0E0,0E0,0E0,0E0,0E0,0E0,0E0,0E0],"parents":[2147483647,0,0,1,1,2,2,3,3,4,4,5,5,6,6,7,7,8,8,9,9,10,10,11,11,12,12,13,13,14,14],"right_children":[2,4,6,8,10,12,14,16,18,20,22,24,26,28,30,-1,-1,-1,-1,-1,-1,-1,-1,-1,-1,-1,-1,-1,-1,-1,-1],"split_conditions":[1.502936E3,1.9333333E-1,6E-2,1E0,-2.7317673E-1,-1.3666667E-1,4.8666668E-1,7.566746E-2,-6.454067E-2,1.4889769E3,1.4210855E-14,1.5187122E3,-1.5113407E0,1.4210855E-14,-7.896858E-2,-2.8887088E-3,2.282298E-3,-3.9149243E-3,1.0547537E-2,-7.6296437E-3,2.7563667E-3,8.0806725E-3,-1.4686335E-3,-5.6233E-3,4.3031294E-3,-3.1825851E-3,-1.2554451E-2,4.8525007E-3,-1.1465752E-2,-1.2025689E-2,8.2359253E-4],"split_indices":[22,7,6,3,5,6,6,5,5,22,14,22,25,14,25,0,0,0,0,0,0,0,0,0,0,0,0,0,0,0,0],"split_type":[0,0,0,0,0,0,0,0,0,0,0,0,0,0,0,0,0,0,0,0,0,0,0,0,0,0,0,0,0,0,0],"sum_hessian":[1.5120874E2,9.0633705E1,6.057504E1,6.652071E1,2.4112991E1,3.266613E1,2.7908907E1,5.6947968E1,9.572744E0,2.8511226E0,2.1261868E1,2.1561644E1,1.1104487E1,2.0183903E1,7.7250037E0,3.69108E1,2.0037165E1,2.4774914E0,7.0952525E0,1.3710597E0,1.480063E0,1.9792187E1,1.4696814E0,1.4709545E1,6.8520985E0,2.2472904E0,8.857197E0,1.8687347E1,1.4965566E0,4.1201296E0,3.604874E0],"tree_param":{"num_deleted":"0","num_feature":"27","num_nodes":"31","size_leaf_vector":"1"}},{"base_weights":[-8.665521E-3,-1.5378669E-1,5.3535163E-1,6.079584E-2,-4.7563305E-1,6.371245E-1,-6.6076843E-3,-4.8075065E-1,1.9700098E-1,-3.4108594E-1,-1.4299167E-2,1.19232684E-1,8.3848244E-1,7.887856E-4,-1.355886E-2,-8.585164E-3,3.1603703E-3,-6.1489874E-3,2.6367265E-3,6.4698053E-3,-1.10899545E-2,9.825081E-3,-2.7914955E-3],"categories":[],"categories_nodes":[],"categories_segments":[],"categories_sizes":[],"default_left":[0,0,0,0,0,0,0,0,0,0,0,0,0,0,0,0,0,0,0,0,0,0,0],"id":43,"left_children":[1,3,5,7,9,11,-1,13,15,17,-1,19,21,-1,-1,-1,-1,-1,-1,-1,-1,-1,-1],"loss_changes":[1.1978171E1,8.2974415E0,4.3107853E0,5.4585834E0,5.676035E0,3.0240011E0,0E0,7.4065857E0,7.661046E0,7.34661E0,0E0,6.9093337E0,3.7197294E0,0E0,0E0,0E0,0E0,0E0,0E0,0E0,0E0,0E0,0E0],"parents":[2147483647,0,0,1,1,2,2,3,3,4,4,5,5,7,7,8,8,9,9,11,11,12,12],"right_children":[2,4,6,8,10,12,-1,14,16,18,-1,20,22,-1,-1,-1,-1,-1,-1,-1,-1,-1,-1],"split_conditions":[3.4333333E-1,1.5035328E3,1.5298401E3,-1.5661534E0,2E0,-6.407232E-1,-6.6076843E-3,-7.1696105E0,1.4768114E3,6E-2,-1.4299167E-2,-3.5022376E0,1.0649461E1,7.887856E-4,-1.355886E-2,-8.585164E-3,3.1603703E-3,-6.1489874E-3,2.6367265E-3,6.4698053E-3,-1.10899545E-2,9.825081E-3,-2.7914955E-3],"split_indices":[6,22,22,8,1,25,0,11,23,6,0,11,11,0,0,0,0,0,0,0,0,0,0],"split_type":[0,0,0,0,0,0,0,0,0,0,0,0,0,0,0,0,0,0,0,0,0,0,0],"sum_hessian":[1.4967867E2,1.1872507E2,3.0953602E1,7.171926E1,4.700581E1,2.8957104E1,1.9964986E0,1.39047785E1,5.781448E1,4.238698E1,4.6188316E0,8.55243E0,2.0404673E1,9.036201E0,4.868578E0,5.2296696E0,5.2584812E1,2.9165243E1,1.3221735E1,6.3130608E0,2.2393694E0,1.8182459E1,2.2222145E0],"tree_param":{"num_deleted":"0","num_feature":"27","num_nodes":"23","size_leaf_vector":"1"}},{"base_weights":[-2.8385252E-3,-1.7955741E-1,3.2770264E-1,4.1660655E-1,-3.1878358E-1,5.7713985E-1,-1.543721E-1,-7.0962507E-1,8.2112724E-1,-1.5877257E-1,-9.7158045E-1,2.5067118E-1,1.1334726E0,7.810877E-1,-5.3669053E-1,-1.0680932E-2,3.4214882E-3,-5.331758E-3,1.0433044E-2,-1.4843772E-2,-7.061325E-4,4.1410504E-3,-1.2159434E-2,1.994281E-4,9.256519E-3,1.3396644E-2,-4.754956E-3,-1.5440192E-3,1.1988915E-2,-8.079015E-3,2.4055913E-3],"categories":[],"categories_nodes":[],"categories_segments":[],"categories_sizes":[],"default_left":[0,0,0,0,0,0,0,0,0,0,0,0,0,0,0,0,0,0,0,0,0,0,0,0,0,0,0,0,0,0,0],"id":44,"left_children":[1,3,5,7,9,11,13,15,17,19,21,23,25,27,29,-1,-1,-1,-1,-1,-1,-1,-1,-1,-1,-1,-1,-1,-1,-1,-1],"loss_changes":[8.433127E0,7.940338E0,6.1374063E0,8.893503E0,7.8702292E0,5.7746334E0,6.8354425E0,2.3852313E0,4.734189E0,7.2453194E0,5.5583477E0,3.4554467E0,4.635458E0,2.378638E0,3.0039024E0,0E0,0E0,0E0,0E0,0E0,0E0,0E0,0E0,0E0,0E0,0E0,0E0,0E0,0E0,0E0,0E0],"parents":[2147483647,0,0,1,1,2,2,3,3,4,4,5,5,6,6,7,7,8,8,9,9,10,10,11,11,12,12,13,13,14,14],"right_children":[2,4,6,8,10,12,14,16,18,20,22,24,26,28,30,-1,-1,-1,-1,-1,-1,-1,-1,-1,-1,-1,-1,-1,-1,-1,-1],"split_conditions":[5.676084E1,-7.1696105E0,1.502936E3,-3.3695142E0,1.1752907E-1,7.566746E-2,6.888927E1,8E-2,-1.407681E0,-1.9075954E0,-1.2286134E1,2.054596E0,1.5236736E3,-3.833908E-1,2.5333333E-1,-1.0680932E-2,3.4214882E-3,-5.331758E-3,1.0433044E-2,-1.4843772E-2,-7.061325E-4,4.1410504E-3,-1.2159434E-2,1.994281E-4,9.256519E-3,1.3396644E-2,-4.754956E-3,-1.5440192E-3,1.1988915E-2,-8.079015E-3,2.4055913E-3],"split_indices":[0,11,22,8,5,5,0,6,24,26,0,9,23,24,7,0,0,0,0,0,0,0,0,0,0,0,0,0,0,0,0],"split_type":[0,0,0,0,0,0,0,0,0,0,0,0,0,0,0,0,0,0,0,0,0,0,0,0,0,0,0,0,0,0,0],"sum_hessian":[1.4236371E2,9.30648E1,4.929892E1,1.7242105E1,7.582269E1,3.2358597E1,1.6940323E1,4.357128E0,1.2884977E1,6.1894558E1,1.3928131E1,2.1306208E1,1.1052388E1,4.612179E0,1.2328144E1,3.2380219E0,1.1191064E0,1.6186371E0,1.126634E1,2.8720245E0,5.9022533E1,1.9838538E0,1.1944277E1,1.6645746E1,4.660462E0,9.945263E0,1.1071252E0,1.6185608E0,2.9936178E0,9.109922E0,3.2182224E0],"tree_param":{"num_deleted":"0","num_feature":"27","num_nodes":"31","size_leaf_vector":"1"}},{"base_weights":[-3.2868806E-2,-2.0161366E-1,2.79108E-1,-9.943662E-1,-1.24791585E-1,5.270994E-1,-2.3933518E-1,-1.2922121E0,5.2720336E-3,-2.5643787E-1,3.1958753E-1,1.0514104E0,1.2349829E-1,-5.9832025E-1,5.421601E-1,-3.7845804E-3,-1.4576997E-2,-1.6059616E-3,-1.345424E-2,8.172227E-3,-4.5703887E-3,4.4471766E-3,1.4850013E-2,-3.0927148E-3,6.8930527E-3,3.0664292E-3,-1.1644163E-2,9.442812E-3,-2.052453E-3],"categories":[],"categories_nodes":[],"categories_segments":[],"categories_sizes":[],"default_left":[0,0,0,0,0,0,0,0,0,0,0,0,0,0,0,0,0,0,0,0,0,0,0,0,0,0,0,0,0],"id":45,"left_children":[1,3,5,7,9,11,13,15,-1,17,19,21,23,25,27,-1,-1,-1,-1,-1,-1,-1,-1,-1,-1,-1,-1,-1,-1],"loss_changes":[8.045091E0,5.9089346E0,7.028716E0,4.5824146E0,5.4321384E0,7.6211634E0,5.3907776E0,5.8072853E-1,0E0,7.2055244E0,8.623423E0,3.4955235E0,5.5584946E0,6.940106E0,2.0599155E0,0E0,0E0,0E0,0E0,0E0,0E0,0E0,0E0,0E0,0E0,0E0,0E0,0E0,0E0],"parents":[2147483647,0,0,1,1,2,2,3,3,4,4,5,5,6,6,7,7,9,9,10,10,11,11,12,12,13,13,14,14],"right_children":[2,4,6,8,10,12,14,16,-1,18,20,22,24,26,28,-1,-1,-1,-1,-1,-1,-1,-1,-1,-1,-1,-1,-1,-1],"split_conditions":[5.6490326E1,1.4764781E3,1.502936E3,2.8E-1,1E0,7.874941E-1,2.7E-1,1.4633069E3,5.2720336E-3,1.5226447E3,1.5089742E3,2.8344715E-2,2.0226817E0,7.6091644E1,2.6035845E0,-3.7845804E-3,-1.4576997E-2,-1.6059616E-3,-1.345424E-2,8.172227E-3,-4.5703887E-3,4.4471766E-3,1.4850013E-2,-3.0927148E-3,6.8930527E-3,3.0664292E-3,-1.1644163E-2,9.442812E-3,-2.052453E-3],"split_indices":[0,22,22,7,1,8,6,22,0,23,22,5,25,0,8,0,0,0,0,0,0,0,0,0,0,0,0,0,0],"split_type":[0,0,0,0,0,0,0,0,0,0,0,0,0,0,0,0,0,0,0,0,0,0,0,0,0,0,0,0,0],"sum_hessian":[1.5075037E2,9.8062935E1,5.2687424E1,7.608151E0,9.045479E1,3.5628323E1,1.70591E1,6.4887257E0,1.119425E0,7.010829E1,2.034649E1,1.4798621E1,2.0829702E1,1.1850078E1,5.2090216E0,1.498968E0,4.9897575E0,6.549183E1,4.6164656E0,1.23687525E1,7.9777393E0,7.0123715E0,7.78625E0,1.205929E1,8.7704115E0,4.7365437E0,7.1135345E0,3.215563E0,1.9934585E0],"tree_param":{"num_deleted":"0","num_feature":"27","num_nodes":"29","size_leaf_vector":"1"}},{"base_weights":[4.2264547E-2,-1.20064326E-1,4.066493E-1,-2.2902957E-1,3.5419834E-1,8.2101667E-1,6.853869E-2,9.8639075E-3,-2.7218902E-1,7.038527E-1,-1.0681886E-1,-8.614375E-2,9.9246985E-1,-4.1441917E-1,5.800368E-1,5.069727E-3,-3.275614E-3,2.9682233E-3,1.3678868E-2,8.67142E-3,-6.399204E-3,8.3734365E-3,-1.1987476E-2,-8.7926764E-4,1.0943208E-2,-6.3285273E-3,1.0038805E-2,9.964443E-3,-1.3599877E-3],"categories":[],"categories_nodes":[],"categories_segments":[],"categories_sizes":[],"default_left":[0,0,0,0,0,0,0,0,0,0,0,0,0,0,0,0,0,0,0,0,0,0,0,0,0,0,0,0,0],"id":46,"left_children":[1,3,5,7,9,11,13,-1,15,17,19,21,23,25,27,-1,-1,-1,-1,-1,-1,-1,-1,-1,-1,-1,-1,-1,-1],"loss_changes":[9.171123E0,5.6346903E0,6.634739E0,4.8843822E0,3.3749518E0,3.408988E0,7.0066056E0,0E0,3.8661146E0,2.7760143E0,5.5900016E0,5.439107E0,2.0825748E0,5.180555E0,4.225927E0,0E0,0E0,0E0,0E0,0E0,0E0,0E0,0E0,0E0,0E0,0E0,0E0,0E0,0E0],"parents":[2147483647,0,0,1,1,2,2,3,3,4,4,5,5,6,6,8,8,9,9,10,10,11,11,12,12,13,13,14,14],"right_children":[2,4,6,8,10,12,14,-1,16,18,20,22,24,26,28,-1,-1,-1,-1,-1,-1,-1,-1,-1,-1,-1,-1,-1,-1],"split_conditions":[6.1082672E1,3.4333333E-1,1.0715445E0,-9.3333334E-1,2.6507704E1,-3.7666667E-1,2E0,9.8639075E-3,-7.937901E1,1E0,1.4912062E3,-5.0333333E-1,0E0,1.5362316E3,2.8352764E0,5.069727E-3,-3.275614E-3,2.9682233E-3,1.3678868E-2,8.67142E-3,-6.399204E-3,8.3734365E-3,-1.1987476E-2,-8.7926764E-4,1.0943208E-2,-6.3285273E-3,1.0038805E-2,9.964443E-3,-1.3599877E-3],"split_indices":[0,6,9,6,0,7,26,0,0,3,23,7,12,23,25,0,0,0,0,0,0,0,0,0,0,0,0,0,0],"split_type":[0,0,0,0,0,0,0,0,0,0,0,0,0,0,0,0,0,0,0,0,0,0,0,0,0,0,0,0,0],"sum_hessian":[1.532227E2,1.0646456E2,4.675814E1,8.6994125E1,1.9470438E1,2.0368061E1,2.639008E1,2.233778E0,8.4760345E1,1.0773008E1,8.697431E0,3.3167377E0,1.7051323E1,1.367135E1,1.271873E1,5.0828166E0,7.967753E1,7.5761094E0,3.1968987E0,2.8549404E0,5.84249E0,1.9475921E0,1.3691456E0,1.4807531E0,1.557057E1,1.2326698E1,1.3446509E0,7.7943473E0,4.924382E0],"tree_param":{"num_deleted":"0","num_feature":"27","num_nodes":"29","size_leaf_vector":"1"}},{"base_weights":[2.1543298E-3,1.156337E-1,-5.034668E-1,3.385515E-1,-1.2636502E-1,-7.181678E-1,3.4457088E-1,8.436119E-2,8.169302E-1,9.396735E-2,-7.8216875E-1,-8.4938383E-1,7.0810253E-3,1.1058484E-2,-5.1745456E-1,-6.239756E-4,6.8030334E-3,3.8282152E-3,1.162937E-2,4.2431927E-3,-5.505752E-3,-1.4318767E-2,-2.2689877E-3,-1.0228874E-2,1.238332E-4,2.4759793E-3,-1.1219214E-2],"categories":[],"categories_nodes":[],"categories_segments":[],"categories_sizes":[],"default_left":[0,0,0,0,0,0,0,0,0,0,0,0,0,0,0,0,0,0,0,0,0,0,0,0,0,0,0],"id":47,"left_children":[1,3,5,7,9,11,13,15,17,19,21,23,-1,-1,25,-1,-1,-1,-1,-1,-1,-1,-1,-1,-1,-1,-1],"loss_changes":[8.902311E0,6.8776407E0,5.4256473E0,7.9835114E0,8.956682E0,4.909362E0,4.786198E0,3.9220335E0,2.988861E0,1.022193E1,5.29138E0,3.2324123E0,0E0,0E0,1.9854507E0,0E0,0E0,0E0,0E0,0E0,0E0,0E0,0E0,0E0,0E0,0E0,0E0],"parents":[2147483647,0,0,1,1,2,2,3,3,4,4,5,5,6,6,7,7,8,8,9,9,10,10,11,11,14,14],"right_children":[2,4,6,8,10,12,14,16,18,20,22,24,-1,-1,26,-1,-1,-1,-1,-1,-1,-1,-1,-1,-1,-1,-1],"split_conditions":[9.0974027E-1,1.5001422E3,1.6280427E0,6.454067E-2,8.646253E-1,6.4666665E-1,9.7764915E1,3.1333333E-1,6.518896E1,1.5043995E3,1.2997739E0,1.5142507E3,7.0810253E-3,1.1058484E-2,1.5093153E3,-6.239756E-4,6.8030334E-3,3.8282152E-3,1.162937E-2,4.2431927E-3,-5.505752E-3,-1.4318767E-2,-2.2689877E-3,-1.0228874E-2,1.238332E-4,2.4759793E-3,-1.1219214E-2],"split_indices":[24,22,25,5,25,6,0,6,0,23,25,23,0,0,23,0,0,0,0,0,0,0,0,0,0,0,0],"split_type":[0,0,0,0,0,0,0,0,0,0,0,0,0,0,0,0,0,0,0,0,0,0,0,0,0,0,0],"sum_hessian":[1.5313853E2,1.256986E2,2.7439936E1,6.522106E1,6.0477543E1,2.2018555E1,5.4213815E0,4.335852E1,2.1862543E1,4.59098E1,1.4567741E1,2.0533918E1,1.4846367E0,2.7287238E0,2.6926575E0,3.5509197E1,7.8493204E0,1.0631013E1,1.123153E1,3.0578737E1,1.5331062E1,5.985522E0,8.58222E0,1.6936956E1,3.5969617E0,1.449042E0,1.2436155E0],"tree_param":{"num_deleted":"0","num_feature":"27","num_nodes":"27","size_leaf_vector":"1"}},{"base_weights":[-4.3734882E-2,-1.13895245E-1,7.155158E-1,-1.4778766E-1,9.564339E-1,1.2042247E-2,-1.2903644E-1,-1.7621887E-1,1.1910212E-2,1.2064611E-2,1.7441597E-3,-1.0821725E-2,3.4321997E-1,7.5615393E-3,-2.159025E-3,-4.5089573E-3,8.6989505E-3],"categories":[],"categories_nodes":[],"categories_segments":[],"categories_sizes":[],"default_left":[0,0,0,0,0,0,0,0,0,0,0,0,0,0,0,0,0],"id":48,"left_children":[1,3,5,7,9,-1,11,13,-1,-1,-1,-1,15,-1,-1,-1,-1],"loss_changes":[8.180103E0,5.221218E0,5.520083E0,5.409482E0,6.561365E-1,0E0,2.9225326E0,5.144644E0,0E0,0E0,0E0,0E0,2.2948163E0,0E0,0E0,0E0,0E0],"parents":[2147483647,0,0,1,1,2,2,3,3,4,4,6,6,7,7,12,12],"right_children":[2,4,6,8,10,-1,12,14,-1,-1,-1,-1,16,-1,-1,-1,-1],"split_conditions":[1.1122335E2,3.6570582E-1,7.1693554E0,9.6E-1,4.3860692E-1,1.2042247E-2,8.206354E0,-7.7666664E-1,1.1910212E-2,1.2064611E-2,1.7441597E-3,-1.0821725E-2,-1.23333335E-1,7.5615393E-3,-2.159025E-3,-4.5089573E-3,8.6989505E-3],"split_indices":[0,5,11,6,5,0,11,6,0,0,0,0,6,0,0,0,0],"split_type":[0,0,0,0,0,0,0,0,0,0,0,0,0,0,0,0,0],"sum_hessian":[1.5103146E2,1.390337E2,1.199775E1,1.3560175E2,3.4319627E0,7.330188E0,4.6675625E0,1.3363228E2,1.9694649E0,2.1892583E0,1.2427044E0,1.1185483E0,3.549014E0,4.7183933E0,1.2891388E2,1.4725698E0,2.0764444E0],"tree_param":{"num_deleted":"0","num_feature":"27","num_nodes":"17","size_leaf_vector":"1"}},{"base_weights":[-2.5277479E-2,1.6174886E-1,-2.9139298E-1,-5.474136E-2,5.1346385E-1,3.218158E-2,-4.7671452E-1,-9.6877104E-1,6.355942E-2,8.7127084E-1,8.975981E-2,-1.1276945E-2,2.3317556E-1,-5.89741E-1,3.2376908E-2,5.0424547E-3,-1.45091675E-2,-1.6650857E-3,5.1622544E-3,3.9708526E-3,1.2893145E-2,-5.4058754E-3,7.082445E-3,-9.296969E-3,4.1792854E-3,-4.0189717E-3,-1.0918291E-2,4.5846957E-3,-4.9042157E-3],"categories":[],"categories_nodes":[],"categories_segments":[],"categories_sizes":[],"default_left":[0,0,0,0,0,0,0,0,0,0,0,0,0,0,0,0,0,0,0,0,0,0,0,0,0,0,0,0,0],"id":49,"left_children":[1,3,5,7,9,11,13,15,17,19,21,-1,23,25,27,-1,-1,-1,-1,-1,-1,-1,-1,-1,-1,-1,-1,-1,-1],"loss_changes":[7.6968727E0,6.9499545E0,3.8407645E0,6.243808E0,5.1873417E0,5.8972363E0,2.3567305E0,5.428551E0,5.455661E0,3.1980228E0,7.0169773E0,0E0,4.9920826E0,2.7015638E0,2.0801811E0,0E0,0E0,0E0,0E0,0E0,0E0,0E0,0E0,0E0,0E0,0E0,0E0,0E0,0E0],"parents":[2147483647,0,0,1,1,2,2,3,3,4,4,5,5,6,6,7,7,8,8,9,9,10,10,12,12,13,13,14,14],"right_children":[2,4,6,8,10,12,14,16,18,20,22,-1,24,26,28,-1,-1,-1,-1,-1,-1,-1,-1,-1,-1,-1,-1,-1,-1],"split_conditions":[1.5028917E3,5.6490326E1,1.3509674E1,1.4768114E3,3.2622938E0,-3.148924E0,1.6280427E0,-1.6334595E-1,1.8333334E-1,3.389954E-2,2E0,-1.1276945E-2,1.4793436E3,6.761475E1,9.52561E1,5.0424547E-3,-1.45091675E-2,-1.6650857E-3,5.1622544E-3,3.9708526E-3,1.2893145E-2,-5.4058754E-3,7.082445E-3,-9.296969E-3,4.1792854E-3,-4.0189717E-3,-1.0918291E-2,4.5846957E-3,-4.9042157E-3],"split_indices":[22,0,0,23,11,8,25,5,7,5,26,0,23,0,0,0,0,0,0,0,0,0,0,0,0,0,0,0,0],"split_type":[0,0,0,0,0,0,0,0,0,0,0,0,0,0,0,0,0,0,0,0,0,0,0,0,0,0,0,0,0],"sum_hessian":[1.5269995E2,8.9906044E1,6.2793907E1,5.617386E1,3.3732185E1,2.3168196E1,3.9625713E1,5.6134553E0,5.0560402E1,1.7715551E1,1.6016636E1,2.7408695E0,2.0427326E1,3.2296867E1,7.328843E0,1.3729825E0,4.240473E0,3.3941673E1,1.661873E1,9.214004E0,8.501547E0,7.994623E0,8.022013E0,2.2477057E0,1.817962E1,2.4813837E1,7.483031E0,4.1056733E0,3.22317E0],"tree_param":{"num_deleted":"0","num_feature":"27","num_nodes":"29","size_leaf_vector":"1"}}]},"name":"gbtree"},"learner_model_param":{"base_score":"5.284872E-1","boost_from_average":"1","num_class":"0","num_feature":"27","num_target":"1"},"objective":{"name":"binary:logistic","reg_loss_param":{"scale_pos_weight":"1"}}},"version":[3,0,5]}