{"learner":{"attributes":{"scikit_learn":"{\"_estimator_type\": \"classifier\"}"},"feature_names":["p1_target","elo_diff","finish_diff","edge_speed_diff","edge_burst_diff","l5_goal_diff","l5_xg_diff","l5_corsi_diff","l5_pdo_diff","l5_st_net","l5_royal_road_diff","l5_pressure_diff","l5_rebound_diff","l5_lateral_diff","p1_xg_diff","p2_xg_diff","p3_xg_diff","p1_p2_dominance","h_preservation_rate","a_preservation_rate","h_comeback_rate","a_comeback_rate","l5_nzt_possession_diff","l5_ca_shots_diff","l5_rush_sv_pct_diff","home_sos","away_sos","l5_std_diff","l10_goal_diff","l10_xg_diff","elo_rest_inter","speed_finish_inter","season_month","is_late_season","h_desperation","a_desperation","home_xg","away_xg","home_elo","away_elo","away_win_rate","home_win_rate_away_sos","away_b2b_home_strength","pressure_index","xg_efficiency","power_momentum"],"feature_types":["int","float","float","float","float","float","float","float","float","float","float","float","float","float","float","float","float","float","float","float","float","float","float","float","float","float","float","float","float","float","float","float","int","int","float","float","float","float","float","float","float","float","float","float","float","float"],"gradient_booster":{"model":{"cats":{"enc":[],"feature_segments":[],"sorted_idx":[]},"gbtree_model_param":{"num_parallel_tree":"1","num_trees":"50"},"iteration_indptr":[0,1,2,3,4,5,6,7,8,9,10,11,12,13,14,15,16,17,18,19,20,21,22,23,24,25,26,27,28,29,30,31,32,33,34,35,36,37,38,39,40,41,42,43,44,45,46,47,48,49,50],"tree_info":[0,0,0,0,0,0,0,0,0,0,0,0,0,0,0,0,0,0,0,0,0,0,0,0,0,0,0,0,0,0,0,0,0,0,0,0,0,0,0,0,0,0,0,0,0,0,0,0,0,0],"trees":[{"base_weights":[-3.48602E-3,-5.329604E-1,2.7072886E-1,-7.543534E-1,3.03531E-1,-5.4825217E-2,6.9219923E-1,3.2311063E-2,-4.0847704E-2,-2.915127E-2,4.138447E-2,-1.6283661E-2,3.572255E-2,4.8124557E-4,4.326978E-2],"categories":[],"categories_nodes":[],"categories_segments":[],"categories_sizes":[],"default_left":[0,0,0,0,0,0,0,0,0,0,0,0,0,0,0],"id":0,"left_children":[1,3,5,7,9,11,13,-1,-1,-1,-1,-1,-1,-1,-1],"loss_changes":[2.659144E1,1.1801243E1,1.6595009E1,4.8852215E0,6.890908E0,1.4610869E1,6.2171936E0,0E0,0E0,0E0,0E0,0E0,0E0,0E0,0E0],"parents":[2147483647,0,0,1,1,2,2,3,3,4,4,5,5,6,6],"right_children":[2,4,6,8,10,12,14,-1,-1,-1,-1,-1,-1,-1,-1],"split_conditions":[7.325808E2,5.8716196E-1,5.3338945E-1,-1.1626644E2,1.16249695E1,9.0473224E2,-5.7209096E0,3.2311063E-2,-4.0847704E-2,-2.915127E-2,4.138447E-2,-1.6283661E-2,3.572255E-2,4.8124557E-4,4.326978E-2],"split_indices":[41,40,40,30,45,41,45,0,0,0,0,0,0,0,0],"split_type":[0,0,0,0,0,0,0,0,0,0,0,0,0,0,0],"sum_hessian":[1.8115578E2,6.1487522E1,1.1966826E2,4.8697117E1,1.2790402E1,6.800751E1,5.1660748E1,1.6845896E0,4.7012527E1,4.710612E0,8.079791E0,5.0724865E1,1.7282642E1,1.0669067E1,4.099168E1],"tree_param":{"num_deleted":"0","num_feature":"46","num_nodes":"15","size_leaf_vector":"1"}},{"base_weights":[1.211008E-2,-4.2493778E-1,5.4555255E-1,-1.094484E0,-4.897828E-2,-6.137894E-1,6.1968905E-1,9.99454E-3,-6.296227E-2,-1.8123824E-2,2.9728267E-2,2.4532717E-2,-6.287311E-2,4.251846E-2,1.1508684E-2],"categories":[],"categories_nodes":[],"categories_segments":[],"categories_sizes":[],"default_left":[0,0,0,0,0,0,0,0,0,0,0,0,0,0,0],"id":1,"left_children":[1,3,5,7,9,11,13,-1,-1,-1,-1,-1,-1,-1,-1],"loss_changes":[4.1596798E1,2.4636917E1,7.285473E0,7.763817E0,1.3099611E1,4.4068356E0,6.6338577E0,0E0,0E0,0E0,0E0,0E0,0E0,0E0,0E0],"parents":[2147483647,0,0,1,1,2,2,3,3,4,4,5,5,6,6],"right_children":[2,4,6,8,10,12,14,-1,-1,-1,-1,-1,-1,-1,-1],"split_conditions":[7.8775946E2,4.9148628E-1,1.4586086E3,-2.5721326E-2,8E-2,3.1325463E-3,1.5029027E3,9.99454E-3,-6.296227E-2,-1.8123824E-2,2.9728267E-2,2.4532717E-2,-6.287311E-2,4.251846E-2,1.1508684E-2],"split_indices":[41,40,25,31,3,31,25,0,0,0,0,0,0,0,0],"split_type":[0,0,0,0,0,0,0,0,0,0,0,0,0,0,0],"sum_hessian":[1.7642555E2,9.708637E1,7.933917E1,3.42246E1,6.2861767E1,4.331065E0,7.500811E1,3.840466E0,3.0384136E1,4.256382E1,2.0297947E1,1.682272E0,2.6487932E0,4.636596E1,2.8642153E1],"tree_param":{"num_deleted":"0","num_feature":"46","num_nodes":"15","size_leaf_vector":"1"}},{"base_weights":[1.2265623E-2,-5.063901E-1,2.8940785E-1,1.0088912E0,-6.05692E-1,-1.5592365E-2,7.537571E-1,9.197371E-3,6.454926E-2,-3.5926312E-2,2.0958489E-2,-1.2544773E-2,3.1778626E-2,-3.5753127E-2,4.682004E-2],"categories":[],"categories_nodes":[],"categories_segments":[],"categories_sizes":[],"default_left":[0,0,0,0,0,0,0,0,0,0,0,0,0,0,0],"id":2,"left_children":[1,3,5,7,9,11,13,-1,-1,-1,-1,-1,-1,-1,-1],"loss_changes":[2.5965137E1,1.0078224E1,1.6681389E1,7.503252E-1,7.2016544E0,1.1194388E1,1.3192911E1,0E0,0E0,0E0,0E0,0E0,0E0,0E0,0E0],"parents":[2147483647,0,0,1,1,2,2,3,3,4,4,5,5,6,6],"right_children":[2,4,6,8,10,12,14,-1,-1,-1,-1,-1,-1,-1,-1],"split_conditions":[7.3175665E2,-5.4032087E0,5.3535354E-1,6.522778E2,3.6666667E-1,9.2508417E2,5E-1,9.197371E-3,6.454926E-2,-3.5926312E-2,2.0958489E-2,-1.2544773E-2,3.1778626E-2,-3.5753127E-2,4.682004E-2],"split_indices":[41,13,40,41,4,41,20,0,0,0,0,0,0,0,0],"split_type":[0,0,0,0,0,0,0,0,0,0,0,0,0,0,0],"sum_hessian":[1.786183E2,6.1917007E1,1.16701294E2,3.2447326E0,5.8672276E1,7.101963E1,4.568166E1,1.2477994E0,1.9969331E0,5.3122547E1,5.549729E0,5.261979E1,1.839984E1,4.729775E0,4.0951885E1],"tree_param":{"num_deleted":"0","num_feature":"46","num_nodes":"15","size_leaf_vector":"1"}},{"base_weights":[-5.3527765E-2,-2.678926E-1,5.7374644E-1,-7.3363394E-1,4.2013917E-2,9.183661E-1,-1.5371025E-1,-4.7330078E-2,-7.952078E-3,3.2924466E-2,-8.656225E-3,9.878668E-3,6.4101845E-2,2.7948156E-2,-4.5743044E-2],"categories":[],"categories_nodes":[],"categories_segments":[],"categories_sizes":[],"default_left":[0,0,0,0,0,0,0,0,0,0,0,0,0,0,0],"id":3,"left_children":[1,3,5,7,9,11,13,-1,-1,-1,-1,-1,-1,-1,-1],"loss_changes":[2.5089653E1,2.0078259E1,1.20619955E1,6.6469097E0,1.1300516E1,8.242134E0,9.267585E0,0E0,0E0,0E0,0E0,0E0,0E0,0E0,0E0],"parents":[2147483647,0,0,1,1,2,2,3,3,4,4,5,5,6,6],"right_children":[2,4,6,8,10,12,14,-1,-1,-1,-1,-1,-1,-1,-1],"split_conditions":[8.418054E2,5.0594175E-1,1.5029027E3,7.807691E2,-4.767833E0,4.6640354E1,9.2349425E-2,-4.7330078E-2,-7.952078E-3,3.2924466E-2,-8.656225E-3,9.878668E-3,6.4101845E-2,2.7948156E-2,-4.5743044E-2],"split_indices":[41,40,25,41,8,1,2,0,0,0,0,0,0,0,0],"split_type":[0,0,0,0,0,0,0,0,0,0,0,0,0,0,0],"sum_hessian":[1.8444492E2,1.3789394E2,4.6550983E1,5.45486E1,8.334534E1,3.1409065E1,1.5141919E1,3.9325512E1,1.5223087E1,2.1028313E1,6.2317028E1,1.1050445E1,2.035862E1,7.9571705E0,7.1847486E0],"tree_param":{"num_deleted":"0","num_feature":"46","num_nodes":"15","size_leaf_vector":"1"}},{"base_weights":[1.3971892E-2,-1.965529E-1,6.140815E-1,-6.809043E-1,7.236548E-2,1.1622301E0,3.4240776E-1,3.3571165E-2,-3.8860526E-2,1.1335599E-2,-4.400279E-2,6.517042E-2,-1.2981159E-2,-6.677261E-2,3.0650934E-2],"categories":[],"categories_nodes":[],"categories_segments":[],"categories_sizes":[],"default_left":[0,0,0,0,0,0,0,0,0,0,0,0,0,0,0],"id":4,"left_children":[1,3,5,7,9,11,13,-1,-1,-1,-1,-1,-1,-1,-1],"loss_changes":[2.302124E1,1.7626219E1,6.648445E0,6.808689E0,1.3087921E1,3.4020996E0,1.5827187E1,0E0,0E0,0E0,0E0,0E0,0E0,0E0,0E0],"parents":[2147483647,0,0,1,1,2,2,3,3,4,4,5,5,6,6],"right_children":[2,4,6,8,10,12,14,-1,-1,-1,-1,-1,-1,-1,-1],"split_conditions":[8.418054E2,4.9148628E-1,1.4927112E3,-1.4558654E0,1E0,1.7014111E2,1.4954983E3,3.3571165E-2,-3.8860526E-2,1.1335599E-2,-4.400279E-2,6.517042E-2,-1.2981159E-2,-6.677261E-2,3.0650934E-2],"split_indices":[41,40,26,27,27,30,26,0,0,0,0,0,0,0,0],"split_type":[0,0,0,0,0,0,0,0,0,0,0,0,0,0,0],"sum_hessian":[1.8026416E2,1.339467E2,4.631745E1,4.7272232E1,8.667447E1,1.4262452E1,3.2054996E1,2.7456827E0,4.452655E1,7.524281E1,1.143166E1,1.3049998E1,1.2124534E0,3.9054167E0,2.8149582E1],"tree_param":{"num_deleted":"0","num_feature":"46","num_nodes":"15","size_leaf_vector":"1"}},{"base_weights":[3.0089037E-2,-2.8093505E-1,4.071422E-1,-9.0958774E-1,8.2565546E-2,4.8800775E-1,-6.887253E-1,-3.2238062E-2,-7.653039E-2,1.2836777E-2,-4.6154693E-2,1.5577114E-2,5.166746E-2,-6.2193006E-2,3.2592498E-2],"categories":[],"categories_nodes":[],"categories_segments":[],"categories_sizes":[],"default_left":[0,0,0,0,0,0,0,0,0,0,0,0,0,0,0],"id":5,"left_children":[1,3,5,7,9,11,13,-1,-1,-1,-1,-1,-1,-1,-1],"loss_changes":[2.18813E1,2.3452753E1,7.807249E0,5.1910286E0,1.1751372E1,7.290077E0,5.4310637E0,0E0,0E0,0E0,0E0,0E0,0E0,0E0,0E0],"parents":[2147483647,0,0,1,1,2,2,3,3,4,4,5,5,6,6],"right_children":[2,4,6,8,10,12,14,-1,-1,-1,-1,-1,-1,-1,-1],"split_conditions":[7.873733E2,4.9148628E-1,1.4630533E2,1.5354197E3,9.38782E-1,1.9960161E0,9.0473224E2,-3.2238062E-2,-7.653039E-2,1.2836777E-2,-4.6154693E-2,1.5577114E-2,5.166746E-2,-6.2193006E-2,3.2592498E-2],"split_indices":[41,40,30,38,27,30,41,0,0,0,0,0,0,0,0],"split_type":[0,0,0,0,0,0,0,0,0,0,0,0,0,0,0],"sum_hessian":[1.8460957E2,1.013022E2,8.3307365E1,3.656423E1,6.473797E1,7.809902E1,5.2083497E0,2.7062136E1,9.502095E0,5.5815926E1,8.922043E0,6.019271E1,1.790631E1,3.7341678E0,1.4741819E0],"tree_param":{"num_deleted":"0","num_feature":"46","num_nodes":"15","size_leaf_vector":"1"}},{"base_weights":[-4.2048087E-3,-3.001466E-1,3.285044E-1,-8.673725E-1,4.977975E-2,1.2944096E-1,6.7116606E-1,1.1637199E-2,-4.983627E-2,1.1837574E-2,-4.0405624E-2,1.963086E-2,-1.6926615E-2,-1.7845528E-2,4.5501612E-2],"categories":[],"categories_nodes":[],"categories_segments":[],"categories_sizes":[],"default_left":[0,0,0,0,0,0,0,0,0,0,0,0,0,0,0],"id":6,"left_children":[1,3,5,7,9,11,13,-1,-1,-1,-1,-1,-1,-1,-1],"loss_changes":[1.7697557E1,1.8922928E1,5.685131E0,5.404026E0,9.778991E0,6.8776054E0,7.9020624E0,0E0,0E0,0E0,0E0,0E0,0E0,0E0,0E0],"parents":[2147483647,0,0,1,1,2,2,3,3,4,4,5,5,6,6],"right_children":[2,4,6,8,10,12,14,-1,-1,-1,-1,-1,-1,-1,-1],"split_conditions":[7.849458E2,4.9148628E-1,2.0333333E-1,1.4702349E3,9.38782E-1,1.5029027E3,4.7900054E-1,1.1637199E-2,-4.983627E-2,1.1837574E-2,-4.0405624E-2,1.963086E-2,-1.6926615E-2,-1.7845528E-2,4.5501612E-2],"split_indices":[41,40,3,38,27,25,40,0,0,0,0,0,0,0,0],"split_type":[0,0,0,0,0,0,0,0,0,0,0,0,0,0,0],"sum_hessian":[1.7773755E2,9.411817E1,8.361938E1,3.5345257E1,5.8772915E1,5.3763905E1,2.9855474E1,3.6345904E0,3.1710667E1,4.885035E1,9.922567E0,3.451473E1,1.9249178E1,5.5357018E0,2.4319775E1],"tree_param":{"num_deleted":"0","num_feature":"46","num_nodes":"15","size_leaf_vector":"1"}},{"base_weights":[5.2043397E-2,-5.0089943E-1,3.0501962E-1,-6.20812E-1,7.804807E-1,-5.4776636E-3,7.3270994E-1,-1.8500322E-2,-6.282329E-2,5.6378692E-2,-3.781242E-3,2.6963541E-2,-1.22564295E-2,5.94486E-2,2.0646913E-2],"categories":[],"categories_nodes":[],"categories_segments":[],"categories_sizes":[],"default_left":[0,0,0,0,0,0,0,0,0,0,0,0,0,0,0],"id":7,"left_children":[1,3,5,7,9,11,13,-1,-1,-1,-1,-1,-1,-1,-1],"loss_changes":[2.5233362E1,9.190551E0,1.6422848E1,7.883959E0,1.657659E0,9.613522E0,7.097645E0,0E0,0E0,0E0,0E0,0E0,0E0,0E0,0E0],"parents":[2147483647,0,0,1,1,2,2,3,3,4,4,5,5,6,6],"right_children":[2,4,6,8,10,12,14,-1,-1,-1,-1,-1,-1,-1,-1],"split_conditions":[7.282592E2,6.4450055E-1,5.3535354E-1,6.6885436E-1,1.502194E3,-1.3666667E-1,4.6951164E1,-1.8500322E-2,-6.282329E-2,5.6378692E-2,-3.781242E-3,2.6963541E-2,-1.22564295E-2,5.94486E-2,2.0646913E-2],"split_indices":[41,40,40,5,25,4,1,0,0,0,0,0,0,0,0],"split_type":[0,0,0,0,0,0,0,0,0,0,0,0,0,0,0],"sum_hessian":[1.782989E2,5.566001E1,1.226389E2,5.1368423E1,4.2915864E0,7.162635E1,5.101255E1,3.7969242E1,1.3399179E1,2.8279474E0,1.4636391E0,2.1501421E1,5.012493E1,1.9900126E1,3.1112425E1],"tree_param":{"num_deleted":"0","num_feature":"46","num_nodes":"15","size_leaf_vector":"1"}},{"base_weights":[4.9120437E-2,-2.561146E-1,4.0387675E-1,-4.925531E-1,6.073761E-1,4.786665E-1,-4.7210273E-1,-4.2559247E-2,-8.740736E-3,5.590246E-2,-1.3012156E-2,1.682417E-2,4.7777873E-2,5.405826E-2,-5.818359E-2],"categories":[],"categories_nodes":[],"categories_segments":[],"categories_sizes":[],"default_left":[0,0,0,0,0,0,0,0,0,0,0,0,0,0,0],"id":8,"left_children":[1,3,5,7,9,11,13,-1,-1,-1,-1,-1,-1,-1,-1],"loss_changes":[1.9542E1,2.0124153E1,5.690564E0,8.600698E0,9.737688E0,4.9229717E0,8.846992E0,0E0,0E0,0E0,0E0,0E0,0E0,0E0,0E0],"parents":[2147483647,0,0,1,1,2,2,3,3,4,4,5,5,6,6],"right_children":[2,4,6,8,10,12,14,-1,-1,-1,-1,-1,-1,-1,-1],"split_conditions":[7.8775946E2,5.8716196E-1,1.3074603E2,4.9148628E-1,1.1E1,1.9960161E0,3E0,-4.2559247E-2,-8.740736E-3,5.590246E-2,-1.3012156E-2,1.682417E-2,4.7777873E-2,5.405826E-2,-5.818359E-2],"split_indices":[41,40,30,40,32,30,32,0,0,0,0,0,0,0,0],"split_type":[0,0,0,0,0,0,0,0,0,0,0,0,0,0,0],"sum_hessian":[1.7851453E2,9.610398E1,8.2410545E1,7.5782906E1,2.0321075E1,7.634582E1,6.064723E0,3.4811844E1,4.097106E1,1.2610189E1,7.7108865E0,6.012528E1,1.6220543E1,1.6948131E0,4.36991E0],"tree_param":{"num_deleted":"0","num_feature":"46","num_nodes":"15","size_leaf_vector":"1"}},{"base_weights":[-4.8121184E-2,-2.5331682E-1,5.0447136E-1,-6.717163E-1,6.1560187E-2,7.664344E-1,-1.001873E-1,-5.93051E-2,-2.29302E-2,-1.6767252E-2,2.2805577E-2,4.4286113E-2,-6.433711E-2,2.9121554E-2,-4.3107513E-2],"categories":[],"categories_nodes":[],"categories_segments":[],"categories_sizes":[],"default_left":[0,0,0,0,0,0,0,0,0,0,0,0,0,0,0],"id":9,"left_children":[1,3,5,7,9,11,13,-1,-1,-1,-1,-1,-1,-1,-1],"loss_changes":[2.051381E1,1.7401289E1,7.841077E0,5.6680374E0,1.2070564E1,9.544357E0,8.668937E0,0E0,0E0,0E0,0E0,0E0,0E0,0E0,0E0],"parents":[2147483647,0,0,1,1,2,2,3,3,4,4,5,5,6,6],"right_children":[2,4,6,8,10,12,14,-1,-1,-1,-1,-1,-1,-1,-1],"split_conditions":[8.418054E2,5.2005774E-1,1.5037527E3,6.568387E2,1.5545986E1,1.587951E3,1.0512838E-1,-5.93051E-2,-2.29302E-2,-1.6767252E-2,2.2805577E-2,4.4286113E-2,-6.433711E-2,2.9121554E-2,-4.3107513E-2],"split_indices":[41,40,25,41,45,39,2,0,0,0,0,0,0,0,0],"split_type":[0,0,0,0,0,0,0,0,0,0,0,0,0,0,0],"sum_hessian":[1.7878741E2,1.3076988E2,4.8017536E1,5.5667397E1,7.5102486E1,3.3316086E1,1.470145E1,1.4969682E1,4.0697712E1,3.751437E1,3.758812E1,3.202412E1,1.2919656E0,7.878748E0,6.8227024E0],"tree_param":{"num_deleted":"0","num_feature":"46","num_nodes":"15","size_leaf_vector":"1"}},{"base_weights":[-2.1936603E-2,-4.4725028E-1,2.3494633E-1,-6.4885294E-1,3.641418E-1,-3.1849984E-2,7.403494E-1,-1.790228E-2,-5.689944E-2,5.474E-2,-2.6889596E-2,-4.1906994E-2,4.2410907E-3,-9.740115E-3,4.4550966E-2],"categories":[],"categories_nodes":[],"categories_segments":[],"categories_sizes":[],"default_left":[0,0,0,0,0,0,0,0,0,0,0,0,0,0,0],"id":10,"left_children":[1,3,5,7,9,11,13,-1,-1,-1,-1,-1,-1,-1,-1],"loss_changes":[2.0429611E1,1.1751135E1,1.5750422E1,7.663971E0,1.024318E1,7.342356E0,5.857218E0,0E0,0E0,0E0,0E0,0E0,0E0,0E0,0E0],"parents":[2147483647,0,0,1,1,2,2,3,3,4,4,5,5,6,6],"right_children":[2,4,6,8,10,12,14,-1,-1,-1,-1,-1,-1,-1,-1],"split_conditions":[7.3470355E2,5.8716196E-1,5.515764E-1,1.3125665E-1,1.1E1,1.4765035E3,5E-1,-1.790228E-2,-5.689944E-2,5.474E-2,-2.6889596E-2,-4.1906994E-2,4.2410907E-3,-9.740115E-3,4.4550966E-2],"split_indices":[41,40,40,8,32,25,20,0,0,0,0,0,0,0,0],"split_type":[0,0,0,0,0,0,0,0,0,0,0,0,0,0,0],"sum_hessian":[1.85027E2,6.939335E1,1.15633644E2,5.574338E1,1.3649967E1,7.629526E1,3.9338383E1,3.6045273E1,1.9698109E1,7.422858E0,6.2271085E0,8.862814E0,6.743245E1,5.417995E0,3.3920387E1],"tree_param":{"num_deleted":"0","num_feature":"46","num_nodes":"15","size_leaf_vector":"1"}},{"base_weights":[-3.4260247E-2,-3.9850208E-1,1.7046373E-1,2.2425024E-1,-5.8766156E-1,-1.0653702E-2,6.036341E-1,-3.7349503E-2,3.9750446E-2,-3.7523065E-2,3.2335427E-2,1.1616236E-2,-2.1746753E-2,3.706363E-2,-3.6141288E-2],"categories":[],"categories_nodes":[],"categories_segments":[],"categories_sizes":[],"default_left":[0,0,0,0,0,0,0,0,0,0,0,0,0,0,0],"id":11,"left_children":[1,3,5,7,9,11,13,-1,-1,-1,-1,-1,-1,-1,-1],"loss_changes":[1.3089148E1,7.5685644E0,8.831707E0,9.148521E0,1.0271599E1,8.379796E0,6.5942183E0,0E0,0E0,0E0,0E0,0E0,0E0,0E0,0E0],"parents":[2147483647,0,0,1,1,2,2,3,3,4,4,5,5,6,6],"right_children":[2,4,6,8,10,12,14,-1,-1,-1,-1,-1,-1,-1,-1],"split_conditions":[7.3405493E2,-6.707896E0,5.5869037E-1,-3.3847318E0,3.6666667E-1,1.5032688E3,1.4630533E2,-3.7349503E-2,3.9750446E-2,-3.7523065E-2,3.2335427E-2,1.1616236E-2,-2.1746753E-2,3.706363E-2,-3.6141288E-2],"split_indices":[41,8,40,5,4,25,30,0,0,0,0,0,0,0,0],"split_type":[0,0,0,0,0,0,0,0,0,0,0,0,0,0,0],"sum_hessian":[1.7361963E2,6.213084E1,1.1148879E2,1.4432043E1,4.76988E1,7.930511E1,3.2183685E1,5.2276187E0,9.204425E0,4.2487232E1,5.211565E0,5.0714333E1,2.8590773E1,2.9557821E1,2.6258657E0],"tree_param":{"num_deleted":"0","num_feature":"46","num_nodes":"15","size_leaf_vector":"1"}},{"base_weights":[1.4570658E-2,-4.296655E-1,2.1797332E-1,-1.1316605E-1,-8.0006176E-1,-4.2540017E-1,3.5498232E-1,-5.8376636E-2,3.2090754E-3,4.433499E-2,-4.839197E-2,6.3886344E-2,-3.2500446E-2,1.2291479E-2,5.3867128E-2],"categories":[],"categories_nodes":[],"categories_segments":[],"categories_sizes":[],"default_left":[0,0,0,0,0,0,0,0,0,0,0,0,0,0,0],"id":12,"left_children":[1,3,5,7,9,11,13,-1,-1,-1,-1,-1,-1,-1,-1],"loss_changes":[1.6628212E1,6.686208E0,1.1273569E1,6.1214647E0,8.3494835E0,9.47892E0,7.9804583E0,0E0,0E0,0E0,0E0,0E0,0E0,0E0,0E0],"parents":[2147483647,0,0,1,1,2,2,3,3,4,4,5,5,6,6],"right_children":[2,4,6,8,10,12,14,-1,-1,-1,-1,-1,-1,-1,-1],"split_conditions":[7.282592E2,1.0834834E-2,4.6066728E-1,1.474794E3,1.4438959E3,-9.6705145E-1,1.53404E3,-5.8376636E-2,3.2090754E-3,4.433499E-2,-4.839197E-2,6.3886344E-2,-3.2500446E-2,1.2291479E-2,5.3867128E-2],"split_indices":[41,44,40,25,39,27,39,0,0,0,0,0,0,0,0],"split_type":[0,0,0,0,0,0,0,0,0,0,0,0,0,0,0],"sum_hessian":[1.8198776E2,5.680717E1,1.2518058E2,3.1336235E1,2.5470938E1,2.1607962E1,1.03572624E2,3.7080193E0,2.7628216E1,1.9166662E0,2.355427E1,1.9713378E0,1.9636623E1,9.1141014E1,1.2431611E1],"tree_param":{"num_deleted":"0","num_feature":"46","num_nodes":"15","size_leaf_vector":"1"}},{"base_weights":[4.6499778E-2,-1.8096113E-1,3.0902043E-1,-6.5351653E-1,1.036856E-1,4.7862378E-1,1.1142048E-2,-6.808461E-3,-5.0092388E-2,-1.5662907E-2,2.2251207E-2,-4.0514194E-3,4.328103E-2,3.1978164E-2,-2.8454328E-2],"categories":[],"categories_nodes":[],"categories_segments":[],"categories_sizes":[],"default_left":[0,0,0,0,0,0,0,0,0,0,0,0,0,0,0],"id":13,"left_children":[1,3,5,7,9,11,13,-1,-1,-1,-1,-1,-1,-1,-1],"loss_changes":[1.05325775E1,1.2796903E1,4.128165E0,6.299011E0,8.667358E0,1.1356288E1,1.1560697E1,0E0,0E0,0E0,0E0,0E0,0E0,0E0,0E0],"parents":[2147483647,0,0,1,1,2,2,3,3,4,4,5,5,6,6],"right_children":[2,4,6,8,10,12,14,-1,-1,-1,-1,-1,-1,-1,-1],"split_conditions":[7.873733E2,4.9148628E-1,1.5029027E3,-1.3666667E-1,1.3199965E1,-5.153721E-2,9.956738E-1,-6.808461E-3,-5.0092388E-2,-1.5662907E-2,2.2251207E-2,-4.0514194E-3,4.328103E-2,3.1978164E-2,-2.8454328E-2],"split_indices":[41,40,25,4,45,2,43,0,0,0,0,0,0,0,0],"split_type":[0,0,0,0,0,0,0,0,0,0,0,0,0,0,0],"sum_hessian":[1.7444963E2,9.3632484E1,8.081715E1,3.471109E1,5.8921394E1,5.110988E1,2.9707268E1,1.4526707E1,2.0184383E1,2.6560326E1,3.236107E1,2.1217293E1,2.9892586E1,1.4212282E1,1.5494987E1],"tree_param":{"num_deleted":"0","num_feature":"46","num_nodes":"15","size_leaf_vector":"1"}},{"base_weights":[-2.2030486E-2,-1.868422E-1,4.6574417E-1,-4.0578666E-1,1.9901702E-1,7.905866E-1,-1.5999965E-1,2.6306426E-2,-2.5258934E-2,-4.6066754E-2,1.8540034E-2,5.9331264E-2,2.315176E-2,4.4411603E-2,-2.5923336E-2],"categories":[],"categories_nodes":[],"categories_segments":[],"categories_sizes":[],"default_left":[0,0,0,0,0,0,0,0,0,0,0,0,0,0,0],"id":14,"left_children":[1,3,5,7,9,11,13,-1,-1,-1,-1,-1,-1,-1,-1],"loss_changes":[1.4117219E1,1.1161531E1,9.144028E0,8.047125E0,9.609013E0,3.2606525E0,6.4695044E0,0E0,0E0,0E0,0E0,0E0,0E0,0E0,0E0],"parents":[2147483647,0,0,1,1,2,2,3,3,4,4,5,5,6,6],"right_children":[2,4,6,8,10,12,14,-1,-1,-1,-1,-1,-1,-1,-1],"split_conditions":[8.418054E2,5.515764E-1,1.5029027E3,-7.7155205E1,5E-1,-4.0164115E-3,1.4918783E3,2.6306426E-2,-2.5258934E-2,-4.6066754E-2,1.8540034E-2,5.9331264E-2,2.315176E-2,4.4411603E-2,-2.5923336E-2],"split_indices":[41,40,25,1,20,31,26,0,0,0,0,0,0,0,0],"split_type":[0,0,0,0,0,0,0,0,0,0,0,0,0,0,0],"sum_hessian":[1.7352452E2,1.3016176E2,4.336275E1,8.300906E1,4.7152695E1,2.8371052E1,1.49917E1,7.5861998E0,7.542287E1,5.688652E0,4.1464043E1,1.1655638E1,1.6715414E1,3.443712E0,1.1547988E1],"tree_param":{"num_deleted":"0","num_feature":"46","num_nodes":"15","size_leaf_vector":"1"}},{"base_weights":[-6.963806E-4,-1.6282585E-1,4.815686E-1,-9.3127316E-1,-6.38807E-2,1.0023068E0,1.94063E-1,-5.878195E-2,1.8260403E-2,-1.0856136E-2,2.3992412E-2,-1.8099783E-3,6.1191E-2,-5.939721E-2,2.0702265E-2],"categories":[],"categories_nodes":[],"categories_segments":[],"categories_sizes":[],"default_left":[0,0,0,0,0,0,0,0,0,0,0,0,0,0,0],"id":15,"left_children":[1,3,5,7,9,11,13,-1,-1,-1,-1,-1,-1,-1,-1],"loss_changes":[1.3996712E1,1.0126669E1,6.548563E0,5.2476063E0,1.0082831E1,3.674636E0,9.690878E0,0E0,0E0,0E0,0E0,0E0,0E0,0E0,0E0],"parents":[2147483647,0,0,1,1,2,2,3,3,4,4,5,5,6,6],"right_children":[2,4,6,8,10,12,14,-1,-1,-1,-1,-1,-1,-1,-1],"split_conditions":[8.418054E2,1.474794E3,1.4927112E3,1.4623281E0,5.772006E-1,-5.493059E-1,1.4954983E3,-5.878195E-2,1.8260403E-2,-1.0856136E-2,2.3992412E-2,-1.8099783E-3,6.1191E-2,-5.939721E-2,2.0702265E-2],"split_indices":[41,25,26,29,40,27,26,0,0,0,0,0,0,0,0],"split_type":[0,0,0,0,0,0,0,0,0,0,0,0,0,0,0],"sum_hessian":[1.7700758E2,1.3296825E2,4.403934E1,1.4208372E1,1.1875987E2,1.4781128E1,2.9258213E1,1.2033465E1,2.174907E0,9.311691E1,2.5642954E1,2.745614E0,1.2035514E1,3.4134603E0,2.5844753E1],"tree_param":{"num_deleted":"0","num_feature":"46","num_nodes":"15","size_leaf_vector":"1"}},{"base_weights":[-3.038799E-2,-6.0534143E-1,1.00497395E-1,-7.718491E-1,6.6831625E-1,1.1787724E0,2.802521E-2,-5.6337625E-2,-1.4963113E-2,5.728324E-2,-1.3384526E-2,7.1367264E-2,-1.0010336E-2,-2.338396E-2,8.169855E-3],"categories":[],"categories_nodes":[],"categories_segments":[],"categories_sizes":[],"default_left":[0,0,0,0,0,0,0,0,0,0,0,0,0,0,0],"id":16,"left_children":[1,3,5,7,9,11,13,-1,-1,-1,-1,-1,-1,-1,-1],"loss_changes":[1.3016656E1,7.3164206E0,1.0992937E1,4.497181E0,2.2026606E0,3.3233385E0,9.017061E0,0E0,0E0,0E0,0E0,0E0,0E0,0E0,0E0],"parents":[2147483647,0,0,1,1,2,2,3,3,4,4,5,5,6,6],"right_children":[2,4,6,8,10,12,14,-1,-1,-1,-1,-1,-1,-1,-1],"split_conditions":[6.55459E2,6.4450055E-1,1.4728577E3,1.5037527E3,1.1E1,2.7932012E0,4.7900054E-1,-5.6337625E-2,-1.4963113E-2,5.728324E-2,-1.3384526E-2,7.1367264E-2,-1.0010336E-2,-2.338396E-2,8.169855E-3],"split_indices":[41,40,38,25,32,13,40,0,0,0,0,0,0,0,0],"split_type":[0,0,0,0,0,0,0,0,0,0,0,0,0,0,0],"sum_hessian":[1.711635E2,3.1067068E1,1.4009642E2,2.7823624E1,3.2434435E0,7.861669E0,1.3223476E2,1.509977E1,1.2723855E1,1.9996578E0,1.2437857E0,6.631254E0,1.2304149E0,2.7839045E1,1.0439571E2],"tree_param":{"num_deleted":"0","num_feature":"46","num_nodes":"15","size_leaf_vector":"1"}},{"base_weights":[-3.1870406E-2,-2.0394608E-1,2.7061176E-1,-3.6570227E-1,3.0925545E-1,-1.5667419E-1,5.5915284E-1,5.510832E-4,-3.317359E-2,3.4583583E-2,-1.0691973E-2,-3.8242873E-2,1.7039245E-2,-2.1433337E-2,4.1145306E-2],"categories":[],"categories_nodes":[],"categories_segments":[],"categories_sizes":[],"default_left":[0,0,0,0,0,0,0,0,0,0,0,0,0,0,0],"id":17,"left_children":[1,3,5,7,9,11,13,-1,-1,-1,-1,-1,-1,-1,-1],"loss_changes":[9.167545E0,9.423843E0,7.9670973E0,9.625153E0,5.633252E0,8.291033E0,1.0349125E1,0E0,0E0,0E0,0E0,0E0,0E0,0E0,0E0],"parents":[2147483647,0,0,1,1,2,2,3,3,4,4,5,5,6,6],"right_children":[2,4,6,8,10,12,14,-1,-1,-1,-1,-1,-1,-1,-1],"split_conditions":[5.515764E-1,8.6580084E2,1.3333334E-2,-1.0333333E-1,3.1325463E-3,7.271918E2,-2.9354393E-2,5.510832E-4,-3.317359E-2,3.4583583E-2,-1.0691973E-2,-3.8242873E-2,1.7039245E-2,-2.1433337E-2,4.1145306E-2],"split_indices":[40,41,4,4,31,41,31,0,0,0,0,0,0,0,0],"split_type":[0,0,0,0,0,0,0,0,0,0,0,0,0,0,0],"sum_hessian":[1.7406987E2,1.111594E2,6.2910465E1,8.473816E1,2.6421244E1,2.5542652E1,3.7367813E1,3.78346E1,4.690356E1,1.5076835E1,1.134441E1,1.1250497E1,1.4292154E1,7.7430325E0,2.962478E1],"tree_param":{"num_deleted":"0","num_feature":"46","num_nodes":"15","size_leaf_vector":"1"}},{"base_weights":[-1.5246062E-2,-1.10239856E-1,4.6135128E-1,-8.3921796E-1,-3.611015E-2,-4.1711092E-2,5.446254E-1,5.296684E-2,-5.5704232E-2,-1.1098303E-2,1.1501362E-2,4.0894043E-2,1.7943295E-3],"categories":[],"categories_nodes":[],"categories_segments":[],"categories_sizes":[],"default_left":[0,0,0,0,0,0,0,0,0,0,0,0,0],"id":18,"left_children":[1,3,5,7,9,-1,11,-1,-1,-1,-1,-1,-1],"loss_changes":[8.019121E0,7.943611E0,3.630867E0,8.26442E0,6.727775E0,0E0,3.9005842E0,0E0,0E0,0E0,0E0,0E0,0E0],"parents":[2147483647,0,0,1,1,2,2,3,3,4,4,6,6],"right_children":[2,4,6,8,10,-1,12,-1,-1,-1,-1,-1,-1],"split_conditions":[9.278655E2,1.4761826E3,-1.9661835E0,2E0,5.3535354E-1,-4.1711092E-2,1.06386375E-2,5.296684E-2,-5.5704232E-2,-1.1098303E-2,1.1501362E-2,4.0894043E-2,1.7943295E-3],"split_indices":[41,25,27,32,40,0,31,0,0,0,0,0,0],"split_type":[0,0,0,0,0,0,0,0,0,0,0,0,0],"sum_hessian":[1.7500163E2,1.4655873E2,2.8442905E1,1.25752325E1,1.339835E2,1.1731619E0,2.7269743E1,1.2294173E0,1.1345816E1,7.898831E1,5.4995182E1,1.7345442E1,9.924301E0],"tree_param":{"num_deleted":"0","num_feature":"46","num_nodes":"13","size_leaf_vector":"1"}},{"base_weights":[3.0740442E-2,-2.7998006E-1,1.912028E-1,1.0839102E0,-3.9078116E-1,3.8845053E-1,-1.20871715E-1,1.222955E-2,6.562772E-2,-2.5152996E-2,2.1960093E-2,3.2597885E-3,4.579087E-2,-1.7562777E-2,3.1933997E-2],"categories":[],"categories_nodes":[],"categories_segments":[],"categories_sizes":[],"default_left":[0,0,0,0,0,0,0,0,0,0,0,0,0,0,0],"id":19,"left_children":[1,3,5,7,9,11,13,-1,-1,-1,-1,-1,-1,-1,-1],"loss_changes":[8.619078E0,9.326252E0,7.057219E0,5.7924414E-1,5.3668547E0,1.1876386E1,8.075589E0,0E0,0E0,0E0,0E0,0E0,0E0,0E0,0E0],"parents":[2147483647,0,0,1,1,2,2,3,3,4,4,5,5,6,6],"right_children":[2,4,6,8,10,12,14,-1,-1,-1,-1,-1,-1,-1,-1],"split_conditions":[7.325808E2,-5.4032087E0,1.5029027E3,-1.7598698E1,3.6666667E-1,1.4944045E3,1.5362163E3,1.222955E-2,6.562772E-2,-2.5152996E-2,2.1960093E-2,3.2597885E-3,4.579087E-2,-1.7562777E-2,3.1933997E-2],"split_indices":[41,13,25,45,4,25,39,0,0,0,0,0,0,0,0],"split_type":[0,0,0,0,0,0,0,0,0,0,0,0,0,0,0],"sum_hessian":[1.7079553E2,5.7911137E1,1.1288439E2,3.6912858E0,5.4219852E1,6.901714E1,4.3867252E1,1.2334E0,2.457886E0,4.8106033E1,6.113816E0,4.3485744E1,2.5531395E1,3.4070644E1,9.796608E0],"tree_param":{"num_deleted":"0","num_feature":"46","num_nodes":"15","size_leaf_vector":"1"}},{"base_weights":[-2.7071384E-3,-5.65819E-1,1.1416516E-1,-7.0593065E-1,7.49642E-1,-1.059041E-1,3.9560458E-1,2.2380583E-2,-4.4850614E-2,1.2399455E-3,5.533549E-2,-2.0592937E-2,7.579601E-3,-2.2276917E-2,2.767883E-2],"categories":[],"categories_nodes":[],"categories_segments":[],"categories_sizes":[],"default_left":[0,0,0,0,0,0,0,0,0,0,0,0,0,0,0],"id":20,"left_children":[1,3,5,7,9,11,13,-1,-1,-1,-1,-1,-1,-1,-1],"loss_changes":[1.1833802E1,6.225218E0,9.265793E0,6.671276E0,8.68013E-1,6.7088E0,8.958323E0,0E0,0E0,0E0,0E0,0E0,0E0,0E0,0E0],"parents":[2147483647,0,0,1,1,2,2,3,3,4,4,5,5,6,6],"right_children":[2,4,6,8,10,12,14,-1,-1,-1,-1,-1,-1,-1,-1],"split_conditions":[6.55459E2,3.1333333E-1,5.3338945E-1,-4.7666666E-1,1.5035759E3,7.914956E2,-2.5170067E1,2.2380583E-2,-4.4850614E-2,1.2399455E-3,5.533549E-2,-2.0592937E-2,7.579601E-3,-2.2276917E-2,2.767883E-2],"split_indices":[41,4,40,3,25,41,45,0,0,0,0,0,0,0,0],"split_type":[0,0,0,0,0,0,0,0,0,0,0,0,0,0,0],"sum_hessian":[1.778302E2,2.9904339E1,1.4792586E2,2.744454E1,2.4597988E0,8.336387E1,6.4562E1,3.7093012E0,2.3735239E1,1.1647737E0,1.2950252E0,3.78232E1,4.5540672E1,9.9202E0,5.4641792E1],"tree_param":{"num_deleted":"0","num_feature":"46","num_nodes":"15","size_leaf_vector":"1"}},{"base_weights":[-2.1553177E-3,6.4048654E-1,-8.448641E-2,-1.2530412E-1,1.0988809E0,-6.133001E-1,2.5526453E-2,-5.0263315E-2,3.552379E-2,6.338868E-2,-3.568797E-3,-6.246736E-3,-4.785596E-2,-5.8375243E-3,2.2441743E-2],"categories":[],"categories_nodes":[],"categories_segments":[],"categories_sizes":[],"default_left":[0,0,0,0,0,0,0,0,0,0,0,0,0,0,0],"id":21,"left_children":[1,3,5,7,9,11,13,-1,-1,-1,-1,-1,-1,-1,-1],"loss_changes":[9.370552E0,7.198142E0,9.147567E0,6.9133887E0,2.5975027E0,4.426035E0,7.9359846E0,0E0,0E0,0E0,0E0,0E0,0E0,0E0,0E0],"parents":[2147483647,0,0,1,1,2,2,3,3,4,4,5,5,6,6],"right_children":[2,4,6,8,10,12,14,-1,-1,-1,-1,-1,-1,-1,-1],"split_conditions":[1.4458757E3,-9.126361E-3,6.55459E2,8.772767E1,8.749278E-1,-8.250467E0,2.7E-1,-5.0263315E-2,3.552379E-2,6.338868E-2,-3.568797E-3,-6.246736E-3,-4.785596E-2,-5.8375243E-3,2.2441743E-2],"split_indices":[39,31,41,1,27,1,3,0,0,0,0,0,0,0,0],"split_type":[0,0,0,0,0,0,0,0,0,0,0,0,0,0,0],"sum_hessian":[1.7508289E2,1.911328E1,1.559696E2,7.4290323E0,1.1684246E1,2.6071829E1,1.2989777E2,3.52008E0,3.9089522E0,1.0137816E1,1.5464294E0,1.1334923E1,1.4736905E1,9.77631E1,3.2134674E1],"tree_param":{"num_deleted":"0","num_feature":"46","num_nodes":"15","size_leaf_vector":"1"}},{"base_weights":[2.2030009E-2,-1.5279031E-1,4.1093844E-1,-2.0112388E-1,9.313802E-1,-2.7687562E-1,6.4802307E-1,-3.824995E-2,-5.5154813E-3,5.93849E-2,1.0406853E-3,2.2602139E-2,-4.5750704E-2,4.6029072E-2,2.1405027E-3],"categories":[],"categories_nodes":[],"categories_segments":[],"categories_sizes":[],"default_left":[0,0,0,0,0,0,0,0,0,0,0,0,0,0,0],"id":22,"left_children":[1,3,5,7,9,11,13,-1,-1,-1,-1,-1,-1,-1,-1],"loss_changes":[1.1861311E1,6.499055E0,8.999376E0,5.8624125E0,1.2165089E0,7.188569E0,6.644905E0,0E0,0E0,0E0,0E0,0E0,0E0,0E0,0E0],"parents":[2147483647,0,0,1,1,2,2,3,3,4,4,5,5,6,6],"right_children":[2,4,6,8,10,12,14,-1,-1,-1,-1,-1,-1,-1,-1],"split_conditions":[5.5869037E-1,3.6570582E-1,-6.093802E0,-4.7832493E-2,1.5490923E3,1.4999058E3,1.1E1,-3.824995E-2,-5.5154813E-3,5.93849E-2,1.0406853E-3,2.2602139E-2,-4.5750704E-2,4.6029072E-2,2.1405027E-3],"split_indices":[40,2,45,44,38,26,32,0,0,0,0,0,0,0,0],"split_type":[0,0,0,0,0,0,0,0,0,0,0,0,0,0,0],"sum_hessian":[1.7253554E2,1.1944866E2,5.308688E1,1.151305E2,4.3181615E0,1.3565045E1,3.9521835E1,1.4940377E1,1.00190125E2,3.132137E0,1.1860243E0,6.4682555E0,7.09679E0,2.6890556E1,1.2631278E1],"tree_param":{"num_deleted":"0","num_feature":"46","num_nodes":"15","size_leaf_vector":"1"}},{"base_weights":[-5.0655257E-2,2.0224294E-5,-9.3493426E-1,-2.8441927E-1,1.3483451E-1,-1.1840886E0,2.0882307E-2,-3.2489174E-3,-4.2805072E-2,3.2281105E-3,5.39867E-2,-7.034656E-2,4.7476776E-3],"categories":[],"categories_nodes":[],"categories_segments":[],"categories_sizes":[],"default_left":[0,0,0,0,0,0,0,0,0,0,0,0,0],"id":23,"left_children":[1,3,5,7,9,11,-1,-1,-1,-1,-1,-1,-1],"loss_changes":[8.016018E0,6.5644608E0,3.7619905E0,6.8500233E0,7.642086E0,2.5415545E0,0E0,0E0,0E0,0E0,0E0,0E0,0E0],"parents":[2147483647,0,0,1,1,2,2,3,3,4,4,5,5],"right_children":[2,4,6,8,10,12,-1,-1,-1,-1,-1,-1,-1],"split_conditions":[1.4630533E2,7.282592E2,9.491423E2,6.277258E-1,1.0565823E-1,3.9666668E-1,2.0882307E-2,-3.2489174E-3,-4.2805072E-2,3.2281105E-3,5.39867E-2,-7.034656E-2,4.7476776E-3],"split_indices":[30,41,41,28,31,3,0,0,0,0,0,0,0],"split_type":[0,0,0,0,0,0,0,0,0,0,0,0,0],"sum_hessian":[1.7788358E2,1.6918788E2,8.695693E0,5.4046837E1,1.1514105E2,7.448247E0,1.2474458E0,3.9860134E1,1.4186701E1,1.0816512E2,6.975929E0,6.257959E0,1.190288E0],"tree_param":{"num_deleted":"0","num_feature":"46","num_nodes":"13","size_leaf_vector":"1"}},{"base_weights":[9.178613E-3,-7.860353E-2,5.407697E-1,-5.5802447E-1,2.8650614E-2,7.240703E-1,-4.260746E-1,-3.539337E-2,5.5123754E-2,4.409629E-3,-5.4550108E-2,-6.676127E-3,4.2558286E-2,-5.097837E-2,2.6437217E-2],"categories":[],"categories_nodes":[],"categories_segments":[],"categories_sizes":[],"default_left":[0,0,0,0,0,0,0,0,0,0,0,0,0,0,0],"id":24,"left_children":[1,3,5,7,9,11,13,-1,-1,-1,-1,-1,-1,-1,-1],"loss_changes":[8.0948305E0,7.676301E0,4.6652274E0,7.5690765E0,8.275613E0,2.4064713E0,3.116014E0,0E0,0E0,0E0,0E0,0E0,0E0,0E0,0E0],"parents":[2147483647,0,0,1,1,2,2,3,3,4,4,5,5,6,6],"right_children":[2,4,6,8,10,12,14,-1,-1,-1,-1,-1,-1,-1,-1],"split_conditions":[9.491423E2,4.6291485E-1,1.9255791E0,1.5021389E0,1.5577242E2,4.4381315E-1,1.1E1,-3.539337E-2,5.5123754E-2,4.409629E-3,-5.4550108E-2,-6.676127E-3,4.2558286E-2,-5.097837E-2,2.6437217E-2],"split_indices":[41,40,13,27,30,40,32,0,0,0,0,0,0,0,0],"split_type":[0,0,0,0,0,0,0,0,0,0,0,0,0,0,0],"sum_hessian":[1.7155893E2,1.479757E2,2.3583233E1,2.6284115E1,1.21691574E2,2.003581E1,3.547421E0,2.4634783E1,1.6493317E0,1.1642163E2,5.269948E0,2.5795288E0,1.7456282E1,2.145819E0,1.4016021E0],"tree_param":{"num_deleted":"0","num_feature":"46","num_nodes":"15","size_leaf_vector":"1"}},{"base_weights":[-3.5749033E-2,-2.726423E-1,2.5414503E-1,1.266062E-1,-5.9063965E-1,3.2455146E-1,-6.7758125E-1,-8.5832115E-4,6.620362E-2,-3.5458263E-2,3.9679863E-2,1.0074087E-2,4.098288E-2,2.9273039E-2,-6.537051E-2],"categories":[],"categories_nodes":[],"categories_segments":[],"categories_sizes":[],"default_left":[0,0,0,0,0,0,0,0,0,0,0,0,0,0,0],"id":25,"left_children":[1,3,5,7,9,11,13,-1,-1,-1,-1,-1,-1,-1,-1],"loss_changes":[1.209751E1,1.2373172E1,5.4207287E0,7.5584517E0,9.438416E0,4.367474E0,5.4540367E0,0E0,0E0,0E0,0E0,0E0,0E0,0E0,0E0],"parents":[2147483647,0,0,1,1,2,2,3,3,4,4,5,5,6,6],"right_children":[2,4,6,8,10,12,14,-1,-1,-1,-1,-1,-1,-1,-1],"split_conditions":[7.8775946E2,-2.2119043E0,1.0832554E2,-7.345209E-1,1.5485282E3,8.750544E0,1.4972053E3,-8.5832115E-4,6.620362E-2,-3.5458263E-2,3.9679863E-2,1.0074087E-2,4.098288E-2,2.9273039E-2,-6.537051E-2],"split_indices":[41,8,30,5,39,30,25,0,0,0,0,0,0,0,0],"split_type":[0,0,0,0,0,0,0,0,0,0,0,0,0,0,0],"sum_hessian":[1.7414964E2,9.5868286E1,7.8281364E1,4.27709E1,5.3097385E1,7.338747E1,4.8938994E0,3.9066128E1,3.704773E0,4.935872E1,3.738667E0,5.9903942E1,1.3483519E1,1.6518228E0,3.2420766E0],"tree_param":{"num_deleted":"0","num_feature":"46","num_nodes":"15","size_leaf_vector":"1"}},{"base_weights":[2.4481012E-2,-1.2082632E-1,4.5235312E-1,-8.330457E-1,-2.1161687E-2,-6.367506E-2,5.302002E-1,-4.9112096E-2,2.7281106E-2,-3.9422452E-2,3.4284347E-3,4.7037628E-2,1.52853355E-2],"categories":[],"categories_nodes":[],"categories_segments":[],"categories_sizes":[],"default_left":[0,0,0,0,0,0,0,0,0,0,0,0,0],"id":26,"left_children":[1,3,5,7,9,-1,11,-1,-1,-1,-1,-1,-1],"loss_changes":[1.0717932E1,9.126371E0,6.545143E0,3.7832851E0,7.9050493E0,0E0,3.630474E0,0E0,0E0,0E0,0E0,0E0,0E0],"parents":[2147483647,0,0,1,1,2,2,3,3,4,4,6,6],"right_children":[2,4,6,8,10,-1,12,-1,-1,-1,-1,-1,-1],"split_conditions":[8.418054E2,1.4761826E3,-2.239687E0,8.2833405E1,5.880875E2,-6.367506E-2,1.4917422E3,-4.9112096E-2,2.7281106E-2,-3.9422452E-2,3.4284347E-3,4.7037628E-2,1.52853355E-2],"split_indices":[41,25,27,1,41,0,26,0,0,0,0,0,0],"split_type":[0,0,0,0,0,0,0,0,0,0,0,0,0],"sum_hessian":[1.7050989E2,1.2781943E2,4.2690453E1,1.4787451E1,1.1303198E2,1.1796151E0,4.1510838E1,1.3602918E1,1.1845329E0,1.1019239E1,1.0201274E2,1.3546509E1,2.7964329E1],"tree_param":{"num_deleted":"0","num_feature":"46","num_nodes":"13","size_leaf_vector":"1"}},{"base_weights":[3.1665417E-3,-3.9660615E-1,1.19926505E-1,-1.3114824E0,-2.328606E-1,2.146455E-1,-3.9409235E-1,-1.601336E-2,-7.352759E-2,-2.0046549E-2,6.330583E-2,6.5021105E-3,5.881686E-2,-3.220352E-2,3.7410762E-2],"categories":[],"categories_nodes":[],"categories_segments":[],"categories_sizes":[],"default_left":[0,0,0,0,0,0,0,0,0,0,0,0,0,0,0],"id":27,"left_children":[1,3,5,7,9,11,13,-1,-1,-1,-1,-1,-1,-1,-1],"loss_changes":[8.304341E0,5.7194552E0,6.787509E0,4.5764065E-1,9.407911E0,9.358144E0,6.699606E0,0E0,0E0,0E0,0E0,0E0,0E0,0E0,0E0],"parents":[2147483647,0,0,1,1,2,2,3,3,4,4,5,5,6,6],"right_children":[2,4,6,8,10,12,14,-1,-1,-1,-1,-1,-1,-1,-1],"split_conditions":[4.7900054E-1,1.4768114E3,9.9167615E-1,-2.0009647E-1,1.5021389E0,1.547042E3,9.2242285E2,-1.601336E-2,-7.352759E-2,-2.0046549E-2,6.330583E-2,6.5021105E-3,5.881686E-2,-3.220352E-2,3.7410762E-2],"split_indices":[40,26,27,2,27,39,41,0,0,0,0,0,0,0,0],"split_type":[0,0,0,0,0,0,0,0,0,0,0,0,0,0,0],"sum_hessian":[1.7589009E2,3.921741E1,1.3667268E2,4.889517E0,3.4327896E1,1.1589834E2,2.077434E1,1.0928674E0,3.7966497E0,3.1525661E1,2.8022332E0,1.07570244E2,8.328098E0,1.7402266E1,3.3720753E0],"tree_param":{"num_deleted":"0","num_feature":"46","num_nodes":"15","size_leaf_vector":"1"}},{"base_weights":[4.1631192E-2,9.2347465E-2,-8.412102E-1,2.8327202E-2,8.650051E-1,-1.1396583E0,2.4537405E-2,-7.858354E-3,1.2334495E-2,6.1899748E-2,-3.4200303E-2,-2.0180281E-2,-7.294463E-2],"categories":[],"categories_nodes":[],"categories_segments":[],"categories_sizes":[],"default_left":[0,0,0,0,0,0,0,0,0,0,0,0,0],"id":28,"left_children":[1,3,5,7,9,11,-1,-1,-1,-1,-1,-1,-1],"loss_changes":[7.8501024E0,8.140373E0,4.3474035E0,6.254878E0,8.124424E0,1.3111792E0,0E0,0E0,0E0,0E0,0E0,0E0,0E0],"parents":[2147483647,0,0,1,1,2,2,3,3,4,4,5,5],"right_children":[2,4,6,8,10,12,-1,-1,-1,-1,-1,-1,-1],"split_conditions":[1.4630533E2,1.2400695E-2,9.0473224E2,2.927881E1,7.441257E-1,1.4972053E3,2.4537405E-2,-7.858354E-3,1.2334495E-2,6.1899748E-2,-3.4200303E-2,-2.0180281E-2,-7.294463E-2],"split_indices":[30,42,41,45,27,25,0,0,0,0,0,0,0],"split_type":[0,0,0,0,0,0,0,0,0,0,0,0,0],"sum_hessian":[1.7259059E2,1.6406122E2,8.529369E0,1.5246506E2,1.1596168E1,7.0860023E0,1.4433668E0,8.258834E1,6.987671E1,9.507597E0,2.0885715E0,2.828553E0,4.257449E0],"tree_param":{"num_deleted":"0","num_feature":"46","num_nodes":"13","size_leaf_vector":"1"}},{"base_weights":[3.090481E-2,5.8197856E-1,-4.2888604E-2,5.2684423E-2,1.2421457E0,-1.6268742E-1,4.0947834E-1,2.009853E-2,-5.0041836E-2,7.2517596E-2,-5.871028E-3,-2.0812983E-2,4.3894015E-3,3.543536E-2,-7.2320513E-3],"categories":[],"categories_nodes":[],"categories_segments":[],"categories_sizes":[],"default_left":[0,0,0,0,0,0,0,0,0,0,0,0,0,0,0],"id":29,"left_children":[1,3,5,7,9,11,13,-1,-1,-1,-1,-1,-1,-1,-1],"loss_changes":[6.948493E0,6.9841056E0,8.254118E0,4.9069777E0,2.6990347E0,7.668538E0,5.394654E0,0E0,0E0,0E0,0E0,0E0,0E0,0E0,0E0],"parents":[2147483647,0,0,1,1,2,2,3,3,4,4,5,5,6,6],"right_children":[2,4,6,8,10,12,14,-1,-1,-1,-1,-1,-1,-1,-1],"split_conditions":[-7.3799477E0,-9.309317E0,5.8716196E-1,1.5012354E3,4.5883782E-2,7.807691E2,1.1E1,2.009853E-2,-5.0041836E-2,7.2517596E-2,-5.871028E-3,-2.0812983E-2,4.3894015E-3,3.543536E-2,-7.2320513E-3],"split_indices":[8,8,40,26,31,41,32,0,0,0,0,0,0,0,0],"split_type":[0,0,0,0,0,0,0,0,0,0,0,0,0,0,0],"sum_hessian":[1.692552E2,1.917485E1,1.5008035E2,1.1241608E1,7.933243E0,1.1916314E2,3.0917212E1,8.907012E0,2.3345954E0,6.8217707E0,1.1114722E0,5.888661E1,6.0276535E1,1.9894852E1,1.102236E1],"tree_param":{"num_deleted":"0","num_feature":"46","num_nodes":"15","size_leaf_vector":"1"}},{"base_weights":[-7.0881112E-3,-5.0376594E-1,1.2172618E-1,-3.022269E-1,-1.0839154E0,3.0948898E-1,-1.7343245E-1,-2.14868E-2,4.431903E-2,6.32789E-3,-6.6441104E-2,-1.7626189E-3,2.6715359E-2,2.6338598E-2,-2.2993281E-2],"categories":[],"categories_nodes":[],"categories_segments":[],"categories_sizes":[],"default_left":[0,0,0,0,0,0,0,0,0,0,0,0,0,0,0],"id":30,"left_children":[1,3,5,7,9,11,13,-1,-1,-1,-1,-1,-1,-1,-1],"loss_changes":[1.1169119E1,3.8756886E0,7.738552E0,4.634724E0,2.8012571E0,6.6153126E0,1.118395E1,0E0,0E0,0E0,0E0,0E0,0E0,0E0,0E0],"parents":[2147483647,0,0,1,1,2,2,3,3,4,4,5,5,6,6],"right_children":[2,4,6,8,10,12,14,-1,-1,-1,-1,-1,-1,-1,-1],"split_conditions":[6.7228284E2,1.5098279E3,1.5032688E3,6.4450055E-1,-3.9333335E-1,-2.2723569E-2,-6.034795E-2,-2.14868E-2,4.431903E-2,6.32789E-3,-6.6441104E-2,-1.7626189E-3,2.6715359E-2,2.6338598E-2,-2.2993281E-2],"split_indices":[41,26,25,40,3,2,2,0,0,0,0,0,0,0,0],"split_type":[0,0,0,0,0,0,0,0,0,0,0,0,0,0,0],"sum_hessian":[1.7261575E2,3.4949158E1,1.376666E2,2.7067188E1,7.881969E0,8.4111305E1,5.355529E1,2.5021442E1,2.0457466E0,1.4076705E0,6.4742985E0,3.3533485E1,5.0577816E1,1.5304173E1,3.8251114E1],"tree_param":{"num_deleted":"0","num_feature":"46","num_nodes":"15","size_leaf_vector":"1"}},{"base_weights":[1.2659808E-2,5.7195697E-2,-7.397269E-1,-3.6902387E-2,4.5573896E-1,-9.713928E-1,2.0497872E-2,-1.3670872E-2,1.1523364E-2,4.3522656E-2,-8.605581E-3,-6.3348524E-2,1.4556236E-2],"categories":[],"categories_nodes":[],"categories_segments":[],"categories_sizes":[],"default_left":[0,0,0,0,0,0,0,0,0,0,0,0,0],"id":31,"left_children":[1,3,5,7,9,11,-1,-1,-1,-1,-1,-1,-1],"loss_changes":[5.9428496E0,6.2864184E0,3.0383964E0,8.674134E0,8.483868E0,3.558343E0,0E0,0E0,0E0,0E0,0E0,0E0,0E0],"parents":[2147483647,0,0,1,1,2,2,3,3,4,4,5,5],"right_children":[2,4,6,8,10,12,-1,-1,-1,-1,-1,-1,-1],"split_conditions":[1.4630533E2,1.6497087E1,9.491423E2,5.300505E-1,3.2214248E0,3.9666668E-1,2.0497872E-2,-1.3670872E-2,1.1523364E-2,4.3522656E-2,-8.605581E-3,-6.3348524E-2,1.4556236E-2],"split_indices":[30,30,41,40,8,3,0,0,0,0,0,0,0],"split_type":[0,0,0,0,0,0,0,0,0,0,0,0,0],"sum_hessian":[1.7509239E2,1.6617972E2,8.912665E0,1.3517227E2,3.1007452E1,7.5469947E0,1.3656704E0,7.171267E1,6.3459606E1,1.8440529E1,1.2566924E1,6.112438E0,1.4345562E0],"tree_param":{"num_deleted":"0","num_feature":"46","num_nodes":"13","size_leaf_vector":"1"}},{"base_weights":[-3.209044E-2,-1.22113034E-1,5.0409573E-1,7.366967E-1,-1.6799276E-1,-6.082005E-1,7.1639115E-1,-2.346846E-2,5.6633867E-2,-4.0758546E-3,-3.128603E-2,-7.397141E-2,2.979199E-2,-3.8745075E-2,4.224095E-2],"categories":[],"categories_nodes":[],"categories_segments":[],"categories_sizes":[],"default_left":[0,0,0,0,0,0,0,0,0,0,0,0,0,0,0],"id":32,"left_children":[1,3,5,7,9,11,13,-1,-1,-1,-1,-1,-1,-1,-1],"loss_changes":[8.241444E0,5.8728228E0,6.2344813E0,4.1541553E0,5.4637184E0,5.5774727E0,4.692034E0,0E0,0E0,0E0,0E0,0E0,0E0,0E0,0E0],"parents":[2147483647,0,0,1,1,2,2,3,3,4,4,5,5,6,6],"right_children":[2,4,6,8,10,12,14,-1,-1,-1,-1,-1,-1,-1,-1],"split_conditions":[9.491423E2,-7.133333E-1,4.4381315E-1,1.4839714E3,1E0,-1.2664992E-1,-2.239687E0,-2.346846E-2,5.6633867E-2,-4.0758546E-3,-3.128603E-2,-7.397141E-2,2.979199E-2,-3.8745075E-2,4.224095E-2],"split_indices":[41,3,40,39,27,27,27,0,0,0,0,0,0,0,0],"split_type":[0,0,0,0,0,0,0,0,0,0,0,0,0,0,0],"sum_hessian":[1.6846507E2,1.449081E2,2.3556984E1,6.5851607E0,1.3832294E2,3.476644E0,2.008034E1,1.5818564E0,5.0033045E0,1.1733387E2,2.0989063E1,1.8843982E0,1.5922458E0,1.1930465E0,1.8887293E1],"tree_param":{"num_deleted":"0","num_feature":"46","num_nodes":"15","size_leaf_vector":"1"}},{"base_weights":[2.8489878E-2,-5.065212E-1,1.4699623E-1,-8.2836396E-1,6.319089E-2,4.7845762E-2,8.575976E-1,-2.079733E-2,-7.2599046E-2,2.0496236E-2,-3.0865178E-2,-4.97863E-3,2.3777843E-2,-2.280059E-2,5.1896986E-2],"categories":[],"categories_nodes":[],"categories_segments":[],"categories_sizes":[],"default_left":[0,0,0,0,0,0,0,0,0,0,0,0,0,0,0],"id":33,"left_children":[1,3,5,7,9,11,13,-1,-1,-1,-1,-1,-1,-1,-1],"loss_changes":[1.1082275E1,5.866308E0,1.0027937E1,4.625452E0,3.173057E0,8.021653E0,4.6047544E0,0E0,0E0,0E0,0E0,0E0,0E0,0E0,0E0],"parents":[2147483647,0,0,1,1,2,2,3,3,4,4,5,5,6,6],"right_children":[2,4,6,8,10,12,14,-1,-1,-1,-1,-1,-1,-1,-1],"split_conditions":[1.4837062E3,1.0019501E0,1.5485282E3,2.575001E1,1.6597327E0,2.8333333E-1,1.4807299E3,-2.079733E-2,-7.2599046E-2,2.0496236E-2,-3.0865178E-2,-4.97863E-3,2.3777843E-2,-2.280059E-2,5.1896986E-2],"split_indices":[25,43,39,1,28,3,26,0,0,0,0,0,0,0,0],"split_type":[0,0,0,0,0,0,0,0,0,0,0,0,0,0,0],"sum_hessian":[1.7261884E2,3.0708305E1,1.4191054E2,1.9332788E1,1.1375517E1,1.2547087E2,1.6439665E1,1.2640332E1,6.692457E0,7.7991877E0,3.5763295E0,9.388046E1,3.1590405E1,1.7999878E0,1.4639677E1],"tree_param":{"num_deleted":"0","num_feature":"46","num_nodes":"15","size_leaf_vector":"1"}},{"base_weights":[-2.155065E-2,-2.9935363E-1,1.10658325E-1,9.4738215E-1,-3.916197E-1,-8.396753E-2,4.160898E-1,1.008309E-2,5.9356023E-2,2.4945151E-2,-2.4999728E-2,1.6015096E-2,-1.2727918E-2,2.4014541E-3,4.2099457E-2],"categories":[],"categories_nodes":[],"categories_segments":[],"categories_sizes":[],"default_left":[0,0,0,0,0,0,0,0,0,0,0,0,0,0,0],"id":34,"left_children":[1,3,5,7,9,11,13,-1,-1,-1,-1,-1,-1,-1,-1],"loss_changes":[6.345145E0,6.776637E0,7.000238E0,4.9888277E-1,5.3216677E0,5.0745897E0,7.134672E0,0E0,0E0,0E0,0E0,0E0,0E0,0E0,0E0],"parents":[2147483647,0,0,1,1,2,2,3,3,4,4,5,5,6,6],"right_children":[2,4,6,8,10,12,14,-1,-1,-1,-1,-1,-1,-1,-1],"split_conditions":[7.282592E2,-5.4032087E0,5.3535354E-1,1.4945996E3,1.4530388E3,-1.6333333E-1,1.4333333E-1,1.008309E-2,5.9356023E-2,2.4945151E-2,-2.4999728E-2,1.6015096E-2,-1.2727918E-2,2.4014541E-3,4.2099457E-2],"split_indices":[41,13,40,26,38,4,3,0,0,0,0,0,0,0,0],"split_type":[0,0,0,0,0,0,0,0,0,0,0,0,0,0,0],"sum_hessian":[1.7085829E2,5.4685856E1,1.1617244E2,3.129595E0,5.155626E1,7.140018E1,4.4772255E1,1.2092681E0,1.9203271E0,5.202609E0,4.635365E1,2.0927704E1,5.0472477E1,2.4613834E1,2.0158422E1],"tree_param":{"num_deleted":"0","num_feature":"46","num_nodes":"15","size_leaf_vector":"1"}},{"base_weights":[1.0116811E-2,-4.8465744E-1,1.16452135E-1,-1.0701181E0,-9.594264E-2,5.107771E-2,9.3335503E-1,-5.9773345E-2,5.452926E-3,2.545322E-2,-2.3824772E-2,-4.8127893E-4,3.1309854E-2,6.404142E-2,-2.3395125E-2],"categories":[],"categories_nodes":[],"categories_segments":[],"categories_sizes":[],"default_left":[0,0,0,0,0,0,0,0,0,0,0,0,0,0,0],"id":35,"left_children":[1,3,5,7,9,11,13,-1,-1,-1,-1,-1,-1,-1,-1],"loss_changes":[9.392775E0,7.0854683E0,7.795904E0,1.9786806E0,4.865903E0,4.790531E0,5.8699217E0,0E0,0E0,0E0,0E0,0E0,0E0,0E0,0E0],"parents":[2147483647,0,0,1,1,2,2,3,3,4,4,5,5,6,6],"right_children":[2,4,6,8,10,12,14,-1,-1,-1,-1,-1,-1,-1,-1],"split_conditions":[4.6066728E-1,1E1,1.5485282E3,1.6039613E3,1.1E1,1.2400695E-2,9.0974027E-1,-5.9773345E-2,5.452926E-3,2.545322E-2,-2.3824772E-2,-4.8127893E-4,3.1309854E-2,6.404142E-2,-2.3395125E-2],"split_indices":[40,32,39,39,32,42,27,0,0,0,0,0,0,0,0],"split_type":[0,0,0,0,0,0,0,0,0,0,0,0,0,0,0],"sum_hessian":[1.7645645E2,3.0585493E1,1.4587096E2,1.1504735E1,1.9080757E1,1.3604611E2,9.824859E0,1.0386784E1,1.1179509E0,7.2372313E0,1.1843527E1,1.2394689E2,1.209921E1,7.9415226E0,1.8833355E0],"tree_param":{"num_deleted":"0","num_feature":"46","num_nodes":"15","size_leaf_vector":"1"}},{"base_weights":[1.9578455E-2,-3.7021197E-2,6.397923E-1,4.9686855E-1,-9.424455E-2,1.0928421E0,-3.82878E-1,4.328665E-2,-5.8389243E-2,-1.1372003E-2,1.11477E-2,6.555222E-2,7.3120906E-3,4.5777593E-2,-5.4730695E-2],"categories":[],"categories_nodes":[],"categories_segments":[],"categories_sizes":[],"default_left":[0,0,0,0,0,0,0,0,0,0,0,0,0,0,0],"id":36,"left_children":[1,3,5,7,9,11,13,-1,-1,-1,-1,-1,-1,-1,-1],"loss_changes":[5.942414E0,4.796016E0,6.976569E0,1.0349228E1,6.018157E0,1.8879423E0,5.702407E0,0E0,0E0,0E0,0E0,0E0,0E0,0E0,0E0],"parents":[2147483647,0,0,1,1,2,2,3,3,4,4,5,5,6,6],"right_children":[2,4,6,8,10,12,14,-1,-1,-1,-1,-1,-1,-1,-1],"split_conditions":[1.2400695E-2,1.4728577E3,1.5095659E3,1.2987632E0,2.2E-1,7.303094E-1,5.7947004E-1,4.328665E-2,-5.8389243E-2,-1.1372003E-2,1.11477E-2,6.555222E-2,7.3120906E-3,4.5777593E-2,-5.4730695E-2],"split_indices":[42,38,25,5,3,27,8,0,0,0,0,0,0,0,0],"split_type":[0,0,0,0,0,0,0,0,0,0,0,0,0,0,0],"sum_hessian":[1.6760605E2,1.5445139E2,1.3154659E1,1.42080765E1,1.4024332E2,9.068595E0,4.0860643E0,1.2023717E1,2.1843596E0,9.89683E1,4.127501E1,7.0568967E0,2.0116987E0,1.3453531E0,2.740711E0],"tree_param":{"num_deleted":"0","num_feature":"46","num_nodes":"15","size_leaf_vector":"1"}},{"base_weights":[1.4397798E-2,-4.5017695E-1,1.10988766E-1,-6.2385786E-1,8.5067147E-1,1.6298687E-1,-7.927835E-1,-1.674165E-2,-5.4789104E-2,5.666144E-2,4.4472455E-3,1.945317E-4,2.2114826E-2,-5.4779727E-2,2.015145E-2],"categories":[],"categories_nodes":[],"categories_segments":[],"categories_sizes":[],"default_left":[0,0,0,0,0,0,0,0,0,0,0,0,0,0,0],"id":37,"left_children":[1,3,5,7,9,11,13,-1,-1,-1,-1,-1,-1,-1,-1],"loss_changes":[7.8276153E0,7.3157034E0,6.9101334E0,3.3254852E0,7.5160146E-1,6.098219E0,3.3458734E0,0E0,0E0,0E0,0E0,0E0,0E0,0E0,0E0],"parents":[2147483647,0,0,1,1,2,2,3,3,4,4,5,5,6,6],"right_children":[2,4,6,8,10,12,14,-1,-1,-1,-1,-1,-1,-1,-1],"split_conditions":[6.55459E2,6.4450055E-1,1.4630533E2,1.1333334E-1,1.5067212E3,5.515764E-1,9.491423E2,-1.674165E-2,-5.4789104E-2,5.666144E-2,4.4472455E-3,1.945317E-4,2.2114826E-2,-5.4779727E-2,2.015145E-2],"split_indices":[41,40,30,3,26,40,41,0,0,0,0,0,0,0,0],"split_type":[0,0,0,0,0,0,0,0,0,0,0,0,0,0,0],"sum_hessian":[1.7232304E2,2.903111E1,1.4329193E2,2.6070736E1,2.9603746E0,1.3627129E2,7.020645E0,1.7228708E1,8.84203E0,1.8036225E0,1.1567521E0,8.7464806E1,4.8806484E1,5.668931E0,1.3517143E0],"tree_param":{"num_deleted":"0","num_feature":"46","num_nodes":"15","size_leaf_vector":"1"}},{"base_weights":[-2.1781744E-2,-4.9297622E-1,7.439172E-2,3.9503354E-1,-6.877221E-1,1.2819722E-2,6.979598E-1,-4.567857E-2,5.471733E-2,-5.8568716E-2,-1.9879406E-2,4.78512E-2,-1.431574E-3,5.5852722E-2,-1.4087744E-2],"categories":[],"categories_nodes":[],"categories_segments":[],"categories_sizes":[],"default_left":[0,0,0,0,0,0,0,0,0,0,0,0,0,0,0],"id":38,"left_children":[1,3,5,7,9,11,13,-1,-1,-1,-1,-1,-1,-1,-1],"loss_changes":[7.6652493E0,5.2290897E0,5.392141E0,6.2993336E0,2.8845186E0,5.0782413E0,5.497799E0,0E0,0E0,0E0,0E0,0E0,0E0,0E0,0E0],"parents":[2147483647,0,0,1,1,2,2,3,3,4,4,5,5,6,6],"right_children":[2,4,6,8,10,12,14,-1,-1,-1,-1,-1,-1,-1,-1],"split_conditions":[6.568387E2,-1.603676E1,1.2400695E-2,-1.4086837E-2,1.3199965E1,-7.7155205E1,1.5090402E3,-4.567857E-2,5.471733E-2,-5.8568716E-2,-1.9879406E-2,4.78512E-2,-1.431574E-3,5.5852722E-2,-1.4087744E-2],"split_indices":[41,45,42,31,45,1,25,0,0,0,0,0,0,0,0],"split_type":[0,0,0,0,0,0,0,0,0,0,0,0,0,0,0],"sum_hessian":[1.6734027E2,2.7666159E1,1.3967412E2,4.791092E0,2.2875067E1,1.2805075E2,1.1623355E1,1.5619236E0,3.2291684E0,7.43822E0,1.5436846E1,4.4562073E0,1.2359455E2,8.04272E0,3.580635E0],"tree_param":{"num_deleted":"0","num_feature":"46","num_nodes":"15","size_leaf_vector":"1"}},{"base_weights":[4.6858426E-2,-9.687814E-1,7.9439774E-2,-6.046709E-2,-9.60062E-3,7.0328337E-1,1.967031E-2,-1.3149358E-2,5.6979563E-2,-2.1945634E-3,3.4146998E-2],"categories":[],"categories_nodes":[],"categories_segments":[],"categories_sizes":[],"default_left":[0,0,0,0,0,0,0,0,0,0,0],"id":39,"left_children":[1,3,5,-1,-1,7,9,-1,-1,-1,-1],"loss_changes":[5.1784306E0,6.7735577E-1,5.5902843E0,0E0,0E0,5.8276086E0,5.8556695E0,0E0,0E0,0E0,0E0],"parents":[2147483647,0,0,1,1,2,2,5,5,6,6],"right_children":[2,4,6,-1,-1,8,10,-1,-1,-1,-1],"split_conditions":[1.4658792E3,8E-2,1.4728577E3,-6.046709E-2,-9.60062E-3,2.1844568E1,1.2400695E-2,-1.3149358E-2,5.6979563E-2,-2.1945634E-3,3.4146998E-2],"split_indices":[26,3,38,0,0,45,42,0,0,0,0],"split_type":[0,0,0,0,0,0,0,0,0,0,0],"sum_hessian":[1.5316527E2,3.8676295E0,1.4929764E2,2.5278754E0,1.3397541E0,1.2112007E1,1.3718564E2,3.8913224E0,8.220685E0,1.2604088E2,1.1144756E1],"tree_param":{"num_deleted":"0","num_feature":"46","num_nodes":"11","size_leaf_vector":"1"}},{"base_weights":[3.1869352E-2,7.4739024E-2,-1.0012462E0,1.6687825E-1,-3.3963326E-1,-6.38903E-2,1.4004782E-2,-2.3954077E-2,1.1961398E-2,-3.1527307E-2,3.757898E-2],"categories":[],"categories_nodes":[],"categories_segments":[],"categories_sizes":[],"default_left":[0,0,0,0,0,0,0,0,0,0,0],"id":40,"left_children":[1,3,5,7,9,-1,-1,-1,-1,-1,-1],"loss_changes":[7.6382113E0,6.352498E0,2.7936192E0,6.4505925E0,1.0100858E1,0E0,0E0,0E0,0E0,0E0,0E0],"parents":[2147483647,0,0,1,1,2,2,3,3,4,4],"right_children":[2,4,6,8,10,-1,-1,-1,-1,-1,-1],"split_conditions":[1.5577242E2,8.749278E-1,9.0473224E2,4.3789244E-1,1.5147516E1,-6.38903E-2,1.4004782E-2,-2.3954077E-2,1.1961398E-2,-3.1527307E-2,3.757898E-2],"split_indices":[30,27,41,40,30,0,0,0,0,0,0],"split_type":[0,0,0,0,0,0,0,0,0,0,0],"sum_hessian":[1.6977205E2,1.6389864E2,5.8734035E0,1.3457256E2,2.9326088E1,4.833023E0,1.0403808E0,1.2988206E1,1.2158434E2,2.348677E1,5.839317E0],"tree_param":{"num_deleted":"0","num_feature":"46","num_nodes":"11","size_leaf_vector":"1"}},{"base_weights":[-2.3327457E-2,-1.3567552E-1,3.3512437E-1,6.983464E-1,-1.955505E-1,6.3146347E-1,-2.6334313E-1,5.0779242E-2,-3.6436945E-2,-4.0234983E-2,-6.449734E-3,4.4471275E-2,-2.6880212E-3,-3.3742435E-2,3.6841523E-2],"categories":[],"categories_nodes":[],"categories_segments":[],"categories_sizes":[],"default_left":[0,0,0,0,0,0,0,0,0,0,0,0,0,0,0],"id":41,"left_children":[1,3,5,7,9,11,13,-1,-1,-1,-1,-1,-1,-1,-1],"loss_changes":[6.8435535E0,6.5902224E0,7.3615236E0,4.75815E0,4.816455E0,4.8962326E0,6.317711E0,0E0,0E0,0E0,0E0,0E0,0E0,0E0,0E0],"parents":[2147483647,0,0,1,1,2,2,3,3,4,4,5,5,6,6],"right_children":[2,4,6,8,10,12,14,-1,-1,-1,-1,-1,-1,-1,-1],"split_conditions":[8.418054E2,-7.133333E-1,1.5029027E3,1E0,1.474794E3,1.2109165E0,1.5172343E3,5.0779242E-2,-3.6436945E-2,-4.0234983E-2,-6.449734E-3,4.4471275E-2,-2.6880212E-3,-3.3742435E-2,3.6841523E-2],"split_indices":[41,3,25,20,25,29,25,0,0,0,0,0,0,0,0],"split_type":[0,0,0,0,0,0,0,0,0,0,0,0,0,0,0],"sum_hessian":[1.678069E2,1.2823593E2,3.957096E1,7.8752403E0,1.203607E2,2.6429106E1,1.3141854E1,6.6788864E0,1.196354E0,1.0762925E1,1.0959777E2,1.8984224E1,7.4448814E0,9.541447E0,3.6004083E0],"tree_param":{"num_deleted":"0","num_feature":"46","num_nodes":"15","size_leaf_vector":"1"}},{"base_weights":[5.9263306E-3,-1.05378225E-1,3.517821E-1,-7.6694244E-1,-2.4393965E-2,-6.661298E-2,4.4403723E-1,-4.803186E-2,4.6874047E-3,-2.2211945E-2,4.9100057E-3,1.2228525E-2,5.05743E-2],"categories":[],"categories_nodes":[],"categories_segments":[],"categories_sizes":[],"default_left":[0,0,0,0,0,0,0,0,0,0,0,0,0],"id":42,"left_children":[1,3,5,7,9,-1,11,-1,-1,-1,-1,-1,-1],"loss_changes":[6.6305075E0,6.9648128E0,7.1061416E0,2.454548E0,6.0741177E0,0E0,4.3371415E0,0E0,0E0,0E0,0E0,0E0,0E0],"parents":[2147483647,0,0,1,1,2,2,3,3,4,4,6,6],"right_children":[2,4,6,8,10,-1,12,-1,-1,-1,-1,-1,-1],"split_conditions":[8.418054E2,1.4761826E3,-2.239687E0,7.196162E1,-2.6333332E-1,-6.661298E-2,2.6333332E-1,-4.803186E-2,4.6874047E-3,-2.2211945E-2,4.9100057E-3,1.2228525E-2,5.05743E-2],"split_indices":[41,25,27,1,4,0,4,0,0,0,0,0,0],"split_type":[0,0,0,0,0,0,0,0,0,0,0,0,0],"sum_hessian":[1.7027892E2,1.2934723E2,4.0931683E1,1.3183155E1,1.1616407E2,1.4277753E0,3.9503906E1,1.0666567E1,2.516589E0,2.5660734E1,9.050334E1,3.0288162E1,9.215744E0],"tree_param":{"num_deleted":"0","num_feature":"46","num_nodes":"13","size_leaf_vector":"1"}},{"base_weights":[-2.9020412E-2,-1.8731982E-1,2.4697325E-1,-2.3997413E-1,5.7177026E-2,-4.24216E-1,4.5836726E-1,-4.0900476E-2,-8.1742685E-3,-3.907981E-2,3.4639325E-2,3.2105226E-2,-1.017956E-2],"categories":[],"categories_nodes":[],"categories_segments":[],"categories_sizes":[],"default_left":[0,0,0,0,0,0,0,0,0,0,0,0,0],"id":43,"left_children":[1,3,5,7,-1,9,11,-1,-1,-1,-1,-1,-1],"loss_changes":[7.3766656E0,7.786186E0,8.932921E0,4.461884E0,0E0,6.6375036E0,5.8857822E0,0E0,0E0,0E0,0E0,0E0,0E0],"parents":[2147483647,0,0,1,1,2,2,3,3,5,5,6,6],"right_children":[2,4,6,8,-1,10,12,-1,-1,-1,-1,-1,-1],"split_conditions":[1.5E-1,1.5478598E-1,7.197559E2,1.4817499E3,5.7177026E-2,6.2056464E-1,8.571271E-1,-4.0900476E-2,-8.1742685E-3,-3.907981E-2,3.4639325E-2,3.2105226E-2,-1.017956E-2],"split_indices":[3,31,41,26,0,40,27,0,0,0,0,0,0],"split_type":[0,0,0,0,0,0,0,0,0,0,0,0,0],"sum_hessian":[1.6678357E2,1.061953E2,6.0588272E1,1.0294217E2,3.2531297E0,1.4270807E1,4.6317467E1,1.0897075E1,9.204509E1,1.1039151E1,3.2316563E0,3.627793E1,1.0039533E1],"tree_param":{"num_deleted":"0","num_feature":"46","num_nodes":"13","size_leaf_vector":"1"}},{"base_weights":[2.7206933E-2,-1.4643328E-2,1.0825609E0,-3.5876447E-1,8.205208E-2,1.328959E-2,5.9748948E-2,4.8882846E-2,-2.3310376E-2,-1.1989239E-2,1.028158E-2],"categories":[],"categories_nodes":[],"categories_segments":[],"categories_sizes":[],"default_left":[0,0,0,0,0,0,0,0,0,0,0],"id":44,"left_children":[1,3,5,7,9,-1,-1,-1,-1,-1,-1],"loss_changes":[7.286744E0,5.33116E0,2.6016092E-1,5.500968E0,5.028603E0,0E0,0E0,0E0,0E0,0E0,0E0],"parents":[2147483647,0,0,1,1,2,2,3,3,4,4],"right_children":[2,4,6,8,10,-1,-1,-1,-1,-1,-1],"split_conditions":[1.0224965E3,4.6291485E-1,-2.413113E1,-1.4558654E0,1.4693511E3,1.328959E-2,5.9748948E-2,4.8882846E-2,-2.3310376E-2,-1.1989239E-2,1.028158E-2],"split_indices":[41,40,45,27,39,0,0,0,0,0,0],"split_type":[0,0,0,0,0,0,0,0,0,0,0],"sum_hessian":[1.6362334E2,1.5833083E2,5.2925143E0,3.4136185E1,1.2419464E2,1.0473497E0,4.2451644E0,1.9374967E0,3.219869E1,3.419656E1,8.9998085E1],"tree_param":{"num_deleted":"0","num_feature":"46","num_nodes":"11","size_leaf_vector":"1"}},{"base_weights":[7.7134413E-3,-3.8790515E-1,9.019713E-2,-7.099563E-1,-6.9785334E-2,-4.045436E-2,4.0277833E-1,-4.505528E-3,-5.7446193E-2,-4.5727216E-2,1.0693043E-2,2.6550299E-2,-7.3261866E-3,2.570315E-2,-3.5067897E-2],"categories":[],"categories_nodes":[],"categories_segments":[],"categories_sizes":[],"default_left":[0,0,0,0,0,0,0,0,0,0,0,0,0,0,0],"id":45,"left_children":[1,3,5,7,9,11,13,-1,-1,-1,-1,-1,-1,-1,-1],"loss_changes":[5.497006E0,2.9282808E0,5.705846E0,3.7968273E0,3.9649804E0,6.088247E0,5.4176903E0,0E0,0E0,0E0,0E0,0E0,0E0,0E0,0E0],"parents":[2147483647,0,0,1,1,2,2,3,3,4,4,5,5,6,6],"right_children":[2,4,6,8,10,12,14,-1,-1,-1,-1,-1,-1,-1,-1],"split_conditions":[6.568387E2,1.9266376E1,2.1666667E-1,-7.7759876E0,1.4893081E3,7.16762E2,1.524373E3,-4.505528E-3,-5.7446193E-2,-4.5727216E-2,1.0693043E-2,2.6550299E-2,-7.3261866E-3,2.570315E-2,-3.5067897E-2],"split_indices":[41,45,3,45,25,41,26,0,0,0,0,0,0,0,0],"split_type":[0,0,0,0,0,0,0,0,0,0,0,0,0,0,0],"sum_hessian":[1.6638184E2,2.8065891E1,1.3831595E2,1.3334687E1,1.4731205E1,9.815858E1,4.0157368E1,6.0280447E0,7.3066425E0,3.1438634E0,1.1587341E1,1.4739843E1,8.341874E1,3.6966022E1,3.191344E0],"tree_param":{"num_deleted":"0","num_feature":"46","num_nodes":"15","size_leaf_vector":"1"}},{"base_weights":[-5.158851E-2,-8.914176E-2,1.055695E0,2.8237864E-1,-1.6947132E-1,1.52702825E-2,6.1E-2,3.702037E-2,-1.179211E-2,-1.5361666E-2,1.0101351E-2],"categories":[],"categories_nodes":[],"categories_segments":[],"categories_sizes":[],"default_left":[0,0,0,0,0,0,0,0,0,0,0],"id":46,"left_children":[1,3,5,7,9,-1,-1,-1,-1,-1,-1],"loss_changes":[7.131704E0,4.9606776E0,3.2139063E-1,7.2100754E0,7.0210924E0,0E0,0E0,0E0,0E0,0E0,0E0],"parents":[2147483647,0,0,1,1,2,2,3,3,4,4],"right_children":[2,4,6,8,10,-1,-1,-1,-1,-1,-1],"split_conditions":[1.5478598E-1,1.4968627E3,1.5283502E1,-1.2664992E-1,2.7E-1,1.52702825E-2,6.1E-2,3.702037E-2,-1.179211E-2,-1.5361666E-2,1.0101351E-2],"split_indices":[31,38,1,27,3,0,0,0,0,0,0],"split_type":[0,0,0,0,0,0,0,0,0,0,0],"sum_hessian":[1.6824586E2,1.6361636E2,4.6295123E0,2.864044E1,1.3497592E2,1.3452544E0,3.284258E0,1.4975562E1,1.3664878E1,9.858925E1,3.6386665E1],"tree_param":{"num_deleted":"0","num_feature":"46","num_nodes":"11","size_leaf_vector":"1"}},{"base_weights":[1.412972E-3,-1.3749002E-1,2.6528853E-1,-6.0462767E-1,-5.151291E-2,4.4473803E-1,-2.8185377E-1,-4.5048457E-2,1.564954E-2,7.963038E-3,-1.4036225E-2,5.0237358E-2,1.0704878E-2,-3.3569794E-2,3.4109574E-2],"categories":[],"categories_nodes":[],"categories_segments":[],"categories_sizes":[],"default_left":[0,0,0,0,0,0,0,0,0,0,0,0,0,0,0],"id":47,"left_children":[1,3,5,7,9,11,13,-1,-1,-1,-1,-1,-1,-1,-1],"loss_changes":[6.286951E0,4.482378E0,5.933046E0,5.0068517E0,4.682849E0,5.588084E0,6.1739945E0,0E0,0E0,0E0,0E0,0E0,0E0,0E0,0E0],"parents":[2147483647,0,0,1,1,2,2,3,3,4,4,5,5,6,6],"right_children":[2,4,6,8,10,12,14,-1,-1,-1,-1,-1,-1,-1,-1],"split_conditions":[1.5E-1,1.4863033E3,8.571271E-1,1.572098E3,1.5003547E3,1.4916116E3,1.6497087E1,-4.5048457E-2,1.564954E-2,7.963038E-3,-1.4036225E-2,5.0237358E-2,1.0704878E-2,-3.3569794E-2,3.4109574E-2],"split_indices":[3,26,27,38,25,26,30,0,0,0,0,0,0,0,0],"split_type":[0,0,0,0,0,0,0,0,0,0,0,0,0,0,0],"sum_hessian":[1.6953062E2,1.11379745E2,5.815088E1,1.6375372E1,9.500438E1,4.3930042E1,1.4220835E1,1.2391671E1,3.9836998E0,4.965179E1,4.535259E1,1.1835759E1,3.2094284E1,1.0344495E1,3.8763392E0],"tree_param":{"num_deleted":"0","num_feature":"46","num_nodes":"15","size_leaf_vector":"1"}},{"base_weights":[2.6249586E-2,6.914284E-2,-8.609184E-1,-3.1749155E-2,4.7098172E-1,-1.1522509E0,1.7143918E-2,-4.338276E-2,2.134236E-3,1.3919609E-2,5.5492252E-2,-1.3985047E-2,-6.88576E-2],"categories":[],"categories_nodes":[],"categories_segments":[],"categories_sizes":[],"default_left":[0,0,0,0,0,0,0,0,0,0,0,0,0],"id":48,"left_children":[1,3,5,7,9,11,-1,-1,-1,-1,-1,-1,-1],"loss_changes":[6.3741384E0,6.469818E0,3.1050854E0,8.013462E0,3.6301355E0,8.807249E-1,0E0,0E0,0E0,0E0,0E0,0E0,0E0],"parents":[2147483647,0,0,1,1,2,2,3,3,4,4,5,5],"right_children":[2,4,6,8,10,12,-1,-1,-1,-1,-1,-1,-1],"split_conditions":[1.5577242E2,2.7E-1,9.491423E2,5.880875E2,9.6827446E1,2E0,1.7143918E-2,-4.338276E-2,2.134236E-3,1.3919609E-2,5.5492252E-2,-1.3985047E-2,-6.88576E-2],"split_indices":[30,4,41,41,1,32,0,0,0,0,0,0,0],"split_type":[0,0,0,0,0,0,0,0,0,0,0,0,0],"sum_hessian":[1.6494029E2,1.58213E2,6.7273E0,1.2719772E2,3.1015272E1,5.450932E0,1.276368E0,9.528967E0,1.1766876E2,2.4934397E1,6.080876E0,1.5768572E0,3.8740747E0],"tree_param":{"num_deleted":"0","num_feature":"46","num_nodes":"13","size_leaf_vector":"1"}},{"base_weights":[-2.8230049E-2,-4.6031165E-1,7.378929E-2,-1.1589848E0,-1.842936E-1,1.7676774E-2,8.130642E-1,-1.4428821E-2,-6.6268176E-2,3.5288047E-2,-2.0069078E-2,2.7223378E-2,-4.394987E-3,7.2278504E-5,6.962418E-2],"categories":[],"categories_nodes":[],"categories_segments":[],"categories_sizes":[],"default_left":[0,0,0,0,0,0,0,0,0,0,0,0,0,0,0],"id":49,"left_children":[1,3,5,7,9,11,13,-1,-1,-1,-1,-1,-1,-1,-1],"loss_changes":[7.4133863E0,5.9796324E0,5.639384E0,9.0718365E-1,4.961034E0,7.1500864E0,4.50919E0,0E0,0E0,0E0,0E0,0E0,0E0,0E0,0E0],"parents":[2147483647,0,0,1,1,2,2,3,3,4,4,5,5,6,6],"right_children":[2,4,6,8,10,12,14,-1,-1,-1,-1,-1,-1,-1,-1],"split_conditions":[4.6066728E-1,1.4842323E3,1.5485282E3,-2.4456326E1,1.4905485E3,-4.4333333E-1,-1.9582417E0,-1.4428821E-2,-6.6268176E-2,3.5288047E-2,-2.0069078E-2,2.7223378E-2,-4.394987E-3,7.2278504E-5,6.962418E-2],"split_indices":[40,25,39,30,38,3,5,0,0,0,0,0,0,0,0],"split_type":[0,0,0,0,0,0,0,0,0,0,0,0,0,0,0],"sum_hessian":[1.6640714E2,3.1114817E1,1.3529231E2,7.9053597E0,2.3209455E1,1.2669947E2,8.592844E0,1.7074276E0,6.1979322E0,4.109516E0,1.909994E1,2.045899E1,1.0624048E2,3.9968169E0,4.596027E0],"tree_param":{"num_deleted":"0","num_feature":"46","num_nodes":"15","size_leaf_vector":"1"}}]},"name":"gbtree"},"learner_model_param":{"base_score":"[5.207646E-1]","boost_from_average":"1","num_class":"0","num_feature":"46","num_target":"1"},"objective":{"name":"binary:logistic","reg_loss_param":{"scale_pos_weight":"1"}}},"version":[3,2,0]}