{"learner":{"attributes":{"scikit_learn":"{\"_estimator_type\": \"classifier\"}"},"feature_names":["p1_target","elo_diff","finish_diff","edge_speed_diff","edge_burst_diff","l5_goal_diff","l5_xg_diff","l5_corsi_diff","l5_pdo_diff","l5_st_net","l5_royal_road_diff","l5_pressure_diff","l5_rebound_diff","l5_lateral_diff","p1_xg_diff","p2_xg_diff","p3_xg_diff","p1_p2_dominance","h_preservation_rate","a_preservation_rate","h_comeback_rate","a_comeback_rate","l5_nzt_possession_diff","l5_ca_shots_diff","l5_rush_sv_pct_diff","home_sos","away_sos","l5_std_diff","l10_goal_diff","l10_xg_diff","elo_rest_inter","speed_finish_inter","season_month","is_late_season","h_desperation","a_desperation","home_xg","away_xg","home_elo","away_elo","away_win_rate","home_win_rate_away_sos","away_b2b_home_strength","pressure_index","xg_efficiency","power_momentum"],"feature_types":["int","float","float","float","float","float","float","float","float","float","float","float","float","float","float","float","float","float","float","float","float","float","float","float","float","float","float","float","float","float","float","float","int","int","float","float","float","float","float","float","float","float","float","float","float","float"],"gradient_booster":{"model":{"cats":{"enc":[],"feature_segments":[],"sorted_idx":[]},"gbtree_model_param":{"num_parallel_tree":"1","num_trees":"50"},"iteration_indptr":[0,1,2,3,4,5,6,7,8,9,10,11,12,13,14,15,16,17,18,19,20,21,22,23,24,25,26,27,28,29,30,31,32,33,34,35,36,37,38,39,40,41,42,43,44,45,46,47,48,49,50],"tree_info":[0,0,0,0,0,0,0,0,0,0,0,0,0,0,0,0,0,0,0,0,0,0,0,0,0,0,0,0,0,0,0,0,0,0,0,0,0,0,0,0,0,0,0,0,0,0,0,0,0,0],"trees":[{"base_weights":[2.8769689E-2,-8.3017325E-1,3.015113E-1,-1.0119307E0,7.915825E-1,1.9925851E-2,7.0718735E-1,-7.3752515E-2,-3.1518415E-2,-6.944331E-3,5.4807503E-2,-1.739904E-2,1.9939339E-2,-3.839538E-5,4.527696E-2],"categories":[],"categories_nodes":[],"categories_segments":[],"categories_sizes":[],"default_left":[0,0,0,0,0,0,0,0,0,0,0,0,0,0,0],"id":0,"left_children":[1,3,5,7,9,11,13,-1,-1,-1,-1,-1,-1,-1,-1],"loss_changes":[5.271205E1,1.6788113E1,1.9485516E1,7.765934E0,1.8602433E0,1.4326853E1,9.817871E0,0E0,0E0,0E0,0E0,0E0,0E0,0E0,0E0],"parents":[2147483647,0,0,1,1,2,2,3,3,4,4,5,5,6,6],"right_children":[2,4,6,8,10,12,14,-1,-1,-1,-1,-1,-1,-1,-1],"split_conditions":[7.1290717E2,3.6333334E-1,5.346943E-1,1E1,-1.2285889E0,8.302953E2,-3.269303E0,-7.3752515E-2,-3.1518415E-2,-6.944331E-3,5.4807503E-2,-1.739904E-2,1.9939339E-2,-3.839538E-5,4.527696E-2],"split_indices":[41,4,40,32,5,41,45,0,0,0,0,0,0,0,0],"split_type":[0,0,0,0,0,0,0,0,0,0,0,0,0,0,0],"sum_hessian":[2.2293762E2,5.3236504E1,1.6970111E2,4.820948E1,5.0270247E0,1.0079028E2,6.891083E1,2.0482784E1,2.7726694E1,1.3738452E0,3.6531794E0,5.1175735E1,4.9614548E1,1.5299641E1,5.3611187E1],"tree_param":{"num_deleted":"0","num_feature":"46","num_nodes":"15","size_leaf_vector":"1"}},{"base_weights":[9.038812E-3,-7.263221E-1,2.4739738E-1,-9.089419E-1,9.247079E-1,-1.5061821E-3,6.8976116E-1,-2.6944086E-2,-7.43324E-2,7.025552E-2,3.3978994E-3,-8.928847E-3,3.26281E-2,-2.2234323E-2,3.9506014E-2],"categories":[],"categories_nodes":[],"categories_segments":[],"categories_sizes":[],"default_left":[0,0,0,0,0,0,0,0,0,0,0,0,0,0,0],"id":1,"left_children":[1,3,5,7,9,11,13,-1,-1,-1,-1,-1,-1,-1,-1],"loss_changes":[3.9701603E1,1.7559143E1,1.883242E1,9.980408E0,2.3814783E0,1.2907882E1,7.362896E0,0E0,0E0,0E0,0E0,0E0,0E0,0E0,0E0],"parents":[2147483647,0,0,1,1,2,2,3,3,4,4,5,5,6,6],"right_children":[2,4,6,8,10,12,14,-1,-1,-1,-1,-1,-1,-1,-1],"split_conditions":[7.1290717E2,3.6333334E-1,5.57358E-1,8.281947E-2,-4.4354767E-2,9.102675E2,1.4176722E3,-2.6944086E-2,-7.43324E-2,7.025552E-2,3.3978994E-3,-8.928847E-3,3.26281E-2,-2.2234323E-2,3.9506014E-2],"split_indices":[41,4,40,8,27,41,39,0,0,0,0,0,0,0,0],"split_type":[0,0,0,0,0,0,0,0,0,0,0,0,0,0,0],"sum_hessian":[2.2447928E2,5.444956E1,1.7002972E2,4.9431435E1,5.018122E0,1.0944513E2,6.0584587E1,3.1308804E1,1.8122631E1,2.8051517E0,2.2129705E0,8.6700386E1,2.2744743E1,4.645171E0,5.5939415E1],"tree_param":{"num_deleted":"0","num_feature":"46","num_nodes":"15","size_leaf_vector":"1"}},{"base_weights":[3.919524E-3,-7.009288E-1,2.287096E-1,-8.7224543E-1,7.7243483E-1,-1.0026779E-1,5.512283E-1,-2.6427625E-2,-5.992477E-2,1.703869E-3,6.684754E-2,-2.1905577E-2,1.7489761E-2,4.2067997E-2,6.035855E-3],"categories":[],"categories_nodes":[],"categories_segments":[],"categories_sizes":[],"default_left":[0,0,0,0,0,0,0,0,0,0,0,0,0,0,0],"id":2,"left_children":[1,3,5,7,9,11,13,-1,-1,-1,-1,-1,-1,-1,-1],"loss_changes":[3.6002186E1,1.4542568E1,1.8333138E1,4.9384384E0,2.5610576E0,1.3248819E1,1.0782875E1,0E0,0E0,0E0,0E0,0E0,0E0,0E0,0E0],"parents":[2147483647,0,0,1,1,2,2,3,3,4,4,5,5,6,6],"right_children":[2,4,6,8,10,12,14,-1,-1,-1,-1,-1,-1,-1,-1],"split_conditions":[7.1290717E2,3.6333334E-1,5.04989E-1,1.1108655E-2,1.5061965E3,8.3556006E2,1.5028698E3,-2.6427625E-2,-5.992477E-2,1.703869E-3,6.684754E-2,-2.1905577E-2,1.7489761E-2,4.2067997E-2,6.035855E-3],"split_indices":[41,4,40,44,25,41,25,0,0,0,0,0,0,0,0],"split_type":[0,0,0,0,0,0,0,0,0,0,0,0,0,0,0],"sum_hessian":[2.2521321E2,5.394523E1,1.7126799E2,4.8691566E1,5.253662E0,8.512619E1,8.61418E1,2.4987835E1,2.3703732E1,2.7357757E0,2.5178866E0,4.8640404E1,3.6485786E1,5.0890896E1,3.52509E1],"tree_param":{"num_deleted":"0","num_feature":"46","num_nodes":"15","size_leaf_vector":"1"}},{"base_weights":[1.6282337E-4,-4.729318E-1,3.1813094E-1,-9.63138E-1,-6.7488246E-2,-2.2227055E-1,4.6373755E-1,-1.0523589E-2,-5.557659E-2,5.84898E-3,-6.036023E-2,-5.498245E-2,5.0419467E-3,3.4124848E-2,5.5818628E-3],"categories":[],"categories_nodes":[],"categories_segments":[],"categories_sizes":[],"default_left":[0,0,0,0,0,0,0,0,0,0,0,0,0,0,0],"id":3,"left_children":[1,3,5,7,9,11,13,-1,-1,-1,-1,-1,-1,-1,-1],"loss_changes":[3.524659E1,1.8653366E1,1.1129106E1,4.519417E0,1.1204495E1,8.734127E0,8.451174E0,0E0,0E0,0E0,0E0,0E0,0E0,0E0,0E0],"parents":[2147483647,0,0,1,1,2,2,3,3,4,4,5,5,6,6],"right_children":[2,4,6,8,10,12,14,-1,-1,-1,-1,-1,-1,-1,-1],"split_conditions":[7.4426025E2,5.0427634E-1,4.7587076E-1,-1.2901034E1,9.759148E-1,1.484381E3,1.5029027E3,-1.0523589E-2,-5.557659E-2,5.84898E-3,-6.036023E-2,-5.498245E-2,5.0419467E-3,3.4124848E-2,5.5818628E-3],"split_indices":[41,40,40,30,27,25,25,0,0,0,0,0,0,0,0],"split_type":[0,0,0,0,0,0,0,0,0,0,0,0,0,0,0],"sum_hessian":[2.3230696E2,9.318002E1,1.3912694E2,4.155815E1,5.1621872E1,2.9418219E1,1.09708725E2,7.2424E0,3.431575E1,4.520295E1,6.4189253E0,7.2710156E0,2.2147203E1,6.708843E1,4.2620293E1],"tree_param":{"num_deleted":"0","num_feature":"46","num_nodes":"15","size_leaf_vector":"1"}},{"base_weights":[-1.51458075E-2,-7.0721126E-1,1.927611E-1,-8.811242E-1,8.517212E-1,-8.1403546E-2,4.5724058E-1,-1.7160974E-2,-6.041589E-2,-6.881782E-3,6.820025E-2,-2.316275E-2,1.3793664E-2,3.7783336E-2,2.3774049E-4],"categories":[],"categories_nodes":[],"categories_segments":[],"categories_sizes":[],"default_left":[0,0,0,0,0,0,0,0,0,0,0,0,0,0,0],"id":4,"left_children":[1,3,5,7,9,11,13,-1,-1,-1,-1,-1,-1,-1,-1],"loss_changes":[3.2546986E1,1.4916712E1,1.26543045E1,7.9449844E0,3.1033068E0,1.1899487E1,1.1976149E1,0E0,0E0,0E0,0E0,0E0,0E0,0E0,0E0],"parents":[2147483647,0,0,1,1,2,2,3,3,4,4,5,5,6,6],"right_children":[2,4,6,8,10,12,14,-1,-1,-1,-1,-1,-1,-1,-1],"split_conditions":[7.1290717E2,3.6333334E-1,5.04989E-1,-2.9837847E0,5.0427634E-1,8.227721E2,1.5028698E3,-1.7160974E-2,-6.041589E-2,-6.881782E-3,6.820025E-2,-2.316275E-2,1.3793664E-2,3.7783336E-2,2.3774049E-4],"split_indices":[41,4,40,8,40,41,25,0,0,0,0,0,0,0,0],"split_type":[0,0,0,0,0,0,0,0,0,0,0,0,0,0,0],"sum_hessian":[2.2425366E2,5.1251106E1,1.7300256E2,4.6498566E1,4.7525434E0,8.528582E1,8.771674E1,1.8361431E1,2.8137133E1,1.87082E0,2.8817232E0,4.108173E1,4.420409E1,5.245275E1,3.5263992E1],"tree_param":{"num_deleted":"0","num_feature":"46","num_nodes":"15","size_leaf_vector":"1"}},{"base_weights":[2.0651652E-2,-5.9402406E-1,2.1814774E-1,-8.277211E-1,4.7823587E-1,-2.6060633E-2,5.790696E-1,-2.5455296E-2,-6.47822E-2,-2.0840487E-2,6.500283E-2,-2.0919753E-2,1.7522104E-2,1.274171E-2,4.7827385E-2],"categories":[],"categories_nodes":[],"categories_segments":[],"categories_sizes":[],"default_left":[0,0,0,0,0,0,0,0,0,0,0,0,0,0,0],"id":5,"left_children":[1,3,5,7,9,11,13,-1,-1,-1,-1,-1,-1,-1,-1],"loss_changes":[2.8106047E1,1.4505901E1,1.5452614E1,6.2876415E0,8.419854E0,1.5718926E1,8.412537E0,0E0,0E0,0E0,0E0,0E0,0E0,0E0,0E0],"parents":[2147483647,0,0,1,1,2,2,3,3,4,4,5,5,6,6],"right_children":[2,4,6,8,10,12,14,-1,-1,-1,-1,-1,-1,-1,-1],"split_conditions":[7.1290717E2,5.9351784E-1,5.346943E-1,8.281947E-2,-2.431952E-3,8.302953E2,1.4333333E-1,-2.5455296E-2,-6.47822E-2,-2.0840487E-2,6.500283E-2,-2.0919753E-2,1.7522104E-2,1.274171E-2,4.7827385E-2],"split_indices":[41,40,40,8,31,41,3,0,0,0,0,0,0,0,0],"split_type":[0,0,0,0,0,0,0,0,0,0,0,0,0,0,0],"sum_hessian":[2.2945612E2,5.530869E1,1.7414743E2,4.5598614E1,9.710074E0,1.0442129E2,6.972614E1,2.8369467E1,1.7229149E1,4.8838696E0,4.826205E0,5.1081047E1,5.334024E1,3.8409412E1,3.131673E1],"tree_param":{"num_deleted":"0","num_feature":"46","num_nodes":"15","size_leaf_vector":"1"}},{"base_weights":[-2.3356736E-2,-4.3558902E-1,2.4152821E-1,-7.1317965E-1,2.4576119E-1,-3.5849273E-1,3.373455E-1,-2.655811E-2,-7.293314E-2,-3.6497947E-2,2.1672783E-2,-4.493327E-2,8.255023E-3,8.041371E-3,3.732727E-2],"categories":[],"categories_nodes":[],"categories_segments":[],"categories_sizes":[],"default_left":[0,0,0,0,0,0,0,0,0,0,0,0,0,0,0],"id":6,"left_children":[1,3,5,7,9,11,13,-1,-1,-1,-1,-1,-1,-1,-1],"loss_changes":[2.489191E1,1.7038052E1,8.103178E0,7.855728E0,5.179152E0,5.6927414E0,8.564781E0,0E0,0E0,0E0,0E0,0E0,0E0,0E0,0E0],"parents":[2147483647,0,0,1,1,2,2,3,3,4,4,5,5,6,6],"right_children":[2,4,6,8,10,12,14,-1,-1,-1,-1,-1,-1,-1,-1],"split_conditions":[7.4426025E2,5.724218E-1,4.2949015E-1,9.354156E-1,-4.3780867E-2,8.394031E2,1.5160869E3,-2.655811E-2,-7.293314E-2,-3.6497947E-2,2.1672783E-2,-4.493327E-2,8.255023E-3,8.041371E-3,3.732727E-2],"split_indices":[41,40,40,27,44,41,39,0,0,0,0,0,0,0,0],"split_type":[0,0,0,0,0,0,0,0,0,0,0,0,0,0,0],"sum_hessian":[2.2599667E2,8.8156685E1,1.3783998E2,6.260422E1,2.5552465E1,1.8603144E1,1.1923684E2,5.1694885E1,1.0909338E1,3.6562996E0,2.1896166E1,8.804011E0,9.799132E0,8.427559E1,3.496125E1],"tree_param":{"num_deleted":"0","num_feature":"46","num_nodes":"15","size_leaf_vector":"1"}},{"base_weights":[2.0442087E-2,-6.0618156E-1,2.0930257E-1,-7.789649E-1,7.7383816E-1,-5.466643E-2,4.637529E-1,-6.323829E-2,-2.0594785E-2,6.342274E-3,6.412794E-2,-2.2956243E-2,1.6209846E-2,3.0329043E-2,-2.136556E-2],"categories":[],"categories_nodes":[],"categories_segments":[],"categories_sizes":[],"default_left":[0,0,0,0,0,0,0,0,0,0,0,0,0,0,0],"id":7,"left_children":[1,3,5,7,9,11,13,-1,-1,-1,-1,-1,-1,-1,-1],"loss_changes":[2.7194115E1,1.3294149E1,1.1879663E1,8.00313E0,1.9517539E0,1.3559829E1,1.1709671E1,0E0,0E0,0E0,0E0,0E0,0E0,0E0,0E0],"parents":[2147483647,0,0,1,1,2,2,3,3,4,4,5,5,6,6],"right_children":[2,4,6,8,10,12,14,-1,-1,-1,-1,-1,-1,-1,-1],"split_conditions":[7.1290717E2,3.6333334E-1,5.04989E-1,1E1,1.5061965E3,8.235578E2,9.9167615E-1,-6.323829E-2,-2.0594785E-2,6.342274E-3,6.412794E-2,-2.2956243E-2,1.6209846E-2,3.0329043E-2,-2.136556E-2],"split_indices":[41,4,40,32,25,41,27,0,0,0,0,0,0,0,0],"split_type":[0,0,0,0,0,0,0,0,0,0,0,0,0,0,0],"sum_hessian":[2.2771574E2,5.2225643E1,1.754901E2,4.6801476E1,5.424168E0,8.651934E1,8.8970764E1,1.909046E1,2.7711016E1,2.9375384E0,2.48663E0,4.1743694E1,4.4775646E1,7.695498E1,1.2015786E1],"tree_param":{"num_deleted":"0","num_feature":"46","num_nodes":"15","size_leaf_vector":"1"}},{"base_weights":[7.2408793E-3,-5.499825E-1,1.8702419E-1,-7.128018E-1,8.70541E-1,-2.4187542E-2,4.8261276E-1,-4.176515E-2,1.3431129E-2,-8.571701E-3,6.0135014E-2,5.537201E-2,-5.7035377E-3,1.10008465E-2,4.3904733E-2],"categories":[],"categories_nodes":[],"categories_segments":[],"categories_sizes":[],"default_left":[0,0,0,0,0,0,0,0,0,0,0,0,0,0,0],"id":8,"left_children":[1,3,5,7,9,11,13,-1,-1,-1,-1,-1,-1,-1,-1],"loss_changes":[2.2797823E1,1.3460754E1,1.0751625E1,6.2785816E0,2.337841E0,1.0428577E1,7.2572365E0,0E0,0E0,0E0,0E0,0E0,0E0,0E0,0E0],"parents":[2147483647,0,0,1,1,2,2,3,3,4,4,5,5,6,6],"right_children":[2,4,6,8,10,12,14,-1,-1,-1,-1,-1,-1,-1,-1],"split_conditions":[7.1290717E2,3.6333334E-1,5.346943E-1,6.199899E-1,-1.2285889E0,1.4741764E3,2.0333333E-1,-4.176515E-2,1.3431129E-2,-8.571701E-3,6.0135014E-2,5.537201E-2,-5.7035377E-3,1.10008465E-2,4.3904733E-2],"split_indices":[41,4,40,40,5,38,3,0,0,0,0,0,0,0,0],"split_type":[0,0,0,0,0,0,0,0,0,0,0,0,0,0,0],"sum_hessian":[2.2554309E2,5.451604E1,1.7102705E2,4.935699E1,5.1590495E0,1.0028613E2,7.074092E1,4.4012276E1,5.3447146E0,1.3640238E0,3.7950258E0,6.546386E0,9.3739746E1,4.3448143E1,2.7292778E1],"tree_param":{"num_deleted":"0","num_feature":"46","num_nodes":"15","size_leaf_vector":"1"}},{"base_weights":[-3.413515E-2,-2.873679E-1,3.450418E-1,-7.323244E-1,7.996966E-2,5.671079E-1,-4.0871866E-2,4.040683E-2,-4.0059533E-2,1.3251017E-2,-4.6099484E-2,1.3597763E-2,4.9193423E-2,-2.1475164E-2,3.782813E-2],"categories":[],"categories_nodes":[],"categories_segments":[],"categories_sizes":[],"default_left":[0,0,0,0,0,0,0,0,0,0,0,0,0,0,0],"id":9,"left_children":[1,3,5,7,9,11,13,-1,-1,-1,-1,-1,-1,-1,-1],"loss_changes":[2.167984E1,2.217344E1,7.7746572E0,7.1489067E0,1.4153404E1,6.803005E0,1.0852564E1,0E0,0E0,0E0,0E0,0E0,0E0,0E0,0E0],"parents":[2147483647,0,0,1,1,2,2,3,3,4,4,5,5,6,6],"right_children":[2,4,6,8,10,12,14,-1,-1,-1,-1,-1,-1,-1,-1],"split_conditions":[8.302953E2,5.0427634E-1,1.5029027E3,-9.0044506E-2,9.759148E-1,1.4944857E3,3.8988117E-2,4.040683E-2,-4.0059533E-2,1.3251017E-2,-4.6099484E-2,1.3597763E-2,4.9193423E-2,-2.1475164E-2,3.782813E-2],"split_indices":[41,40,25,44,27,25,44,0,0,0,0,0,0,0,0],"split_type":[0,0,0,0,0,0,0,0,0,0,0,0,0,0,0],"sum_hessian":[2.2375194E2,1.3430121E2,8.945073E1,6.0284687E1,7.401652E1,5.6480602E1,3.297013E1,2.1203346E0,5.8164352E1,6.3098442E1,1.0918078E1,3.4031677E1,2.2448923E1,2.2477207E1,1.0492923E1],"tree_param":{"num_deleted":"0","num_feature":"46","num_nodes":"15","size_leaf_vector":"1"}},{"base_weights":[-2.5870543E-2,-2.432624E-1,3.2440192E-1,-5.124023E-1,1.7775112E-1,-6.191018E-2,6.8559474E-1,1.1446602E-2,-3.1825226E-2,-3.6655955E-2,1.4958915E-2,2.3889119E-2,-3.737111E-2,-3.5972812E-3,4.229799E-2],"categories":[],"categories_nodes":[],"categories_segments":[],"categories_sizes":[],"default_left":[0,0,0,0,0,0,0,0,0,0,0,0,0,0,0],"id":10,"left_children":[1,3,5,7,9,11,13,-1,-1,-1,-1,-1,-1,-1,-1],"loss_changes":[1.7139015E1,1.5820492E1,1.2074093E1,7.9602146E0,6.288918E0,1.6111103E1,5.484541E0,0E0,0E0,0E0,0E0,0E0,0E0,0E0,0E0],"parents":[2147483647,0,0,1,1,2,2,3,3,4,4,5,5,6,6],"right_children":[2,4,6,8,10,12,14,-1,-1,-1,-1,-1,-1,-1,-1],"split_conditions":[5.346943E-1,8.2802606E2,4.3333333E-2,1.4741764E3,1.4633566E3,7.1985536E-4,-4.6234578E-2,1.1446602E-2,-3.1825226E-2,-3.6655955E-2,1.4958915E-2,2.3889119E-2,-3.737111E-2,-3.5972812E-3,4.229799E-2],"split_indices":[40,41,3,38,39,44,44,0,0,0,0,0,0,0,0],"split_type":[0,0,0,0,0,0,0,0,0,0,0,0,0,0,0],"sum_hessian":[2.2304347E2,1.378156E2,8.5227875E1,8.393907E1,5.3876522E1,4.158231E1,4.364557E1,1.1915598E1,7.2023476E1,5.744839E0,4.8131683E1,2.343519E1,1.8147118E1,7.721538E0,3.592403E1],"tree_param":{"num_deleted":"0","num_feature":"46","num_nodes":"15","size_leaf_vector":"1"}},{"base_weights":[-4.0814787E-2,-3.890354E-1,1.8493943E-1,-2.1487305E-1,-1.1607164E0,4.026917E-1,-1.802172E-1,1.3394326E-2,-2.5220547E-2,1.9072896E-2,-6.537082E-2,1.3718634E-2,7.701144E-2,-1.8642837E-2,3.1742E-2],"categories":[],"categories_nodes":[],"categories_segments":[],"categories_sizes":[],"default_left":[0,0,0,0,0,0,0,0,0,0,0,0,0,0,0],"id":11,"left_children":[1,3,5,7,9,11,13,-1,-1,-1,-1,-1,-1,-1,-1],"loss_changes":[1.7575758E1,1.1563922E1,1.0867492E1,1.0330518E1,4.1089954E0,1.2036558E1,8.308105E0,0E0,0E0,0E0,0E0,0E0,0E0,0E0,0E0],"parents":[2147483647,0,0,1,1,2,2,3,3,4,4,5,5,6,6],"right_children":[2,4,6,8,10,12,14,-1,-1,-1,-1,-1,-1,-1,-1],"split_conditions":[7.4426025E2,9.354156E-1,1.5035719E3,-2.9837847E0,4.118627E-1,1.2400695E-2,1.535664E3,1.3394326E-2,-2.5220547E-2,1.9072896E-2,-6.537082E-2,1.3718634E-2,7.701144E-2,-1.8642837E-2,3.1742E-2],"split_indices":[41,27,25,8,40,42,39,0,0,0,0,0,0,0,0],"split_type":[0,0,0,0,0,0,0,0,0,0,0,0,0,0,0],"sum_hessian":[2.2166003E2,8.689825E1,1.347618E2,7.194033E1,1.4957921E1,8.435559E1,5.0406197E1,2.6998796E1,4.4941532E1,1.1602814E0,1.379764E1,7.69199E1,7.4356937E0,4.120896E1,9.197237E0],"tree_param":{"num_deleted":"0","num_feature":"46","num_nodes":"15","size_leaf_vector":"1"}},{"base_weights":[-6.5339734E-3,-5.898352E-1,1.2058404E-1,-8.0628693E-1,4.5653293E-1,9.3935436E-1,5.4248534E-2,-6.573815E-3,-4.9753822E-2,-4.196724E-3,6.703342E-2,6.0240865E-2,-3.876623E-2,-6.782714E-3,1.643015E-2],"categories":[],"categories_nodes":[],"categories_segments":[],"categories_sizes":[],"default_left":[0,0,0,0,0,0,0,0,0,0,0,0,0,0,0],"id":12,"left_children":[1,3,5,7,9,11,13,-1,-1,-1,-1,-1,-1,-1,-1],"loss_changes":[1.6695417E1,9.492711E0,9.992512E0,4.1679955E0,3.7173433E0,7.2145376E0,9.012092E0,0E0,0E0,0E0,0E0,0E0,0E0,0E0,0E0],"parents":[2147483647,0,0,1,1,2,2,3,3,4,4,5,5,6,6],"right_children":[2,4,6,8,10,12,14,-1,-1,-1,-1,-1,-1,-1,-1],"split_conditions":[6.522114E2,5.9351784E-1,1.4741764E3,-2.245554E0,5.7009624E1,4.3221183E0,5.346943E-1,-6.573815E-3,-4.9753822E-2,-4.196724E-3,6.703342E-2,6.0240865E-2,-3.876623E-2,-6.782714E-3,1.643015E-2],"split_indices":[41,40,38,28,45,8,40,0,0,0,0,0,0,0,0],"split_type":[0,0,0,0,0,0,0,0,0,0,0,0,0,0,0],"sum_hessian":[2.2320386E2,3.9287384E1,1.8391647E2,3.2743507E1,6.543879E0,1.2797537E1,1.7111894E2,7.528826E0,2.521468E1,4.6229563E0,1.920923E0,1.1339354E1,1.4581832E0,1.014221E2,6.9696846E1],"tree_param":{"num_deleted":"0","num_feature":"46","num_nodes":"15","size_leaf_vector":"1"}},{"base_weights":[2.5502004E-2,-1.8667774E-1,3.678495E-1,-5.1523733E-1,1.06066436E-1,1.1301949E0,2.7680904E-1,9.179717E-3,-3.2887183E-2,1.4672562E-2,-4.6078324E-2,-1.7382702E-2,7.0573516E-2,2.4196584E-2,-5.743371E-3],"categories":[],"categories_nodes":[],"categories_segments":[],"categories_sizes":[],"default_left":[0,0,0,0,0,0,0,0,0,0,0,0,0,0,0],"id":13,"left_children":[1,3,5,7,9,11,13,-1,-1,-1,-1,-1,-1,-1,-1],"loss_changes":[1.6508009E1,1.355724E1,5.720603E0,6.725029E0,1.4725553E1,4.2109222E0,6.46303E0,0E0,0E0,0E0,0E0,0E0,0E0,0E0,0E0],"parents":[2147483647,0,0,1,1,2,2,3,3,4,4,5,5,6,6],"right_children":[2,4,6,8,10,12,14,-1,-1,-1,-1,-1,-1,-1,-1],"split_conditions":[8.320561E2,5.0427634E-1,-2.0325627E0,-3.6962957E0,9.759148E-1,-1.0179532E-1,1.5036783E3,9.179717E-3,-3.2887183E-2,1.4672562E-2,-4.6078324E-2,-1.7382702E-2,7.0573516E-2,2.4196584E-2,-5.743371E-3],"split_indices":[41,40,5,30,27,2,25,0,0,0,0,0,0,0,0],"split_type":[0,0,0,0,0,0,0,0,0,0,0,0,0,0,0],"sum_hessian":[2.2531499E2,1.3938304E2,8.5931946E1,6.5316E1,7.406704E1,7.9496646E0,7.7982285E1,1.1014424E1,5.4301582E1,6.3248383E1,1.0818653E1,1.2333785E0,6.7162857E0,5.08544E1,2.7127884E1],"tree_param":{"num_deleted":"0","num_feature":"46","num_nodes":"15","size_leaf_vector":"1"}},{"base_weights":[-6.156814E-5,-3.6849383E-1,2.3605996E-1,-4.6457013E-1,6.9799656E-1,-1.7566939E-1,3.5039532E-1,1.6277208E-3,-3.7601236E-2,-4.0095057E-2,5.9699874E-2,-1.3937115E-2,5.6873646E-2,2.9298086E-2,5.361559E-3],"categories":[],"categories_nodes":[],"categories_segments":[],"categories_sizes":[],"default_left":[0,0,0,0,0,0,0,0,0,0,0,0,0,0,0],"id":14,"left_children":[1,3,5,7,9,11,13,-1,-1,-1,-1,-1,-1,-1,-1],"loss_changes":[1.9406054E1,9.251516E0,6.4612517E0,1.1531637E1,6.6113276E0,4.4063377E0,6.0509987E0,0E0,0E0,0E0,0E0,0E0,0E0,0E0,0E0],"parents":[2147483647,0,0,1,1,2,2,3,3,4,4,5,5,6,6],"right_children":[2,4,6,8,10,12,14,-1,-1,-1,-1,-1,-1,-1,-1],"split_conditions":[7.4426025E2,3.6333334E-1,4.7587076E-1,-3.5022376E0,1.4885312E3,6E-2,4.9323863E-1,1.6277208E-3,-3.7601236E-2,-4.0095057E-2,5.9699874E-2,-1.3937115E-2,5.6873646E-2,2.9298086E-2,5.361559E-3],"split_indices":[41,4,40,8,26,35,5,0,0,0,0,0,0,0,0],"split_type":[0,0,0,0,0,0,0,0,0,0,0,0,0,0,0],"sum_hessian":[2.2107153E2,8.61253E1,1.3494623E2,7.952552E1,6.5997777E0,2.921274E1,1.0573349E2,2.9461494E1,5.0064026E1,1.4868472E0,5.112931E0,2.7817019E1,1.3957214E0,5.298972E1,5.274377E1],"tree_param":{"num_deleted":"0","num_feature":"46","num_nodes":"15","size_leaf_vector":"1"}},{"base_weights":[2.376405E-2,-1.7217565E-1,3.4374735E-1,-4.0027416E-1,2.1039012E-1,8.451678E-1,1.731636E-1,-1.0120989E-2,-3.930139E-2,-4.153531E-2,1.7765317E-2,-2.9434396E-2,5.1655512E-2,-1.843267E-2,1.867265E-2],"categories":[],"categories_nodes":[],"categories_segments":[],"categories_sizes":[],"default_left":[0,0,0,0,0,0,0,0,0,0,0,0,0,0,0],"id":15,"left_children":[1,3,5,7,9,11,13,-1,-1,-1,-1,-1,-1,-1,-1],"loss_changes":[1.4191618E1,1.2341746E1,7.204441E0,6.5835457E0,8.309982E0,6.4175606E0,7.232971E0,0E0,0E0,0E0,0E0,0E0,0E0,0E0,0E0],"parents":[2147483647,0,0,1,1,2,2,3,3,4,4,5,5,6,6],"right_children":[2,4,6,8,10,12,14,-1,-1,-1,-1,-1,-1,-1,-1],"split_conditions":[8.320561E2,5.346943E-1,1.4917838E3,1.5076274E3,5E-1,4.118627E-1,1.4982528E3,-1.0120989E-2,-3.930139E-2,-4.153531E-2,1.7765317E-2,-2.9434396E-2,5.1655512E-2,-1.843267E-2,1.867265E-2],"split_indices":[41,40,26,25,20,40,26,0,0,0,0,0,0,0,0],"split_type":[0,0,0,0,0,0,0,0,0,0,0,0,0,0,0],"sum_hessian":[2.2440689E2,1.3946706E2,8.493983E1,8.73436E1,5.2123463E1,2.0557564E1,6.438226E1,5.8740253E1,2.860334E1,5.7906175E0,4.6332848E1,2.1352174E0,1.8422346E1,1.7149456E1,4.723281E1],"tree_param":{"num_deleted":"0","num_feature":"46","num_nodes":"15","size_leaf_vector":"1"}},{"base_weights":[2.6714224E-2,-4.1617382E-1,1.6389972E-1,-1.881046E-2,-8.454463E-1,1.2711846E0,1.2325797E-1,-2.3093214E-2,2.6375009E-2,-5.224916E-2,2.229753E-2,9.9348435E-3,7.5642414E-2,-2.5157899E-2,1.11252675E-2],"categories":[],"categories_nodes":[],"categories_segments":[],"categories_sizes":[],"default_left":[0,0,0,0,0,0,0,0,0,0,0,0,0,0,0],"id":16,"left_children":[1,3,5,7,9,11,13,-1,-1,-1,-1,-1,-1,-1,-1],"loss_changes":[1.32786255E1,8.803519E0,7.346228E0,6.9900007E0,6.864504E0,1.2014618E0,1.0179077E1,0E0,0E0,0E0,0E0,0E0,0E0,0E0,0E0],"parents":[2147483647,0,0,1,1,2,2,3,3,4,4,5,5,6,6],"right_children":[2,4,6,8,10,12,14,-1,-1,-1,-1,-1,-1,-1,-1],"split_conditions":[7.1290717E2,1.1280127E-2,-7.860406E1,-1.3227915E-2,3.1E-1,-4.4E-1,4.2968503E-1,-2.3093214E-2,2.6375009E-2,-5.224916E-2,2.229753E-2,9.9348435E-3,7.5642414E-2,-2.5157899E-2,1.11252675E-2],"split_indices":[41,44,1,44,4,4,40,0,0,0,0,0,0,0,0],"split_type":[0,0,0,0,0,0,0,0,0,0,0,0,0,0,0],"sum_hessian":[2.1642738E2,5.0703415E1,1.6572397E2,2.6872368E1,2.3831047E1,4.7954025E0,1.6092856E2,1.4923829E1,1.1948539E1,2.080693E1,3.0241168E0,1.2169337E0,3.5784688E0,2.1453236E1,1.3947533E2],"tree_param":{"num_deleted":"0","num_feature":"46","num_nodes":"15","size_leaf_vector":"1"}},{"base_weights":[-1.795807E-2,-5.670898E-1,1.0614043E-1,-1.2371838E0,-2.9454532E-1,-7.358317E-2,3.9159718E-1,6.2976456E-3,-7.805752E-2,-2.4351817E-2,3.9787706E-2,3.5585256E-3,-4.0605444E-2,5.2467685E-2,7.832461E-3],"categories":[],"categories_nodes":[],"categories_segments":[],"categories_sizes":[],"default_left":[0,0,0,0,0,0,0,0,0,0,0,0,0,0,0],"id":17,"left_children":[1,3,5,7,9,11,13,-1,-1,-1,-1,-1,-1,-1,-1],"loss_changes":[1.4981553E1,7.0356426E0,9.234736E0,5.2322464E0,6.7081785E0,1.1919405E1,1.0573837E1,0E0,0E0,0E0,0E0,0E0,0E0,0E0,0E0],"parents":[2147483647,0,0,1,1,2,2,3,3,4,4,5,5,6,6],"right_children":[2,4,6,8,10,12,14,-1,-1,-1,-1,-1,-1,-1,-1],"split_conditions":[4.643137E-1,1.484381E3,8.302953E2,-9.0044506E-2,9.3518524E2,9.5201206E-1,1.4914691E3,6.2976456E-3,-7.805752E-2,-2.4351817E-2,3.9787706E-2,3.5585256E-3,-4.0605444E-2,5.2467685E-2,7.832461E-3],"split_indices":[40,25,41,44,41,27,26,0,0,0,0,0,0,0,0],"split_type":[0,0,0,0,0,0,0,0,0,0,0,0,0,0,0],"sum_hessian":[2.1796031E2,3.9519253E1,1.7844106E2,1.0402838E1,2.9116415E1,1.09955376E2,6.848569E1,2.114978E0,8.28786E0,2.5217583E1,3.8988328E0,9.26912E1,1.7264175E1,1.7112232E1,5.1373455E1],"tree_param":{"num_deleted":"0","num_feature":"46","num_nodes":"15","size_leaf_vector":"1"}},{"base_weights":[-5.9514614E-3,-4.7055727E-1,1.34442E-1,-6.743769E-1,5.3626335E-1,-3.030163E-2,4.0861583E-1,-1.633337E-2,-6.2145658E-2,-8.452804E-3,4.8680108E-2,1.5038046E-2,-1.1298478E-2,-2.1294821E-2,2.5647452E-2],"categories":[],"categories_nodes":[],"categories_segments":[],"categories_sizes":[],"default_left":[0,0,0,0,0,0,0,0,0,0,0,0,0,0,0],"id":18,"left_children":[1,3,5,7,9,11,13,-1,-1,-1,-1,-1,-1,-1,-1],"loss_changes":[1.46477585E1,1.1054803E1,7.8032722E0,8.248367E0,3.0425127E0,7.1077847E0,5.861287E0,0E0,0E0,0E0,0E0,0E0,0E0,0E0,0E0],"parents":[2147483647,0,0,1,1,2,2,3,3,4,4,5,5,6,6],"right_children":[2,4,6,8,10,12,14,-1,-1,-1,-1,-1,-1,-1,-1],"split_conditions":[7.1290717E2,5.9351784E-1,5.508972E-1,8.281947E-2,2.1518847E1,-1.2E-1,5E-1,-1.633337E-2,-6.2145658E-2,-8.452804E-3,4.8680108E-2,1.5038046E-2,-1.1298478E-2,-2.1294821E-2,2.5647452E-2],"split_indices":[41,40,40,8,45,4,20,0,0,0,0,0,0,0,0],"split_type":[0,0,0,0,0,0,0,0,0,0,0,0,0,0,0],"sum_hessian":[2.2259389E2,5.1108425E1,1.7148546E2,4.2778572E1,8.329854E0,1.0767559E2,6.3809864E1,2.7521408E1,1.5257164E1,3.4229405E0,4.9069138E0,3.979942E1,6.7876175E1,6.7486362E0,5.706123E1],"tree_param":{"num_deleted":"0","num_feature":"46","num_nodes":"15","size_leaf_vector":"1"}},{"base_weights":[2.900692E-2,-5.360662E-1,1.365625E-1,-2.8733227E-1,-1.1563827E0,3.0494022E-1,-2.1188022E-1,-3.6922902E-2,5.139978E-3,-6.5418583E-4,-6.566179E-2,1.0667537E-2,6.1010063E-2,2.1316113E-2,-2.4923678E-2],"categories":[],"categories_nodes":[],"categories_segments":[],"categories_sizes":[],"default_left":[0,0,0,0,0,0,0,0,0,0,0,0,0,0,0],"id":19,"left_children":[1,3,5,7,9,11,13,-1,-1,-1,-1,-1,-1,-1,-1],"loss_changes":[1.323986E1,5.044009E0,1.0789202E1,4.6874456E0,1.7119741E0,1.0105145E1,1.1213096E1,0E0,0E0,0E0,0E0,0E0,0E0,0E0,0E0],"parents":[2147483647,0,0,1,1,2,2,3,3,4,4,5,5,6,6],"right_children":[2,4,6,8,10,12,14,-1,-1,-1,-1,-1,-1,-1,-1],"split_conditions":[6.558924E2,1.5074437E3,1.5060446E3,1.4941923E3,-1.7749084E1,1.2400695E-2,-7.599816E-1,-3.6922902E-2,5.139978E-3,-6.5418583E-4,-6.566179E-2,1.0667537E-2,6.1010063E-2,2.1316113E-2,-2.4923678E-2],"split_indices":[41,26,25,26,45,42,29,0,0,0,0,0,0,0,0],"split_type":[0,0,0,0,0,0,0,0,0,0,0,0,0,0,0],"sum_hessian":[2.1563957E2,3.384442E1,1.8179515E2,2.5202108E1,8.642314E0,1.226513E2,5.9143852E1,1.1273381E1,1.3928726E1,1.173332E0,7.4689817E0,1.126151E2,1.0036204E1,1.817753E1,4.096632E1],"tree_param":{"num_deleted":"0","num_feature":"46","num_nodes":"15","size_leaf_vector":"1"}},{"base_weights":[1.5803298E-3,-4.2133963E-1,1.323486E-1,-5.828361E-1,8.72381E-1,9.044562E-1,7.567649E-2,8.365869E-3,-3.5317082E-2,5.8726408E-2,-3.7194167E-3,5.7076633E-2,-3.10766E-2,-1.7240157E-2,9.5886495E-3],"categories":[],"categories_nodes":[],"categories_segments":[],"categories_sizes":[],"default_left":[0,0,0,0,0,0,0,0,0,0,0,0,0,0,0],"id":20,"left_children":[1,3,5,7,9,11,13,-1,-1,-1,-1,-1,-1,-1,-1],"loss_changes":[1.2441919E1,1.16097765E1,7.4502697E0,4.5501614E0,1.8887658E0,4.9272213E0,7.933863E0,0E0,0E0,0E0,0E0,0E0,0E0,0E0,0E0],"parents":[2147483647,0,0,1,1,2,2,3,3,4,4,5,5,6,6],"right_children":[2,4,6,8,10,12,14,-1,-1,-1,-1,-1,-1,-1,-1],"split_conditions":[7.1290717E2,3.6333334E-1,1.4741764E3,1.4505166E3,1.5220785E3,4.3221183E0,4.7587076E-1,8.365869E-3,-3.5317082E-2,5.8726408E-2,-3.7194167E-3,5.7076633E-2,-3.10766E-2,-1.7240157E-2,9.5886495E-3],"split_indices":[41,4,38,38,38,8,40,0,0,0,0,0,0,0,0],"split_type":[0,0,0,0,0,0,0,0,0,0,0,0,0,0,0],"sum_hessian":[2.2296286E2,5.2133842E1,1.7082901E2,4.6836662E1,5.2971797E0,1.0658388E1,1.6017062E2,6.570958E0,4.0265705E1,3.8332815E0,1.4638983E0,9.443233E0,1.2151551E0,3.4229145E1,1.2594148E2],"tree_param":{"num_deleted":"0","num_feature":"46","num_nodes":"15","size_leaf_vector":"1"}},{"base_weights":[-7.681002E-3,-1.7211564E-1,3.0104378E-1,1.2566908E-1,-3.722913E-1,-1.8734348E-1,4.7163016E-1,-2.741043E-2,2.2160983E-2,-4.0552925E-2,-1.9104176E-3,-2.587441E-2,2.548225E-2,2.9232224E-2,-4.0703055E-2],"categories":[],"categories_nodes":[],"categories_segments":[],"categories_sizes":[],"default_left":[0,0,0,0,0,0,0,0,0,0,0,0,0,0,0],"id":21,"left_children":[1,3,5,7,9,11,13,-1,-1,-1,-1,-1,-1,-1,-1],"loss_changes":[1.1170458E1,8.603241E0,6.4600077E0,1.27507925E1,1.2588778E1,4.9840665E0,8.753125E0,0E0,0E0,0E0,0E0,0E0,0E0,0E0,0E0],"parents":[2147483647,0,0,1,1,2,2,3,3,4,4,5,5,6,6],"right_children":[2,4,6,8,10,12,14,-1,-1,-1,-1,-1,-1,-1,-1],"split_conditions":[5.57358E-1,-1.2666667E-1,-2.6750388E0,-2.210425E-2,8E-2,1.541702E3,1.3584432E-1,-2.741043E-2,2.2160983E-2,-4.0552925E-2,-1.9104176E-3,-2.587441E-2,2.548225E-2,2.9232224E-2,-4.0703055E-2],"split_indices":[40,4,45,2,4,38,2,0,0,0,0,0,0,0,0],"split_type":[0,0,0,0,0,0,0,0,0,0,0,0,0,0,0],"sum_hessian":[2.1802162E2,1.4254242E2,7.54792E1,5.745041E1,8.5092E1,1.951363E1,5.5965576E1,1.8168488E1,3.928192E1,3.6165886E1,4.8926117E1,1.341625E1,6.0973806E0,5.194481E1,4.0207644E0],"tree_param":{"num_deleted":"0","num_feature":"46","num_nodes":"15","size_leaf_vector":"1"}},{"base_weights":[7.5872424E-3,-1.4655001E-1,2.983932E-1,1.5819283E-1,-3.0287313E-1,-9.8834664E-1,3.6222056E-1,-2.275233E-3,5.071352E-2,-5.738152E-3,-3.6671836E-2,1.7235404E-2,-7.9393566E-2,4.857144E-3,3.6883753E-2],"categories":[],"categories_nodes":[],"categories_segments":[],"categories_sizes":[],"default_left":[0,0,0,0,0,0,0,0,0,0,0,0,0,0,0],"id":22,"left_children":[1,3,5,7,9,11,13,-1,-1,-1,-1,-1,-1,-1,-1],"loss_changes":[9.828784E0,6.8767114E0,6.595929E0,8.635838E0,7.617364E0,3.6304185E0,7.203085E0,0E0,0E0,0E0,0E0,0E0,0E0,0E0,0E0],"parents":[2147483647,0,0,1,1,2,2,3,3,4,4,5,5,6,6],"right_children":[2,4,6,8,10,12,14,-1,-1,-1,-1,-1,-1,-1,-1],"split_conditions":[5.57358E-1,-3.6052313E0,1.4098164E3,1.248174E1,1E0,1.4824945E3,1.5666667E-1,-2.275233E-3,5.071352E-2,-5.738152E-3,-3.6671836E-2,1.7235404E-2,-7.9393566E-2,4.857144E-3,3.6883753E-2],"split_indices":[40,8,39,30,33,26,3,0,0,0,0,0,0,0,0],"split_type":[0,0,0,0,0,0,0,0,0,0,0,0,0,0,0],"sum_hessian":[2.172993E2,1.4234668E2,7.495263E1,4.8258186E1,9.408849E1,2.8576946E0,7.209493E1,3.9747417E1,8.510766E0,6.636197E1,2.7726522E1,1.0183669E0,1.8393278E0,4.2997005E1,2.9097929E1],"tree_param":{"num_deleted":"0","num_feature":"46","num_nodes":"15","size_leaf_vector":"1"}},{"base_weights":[1.9535504E-2,-1.9940522E-1,2.072717E-1,-4.212947E-2,-8.9077336E-1,2.713701E-1,-6.196249E-1,-3.8475707E-2,5.7215625E-3,1.8278195E-2,-5.3592887E-2,5.9663206E-3,4.6180043E-2,-6.0624417E-2,3.828688E-3],"categories":[],"categories_nodes":[],"categories_segments":[],"categories_sizes":[],"default_left":[0,0,0,0,0,0,0,0,0,0,0,0,0,0,0],"id":23,"left_children":[1,3,5,7,9,11,13,-1,-1,-1,-1,-1,-1,-1,-1],"loss_changes":[9.023553E0,1.098719E1,6.429828E0,9.61407E0,4.6553774E0,1.0831471E1,3.7264974E0,0E0,0E0,0E0,0E0,0E0,0E0,0E0,0E0],"parents":[2147483647,0,0,1,1,2,2,3,3,4,4,5,5,6,6],"right_children":[2,4,6,8,10,12,14,-1,-1,-1,-1,-1,-1,-1,-1],"split_conditions":[7.696227E2,9.759148E-1,1.3074603E2,4.643137E-1,-6.9E-1,1.248174E1,1.5888883E3,-3.8475707E-2,5.7215625E-3,1.8278195E-2,-5.3592887E-2,5.9663206E-3,4.6180043E-2,-6.0624417E-2,3.828688E-3],"split_indices":[41,27,30,40,3,30,38,0,0,0,0,0,0,0,0],"split_type":[0,0,0,0,0,0,0,0,0,0,0,0,0,0,0],"sum_hessian":[2.1752908E2,1.0039029E2,1.17138794E2,8.264968E1,1.774061E1,1.0933529E2,7.8035045E0,1.3945137E1,6.8704544E1,2.1065967E0,1.5634013E1,8.9625374E1,1.9709919E1,3.814013E0,3.9894912E0],"tree_param":{"num_deleted":"0","num_feature":"46","num_nodes":"15","size_leaf_vector":"1"}},{"base_weights":[2.7210357E-2,-2.3456385E-2,9.814084E-1,-1.8492596E-1,2.4774227E-1,6.327225E-2,-1.3382335E-2,-1.3372557E-3,-2.4589472E-2,-2.3357624E-2,1.7686704E-2],"categories":[],"categories_nodes":[],"categories_segments":[],"categories_sizes":[],"default_left":[0,0,0,0,0,0,0,0,0,0,0],"id":24,"left_children":[1,3,5,7,9,-1,-1,-1,-1,-1,-1],"loss_changes":[1.0578707E1,9.1675E0,4.2526484E0,6.352294E0,6.088064E0,0E0,0E0,0E0,0E0,0E0,0E0],"parents":[2147483647,0,0,1,1,2,2,3,3,4,4],"right_children":[2,4,6,8,10,-1,-1,-1,-1,-1,-1],"split_conditions":[9.9046655E2,5.508972E-1,1.08508255E2,4.0168333E-1,5E-1,6.327225E-2,-1.3382335E-2,-1.3372557E-3,-2.4589472E-2,-2.3357624E-2,1.7686704E-2],"split_indices":[41,40,1,29,20,0,0,0,0,0,0],"split_type":[0,0,0,0,0,0,0,0,0,0,0],"sum_hessian":[2.173358E2,2.0730365E2,1.003215E1,1.3013838E2,7.716527E1,8.162799E0,1.8693517E0,8.6590294E1,4.3548088E1,9.523517E0,6.7641754E1],"tree_param":{"num_deleted":"0","num_feature":"46","num_nodes":"11","size_leaf_vector":"1"}},{"base_weights":[-1.4201066E-2,-2.7300414E-1,1.4891763E-1,8.987608E-2,-6.5996176E-1,1.9596374E-1,-8.884282E-1,2.2804255E-2,-1.4358066E-2,3.4078207E-2,-3.79979E-2,4.8815054E-3,2.9757226E-2,-6.49378E-2,2.1549812E-2],"categories":[],"categories_nodes":[],"categories_segments":[],"categories_sizes":[],"default_left":[0,0,0,0,0,0,0,0,0,0,0,0,0,0,0],"id":25,"left_children":[1,3,5,7,9,11,13,-1,-1,-1,-1,-1,-1,-1,-1],"loss_changes":[9.241729E0,1.194103E1,6.730221E0,6.281726E0,6.027313E0,5.018445E0,3.8129835E0,0E0,0E0,0E0,0E0,0E0,0E0,0E0,0E0],"parents":[2147483647,0,0,1,1,2,2,3,3,4,4,5,5,6,6],"right_children":[2,4,6,8,10,12,14,-1,-1,-1,-1,-1,-1,-1,-1],"split_conditions":[7.4426025E2,-3.0356935E-1,1.5686139E2,1.374329E-2,-5.5905538E0,1.248174E1,2.3307495E-2,2.2804255E-2,-1.4358066E-2,3.4078207E-2,-3.79979E-2,4.8815054E-3,2.9757226E-2,-6.49378E-2,2.1549812E-2],"split_indices":[41,29,30,44,13,30,31,0,0,0,0,0,0,0,0],"split_type":[0,0,0,0,0,0,0,0,0,0,0,0,0,0,0],"sum_hessian":[2.1695422E2,8.361598E1,1.3333824E2,4.3546646E1,4.0069336E1,1.2832928E2,5.0089493E0,2.1984184E1,2.156246E1,2.3761103E0,3.7693226E1,1.03963615E2,2.4365679E1,3.8326864E0,1.1762625E0],"tree_param":{"num_deleted":"0","num_feature":"46","num_nodes":"15","size_leaf_vector":"1"}},{"base_weights":[7.2478456E-3,-6.242303E-1,7.0832096E-2,-9.950022E-1,-8.403938E-2,-1.1796165E-2,5.140232E-1,1.1144571E-2,-5.853365E-2,6.0765304E-2,-3.010263E-2,4.009626E-3,-2.7629865E-2,3.8485702E-2,-2.033841E-2],"categories":[],"categories_nodes":[],"categories_segments":[],"categories_sizes":[],"default_left":[0,0,0,0,0,0,0,0,0,0,0,0,0,0,0],"id":26,"left_children":[1,3,5,7,9,11,13,-1,-1,-1,-1,-1,-1,-1,-1],"loss_changes":[8.800558E0,3.9325085E0,7.2944775E0,2.7851467E0,6.9600434E0,8.438207E0,7.681839E0,0E0,0E0,0E0,0E0,0E0,0E0,0E0,0E0],"parents":[2147483647,0,0,1,1,2,2,3,3,4,4,5,5,6,6],"right_children":[2,4,6,8,10,12,14,-1,-1,-1,-1,-1,-1,-1,-1],"split_conditions":[4.1486168E-1,8.031221E2,9.102675E2,-8.842558E1,1.5370867E3,9.8008335E-1,1.5063717E3,1.1144571E-2,-5.853365E-2,6.0765304E-2,-3.010263E-2,4.009626E-3,-2.7629865E-2,3.8485702E-2,-2.033841E-2],"split_indices":[40,41,41,30,38,27,25,0,0,0,0,0,0,0,0],"split_type":[0,0,0,0,0,0,0,0,0,0,0,0,0,0,0],"sum_hessian":[2.1707947E2,1.9051798E1,1.9802766E2,1.0798243E1,8.253555E0,1.6772964E2,3.0298027E1,1.327327E0,9.470916E0,1.968878E0,6.2846775E0,1.4407468E2,2.3654964E1,2.3841618E1,6.4564095E0],"tree_param":{"num_deleted":"0","num_feature":"46","num_nodes":"15","size_leaf_vector":"1"}},{"base_weights":[5.964158E-3,-3.735517E-2,7.555928E-1,-4.4451377E-1,3.8932875E-2,3.6429757E-1,6.3175306E-2,2.4005223E-2,-3.3105493E-2,-1.4751729E-3,3.8839083E-2,-4.921968E-2,3.967775E-2],"categories":[],"categories_nodes":[],"categories_segments":[],"categories_sizes":[],"default_left":[0,0,0,0,0,0,0,0,0,0,0,0,0],"id":27,"left_children":[1,3,5,7,9,11,-1,-1,-1,-1,-1,-1,-1],"loss_changes":[7.1020427E0,6.443479E0,1.9142127E0,6.9023957E0,8.8677025E0,5.501604E0,0E0,0E0,0E0,0E0,0E0,0E0,0E0],"parents":[2147483647,0,0,1,1,2,2,3,3,4,4,5,5],"right_children":[2,4,6,8,10,12,-1,-1,-1,-1,-1,-1,-1],"split_conditions":[9.9046655E2,4.2968503E-1,1.5069073E3,-2.3757982E1,1.5484967E3,-2.3150986E-1,6.3175306E-2,2.4005223E-2,-3.3105493E-2,-1.4751729E-3,3.8839083E-2,-4.921968E-2,3.967775E-2],"split_indices":[41,40,39,30,39,5,0,0,0,0,0,0,0],"split_type":[0,0,0,0,0,0,0,0,0,0,0,0,0],"sum_hessian":[2.1683414E2,2.0588658E2,1.0947548E1,3.1727306E1,1.7415927E2,7.1536417E0,3.793906E0,5.814346E0,2.591296E1,1.6025542E2,1.3903861E1,1.4148992E0,5.738743E0],"tree_param":{"num_deleted":"0","num_feature":"46","num_nodes":"13","size_leaf_vector":"1"}},{"base_weights":[-2.8418556E-2,-1.7340013E-1,2.0460275E-1,-2.3654233E-1,6.1549175E-1,7.4863976E-1,1.1302433E-2,-2.2312345E-3,-2.5494302E-2,-1.5507817E-2,5.3193726E-2,6.31326E-2,2.9391136E-3,1.380011E-2,-2.2432033E-2],"categories":[],"categories_nodes":[],"categories_segments":[],"categories_sizes":[],"default_left":[0,0,0,0,0,0,0,0,0,0,0,0,0,0,0],"id":28,"left_children":[1,3,5,7,9,11,13,-1,-1,-1,-1,-1,-1,-1,-1],"loss_changes":[7.3150506E0,6.789156E0,8.730907E0,6.493257E0,4.5474377E0,7.645693E0,7.7125955E0,0E0,0E0,0E0,0E0,0E0,0E0,0E0,0E0],"parents":[2147483647,0,0,1,1,2,2,3,3,4,4,5,5,6,6],"right_children":[2,4,6,8,10,12,14,-1,-1,-1,-1,-1,-1,-1,-1],"split_conditions":[8.302953E2,4.5E-1,1.4914691E3,1.766571E-1,-8.5013163E-1,1.5130719E3,1.5029027E3,-2.2312345E-3,-2.5494302E-2,-1.5507817E-2,5.3193726E-2,6.31326E-2,2.9391136E-3,1.380011E-2,-2.2432033E-2],"split_indices":[41,4,26,27,6,39,25,0,0,0,0,0,0,0,0],"split_type":[0,0,0,0,0,0,0,0,0,0,0,0,0,0,0],"sum_hessian":[2.1447527E2,1.3237183E2,8.2103455E1,1.23210335E2,9.161486E0,2.0771069E1,6.1332382E1,7.30702E1,5.0140137E1,3.0902352E0,6.0712504E0,1.1426722E1,9.344348E0,3.9182537E1,2.2149845E1],"tree_param":{"num_deleted":"0","num_feature":"46","num_nodes":"15","size_leaf_vector":"1"}},{"base_weights":[-1.24352155E-2,-4.2094046E-1,8.542947E-2,5.6361444E-2,-5.429534E-1,2.1898115E-1,-1.5948677E-1,-5.2673738E-3,-4.5683693E-2,6.2789875E-3,5.404104E-2,3.6197738E-3,-3.7405476E-2],"categories":[],"categories_nodes":[],"categories_segments":[],"categories_sizes":[],"default_left":[0,0,0,0,0,0,0,0,0,0,0,0,0],"id":29,"left_children":[1,3,5,-1,7,9,11,-1,-1,-1,-1,-1,-1],"loss_changes":[8.702227E0,8.557804E0,5.7822328E0,0E0,6.3387575E0,9.051247E0,8.596096E0,0E0,0E0,0E0,0E0,0E0,0E0],"parents":[2147483647,0,0,1,1,2,2,4,4,5,5,6,6],"right_children":[2,4,6,-1,8,10,12,-1,-1,-1,-1,-1,-1],"split_conditions":[4.643137E-1,-1.3266499E0,1.5060446E3,5.6361444E-2,5.055652E-4,1.2400695E-2,9.246566E-2,-5.2673738E-3,-4.5683693E-2,6.2789875E-3,5.404104E-2,3.6197738E-3,-3.7405476E-2],"split_indices":[40,27,25,0,31,42,2,0,0,0,0,0,0],"split_type":[0,0,0,0,0,0,0,0,0,0,0,0,0],"sum_hessian":[2.1577458E2,4.106412E1,1.7471046E2,2.3980246E0,3.8666096E1,1.1312813E2,6.158234E1,1.832228E1,2.0343817E1,1.0310039E2,1.0027735E1,4.4807762E1,1.6774576E1],"tree_param":{"num_deleted":"0","num_feature":"46","num_nodes":"13","size_leaf_vector":"1"}},{"base_weights":[1.1335093E-3,1.3757515E-1,-2.4701157E-1,4.015375E-2,1.1715329E0,-1.6528042E-1,-1.3398346E0,-4.2064648E-2,6.1348528E-3,1.0001295E-2,6.6582896E-2,-1.6260616E-2,2.2255924E-2,-1.5470249E-2,-7.819383E-2],"categories":[],"categories_nodes":[],"categories_segments":[],"categories_sizes":[],"default_left":[0,0,0,0,0,0,0,0,0,0,0,0,0,0,0],"id":30,"left_children":[1,3,5,7,9,11,13,-1,-1,-1,-1,-1,-1,-1,-1],"loss_changes":[7.3384852E0,1.4039544E1,6.6469135E0,9.477241E0,1.6013794E0,7.240714E0,7.189579E-1,0E0,0E0,0E0,0E0,0E0,0E0,0E0,0E0],"parents":[2147483647,0,0,1,1,2,2,3,3,4,4,5,5,6,6],"right_children":[2,4,6,8,10,12,14,-1,-1,-1,-1,-1,-1,-1,-1],"split_conditions":[1.5055607E3,2.4975243E-3,1.6185167E3,5.5226953E2,-1.862975E0,5.864389E-1,1.3339345E2,-4.2064648E-2,6.1348528E-3,1.0001295E-2,6.6582896E-2,-1.6260616E-2,2.2255924E-2,-1.5470249E-2,-7.819383E-2],"split_indices":[25,42,38,41,13,40,1,0,0,0,0,0,0,0,0],"split_type":[0,0,0,0,0,0,0,0,0,0,0,0,0,0,0],"sum_hessian":[2.1474364E2,1.3884552E2,7.589811E1,1.2783913E2,1.1006404E1,7.168788E1,4.2102246E0,1.0159352E1,1.1767977E2,1.8756548E0,9.130749E0,5.7174644E1,1.4513239E1,1.17716E0,3.0330648E0],"tree_param":{"num_deleted":"0","num_feature":"46","num_nodes":"15","size_leaf_vector":"1"}},{"base_weights":[4.5357943E-2,-3.178184E-1,1.5658869E-1,-4.4335118E-1,6.328626E-1,7.113851E-2,7.2690594E-1,-7.449478E-3,-4.439805E-2,-1.3501729E-3,6.2245995E-2,6.038817E-4,4.9384877E-2,5.5245687E-3,5.8672708E-2],"categories":[],"categories_nodes":[],"categories_segments":[],"categories_sizes":[],"default_left":[0,0,0,0,0,0,0,0,0,0,0,0,0,0,0],"id":31,"left_children":[1,3,5,7,9,11,13,-1,-1,-1,-1,-1,-1,-1,-1],"loss_changes":[8.907431E0,6.4553657E0,8.161302E0,5.926388E0,2.6374493E0,7.9822164E0,5.8852186E0,0E0,0E0,0E0,0E0,0E0,0E0,0E0,0E0],"parents":[2147483647,0,0,1,1,2,2,3,3,4,4,5,5,6,6],"right_children":[2,4,6,8,10,12,14,-1,-1,-1,-1,-1,-1,-1,-1],"split_conditions":[7.1290717E2,3.1E-1,1.5484967E3,8.281947E-2,1.5061965E3,1E0,-1.5612686E0,-7.449478E-3,-4.439805E-2,-1.3501729E-3,6.2245995E-2,6.038817E-4,4.9384877E-2,5.5245687E-3,5.8672708E-2],"split_indices":[41,4,39,8,25,0,28,0,0,0,0,0,0,0,0],"split_type":[0,0,0,0,0,0,0,0,0,0,0,0,0,0,0],"sum_hessian":[2.1826877E2,5.0740414E1,1.6752835E2,4.5293304E1,5.4471107E0,1.4667664E2,2.0851711E1,2.8054464E1,1.723884E1,3.0811582E0,2.3659523E0,1.3874916E2,7.927487E0,9.2838E0,1.1567911E1],"tree_param":{"num_deleted":"0","num_feature":"46","num_nodes":"15","size_leaf_vector":"1"}},{"base_weights":[2.0490207E-2,-3.451847E-1,1.23713024E-1,-9.1119325E-1,-1.335525E-1,1.9764435E-1,-4.2466253E-1,-6.2195163E-2,2.4631413E-2,4.810103E-5,-6.0445644E-2,6.221156E-3,5.17582E-2,-6.0516167E-2,1.0348997E-2],"categories":[],"categories_nodes":[],"categories_segments":[],"categories_sizes":[],"default_left":[0,0,0,0,0,0,0,0,0,0,0,0,0,0,0],"id":32,"left_children":[1,3,5,7,9,11,13,-1,-1,-1,-1,-1,-1,-1,-1],"loss_changes":[8.108743E0,5.5448837E0,6.870143E0,6.545642E0,5.1512747E0,8.958418E0,1.0276621E1,0E0,0E0,0E0,0E0,0E0,0E0,0E0,0E0],"parents":[2147483647,0,0,1,1,2,2,3,3,4,4,5,5,6,6],"right_children":[2,4,6,8,10,12,14,-1,-1,-1,-1,-1,-1,-1,-1],"split_conditions":[4.7587076E-1,1.484381E3,1.112932E0,2.1333334E-1,6.62658E-2,1.5484967E3,7.541584E2,-6.2195163E-2,2.4631413E-2,4.810103E-5,-6.0445644E-2,6.221156E-3,5.17582E-2,-6.0516167E-2,1.0348997E-2],"split_indices":[40,25,27,4,44,39,41,0,0,0,0,0,0,0,0],"split_type":[0,0,0,0,0,0,0,0,0,0,0,0,0,0,0],"sum_hessian":[2.1269258E2,4.6305973E1,1.6638661E2,1.1702414E1,3.4603558E1,1.4718314E2,1.9203472E1,9.552385E0,2.1500287E0,3.164434E1,2.9592175E0,1.364062E2,1.0776927E1,8.150018E0,1.1053453E1],"tree_param":{"num_deleted":"0","num_feature":"46","num_nodes":"15","size_leaf_vector":"1"}},{"base_weights":[1.8084474E-2,-2.4119619E-1,1.7861286E-1,4.335549E-1,-3.5747123E-1,7.059605E-1,1.12202756E-1,4.020059E-2,-4.5209352E-2,-2.4273548E-2,2.1112785E-2,-1.4172995E-2,5.1401634E-2,-6.327901E-4,2.2853158E-2],"categories":[],"categories_nodes":[],"categories_segments":[],"categories_sizes":[],"default_left":[0,0,0,0,0,0,0,0,0,0,0,0,0,0,0],"id":33,"left_children":[1,3,5,7,9,11,13,-1,-1,-1,-1,-1,-1,-1,-1],"loss_changes":[8.960707E0,6.6160927E0,4.5751324E0,6.9499846E0,7.270714E0,4.9679985E0,5.1394706E0,0E0,0E0,0E0,0E0,0E0,0E0,0E0,0E0],"parents":[2147483647,0,0,1,1,2,2,3,3,4,4,5,5,6,6],"right_children":[2,4,6,8,10,12,14,-1,-1,-1,-1,-1,-1,-1,-1],"split_conditions":[7.4426025E2,-2.276876E1,1.4907118E3,3.2551385E-2,6.0998964E-1,5E-1,9.262922E2,4.020059E-2,-4.5209352E-2,-2.4273548E-2,2.1112785E-2,-1.4172995E-2,5.1401634E-2,-6.327901E-4,2.2853158E-2],"split_indices":[41,30,38,31,40,20,41,0,0,0,0,0,0,0,0],"split_type":[0,0,0,0,0,0,0,0,0,0,0,0,0,0,0],"sum_hessian":[2.132532E2,8.135252E1,1.3190068E2,1.1557127E1,6.9795395E1,1.3675588E1,1.182251E2,9.363186E0,2.193941E0,6.0277622E1,9.517772E0,3.3878486E0,1.028774E1,8.750628E1,3.0718815E1],"tree_param":{"num_deleted":"0","num_feature":"46","num_nodes":"15","size_leaf_vector":"1"}},{"base_weights":[-1.28236655E-2,-5.8512297E-2,5.851281E-1,-9.696951E-2,6.393612E-1,1.1477356E0,-7.6154923E-1,-2.3140615E-2,-1.0911863E-3,-9.686473E-3,6.402335E-2,6.953541E-2,-2.7962118E-2,1.5788665E-2,-6.6548415E-2],"categories":[],"categories_nodes":[],"categories_segments":[],"categories_sizes":[],"default_left":[0,0,0,0,0,0,0,0,0,0,0,0,0,0,0],"id":34,"left_children":[1,3,5,7,9,11,13,-1,-1,-1,-1,-1,-1,-1,-1],"loss_changes":[5.8823714E0,5.4236817E0,1.2455629E1,5.2191157E0,5.8912015E0,5.4149103E0,3.55224E0,0E0,0E0,0E0,0E0,0E0,0E0,0E0,0E0],"parents":[2147483647,0,0,1,1,2,2,3,3,4,4,5,5,6,6],"right_children":[2,4,6,8,10,12,14,-1,-1,-1,-1,-1,-1,-1,-1],"split_conditions":[1.8795278E-2,1E0,1.4491003E0,6.558924E2,5.04989E-1,9.797959E-1,1.5029027E3,-2.3140615E-2,-1.0911863E-3,-9.686473E-3,6.402335E-2,6.953541E-2,-2.7962118E-2,1.5788665E-2,-6.6548415E-2],"split_indices":[42,0,6,41,40,27,25,0,0,0,0,0,0,0,0],"split_type":[0,0,0,0,0,0,0,0,0,0,0,0,0,0,0],"sum_hessian":[2.1306369E2,1.9877754E2,1.4286159E1,1.8921182E2,9.565709E0,1.0180664E1,4.105495E0,3.136318E1,1.5784865E2,4.4634542E0,5.102255E0,9.074302E0,1.1063625E0,1.5736486E0,2.531846E0],"tree_param":{"num_deleted":"0","num_feature":"46","num_nodes":"15","size_leaf_vector":"1"}},{"base_weights":[-4.678352E-3,-1.3961072E-1,2.1869236E-1,8.920615E-1,-1.8489555E-1,-8.403403E-1,2.6914248E-1,6.3781284E-2,-1.6915655E-2,-4.469151E-3,-3.0753208E-2,-7.102113E-2,6.8521015E-3,6.703447E-3,4.456648E-2],"categories":[],"categories_nodes":[],"categories_segments":[],"categories_sizes":[],"default_left":[0,0,0,0,0,0,0,0,0,0,0,0,0,0,0],"id":35,"left_children":[1,3,5,7,9,11,13,-1,-1,-1,-1,-1,-1,-1,-1],"loss_changes":[6.6724772E0,6.6117973E0,4.680933E0,3.2508988E0,5.410261E0,2.4817483E0,6.632718E0,0E0,0E0,0E0,0E0,0E0,0E0,0E0,0E0],"parents":[2147483647,0,0,1,1,2,2,3,3,4,4,5,5,6,6],"right_children":[2,4,6,8,10,12,14,-1,-1,-1,-1,-1,-1,-1,-1],"split_conditions":[8.320561E2,-5.34687E0,1.4176722E3,8.350922E1,9.354156E-1,9.8150086E-1,5.864389E-1,6.3781284E-2,-1.6915655E-2,-4.469151E-3,-3.0753208E-2,-7.102113E-2,6.8521015E-3,6.703447E-3,4.456648E-2],"split_indices":[41,13,39,30,27,6,40,0,0,0,0,0,0,0,0],"split_type":[0,0,0,0,0,0,0,0,0,0,0,0,0,0,0],"sum_hessian":[2.1937024E2,1.3699197E2,8.2378265E1,4.9740896E0,1.3201788E2,3.0339391E0,7.934432E1,3.7639236E0,1.210166E0,1.09019516E2,2.2998371E1,1.6194772E0,1.414462E0,6.619025E1,1.3154078E1],"tree_param":{"num_deleted":"0","num_feature":"46","num_nodes":"15","size_leaf_vector":"1"}},{"base_weights":[-2.4899296E-2,-5.7554245E-1,4.5816198E-2,-7.806135E-1,6.764903E-1,7.239261E-2,1.5293869E-2,2.3121988E-2,-4.385234E-2,-7.9981907E-4,5.4484304E-2,-2.8264765E-3,2.520195E-2],"categories":[],"categories_nodes":[],"categories_segments":[],"categories_sizes":[],"default_left":[0,0,0,0,0,0,0,0,0,0,0,0,0],"id":36,"left_children":[1,3,5,7,9,-1,11,-1,-1,-1,-1,-1,-1],"loss_changes":[8.317622E0,6.7689753E0,8.09245E0,2.964859E0,1.149553E0,0E0,6.5785317E0,0E0,0E0,0E0,0E0,0E0,0E0],"parents":[2147483647,0,0,1,1,2,2,3,3,4,4,6,6],"right_children":[2,4,6,8,10,-1,12,-1,-1,-1,-1,-1,-1],"split_conditions":[5.814928E2,1.9E-1,1.4505166E3,-4.1813955E0,1.5061965E3,7.239261E-2,1.5484967E3,2.3121988E-2,-4.385234E-2,-7.9981907E-4,5.4484304E-2,-2.8264765E-3,2.520195E-2],"split_indices":[41,4,38,13,25,0,39,0,0,0,0,0,0],"split_type":[0,0,0,0,0,0,0,0,0,0,0,0,0],"sum_hessian":[2.1192928E2,2.3306759E1,1.8862251E2,2.0350126E1,2.9566336E0,3.0294528E0,1.8559306E2,1.1918182E0,1.9158308E1,1.4641346E0,1.492499E0,1.625848E2,2.3008265E1],"tree_param":{"num_deleted":"0","num_feature":"46","num_nodes":"13","size_leaf_vector":"1"}},{"base_weights":[-3.3274777E-2,-1.13013096E-1,3.3721468E-1,-2.8014934E-1,6.365167E-2,5.1982117E-1,-8.052087E-1,-7.909357E-3,-4.020224E-2,-5.3061447E-3,3.032918E-2,-1.9249627E-2,3.642789E-2,-7.5530805E-2,1.4387797E-2],"categories":[],"categories_nodes":[],"categories_segments":[],"categories_sizes":[],"default_left":[0,0,0,0,0,0,0,0,0,0,0,0,0,0,0],"id":37,"left_children":[1,3,5,7,9,11,13,-1,-1,-1,-1,-1,-1,-1,-1],"loss_changes":[6.351735E0,5.2327285E0,8.367052E0,5.6834364E0,8.053676E0,6.5996733E0,4.7855015E0,0E0,0E0,0E0,0E0,0E0,0E0,0E0,0E0],"parents":[2147483647,0,0,1,1,2,2,3,3,4,4,5,5,6,6],"right_children":[2,4,6,8,10,12,14,-1,-1,-1,-1,-1,-1,-1,-1],"split_conditions":[5.864389E-1,7.8711285E2,1.5240192E3,9.354156E-1,2.9365475E0,1.477805E3,-4.6342923E-3,-7.909357E-3,-4.020224E-2,-5.3061447E-3,3.032918E-2,-1.9249627E-2,3.642789E-2,-7.5530805E-2,1.4387797E-2],"split_indices":[40,41,25,27,30,25,31,0,0,0,0,0,0,0,0],"split_type":[0,0,0,0,0,0,0,0,0,0,0,0,0,0,0],"sum_hessian":[2.1271544E2,1.7561401E2,3.710143E1,8.99396E1,8.5674416E1,3.2458244E1,4.6431856E0,7.401171E1,1.5927885E1,6.587871E1,1.9795706E1,5.926061E0,2.6532183E1,2.589668E0,2.0535176E0],"tree_param":{"num_deleted":"0","num_feature":"46","num_nodes":"15","size_leaf_vector":"1"}},{"base_weights":[-2.421101E-2,1.14801124E-1,-2.385229E-1,-5.1717144E-1,2.0214868E-1,-6.268845E-2,-8.044943E-1,3.6068346E-2,-3.6680963E-2,1.251086E-2,-5.5630293E-2,-2.4918813E-2,9.308254E-3,-5.100515E-2,1.8332288E-2],"categories":[],"categories_nodes":[],"categories_segments":[],"categories_sizes":[],"default_left":[0,0,0,0,0,0,0,0,0,0,0,0,0,0,0],"id":38,"left_children":[1,3,5,7,9,11,13,-1,-1,-1,-1,-1,-1,-1,-1],"loss_changes":[6.322608E0,7.21694E0,8.255423E0,4.7988305E0,7.4778194E0,7.1145005E0,5.3481264E0,0E0,0E0,0E0,0E0,0E0,0E0,0E0,0E0],"parents":[2147483647,0,0,1,1,2,2,3,3,4,4,5,5,6,6],"right_children":[2,4,6,8,10,12,14,-1,-1,-1,-1,-1,-1,-1,-1],"split_conditions":[4.9323863E-1,4.1486168E-1,1.5113086E3,1.4689622E3,1.4649715E2,4.1161504E0,1.5158081E3,3.6068346E-2,-3.6680963E-2,1.251086E-2,-5.5630293E-2,-2.4918813E-2,9.308254E-3,-5.100515E-2,1.8332288E-2],"split_indices":[5,40,39,25,30,8,26,0,0,0,0,0,0,0,0],"split_type":[0,0,0,0,0,0,0,0,0,0,0,0,0,0,0],"sum_hessian":[2.1030623E2,1.2784479E2,8.246144E1,1.492674E1,1.12918045E2,6.376261E1,1.869883E1,1.8735163E0,1.3053224E1,1.0971641E2,3.2016387E0,2.2815317E1,4.0947292E1,1.5900491E1,2.7983382E0],"tree_param":{"num_deleted":"0","num_feature":"46","num_nodes":"15","size_leaf_vector":"1"}},{"base_weights":[-1.9731026E-2,-7.2708756E-1,2.1932658E-2,2.5027424E-1,-1.0706921E0,-2.4447031E-2,7.549639E-1,6.0388435E-2,-5.102517E-2,1.0303795E-2,-6.40467E-2,-1.8461814E-2,3.2343168E-3,5.0162063E-3,5.7054516E-2],"categories":[],"categories_nodes":[],"categories_segments":[],"categories_sizes":[],"default_left":[0,0,0,0,0,0,0,0,0,0,0,0,0,0,0],"id":39,"left_children":[1,3,5,7,9,11,13,-1,-1,-1,-1,-1,-1,-1,-1],"loss_changes":[6.0611687E0,4.1095266E0,6.637301E0,5.839245E0,2.5867224E0,5.680717E0,2.821813E0,0E0,0E0,0E0,0E0,0E0,0E0,0E0,0E0],"parents":[2147483647,0,0,1,1,2,2,3,3,4,4,5,5,6,6],"right_children":[2,4,6,8,10,12,14,-1,-1,-1,-1,-1,-1,-1,-1],"split_conditions":[1.4682288E3,-3.1091855E0,1E0,1.0498139E-2,-1.601074E-2,-2.6666668E-1,-7.5088413E-3,6.0388435E-2,-5.102517E-2,1.0303795E-2,-6.40467E-2,-1.8461814E-2,3.2343168E-3,5.0162063E-3,5.7054516E-2],"split_indices":[26,45,0,2,42,4,31,0,0,0,0,0,0,0,0],"split_type":[0,0,0,0,0,0,0,0,0,0,0,0,0,0,0],"sum_hessian":[2.0412384E2,1.043914E1,1.9368471E2,2.786041E0,7.6531E0,1.8306842E2,1.061629E1,1.6171489E0,1.168892E0,1.0848403E0,6.5682597E0,3.6959126E1,1.4610928E2,4.4060626E0,6.210228E0],"tree_param":{"num_deleted":"0","num_feature":"46","num_nodes":"15","size_leaf_vector":"1"}},{"base_weights":[3.9396837E-2,-9.1525145E-2,2.5263125E-1,1.4361042E-1,-2.8339732E-1,-5.2611315E-1,3.642679E-1,-1.5203704E-2,1.7290043E-2,-3.580248E-2,-1.3038407E-3,-5.125652E-2,3.881077E-2,3.1868774E-2,7.047076E-3],"categories":[],"categories_nodes":[],"categories_segments":[],"categories_sizes":[],"default_left":[0,0,0,0,0,0,0,0,0,0,0,0,0,0,0],"id":40,"left_children":[1,3,5,7,9,11,13,-1,-1,-1,-1,-1,-1,-1,-1],"loss_changes":[5.946043E0,6.004406E0,7.2313323E0,5.541665E0,8.122444E0,7.6596937E0,4.265815E0,0E0,0E0,0E0,0E0,0E0,0E0,0E0,0E0],"parents":[2147483647,0,0,1,1,2,2,3,3,4,4,5,5,6,6],"right_children":[2,4,6,8,10,12,14,-1,-1,-1,-1,-1,-1,-1,-1],"split_conditions":[5.508972E-1,-8E-2,5E-1,-2.210425E-2,7.6847546E2,5.27917E0,1.4986322E3,-1.5203704E-2,1.7290043E-2,-3.580248E-2,-1.3038407E-3,-5.125652E-2,3.881077E-2,3.1868774E-2,7.047076E-3],"split_indices":[40,4,20,2,41,8,25,0,0,0,0,0,0,0,0],"split_type":[0,0,0,0,0,0,0,0,0,0,0,0,0,0,0],"sum_hessian":[2.1116127E2,1.3118617E2,7.9975105E1,5.9060375E1,7.212579E1,9.561834E0,7.041327E1,1.821821E1,4.0842163E1,2.6233957E1,4.5891834E1,7.0668545E0,2.4949803E0,3.0842152E1,3.9571117E1],"tree_param":{"num_deleted":"0","num_feature":"46","num_nodes":"15","size_leaf_vector":"1"}},{"base_weights":[-6.1792876E-3,-8.619147E-2,3.3576578E-1,8.610575E-1,-1.2023158E-1,-9.970709E-1,4.632642E-1,6.776795E-2,-2.470678E-2,-3.2013472E-2,-2.6517673E-3,-6.9909684E-2,-2.1672961E-3,-2.173623E-2,3.1271785E-2],"categories":[],"categories_nodes":[],"categories_segments":[],"categories_sizes":[],"default_left":[0,0,0,0,0,0,0,0,0,0,0,0,0,0,0],"id":41,"left_children":[1,3,5,7,9,11,13,-1,-1,-1,-1,-1,-1,-1,-1],"loss_changes":[5.805919E0,5.646547E0,7.300518E0,4.746453E0,5.79551E0,1.4048765E0,5.7201185E0,0E0,0E0,0E0,0E0,0E0,0E0,0E0,0E0],"parents":[2147483647,0,0,1,1,2,2,3,3,4,4,5,5,6,6],"right_children":[2,4,6,8,10,12,14,-1,-1,-1,-1,-1,-1,-1,-1],"split_conditions":[5.864389E-1,-9.0044506E-2,1.4098164E3,1.6460683E-2,-5.4057047E-2,1.8418109E2,1.477805E3,6.776795E-2,-2.470678E-2,-3.2013472E-2,-2.6517673E-3,-6.9909684E-2,-2.1672961E-3,-2.173623E-2,3.1271785E-2],"split_indices":[40,44,39,31,44,1,25,0,0,0,0,0,0,0,0],"split_type":[0,0,0,0,0,0,0,0,0,0,0,0,0,0,0],"sum_hessian":[2.1014868E2,1.7090608E2,3.9242603E1,5.085806E0,1.6582028E2,2.8307185E0,3.6411884E1,3.7264688E0,1.3593371E0,1.799866E1,1.4782161E2,1.6645844E0,1.1661341E0,5.312798E0,3.1099087E1],"tree_param":{"num_deleted":"0","num_feature":"46","num_nodes":"15","size_leaf_vector":"1"}},{"base_weights":[-2.1047391E-2,1.8082334E-2,-6.2166405E-1,-2.8517539E-2,7.192519E-1,1.4006161E-2,-1.2071874E0,-4.8653637E-3,1.770685E-2,6.116833E-2,-1.3303392E-2,2.9355932E-2,-4.195524E-2,-7.595146E-2,1.1080082E-2],"categories":[],"categories_nodes":[],"categories_segments":[],"categories_sizes":[],"default_left":[0,0,0,0,0,0,0,0,0,0,0,0,0,0,0],"id":42,"left_children":[1,3,5,7,9,11,13,-1,-1,-1,-1,-1,-1,-1,-1],"loss_changes":[4.99461E0,6.556796E0,4.8546124E0,4.9973E0,6.5366664E0,4.0229464E0,3.3562136E0,0E0,0E0,0E0,0E0,0E0,0E0,0E0,0E0],"parents":[2147483647,0,0,1,1,2,2,3,3,4,4,5,5,6,6],"right_children":[2,4,6,8,10,12,14,-1,-1,-1,-1,-1,-1,-1,-1],"split_conditions":[1.3074603E2,1.8795278E-2,1.5029027E3,1.6319488E0,1.5089742E3,2.4333334E-1,5.6827273E-2,-4.8653637E-3,1.770685E-2,6.116833E-2,-1.3303392E-2,2.9355932E-2,-4.195524E-2,-7.595146E-2,1.1080082E-2],"split_indices":[30,42,25,29,25,4,31,0,0,0,0,0,0,0,0],"split_type":[0,0,0,0,0,0,0,0,0,0,0,0,0,0,0],"sum_hessian":[2.1104051E2,1.9904291E2,1.1997603E1,1.8753839E2,1.1504512E1,6.220467E0,5.7771363E0,1.5959393E2,2.7944466E1,7.4508657E0,4.0536466E0,3.9073408E0,2.3131263E0,4.6902933E0,1.0868431E0],"tree_param":{"num_deleted":"0","num_feature":"46","num_nodes":"15","size_leaf_vector":"1"}},{"base_weights":[3.6309924E-2,-2.647937E-1,1.210891E-1,-4.1077265E-1,6.6239977E-1,8.828832E-1,6.642608E-2,-4.695591E-2,2.2952787E-3,4.106667E-4,6.262152E-2,5.8618367E-2,-3.9993558E-2,5.3511756E-3,-4.102231E-2],"categories":[],"categories_nodes":[],"categories_segments":[],"categories_sizes":[],"default_left":[0,0,0,0,0,0,0,0,0,0,0,0,0,0,0],"id":43,"left_children":[1,3,5,7,9,11,13,-1,-1,-1,-1,-1,-1,-1,-1],"loss_changes":[5.4716806E0,6.651187E0,6.8938932E0,1.0016923E1,2.6119998E0,6.343363E0,5.735619E0,0E0,0E0,0E0,0E0,0E0,0E0,0E0,0E0],"parents":[2147483647,0,0,1,1,2,2,3,3,4,4,5,5,6,6],"right_children":[2,4,6,8,10,12,14,-1,-1,-1,-1,-1,-1,-1,-1],"split_conditions":[7.1290717E2,3.1E-1,1.4741764E3,1E1,1.5061965E3,3.6695306E0,1.4210855E-14,-4.695591E-2,2.2952787E-3,4.106667E-4,6.262152E-2,5.8618367E-2,-3.9993558E-2,5.3511756E-3,-4.102231E-2],"split_indices":[41,4,38,32,25,13,7,0,0,0,0,0,0,0,0],"split_type":[0,0,0,0,0,0,0,0,0,0,0,0,0,0,0],"sum_hessian":[2.1209003E2,4.613008E1,1.6595995E2,4.033642E1,5.793665E0,1.0096858E1,1.5586308E2,1.8211058E1,2.212536E1,3.228282E0,2.565383E0,8.873632E0,1.2232261E0,1.4988145E2,5.981642E0],"tree_param":{"num_deleted":"0","num_feature":"46","num_nodes":"15","size_leaf_vector":"1"}},{"base_weights":[-3.6032547E-3,-4.7292493E-2,8.0203915E-1,-9.648555E-1,-1.1790393E-2,9.9671656E-1,-1.4849963E-2,-6.4517684E-2,6.766073E-3,-5.206459E-3,1.3306567E-2,5.749787E-2,-2.8061054E-3],"categories":[],"categories_nodes":[],"categories_segments":[],"categories_sizes":[],"default_left":[0,0,0,0,0,0,0,0,0,0,0,0,0],"id":44,"left_children":[1,3,5,7,9,11,-1,-1,-1,-1,-1,-1,-1],"loss_changes":[7.46299E0,6.537741E0,2.629651E0,2.8520384E0,5.0209064E0,1.5964813E0,0E0,0E0,0E0,0E0,0E0,0E0,0E0],"parents":[2147483647,0,0,1,1,2,2,3,3,4,4,5,5],"right_children":[2,4,6,8,10,12,-1,-1,-1,-1,-1,-1,-1],"split_conditions":[9.9046655E2,1.4657268E3,2.3625934E0,1.4210855E-14,5.8367383E-1,1E0,-1.4849963E-2,-6.4517684E-2,6.766073E-3,-5.206459E-3,1.3306567E-2,5.749787E-2,-2.8061054E-3],"split_indices":[41,26,13,9,40,20,0,0,0,0,0,0,0],"split_type":[0,0,0,0,0,0,0,0,0,0,0,0,0],"sum_hessian":[2.0995174E2,2.000448E2,9.906945E0,6.476638E0,1.9356816E2,8.495247E0,1.4116985E0,4.864552E0,1.6120856E0,1.4576382E2,4.780433E1,7.3353415E0,1.1599053E0],"tree_param":{"num_deleted":"0","num_feature":"46","num_nodes":"13","size_leaf_vector":"1"}},{"base_weights":[1.5885419E-3,-1.0805916E0,3.8424637E-2,-7.040276E-2,6.269537E-3,1.8110897E-1,-1.8054186E-1,-1.2929283E-2,1.4547795E-2,-1.7713169E-2,1.3327244E-2],"categories":[],"categories_nodes":[],"categories_segments":[],"categories_sizes":[],"default_left":[0,0,0,0,0,0,0,0,0,0,0],"id":45,"left_children":[1,3,5,-1,-1,7,9,-1,-1,-1,-1],"loss_changes":[8.4650135E0,2.9371262E0,6.4475045E0,0E0,0E0,6.1035733E0,6.4249334E0,0E0,0E0,0E0,0E0],"parents":[2147483647,0,0,1,1,2,2,5,5,6,6],"right_children":[2,4,6,-1,-1,8,10,-1,-1,-1,-1],"split_conditions":[1.4657268E3,8.6268693E-1,4.9323863E-1,-7.040276E-2,6.269537E-3,6.522114E2,2.0005112E0,-1.2929283E-2,1.4547795E-2,-1.7713169E-2,1.3327244E-2],"split_indices":[26,27,5,0,0,41,29,0,0,0,0],"split_type":[0,0,0,0,0,0,0,0,0,0,0],"sum_hessian":[2.1030951E2,5.9902844E0,2.0431923E2,4.5792975E0,1.4109869E0,1.2381258E2,8.0506645E1,2.4478027E1,9.933455E1,5.8127895E1,2.237875E1],"tree_param":{"num_deleted":"0","num_feature":"46","num_nodes":"11","size_leaf_vector":"1"}},{"base_weights":[3.2043107E-2,3.898563E-1,-4.286642E-2,6.909573E-1,-2.3421866E-1,-3.158396E-1,8.384819E-2,3.4341642E-3,5.2523393E-2,4.8908424E-2,-3.2700412E-2,-7.967506E-3,-4.99376E-2,2.1107787E-2,-3.2514278E-3],"categories":[],"categories_nodes":[],"categories_segments":[],"categories_sizes":[],"default_left":[0,0,0,0,0,0,0,0,0,0,0,0,0,0,0],"id":46,"left_children":[1,3,5,7,9,11,13,-1,-1,-1,-1,-1,-1,-1,-1],"loss_changes":[5.677669E0,7.0507035E0,6.098381E0,5.5167713E0,7.0922227E0,5.810759E0,6.105563E0,0E0,0E0,0E0,0E0,0E0,0E0,0E0,0E0],"parents":[2147483647,0,0,1,1,2,2,3,3,4,4,5,5,6,6],"right_children":[2,4,6,8,10,12,14,-1,-1,-1,-1,-1,-1,-1,-1],"split_conditions":[1.494615E3,1.49076525E-2,7.397911E2,1.4897842E3,-2.856936E1,4.1136213E-2,1.4914691E3,3.4341642E-3,5.2523393E-2,4.8908424E-2,-3.2700412E-2,-7.967506E-3,-4.99376E-2,2.1107787E-2,-3.2514278E-3],"split_indices":[38,44,41,25,30,44,26,0,0,0,0,0,0,0,0],"split_type":[0,0,0,0,0,0,0,0,0,0,0,0,0,0,0],"sum_hessian":[2.1020123E2,3.5660545E1,1.745407E2,2.3982433E1,1.1678111E1,5.4862152E1,1.1967854E2,9.218042E0,1.4764392E1,2.6614585E0,9.016653E0,4.563762E1,9.22453E0,3.601116E1,8.366738E1],"tree_param":{"num_deleted":"0","num_feature":"46","num_nodes":"15","size_leaf_vector":"1"}},{"base_weights":[2.6617737E-2,6.364171E-2,-5.8527017E-1,1.189478E-2,5.5668527E-1,-8.256083E-1,2.3528393E-2,2.4568297E-3,-3.676028E-2,5.4356348E-2,8.025176E-3,1.1179871E-2,-4.9373664E-2],"categories":[],"categories_nodes":[],"categories_segments":[],"categories_sizes":[],"default_left":[0,0,0,0,0,0,0,0,0,0,0,0,0],"id":47,"left_children":[1,3,5,7,9,11,-1,-1,-1,-1,-1,-1,-1],"loss_changes":[4.797634E0,5.071648E0,3.45571E0,5.0765605E0,3.794056E0,1.9545798E0,0E0,0E0,0E0,0E0,0E0,0E0,0E0],"parents":[2147483647,0,0,1,1,2,2,3,3,4,4,5,5],"right_children":[2,4,6,8,10,12,-1,-1,-1,-1,-1,-1,-1],"split_conditions":[7.1054274E-15,9.626446E2,1.3006881E-1,1.4649715E2,3.5058994E-2,1.5008605E3,2.3528393E-2,2.4568297E-3,-3.676028E-2,5.4356348E-2,8.025176E-3,1.1179871E-2,-4.9373664E-2],"split_indices":[7,41,2,30,2,38,0,0,0,0,0,0,0],"split_type":[0,0,0,0,0,0,0,0,0,0,0,0,0],"sum_hessian":[2.0912965E2,1.9804253E2,1.1087121E1,1.8015831E2,1.7884224E1,9.208959E0,1.8781618E0,1.7249397E2,7.66433E0,6.900816E0,1.0983407E1,1.1798446E0,8.029115E0],"tree_param":{"num_deleted":"0","num_feature":"46","num_nodes":"13","size_leaf_vector":"1"}},{"base_weights":[1.7560315E-3,-3.098678E-1,8.619037E-2,-1.0404073E0,-1.3531555E-1,4.176516E-1,-1.2885104E-2,-6.040595E-2,3.1389718E-5,5.4628816E-2,-1.2073932E-2,-1.0885668E-2,3.9217062E-2,-3.8977705E-3,4.635115E-2],"categories":[],"categories_nodes":[],"categories_segments":[],"categories_sizes":[],"default_left":[0,0,0,0,0,0,0,0,0,0,0,0,0,0,0],"id":48,"left_children":[1,3,5,7,9,11,13,-1,-1,-1,-1,-1,-1,-1,-1],"loss_changes":[5.5284657E0,5.57132E0,5.4339175E0,1.4829578E0,5.126834E0,9.040344E0,7.9150896E0,0E0,0E0,0E0,0E0,0E0,0E0,0E0,0E0],"parents":[2147483647,0,0,1,1,2,2,3,3,4,4,5,5,6,6],"right_children":[2,4,6,8,10,12,14,-1,-1,-1,-1,-1,-1,-1,-1],"split_conditions":[4.7587076E-1,1.48068E3,-4.8089094E0,6E-2,1.4829135E3,-2.26371E0,1.5432958E3,-6.040595E-2,3.1389718E-5,5.4628816E-2,-1.2073932E-2,-1.0885668E-2,3.9217062E-2,-3.8977705E-3,4.635115E-2],"split_indices":[40,26,8,35,26,28,39,0,0,0,0,0,0,0,0],"split_type":[0,0,0,0,0,0,0,0,0,0,0,0,0,0,0],"sum_hessian":[2.0809889E2,4.3794727E1,1.6430415E2,7.48942E0,3.6305305E1,3.7069862E1,1.272343E2,6.312046E0,1.1773739E0,2.1497388E0,3.4155567E1,1.3713933E1,2.335593E1,1.1985382E2,7.380479E0],"tree_param":{"num_deleted":"0","num_feature":"46","num_nodes":"15","size_leaf_vector":"1"}},{"base_weights":[-5.1559936E-3,-4.8642907E-2,5.089289E-1,-3.7658125E-1,1.7448615E-2,9.9419343E-1,-4.4974324E-1,-3.448892E-2,9.894819E-3,-2.877238E-3,1.8658485E-2,5.6739993E-2,3.5699152E-3,1.9539563E-2,-5.3838845E-2],"categories":[],"categories_nodes":[],"categories_segments":[],"categories_sizes":[],"default_left":[0,0,0,0,0,0,0,0,0,0,0,0,0,0,0],"id":49,"left_children":[1,3,5,7,9,11,13,-1,-1,-1,-1,-1,-1,-1,-1],"loss_changes":[4.7645493E0,4.263154E0,8.1803055E0,6.071416E0,4.4072933E0,1.3913851E0,3.7280056E0,0E0,0E0,0E0,0E0,0E0,0E0,0E0,0E0],"parents":[2147483647,0,0,1,1,2,2,3,3,4,4,5,5,6,6],"right_children":[2,4,6,8,10,12,14,-1,-1,-1,-1,-1,-1,-1,-1],"split_conditions":[1.2400695E-2,1.4815275E3,1.5089742E3,8.408169E2,5.864389E-1,8E-1,6.020448E-1,-3.448892E-2,9.894819E-3,-2.877238E-3,1.8658485E-2,5.6739993E-2,3.5699152E-3,1.9539563E-2,-5.3838845E-2],"split_indices":[42,25,25,41,40,27,8,0,0,0,0,0,0,0,0],"split_type":[0,0,0,0,0,0,0,0,0,0,0,0,0,0,0],"sum_hessian":[2.1101471E2,1.9539172E2,1.5622986E1,3.1985512E1,1.634062E2,1.034796E1,5.2750254E0,2.0570213E1,1.1415298E1,1.356472E2,2.775901E1,8.780355E0,1.5676055E0,2.4147844E0,2.8602412E0],"tree_param":{"num_deleted":"0","num_feature":"46","num_nodes":"15","size_leaf_vector":"1"}}]},"name":"gbtree"},"learner_model_param":{"base_score":"[5.1449007E-1]","boost_from_average":"1","num_class":"0","num_feature":"46","num_target":"1"},"objective":{"name":"binary:logistic","reg_loss_param":{"scale_pos_weight":"1"}}},"version":[3,2,0]}