{"learner":{"attributes":{"scikit_learn":"{\"_estimator_type\": \"classifier\"}"},"feature_names":["p1_target","elo_diff","finish_diff","edge_speed_diff","edge_burst_diff","l5_goal_diff","l5_xg_diff","l5_corsi_diff","l5_pdo_diff","l5_st_net","l5_royal_road_diff","l5_pressure_diff","l5_rebound_diff","l5_lateral_diff","p1_xg_diff","p2_xg_diff","p3_xg_diff","p1_p2_dominance","h_preservation_rate","a_preservation_rate","h_comeback_rate","a_comeback_rate","l5_nzt_possession_diff","l5_ca_shots_diff","l5_rush_sv_pct_diff","home_sos","away_sos","l5_std_diff","l10_goal_diff","l10_xg_diff","elo_rest_inter","speed_finish_inter","season_month","is_late_season","h_desperation","a_desperation","home_xg","away_xg","home_elo","away_elo","away_win_rate","home_win_rate_away_sos","away_b2b_home_strength","pressure_index","xg_efficiency","power_momentum"],"feature_types":["int","float","float","float","float","float","float","float","float","float","float","float","float","float","float","float","float","float","float","float","float","float","float","float","float","float","float","float","float","float","float","float","int","int","float","float","float","float","float","float","float","float","float","float","float","float"],"gradient_booster":{"model":{"cats":{"enc":[],"feature_segments":[],"sorted_idx":[]},"gbtree_model_param":{"num_parallel_tree":"1","num_trees":"100"},"iteration_indptr":[0,1,2,3,4,5,6,7,8,9,10,11,12,13,14,15,16,17,18,19,20,21,22,23,24,25,26,27,28,29,30,31,32,33,34,35,36,37,38,39,40,41,42,43,44,45,46,47,48,49,50,51,52,53,54,55,56,57,58,59,60,61,62,63,64,65,66,67,68,69,70,71,72,73,74,75,76,77,78,79,80,81,82,83,84,85,86,87,88,89,90,91,92,93,94,95,96,97,98,99,100],"tree_info":[0,0,0,0,0,0,0,0,0,0,0,0,0,0,0,0,0,0,0,0,0,0,0,0,0,0,0,0,0,0,0,0,0,0,0,0,0,0,0,0,0,0,0,0,0,0,0,0,0,0,0,0,0,0,0,0,0,0,0,0,0,0,0,0,0,0,0,0,0,0,0,0,0,0,0,0,0,0,0,0,0,0,0,0,0,0,0,0,0,0,0,0,0,0,0,0,0,0,0,0],"trees":[{"base_weights":[5.466909E-3,-3.6758456E-1,4.5726836E-1,-6.274929E-1,6.0099465E-1,5.5477893E-1,-6.990463E-1,-1.1629093E-2,-3.976438E-3,-3.0596736E-3,9.001318E-3,3.8171913E-3,1.1698721E-2,-1.2757264E-2,5.5330554E-3],"categories":[],"categories_nodes":[],"categories_segments":[],"categories_sizes":[],"default_left":[0,0,0,0,0,0,0,0,0,0,0,0,0,0,0],"id":0,"left_children":[1,3,5,7,9,11,13,-1,-1,-1,-1,-1,-1,-1,-1],"loss_changes":[3.0923655E1,2.5678024E1,9.743294E0,9.349461E0,6.1828437E0,7.7582264E0,5.685725E0,0E0,0E0,0E0,0E0,0E0,0E0,0E0,0E0],"parents":[2147483647,0,0,1,1,2,2,3,3,4,4,5,5,6,6],"right_children":[2,4,6,8,10,12,14,-1,-1,-1,-1,-1,-1,-1,-1],"split_conditions":[7.8768976E2,5.873571E-1,1.3074603E2,4.6308774E-1,-6.093802E0,1.5147516E1,9.4789417E2,-1.1629093E-2,-3.976438E-3,-3.0596736E-3,9.001318E-3,3.8171913E-3,1.1698721E-2,-1.2757264E-2,5.5330554E-3],"split_indices":[41,40,30,40,45,30,41,0,0,0,0,0,0,0,0],"split_type":[0,0,0,0,0,0,0,0,0,0,0,0,0,0,0],"sum_hessian":[1.8147668E2,9.950337E1,8.197331E1,7.872932E1,2.077406E1,7.607797E1,5.895341E0,2.242725E1,5.6302067E1,5.146726E0,1.5627333E1,6.0637794E1,1.5440179E1,4.023804E0,1.8715369E0],"tree_param":{"num_deleted":"0","num_feature":"46","num_nodes":"15","size_leaf_vector":"1"}},{"base_weights":[4.483452E-2,-4.5491034E-1,6.2686354E-1,-8.181223E-1,1.1341184E-1,4.2164457E-1,9.3478805E-1,-2.1544826E-4,-1.0016069E-2,-3.9268145E-3,5.997094E-3,-1.0612672E-2,5.0304383E-3,-1.1491695E-2,1.0536183E-2],"categories":[],"categories_nodes":[],"categories_segments":[],"categories_sizes":[],"default_left":[0,0,0,0,0,0,0,0,0,0,0,0,0,0,0],"id":1,"left_children":[1,3,5,7,9,11,13,-1,-1,-1,-1,-1,-1,-1,-1],"loss_changes":[5.2035732E1,1.9972315E1,4.826351E0,8.583874E0,9.693205E0,6.737755E0,9.18903E0,0E0,0E0,0E0,0E0,0E0,0E0,0E0,0E0],"parents":[2147483647,0,0,1,1,2,2,3,3,4,4,5,5,6,6],"right_children":[2,4,6,8,10,12,14,-1,-1,-1,-1,-1,-1,-1,-1],"split_conditions":[7.8768976E2,5.3553146E-1,5.517597E-1,-2.5721326E-2,-3.3333334E-3,-2.6987937E-1,-2.239687E0,-2.1544826E-4,-1.0016069E-2,-3.9268145E-3,5.997094E-3,-1.0612672E-2,5.0304383E-3,-1.1491695E-2,1.0536183E-2],"split_indices":[41,40,40,31,4,2,27,0,0,0,0,0,0,0,0],"split_type":[0,0,0,0,0,0,0,0,0,0,0,0,0,0,0],"sum_hessian":[1.7691891E2,9.530556E1,8.161336E1,5.7877064E1,3.7428493E1,5.039589E1,3.1217468E1,1.1044788E1,4.6832275E1,1.8435278E1,1.8993216E1,1.9959713E0,4.839992E1,1.216295E0,3.0001173E1],"tree_param":{"num_deleted":"0","num_feature":"46","num_nodes":"15","size_leaf_vector":"1"}},{"base_weights":[-3.1881176E-3,-2.2814879E-1,6.494776E-1,-7.427501E-1,1.4527364E-1,-1.2411029E-2,7.387382E-1,-4.1776436E-4,-9.809232E-3,3.21236E-3,-7.399593E-3,1.3123484E-3,9.97815E-3],"categories":[],"categories_nodes":[],"categories_segments":[],"categories_sizes":[],"default_left":[0,0,0,0,0,0,0,0,0,0,0,0,0],"id":2,"left_children":[1,3,5,7,9,-1,11,-1,-1,-1,-1,-1,-1],"loss_changes":[2.6590778E1,2.5987185E1,8.751099E0,9.441111E0,1.2524381E1,0E0,6.944969E0,0E0,0E0,0E0,0E0,0E0,0E0],"parents":[2147483647,0,0,1,1,2,2,3,3,4,4,6,6],"right_children":[2,4,6,8,10,-1,12,-1,-1,-1,-1,-1,-1],"split_conditions":[8.4306976E2,5.19137E-1,-2.239687E0,-2.0666666E-1,9.636809E-1,-1.2411029E-2,-5.942808E-1,-4.1776436E-4,-9.809232E-3,3.21236E-3,-7.399593E-3,1.3123484E-3,9.97815E-3],"split_indices":[41,40,27,3,27,0,8,0,0,0,0,0,0],"split_type":[0,0,0,0,0,0,0,0,0,0,0,0,0],"sum_hessian":[1.7909712E2,1.3367314E2,4.542399E1,5.5794926E1,7.787821E1,1.4661425E0,4.3957848E1,1.44480095E1,4.1346916E1,6.5496284E1,1.2381923E1,1.3592246E1,3.03656E1],"tree_param":{"num_deleted":"0","num_feature":"46","num_nodes":"13","size_leaf_vector":"1"}},{"base_weights":[-2.0129152E-2,-3.6304328E-1,4.6339637E-1,-9.067792E-1,9.271097E-3,7.3275405E-1,-1.4670408E-2,5.9743463E-3,-9.892457E-3,-4.7962875E-3,4.470115E-3,2.0508743E-3,9.961439E-3,7.89439E-3,-4.50225E-3],"categories":[],"categories_nodes":[],"categories_segments":[],"categories_sizes":[],"default_left":[0,0,0,0,0,0,0,0,0,0,0,0,0,0,0],"id":3,"left_children":[1,3,5,7,9,11,13,-1,-1,-1,-1,-1,-1,-1,-1],"loss_changes":[3.1021482E1,2.2161446E1,1.0009649E1,6.1093864E0,1.4327073E1,6.7010574E0,1.0499417E1,0E0,0E0,0E0,0E0,0E0,0E0,0E0,0E0],"parents":[2147483647,0,0,1,1,2,2,3,3,4,4,5,5,6,6],"right_children":[2,4,6,8,10,12,14,-1,-1,-1,-1,-1,-1,-1,-1],"split_conditions":[7.9926434E2,5.061197E-1,1.502936E3,-1.1626644E2,1.320097E1,-5.7100326E-2,-4.5745295E-1,5.9743463E-3,-9.892457E-3,-4.7962875E-3,4.470115E-3,2.0508743E-3,9.961439E-3,7.89439E-3,-4.50225E-3],"split_indices":[41,40,25,30,45,2,27,0,0,0,0,0,0,0,0],"split_type":[0,0,0,0,0,0,0,0,0,0,0,0,0,0,0],"sum_hessian":[1.8507848E2,1.0842975E2,7.664872E1,4.3486137E1,6.494361E1,4.8685215E1,2.7963503E1,1.9356008E0,4.1550537E1,3.0633846E1,3.430977E1,1.6802431E1,3.1882782E1,9.539478E0,1.8424025E1],"tree_param":{"num_deleted":"0","num_feature":"46","num_nodes":"15","size_leaf_vector":"1"}},{"base_weights":[-4.4991667E-3,-6.141448E-1,3.216172E-1,-8.367296E-1,2.96222E-1,-4.4578522E-1,4.828217E-1,-2.5128715E-3,-1.2209885E-2,8.9240605E-3,-3.6895045E-3,-1.1251814E-2,3.6017152E-3,1.0113436E-2,2.9607713E-3],"categories":[],"categories_nodes":[],"categories_segments":[],"categories_sizes":[],"default_left":[0,0,0,0,0,0,0,0,0,0,0,0,0,0,0],"id":4,"left_children":[1,3,5,7,9,11,13,-1,-1,-1,-1,-1,-1,-1,-1],"loss_changes":[3.642835E1,1.3186573E1,1.4983678E1,1.1294308E1,5.5969605E0,1.2037834E1,9.485203E0,0E0,0E0,0E0,0E0,0E0,0E0,0E0,0E0],"parents":[2147483647,0,0,1,1,2,2,3,3,4,4,5,5,6,6],"right_children":[2,4,6,8,10,12,14,-1,-1,-1,-1,-1,-1,-1,-1],"split_conditions":[7.275009E2,5.873571E-1,4.6085063E-1,-4.2419434E0,1.1E1,8.2689166E2,1.4912703E3,-2.5128715E-3,-1.2209885E-2,8.9240605E-3,-3.6895045E-3,-1.1251814E-2,3.6017152E-3,1.0113436E-2,2.9607713E-3],"split_indices":[41,40,40,8,32,41,26,0,0,0,0,0,0,0,0],"split_type":[0,0,0,0,0,0,0,0,0,0,0,0,0,0,0],"sum_hessian":[1.8123349E2,6.285271E1,1.1838078E2,5.056938E1,1.2283331E1,2.0244234E1,9.813655E1,2.0694292E1,2.9875088E1,6.297426E0,5.9859047E0,1.0769664E1,9.47457E0,2.4469019E1,7.3667534E1],"tree_param":{"num_deleted":"0","num_feature":"46","num_nodes":"15","size_leaf_vector":"1"}},{"base_weights":[1.26827955E-2,-3.648819E-1,4.728498E-1,-6.291497E-1,5.559904E-1,5.651032E-1,-7.5097984E-1,-9.608884E-3,-2.772757E-3,9.39938E-3,-3.5403954E-4,3.667223E-3,1.2301667E-2,-1.2734594E-2,6.6656056E-3],"categories":[],"categories_nodes":[],"categories_segments":[],"categories_sizes":[],"default_left":[0,0,0,0,0,0,0,0,0,0,0,0,0,0,0],"id":5,"left_children":[1,3,5,7,9,11,13,-1,-1,-1,-1,-1,-1,-1,-1],"loss_changes":[3.2629066E1,2.545894E1,9.979273E0,9.146725E0,5.377922E0,1.0007166E1,5.5605135E0,0E0,0E0,0E0,0E0,0E0,0E0,0E0,0E0],"parents":[2147483647,0,0,1,1,2,2,3,3,4,4,5,5,6,6],"right_children":[2,4,6,8,10,12,14,-1,-1,-1,-1,-1,-1,-1,-1],"split_conditions":[7.8768976E2,5.7737345E-1,1.4630533E2,5.061197E-1,1.1E1,8.377742E0,9.4789417E2,-9.608884E-3,-2.772757E-3,9.39938E-3,-3.5403954E-4,3.667223E-3,1.2301667E-2,-1.2734594E-2,6.6656056E-3],"split_indices":[41,40,30,40,32,30,41,0,0,0,0,0,0,0,0],"split_type":[0,0,0,0,0,0,0,0,0,0,0,0,0,0,0],"sum_hessian":[1.858079E2,1.02178246E2,8.362967E1,7.9640236E1,2.2538008E1,7.8268005E1,5.361661E0,4.0102108E1,3.953813E1,1.3308467E1,9.22954E0,6.148049E1,1.6787516E1,3.9919446E0,1.3697166E0],"tree_param":{"num_deleted":"0","num_feature":"46","num_nodes":"15","size_leaf_vector":"1"}},{"base_weights":[2.8683256E-2,-3.626573E-1,5.02969E-1,-7.8447527E-1,2.015764E-1,7.1364385E-1,9.6894205E-2,-3.8148405E-3,-1.1549739E-2,-3.9456524E-3,8.369445E-3,4.8597818E-4,9.824495E-3,4.972418E-3,-8.6580515E-3],"categories":[],"categories_nodes":[],"categories_segments":[],"categories_sizes":[],"default_left":[0,0,0,0,0,0,0,0,0,0,0,0,0,0,0],"id":6,"left_children":[1,3,5,7,9,11,13,-1,-1,-1,-1,-1,-1,-1,-1],"loss_changes":[3.3605934E1,2.3779285E1,6.9313602E0,8.069195E0,1.6712725E1,9.555769E0,1.1649625E1,0E0,0E0,0E0,0E0,0E0,0E0,0E0,0E0],"parents":[2147483647,0,0,1,1,2,2,3,3,4,4,5,5,6,6],"right_children":[2,4,6,8,10,12,14,-1,-1,-1,-1,-1,-1,-1,-1],"split_conditions":[7.886408E2,5.302018E-1,1.502936E3,-1.0333333E-1,-3.3333334E-3,-9.7213455E-2,9.2349425E-2,-3.8148405E-3,-1.1549739E-2,-3.9456524E-3,8.369445E-3,4.8597818E-4,9.824495E-3,4.972418E-3,-8.6580515E-3],"split_indices":[41,40,25,4,4,2,2,0,0,0,0,0,0,0,0],"split_type":[0,0,0,0,0,0,0,0,0,0,0,0,0,0,0],"sum_hessian":[1.7907661E2,9.824692E1,8.08297E1,5.599502E1,4.22519E1,5.272048E1,2.8109217E1,2.7793598E1,2.8201422E1,2.1994394E1,2.0257505E1,1.5515279E1,3.7205204E1,2.0194595E1,7.9146204E0],"tree_param":{"num_deleted":"0","num_feature":"46","num_nodes":"15","size_leaf_vector":"1"}},{"base_weights":[5.9155613E-2,-3.5747856E-1,5.493356E-1,-9.275122E-1,3.347785E-2,6.62121E-1,-9.5438075E-1,-5.115832E-3,-1.2483755E-2,-2.8026344E-3,6.354297E-3,-6.262111E-3,7.1221376E-3,-1.4280324E-2,3.2920535E-3],"categories":[],"categories_nodes":[],"categories_segments":[],"categories_sizes":[],"default_left":[0,0,0,0,0,0,0,0,0,0,0,0,0,0,0],"id":7,"left_children":[1,3,5,7,9,11,13,-1,-1,-1,-1,-1,-1,-1,-1],"loss_changes":[3.71607E1,2.1970173E1,1.4802305E1,4.7108955E0,1.1388586E1,5.5000725E0,4.2633867E0,0E0,0E0,0E0,0E0,0E0,0E0,0E0,0E0],"parents":[2147483647,0,0,1,1,2,2,3,3,4,4,5,5,6,6],"right_children":[2,4,6,8,10,12,14,-1,-1,-1,-1,-1,-1,-1,-1],"split_conditions":[7.8768976E2,5.061197E-1,1.4630533E2,-5E-2,8.3333336E-2,-2.239687E0,9.027829E2,-5.115832E-3,-1.2483755E-2,-2.8026344E-3,6.354297E-3,-6.262111E-3,7.1221376E-3,-1.4280324E-2,3.2920535E-3],"split_indices":[41,40,30,3,3,27,41,0,0,0,0,0,0,0,0],"split_type":[0,0,0,0,0,0,0,0,0,0,0,0,0,0,0],"sum_hessian":[1.799974E2,9.744425E1,8.2553154E1,3.9084587E1,5.8359665E1,7.731394E1,5.2392116E0,1.8150644E1,2.0933943E1,3.871537E1,1.9644297E1,2.4631572E0,7.4850784E1,3.7448165E0,1.494395E0],"tree_param":{"num_deleted":"0","num_feature":"46","num_nodes":"15","size_leaf_vector":"1"}},{"base_weights":[5.1854122E-2,-3.2427058E-1,4.9742278E-1,-9.757609E-1,9.8543406E-2,5.84179E-1,-5.263365E-1,-7.440268E-3,-1.604395E-2,3.2537158E-3,-9.70113E-3,4.332075E-3,1.1877653E-2,-1.5196392E-2,4.912969E-3],"categories":[],"categories_nodes":[],"categories_segments":[],"categories_sizes":[],"default_left":[0,0,0,0,0,0,0,0,0,0,0,0,0,0,0],"id":8,"left_children":[1,3,5,7,9,11,13,-1,-1,-1,-1,-1,-1,-1,-1],"loss_changes":[3.0572805E1,2.736817E1,7.720072E0,4.496006E0,1.508959E1,6.539631E0,7.868866E0,0E0,0E0,0E0,0E0,0E0,0E0,0E0,0E0],"parents":[2147483647,0,0,1,1,2,2,3,3,4,4,5,5,6,6],"right_children":[2,4,6,8,10,12,14,-1,-1,-1,-1,-1,-1,-1,-1],"split_conditions":[7.8768976E2,5.061197E-1,1.3074603E2,7.6166487E-1,8.979992E-1,2.6356073E-2,9.027829E2,-7.440268E-3,-1.604395E-2,3.2537158E-3,-9.70113E-3,4.332075E-3,1.1877653E-2,-1.5196392E-2,4.912969E-3],"split_indices":[41,40,30,27,27,44,41,0,0,0,0,0,0,0,0],"split_type":[0,0,0,0,0,0,0,0,0,0,0,0,0,0,0],"sum_hessian":[1.804644E2,9.800564E1,8.245877E1,3.805738E1,5.9948257E1,7.641272E1,6.0460467E0,2.940233E1,8.655049E0,5.0025585E1,9.922672E0,6.2498154E1,1.3914568E1,2.8099618E0,3.236085E0],"tree_param":{"num_deleted":"0","num_feature":"46","num_nodes":"15","size_leaf_vector":"1"}},{"base_weights":[1.7488996E-3,-3.898051E-1,4.5177424E-1,-9.5371157E-1,4.5025326E-2,6.801651E-1,-4.6980254E-2,-5.623449E-3,-1.2547039E-2,-3.3558016E-3,4.5858244E-3,2.840851E-3,1.2212401E-2,-1.0871281E-2,2.225091E-3],"categories":[],"categories_nodes":[],"categories_segments":[],"categories_sizes":[],"default_left":[0,0,0,0,0,0,0,0,0,0,0,0,0,0,0],"id":9,"left_children":[1,3,5,7,9,11,13,-1,-1,-1,-1,-1,-1,-1,-1],"loss_changes":[3.2222828E1,2.4021029E1,9.723387E0,4.3150215E0,8.9948845E0,1.2173201E1,7.994695E0,0E0,0E0,0E0,0E0,0E0,0E0,0E0,0E0],"parents":[2147483647,0,0,1,1,2,2,3,3,4,4,5,5,6,6],"right_children":[2,4,6,8,10,12,14,-1,-1,-1,-1,-1,-1,-1,-1],"split_conditions":[7.886408E2,5.19137E-1,1.5036102E3,-3.3333335E-2,1.5545986E1,1.4946179E3,1.4631997E3,-5.623449E-3,-1.2547039E-2,-3.3558016E-3,4.5858244E-3,2.840851E-3,1.2212401E-2,-1.0871281E-2,2.225091E-3],"split_indices":[41,40,25,3,45,25,39,0,0,0,0,0,0,0,0],"split_type":[0,0,0,0,0,0,0,0,0,0,0,0,0,0,0],"sum_hessian":[1.8086746E2,9.678845E1,8.407902E1,4.1620255E1,5.5168198E1,5.7420948E1,2.6658068E1,1.9340715E1,2.227954E1,2.8826815E1,2.6341383E1,3.4033005E1,2.3387941E1,4.8612137E0,2.1796854E1],"tree_param":{"num_deleted":"0","num_feature":"46","num_nodes":"15","size_leaf_vector":"1"}},{"base_weights":[-4.1371685E-2,-3.9143974E-1,4.8366037E-1,-6.446003E-1,6.17812E-1,2.9812694E-1,8.723917E-1,-9.408355E-3,-3.22948E-3,1.0855668E-2,-3.27634E-3,7.954116E-3,6.2705897E-4,-4.0435507E-3,1.0581727E-2],"categories":[],"categories_nodes":[],"categories_segments":[],"categories_sizes":[],"default_left":[0,0,0,0,0,0,0,0,0,0,0,0,0,0,0],"id":10,"left_children":[1,3,5,7,9,11,13,-1,-1,-1,-1,-1,-1,-1,-1],"loss_changes":[3.4827656E1,2.9429102E1,5.2095013E0,8.398178E0,1.0658086E1,6.137914E0,6.116377E0,0E0,0E0,0E0,0E0,0E0,0E0,0E0,0E0],"parents":[2147483647,0,0,1,1,2,2,3,3,4,4,5,5,6,6],"right_children":[2,4,6,8,10,12,14,-1,-1,-1,-1,-1,-1,-1,-1],"split_conditions":[8.0022375E2,5.873571E-1,5.58899E-1,5.061197E-1,1.1E1,9.775248E-1,1.429015E3,-9.408355E-3,-3.22948E-3,1.0855668E-2,-3.27634E-3,7.954116E-3,6.2705897E-4,-4.0435507E-3,1.0581727E-2],"split_indices":[41,40,40,40,32,43,39,0,0,0,0,0,0,0,0],"split_type":[0,0,0,0,0,0,0,0,0,0,0,0,0,0,0],"sum_hessian":[1.8745978E2,1.1262253E2,7.483725E1,9.0326385E1,2.2296144E1,5.18549E1,2.2982353E1,4.6018894E1,4.4307487E1,1.4817199E1,7.4789453E0,1.5896892E1,3.5958008E1,2.7699368E0,2.0212416E1],"tree_param":{"num_deleted":"0","num_feature":"46","num_nodes":"15","size_leaf_vector":"1"}},{"base_weights":[-1.3254402E-2,-5.2467567E-1,2.59289E-1,-9.989925E-1,-6.7354396E-2,8.599938E-3,7.136212E-1,-1.4770157E-2,-6.444519E-3,3.467397E-3,-7.263823E-3,-2.4230103E-3,6.2134396E-3,-6.4387717E-3,8.955747E-3],"categories":[],"categories_nodes":[],"categories_segments":[],"categories_sizes":[],"default_left":[0,0,0,0,0,0,0,0,0,0,0,0,0,0,0],"id":11,"left_children":[1,3,5,7,9,11,13,-1,-1,-1,-1,-1,-1,-1,-1],"loss_changes":[2.491968E1,1.3412941E1,1.3281272E1,4.20595E0,9.178882E0,1.1864207E1,1.0819868E1,0E0,0E0,0E0,0E0,0E0,0E0,0E0,0E0],"parents":[2147483647,0,0,1,1,2,2,3,3,4,4,5,5,6,6],"right_children":[2,4,6,8,10,12,14,-1,-1,-1,-1,-1,-1,-1,-1],"split_conditions":[7.275009E2,5.202306E-1,5.517597E-1,1E1,1.5236193E3,9.253363E2,5E-1,-1.4770157E-2,-6.444519E-3,3.467397E-3,-7.263823E-3,-2.4230103E-3,6.2134396E-3,-6.4387717E-3,8.955747E-3],"split_indices":[41,40,40,32,38,41,20,0,0,0,0,0,0,0,0],"split_type":[0,0,0,0,0,0,0,0,0,0,0,0,0,0,0],"sum_hessian":[1.7680771E2,6.1145157E1,1.1566255E2,2.9433434E1,3.1711721E1,7.519228E1,4.0470276E1,1.1185776E1,1.8247658E1,1.9765877E1,1.1945845E1,5.37768E1,2.141548E1,4.483274E0,3.5987E1],"tree_param":{"num_deleted":"0","num_feature":"46","num_nodes":"15","size_leaf_vector":"1"}},{"base_weights":[-9.679744E-3,-4.0987486E-1,4.500505E-1,-6.190908E-1,5.711436E-1,-1.8920715E-1,5.7085216E-1,-1.50520215E-2,-4.641255E-3,1.2423676E-2,-3.8866538E-3,-9.79735E-3,4.9670376E-3,1.1505945E-2,3.3855326E-3],"categories":[],"categories_nodes":[],"categories_segments":[],"categories_sizes":[],"default_left":[0,0,0,0,0,0,0,0,0,0,0,0,0,0,0],"id":12,"left_children":[1,3,5,7,9,11,13,-1,-1,-1,-1,-1,-1,-1,-1],"loss_changes":[3.452597E1,2.0942364E1,6.852993E0,1.0720692E1,1.2177828E1,8.421244E0,9.537319E0,0E0,0E0,0E0,0E0,0E0,0E0,0E0,0E0],"parents":[2147483647,0,0,1,1,2,2,3,3,4,4,5,5,6,6],"right_children":[2,4,6,8,10,12,14,-1,-1,-1,-1,-1,-1,-1,-1],"split_conditions":[7.8768976E2,5.873571E-1,4.6085063E-1,5.8968866E2,1.1E1,1.4980916E3,1.4913674E3,-1.50520215E-2,-4.641255E-3,1.2423676E-2,-3.8866538E-3,-9.79735E-3,4.9670376E-3,1.1505945E-2,3.3855326E-3],"split_indices":[41,40,40,41,32,26,26,0,0,0,0,0,0,0,0],"split_type":[0,0,0,0,0,0,0,0,0,0,0,0,0,0,0],"sum_hessian":[1.856571E2,9.931332E1,8.634378E1,8.216039E1,1.7152924E1,1.3633237E1,7.271055E1,1.0932693E1,7.12277E1,9.92069E0,7.2322345E0,6.1346E0,7.4986367E0,1.9669304E1,5.304124E1],"tree_param":{"num_deleted":"0","num_feature":"46","num_nodes":"15","size_leaf_vector":"1"}},{"base_weights":[4.7602482E-2,-3.1293464E-1,4.7349587E-1,-7.6145005E-1,1.4692671E-2,5.498568E-1,-2.815666E-1,2.910509E-3,-9.312161E-3,-4.6542813E-3,4.6525714E-3,1.3923997E-3,6.9138603E-3,7.3628956E-3,-9.573738E-3],"categories":[],"categories_nodes":[],"categories_segments":[],"categories_sizes":[],"default_left":[0,0,0,0,0,0,0,0,0,0,0,0,0,0,0],"id":13,"left_children":[1,3,5,7,9,11,13,-1,-1,-1,-1,-1,-1,-1,-1],"loss_changes":[2.770875E1,1.4383187E1,4.922159E0,7.651272E0,1.2655296E1,4.28722E0,6.3835487E0,0E0,0E0,0E0,0E0,0E0,0E0,0E0,0E0],"parents":[2147483647,0,0,1,1,2,2,3,3,4,4,5,5,6,6],"right_children":[2,4,6,8,10,12,14,-1,-1,-1,-1,-1,-1,-1,-1],"split_conditions":[7.8768976E2,5.19137E-1,1.3074603E2,1.4709631E3,1.507242E1,-2.6639261E0,3E0,2.910509E-3,-9.312161E-3,-4.6542813E-3,4.6525714E-3,1.3923997E-3,6.9138603E-3,7.3628956E-3,-9.573738E-3],"split_indices":[41,40,30,38,45,8,32,0,0,0,0,0,0,0,0],"split_type":[0,0,0,0,0,0,0,0,0,0,0,0,0,0,0],"sum_hessian":[1.7848882E2,9.68047E1,8.168412E1,4.0304497E1,5.6500206E1,7.442877E1,7.2553496E0,5.49884E0,3.4805656E1,2.7336975E1,2.9163229E1,1.9586517E1,5.4842255E1,2.8593256E0,4.3960238E0],"tree_param":{"num_deleted":"0","num_feature":"46","num_nodes":"15","size_leaf_vector":"1"}},{"base_weights":[-3.578768E-2,-4.0374526E-1,4.3696722E-1,-6.5000063E-1,5.9811515E-1,1.866049E-1,9.128428E-1,2.746742E-3,-7.536326E-3,7.7435514E-3,-1.1774069E-2,3.0857273E-3,-1.0443515E-2,-3.7333264E-3,1.0849152E-2],"categories":[],"categories_nodes":[],"categories_segments":[],"categories_sizes":[],"default_left":[0,0,0,0,0,0,0,0,0,0,0,0,0,0,0],"id":14,"left_children":[1,3,5,7,9,11,13,-1,-1,-1,-1,-1,-1,-1,-1],"loss_changes":[3.1303415E1,2.5341751E1,9.217612E0,8.032658E0,7.3190975E0,8.262926E0,6.3600407E0,0E0,0E0,0E0,0E0,0E0,0E0,0E0,0E0],"parents":[2147483647,0,0,1,1,2,2,3,3,4,4,5,5,6,6],"right_children":[2,4,6,8,10,12,14,-1,-1,-1,-1,-1,-1,-1,-1],"split_conditions":[7.8768976E2,5.873571E-1,9.4999634E2,-7.7155205E1,1.733136E0,1.4088242E2,4.440022E-1,2.746742E-3,-7.536326E-3,7.7435514E-3,-1.1774069E-2,3.0857273E-3,-1.0443515E-2,-3.7333264E-3,1.0849152E-2],"split_indices":[41,40,41,1,27,30,40,0,0,0,0,0,0,0,0],"split_type":[0,0,0,0,0,0,0,0,0,0,0,0,0,0,0],"sum_hessian":[1.7793831E2,1.0014151E2,7.77968E1,8.066534E1,1.947618E1,5.1889442E1,2.590736E1,7.963059E0,7.270228E1,1.8230476E1,1.2457025E0,4.7893314E1,3.9961283E0,2.9190364E0,2.2988323E1],"tree_param":{"num_deleted":"0","num_feature":"46","num_nodes":"15","size_leaf_vector":"1"}},{"base_weights":[4.6038185E-3,-2.435334E-1,6.979983E-1,-5.368898E-1,2.7770326E-1,1.1969478E0,4.084657E-1,6.4091533E-3,-6.3243113E-3,-1.0890337E-2,4.553853E-3,-3.1197788E-3,1.33321155E-2,-1.08620105E-2,5.9677903E-3],"categories":[],"categories_nodes":[],"categories_segments":[],"categories_sizes":[],"default_left":[0,0,0,0,0,0,0,0,0,0,0,0,0,0,0],"id":15,"left_children":[1,3,5,7,9,11,13,-1,-1,-1,-1,-1,-1,-1,-1],"loss_changes":[3.165166E1,2.0866926E1,6.5146637E0,1.019972E1,1.2505406E1,3.9697437E0,9.710373E0,0E0,0E0,0E0,0E0,0E0,0E0,0E0,0E0],"parents":[2147483647,0,0,1,1,2,2,3,3,4,4,5,5,6,6],"right_children":[2,4,6,8,10,12,14,-1,-1,-1,-1,-1,-1,-1,-1],"split_conditions":[8.4306976E2,5.517597E-1,1.4927112E3,9.130484E-1,5E-1,-7.25662E1,1.4954983E3,6.4091533E-3,-6.3243113E-3,-1.0890337E-2,4.553853E-3,-3.1197788E-3,1.33321155E-2,-1.08620105E-2,5.9677903E-3],"split_indices":[41,40,26,43,20,30,26,0,0,0,0,0,0,0,0],"split_type":[0,0,0,0,0,0,0,0,0,0,0,0,0,0,0],"sum_hessian":[1.8197237E2,1.3449202E2,4.7480354E1,8.603869E1,4.845333E1,1.6284065E1,3.119629E1,6.027331E0,8.001136E1,4.9843564E0,4.346897E1,1.2419319E0,1.5042133E1,2.9571292E0,2.823916E1],"tree_param":{"num_deleted":"0","num_feature":"46","num_nodes":"15","size_leaf_vector":"1"}},{"base_weights":[5.172398E-3,-4.8205063E-1,2.548484E-1,-9.867774E-1,-8.6263105E-2,-4.8051798E-1,3.895569E-1,6.3375873E-3,-1.08801555E-2,-6.6305427E-3,3.9293356E-3,9.908451E-3,-7.2834617E-3,6.582689E-3,-5.820582E-5],"categories":[],"categories_nodes":[],"categories_segments":[],"categories_sizes":[],"default_left":[0,0,0,0,0,0,0,0,0,0,0,0,0,0,0],"id":16,"left_children":[1,3,5,7,9,11,13,-1,-1,-1,-1,-1,-1,-1,-1],"loss_changes":[2.1687073E1,1.1982173E1,1.18624115E1,5.029602E0,9.921552E0,7.538825E0,1.0645596E1,0E0,0E0,0E0,0E0,0E0,0E0,0E0,0E0],"parents":[2147483647,0,0,1,1,2,2,3,3,4,4,5,5,6,6],"right_children":[2,4,6,8,10,12,14,-1,-1,-1,-1,-1,-1,-1,-1],"split_conditions":[7.275009E2,5.19137E-1,4.6085063E-1,-1.1626644E2,1.320097E1,-9.6705145E-1,1.502936E3,6.3375873E-3,-1.08801555E-2,-6.6305427E-3,3.9293356E-3,9.908451E-3,-7.2834617E-3,6.582689E-3,-5.820582E-5],"split_indices":[41,40,40,30,45,27,25,0,0,0,0,0,0,0,0],"split_type":[0,0,0,0,0,0,0,0,0,0,0,0,0,0,0],"sum_hessian":[1.7626753E2,5.940759E1,1.1685994E2,2.5454113E1,3.3953476E1,1.7695284E1,9.916466E1,1.1873829E0,2.426673E1,1.5233637E1,1.871984E1,2.1186554E0,1.557663E1,5.8643574E1,4.0521084E1],"tree_param":{"num_deleted":"0","num_feature":"46","num_nodes":"15","size_leaf_vector":"1"}},{"base_weights":[-5.245114E-2,-5.5459464E-1,2.1800388E-1,-6.963377E-1,5.9530264E-1,-9.6822664E-2,7.527554E-1,-1.1280374E-4,-1.0228166E-2,-5.8072973E-3,1.1665473E-2,-4.002998E-3,5.9838137E-3,-1.7839773E-3,8.973592E-3],"categories":[],"categories_nodes":[],"categories_segments":[],"categories_sizes":[],"default_left":[0,0,0,0,0,0,0,0,0,0,0,0,0,0,0],"id":17,"left_children":[1,3,5,7,9,11,13,-1,-1,-1,-1,-1,-1,-1,-1],"loss_changes":[2.461862E1,1.0752636E1,1.9931591E1,1.272086E1,5.7157016E0,1.6090899E1,6.0611134E0,0E0,0E0,0E0,0E0,0E0,0E0,0E0,0E0],"parents":[2147483647,0,0,1,1,2,2,3,3,4,4,5,5,6,6],"right_children":[2,4,6,8,10,12,14,-1,-1,-1,-1,-1,-1,-1,-1],"split_conditions":[7.275009E2,3.6666667E-1,5.517597E-1,-4.5063887E0,-1.2335653E0,9.1022534E2,5E-1,-1.1280374E-4,-1.0228166E-2,-5.8072973E-3,1.1665473E-2,-4.002998E-3,5.9838137E-3,-1.7839773E-3,8.973592E-3],"split_indices":[41,4,40,8,5,41,20,0,0,0,0,0,0,0,0],"split_type":[0,0,0,0,0,0,0,0,0,0,0,0,0,0,0],"sum_hessian":[1.7938593E2,6.2427876E1,1.1695805E2,5.592827E1,6.4996085E0,7.41326E1,4.282546E1,1.8385067E1,3.75432E1,2.119516E0,4.3800926E0,5.1900635E1,2.2231964E1,5.7252073E0,3.710025E1],"tree_param":{"num_deleted":"0","num_feature":"46","num_nodes":"15","size_leaf_vector":"1"}},{"base_weights":[-1.6990507E-2,-3.9377025E-1,4.2002153E-1,-8.509345E-1,2.5474135E-2,9.452459E-1,2.1187982E-1,-3.8573798E-3,-1.1569366E-2,2.6757198E-3,-9.41714E-3,-1.1218762E-2,1.0940366E-2,-9.721372E-3,3.659817E-3],"categories":[],"categories_nodes":[],"categories_segments":[],"categories_sizes":[],"default_left":[0,0,0,0,0,0,0,0,0,0,0,0,0,0,0],"id":18,"left_children":[1,3,5,7,9,11,13,-1,-1,-1,-1,-1,-1,-1,-1],"loss_changes":[3.0110956E1,1.8839104E1,9.057747E0,6.243496E0,1.2471233E1,8.531069E0,1.1657306E1,0E0,0E0,0E0,0E0,0E0,0E0,0E0,0E0],"parents":[2147483647,0,0,1,1,2,2,3,3,4,4,5,5,6,6],"right_children":[2,4,6,8,10,12,14,-1,-1,-1,-1,-1,-1,-1,-1],"split_conditions":[7.8768976E2,5.202306E-1,1.4913674E3,-1E-1,9.636809E-1,1.4562708E3,1.4951476E3,-3.8573798E-3,-1.1569366E-2,2.6757198E-3,-9.41714E-3,-1.1218762E-2,1.0940366E-2,-9.721372E-3,3.659817E-3],"split_indices":[41,40,26,3,27,25,26,0,0,0,0,0,0,0,0],"split_type":[0,0,0,0,0,0,0,0,0,0,0,0,0,0,0],"sum_hessian":[1.8086603E2,9.71795E1,8.368653E1,4.599483E1,5.1184666E1,2.2746555E1,6.0939976E1,1.914715E1,2.684768E1,4.1516083E1,9.668583E0,1.0882161E0,2.165834E1,6.406702E0,5.453327E1],"tree_param":{"num_deleted":"0","num_feature":"46","num_nodes":"15","size_leaf_vector":"1"}},{"base_weights":[-2.935077E-2,-2.6522964E-1,5.806666E-1,-7.010783E-1,8.3164364E-2,1.2141308E0,2.8018355E-1,-1.1279598E-3,-1.0266271E-2,-3.760813E-3,4.7147954E-3,2.1261358E-4,1.4587658E-2,-1.22135645E-2,5.503659E-3],"categories":[],"categories_nodes":[],"categories_segments":[],"categories_sizes":[],"default_left":[0,0,0,0,0,0,0,0,0,0,0,0,0,0,0],"id":19,"left_children":[1,3,5,7,9,11,13,-1,-1,-1,-1,-1,-1,-1,-1],"loss_changes":[2.5740665E1,1.9634682E1,9.157854E0,1.0873034E1,1.3114081E1,4.566345E0,1.49300585E1,0E0,0E0,0E0,0E0,0E0,0E0,0E0,0E0],"parents":[2147483647,0,0,1,1,2,2,3,3,4,4,5,5,6,6],"right_children":[2,4,6,8,10,12,14,-1,-1,-1,-1,-1,-1,-1,-1],"split_conditions":[8.3301404E2,5.202306E-1,1.4927112E3,-1.0666667E-1,1.507242E1,-5.669697E-1,1.4954983E3,-1.1279598E-3,-1.0266271E-2,-3.760813E-3,4.7147954E-3,2.1261358E-4,1.4587658E-2,-1.22135645E-2,5.503659E-3],"split_indices":[41,40,26,3,45,27,26,0,0,0,0,0,0,0,0],"split_type":[0,0,0,0,0,0,0,0,0,0,0,0,0,0,0],"sum_hessian":[1.7682066E2,1.2792168E2,4.8898987E1,5.6378548E1,7.154313E1,1.4754228E1,3.414476E1,2.0564323E1,3.5814224E1,3.2792355E1,3.8750774E1,2.6958518E0,1.2058376E1,4.6701093E0,2.9474651E1],"tree_param":{"num_deleted":"0","num_feature":"46","num_nodes":"15","size_leaf_vector":"1"}},{"base_weights":[1.4780364E-2,-3.828975E-1,4.7477242E-1,-7.2358346E-1,1.5834638E-1,2.9930452E-1,8.2885844E-1,-5.3953016E-3,-1.3042282E-2,-4.8265224E-3,6.060923E-3,4.0826863E-3,-8.325833E-3,-2.361407E-3,1.1798467E-2],"categories":[],"categories_nodes":[],"categories_segments":[],"categories_sizes":[],"default_left":[0,0,0,0,0,0,0,0,0,0,0,0,0,0,0],"id":20,"left_children":[1,3,5,7,9,11,13,-1,-1,-1,-1,-1,-1,-1,-1],"loss_changes":[3.4105377E1,1.855657E1,5.122072E0,5.875065E0,1.1616425E1,7.660929E0,1.07729E1,0E0,0E0,0E0,0E0,0E0,0E0,0E0,0E0],"parents":[2147483647,0,0,1,1,2,2,3,3,4,4,5,5,6,6],"right_children":[2,4,6,8,10,12,14,-1,-1,-1,-1,-1,-1,-1,-1],"split_conditions":[7.8768976E2,5.3553146E-1,5.58899E-1,1E0,-7.666667E-2,9.155319E1,-1.9405478E0,-5.3953016E-3,-1.3042282E-2,-4.8265224E-3,6.060923E-3,4.0826863E-3,-8.325833E-3,-2.361407E-3,1.1798467E-2],"split_indices":[41,40,40,33,4,30,8,0,0,0,0,0,0,0,0],"split_type":[0,0,0,0,0,0,0,0,0,0,0,0,0,0,0],"sum_hessian":[1.844471E2,9.901396E1,8.5433136E1,6.0558514E1,3.8455444E1,5.835868E1,2.7074455E1,4.7447693E1,1.311082E1,1.578273E1,2.2672714E1,5.381714E1,4.541543E0,6.792196E0,2.028226E1],"tree_param":{"num_deleted":"0","num_feature":"46","num_nodes":"15","size_leaf_vector":"1"}},{"base_weights":[-1.3642072E-2,-3.0098793E-1,4.4544113E-1,-6.5286297E-1,2.3119442E-1,6.8836156E-3,8.0820864E-1,-9.969307E-3,-2.556277E-3,-1.4120141E-3,7.294457E-3,9.459148E-3,-2.517746E-3,-3.0337274E-3,9.594571E-3],"categories":[],"categories_nodes":[],"categories_segments":[],"categories_sizes":[],"default_left":[0,0,0,0,0,0,0,0,0,0,0,0,0,0,0],"id":21,"left_children":[1,3,5,7,9,11,13,-1,-1,-1,-1,-1,-1,-1,-1],"loss_changes":[2.4308716E1,2.1369156E1,1.1282267E1,9.103386E0,8.608014E0,8.284692E0,6.8180065E0,0E0,0E0,0E0,0E0,0E0,0E0,0E0,0E0],"parents":[2147483647,0,0,1,1,2,2,3,3,4,4,5,5,6,6],"right_children":[2,4,6,8,10,12,14,-1,-1,-1,-1,-1,-1,-1,-1],"split_conditions":[5.3553146E-1,7.9908813E2,5E-2,4.9165916E-1,1.5152548E3,-5.5E-1,-5.8449887E-2,-9.969307E-3,-2.556277E-3,-1.4120141E-3,7.294457E-3,9.459148E-3,-2.517746E-3,-3.0337274E-3,9.594571E-3],"split_indices":[40,41,3,40,39,3,42,0,0,0,0,0,0,0,0],"split_type":[0,0,0,0,0,0,0,0,0,0,0,0,0,0,0],"sum_hessian":[1.8225833E2,1.1230784E2,6.995049E1,6.7470245E1,4.4837593E1,3.212856E1,3.7821934E1,3.5345688E1,3.2124554E1,2.6069618E1,1.8767975E1,6.3648047E0,2.5763756E1,4.40945E0,3.3412487E1],"tree_param":{"num_deleted":"0","num_feature":"46","num_nodes":"15","size_leaf_vector":"1"}},{"base_weights":[2.951025E-2,-2.2750041E-1,6.2546825E-1,-5.796212E-1,2.0122178E-1,-1.4009309E-1,8.544076E-1,1.9766858E-3,-7.1370318E-3,7.0652985E-3,-7.0464733E-4,-4.4879927E-3,1.1662033E-2,1.1538778E-2,1.7850873E-3],"categories":[],"categories_nodes":[],"categories_segments":[],"categories_sizes":[],"default_left":[0,0,0,0,0,0,0,0,0,0,0,0,0,0,0],"id":22,"left_children":[1,3,5,7,9,11,13,-1,-1,-1,-1,-1,-1,-1,-1],"loss_changes":[2.7829493E1,1.9293455E1,9.7126465E0,7.4369335E0,8.016016E0,5.950906E0,8.35083E0,0E0,0E0,0E0,0E0,0E0,0E0,0E0,0E0],"parents":[2147483647,0,0,1,1,2,2,3,3,4,4,5,5,6,6],"right_children":[2,4,6,8,10,12,14,-1,-1,-1,-1,-1,-1,-1,-1],"split_conditions":[5.6133527E-1,7.8768976E2,-6.093802E0,-4.2240843E-2,1.3493752E0,1.5739689E3,1.1E1,1.9766858E-3,-7.1370318E-3,7.0652985E-3,-7.0464733E-4,-4.4879927E-3,1.1662033E-2,1.1538778E-2,1.7850873E-3],"split_indices":[40,41,45,31,45,38,32,0,0,0,0,0,0,0,0],"split_type":[0,0,0,0,0,0,0,0,0,0,0,0,0,0,0],"sum_hessian":[1.7976411E2,1.260308E2,5.373332E1,6.900401E1,5.7026787E1,1.2459033E1,4.1274284E1,1.0082173E1,5.892184E1,1.9380527E1,3.764626E1,1.0608458E1,1.850575E0,2.811168E1,1.3162604E1],"tree_param":{"num_deleted":"0","num_feature":"46","num_nodes":"15","size_leaf_vector":"1"}},{"base_weights":[-2.8948588E-2,-4.992474E-1,2.290967E-1,-9.1744006E-1,-1.01148404E-1,1.5803641E-3,6.19125E-1,-1.2665069E-2,-4.708051E-3,-7.081074E-3,3.6035287E-3,-2.6875949E-3,5.758544E-3,-6.074965E-3,7.883032E-3],"categories":[],"categories_nodes":[],"categories_segments":[],"categories_sizes":[],"default_left":[0,0,0,0,0,0,0,0,0,0,0,0,0,0,0],"id":23,"left_children":[1,3,5,7,9,11,13,-1,-1,-1,-1,-1,-1,-1,-1],"loss_changes":[2.2758379E1,1.0965075E1,1.075112E1,4.434635E0,1.0101628E1,1.21911E1,9.742043E0,0E0,0E0,0E0,0E0,0E0,0E0,0E0,0E0],"parents":[2147483647,0,0,1,1,2,2,3,3,4,4,5,5,6,6],"right_children":[2,4,6,8,10,12,14,-1,-1,-1,-1,-1,-1,-1,-1],"split_conditions":[7.275009E2,5.202306E-1,5.517597E-1,6.570839E2,1.320097E1,9.1022534E2,5E-1,-1.2665069E-2,-4.708051E-3,-7.081074E-3,3.6035287E-3,-2.6875949E-3,5.758544E-3,-6.074965E-3,7.883032E-3],"split_indices":[41,40,40,41,45,41,20,0,0,0,0,0,0,0,0],"split_type":[0,0,0,0,0,0,0,0,0,0,0,0,0,0,0],"sum_hessian":[1.8558786E2,6.542082E1,1.2016704E2,3.1269E1,3.415182E1,7.652914E1,4.36379E1,1.6521208E1,1.4747792E1,1.452043E1,1.963139E1,5.2395786E1,2.4133347E1,4.9751134E0,3.866279E1],"tree_param":{"num_deleted":"0","num_feature":"46","num_nodes":"15","size_leaf_vector":"1"}},{"base_weights":[-4.371935E-2,-3.9773238E-1,3.5226405E-1,-1.0446231E0,-6.81897E-2,4.3174037E-1,-8.8704205E-1,2.280398E-3,-1.1224116E-2,-5.5459524E-3,3.018733E-3,3.2732892E-3,1.3014806E-2,5.163764E-3,-1.36443805E-2],"categories":[],"categories_nodes":[],"categories_segments":[],"categories_sizes":[],"default_left":[0,0,0,0,0,0,0,0,0,0,0,0,0,0,0],"id":24,"left_children":[1,3,5,7,9,11,13,-1,-1,-1,-1,-1,-1,-1,-1],"loss_changes":[2.5397398E1,2.0308098E1,8.811786E0,3.4431152E0,1.176012E1,6.937937E0,4.3791633E0,0E0,0E0,0E0,0E0,0E0,0E0,0E0,0E0],"parents":[2147483647,0,0,1,1,2,2,3,3,4,4,5,5,6,6],"right_children":[2,4,6,8,10,12,14,-1,-1,-1,-1,-1,-1,-1,-1],"split_conditions":[7.805779E2,4.9165916E-1,1.4630533E2,-8.073331E-2,6.725504E2,1.0427948E-2,-7.06526E-1,2.280398E-3,-1.1224116E-2,-5.5459524E-3,3.018733E-3,3.2732892E-3,1.3014806E-2,5.163764E-3,-1.36443805E-2],"split_indices":[41,40,30,44,41,42,27,0,0,0,0,0,0,0,0],"split_type":[0,0,0,0,0,0,0,0,0,0,0,0,0,0,0],"sum_hessian":[1.7917332E2,9.459767E1,8.457566E1,3.1194029E1,6.3403645E1,8.009107E1,4.4845877E0,1.685574E0,2.9508453E1,2.7179995E1,3.6223648E1,7.273559E1,7.3554807E0,1.117571E0,3.3670166E0],"tree_param":{"num_deleted":"0","num_feature":"46","num_nodes":"15","size_leaf_vector":"1"}},{"base_weights":[-2.7952973E-2,-3.933258E-1,4.071227E-1,3.4253538E-2,-7.081142E-1,5.046792E-1,-1.0141168E0,-1.0305075E-2,2.0321552E-3,6.9084386E-3,-8.713128E-3,2.5034226E-3,8.3135655E-3,1.1425746E-3,-1.5347619E-2],"categories":[],"categories_nodes":[],"categories_segments":[],"categories_sizes":[],"default_left":[0,0,0,0,0,0,0,0,0,0,0,0,0,0,0],"id":25,"left_children":[1,3,5,7,9,11,13,-1,-1,-1,-1,-1,-1,-1,-1],"loss_changes":[2.9299944E1,1.3503447E1,1.2181378E1,8.020595E0,1.3781309E1,6.391121E0,3.5465922E0,0E0,0E0,0E0,0E0,0E0,0E0,0E0,0E0],"parents":[2147483647,0,0,1,1,2,2,3,3,4,4,5,5,6,6],"right_children":[2,4,6,8,10,12,14,-1,-1,-1,-1,-1,-1,-1,-1],"split_conditions":[7.8768976E2,-2.2119043E0,1.4630533E2,-4.7535054E-2,1.4267366E3,1.4666666E-1,-2.4689662E-1,-1.0305075E-2,2.0321552E-3,6.9084386E-3,-8.713128E-3,2.5034226E-3,8.3135655E-3,1.1425746E-3,-1.5347619E-2],"split_indices":[41,8,30,44,39,3,27,0,0,0,0,0,0,0,0],"split_type":[0,0,0,0,0,0,0,0,0,0,0,0,0,0,0],"sum_hessian":[1.8230981E2,9.9144806E1,8.3165E1,4.2418564E1,5.6726246E1,7.842656E1,4.738442E0,5.1110163E0,3.7307545E1,5.5884266E0,5.1137817E1,4.508873E1,3.333783E1,1.742511E0,2.995931E0],"tree_param":{"num_deleted":"0","num_feature":"46","num_nodes":"15","size_leaf_vector":"1"}},{"base_weights":[9.778373E-3,-3.963641E-1,4.9999887E-1,-5.856733E-1,4.2207012E-1,1.4426443E-1,7.508984E-1,-3.7002184E-3,-1.401559E-2,8.458496E-3,-3.5104733E-3,-5.8258823E-3,4.6375575E-3,-1.1879028E-2,8.268963E-3],"categories":[],"categories_nodes":[],"categories_segments":[],"categories_sizes":[],"default_left":[0,0,0,0,0,0,0,0,0,0,0,0,0,0,0],"id":26,"left_children":[1,3,5,7,9,11,13,-1,-1,-1,-1,-1,-1,-1,-1],"loss_changes":[3.595183E1,1.5550074E1,7.1933823E0,1.3668535E1,6.5662413E0,8.415E0,8.015825E0,0E0,0E0,0E0,0E0,0E0,0E0,0E0,0E0],"parents":[2147483647,0,0,1,1,2,2,3,3,4,4,5,5,6,6],"right_children":[2,4,6,8,10,12,14,-1,-1,-1,-1,-1,-1,-1,-1],"split_conditions":[7.8768976E2,5.873571E-1,8.4306976E2,8.087657E-1,1.1E1,1.4922903E3,-2.239687E0,-3.7002184E-3,-1.401559E-2,8.458496E-3,-3.5104733E-3,-5.8258823E-3,4.6375575E-3,-1.1879028E-2,8.268963E-3],"split_indices":[41,40,41,27,32,25,27,0,0,0,0,0,0,0,0],"split_type":[0,0,0,0,0,0,0,0,0,0,0,0,0,0,0],"sum_hessian":[1.785769E2,9.776833E1,8.080857E1,7.963309E1,1.813525E1,3.407326E1,4.673531E1,6.413478E1,1.5498304E1,1.1653423E1,6.4818277E0,1.0152506E1,2.3920753E1,1.2109798E0,4.552433E1],"tree_param":{"num_deleted":"0","num_feature":"46","num_nodes":"15","size_leaf_vector":"1"}},{"base_weights":[4.7277447E-2,-2.7514717E-1,4.7210985E-1,-7.6483506E-1,1.1819052E-1,2.4652964E-1,8.260331E-1,-5.512636E-3,-1.3190424E-2,-3.9674537E-3,5.7683825E-3,-1.3317585E-2,3.7032377E-3,-2.6441258E-4,9.535557E-3],"categories":[],"categories_nodes":[],"categories_segments":[],"categories_sizes":[],"default_left":[0,0,0,0,0,0,0,0,0,0,0,0,0,0,0],"id":27,"left_children":[1,3,5,7,9,11,13,-1,-1,-1,-1,-1,-1,-1,-1],"loss_changes":[2.5530506E1,2.0518387E1,6.2137814E0,4.8804607E0,1.4323965E1,1.0363256E1,3.380413E0,0E0,0E0,0E0,0E0,0E0,0E0,0E0,0E0],"parents":[2147483647,0,0,1,1,2,2,3,3,4,4,5,5,6,6],"right_children":[2,4,6,8,10,12,14,-1,-1,-1,-1,-1,-1,-1,-1],"split_conditions":[7.9926434E2,5.202306E-1,9.4999634E2,7.274891E-1,1.507242E1,1.4340026E3,4.554507E-1,-5.512636E-3,-1.3190424E-2,-3.9674537E-3,5.7683825E-3,-1.3317585E-2,3.7032377E-3,-2.6441258E-4,9.535557E-3],"split_indices":[41,40,41,5,45,39,40,0,0,0,0,0,0,0,0],"split_type":[0,0,0,0,0,0,0,0,0,0,0,0,0,0,0],"sum_hessian":[1.8443779E2,1.0505734E2,7.938045E1,4.637636E1,5.8680977E1,4.9516594E1,2.9863853E1,3.4915775E1,1.1460587E1,2.7707737E1,3.097324E1,2.891693E0,4.66249E1,3.989192E0,2.5874662E1],"tree_param":{"num_deleted":"0","num_feature":"46","num_nodes":"15","size_leaf_vector":"1"}},{"base_weights":[3.8864794E-3,-3.2011056E-1,4.838868E-1,-8.2902557E-1,1.1245513E-1,-8.2610226E-1,5.6208074E-1,-3.6168396E-3,-1.0864343E-2,3.324029E-3,-1.2303405E-2,-1.4413866E-2,3.144674E-3,-8.70588E-3,6.211512E-3],"categories":[],"categories_nodes":[],"categories_segments":[],"categories_sizes":[],"default_left":[0,0,0,0,0,0,0,0,0,0,0,0,0,0,0],"id":28,"left_children":[1,3,5,7,9,11,13,-1,-1,-1,-1,-1,-1,-1,-1],"loss_changes":[2.854667E1,2.4219254E1,8.041054E0,5.678829E0,1.8165564E1,3.6613336E0,6.498272E0,0E0,0E0,0E0,0E0,0E0,0E0,0E0,0E0],"parents":[2147483647,0,0,1,1,2,2,3,3,4,4,5,5,6,6],"right_children":[2,4,6,8,10,12,14,-1,-1,-1,-1,-1,-1,-1,-1],"split_conditions":[7.9926434E2,5.202306E-1,1.429015E3,-1.0666667E-1,9.8527175E-1,3.7345062E-3,-2.239687E0,-3.6168396E-3,-1.0864343E-2,3.324029E-3,-1.2303405E-2,-1.4413866E-2,3.144674E-3,-8.70588E-3,6.211512E-3],"split_indices":[41,40,39,3,27,31,27,0,0,0,0,0,0,0,0],"split_type":[0,0,0,0,0,0,0,0,0,0,0,0,0,0,0],"sum_hessian":[1.8156181E2,1.08594406E2,7.296741E1,4.9472874E1,5.9121536E1,3.5713592E0,6.939605E1,1.8425434E1,3.1047441E1,5.1447044E1,7.6744895E0,2.148565E0,1.4227941E0,2.2039638E0,6.7192085E1],"tree_param":{"num_deleted":"0","num_feature":"46","num_nodes":"15","size_leaf_vector":"1"}},{"base_weights":[8.925102E-2,-3.900906E-1,3.3164626E-1,9.376156E-1,-5.0003904E-1,6.0203508E-2,7.156442E-1,1.5330954E-3,1.312687E-2,-6.194348E-3,4.713797E-3,-2.1205852E-3,5.682262E-3,-1.2592688E-3,8.6577805E-3],"categories":[],"categories_nodes":[],"categories_segments":[],"categories_sizes":[],"default_left":[0,0,0,0,0,0,0,0,0,0,0,0,0,0,0],"id":29,"left_children":[1,3,5,7,9,11,13,-1,-1,-1,-1,-1,-1,-1,-1],"loss_changes":[2.0939814E1,9.317009E0,1.2412219E1,1.2646985E0,6.8600283E0,9.954579E0,6.350029E0,0E0,0E0,0E0,0E0,0E0,0E0,0E0,0E0],"parents":[2147483647,0,0,1,1,2,2,3,3,4,4,5,5,6,6],"right_children":[2,4,6,8,10,12,14,-1,-1,-1,-1,-1,-1,-1,-1],"split_conditions":[7.291765E2,-5.4032087E0,5.3553146E-1,1.4945996E3,3.6666667E-1,9.1022534E2,-2.0300789E1,1.5330954E-3,1.312687E-2,-6.194348E-3,4.713797E-3,-2.1205852E-3,5.682262E-3,-1.2592688E-3,8.6577805E-3],"split_indices":[41,13,40,26,4,41,45,0,0,0,0,0,0,0,0],"split_type":[0,0,0,0,0,0,0,0,0,0,0,0,0,0,0],"sum_hessian":[1.7810677E2,5.9612495E1,1.1849426E2,3.9833167E0,5.562918E1,7.009902E1,4.8395237E1,1.7443923E0,2.2389243E0,4.9862934E1,5.766246E0,4.6018917E1,2.4080105E1,7.3509493E0,4.104429E1],"tree_param":{"num_deleted":"0","num_feature":"46","num_nodes":"15","size_leaf_vector":"1"}},{"base_weights":[2.2634298E-2,-3.8827792E-1,5.053963E-1,-6.309093E-1,3.6860287E-1,6.937502E-1,1.3192851E-2,8.712472E-4,-7.410918E-3,-1.6186218E-3,1.2328865E-2,2.411118E-3,9.4430735E-3,8.986368E-3,-3.8958436E-3],"categories":[],"categories_nodes":[],"categories_segments":[],"categories_sizes":[],"default_left":[0,0,0,0,0,0,0,0,0,0,0,0,0,0,0],"id":30,"left_children":[1,3,5,7,9,11,13,-1,-1,-1,-1,-1,-1,-1,-1],"loss_changes":[3.6565857E1,1.8524414E1,7.846428E0,6.0610676E0,1.1574451E1,6.720318E0,9.077277E0,0E0,0E0,0E0,0E0,0E0,0E0,0E0,0E0],"parents":[2147483647,0,0,1,1,2,2,3,3,4,4,5,5,6,6],"right_children":[2,4,6,8,10,12,14,-1,-1,-1,-1,-1,-1,-1,-1],"split_conditions":[7.8768976E2,5.6494325E-1,1.5063717E3,1.4750483E3,7.1861725E2,-5.7100326E-2,-6.0129687E-2,8.712472E-4,-7.410918E-3,-1.6186218E-3,1.2328865E-2,2.411118E-3,9.4430735E-3,8.986368E-3,-3.8958436E-3],"split_indices":[41,40,25,38,41,2,2,0,0,0,0,0,0,0,0],"split_type":[0,0,0,0,0,0,0,0,0,0,0,0,0,0,0],"sum_hessian":[1.8233974E2,9.8605484E1,8.373425E1,7.479505E1,2.3810432E1,6.026346E1,2.3470797E1,9.978261E0,6.4816795E1,1.52582245E1,8.552208E0,2.2171799E1,3.809166E1,6.953498E0,1.65173E1],"tree_param":{"num_deleted":"0","num_feature":"46","num_nodes":"15","size_leaf_vector":"1"}},{"base_weights":[2.4102526E-2,-4.4475323E-1,2.8280383E-1,-5.8802664E-1,6.236526E-1,4.813642E-2,6.298821E-1,3.0881254E-4,-9.777086E-3,-5.633785E-3,1.1171814E-2,-2.0246387E-3,7.401782E-3,-1.1959765E-2,7.0195524E-3],"categories":[],"categories_nodes":[],"categories_segments":[],"categories_sizes":[],"default_left":[0,0,0,0,0,0,0,0,0,0,0,0,0,0,0],"id":31,"left_children":[1,3,5,7,9,11,13,-1,-1,-1,-1,-1,-1,-1,-1],"loss_changes":[2.2653902E1,1.0535508E1,9.768005E0,1.4281403E1,5.515416E0,1.2785071E1,7.214678E0,0E0,0E0,0E0,0E0,0E0,0E0,0E0,0E0],"parents":[2147483647,0,0,1,1,2,2,3,3,4,4,5,5,6,6],"right_children":[2,4,6,8,10,12,14,-1,-1,-1,-1,-1,-1,-1,-1],"split_conditions":[7.275009E2,3.6666667E-1,5.3553146E-1,-4.0728188E0,-4.1118846E0,9.253363E2,-2.239687E0,3.0881254E-4,-9.777086E-3,-5.633785E-3,1.1171814E-2,-2.0246387E-3,7.401782E-3,-1.1959765E-2,7.0195524E-3],"split_indices":[41,4,40,8,8,41,27,0,0,0,0,0,0,0,0],"split_type":[0,0,0,0,0,0,0,0,0,0,0,0,0,0,0],"sum_hessian":[1.8473215E2,6.5430466E1,1.1930168E2,5.8090183E1,7.3402805E0,7.185655E1,4.7445137E1,2.2799654E1,3.529053E1,2.1140516E0,5.2262287E0,5.3272938E1,1.8583612E1,1.2095354E0,4.62356E1],"tree_param":{"num_deleted":"0","num_feature":"46","num_nodes":"15","size_leaf_vector":"1"}},{"base_weights":[-1.0111342E-3,-3.3493382E-1,3.878062E-1,-7.753796E-1,3.954577E-2,-5.508132E-1,5.2934015E-1,5.9999316E-3,-8.558274E-3,2.8451527E-3,-1.0989659E-2,1.0620245E-3,-1.2301395E-2,2.7128865E-3,1.0832295E-2],"categories":[],"categories_nodes":[],"categories_segments":[],"categories_sizes":[],"default_left":[0,0,0,0,0,0,0,0,0,0,0,0,0,0,0],"id":32,"left_children":[1,3,5,7,9,11,13,-1,-1,-1,-1,-1,-1,-1,-1],"loss_changes":[2.3436981E1,1.6047878E1,1.13713255E1,5.4564114E0,1.5216332E1,5.2270074E0,1.0137918E1,0E0,0E0,0E0,0E0,0E0,0E0,0E0,0E0],"parents":[2147483647,0,0,1,1,2,2,3,3,4,4,5,5,6,6],"right_children":[2,4,6,8,10,12,14,-1,-1,-1,-1,-1,-1,-1,-1],"split_conditions":[7.8768976E2,5.202306E-1,4.554507E-1,-1.1626644E2,9.636809E-1,3.6666665E-2,9.4999634E2,5.9999316E-3,-8.558274E-3,2.8451527E-3,-1.0989659E-2,1.0620245E-3,-1.2301395E-2,2.7128865E-3,1.0832295E-2],"split_indices":[41,40,40,30,27,4,41,0,0,0,0,0,0,0,0],"split_type":[0,0,0,0,0,0,0,0,0,0,0,0,0,0,0],"sum_hessian":[1.7851324E2,9.6110535E1,8.240271E1,4.3673367E1,5.243717E1,1.04184265E1,7.198428E1,2.0564928E0,4.1616875E1,4.376953E1,8.667636E0,5.7250576E0,4.693369E0,5.012251E1,2.1861778E1],"tree_param":{"num_deleted":"0","num_feature":"46","num_nodes":"15","size_leaf_vector":"1"}},{"base_weights":[5.9814718E-2,-2.6487398E-1,4.323485E-1,-4.7101265E-1,4.9750185E-1,2.2640143E-1,7.861183E-1,3.3400832E-3,-6.024777E-3,-5.4526643E-4,1.2024947E-2,7.2026392E-3,-5.180794E-4,-6.393318E-3,9.825528E-3],"categories":[],"categories_nodes":[],"categories_segments":[],"categories_sizes":[],"default_left":[0,0,0,0,0,0,0,0,0,0,0,0,0,0,0],"id":33,"left_children":[1,3,5,7,9,11,13,-1,-1,-1,-1,-1,-1,-1,-1],"loss_changes":[2.2334738E1,1.5757254E1,6.0825653E0,8.484184E0,8.436552E0,7.6924715E0,9.367954E0,0E0,0E0,0E0,0E0,0E0,0E0,0E0,0E0],"parents":[2147483647,0,0,1,1,2,2,3,3,4,4,5,5,6,6],"right_children":[2,4,6,8,10,12,14,-1,-1,-1,-1,-1,-1,-1,-1],"split_conditions":[7.8768976E2,5.873571E-1,2.0333333E-1,1.4728577E3,8.3333336E-2,-1.1666667E-1,-5.1148117E-2,3.3400832E-3,-6.024777E-3,-5.4526643E-4,1.2024947E-2,7.2026392E-3,-5.180794E-4,-6.393318E-3,9.825528E-3],"split_indices":[41,40,3,38,3,4,44,0,0,0,0,0,0,0,0],"split_type":[0,0,0,0,0,0,0,0,0,0,0,0,0,0,0],"sum_hessian":[1.827027E2,9.7774506E1,8.4928185E1,7.726501E1,2.0509499E1,5.4715523E1,3.0212664E1,1.0630278E1,6.6634735E1,1.2020095E1,8.489403E0,1.9143703E1,3.5571815E1,3.386129E0,2.6826536E1],"tree_param":{"num_deleted":"0","num_feature":"46","num_nodes":"15","size_leaf_vector":"1"}},{"base_weights":[-3.9682146E-2,-4.5162353E-1,1.9105075E-1,-8.507978E-1,-1.0292404E-1,-7.060703E-2,6.068877E-1,4.358992E-3,-9.557105E-3,1.3831919E-2,-2.671825E-3,-6.279733E-3,1.5267368E-3,-1.1955445E-2,6.831048E-3],"categories":[],"categories_nodes":[],"categories_segments":[],"categories_sizes":[],"default_left":[0,0,0,0,0,0,0,0,0,0,0,0,0,0,0],"id":34,"left_children":[1,3,5,7,9,11,13,-1,-1,-1,-1,-1,-1,-1,-1],"loss_changes":[1.7412012E1,9.062985E0,1.2832307E1,4.535734E0,9.212676E0,9.185865E0,7.067404E0,0E0,0E0,0E0,0E0,0E0,0E0,0E0,0E0],"parents":[2147483647,0,0,1,1,2,2,3,3,4,4,5,5,6,6],"right_children":[2,4,6,8,10,12,14,-1,-1,-1,-1,-1,-1,-1,-1],"split_conditions":[7.275009E2,5.202306E-1,5.3553146E-1,-2.820475E1,1.4493733E3,-4.2852912E-2,-2.239687E0,4.358992E-3,-9.557105E-3,1.3831919E-2,-2.671825E-3,-6.279733E-3,1.5267368E-3,-1.1955445E-2,6.831048E-3],"split_indices":[41,40,40,45,38,2,27,0,0,0,0,0,0,0,0],"split_type":[0,0,0,0,0,0,0,0,0,0,0,0,0,0,0],"sum_hessian":[1.8128319E2,6.474058E1,1.165426E2,2.9514217E1,3.522636E1,7.204182E1,4.4500786E1,1.9872175E0,2.7527E1,2.7674286E0,3.245893E1,2.0087E1,5.195482E1,1.2095892E0,4.32912E1],"tree_param":{"num_deleted":"0","num_feature":"46","num_nodes":"15","size_leaf_vector":"1"}},{"base_weights":[1.3874625E-2,-2.6932567E-1,4.0774077E-1,-7.9407823E-1,6.8511456E-2,-7.8655326E-1,4.814768E-1,2.9070517E-3,-9.238586E-3,2.4865307E-3,-9.565732E-3,-1.4648008E-2,2.0019165E-3,6.8387664E-3,-5.027056E-4],"categories":[],"categories_nodes":[],"categories_segments":[],"categories_sizes":[],"default_left":[0,0,0,0,0,0,0,0,0,0,0,0,0,0,0],"id":35,"left_children":[1,3,5,7,9,11,13,-1,-1,-1,-1,-1,-1,-1,-1],"loss_changes":[2.116033E1,1.9623709E1,7.365159E0,6.3662643E0,1.2808303E1,3.6348767E0,8.14312E0,0E0,0E0,0E0,0E0,0E0,0E0,0E0,0E0],"parents":[2147483647,0,0,1,1,2,2,3,3,4,4,5,5,6,6],"right_children":[2,4,6,8,10,12,14,-1,-1,-1,-1,-1,-1,-1,-1],"split_conditions":[7.9926434E2,5.061197E-1,-1.0489606E-1,1.4702349E3,9.8527175E-1,6.4812775E1,1.5063717E3,2.9070517E-3,-9.238586E-3,2.4865307E-3,-9.565732E-3,-1.4648008E-2,2.0019165E-3,6.8387664E-3,-5.027056E-4],"split_indices":[41,40,42,38,27,45,25,0,0,0,0,0,0,0,0],"split_type":[0,0,0,0,0,0,0,0,0,0,0,0,0,0,0],"sum_hessian":[1.8772104E2,1.0938587E2,7.833517E1,4.231255E1,6.707332E1,3.9930499E0,7.434212E1,4.3887463E0,3.79238E1,5.769229E1,9.38103E0,2.079328E0,1.9137218E0,5.3639236E1,2.0702883E1],"tree_param":{"num_deleted":"0","num_feature":"46","num_nodes":"15","size_leaf_vector":"1"}},{"base_weights":[3.161153E-2,-2.9841352E-1,4.21469E-1,-7.0809525E-1,5.0152563E-2,2.2673674E-1,8.492732E-1,-1.8197008E-3,-1.0093545E-2,2.552139E-3,-1.0091221E-2,7.498356E-3,-4.396642E-4,-2.7521073E-3,1.0237329E-2],"categories":[],"categories_nodes":[],"categories_segments":[],"categories_sizes":[],"default_left":[0,0,0,0,0,0,0,0,0,0,0,0,0,0,0],"id":36,"left_children":[1,3,5,7,9,11,13,-1,-1,-1,-1,-1,-1,-1,-1],"loss_changes":[2.3216928E1,1.3998461E1,6.6962414E0,6.9512196E0,1.1935934E1,8.272852E0,5.284664E0,0E0,0E0,0E0,0E0,0E0,0E0,0E0,0E0],"parents":[2147483647,0,0,1,1,2,2,3,3,4,4,5,5,6,6],"right_children":[2,4,6,8,10,12,14,-1,-1,-1,-1,-1,-1,-1,-1],"split_conditions":[7.8768976E2,5.202306E-1,2.7E-1,-1E-1,9.636809E-1,-1.1666667E-1,1.5126127E3,-1.8197008E-3,-1.0093545E-2,2.552139E-3,-1.0091221E-2,7.498356E-3,-4.396642E-4,-2.7521073E-3,1.0237329E-2],"split_indices":[41,40,3,3,27,4,38,0,0,0,0,0,0,0,0],"split_type":[0,0,0,0,0,0,0,0,0,0,0,0,0,0,0],"sum_hessian":[1.7847043E2,9.6778946E1,8.1691475E1,4.4015068E1,5.276388E1,5.718942E1,2.450206E1,1.6610388E1,2.7404682E1,4.4842117E1,7.9217634E0,1.88992E1,3.829022E1,3.2132814E0,2.1288778E1],"tree_param":{"num_deleted":"0","num_feature":"46","num_nodes":"15","size_leaf_vector":"1"}},{"base_weights":[8.955174E-3,-3.2430884E-1,4.1936392E-1,-7.746354E-1,5.5433605E-2,6.147412E-1,1.969911E-2,2.5988566E-3,-8.398323E-3,2.4940588E-3,-9.434308E-3,-9.856498E-4,9.62246E-3,6.5270094E-3,-5.021467E-3],"categories":[],"categories_nodes":[],"categories_segments":[],"categories_sizes":[],"default_left":[0,0,0,0,0,0,0,0,0,0,0,0,0,0,0],"id":37,"left_children":[1,3,5,7,9,11,13,-1,-1,-1,-1,-1,-1,-1,-1],"loss_changes":[2.544062E1,1.7599451E1,6.49592E0,3.390606E0,1.1207591E1,1.3962656E1,9.7087E0,0E0,0E0,0E0,0E0,0E0,0E0,0E0,0E0],"parents":[2147483647,0,0,1,1,2,2,3,3,4,4,5,5,6,6],"right_children":[2,4,6,8,10,12,14,-1,-1,-1,-1,-1,-1,-1,-1],"split_conditions":[7.8768976E2,5.202306E-1,1.5036102E3,-1.1626644E2,9.797959E-1,-7.348896E-2,2.3333333E-2,2.5988566E-3,-8.398323E-3,2.4940588E-3,-9.434308E-3,-9.856498E-4,9.62246E-3,6.5270094E-3,-5.021467E-3],"split_indices":[41,40,25,30,27,2,4,0,0,0,0,0,0,0,0],"split_type":[0,0,0,0,0,0,0,0,0,0,0,0,0,0,0],"sum_hessian":[1.8400981E2,1.0166479E2,8.234502E1,4.6034176E1,5.563061E1,5.4946247E1,2.7398773E1,2.5521102E0,4.3482067E1,4.721258E1,8.418033E0,1.8234186E1,3.671206E1,1.22674885E1,1.5131285E1],"tree_param":{"num_deleted":"0","num_feature":"46","num_nodes":"15","size_leaf_vector":"1"}},{"base_weights":[-5.277518E-2,-5.227406E-1,1.6598427E-1,-9.1671795E-1,1.4892767E-1,-5.2965945E-1,3.5122395E-1,4.246372E-3,-1.0197982E-2,3.662004E-3,-1.3820614E-2,6.5181297E-3,-9.678863E-3,-1.6378359E-3,4.5958376E-3],"categories":[],"categories_nodes":[],"categories_segments":[],"categories_sizes":[],"default_left":[0,0,0,0,0,0,0,0,0,0,0,0,0,0,0],"id":38,"left_children":[1,3,5,7,9,11,13,-1,-1,-1,-1,-1,-1,-1,-1],"loss_changes":[1.8622662E1,1.5354319E1,1.6137213E1,5.464098E0,7.8645773E0,1.4314843E1,5.5641737E0,0E0,0E0,0E0,0E0,0E0,0E0,0E0,0E0],"parents":[2147483647,0,0,1,1,2,2,3,3,4,4,5,5,6,6],"right_children":[2,4,6,8,10,12,14,-1,-1,-1,-1,-1,-1,-1,-1],"split_conditions":[4.9165916E-1,7.9926434E2,6.8125836E2,-1.1626644E2,8.744178E1,-1.7146155E0,-1.0072831E0,4.246372E-3,-1.0197982E-2,3.662004E-3,-1.3820614E-2,6.5181297E-3,-9.678863E-3,-1.6378359E-3,4.5958376E-3],"split_indices":[40,41,41,30,30,6,27,0,0,0,0,0,0,0,0],"split_type":[0,0,0,0,0,0,0,0,0,0,0,0,0,0,0],"sum_hessian":[1.7929381E2,5.6507664E1,1.2278614E2,3.5386395E1,2.112127E1,2.5429523E1,9.735662E1,2.302689E0,3.3083706E1,1.9162588E1,1.9586807E0,6.74836E0,1.8681164E1,1.683457E1,8.052205E1],"tree_param":{"num_deleted":"0","num_feature":"46","num_nodes":"15","size_leaf_vector":"1"}},{"base_weights":[1.4152011E-2,-5.2508926E-1,3.054048E-1,9.366493E-1,-6.493327E-1,-1.0291218E-2,8.2612574E-1,-1.8428925E-4,1.35053415E-2,-7.40977E-4,-8.530263E-3,-5.9915683E-3,2.9158543E-3,-8.461055E-4,9.615774E-3],"categories":[],"categories_nodes":[],"categories_segments":[],"categories_sizes":[],"default_left":[0,0,0,0,0,0,0,0,0,0,0,0,0,0,0],"id":39,"left_children":[1,3,5,7,9,11,13,-1,-1,-1,-1,-1,-1,-1,-1],"loss_changes":[2.6109503E1,1.1198145E1,1.7748043E1,1.9924245E0,6.303156E0,1.229281E1,5.1073627E0,0E0,0E0,0E0,0E0,0E0,0E0,0E0,0E0],"parents":[2147483647,0,0,1,1,2,2,3,3,4,4,5,5,6,6],"right_children":[2,4,6,8,10,12,14,-1,-1,-1,-1,-1,-1,-1,-1],"split_conditions":[7.266562E2,-5.4032087E0,5.517597E-1,1.4945996E3,9.4298077E-1,-1.8873254E-2,5E-1,-1.8428925E-4,1.35053415E-2,-7.40977E-4,-8.530263E-3,-5.9915683E-3,2.9158543E-3,-8.461055E-4,9.615774E-3],"split_indices":[41,13,40,26,43,2,20,0,0,0,0,0,0,0,0],"split_type":[0,0,0,0,0,0,0,0,0,0,0,0,0,0,0],"sum_hessian":[1.6422269E2,5.731104E1,1.06911644E2,3.9774175E0,5.3333622E1,6.716932E1,3.9742325E1,1.4913834E0,2.486034E0,1.4303637E1,3.9029987E1,2.2430246E1,4.473907E1,5.194102E0,3.454822E1],"tree_param":{"num_deleted":"0","num_feature":"46","num_nodes":"15","size_leaf_vector":"1"}},{"base_weights":[7.910354E-3,-4.779617E-1,2.7801195E-1,8.830042E-1,-5.7421625E-1,4.5391846E-2,6.7563695E-1,-2.2275436E-3,1.34170065E-2,5.858941E-3,-6.733603E-3,-3.4008943E-3,4.167517E-3,-3.075434E-3,8.244484E-3],"categories":[],"categories_nodes":[],"categories_segments":[],"categories_sizes":[],"default_left":[0,0,0,0,0,0,0,0,0,0,0,0,0,0,0],"id":40,"left_children":[1,3,5,7,9,11,13,-1,-1,-1,-1,-1,-1,-1,-1],"loss_changes":[2.4096445E1,9.10177E0,1.0883033E1,2.6968262E0,7.5119915E0,1.0951668E1,6.6147537E0,0E0,0E0,0E0,0E0,0E0,0E0,0E0,0E0],"parents":[2147483647,0,0,1,1,2,2,3,3,4,4,5,5,6,6],"right_children":[2,4,6,8,10,12,14,-1,-1,-1,-1,-1,-1,-1,-1],"split_conditions":[7.322158E2,-5.5905538E0,5.517597E-1,1.4945996E3,1.4493733E3,8.234469E2,5E-1,-2.2275436E-3,1.34170065E-2,5.858941E-3,-6.733603E-3,-3.4008943E-3,4.167517E-3,-3.075434E-3,8.244484E-3],"split_indices":[41,13,40,26,38,41,20,0,0,0,0,0,0,0,0],"split_type":[0,0,0,0,0,0,0,0,0,0,0,0,0,0,0],"sum_hessian":[1.8160068E2,6.460909E1,1.16991585E2,3.7277615E0,6.0881336E1,7.451354E1,4.247804E1,1.2437898E0,2.4839716E0,4.406793E0,5.647454E1,3.660294E1,3.7910606E1,5.4439287E0,3.703411E1],"tree_param":{"num_deleted":"0","num_feature":"46","num_nodes":"15","size_leaf_vector":"1"}},{"base_weights":[-5.661253E-3,-3.2489115E-1,3.8376957E-1,-5.1932645E-1,5.8101034E-1,6.066451E-1,-2.1629445E-2,-5.702927E-3,9.814991E-3,9.948134E-3,-2.2089153E-3,2.5414824E-3,1.1370013E-2,2.0861272E-3,-1.2445332E-2],"categories":[],"categories_nodes":[],"categories_segments":[],"categories_sizes":[],"default_left":[0,0,0,0,0,0,0,0,0,0,0,0,0,0,0],"id":41,"left_children":[1,3,5,7,9,11,13,-1,-1,-1,-1,-1,-1,-1,-1],"loss_changes":[2.2568169E1,1.7871613E1,7.402504E0,6.8818817E0,6.2252994E0,9.58297E0,8.700199E0,0E0,0E0,0E0,0E0,0E0,0E0,0E0,0E0],"parents":[2147483647,0,0,1,1,2,2,3,3,4,4,5,5,6,6],"right_children":[2,4,6,8,10,12,14,-1,-1,-1,-1,-1,-1,-1,-1],"split_conditions":[7.886408E2,5.873571E-1,1.502936E3,3.8135433E-1,1.1E1,1.4946179E3,9.155319E1,-5.702927E-3,9.814991E-3,9.948134E-3,-2.2089153E-3,2.5414824E-3,1.1370013E-2,2.0861272E-3,-1.2445332E-2],"split_indices":[41,40,25,2,32,25,30,0,0,0,0,0,0,0,0],"split_type":[0,0,0,0,0,0,0,0,0,0,0,0,0,0,0],"sum_hessian":[1.7953293E2,9.874993E1,8.0783E1,8.165162E1,1.7098312E1,5.180554E1,2.897746E1,7.956955E1,2.0820718E0,1.1119685E1,5.9786267E0,3.2009735E1,1.9795805E1,2.5084154E1,3.8933067E0],"tree_param":{"num_deleted":"0","num_feature":"46","num_nodes":"15","size_leaf_vector":"1"}},{"base_weights":[-1.1870728E-2,-3.2694435E-1,3.6883253E-1,-5.47593E-1,4.4720414E-1,1.09444626E-1,7.269747E-1,-6.135516E-3,1.07183345E-2,8.839619E-3,-2.3761762E-3,4.479114E-3,-4.108375E-3,8.652908E-3,-2.0062376E-3],"categories":[],"categories_nodes":[],"categories_segments":[],"categories_sizes":[],"default_left":[0,0,0,0,0,0,0,0,0,0,0,0,0,0,0],"id":42,"left_children":[1,3,5,7,9,11,13,-1,-1,-1,-1,-1,-1,-1,-1],"loss_changes":[2.2122742E1,1.7479301E1,7.6804743E0,9.092392E0,7.0682287E0,8.922543E0,4.652622E0,0E0,0E0,0E0,0E0,0E0,0E0,0E0,0E0],"parents":[2147483647,0,0,1,1,2,2,3,3,4,4,5,5,6,6],"right_children":[2,4,6,8,10,12,14,-1,-1,-1,-1,-1,-1,-1,-1],"split_conditions":[7.8768976E2,5.873571E-1,1.4666666E-1,3.8135433E-1,1.1E1,-1.1666667E-1,1.5224456E3,-6.135516E-3,1.07183345E-2,8.839619E-3,-2.3761762E-3,4.479114E-3,-4.108375E-3,8.652908E-3,-2.0062376E-3],"split_indices":[41,40,3,2,32,3,26,0,0,0,0,0,0,0,0],"split_type":[0,0,0,0,0,0,0,0,0,0,0,0,0,0,0],"sum_hessian":[1.824284E2,9.989531E1,8.25331E1,7.7966E1,2.1929304E1,4.862301E1,3.3910088E1,7.551157E1,2.454428E0,1.3212192E1,8.717113E0,2.954304E1,1.907997E1,2.9568274E1,4.341814E0],"tree_param":{"num_deleted":"0","num_feature":"46","num_nodes":"15","size_leaf_vector":"1"}},{"base_weights":[2.9232295E-2,-2.9758024E-1,4.2335072E-1,-5.2866274E-1,5.5774796E-1,-7.7923626E-2,5.795316E-1,-3.5265388E-3,-1.1044395E-2,1.0814292E-2,-3.0030657E-3,-1.1616444E-2,2.7572387E-3,8.609947E-3,-4.4933342E-5],"categories":[],"categories_nodes":[],"categories_segments":[],"categories_sizes":[],"default_left":[0,0,0,0,0,0,0,0,0,0,0,0,0,0,0],"id":43,"left_children":[1,3,5,7,9,11,13,-1,-1,-1,-1,-1,-1,-1,-1],"loss_changes":[2.3390049E1,1.992703E1,6.487632E0,7.5874805E0,1.0036858E1,8.150143E0,1.0336977E1,0E0,0E0,0E0,0E0,0E0,0E0,0E0,0E0],"parents":[2147483647,0,0,1,1,2,2,3,3,4,4,5,5,6,6],"right_children":[2,4,6,8,10,12,14,-1,-1,-1,-1,-1,-1,-1,-1],"split_conditions":[7.8768976E2,5.873571E-1,-1.336464E-1,8E-1,1.1E1,-9.668241E-1,1.5037787E3,-3.5265388E-3,-1.1044395E-2,1.0814292E-2,-3.0030657E-3,-1.1616444E-2,2.7572387E-3,8.609947E-3,-4.4933342E-5],"split_indices":[41,40,2,27,32,6,25,0,0,0,0,0,0,0,0],"split_type":[0,0,0,0,0,0,0,0,0,0,0,0,0,0,0],"sum_hessian":[1.7961766E2,9.832726E1,8.12904E1,7.771347E1,2.0613792E1,1.9429861E1,6.186054E1,6.0754078E1,1.6959394E1,1.2639452E1,7.9743404E0,4.2183514E0,1.5211509E1,4.142302E1,2.0437517E1],"tree_param":{"num_deleted":"0","num_feature":"46","num_nodes":"15","size_leaf_vector":"1"}},{"base_weights":[5.9984464E-2,-4.6773878E-1,2.0811896E-1,-9.4973594E-1,2.6118425E-1,5.727885E-2,6.499164E-1,1.5754644E-3,-1.1032437E-2,5.913552E-3,-9.615222E-3,1.8376573E-3,-6.6234893E-3,-8.644851E-3,7.3941527E-3],"categories":[],"categories_nodes":[],"categories_segments":[],"categories_sizes":[],"default_left":[0,0,0,0,0,0,0,0,0,0,0,0,0,0,0],"id":44,"left_children":[1,3,5,7,9,11,13,-1,-1,-1,-1,-1,-1,-1,-1],"loss_changes":[1.3924181E1,1.3976569E1,9.21236E0,4.208561E0,7.1641836E0,9.639775E0,5.4142714E0,0E0,0E0,0E0,0E0,0E0,0E0,0E0,0E0],"parents":[2147483647,0,0,1,1,2,2,3,3,4,4,5,5,6,6],"right_children":[2,4,6,8,10,12,14,-1,-1,-1,-1,-1,-1,-1,-1],"split_conditions":[4.6308774E-1,7.9908813E2,2.8333333E-1,-8.842558E1,3.4333333E-1,9.8527175E-1,1.4111638E3,1.5754644E-3,-1.1032437E-2,5.913552E-3,-9.615222E-3,1.8376573E-3,-6.6234893E-3,-8.644851E-3,7.3941527E-3],"split_indices":[40,41,3,30,3,27,39,0,0,0,0,0,0,0,0],"split_type":[0,0,0,0,0,0,0,0,0,0,0,0,0,0,0],"sum_hessian":[1.7587253E2,3.8074856E1,1.3779767E2,2.273711E1,1.5337745E1,1.0356707E2,3.4230602E1,2.7651577E0,1.9971952E1,1.2483221E1,2.8545244E0,8.8718E1,1.4849069E1,1.4269063E0,3.28037E1],"tree_param":{"num_deleted":"0","num_feature":"46","num_nodes":"15","size_leaf_vector":"1"}},{"base_weights":[3.132974E-2,-1.5153024E-1,5.747934E-1,-3.1781203E-1,4.2500195E-1,1.0137984E0,3.0214024E-1,-8.4113446E-4,-6.8481895E-3,8.806815E-3,-3.7080294E-3,-4.86732E-3,1.2381051E-2,-1.4954701E-2,5.951379E-3],"categories":[],"categories_nodes":[],"categories_segments":[],"categories_sizes":[],"default_left":[0,0,0,0,0,0,0,0,0,0,0,0,0,0,0],"id":45,"left_children":[1,3,5,7,9,11,13,-1,-1,-1,-1,-1,-1,-1,-1],"loss_changes":[1.8021276E1,1.3155899E1,5.156929E0,9.033049E0,1.1507287E1,6.3454075E0,1.6469875E1,0E0,0E0,0E0,0E0,0E0,0E0,0E0,0E0],"parents":[2147483647,0,0,1,1,2,2,3,3,4,4,5,5,6,6],"right_children":[2,4,6,8,10,12,14,-1,-1,-1,-1,-1,-1,-1,-1],"split_conditions":[8.7202716E2,5.7737345E-1,1.4927112E3,2.662724E-1,1.1E1,-1.7329752E1,1.495414E3,-8.4113446E-4,-6.8481895E-3,8.806815E-3,-3.7080294E-3,-4.86732E-3,1.2381051E-2,-1.4954701E-2,5.951379E-3],"split_indices":[41,40,26,5,32,30,26,0,0,0,0,0,0,0,0],"split_type":[0,0,0,0,0,0,0,0,0,0,0,0,0,0,0],"sum_hessian":[1.7946469E2,1.348221E2,4.46426E1,1.04989944E2,2.9832151E1,1.606221E1,2.8580393E1,6.489562E1,4.0094322E1,1.8902107E1,1.0930043E1,1.9366677E0,1.4125543E1,3.4303493E0,2.5150043E1],"tree_param":{"num_deleted":"0","num_feature":"46","num_nodes":"15","size_leaf_vector":"1"}},{"base_weights":[-4.454437E-2,-3.5031262E-1,3.3048216E-1,-8.9504015E-1,-7.688193E-2,1.4608009E-1,7.248485E-1,2.4535218E-3,-1.0410283E-2,1.0615146E-3,-9.592269E-3,2.6448925E-3,-1.2168088E-2,6.343283E-4,1.0101519E-2],"categories":[],"categories_nodes":[],"categories_segments":[],"categories_sizes":[],"default_left":[0,0,0,0,0,0,0,0,0,0,0,0,0,0,0],"id":46,"left_children":[1,3,5,7,9,11,13,-1,-1,-1,-1,-1,-1,-1,-1],"loss_changes":[2.10465E1,1.4979715E1,5.893256E0,5.8612328E0,1.114221E1,9.595135E0,4.848114E0,0E0,0E0,0E0,0E0,0E0,0E0,0E0,0E0],"parents":[2147483647,0,0,1,1,2,2,3,3,4,4,5,5,6,6],"right_children":[2,4,6,8,10,12,14,-1,-1,-1,-1,-1,-1,-1,-1],"split_conditions":[7.8768976E2,4.9165916E-1,9.5456934E2,1.4702349E3,8.8614E-1,1.5577242E2,4.98124E0,2.4535218E-3,-1.0410283E-2,1.0615146E-3,-9.592269E-3,2.6448925E-3,-1.2168088E-2,6.343283E-4,1.0101519E-2],"split_indices":[41,40,41,38,27,30,45,0,0,0,0,0,0,0,0],"split_type":[0,0,0,0,0,0,0,0,0,0,0,0,0,0,0],"sum_hessian":[1.8152821E2,1.0003397E2,8.149423E1,3.2671856E1,6.736212E1,5.646305E1,2.5031183E1,3.6306024E0,2.9041254E1,5.651778E1,1.0844339E1,5.2691128E1,3.7719238E0,7.911762E0,1.7119421E1],"tree_param":{"num_deleted":"0","num_feature":"46","num_nodes":"15","size_leaf_vector":"1"}},{"base_weights":[7.067846E-2,-2.2318138E-1,3.9937407E-1,-4.0341172E-1,4.8778942E-1,9.2084205E-1,2.1214584E-1,2.3309109E-3,-5.8295527E-3,9.577476E-3,-3.9622225E-3,1.0702844E-2,-8.502393E-3,-8.812908E-3,3.6049588E-3],"categories":[],"categories_nodes":[],"categories_segments":[],"categories_sizes":[],"default_left":[0,0,0,0,0,0,0,0,0,0,0,0,0,0,0],"id":47,"left_children":[1,3,5,7,9,11,13,-1,-1,-1,-1,-1,-1,-1,-1],"loss_changes":[1.7855953E1,1.27233E1,8.316541E0,9.110881E0,8.780888E0,6.9268456E0,1.0934287E1,0E0,0E0,0E0,0E0,0E0,0E0,0E0,0E0],"parents":[2147483647,0,0,1,1,2,2,3,3,4,4,5,5,6,6],"right_children":[2,4,6,8,10,12,14,-1,-1,-1,-1,-1,-1,-1,-1],"split_conditions":[7.8768976E2,5.873571E-1,1.4913674E3,-6.7011647E0,1.1E1,1.5674211E3,1.4951476E3,2.3309109E-3,-5.8295527E-3,9.577476E-3,-3.9622225E-3,1.0702844E-2,-8.502393E-3,-8.812908E-3,3.6049588E-3],"split_indices":[41,40,26,8,32,39,26,0,0,0,0,0,0,0,0],"split_type":[0,0,0,0,0,0,0,0,0,0,0,0,0,0,0],"sum_hessian":[1.8293976E2,9.675766E1,8.618209E1,7.7535164E1,1.922249E1,2.1733017E1,6.444907E1,1.699339E1,6.054178E1,1.2495972E1,6.726519E0,2.0406797E1,1.3262186E0,7.109178E0,5.73399E1],"tree_param":{"num_deleted":"0","num_feature":"46","num_nodes":"15","size_leaf_vector":"1"}},{"base_weights":[3.207367E-2,-4.2029518E-1,2.5930977E-1,-5.742662E-1,6.879402E-1,3.276026E-1,-7.618606E-1,5.2134384E-4,-8.95893E-3,-3.3555846E-4,1.2596558E-2,-2.5427188E-3,4.3270527E-3,-1.3232663E-2,5.324222E-3],"categories":[],"categories_nodes":[],"categories_segments":[],"categories_sizes":[],"default_left":[0,0,0,0,0,0,0,0,0,0,0,0,0,0,0],"id":48,"left_children":[1,3,5,7,9,11,13,-1,-1,-1,-1,-1,-1,-1,-1],"loss_changes":[1.8517317E1,1.0677467E1,8.605638E0,1.0815844E1,3.2620604E0,7.0212097E0,6.380564E0,0E0,0E0,0E0,0E0,0E0,0E0,0E0,0E0],"parents":[2147483647,0,0,1,1,2,2,3,3,4,4,5,5,6,6],"right_children":[2,4,6,8,10,12,14,-1,-1,-1,-1,-1,-1,-1,-1],"split_conditions":[7.291765E2,3.1333333E-1,1.4630533E2,-4.5063887E0,1.5036102E3,4.554507E-1,9.027829E2,5.2134384E-4,-8.95893E-3,-3.3555846E-4,1.2596558E-2,-2.5427188E-3,4.3270527E-3,-1.3232663E-2,5.324222E-3],"split_indices":[41,4,30,8,25,40,41,0,0,0,0,0,0,0,0],"split_type":[0,0,0,0,0,0,0,0,0,0,0,0,0,0,0],"sum_hessian":[1.7807886E2,5.9259266E1,1.18819595E2,5.2453533E1,6.805733E0,1.12008026E2,6.8115706E0,1.8079601E1,3.437393E1,3.424887E0,3.3808463E0,1.6919306E1,9.508872E1,4.7352314E0,2.0763392E0],"tree_param":{"num_deleted":"0","num_feature":"46","num_nodes":"15","size_leaf_vector":"1"}},{"base_weights":[3.5765663E-2,-2.8104544E-1,4.0065563E-1,-4.918722E-1,5.8588827E-1,5.394263E-1,-8.081461E-2,2.6868982E-5,-7.979062E-3,1.0665843E-2,-3.3424634E-3,1.8048569E-3,8.999249E-3,2.7816023E-3,-1.1873656E-2],"categories":[],"categories_nodes":[],"categories_segments":[],"categories_sizes":[],"default_left":[0,0,0,0,0,0,0,0,0,0,0,0,0,0,0],"id":49,"left_children":[1,3,5,7,9,11,13,-1,-1,-1,-1,-1,-1,-1,-1],"loss_changes":[2.1088072E1,1.814685E1,5.7052155E0,1.1980097E1,9.012376E0,8.365995E0,8.206641E0,0E0,0E0,0E0,0E0,0E0,0E0,0E0,0E0],"parents":[2147483647,0,0,1,1,2,2,3,3,4,4,5,5,6,6],"right_children":[2,4,6,8,10,12,14,-1,-1,-1,-1,-1,-1,-1,-1],"split_conditions":[7.8768976E2,5.873571E-1,1.5089742E3,-7.17772E0,1.1E1,1.4946179E3,1.07393585E-1,2.6868982E-5,-7.979062E-3,1.0665843E-2,-3.3424634E-3,1.8048569E-3,8.999249E-3,2.7816023E-3,-1.1873656E-2],"split_indices":[41,40,25,1,32,25,2,0,0,0,0,0,0,0,0],"split_type":[0,0,0,0,0,0,0,0,0,0,0,0,0,0,0],"sum_hessian":[1.8044681E2,9.6709656E1,8.373715E1,7.813974E1,1.8569918E1,6.490864E1,1.8828518E1,3.0248537E1,4.7891205E1,1.2093092E1,6.4768257E0,3.327655E1,3.1632086E1,1.4781797E1,4.04672E0],"tree_param":{"num_deleted":"0","num_feature":"46","num_nodes":"15","size_leaf_vector":"1"}},{"base_weights":[-1.534637E-2,-3.4608078E-1,3.6382958E-1,-6.852005E-1,1.2989566E-1,4.4255352E-1,-7.9574764E-1,3.5895626E-3,-7.969207E-3,3.4115931E-3,-8.345817E-3,2.7138938E-3,1.0287809E-2,-1.3348512E-2,5.530539E-3],"categories":[],"categories_nodes":[],"categories_segments":[],"categories_sizes":[],"default_left":[0,0,0,0,0,0,0,0,0,0,0,0,0,0,0],"id":50,"left_children":[1,3,5,7,9,11,13,-1,-1,-1,-1,-1,-1,-1,-1],"loss_changes":[2.2635294E1,1.5646319E1,8.030199E0,6.8701878E0,8.626674E0,7.6883526E0,4.886282E0,0E0,0E0,0E0,0E0,0E0,0E0,0E0,0E0],"parents":[2147483647,0,0,1,1,2,2,3,3,4,4,5,5,6,6],"right_children":[2,4,6,8,10,12,14,-1,-1,-1,-1,-1,-1,-1,-1],"split_conditions":[7.8768976E2,5.302018E-1,1.4630533E2,-3.219344E1,9.636809E-1,8.377742E0,9.4789417E2,3.5895626E-3,-7.969207E-3,3.4115931E-3,-8.345817E-3,2.7138938E-3,1.0287809E-2,-1.3348512E-2,5.530539E-3],"split_indices":[41,40,30,45,27,30,41,0,0,0,0,0,0,0,0],"split_type":[0,0,0,0,0,0,0,0,0,0,0,0,0,0,0],"sum_hessian":[1.7849129E2,9.538204E1,8.3109245E1,5.544178E1,3.994026E1,7.8404686E1,4.7045617E0,5.144778E0,5.0297E1,3.3293724E1,6.6465383E0,6.1818214E1,1.6586473E1,3.3685327E0,1.336029E0],"tree_param":{"num_deleted":"0","num_feature":"46","num_nodes":"15","size_leaf_vector":"1"}},{"base_weights":[7.356487E-2,-1.8615879E-1,4.6146652E-1,-4.4123274E-1,1.5724269E-1,-3.7077078E-1,6.5462226E-1,3.8375868E-3,-6.26946E-3,-8.61037E-3,3.0963665E-3,-1.2795002E-2,5.1456797E-3,4.7676684E-4,8.521284E-3],"categories":[],"categories_nodes":[],"categories_segments":[],"categories_sizes":[],"default_left":[0,0,0,0,0,0,0,0,0,0,0,0,0,0,0],"id":51,"left_children":[1,3,5,7,9,11,13,-1,-1,-1,-1,-1,-1,-1,-1],"loss_changes":[1.8258106E1,9.595046E0,1.1917237E1,9.841237E0,7.573548E0,1.2178423E1,7.0686874E0,0E0,0E0,0E0,0E0,0E0,0E0,0E0,0E0],"parents":[2147483647,0,0,1,1,2,2,3,3,4,4,5,5,6,6],"right_children":[2,4,6,8,10,12,14,-1,-1,-1,-1,-1,-1,-1,-1],"split_conditions":[5.3553146E-1,7.950217E2,6.725504E2,-2.5721326E-2,1.4631997E3,5.873571E-1,-3.269303E0,3.8375868E-3,-6.26946E-3,-8.61037E-3,3.0963665E-3,-1.2795002E-2,5.1456797E-3,4.7676684E-4,8.521284E-3],"split_indices":[40,41,41,31,39,40,45,0,0,0,0,0,0,0,0],"split_type":[0,0,0,0,0,0,0,0,0,0,0,0,0,0,0],"sum_hessian":[1.7937418E2,1.0774946E2,7.162471E1,6.1662502E1,4.608696E1,1.33189E1,5.830581E1,1.1134312E1,5.052819E1,5.3941016E0,4.0692856E1,6.352923E0,6.9659777E0,1.461982E1,4.368599E1],"tree_param":{"num_deleted":"0","num_feature":"46","num_nodes":"15","size_leaf_vector":"1"}},{"base_weights":[-3.0837098E-2,-4.5975792E-1,1.9166973E-1,6.468355E-2,-7.4652594E-1,-4.296142E-2,5.588909E-1,-3.4277546E-3,7.04537E-3,-9.265031E-3,8.303953E-3,-2.8999771E-3,5.160239E-3,6.609877E-3,-3.6034118E-3],"categories":[],"categories_nodes":[],"categories_segments":[],"categories_sizes":[],"default_left":[0,0,0,0,0,0,0,0,0,0,0,0,0,0,0],"id":52,"left_children":[1,3,5,7,9,11,13,-1,-1,-1,-1,-1,-1,-1,-1],"loss_changes":[1.7236952E1,9.322904E0,1.0278672E1,6.1651134E0,1.2107128E1,1.0305708E1,4.599413E0,0E0,0E0,0E0,0E0,0E0,0E0,0E0,0E0],"parents":[2147483647,0,0,1,1,2,2,3,3,4,4,5,5,6,6],"right_children":[2,4,6,8,10,12,14,-1,-1,-1,-1,-1,-1,-1,-1],"split_conditions":[7.275009E2,-4.2419434E0,5.3553146E-1,3E-2,3.6666667E-1,9.1022534E2,9.898429E0,-3.4277546E-3,7.04537E-3,-9.265031E-3,8.303953E-3,-2.8999771E-3,5.160239E-3,6.609877E-3,-3.6034118E-3],"split_indices":[41,8,40,3,4,41,8,0,0,0,0,0,0,0,0],"split_type":[0,0,0,0,0,0,0,0,0,0,0,0,0,0,0],"sum_hessian":[1.7868591E2,6.066919E1,1.1801673E2,2.1720737E1,3.8948452E1,7.254687E1,4.5469864E1,1.3553899E1,8.166839E0,3.532877E1,3.6196826E0,5.0645813E1,2.190105E1,4.117733E1,4.292533E0],"tree_param":{"num_deleted":"0","num_feature":"46","num_nodes":"15","size_leaf_vector":"1"}},{"base_weights":[-2.9127486E-2,-1.5472811E-1,6.444615E-1,-3.1374332E-1,3.6752427E-1,-3.215058E-1,8.197468E-1,-1.2380446E-2,-2.1401707E-3,-3.4809394E-3,6.4816037E-3,-1.2479431E-2,7.891634E-3,1.0040974E-2,1.8472371E-4],"categories":[],"categories_nodes":[],"categories_segments":[],"categories_sizes":[],"default_left":[0,0,0,0,0,0,0,0,0,0,0,0,0,0,0],"id":53,"left_children":[1,3,5,7,9,11,13,-1,-1,-1,-1,-1,-1,-1,-1],"loss_changes":[1.5237707E1,1.2706351E1,5.0576963E0,1.049819E1,7.4251437E0,6.1986594E0,3.56312E0,0E0,0E0,0E0,0E0,0E0,0E0,0E0,0E0],"parents":[2147483647,0,0,1,1,2,2,3,3,4,4,5,5,6,6],"right_children":[2,4,6,8,10,12,14,-1,-1,-1,-1,-1,-1,-1,-1],"split_conditions":[9.4999634E2,5.7737345E-1,4.440022E-1,5.8968866E2,-6.093802E0,-1.22031875E-1,1.5063717E3,-1.2380446E-2,-2.1401707E-3,-3.4809394E-3,6.4816037E-3,-1.2479431E-2,7.891634E-3,1.0040974E-2,1.8472371E-4],"split_indices":[41,40,40,41,45,27,25,0,0,0,0,0,0,0,0],"split_type":[0,0,0,0,0,0,0,0,0,0,0,0,0,0,0],"sum_hessian":[1.7792928E2,1.5061516E2,2.7314129E1,1.15766014E2,3.484914E1,4.06706E0,2.3247068E1,1.0162415E1,1.056036E2,9.748986E0,2.5100155E1,2.1500516E0,1.9170083E0,1.869317E1,4.5538974E0],"tree_param":{"num_deleted":"0","num_feature":"46","num_nodes":"15","size_leaf_vector":"1"}},{"base_weights":[1.897809E-2,-2.6816005E-1,3.7836078E-1,-4.1884658E-1,3.818768E-1,4.3388692E-1,-6.6911745E-1,-9.017496E-3,-1.9194443E-3,-9.203738E-3,5.494962E-3,4.899967E-3,-5.3417073E-3,-1.2442659E-2,4.7166473E-3],"categories":[],"categories_nodes":[],"categories_segments":[],"categories_sizes":[],"default_left":[0,0,0,0,0,0,0,0,0,0,0,0,0,0,0],"id":54,"left_children":[1,3,5,7,9,11,13,-1,-1,-1,-1,-1,-1,-1,-1],"loss_changes":[1.8578587E1,9.966571E0,4.9397135E0,8.784727E0,4.7325354E0,4.4181557E0,3.485295E0,0E0,0E0,0E0,0E0,0E0,0E0,0E0,0E0],"parents":[2147483647,0,0,1,1,2,2,3,3,4,4,5,5,6,6],"right_children":[2,4,6,8,10,12,14,-1,-1,-1,-1,-1,-1,-1,-1],"split_conditions":[7.8768976E2,5.873571E-1,7.1054274E-15,6.5621466E2,-5.445497E-2,1.4630533E2,1.5380411E0,-9.017496E-3,-1.9194443E-3,-9.203738E-3,5.494962E-3,4.899967E-3,-5.3417073E-3,-1.2442659E-2,4.7166473E-3],"split_indices":[41,40,7,41,44,30,28,0,0,0,0,0,0,0,0],"split_type":[0,0,0,0,0,0,0,0,0,0,0,0,0,0,0],"sum_hessian":[1.7805496E2,9.911683E1,7.893813E1,8.075296E1,1.8363869E1,7.5520615E1,3.4175184E0,2.48634E1,5.588956E1,1.5820355E0,1.6781834E1,7.184994E1,3.670677E0,2.2117212E0,1.2057972E0],"tree_param":{"num_deleted":"0","num_feature":"46","num_nodes":"15","size_leaf_vector":"1"}},{"base_weights":[-5.140419E-3,-1.40405E-1,6.171732E-1,-7.752093E-2,-1.3252301E0,-9.27593E-3,7.1745306E-1,-3.9437027E-3,1.6163638E-3,-1.4998442E-2,-2.1995525E-3,8.207984E-3,-4.8997286E-3],"categories":[],"categories_nodes":[],"categories_segments":[],"categories_sizes":[],"default_left":[0,0,0,0,0,0,0,0,0,0,0,0,0],"id":55,"left_children":[1,3,5,7,9,-1,11,-1,-1,-1,-1,-1,-1],"loss_changes":[1.5561225E1,1.1209246E1,5.7788334E0,1.1069219E1,1.1349068E0,0E0,4.3403225E0,0E0,0E0,0E0,0E0,0E0,0E0],"parents":[2147483647,0,0,1,1,2,2,3,3,4,4,6,6],"right_children":[2,4,6,8,10,-1,12,-1,-1,-1,-1,-1,-1],"split_conditions":[9.2894104E2,1.4630533E2,-2.239687E0,5.202306E-1,3.3666667E-1,-9.27593E-3,1.587951E3,-3.9437027E-3,1.6163638E-3,-1.4998442E-2,-2.1995525E-3,8.207984E-3,-4.8997286E-3],"split_indices":[41,30,27,40,3,0,39,0,0,0,0,0,0],"split_type":[0,0,0,0,0,0,0,0,0,0,0,0,0],"sum_hessian":[1.8283374E2,1.5082513E2,3.2008602E1,1.4423534E2,6.5897985E0,1.448291E0,3.0560312E1,6.176135E1,8.247399E1,5.3824744E0,1.2073239E0,2.8445803E1,2.1145108E0],"tree_param":{"num_deleted":"0","num_feature":"46","num_nodes":"13","size_leaf_vector":"1"}},{"base_weights":[-4.0290028E-2,-3.1833428E-1,2.944899E-1,-4.5153958E-1,8.433695E-1,3.8733777E-1,-5.68858E-1,-2.7897318E-3,-1.01225395E-2,1.32361865E-2,1.2212021E-3,2.989332E-3,1.2894226E-2,6.1954036E-3,-1.3054442E-2],"categories":[],"categories_nodes":[],"categories_segments":[],"categories_sizes":[],"default_left":[0,0,0,0,0,0,0,0,0,0,0,0,0,0,0],"id":56,"left_children":[1,3,5,7,9,11,13,-1,-1,-1,-1,-1,-1,-1,-1],"loss_changes":[1.6323378E1,1.519444E1,6.603176E0,8.09058E0,3.370119E0,5.3954554E0,7.931465E0,0E0,0E0,0E0,0E0,0E0,0E0,0E0,0E0],"parents":[2147483647,0,0,1,1,2,2,3,3,4,4,5,5,6,6],"right_children":[2,4,6,8,10,12,14,-1,-1,-1,-1,-1,-1,-1,-1],"split_conditions":[7.8768976E2,6.272451E-1,1.3074603E2,6.319205E-1,1.521677E3,1.5318522E3,3E0,-2.7897318E-3,-1.01225395E-2,1.32361865E-2,1.2212021E-3,2.989332E-3,1.2894226E-2,6.1954036E-3,-1.3054442E-2],"split_indices":[41,40,30,28,38,26,32,0,0,0,0,0,0,0,0],"split_type":[0,0,0,0,0,0,0,0,0,0,0,0,0,0,0],"sum_hessian":[1.7335538E2,9.472921E1,7.8626175E1,8.553299E1,9.196219E0,7.148929E1,7.13689E0,6.6549225E1,1.8983765E1,5.0190635E0,4.177156E0,6.6321175E1,5.1681128E0,2.7917006E0,4.3451896E0],"tree_param":{"num_deleted":"0","num_feature":"46","num_nodes":"15","size_leaf_vector":"1"}},{"base_weights":[-3.159723E-2,-2.173706E-1,2.95724E-1,-3.87404E-1,4.5429295E-1,-2.1682031E-1,5.5118704E-1,2.1700082E-4,-5.8268486E-3,-1.0111628E-2,6.451145E-3,-5.087104E-3,8.324814E-3,9.681952E-3,2.5453835E-3],"categories":[],"categories_nodes":[],"categories_segments":[],"categories_sizes":[],"default_left":[0,0,0,0,0,0,0,0,0,0,0,0,0,0,0],"id":57,"left_children":[1,3,5,7,9,11,13,-1,-1,-1,-1,-1,-1,-1,-1],"loss_changes":[1.0887319E1,1.3209256E1,8.61293E0,7.3311615E0,7.227847E0,7.2518463E0,5.143688E0,0E0,0E0,0E0,0E0,0E0,0E0,0E0,0E0],"parents":[2147483647,0,0,1,1,2,2,3,3,4,4,5,5,6,6],"right_children":[2,4,6,8,10,12,14,-1,-1,-1,-1,-1,-1,-1,-1],"split_conditions":[5.517597E-1,9.1022534E2,2.174456E0,-4.1118846E0,-7.677053E-2,1.541702E3,7.785423E-1,2.1700082E-4,-5.8268486E-3,-1.0111628E-2,6.451145E-3,-5.087104E-3,8.324814E-3,9.681952E-3,2.5453835E-3],"split_indices":[40,41,45,8,44,38,5,0,0,0,0,0,0,0,0],"split_type":[0,0,0,0,0,0,0,0,0,0,0,0,0,0,0],"sum_hessian":[1.7698831E2,1.1312141E2,6.38669E1,9.060718E1,2.2514229E1,2.1294426E1,4.2572475E1,2.9562992E1,6.1044186E1,2.0985966E0,2.0415632E1,1.7063084E1,4.231342E0,1.6755281E1,2.5817194E1],"tree_param":{"num_deleted":"0","num_feature":"46","num_nodes":"15","size_leaf_vector":"1"}},{"base_weights":[2.1644972E-2,-1.0299126E-1,6.7212445E-1,-7.727532E-1,4.212013E-2,-9.2603015E-3,7.939525E-1,5.7010828E-3,-9.818082E-3,-9.532153E-3,1.4165499E-3,1.0963482E-2,1.235972E-3],"categories":[],"categories_nodes":[],"categories_segments":[],"categories_sizes":[],"default_left":[0,0,0,0,0,0,0,0,0,0,0,0,0],"id":58,"left_children":[1,3,5,7,9,-1,11,-1,-1,-1,-1,-1,-1],"loss_changes":[1.4146547E1,1.427904E1,6.197179E0,7.9023104E0,1.2165039E1,0E0,5.2575626E0,0E0,0E0,0E0,0E0,0E0,0E0],"parents":[2147483647,0,0,1,1,2,2,3,3,4,4,6,6],"right_children":[2,4,6,8,10,-1,12,-1,-1,-1,-1,-1,-1],"split_conditions":[9.2894104E2,4.6085063E-1,-2.239687E0,-8.842558E1,1.474794E3,-9.2603015E-3,1.0098733E3,5.7010828E-3,-9.818082E-3,-9.532153E-3,1.4165499E-3,1.0963482E-2,1.235972E-3],"split_indices":[41,40,27,30,25,0,41,0,0,0,0,0,0],"split_type":[0,0,0,0,0,0,0,0,0,0,0,0,0],"sum_hessian":[1.7263696E2,1.455838E2,2.7053165E1,2.5155107E1,1.2042869E2,1.4486389E0,2.5604527E1,3.1559355E0,2.1999172E1,1.0168487E1,1.1026021E2,1.7207014E1,8.397513E0],"tree_param":{"num_deleted":"0","num_feature":"46","num_nodes":"13","size_leaf_vector":"1"}},{"base_weights":[-1.0760798E-1,-2.4322452E-1,6.349319E-1,-7.442565E-1,-1.0486513E-1,8.534063E-1,-1.2968908E-1,-8.886588E-3,5.849747E-3,-3.153646E-3,2.364767E-3,9.669503E-3,-7.2704535E-3,7.981599E-3,-1.01732E-2],"categories":[],"categories_nodes":[],"categories_segments":[],"categories_sizes":[],"default_left":[0,0,0,0,0,0,0,0,0,0,0,0,0,0,0],"id":59,"left_children":[1,3,5,7,9,11,13,-1,-1,-1,-1,-1,-1,-1,-1],"loss_changes":[1.8602898E1,1.071073E1,4.8831835E0,6.9525604E0,8.920899E0,4.714142E0,6.7558727E0,0E0,0E0,0E0,0E0,0E0,0E0,0E0,0E0],"parents":[2147483647,0,0,1,1,2,2,3,3,4,4,5,5,6,6],"right_children":[2,4,6,8,10,12,14,-1,-1,-1,-1,-1,-1,-1,-1],"split_conditions":[9.4999634E2,6.5621466E2,1.5045311E3,6.4466864E-1,5.3553146E-1,1.5785441E3,8.880195E-2,-8.886588E-3,5.849747E-3,-3.153646E-3,2.364767E-3,9.669503E-3,-7.2704535E-3,7.981599E-3,-1.01732E-2],"split_indices":[41,41,25,40,40,39,2,0,0,0,0,0,0,0,0],"split_type":[0,0,0,0,0,0,0,0,0,0,0,0,0,0,0],"sum_hessian":[1.82201E2,1.5463171E2,2.7569296E1,3.2513504E1,1.2211821E2,2.1352226E1,6.2170687E0,2.9626453E1,2.8870482E0,7.558338E1,4.6534832E1,2.0283207E1,1.069021E0,3.0889535E0,3.128115E0],"tree_param":{"num_deleted":"0","num_feature":"46","num_nodes":"15","size_leaf_vector":"1"}},{"base_weights":[7.0085363E-3,-1.935583E-1,3.131938E-1,-3.152389E-1,4.2904204E-1,-3.7420228E-1,5.796124E-1,-5.624439E-3,-5.479778E-4,-1.9555183E-3,8.965541E-3,1.1667814E-2,-5.7169166E-3,-3.0728495E-3,7.1784323E-3],"categories":[],"categories_nodes":[],"categories_segments":[],"categories_sizes":[],"default_left":[0,0,0,0,0,0,0,0,0,0,0,0,0,0,0],"id":60,"left_children":[1,3,5,7,9,11,13,-1,-1,-1,-1,-1,-1,-1,-1],"loss_changes":[1.1408709E1,8.640676E0,1.3680968E1,6.052802E0,5.658701E0,7.1015034E0,6.764387E0,0E0,0E0,0E0,0E0,0E0,0E0,0E0,0E0],"parents":[2147483647,0,0,1,1,2,2,3,3,4,4,5,5,6,6],"right_children":[2,4,6,8,10,12,14,-1,-1,-1,-1,-1,-1,-1,-1],"split_conditions":[5.3553146E-1,9.253363E2,7.133764E2,2.5229543E-3,2.5736177E-2,-5.5905538E0,5E-1,-5.624439E-3,-5.479778E-4,-1.9555183E-3,8.965541E-3,1.1667814E-2,-5.7169166E-3,-3.0728495E-3,7.1784323E-3],"split_indices":[40,41,41,2,28,13,20,0,0,0,0,0,0,0,0],"split_type":[0,0,0,0,0,0,0,0,0,0,0,0,0,0,0],"sum_hessian":[1.8379034E2,1.11270424E2,7.251992E1,9.349207E1,1.7778357E1,2.0143188E1,5.2376728E1,4.736996E1,4.612211E1,7.8596373E0,9.918719E0,1.7306993E0,1.8412489E1,6.8976984E0,4.547903E1],"tree_param":{"num_deleted":"0","num_feature":"46","num_nodes":"15","size_leaf_vector":"1"}},{"base_weights":[-2.1746006E-2,-2.4342921E-1,3.3742476E-1,-5.3373027E-1,1.5026447E-1,-4.605936E-1,4.9136117E-1,-1.1956434E-3,-8.676117E-3,-1.7725959E-3,6.0397247E-3,-7.943525E-3,1.046598E-2,-5.34773E-4,7.1387063E-3],"categories":[],"categories_nodes":[],"categories_segments":[],"categories_sizes":[],"default_left":[0,0,0,0,0,0,0,0,0,0,0,0,0,0,0],"id":61,"left_children":[1,3,5,7,9,11,13,-1,-1,-1,-1,-1,-1,-1,-1],"loss_changes":[1.4480467E1,1.2926258E1,8.755899E0,8.872774E0,7.3119054E0,6.7390823E0,7.153282E0,0E0,0E0,0E0,0E0,0E0,0E0,0E0,0E0],"parents":[2147483647,0,0,1,1,2,2,3,3,4,4,5,5,6,6],"right_children":[2,4,6,8,10,12,14,-1,-1,-1,-1,-1,-1,-1,-1],"split_conditions":[5.3553146E-1,7.8768976E2,-2.5170067E1,-1.3333334E-1,1.5152548E3,1.5739689E3,7.175386E2,-1.1956434E-3,-8.676117E-3,-1.7725959E-3,6.0397247E-3,-7.943525E-3,1.046598E-2,-5.34773E-4,7.1387063E-3],"split_indices":[40,41,45,4,39,38,41,0,0,0,0,0,0,0,0],"split_type":[0,0,0,0,0,0,0,0,0,0,0,0,0,0,0],"sum_hessian":[1.7983327E2,1.1139908E2,6.84342E1,6.3914345E1,4.7484734E1,1.0744059E1,5.7690136E1,2.913353E1,3.478081E1,2.7931076E1,1.9553656E1,9.183405E0,1.5606536E0,1.694881E1,4.0741325E1],"tree_param":{"num_deleted":"0","num_feature":"46","num_nodes":"15","size_leaf_vector":"1"}},{"base_weights":[1.6616985E-2,-2.4099867E-1,2.9803273E-1,-4.2778033E-1,5.567171E-1,3.7412834E-1,-4.417439E-1,2.1535137E-3,-5.7161073E-3,1.3323431E-4,1.0593635E-2,2.0586113E-3,9.88251E-3,5.994295E-3,-1.0400365E-2],"categories":[],"categories_nodes":[],"categories_segments":[],"categories_sizes":[],"default_left":[0,0,0,0,0,0,0,0,0,0,0,0,0,0,0],"id":62,"left_children":[1,3,5,7,9,11,13,-1,-1,-1,-1,-1,-1,-1,-1],"loss_changes":[1.3256081E1,1.4467121E1,5.0831904E0,7.3331356E0,5.053231E0,8.038185E0,5.984775E0,0E0,0E0,0E0,0E0,0E0,0E0,0E0,0E0],"parents":[2147483647,0,0,1,1,2,2,3,3,4,4,5,5,6,6],"right_children":[2,4,6,8,10,12,14,-1,-1,-1,-1,-1,-1,-1,-1],"split_conditions":[7.865145E2,5.873571E-1,1.3074603E2,9.372176E-1,8.3333336E-2,8.377742E0,3E0,2.1535137E-3,-5.7161073E-3,1.3323431E-4,1.0593635E-2,2.0586113E-3,9.88251E-3,5.994295E-3,-1.0400365E-2],"split_indices":[41,40,30,43,3,30,32,0,0,0,0,0,0,0,0],"split_type":[0,0,0,0,0,0,0,0,0,0,0,0,0,0,0],"sum_hessian":[1.8085905E2,9.4497284E1,8.636178E1,7.6944756E1,1.7552534E1,7.8755066E1,7.6067095E0,1.3972052E1,6.2972702E1,8.927657E0,8.624876E0,6.2865402E1,1.5889663E1,2.7752337E0,4.8314757E0],"tree_param":{"num_deleted":"0","num_feature":"46","num_nodes":"15","size_leaf_vector":"1"}},{"base_weights":[-1.0407449E-2,-5.933004E-1,1.2342811E-1,-8.023943E-1,9.486912E-1,1.7775182E-1,-9.0731645E-1,-5.234431E-3,-1.3563241E-2,7.370059E-4,1.2537697E-2,1.1069194E-3,1.0961639E-2,-1.3113867E-2,5.27243E-3],"categories":[],"categories_nodes":[],"categories_segments":[],"categories_sizes":[],"default_left":[0,0,0,0,0,0,0,0,0,0,0,0,0,0,0],"id":63,"left_children":[1,3,5,7,9,11,13,-1,-1,-1,-1,-1,-1,-1,-1],"loss_changes":[1.3719674E1,1.1348473E1,8.173511E0,3.8417988E0,1.0765841E0,8.301744E0,4.938986E0,0E0,0E0,0E0,0E0,0E0,0E0,0E0,0E0],"parents":[2147483647,0,0,1,1,2,2,3,3,4,4,5,5,6,6],"right_children":[2,4,6,8,10,12,14,-1,-1,-1,-1,-1,-1,-1,-1],"split_conditions":[6.5621466E2,6.272451E-1,1.5577242E2,1.5666667E-1,-3.4414357E-1,1.2400695E-2,9.4789417E2,-5.234431E-3,-1.3563241E-2,7.370059E-4,1.2537697E-2,1.1069194E-3,1.0961639E-2,-1.3113867E-2,5.27243E-3],"split_indices":[41,40,30,3,2,42,41,0,0,0,0,0,0,0,0],"split_type":[0,0,0,0,0,0,0,0,0,0,0,0,0,0,0],"sum_hessian":[1.7392796E2,3.1836714E1,1.4209125E2,2.8457516E1,3.3791988E0,1.357636E2,6.32765E0,2.0219982E1,8.237533E0,1.1945915E0,2.1846073E0,1.2756937E2,8.194234E0,5.0040326E0,1.3236175E0],"tree_param":{"num_deleted":"0","num_feature":"46","num_nodes":"15","size_leaf_vector":"1"}},{"base_weights":[-2.6524795E-2,-6.2951964E-1,1.0115274E-1,-8.799569E-1,2.2878443E-1,-5.8485705E-1,1.9649138E-1,4.0693601E-4,-1.0459798E-2,-7.3672966E-3,9.882953E-3,-1.0876823E-2,3.968692E-3,4.393157E-3,-1.2462639E-3],"categories":[],"categories_nodes":[],"categories_segments":[],"categories_sizes":[],"default_left":[0,0,0,0,0,0,0,0,0,0,0,0,0,0,0],"id":64,"left_children":[1,3,5,7,9,11,13,-1,-1,-1,-1,-1,-1,-1,-1],"loss_changes":[1.3924968E1,6.993582E0,9.889017E0,3.8130398E0,6.544131E0,9.557189E0,1.0344152E1,0E0,0E0,0E0,0E0,0E0,0E0,0E0,0E0],"parents":[2147483647,0,0,1,1,2,2,3,3,4,4,5,5,6,6],"right_children":[2,4,6,8,10,12,14,-1,-1,-1,-1,-1,-1,-1,-1],"split_conditions":[6.525213E2,4.320697E1,1.474794E3,1.4493733E3,-2.007319E-3,7.0939156E1,1.5028917E3,4.0693601E-4,-1.0459798E-2,-7.3672966E-3,9.882953E-3,-1.0876823E-2,3.968692E-3,4.393157E-3,-1.2462639E-3],"split_indices":[41,1,25,38,31,1,25,0,0,0,0,0,0,0,0],"split_type":[0,0,0,0,0,0,0,0,0,0,0,0,0,0,0],"sum_hessian":[1.7904271E2,3.0599064E1,1.4844365E2,2.3667963E1,6.931102E0,1.7486305E1,1.3095735E2,3.731346E0,1.9936617E1,3.0648997E0,3.8662024E0,1.1492229E1,5.994075E0,7.435964E1,5.659771E1],"tree_param":{"num_deleted":"0","num_feature":"46","num_nodes":"15","size_leaf_vector":"1"}},{"base_weights":[-5.1816227E-3,-2.0648035E-1,3.134107E-1,-3.434916E-1,4.672127E-1,-1.3487983E-1,7.038644E-1,3.3188532E-3,-4.309066E-3,-1.5603905E-3,8.984305E-3,4.32463E-3,-5.636143E-3,-2.4482172E-3,9.227482E-3],"categories":[],"categories_nodes":[],"categories_segments":[],"categories_sizes":[],"default_left":[0,0,0,0,0,0,0,0,0,0,0,0,0,0,0],"id":65,"left_children":[1,3,5,7,9,11,13,-1,-1,-1,-1,-1,-1,-1,-1],"loss_changes":[1.1318111E1,1.0141542E1,1.2056734E1,5.482094E0,5.16554E0,8.18609E0,7.8439198E0,0E0,0E0,0E0,0E0,0E0,0E0,0E0,0E0],"parents":[2147483647,0,0,1,1,2,2,3,3,4,4,5,5,6,6],"right_children":[2,4,6,8,10,12,14,-1,-1,-1,-1,-1,-1,-1,-1],"split_conditions":[5.3553146E-1,9.253363E2,7.333333E-2,1.4750483E3,4.98124E0,1.4985636E3,-1.0708482E1,3.3188532E-3,-4.309066E-3,-1.5603905E-3,8.984305E-3,4.32463E-3,-5.636143E-3,-2.4482172E-3,9.227482E-3],"split_indices":[40,41,3,38,45,25,45,0,0,0,0,0,0,0,0],"split_type":[0,0,0,0,0,0,0,0,0,0,0,0,0,0,0],"sum_hessian":[1.744718E2,1.07133E2,6.7338806E1,8.943453E1,1.7698471E1,3.1652388E1,3.5686417E1,9.928593E0,7.950594E1,7.4986277E0,1.0199843E1,1.3620169E1,1.8032219E1,6.667901E0,2.9018515E1],"tree_param":{"num_deleted":"0","num_feature":"46","num_nodes":"15","size_leaf_vector":"1"}},{"base_weights":[1.1685993E-2,-5.932219E-1,1.5129867E-1,-7.797601E-1,9.0066767E-1,3.568972E-1,-1.6264115E-1,-1.160575E-2,-3.1608886E-3,6.3483126E-4,1.1802662E-2,-3.3841946E-3,5.221175E-3,-4.426139E-3,3.9267633E-3],"categories":[],"categories_nodes":[],"categories_segments":[],"categories_sizes":[],"default_left":[0,0,0,0,0,0,0,0,0,0,0,0,0,0,0],"id":66,"left_children":[1,3,5,7,9,11,13,-1,-1,-1,-1,-1,-1,-1,-1],"loss_changes":[1.53397255E1,1.0194964E1,9.579124E0,5.0749702E0,9.188173E-1,1.0452528E1,9.356285E0,0E0,0E0,0E0,0E0,0E0,0E0,0E0,0E0],"parents":[2147483647,0,0,1,1,2,2,3,3,4,4,5,5,6,6],"right_children":[2,4,6,8,10,12,14,-1,-1,-1,-1,-1,-1,-1,-1],"split_conditions":[6.5621466E2,6.4466864E-1,1.502936E3,1.5045876E3,4.3333333E-2,1.4740253E3,5.58899E-1,-1.160575E-2,-3.1608886E-3,6.3483126E-4,1.1802662E-2,-3.3841946E-3,5.221175E-3,-4.426139E-3,3.9267633E-3],"split_indices":[41,40,25,25,3,25,40,0,0,0,0,0,0,0,0],"split_type":[0,0,0,0,0,0,0,0,0,0,0,0,0,0,0],"sum_hessian":[1.7957387E2,3.3064472E1,1.465094E2,2.9819075E1,3.245399E0,8.844809E1,5.8061302E1,1.5547139E1,1.4271935E1,1.1197258E0,2.1256733E0,1.6780476E1,7.166762E1,3.8735233E1,1.9326073E1],"tree_param":{"num_deleted":"0","num_feature":"46","num_nodes":"15","size_leaf_vector":"1"}},{"base_weights":[2.1324748E-2,-2.4466121E-1,3.3670262E-1,-7.325507E-1,5.1842637E-2,3.994896E-1,-5.536729E-1,-2.716931E-3,-1.0103647E-2,2.2842516E-3,-8.204925E-3,2.5554618E-3,8.963018E-3,9.444534E-3,-1.1807929E-2],"categories":[],"categories_nodes":[],"categories_segments":[],"categories_sizes":[],"default_left":[0,0,0,0,0,0,0,0,0,0,0,0,0,0,0],"id":67,"left_children":[1,3,5,7,9,11,13,-1,-1,-1,-1,-1,-1,-1,-1],"loss_changes":[1.5369521E1,1.4422922E1,4.9058294E0,4.546486E0,9.858696E0,5.4103804E0,6.6950035E0,0E0,0E0,0E0,0E0,0E0,0E0,0E0,0E0],"parents":[2147483647,0,0,1,1,2,2,3,3,4,4,5,5,6,6],"right_children":[2,4,6,8,10,12,14,-1,-1,-1,-1,-1,-1,-1,-1],"split_conditions":[7.8768976E2,5.061197E-1,1.3074603E2,-1E-1,9.636809E-1,1.9960161E0,3E0,-2.716931E-3,-1.0103647E-2,2.2842516E-3,-8.204925E-3,2.5554618E-3,8.963018E-3,9.444534E-3,-1.1807929E-2],"split_indices":[41,40,30,3,27,30,32,0,0,0,0,0,0,0,0],"split_type":[0,0,0,0,0,0,0,0,0,0,0,0,0,0,0],"sum_hessian":[1.8123694E2,9.843894E1,8.2798004E1,3.6654415E1,6.1784523E1,7.785892E1,4.939084E0,1.4529617E1,2.2124798E1,5.1997143E1,9.787382E0,6.154237E1,1.631655E1,1.3081144E0,3.6309698E0],"tree_param":{"num_deleted":"0","num_feature":"46","num_nodes":"15","size_leaf_vector":"1"}},{"base_weights":[4.8475098E-2,-5.776693E-1,1.6954191E-1,-7.923119E-1,5.4254156E-1,-3.2840895E-3,5.214172E-1,-4.783314E-3,-1.4845254E-2,1.0540187E-2,-4.4510956E-3,-1.0565291E-3,7.540531E-3,-2.504591E-3,8.339158E-3],"categories":[],"categories_nodes":[],"categories_segments":[],"categories_sizes":[],"default_left":[0,0,0,0,0,0,0,0,0,0,0,0,0,0,0],"id":68,"left_children":[1,3,5,7,9,11,13,-1,-1,-1,-1,-1,-1,-1,-1],"loss_changes":[1.3537328E1,7.3912277E0,9.083325E0,4.6588926E0,3.1207433E0,7.920948E0,1.2075107E1,0E0,0E0,0E0,0E0,0E0,0E0,0E0,0E0],"parents":[2147483647,0,0,1,1,2,2,3,3,4,4,5,5,6,6],"right_children":[2,4,6,8,10,12,14,-1,-1,-1,-1,-1,-1,-1,-1],"split_conditions":[6.5621466E2,6.272451E-1,2.1666667E-1,1.1333334E-1,1.5196556E3,1.9315373E0,4.9251464E-1,-4.783314E-3,-1.4845254E-2,1.0540187E-2,-4.4510956E-3,-1.0565291E-3,7.540531E-3,-2.504591E-3,8.339158E-3],"split_indices":[41,40,3,3,38,29,40,0,0,0,0,0,0,0,0],"split_type":[0,0,0,0,0,0,0,0,0,0,0,0,0,0,0],"sum_hessian":[1.7628824E2,2.7952005E1,1.4833623E2,2.3703005E1,4.2489996E0,1.0014163E2,4.8194595E1,1.7469877E1,6.233128E0,2.7550423E0,1.4939575E0,8.897538E1,1.1166255E1,1.3946087E1,3.424851E1],"tree_param":{"num_deleted":"0","num_feature":"46","num_nodes":"15","size_leaf_vector":"1"}},{"base_weights":[-3.7363224E-2,-1.5988755E-1,6.889027E-1,-9.32564E-2,-1.3192539E0,9.015658E-1,4.5934267E-2,-2.851844E-3,2.697071E-3,-2.0290015E-3,-1.48907695E-2,-4.641835E-3,1.1112137E-2,9.716247E-3,-7.024335E-3],"categories":[],"categories_nodes":[],"categories_segments":[],"categories_sizes":[],"default_left":[0,0,0,0,0,0,0,0,0,0,0,0,0,0,0],"id":69,"left_children":[1,3,5,7,9,11,13,-1,-1,-1,-1,-1,-1,-1,-1],"loss_changes":[1.5821914E1,1.1610461E1,3.469407E0,1.0157903E1,1.2484503E0,6.0249166E0,5.8333726E0,0E0,0E0,0E0,0E0,0E0,0E0,0E0,0E0],"parents":[2147483647,0,0,1,1,2,2,3,3,4,4,5,5,6,6],"right_children":[2,4,6,8,10,12,14,-1,-1,-1,-1,-1,-1,-1,-1],"split_conditions":[9.4999634E2,1.4630533E2,1.5037787E3,5.517597E-1,-2.5840943E0,4.554507E-1,-1.5497272E-1,-2.851844E-3,2.697071E-3,-2.0290015E-3,-1.48907695E-2,-4.641835E-3,1.1112137E-2,9.716247E-3,-7.024335E-3],"split_indices":[41,30,25,40,13,40,28,0,0,0,0,0,0,0,0],"split_type":[0,0,0,0,0,0,0,0,0,0,0,0,0,0,0],"sum_hessian":[1.7556596E2,1.5088998E2,2.467597E1,1.4371106E2,7.1789308E0,1.8240648E1,6.4353228E0,9.41439E1,4.956716E1,1.2376767E0,5.941254E0,2.2658277E0,1.597482E1,2.7434716E0,3.6918514E0],"tree_param":{"num_deleted":"0","num_feature":"46","num_nodes":"15","size_leaf_vector":"1"}},{"base_weights":[-2.8284008E-3,-3.7999162E-1,2.0557621E-1,-5.135921E-1,7.322443E-1,1.14615686E-1,1.312563E0,1.1533769E-4,-8.291877E-3,1.3618327E-2,8.901153E-4,-8.7495474E-4,4.6373783E-3,3.4208898E-3,1.401599E-2],"categories":[],"categories_nodes":[],"categories_segments":[],"categories_sizes":[],"default_left":[0,0,0,0,0,0,0,0,0,0,0,0,0,0,0],"id":70,"left_children":[1,3,5,7,9,11,13,-1,-1,-1,-1,-1,-1,-1,-1],"loss_changes":[1.4143186E1,9.891492E0,1.1520103E1,9.581402E0,2.82669E0,7.6752133E0,2.726946E-1,0E0,0E0,0E0,0E0,0E0,0E0,0E0,0E0],"parents":[2147483647,0,0,1,1,2,2,3,3,4,4,5,5,6,6],"right_children":[2,4,6,8,10,12,14,-1,-1,-1,-1,-1,-1,-1,-1],"split_conditions":[7.266562E2,3.6666667E-1,1.0565823E-1,-4.0728188E0,1E1,1.4666666E-1,1.474794E3,1.1533769E-4,-8.291877E-3,1.3618327E-2,8.901153E-4,-8.7495474E-4,4.6373783E-3,3.4208898E-3,1.401599E-2],"split_indices":[41,4,31,8,32,3,25,0,0,0,0,0,0,0,0],"split_type":[0,0,0,0,0,0,0,0,0,0,0,0,0,0,0],"sum_hessian":[1.7793909E2,6.30358E1,1.14903275E2,5.675651E1,6.279292E0,1.0719838E2,7.704897E0,2.1667303E1,3.5089207E1,2.6087296E0,3.6705627E0,6.836843E1,3.8829952E1,1.0543928E0,6.650504E0],"tree_param":{"num_deleted":"0","num_feature":"46","num_nodes":"15","size_leaf_vector":"1"}},{"base_weights":[-1.1654115E-2,-1.5290219E-1,5.5198693E-1,-3.047122E-1,2.7693456E-1,1.1646281E0,3.4668732E-1,-3.540953E-3,1.2970337E-2,4.4435123E-3,-7.446037E-3,1.4106168E-2,-1.1816429E-3,-6.0328653E-5,9.033261E-3],"categories":[],"categories_nodes":[],"categories_segments":[],"categories_sizes":[],"default_left":[0,0,0,0,0,0,0,0,0,0,0,0,0,0,0],"id":71,"left_children":[1,3,5,7,9,11,13,-1,-1,-1,-1,-1,-1,-1,-1],"loss_changes":[1.4447094E1,9.548671E0,4.170332E0,8.97506E0,6.8945446E0,2.9133072E0,5.6330967E0,0E0,0E0,0E0,0E0,0E0,0E0,0E0,0E0],"parents":[2147483647,0,0,1,1,2,2,3,3,4,4,5,5,6,6],"right_children":[2,4,6,8,10,12,14,-1,-1,-1,-1,-1,-1,-1,-1],"split_conditions":[9.1022534E2,2.7333334E-1,3E0,3.6570582E-1,9.15644E0,1.6198168E3,6.5325536E-2,-3.540953E-3,1.2970337E-2,4.4435123E-3,-7.446037E-3,1.4106168E-2,-1.1816429E-3,-6.0328653E-5,9.033261E-3],"split_indices":[41,3,32,2,8,38,27,0,0,0,0,0,0,0,0],"split_type":[0,0,0,0,0,0,0,0,0,0,0,0,0,0,0],"sum_hessian":[1.7940594E2,1.4403867E2,3.536727E1,1.0665964E2,3.737903E1,7.7041726E0,2.7663097E1,1.0422523E2,2.4344144E0,3.2601147E1,4.7778807E0,6.3809204E0,1.3232524E0,1.7538683E1,1.0124414E1],"tree_param":{"num_deleted":"0","num_feature":"46","num_nodes":"15","size_leaf_vector":"1"}},{"base_weights":[6.5254336E-3,-1.1471385E-1,7.165246E-1,-4.6348894E-1,1.00919604E-1,9.708928E-1,1.66825E-2,-6.1721895E-3,3.549357E-3,6.409246E-3,-7.009414E-4,-3.8275945E-3,1.1538695E-2,9.075216E-3,-1.0212325E-2],"categories":[],"categories_nodes":[],"categories_segments":[],"categories_sizes":[],"default_left":[0,0,0,0,0,0,0,0,0,0,0,0,0,0,0],"id":72,"left_children":[1,3,5,7,9,11,13,-1,-1,-1,-1,-1,-1,-1,-1],"loss_changes":[1.5263893E1,1.1441161E1,4.587676E0,7.5242186E0,8.766659E0,5.135391E0,8.241985E0,0E0,0E0,0E0,0E0,0E0,0E0,0E0,0E0],"parents":[2147483647,0,0,1,1,2,2,3,3,4,4,5,5,6,6],"right_children":[2,4,6,8,10,12,14,-1,-1,-1,-1,-1,-1,-1,-1],"split_conditions":[9.4999634E2,5.061197E-1,1.5037787E3,8.2689166E2,-4.767833E0,-1.2462001E0,7.8505486E-2,-6.1721895E-3,3.549357E-3,6.409246E-3,-7.009414E-4,-3.8275945E-3,1.1538695E-2,9.075216E-3,-1.0212325E-2],"split_indices":[41,40,25,41,8,28,2,0,0,0,0,0,0,0,0],"split_type":[0,0,0,0,0,0,0,0,0,0,0,0,0,0,0],"sum_hessian":[1.7536774E2,1.5050583E2,2.4861906E1,5.7061924E1,9.344391E1,1.7950296E1,6.9116096E0,4.82455E1,8.816422E0,2.1814167E1,7.1629745E1,2.007448E0,1.5942849E1,3.7869296E0,3.12468E0],"tree_param":{"num_deleted":"0","num_feature":"46","num_nodes":"15","size_leaf_vector":"1"}},{"base_weights":[1.2697816E-2,-5.2746797E-1,1.8382034E-1,-1.0518152E0,-1.8945959E-1,-2.5300604E-1,3.690136E-1,-1.2171686E-2,2.537053E-3,-3.5587267E-3,1.3372222E-2,1.3758219E-2,-4.067343E-3,9.907263E-4,7.697768E-3],"categories":[],"categories_nodes":[],"categories_segments":[],"categories_sizes":[],"default_left":[0,0,0,0,0,0,0,0,0,0,0,0,0,0,0],"id":73,"left_children":[1,3,5,7,9,11,13,-1,-1,-1,-1,-1,-1,-1,-1],"loss_changes":[1.6452715E1,7.391268E0,1.10239105E1,3.8851738E0,7.4017515E0,1.0781125E1,1.0232984E1,0E0,0E0,0E0,0E0,0E0,0E0,0E0,0E0],"parents":[2147483647,0,0,1,1,2,2,3,3,4,4,5,5,6,6],"right_children":[2,4,6,8,10,12,14,-1,-1,-1,-1,-1,-1,-1,-1],"split_conditions":[4.7915974E-1,1.4978766E3,7.1861725E2,1.5153204E3,1.6623178E0,1.4493733E3,1.4666666E-1,-1.2171686E-2,2.537053E-3,-3.5587267E-3,1.3372222E-2,1.3758219E-2,-4.067343E-3,9.907263E-4,7.697768E-3],"split_indices":[40,26,41,25,27,38,3,0,0,0,0,0,0,0,0],"split_type":[0,0,0,0,0,0,0,0,0,0,0,0,0,0,0],"sum_hessian":[1.7594423E2,4.1827873E1,1.3411636E2,1.5567086E1,2.6260786E1,3.9821304E1,9.429505E1,1.3877127E1,1.6899602E0,2.4371151E1,1.8896339E0,2.748619E0,3.7072685E1,5.708899E1,3.7206066E1],"tree_param":{"num_deleted":"0","num_feature":"46","num_nodes":"15","size_leaf_vector":"1"}},{"base_weights":[4.2441096E-2,-5.4364926E-1,1.641275E-1,-6.8518436E-1,7.268634E-1,-1.5181235E-2,5.7020617E-1,-1.2925987E-2,-4.0956005E-3,9.95736E-3,1.2291286E-3,2.3440896E-3,-3.9769565E-3,-3.2622877E-3,8.878188E-3],"categories":[],"categories_nodes":[],"categories_segments":[],"categories_sizes":[],"default_left":[0,0,0,0,0,0,0,0,0,0,0,0,0,0,0],"id":74,"left_children":[1,3,5,7,9,11,13,-1,-1,-1,-1,-1,-1,-1,-1],"loss_changes":[1.2633618E1,5.977645E0,1.0669884E1,4.1470547E0,4.523933E-1,9.883227E0,1.3066406E1,0E0,0E0,0E0,0E0,0E0,0E0,0E0,0E0],"parents":[2147483647,0,0,1,1,2,2,3,3,4,4,5,5,6,6],"right_children":[2,4,6,8,10,12,14,-1,-1,-1,-1,-1,-1,-1,-1],"split_conditions":[6.525213E2,6.4466864E-1,5.58899E-1,1.4922024E3,1.4989207E3,1.5032498E3,-3.269303E0,-1.2925987E-2,-4.0956005E-3,9.95736E-3,1.2291286E-3,2.3440896E-3,-3.9769565E-3,-3.2622877E-3,8.878188E-3],"split_indices":[41,40,40,25,38,25,45,0,0,0,0,0,0,0,0],"split_type":[0,0,0,0,0,0,0,0,0,0,0,0,0,0,0],"sum_hessian":[1.7489075E2,2.9472376E1,1.4541837E2,2.6932768E1,2.5396087E0,1.0154335E2,4.3875023E1,7.254893E0,1.9677874E1,1.3084122E0,1.2311966E0,6.168267E1,3.986068E1,1.1471251E1,3.240377E1],"tree_param":{"num_deleted":"0","num_feature":"46","num_nodes":"15","size_leaf_vector":"1"}},{"base_weights":[-6.152212E-2,-3.0929127E-1,2.3031378E-1,-4.897854E-1,4.2206636E-1,7.124639E-1,5.050795E-2,-3.0304557E-3,-1.1091696E-2,-5.4690675E-3,6.5771923E-3,8.2312344E-4,1.2642062E-2,-7.729923E-3,1.781771E-3],"categories":[],"categories_nodes":[],"categories_segments":[],"categories_sizes":[],"default_left":[0,0,0,0,0,0,0,0,0,0,0,0,0,0,0],"id":75,"left_children":[1,3,5,7,9,11,13,-1,-1,-1,-1,-1,-1,-1,-1],"loss_changes":[1.3198969E1,1.3224692E1,7.2407584E0,8.8659725E0,4.93968E0,7.796377E0,6.678562E0,0E0,0E0,0E0,0E0,0E0,0E0,0E0,0E0],"parents":[2147483647,0,0,1,1,2,2,3,3,4,4,5,5,6,6],"right_children":[2,4,6,8,10,12,14,-1,-1,-1,-1,-1,-1,-1,-1],"split_conditions":[7.8768976E2,5.873571E-1,1.4913674E3,8.087657E-1,1.4914963E3,2.5229543E-3,1.4951476E3,-3.0304557E-3,-1.1091696E-2,-5.4690675E-3,6.5771923E-3,8.2312344E-4,1.2642062E-2,-7.729923E-3,1.781771E-3],"split_indices":[41,40,26,27,26,2,26,0,0,0,0,0,0,0,0],"split_type":[0,0,0,0,0,0,0,0,0,0,0,0,0,0,0],"sum_hessian":[1.8055319E2,9.761668E1,8.293652E1,7.855912E1,1.9057556E1,2.1723215E1,6.121331E1,6.150506E1,1.705406E1,3.4697196E0,1.5587837E1,1.06775E1,1.1045714E1,7.5378036E0,5.3675507E1],"tree_param":{"num_deleted":"0","num_feature":"46","num_nodes":"15","size_leaf_vector":"1"}},{"base_weights":[-4.918172E-3,-6.5698415E-1,1.4412928E-1,-8.5234195E-1,5.2987665E-1,5.7275325E-2,1.0084827E0,-9.869094E-4,-1.0749455E-2,1.0770993E-2,-6.7494637E-3,-3.2918793E-3,1.9565772E-3,1.3807184E-2,-9.6164655E-4],"categories":[],"categories_nodes":[],"categories_segments":[],"categories_sizes":[],"default_left":[0,0,0,0,0,0,0,0,0,0,0,0,0,0,0],"id":76,"left_children":[1,3,5,7,9,11,13,-1,-1,-1,-1,-1,-1,-1,-1],"loss_changes":[1.7062677E1,8.024742E0,1.0672041E1,4.6633263E0,4.177125E0,7.066808E0,5.4742193E0,0E0,0E0,0E0,0E0,0E0,0E0,0E0,0E0],"parents":[2147483647,0,0,1,1,2,2,3,3,4,4,5,5,6,6],"right_children":[2,4,6,8,10,12,14,-1,-1,-1,-1,-1,-1,-1,-1],"split_conditions":[6.5621466E2,6.272451E-1,1.2400695E-2,-2.213479E0,1.5196556E3,-6.093802E0,1.5089742E3,-9.869094E-4,-1.0749455E-2,1.0770993E-2,-6.7494637E-3,-3.2918793E-3,1.9565772E-3,1.3807184E-2,-9.6164655E-4],"split_indices":[41,40,42,28,38,45,25,0,0,0,0,0,0,0,0],"split_type":[0,0,0,0,0,0,0,0,0,0,0,0,0,0,0],"sum_hessian":[1.7358792E2,3.1662058E1,1.4192587E2,2.7429073E1,4.2329845E0,1.2993564E2,1.199023E1,6.583429E0,2.0845646E1,2.9837813E0,1.2492033E0,3.3895676E1,9.603996E1,8.781266E0,3.2089632E0],"tree_param":{"num_deleted":"0","num_feature":"46","num_nodes":"15","size_leaf_vector":"1"}},{"base_weights":[-2.9122815E-2,-6.1332667E-1,9.8243065E-2,6.9322544E-3,-7.158523E-1,3.2611534E-1,-2.4800614E-1,5.599329E-4,-9.235091E-3,-2.6710879E-3,4.647967E-3,8.661355E-3,-4.051693E-3],"categories":[],"categories_nodes":[],"categories_segments":[],"categories_sizes":[],"default_left":[0,0,0,0,0,0,0,0,0,0,0,0,0],"id":77,"left_children":[1,3,5,-1,7,9,11,-1,-1,-1,-1,-1,-1],"loss_changes":[1.3602511E1,4.8785763E0,1.1938531E1,0E0,4.9925537E0,7.6162796E0,1.0895126E1,0E0,0E0,0E0,0E0,0E0,0E0],"parents":[2147483647,0,0,1,1,2,2,4,4,5,5,6,6],"right_children":[2,4,6,-1,8,10,12,-1,-1,-1,-1,-1,-1],"split_conditions":[6.5621466E2,-1.4979276E-1,1.502936E3,6.9322544E-3,-2.0541236E0,1.4767269E3,1.4868856E3,5.599329E-4,-9.235091E-3,-2.6710879E-3,4.647967E-3,8.661355E-3,-4.051693E-3],"split_indices":[41,42,25,0,28,25,38,0,0,0,0,0,0],"split_type":[0,0,0,0,0,0,0,0,0,0,0,0,0],"sum_hessian":[1.810009E2,3.171492E1,1.4928598E2,1.8883924E0,2.9826527E1,9.006854E1,5.9217434E1,6.4781294E0,2.3348396E1,1.6890705E1,7.317783E1,6.7629943E0,5.245444E1],"tree_param":{"num_deleted":"0","num_feature":"46","num_nodes":"13","size_leaf_vector":"1"}},{"base_weights":[-2.3122447E-2,-2.0718068E-1,2.8098986E-1,-5.1863766E-1,6.2787324E-2,-4.6530056E-1,4.9610198E-1,1.1955572E-3,-6.892971E-3,-7.1332895E-4,9.671558E-3,-7.86168E-3,1.1206684E-2,8.321318E-3,-1.0487192E-3],"categories":[],"categories_nodes":[],"categories_segments":[],"categories_sizes":[],"default_left":[0,0,0,0,0,0,0,0,0,0,0,0,0,0,0],"id":78,"left_children":[1,3,5,7,9,11,13,-1,-1,-1,-1,-1,-1,-1,-1],"loss_changes":[9.947085E0,9.334978E0,1.099232E1,5.6889944E0,7.3655367E0,8.776349E0,1.0693375E1,0E0,0E0,0E0,0E0,0E0,0E0,0E0,0E0],"parents":[2147483647,0,0,1,1,2,2,3,3,4,4,5,5,6,6],"right_children":[2,4,6,8,10,12,14,-1,-1,-1,-1,-1,-1,-1,-1],"split_conditions":[5.3553146E-1,-5.072381E-4,-4.2066717E0,-4.109093E1,1.5487384E3,1.5739689E3,1.1E1,1.1955572E-3,-6.892971E-3,-7.1332895E-4,9.671558E-3,-7.86168E-3,1.1206684E-2,8.321318E-3,-1.0487192E-3],"split_indices":[40,2,45,1,39,38,32,0,0,0,0,0,0,0,0],"split_type":[0,0,0,0,0,0,0,0,0,0,0,0,0,0,0],"sum_hessian":[1.756678E2,1.0963314E2,6.603466E1,5.047731E1,5.9155827E1,1.4514906E1,5.1519753E1,1.0713363E1,3.976395E1,5.2318047E1,6.8377795E0,1.2491891E1,2.0230157E0,3.2796955E1,1.8722797E1],"tree_param":{"num_deleted":"0","num_feature":"46","num_nodes":"15","size_leaf_vector":"1"}},{"base_weights":[5.53505E-3,-3.0691195E-1,3.8203272E-1,-7.718569E-1,-6.0848232E-2,4.7208175E-1,-7.971522E-1,2.5004733E-3,-8.703787E-3,-1.7836762E-3,9.813021E-3,3.7355744E-3,1.1664522E-2,-1.2908838E-2,3.2504632E-3],"categories":[],"categories_nodes":[],"categories_segments":[],"categories_sizes":[],"default_left":[0,0,0,0,0,0,0,0,0,0,0,0,0,0,0],"id":79,"left_children":[1,3,5,7,9,11,13,-1,-1,-1,-1,-1,-1,-1,-1],