{"learner":{"attributes":{"scikit_learn":"{\"_estimator_type\": \"classifier\"}"},"feature_names":["p1_target","elo_diff","finish_diff","edge_speed_diff","edge_burst_diff","l5_goal_diff","l5_xg_diff","l5_corsi_diff","l5_pdo_diff","l5_st_net","l5_royal_road_diff","l5_pressure_diff","l5_rebound_diff","l5_lateral_diff","p1_xg_diff","p2_xg_diff","p3_xg_diff","p1_p2_dominance","h_preservation_rate","a_preservation_rate","h_comeback_rate","a_comeback_rate","l5_nzt_possession_diff","l5_ca_shots_diff","l5_rush_sv_pct_diff","home_sos","away_sos","l5_std_diff","l10_goal_diff","l10_xg_diff","elo_rest_inter","speed_finish_inter","season_month","is_late_season","h_desperation","a_desperation","home_xg","away_xg","home_elo","away_elo","away_win_rate","home_win_rate_away_sos","away_b2b_home_strength","pressure_index","xg_efficiency","power_momentum"],"feature_types":["int","float","float","float","float","float","float","float","float","float","float","float","float","float","float","float","float","float","float","float","float","float","float","float","float","float","float","float","float","float","float","float","int","int","float","float","float","float","float","float","float","float","float","float","float","float"],"gradient_booster":{"model":{"cats":{"enc":[],"feature_segments":[],"sorted_idx":[]},"gbtree_model_param":{"num_parallel_tree":"1","num_trees":"50"},"iteration_indptr":[0,1,2,3,4,5,6,7,8,9,10,11,12,13,14,15,16,17,18,19,20,21,22,23,24,25,26,27,28,29,30,31,32,33,34,35,36,37,38,39,40,41,42,43,44,45,46,47,48,49,50],"tree_info":[0,0,0,0,0,0,0,0,0,0,0,0,0,0,0,0,0,0,0,0,0,0,0,0,0,0,0,0,0,0,0,0,0,0,0,0,0,0,0,0,0,0,0,0,0,0,0,0,0,0],"trees":[{"base_weights":[6.2951366E-3,-4.0522963E-1,3.8547492E-1,-8.252542E-1,2.1951687E-1,2.6817727E-1,1.0379397E0,-1.7165864E-2,-6.535093E-3,4.578207E-3,-1.0993153E-2,7.1307723E-3,7.1137754E-4,1.6044525E-2,6.079372E-3],"categories":[],"categories_nodes":[],"categories_segments":[],"categories_sizes":[],"default_left":[0,0,0,0,0,0,0,0,0,0,0,0,0,0,0],"id":0,"left_children":[1,3,5,7,9,11,13,-1,-1,-1,-1,-1,-1,-1,-1],"loss_changes":[3.0653925E1,2.4903454E1,7.5457926E0,7.5345078E0,1.2655305E1,7.6638565E0,2.7346554E0,0E0,0E0,0E0,0E0,0E0,0E0,0E0,0E0],"parents":[2147483647,0,0,1,1,2,2,3,3,4,4,5,5,6,6],"right_children":[2,4,6,8,10,12,14,-1,-1,-1,-1,-1,-1,-1,-1],"split_conditions":[7.6306714E2,5.3519595E-1,9.769805E2,1.4790986E3,9.5201206E-1,1.491413E3,5.440134E-2,-1.7165864E-2,-6.535093E-3,4.578207E-3,-1.0993153E-2,7.1307723E-3,7.1137754E-4,1.6044525E-2,6.079372E-3],"split_indices":[41,40,41,26,27,26,2,0,0,0,0,0,0,0,0],"split_type":[0,0,0,0,0,0,0,0,0,0,0,0,0,0,0],"sum_hessian":[1.9444574E2,9.3212875E1,1.01232864E2,5.554701E1,3.7665867E1,8.7002846E1,1.42300205E1,7.5206904E0,4.8026318E1,3.2454433E1,5.211433E0,2.5901133E1,6.110171E1,4.9617834E0,9.268237E0],"tree_param":{"num_deleted":"0","num_feature":"46","num_nodes":"15","size_leaf_vector":"1"}},{"base_weights":[8.327254E-3,-6.629965E-1,3.020911E-1,-8.194015E-1,7.1444684E-1,-3.9632503E-2,8.2366425E-1,-1.8412912E-4,-1.1484197E-2,-3.2836657E-3,1.1268098E-2,-3.8253027E-3,5.44276E-3,1.1343706E-2,3.7082967E-3],"categories":[],"categories_nodes":[],"categories_segments":[],"categories_sizes":[],"default_left":[0,0,0,0,0,0,0,0,0,0,0,0,0,0,0],"id":1,"left_children":[1,3,5,7,9,11,13,-1,-1,-1,-1,-1,-1,-1,-1],"loss_changes":[3.8054417E1,1.3240341E1,2.3952978E1,1.4003456E1,3.1753938E0,1.6633833E1,7.060295E0,0E0,0E0,0E0,0E0,0E0,0E0,0E0,0E0],"parents":[2147483647,0,0,1,1,2,2,3,3,4,4,5,5,6,6],"right_children":[2,4,6,8,10,12,14,-1,-1,-1,-1,-1,-1,-1,-1],"split_conditions":[7.2857495E2,3.6666667E-1,5.51414E-1,-5.3809814E0,-1.2335653E0,8.415927E2,2.3778211E-3,-1.8412912E-4,-1.1484197E-2,-3.2836657E-3,1.1268098E-2,-3.8253027E-3,5.44276E-3,1.1343706E-2,3.7082967E-3],"split_indices":[41,4,40,8,5,41,44,0,0,0,0,0,0,0,0],"split_type":[0,0,0,0,0,0,0,0,0,0,0,0,0,0,0],"sum_hessian":[1.9094774E2,5.7740158E1,1.3320758E2,5.2216267E1,5.5238895E0,8.103753E1,5.2170048E1,1.5511E1,3.670527E1,1.6230638E0,3.900826E0,5.127272E1,2.9764807E1,3.0047977E1,2.2122068E1],"tree_param":{"num_deleted":"0","num_feature":"46","num_nodes":"15","size_leaf_vector":"1"}},{"base_weights":[9.670959E-3,-4.1186863E-1,3.7881655E-1,-8.433328E-1,7.989724E-2,1.5612428E-1,8.591288E-1,1.1430845E-3,-1.0248752E-2,5.146897E-3,-3.6787384E-3,2.8139316E-3,-1.146274E-2,4.50074E-3,1.4022853E-2],"categories":[],"categories_nodes":[],"categories_segments":[],"categories_sizes":[],"default_left":[0,0,0,0,0,0,0,0,0,0,0,0,0,0,0],"id":2,"left_children":[1,3,5,7,9,11,13,-1,-1,-1,-1,-1,-1,-1,-1],"loss_changes":[3.0126091E1,1.9247744E1,1.0904441E1,8.503304E0,8.592002E0,1.2025613E1,6.582884E0,0E0,0E0,0E0,0E0,0E0,0E0,0E0,0E0],"parents":[2147483647,0,0,1,1,2,2,3,3,4,4,5,5,6,6],"right_children":[2,4,6,8,10,12,14,-1,-1,-1,-1,-1,-1,-1,-1],"split_conditions":[7.6306714E2,5.1882875E-1,9.1623627E2,-1.4964724E1,0E0,1.05402695E2,1.23333335E-1,1.1430845E-3,-1.0248752E-2,5.146897E-3,-3.6787384E-3,2.8139316E-3,-1.146274E-2,4.50074E-3,1.4022853E-2],"split_indices":[41,40,41,30,8,30,3,0,0,0,0,0,0,0,0],"split_type":[0,0,0,0,0,0,0,0,0,0,0,0,0,0,0],"sum_hessian":[1.9159796E2,8.939693E1,1.0220104E2,4.7237186E1,4.2159737E1,7.07319E1,3.146914E1,7.5868263E0,3.965036E1,2.1314037E1,2.0845701E1,6.5240776E1,5.491128E0,1.899358E1,1.2475561E1],"tree_param":{"num_deleted":"0","num_feature":"46","num_nodes":"15","size_leaf_vector":"1"}},{"base_weights":[-2.305502E-2,-3.6629438E-1,4.4326496E-1,-7.889288E-1,1.7989051E-1,8.7311393E-1,9.1515765E-2,-3.3085626E-3,-1.19239325E-2,-6.4527043E-3,3.4353621E-3,1.1710782E-2,2.5029862E-3,-3.7678368E-3,5.94255E-3],"categories":[],"categories_nodes":[],"categories_segments":[],"categories_sizes":[],"default_left":[0,0,0,0,0,0,0,0,0,0,0,0,0,0,0],"id":3,"left_children":[1,3,5,7,9,11,13,-1,-1,-1,-1,-1,-1,-1,-1],"loss_changes":[3.237697E1,2.7029877E1,1.2890867E1,1.1776211E1,7.193129E0,6.8497143E0,1.1594385E1,0E0,0E0,0E0,0E0,0E0,0E0,0E0,0E0],"parents":[2147483647,0,0,1,1,2,2,3,3,4,4,5,5,6,6],"right_children":[2,4,6,8,10,12,14,-1,-1,-1,-1,-1,-1,-1,-1],"split_conditions":[5.3519595E-1,8.118421E2,1.4985762E3,-1.0333333E-1,-5.178306E-2,1.1E1,6.333333E-2,-3.3085626E-3,-1.19239325E-2,-6.4527043E-3,3.4353621E-3,1.1710782E-2,2.5029862E-3,-3.7678368E-3,5.94255E-3],"split_indices":[40,41,25,3,44,32,3,0,0,0,0,0,0,0,0],"split_type":[0,0,0,0,0,0,0,0,0,0,0,0,0,0,0],"sum_hessian":[2.0026659E2,1.1548052E2,8.4786064E1,6.485314E1,5.0627384E1,3.7489937E1,4.7296127E1,3.1223568E1,3.362957E1,7.8916645E0,4.273572E1,2.476276E1,1.2727177E1,2.46165E1,2.2679626E1],"tree_param":{"num_deleted":"0","num_feature":"46","num_nodes":"15","size_leaf_vector":"1"}},{"base_weights":[3.6374018E-2,-6.3600534E-1,3.1232765E-1,-7.8736854E-1,8.7561715E-1,-3.7813592E-1,4.796294E-1,2.3306029E-4,-1.1745492E-2,7.9715974E-4,1.3657615E-2,-1.2679754E-2,2.7342653E-4,7.4592885E-3,8.514548E-4],"categories":[],"categories_nodes":[],"categories_segments":[],"categories_sizes":[],"default_left":[0,0,0,0,0,0,0,0,0,0,0,0,0,0,0],"id":4,"left_children":[1,3,5,7,9,11,13,-1,-1,-1,-1,-1,-1,-1,-1],"loss_changes":[3.6243595E1,1.369879E1,1.6169512E1,1.6414742E1,2.0946941E0,9.976637E0,1.1686657E1,0E0,0E0,0E0,0E0,0E0,0E0,0E0,0E0],"parents":[2147483647,0,0,1,1,2,2,3,3,4,4,5,5,6,6],"right_children":[2,4,6,8,10,12,14,-1,-1,-1,-1,-1,-1,-1,-1],"split_conditions":[7.275992E2,3.6666667E-1,4.7637242E-1,-4.5063887E0,1.5061965E3,1.4839507E3,1.5024324E3,2.3306029E-4,-1.1745492E-2,7.9715974E-4,1.3657615E-2,-1.2679754E-2,2.7342653E-4,7.4592885E-3,8.514548E-4],"split_indices":[41,4,40,8,25,25,25,0,0,0,0,0,0,0,0],"split_type":[0,0,0,0,0,0,0,0,0,0,0,0,0,0,0],"sum_hessian":[1.9326474E2,5.5858074E1,1.3740666E2,5.1209446E1,4.648629E0,2.6554508E1,1.1085215E2,1.6856112E1,3.4353336E1,2.2148204E0,2.4338088E0,7.646606E0,1.8907904E1,6.564623E1,4.5205914E1],"tree_param":{"num_deleted":"0","num_feature":"46","num_nodes":"15","size_leaf_vector":"1"}},{"base_weights":[1.571797E-2,-6.550246E-1,3.2108328E-1,-8.592325E-1,2.9208252E-1,-3.4369513E-1,4.900968E-1,-3.0544132E-3,-1.2209351E-2,9.755177E-3,-1.9770635E-3,-8.365168E-3,3.6720794E-3,7.752627E-3,8.7848987E-4],"categories":[],"categories_nodes":[],"categories_segments":[],"categories_sizes":[],"default_left":[0,0,0,0,0,0,0,0,0,0,0,0,0,0,0],"id":5,"left_children":[1,3,5,7,9,11,13,-1,-1,-1,-1,-1,-1,-1,-1],"loss_changes":[4.1825466E1,1.2607916E1,1.593057E1,1.0205799E1,4.236045E0,1.0475885E1,1.2809187E1,0E0,0E0,0E0,0E0,0E0,0E0,0E0,0E0],"parents":[2147483647,0,0,1,1,2,2,3,3,4,4,5,5,6,6],"right_children":[2,4,6,8,10,12,14,-1,-1,-1,-1,-1,-1,-1,-1],"split_conditions":[7.2857495E2,5.841227E-1,4.7637242E-1,-2.860457E0,-5.999797E-1,3.0504662E1,1.5024324E3,-3.0544132E-3,-1.2209351E-2,9.755177E-3,-1.9770635E-3,-8.365168E-3,3.6720794E-3,7.752627E-3,8.7848987E-4],"split_indices":[41,40,40,8,28,45,25,0,0,0,0,0,0,0,0],"split_type":[0,0,0,0,0,0,0,0,0,0,0,0,0,0,0],"sum_hessian":[2.0217766E2,6.2890984E1,1.3928668E2,5.181238E1,1.1078602E1,2.802456E1,1.11262115E2,2.1199287E1,3.0613092E1,4.211E0,6.867602E0,1.644656E1,1.1578E1,6.456363E1,4.6698486E1],"tree_param":{"num_deleted":"0","num_feature":"46","num_nodes":"15","size_leaf_vector":"1"}},{"base_weights":[-1.4422201E-3,-6.920555E-1,2.9036218E-1,-8.407807E-1,6.6451293E-1,-2.7369505E-1,4.3282065E-1,9.983518E-4,-9.799265E-3,-3.2602914E-3,1.0803482E-2,-4.9019465E-3,7.988277E-3,2.050289E-3,8.647531E-3],"categories":[],"categories_nodes":[],"categories_segments":[],"categories_sizes":[],"default_left":[0,0,0,0,0,0,0,0,0,0,0,0,0,0,0],"id":6,"left_children":[1,3,5,7,9,11,13,-1,-1,-1,-1,-1,-1,-1,-1],"loss_changes":[3.9243008E1,1.2228222E1,1.1118563E1,6.97789E0,2.9361708E0,6.9432015E0,1.0614088E1,0E0,0E0,0E0,0E0,0E0,0E0,0E0,0E0],"parents":[2147483647,0,0,1,1,2,2,3,3,4,4,5,5,6,6],"right_children":[2,4,6,8,10,12,14,-1,-1,-1,-1,-1,-1,-1,-1],"split_conditions":[7.299634E2,3.6666667E-1,4.7637242E-1,1.4524579E3,-1.2335653E0,9.2407763E-1,1.8333334E-1,9.983518E-4,-9.799265E-3,-3.2602914E-3,1.0803482E-2,-4.9019465E-3,7.988277E-3,2.050289E-3,8.647531E-3],"split_indices":[41,4,40,38,5,27,3,0,0,0,0,0,0,0,0],"split_type":[0,0,0,0,0,0,0,0,0,0,0,0,0,0,0],"sum_hessian":[1.9273405E2,5.6839767E1,1.3589429E2,5.1566566E1,5.2732005E0,2.7215324E1,1.0867896E2,6.681647E0,4.4884922E1,1.6230271E0,3.6501737E0,2.3096094E1,4.11923E0,7.211943E1,3.6559532E1],"tree_param":{"num_deleted":"0","num_feature":"46","num_nodes":"15","size_leaf_vector":"1"}},{"base_weights":[5.1392846E-2,-4.55794E-1,5.003342E-1,-8.645353E-1,1.2167356E-1,-1.1159486E-2,5.46133E-1,1.5584005E-3,-1.06819505E-2,3.6750522E-3,-1.240093E-2,5.9433943E-3,-5.774892E-3],"categories":[],"categories_nodes":[],"categories_segments":[],"categories_sizes":[],"default_left":[0,0,0,0,0,0,0,0,0,0,0,0,0],"id":7,"left_children":[1,3,5,7,9,-1,11,-1,-1,-1,-1,-1,-1],"loss_changes":[4.449892E1,2.1776855E1,8.279295E0,1.1364342E1,1.3488232E1,0E0,5.8372383E0,0E0,0E0,0E0,0E0,0E0,0E0],"parents":[2147483647,0,0,1,1,2,2,3,3,4,4,6,6],"right_children":[2,4,6,8,10,-1,12,-1,-1,-1,-1,-1,-1],"split_conditions":[7.6306714E2,5.3519595E-1,1.4656577E3,-1.0627691E1,9.759148E-1,-1.1159486E-2,1.4630533E2,1.5584005E-3,-1.06819505E-2,3.6750522E-3,-1.240093E-2,5.9433943E-3,-5.774892E-3],"split_indices":[41,40,26,30,27,0,30,0,0,0,0,0,0],"split_type":[0,0,0,0,0,0,0,0,0,0,0,0,0],"sum_hessian":[1.9342873E2,9.0815544E1,1.0261318E2,5.2885315E1,3.793023E1,2.1836524E0,1.00429535E2,8.838332E0,4.404698E1,3.274847E1,5.1817613E0,9.6749756E1,3.679775E0],"tree_param":{"num_deleted":"0","num_feature":"46","num_nodes":"13","size_leaf_vector":"1"}},{"base_weights":[2.0903481E-2,-5.752485E-1,2.6689482E-1,-1.1173782E0,-1.0788865E-2,2.9215157E-2,6.332389E-1,-1.3298457E-2,-1.5997038E-3,7.295118E-3,-6.4921705E-3,-1.9934522E-3,7.0569627E-3,-3.9982656E-3,7.553848E-3],"categories":[],"categories_nodes":[],"categories_segments":[],"categories_sizes":[],"default_left":[0,0,0,0,0,0,0,0,0,0,0,0,0,0,0],"id":8,"left_children":[1,3,5,7,9,11,13,-1,-1,-1,-1,-1,-1,-1,-1],"loss_changes":[2.9065424E1,1.7707512E1,1.2193094E1,5.793598E0,1.4358542E1,1.3454505E1,7.259552E0,0E0,0E0,0E0,0E0,0E0,0E0,0E0,0E0],"parents":[2147483647,0,0,1,1,2,2,3,3,4,4,5,5,6,6],"right_children":[2,4,6,8,10,12,14,-1,-1,-1,-1,-1,-1,-1,-1],"split_conditions":[7.2857495E2,5.046824E-1,5.51414E-1,2.3429233E-1,-3.2166454E-1,9.1623627E2,5E-1,-1.3298457E-2,-1.5997038E-3,7.295118E-3,-6.4921705E-3,-1.9934522E-3,7.0569627E-3,-3.9982656E-3,7.553848E-3],"split_indices":[41,40,40,13,29,41,20,0,0,0,0,0,0,0,0],"split_type":[0,0,0,0,0,0,0,0,0,0,0,0,0,0,0],"sum_hessian":[1.9615135E2,5.6905132E1,1.3924622E2,2.8527048E1,2.8378086E1,8.510855E1,5.413766E1,2.302774E1,5.4993086E0,1.307457E1,1.5303516E1,6.414233E1,2.0966228E1,5.4838552E0,4.8653805E1],"tree_param":{"num_deleted":"0","num_feature":"46","num_nodes":"15","size_leaf_vector":"1"}},{"base_weights":[-2.0163583E-2,-6.4443207E-1,2.504215E-1,-8.528427E-1,2.6097447E-1,-3.551024E-2,7.1118194E-1,-4.1723656E-3,-1.2495983E-2,8.871031E-3,-4.406982E-3,-3.608172E-3,4.930371E-3,1.0270226E-2,1.5545083E-3],"categories":[],"categories_nodes":[],"categories_segments":[],"categories_sizes":[],"default_left":[0,0,0,0,0,0,0,0,0,0,0,0,0,0,0],"id":9,"left_children":[1,3,5,7,9,11,13,-1,-1,-1,-1,-1,-1,-1,-1],"loss_changes":[3.303362E1,1.1379118E1,1.8006042E1,7.8255234E0,5.5877256E0,1.4822108E1,9.021973E0,0E0,0E0,0E0,0E0,0E0,0E0,0E0,0E0],"parents":[2147483647,0,0,1,1,2,2,3,3,4,4,5,5,6,6],"right_children":[2,4,6,8,10,12,14,-1,-1,-1,-1,-1,-1,-1,-1],"split_conditions":[7.275992E2,5.841227E-1,5.51414E-1,1.1457105E-2,1.5134316E3,8.4359E2,1.5028652E3,-4.1723656E-3,-1.2495983E-2,8.871031E-3,-4.406982E-3,-3.608172E-3,4.930371E-3,1.0270226E-2,1.5545083E-3],"split_indices":[41,40,40,44,38,41,25,0,0,0,0,0,0,0,0],"split_type":[0,0,0,0,0,0,0,0,0,0,0,0,0,0,0],"sum_hessian":[1.9360503E2,5.8124348E1,1.3548067E2,4.729567E1,1.0828678E1,8.417041E1,5.131026E1,2.3522005E1,2.3773664E1,5.582731E0,5.245948E0,5.2299057E1,3.1871351E1,3.2175686E1,1.9134577E1],"tree_param":{"num_deleted":"0","num_feature":"46","num_nodes":"15","size_leaf_vector":"1"}},{"base_weights":[1.2025403E-2,-5.851992E-1,2.7146143E-1,-7.602824E-1,9.138481E-1,-1.4190497E-1,5.361597E-1,-1.3876165E-3,-1.1506699E-2,-3.1509069E-3,1.3547627E-2,-4.063736E-3,7.291231E-3,7.0169005E-3,8.5467857E-4],"categories":[],"categories_nodes":[],"categories_segments":[],"categories_sizes":[],"default_left":[0,0,0,0,0,0,0,0,0,0,0,0,0,0,0],"id":10,"left_children":[1,3,5,7,9,11,13,-1,-1,-1,-1,-1,-1,-1,-1],"loss_changes":[3.134685E1,1.677724E1,1.5505291E1,1.3285603E1,4.145372E0,1.3159158E1,6.3688984E0,0E0,0E0,0E0,0E0,0E0,0E0,0E0,0E0],"parents":[2147483647,0,0,1,1,2,2,3,3,4,4,5,5,6,6],"right_children":[2,4,6,8,10,12,14,-1,-1,-1,-1,-1,-1,-1,-1],"split_conditions":[7.286931E2,3.6666667E-1,4.9222213E-1,-2.9880998E0,-1.2335653E0,9.2068054E2,1.5108706E3,-1.3876165E-3,-1.1506699E-2,-3.1509069E-3,1.3547627E-2,-4.063736E-3,7.291231E-3,7.0169005E-3,8.5467857E-4],"split_indices":[41,4,40,8,5,41,25,0,0,0,0,0,0,0,0],"split_type":[0,0,0,0,0,0,0,0,0,0,0,0,0,0,0],"sum_hessian":[2.0028871E2,6.0276314E1,1.400124E2,5.4413807E1,5.8625083E0,5.483818E1,8.517422E1,2.1515411E1,3.289839E1,1.6233102E0,4.239198E0,4.2475025E1,1.2363157E1,6.1887295E1,2.3286924E1],"tree_param":{"num_deleted":"0","num_feature":"46","num_nodes":"15","size_leaf_vector":"1"}},{"base_weights":[-3.2010622E-2,-6.940975E-1,2.3776592E-1,-1.1647778E0,-1.883365E-1,-1.5669784E-2,6.5938395E-1,-1.817806E-3,-1.3791297E-2,8.423921E-3,-5.8756177E-3,-6.4035114E-3,1.8508043E-3,-3.5386789E-3,7.6983795E-3],"categories":[],"categories_nodes":[],"categories_segments":[],"categories_sizes":[],"default_left":[0,0,0,0,0,0,0,0,0,0,0,0,0,0,0],"id":11,"left_children":[1,3,5,7,9,11,13,-1,-1,-1,-1,-1,-1,-1,-1],"loss_changes":[3.4363075E1,1.3036242E1,1.4625481E1,5.7859116E0,1.2030946E1,1.0954026E1,6.022068E0,0E0,0E0,0E0,0E0,0E0,0E0,0E0,0E0],"parents":[2147483647,0,0,1,1,2,2,3,3,4,4,5,5,6,6],"right_children":[2,4,6,8,10,12,14,-1,-1,-1,-1,-1,-1,-1,-1],"split_conditions":[7.2857495E2,5.046824E-1,5.51414E-1,-7.445939E0,-1.7371894E0,7.6306714E2,5E-1,-1.817806E-3,-1.3791297E-2,8.423921E-3,-5.8756177E-3,-6.4035114E-3,1.8508043E-3,-3.5386789E-3,7.6983795E-3],"split_indices":[41,40,40,8,5,41,20,0,0,0,0,0,0,0,0],"split_type":[0,0,0,0,0,0,0,0,0,0,0,0,0,0,0],"sum_hessian":[1.9046176E2,5.4683758E1,1.3577802E2,2.764928E1,2.7034477E1,8.5404175E1,5.0373837E1,5.2806735E0,2.2368607E1,7.237772E0,1.9796705E1,2.0238268E1,6.51659E1,4.7348514E0,4.5638985E1],"tree_param":{"num_deleted":"0","num_feature":"46","num_nodes":"15","size_leaf_vector":"1"}},{"base_weights":[-2.681866E-2,-6.1235046E-1,2.3967493E-1,-7.5567555E-1,8.0973405E-1,-7.358906E-1,3.9813882E-1,-6.930167E-4,-1.0724359E-2,1.4280138E-2,-1.998087E-3,-1.3013649E-2,-8.43811E-4,6.215497E-3,-9.643287E-4],"categories":[],"categories_nodes":[],"categories_segments":[],"categories_sizes":[],"default_left":[0,0,0,0,0,0,0,0,0,0,0,0,0,0,0],"id":12,"left_children":[1,3,5,7,9,11,13,-1,-1,-1,-1,-1,-1,-1,-1],"loss_changes":[3.1366476E1,1.3424025E1,2.165984E1,1.2453606E1,4.1789846E0,7.1348352E0,1.3269344E1,0E0,0E0,0E0,0E0,0E0,0E0,0E0,0E0],"parents":[2147483647,0,0,1,1,2,2,3,3,4,4,5,5,6,6],"right_children":[2,4,6,8,10,12,14,-1,-1,-1,-1,-1,-1,-1,-1],"split_conditions":[7.2857495E2,3.6666667E-1,4.5254377E-1,-4.5063887E0,1E1,1.4982528E3,1.5063717E3,-6.930167E-4,-1.0724359E-2,1.4280138E-2,-1.998087E-3,-1.3013649E-2,-8.43811E-4,6.215497E-3,-9.643287E-4],"split_indices":[41,4,40,8,32,26,25,0,0,0,0,0,0,0,0],"split_type":[0,0,0,0,0,0,0,0,0,0,0,0,0,0,0],"sum_hessian":[1.9907445E2,6.18599E1,1.3721454E2,5.662187E1,5.238033E0,1.8664528E1,1.1855002E2,1.8264385E1,3.8357483E1,2.9914482E0,2.2465847E0,9.458024E0,9.206504E0,8.148457E1,3.7065445E1],"tree_param":{"num_deleted":"0","num_feature":"46","num_nodes":"15","size_leaf_vector":"1"}},{"base_weights":[1.7416654E-3,-4.3743962E-1,3.9031756E-1,-8.9465076E-1,1.0935233E-2,6.2742555E-1,-6.791474E-3,4.3687655E-4,-1.0559951E-2,2.483446E-3,-1.2449531E-2,3.2545126E-3,1.1145218E-2,3.5725122E-3,-1.3152404E-2],"categories":[],"categories_nodes":[],"categories_segments":[],"categories_sizes":[],"default_left":[0,0,0,0,0,0,0,0,0,0,0,0,0,0,0],"id":13,"left_children":[1,3,5,7,9,11,13,-1,-1,-1,-1,-1,-1,-1,-1],"loss_changes":[3.3174706E1,1.871778E1,9.715492E0,6.8885612E0,1.4341159E1,9.137791E0,1.9307997E1,0E0,0E0,0E0,0E0,0E0,0E0,0E0,0E0],"parents":[2147483647,0,0,1,1,2,2,3,3,4,4,5,5,6,6],"right_children":[2,4,6,8,10,12,14,-1,-1,-1,-1,-1,-1,-1,-1],"split_conditions":[7.6306714E2,5.046824E-1,1.5030599E3,-2.6515577E1,9.759148E-1,1.4946696E3,1.0261428E0,4.3687655E-4,-1.0559951E-2,2.483446E-3,-1.2449531E-2,3.2545126E-3,1.1145218E-2,3.5725122E-3,-1.3152404E-2],"split_indices":[41,40,25,30,27,25,43,0,0,0,0,0,0,0,0],"split_type":[0,0,0,0,0,0,0,0,0,0,0,0,0,0,0],"sum_hessian":[1.9239555E2,9.0257645E1,1.0213792E2,4.419567E1,4.606197E1,6.3589546E1,3.8548367E1,6.591335E0,3.7604336E1,3.9413597E1,6.648372E0,4.028383E1,2.330572E1,3.0726473E1,7.821895E0],"tree_param":{"num_deleted":"0","num_feature":"46","num_nodes":"15","size_leaf_vector":"1"}},{"base_weights":[3.9890647E-2,-4.0632513E-1,4.437287E-1,-8.993716E-1,5.475336E-2,2.697419E-1,9.2554826E-1,1.9590494E-3,-9.95397E-3,2.4454547E-3,-9.793043E-3,7.733114E-3,7.043394E-4,-1.0396248E-2,1.1204682E-2],"categories":[],"categories_nodes":[],"categories_segments":[],"categories_sizes":[],"default_left":[0,0,0,0,0,0,0,0,0,0,0,0,0,0,0],"id":14,"left_children":[1,3,5,7,9,11,13,-1,-1,-1,-1,-1,-1,-1,-1],"loss_changes":[3.4697666E1,2.0855457E1,8.219578E0,4.852726E0,9.706359E0,7.5368414E0,1.1274267E1,0E0,0E0,0E0,0E0,0E0,0E0,0E0,0E0],"parents":[2147483647,0,0,1,1,2,2,3,3,4,4,5,5,6,6],"right_children":[2,4,6,8,10,12,14,-1,-1,-1,-1,-1,-1,-1,-1],"split_conditions":[7.6306714E2,5.046824E-1,2.0727432E-1,-8.843334E1,9.759148E-1,-1.0333333E-1,1.4358853E3,1.9590494E-3,-9.95397E-3,2.4454547E-3,-9.793043E-3,7.733114E-3,7.043394E-4,-1.0396248E-2,1.1204682E-2],"split_indices":[41,40,30,30,27,4,39,0,0,0,0,0,0,0,0],"split_type":[0,0,0,0,0,0,0,0,0,0,0,0,0,0,0],"sum_hessian":[1.9055148E2,9.052303E1,1.0002845E2,4.3285664E1,4.7237373E1,7.463671E1,2.5391745E1,3.4052198E0,3.9880444E1,4.0557003E1,6.6803694E0,2.034734E1,5.428937E1,1.9002211E0,2.3491522E1],"tree_param":{"num_deleted":"0","num_feature":"46","num_nodes":"15","size_leaf_vector":"1"}},{"base_weights":[6.933761E-2,-5.14714E-1,3.2435268E-1,-7.521652E-1,5.911911E-1,7.2328694E-2,7.1274674E-1,1.3856139E-5,-9.523538E-3,1.0759796E-2,-2.1654961E-3,-2.4574595E-3,5.881763E-3,9.941621E-3,3.7537265E-4],"categories":[],"categories_nodes":[],"categories_segments":[],"categories_sizes":[],"default_left":[0,0,0,0,0,0,0,0,0,0,0,0,0,0,0],"id":15,"left_children":[1,3,5,7,9,11,13,-1,-1,-1,-1,-1,-1,-1,-1],"loss_changes":[2.9211071E1,1.6109524E1,1.3294989E1,7.4759045E0,4.5812235E0,1.3895086E1,1.0136965E1,0E0,0E0,0E0,0E0,0E0,0E0,0E0,0E0],"parents":[2147483647,0,0,1,1,2,2,3,3,4,4,5,5,6,6],"right_children":[2,4,6,8,10,12,14,-1,-1,-1,-1,-1,-1,-1,-1],"split_conditions":[7.2857495E2,5.841227E-1,5.51414E-1,-7.445939E0,1.5220785E3,8.415927E2,1.5063717E3,1.3856139E-5,-9.523538E-3,1.0759796E-2,-2.1654961E-3,-2.4574595E-3,5.881763E-3,9.941621E-3,3.7537265E-4],"split_indices":[41,40,40,8,38,41,25,0,0,0,0,0,0,0,0],"split_type":[0,0,0,0,0,0,0,0,0,0,0,0,0,0,0],"sum_hessian":[1.9400294E2,5.865324E1,1.3534972E2,4.8549038E1,1.01042E1,8.2804886E1,5.2544823E1,1.0398823E1,3.8150215E1,6.1068916E0,3.9973092E0,5.154534E1,3.1259548E1,3.675402E1,1.5790802E1],"tree_param":{"num_deleted":"0","num_feature":"46","num_nodes":"15","size_leaf_vector":"1"}},{"base_weights":[4.5170996E-2,-6.111338E-1,3.063738E-1,-7.670914E-1,6.9286215E-1,7.033659E-2,6.826264E-1,5.6766224E-4,-1.0252929E-2,-2.400365E-3,1.2098734E-2,-4.2626797E-3,3.5449197E-3,-5.052825E-3,8.223655E-3],"categories":[],"categories_nodes":[],"categories_segments":[],"categories_sizes":[],"default_left":[0,0,0,0,0,0,0,0,0,0,0,0,0,0,0],"id":16,"left_children":[1,3,5,7,9,11,13,-1,-1,-1,-1,-1,-1,-1,-1],"loss_changes":[3.3232044E1,1.1759563E1,1.22566185E1,1.0649038E1,3.388457E0,1.2322709E1,9.262562E0,0E0,0E0,0E0,0E0,0E0,0E0,0E0,0E0],"parents":[2147483647,0,0,1,1,2,2,3,3,4,4,5,5,6,6],"right_children":[2,4,6,8,10,12,14,-1,-1,-1,-1,-1,-1,-1,-1],"split_conditions":[7.286931E2,3.6666667E-1,5.51414E-1,-1.6453131E0,5.046824E-1,8.0973193E2,5E-1,5.6766224E-4,-1.0252929E-2,-2.400365E-3,1.2098734E-2,-4.2626797E-3,3.5449197E-3,-5.052825E-3,8.223655E-3],"split_indices":[41,4,40,28,40,41,20,0,0,0,0,0,0,0,0],"split_type":[0,0,0,0,0,0,0,0,0,0,0,0,0,0,0],"sum_hessian":[1.9176126E2,5.421061E1,1.3755064E2,4.8787388E1,5.423222E0,8.5254364E1,5.2296284E1,1.1827832E1,3.6959557E1,2.1248507E0,3.2983713E0,3.084607E1,5.44083E1,5.229013E0,4.7067272E1],"tree_param":{"num_deleted":"0","num_feature":"46","num_nodes":"15","size_leaf_vector":"1"}},{"base_weights":[-4.4771377E-2,-3.6695337E-1,5.1534927E-1,-7.826845E-1,1.6004384E-1,-4.5559007E-1,6.2778735E-1,-3.850193E-3,-1.164741E-2,2.4259696E-3,-1.4018645E-2,-1.4201915E-2,1.6976355E-3,1.9757946E-4,8.2972525E-3],"categories":[],"categories_nodes":[],"categories_segments":[],"categories_sizes":[],"default_left":[0,0,0,0,0,0,0,0,0,0,0,0,0,0,0],"id":17,"left_children":[1,3,5,7,9,11,13,-1,-1,-1,-1,-1,-1,-1,-1],"loss_changes":[3.5219955E1,2.7252546E1,8.069923E0,1.0093388E1,7.4875894E0,5.0543904E0,7.881216E0,0E0,0E0,0E0,0E0,0E0,0E0,0E0,0E0],"parents":[2147483647,0,0,1,1,2,2,3,3,4,4,5,5,6,6],"right_children":[2,4,6,8,10,12,14,-1,-1,-1,-1,-1,-1,-1,-1],"split_conditions":[5.51414E-1,8.067294E2,5E-1,-1.23333335E-1,4.9E-1,-4.6666667E-2,-2.6E-1,-3.850193E-3,-1.164741E-2,2.4259696E-3,-1.4018645E-2,-1.4201915E-2,1.6976355E-3,1.9757946E-4,8.2972525E-3],"split_indices":[40,41,20,4,4,4,3,0,0,0,0,0,0,0,0],"split_type":[0,0,0,0,0,0,0,0,0,0,0,0,0,0,0],"sum_hessian":[1.9311888E2,1.2281845E2,7.030044E1,6.8385864E1,5.4432583E1,6.979373E0,6.3321068E1,3.449223E1,3.3893635E1,5.2502304E1,1.9302784E0,2.2451818E0,4.7341914E0,1.6060673E1,4.7260395E1],"tree_param":{"num_deleted":"0","num_feature":"46","num_nodes":"15","size_leaf_vector":"1"}},{"base_weights":[1.149286E-2,-4.4433895E-1,3.8781098E-1,-8.7722063E-1,2.1291591E-1,1.7765766E-1,7.6147395E-1,-4.758105E-3,-1.1840403E-2,4.6128356E-3,-9.5494855E-3,-1.336611E-3,6.288143E-3,-4.1480744E-3,8.98695E-3],"categories":[],"categories_nodes":[],"categories_segments":[],"categories_sizes":[],"default_left":[0,0,0,0,0,0,0,0,0,0,0,0,0,0,0],"id":18,"left_children":[1,3,5,7,9,11,13,-1,-1,-1,-1,-1,-1,-1,-1],"loss_changes":[3.400191E1,2.569364E1,8.389786E0,6.117676E0,1.0999857E1,1.0026526E1,6.631401E0,0E0,0E0,0E0,0E0,0E0,0E0,0E0,0E0],"parents":[2147483647,0,0,1,1,2,2,3,3,4,4,5,5,6,6],"right_children":[2,4,6,8,10,12,14,-1,-1,-1,-1,-1,-1,-1,-1],"split_conditions":[7.6306714E2,5.3519595E-1,5.610184E-1,-2.52365E0,9.759148E-1,1.5171002E3,5E-1,-4.758105E-3,-1.1840403E-2,4.6128356E-3,-9.5494855E-3,-1.336611E-3,6.288143E-3,-4.1480744E-3,8.98695E-3],"split_indices":[41,40,40,8,27,39,20,0,0,0,0,0,0,0,0],"split_type":[0,0,0,0,0,0,0,0,0,0,0,0,0,0,0],"sum_hessian":[1.9621368E2,8.865078E1,1.07562904E2,5.3246716E1,3.5404064E1,6.978838E1,3.7774517E1,2.4172625E1,2.9074093E1,2.9694094E1,5.70997E0,4.1710182E1,2.8078203E1,3.734955E0,3.4039562E1],"tree_param":{"num_deleted":"0","num_feature":"46","num_nodes":"15","size_leaf_vector":"1"}},{"base_weights":[3.479798E-2,-4.7176632E-1,2.4646752E-1,-6.368636E-1,5.383698E-1,-2.4679826E-1,3.8199297E-1,-2.8306504E-3,-1.2140181E-2,-5.780028E-3,9.074922E-3,-9.646858E-3,1.1415372E-3,2.5094259E-3,9.407626E-3],"categories":[],"categories_nodes":[],"categories_segments":[],"categories_sizes":[],"default_left":[0,0,0,0,0,0,0,0,0,0,0,0,0,0,0],"id":19,"left_children":[1,3,5,7,9,11,13,-1,-1,-1,-1,-1,-1,-1,-1],"loss_changes":[2.0553705E1,9.768069E0,9.124962E0,9.669052E0,4.0194855E0,7.8121915E0,7.5527105E0,0E0,0E0,0E0,0E0,0E0,0E0,0E0,0E0],"parents":[2147483647,0,0,1,1,2,2,3,3,4,4,5,5,6,6],"right_children":[2,4,6,8,10,12,14,-1,-1,-1,-1,-1,-1,-1,-1],"split_conditions":[7.2857495E2,6.1043847E-1,4.7637242E-1,8.281947E-2,-2.5668908E-2,1.4842323E3,1.5253846E3,-2.8306504E-3,-1.2140181E-2,-5.780028E-3,9.074922E-3,-9.646858E-3,1.1415372E-3,2.5094259E-3,9.407626E-3],"split_indices":[41,40,40,8,44,25,39,0,0,0,0,0,0,0,0],"split_type":[0,0,0,0,0,0,0,0,0,0,0,0,0,0,0],"sum_hessian":[1.8960457E2,5.5515923E1,1.3408864E2,4.8034637E1,7.481284E0,2.8723606E1,1.05365036E2,3.0703617E1,1.733102E1,1.7183697E0,5.7629147E0,9.050566E0,1.967304E1,8.652184E1,1.8843199E1],"tree_param":{"num_deleted":"0","num_feature":"46","num_nodes":"15","size_leaf_vector":"1"}},{"base_weights":[4.287259E-2,-5.60533E-1,3.0106217E-1,-6.955713E-1,7.7425104E-1,-2.6235783E-1,4.4531742E-1,-1.3521758E-3,-1.07595045E-2,6.743795E-4,1.3385455E-2,-3.8847425E-3,1.1809137E-2,8.768314E-3,2.7993964E-3],"categories":[],"categories_nodes":[],"categories_segments":[],"categories_sizes":[],"default_left":[0,0,0,0,0,0,0,0,0,0,0,0,0,0,0],"id":20,"left_children":[1,3,5,7,9,11,13,-1,-1,-1,-1,-1,-1,-1,-1],"loss_changes":[3.1163063E1,1.1347298E1,1.1493813E1,1.1574127E1,2.2958853E0,5.7670364E0,7.734041E0,0E0,0E0,0E0,0E0,0E0,0E0,0E0,0E0],"parents":[2147483647,0,0,1,1,2,2,3,3,4,4,5,5,6,6],"right_children":[2,4,6,8,10,12,14,-1,-1,-1,-1,-1,-1,-1,-1],"split_conditions":[7.275992E2,3.6666667E-1,4.7637242E-1,-2.9880998E0,1.5061965E3,1.6165566E3,1.491413E3,-1.3521758E-3,-1.07595045E-2,6.743795E-4,1.3385455E-2,-3.8847425E-3,1.1809137E-2,8.768314E-3,2.7993964E-3],"split_indices":[41,4,40,8,25,39,26,0,0,0,0,0,0,0,0],"split_type":[0,0,0,0,0,0,0,0,0,0,0,0,0,0,0],"sum_hessian":[1.979454E2,5.8966324E1,1.3897908E2,5.3983746E1,4.982575E0,2.8163143E1,1.1081594E2,2.2376053E1,3.1607695E1,2.708954E0,2.2736208E0,2.6572052E1,1.59109E0,2.9511278E1,8.1304665E1],"tree_param":{"num_deleted":"0","num_feature":"46","num_nodes":"15","size_leaf_vector":"1"}},{"base_weights":[1.868671E-2,-2.3906699E-1,4.914107E-1,-4.065315E-1,5.074698E-1,1.493866E-2,8.2205904E-1,-5.601906E-3,2.3473308E-3,-4.435964E-3,8.906347E-3,-6.150217E-3,6.6453507E-3,8.812909E-3,-4.989293E-3],"categories":[],"categories_nodes":[],"categories_segments":[],"categories_sizes":[],"default_left":[0,0,0,0,0,0,0,0,0,0,0,0,0,0,0],"id":21,"left_children":[1,3,5,7,9,11,13,-1,-1,-1,-1,-1,-1,-1,-1],"loss_changes":[2.3947685E1,1.6113447E1,1.091147E1,1.0426636E1,9.052702E0,1.2449424E1,3.6409912E0,0E0,0E0,0E0,0E0,0E0,0E0,0E0,0E0],"parents":[2147483647,0,0,1,1,2,2,3,3,4,4,5,5,6,6],"right_children":[2,4,6,8,10,12,14,-1,-1,-1,-1,-1,-1,-1,-1],"split_conditions":[5.51414E-1,9.1528107E2,7.5768225E2,1.547042E3,1.486012E3,1.3333334E-2,1.5432501E3,-5.601906E-3,2.3473308E-3,-4.435964E-3,8.906347E-3,-6.150217E-3,6.6453507E-3,8.812909E-3,-4.989293E-3],"split_indices":[40,41,41,39,25,4,26,0,0,0,0,0,0,0,0],"split_type":[0,0,0,0,0,0,0,0,0,0,0,0,0,0,0],"sum_hessian":[1.9457587E2,1.262384E2,6.833746E1,1.03480835E2,2.275757E1,2.8423586E1,3.991388E1,8.357993E1,1.99009E1,6.4902325E0,1.6267338E1,1.4456907E1,1.3966678E1,3.8519554E1,1.3943259E0],"tree_param":{"num_deleted":"0","num_feature":"46","num_nodes":"15","size_leaf_vector":"1"}},{"base_weights":[-1.9063456E-2,-2.9149365E-1,4.7423688E-1,-6.023201E-1,9.4019104E-4,-1.6343212E-1,6.912127E-1,-2.3684343E-3,-9.5415935E-3,5.795135E-3,-2.4803316E-3,3.2429385E-3,-9.917036E-3,8.17021E-3,-4.2570275E-3],"categories":[],"categories_nodes":[],"categories_segments":[],"categories_sizes":[],"default_left":[0,0,0,0,0,0,0,0,0,0,0,0,0,0,0],"id":22,"left_children":[1,3,5,7,9,11,13,-1,-1,-1,-1,-1,-1,-1,-1],"loss_changes":[2.5887632E1,1.1276563E1,9.597254E0,7.5070057E0,9.494899E0,7.678599E0,7.561514E0,0E0,0E0,0E0,0E0,0E0,0E0,0E0,0E0],"parents":[2147483647,0,0,1,1,2,2,3,3,4,4,5,5,6,6],"right_children":[2,4,6,8,10,12,14,-1,-1,-1,-1,-1,-1,-1,-1],"split_conditions":[5.610184E-1,7.6306714E2,7.216327E2,-1.3333334E-1,-1.3E-1,1.5224536E3,1.5219078E3,-2.3684343E-3,-9.5415935E-3,5.795135E-3,-2.4803316E-3,3.2429385E-3,-9.917036E-3,8.17021E-3,-4.2570275E-3],"split_indices":[40,41,41,4,4,38,25,0,0,0,0,0,0,0,0],"split_type":[0,0,0,0,0,0,0,0,0,0,0,0,0,0,0],"sum_hessian":[1.9060216E2,1.2305362E2,6.754853E1,5.9137257E1,6.3916363E1,1.721176E1,5.0336773E1,2.9827154E1,2.9310102E1,1.8830275E1,4.508609E1,1.1215817E1,5.995942E0,4.54822E1,4.854572E0],"tree_param":{"num_deleted":"0","num_feature":"46","num_nodes":"15","size_leaf_vector":"1"}},{"base_weights":[-1.8958803E-2,-5.5443144E-1,1.9986145E-1,-1.8479188E-1,-1.0671697E0,2.6227823E-1,-1.0740459E0,-7.5953435E-3,3.6595173E-3,-1.2780744E-2,8.991536E-3,1.8925817E-3,1.2268151E-2,-9.4166835E-4,-1.597852E-2],"categories":[],"categories_nodes":[],"categories_segments":[],"categories_sizes":[],"default_left":[0,0,0,0,0,0,0,0,0,0,0,0,0,0,0],"id":23,"left_children":[1,3,5,7,9,11,13,-1,-1,-1,-1,-1,-1,-1,-1],"loss_changes":[2.350259E1,1.0829418E1,1.1608871E1,1.1361974E1,1.1169594E1,9.389078E0,3.3654652E0,0E0,0E0,0E0,0E0,0E0,0E0,0E0,0E0],"parents":[2147483647,0,0,1,1,2,2,3,3,4,4,5,5,6,6],"right_children":[2,4,6,8,10,12,14,-1,-1,-1,-1,-1,-1,-1,-1],"split_conditions":[7.2857495E2,2.3223108E-1,1.4630533E2,5.046824E-1,3.6666667E-1,1.02742635E-1,1.5030599E3,-7.5953435E-3,3.6595173E-3,-1.2780744E-2,8.991536E-3,1.8925817E-3,1.2268151E-2,-9.4166835E-4,-1.597852E-2],"split_indices":[41,8,30,40,4,31,25,0,0,0,0,0,0,0,0],"split_type":[0,0,0,0,0,0,0,0,0,0,0,0,0,0,0],"sum_hessian":[1.9863582E2,5.7179287E1,1.4145653E2,3.401665E1,2.3162636E1,1.3560643E2,5.8501015E0,1.6460144E1,1.7556507E1,2.123502E1,1.9276159E0,1.271749E2,8.431531E0,2.4488454E0,3.401256E0],"tree_param":{"num_deleted":"0","num_feature":"46","num_nodes":"15","size_leaf_vector":"1"}},{"base_weights":[3.7643276E-2,-3.8101584E-1,3.9610058E-1,-7.7243745E-1,1.6752575E-1,2.2343475E-1,8.2015634E-1,-1.2065751E-2,-4.7015892E-3,6.8618255E-3,-6.41061E-3,-5.9767775E-3,3.6008183E-3,1.1943639E-2,-1.424267E-3],"categories":[],"categories_nodes":[],"categories_segments":[],"categories_sizes":[],"default_left":[0,0,0,0,0,0,0,0,0,0,0,0,0,0,0],"id":24,"left_children":[1,3,5,7,9,11,13,-1,-1,-1,-1,-1,-1,-1,-1],"loss_changes":[2.9232155E1,1.9430859E1,7.4966106E0,6.3405514E0,1.6483677E1,8.732743E0,1.0967487E1,0E0,0E0,0E0,0E0,0E0,0E0,0E0,0E0],"parents":[2147483647,0,0,1,1,2,2,3,3,4,4,5,5,6,6],"right_children":[2,4,6,8,10,12,14,-1,-1,-1,-1,-1,-1,-1,-1],"split_conditions":[7.6306714E2,5.3519595E-1,9.2068054E2,1E1,1.5845083E0,4.5254377E-1,1.5030599E3,-1.2065751E-2,-4.7015892E-3,6.8618255E-3,-6.41061E-3,-5.9767775E-3,3.6008183E-3,1.1943639E-2,-1.424267E-3],"split_indices":[41,40,41,32,8,40,25,0,0,0,0,0,0,0,0],"split_type":[0,0,0,0,0,0,0,0,0,0,0,0,0,0,0],"sum_hessian":[1.9278262E2,8.889503E1,1.038876E2,5.163896E1,3.7256065E1,7.4912025E1,2.8975573E1,1.99684E1,3.1670563E1,2.2789461E1,1.4466604E1,1.0206612E1,6.4705414E1,2.069106E1,8.284514E0],"tree_param":{"num_deleted":"0","num_feature":"46","num_nodes":"15","size_leaf_vector":"1"}},{"base_weights":[3.4209844E-2,-5.2318996E-1,2.6466694E-1,-6.716681E-2,-9.4656557E-1,-3.9508748E-1,4.191319E-1,-1.2713106E-2,1.345956E-3,3.6501389E-3,-1.2099382E-2,-5.6377253E-3,1.2374194E-2,6.2857303E-3,-4.0721934E-4],"categories":[],"categories_nodes":[],"categories_segments":[],"categories_sizes":[],"default_left":[0,0,0,0,0,0,0,0,0,0,0,0,0,0,0],"id":25,"left_children":[1,3,5,7,9,11,13,-1,-1,-1,-1,-1,-1,-1,-1],"loss_changes":[2.5343609E1,1.1082501E1,1.4380257E1,7.1851726E0,1.0756578E1,8.1263075E0,1.0957798E1,0E0,0E0,0E0,0E0,0E0,0E0,0E0,0E0],"parents":[2147483647,0,0,1,1,2,2,3,3,4,4,5,5,6,6],"right_children":[2,4,6,8,10,12,14,-1,-1,-1,-1,-1,-1,-1,-1],"split_conditions":[7.2857495E2,-2.2119043E0,4.7637242E-1,2E0,1.4542191E3,1.6165566E3,1.5060446E3,-1.2713106E-2,1.345956E-3,3.6501389E-3,-1.2099382E-2,-5.6377253E-3,1.2374194E-2,6.2857303E-3,-4.0721934E-4],"split_indices":[41,8,40,32,39,39,25,0,0,0,0,0,0,0,0],"split_type":[0,0,0,0,0,0,0,0,0,0,0,0,0,0,0],"sum_hessian":[1.95215E2,5.6731045E1,1.3848395E2,2.787027E1,2.8860775E1,2.5976164E1,1.1250778E2,3.238925E0,2.4631346E1,4.7617307E0,2.4099045E1,2.4136795E1,1.8393687E0,7.704886E1,3.545892E1],"tree_param":{"num_deleted":"0","num_feature":"46","num_nodes":"15","size_leaf_vector":"1"}},{"base_weights":[1.5962379E-2,-3.3524594E-1,4.143681E-1,-8.875272E-1,1.5380701E-1,-7.837092E-1,4.737417E-1,4.1332557E-3,-9.720033E-3,4.104003E-3,-1.0350031E-2,-1.5515146E-2,9.1779735E-3,1.0470657E-3,7.1681314E-3],"categories":[],"categories_nodes":[],"categories_segments":[],"categories_sizes":[],"default_left":[0,0,0,0,0,0,0,0,0,0,0,0,0,0,0],"id":26,"left_children":[1,3,5,7,9,11,13,-1,-1,-1,-1,-1,-1,-1,-1],"loss_changes":[2.705397E1,2.7898514E1,6.813861E0,5.722702E0,1.7313618E1,7.5030446E0,7.7214947E0,0E0,0E0,0E0,0E0,0E0,0E0,0E0,0E0],"parents":[2147483647,0,0,1,1,2,2,3,3,4,4,5,5,6,6],"right_children":[2,4,6,8,10,12,14,-1,-1,-1,-1,-1,-1,-1,-1],"split_conditions":[8.118421E2,5.046824E-1,1.4146633E3,-9.296448E1,9.759148E-1,8.6237787E2,4.9222213E-1,4.1332557E-3,-9.720033E-3,4.104003E-3,-1.0350031E-2,-1.5515146E-2,9.1779735E-3,1.0470657E-3,7.1681314E-3],"split_indices":[41,40,39,30,27,41,40,0,0,0,0,0,0,0,0],"split_type":[0,0,0,0,0,0,0,0,0,0,0,0,0,0,0],"sum_hessian":[1.9135562E2,1.0178616E2,8.956946E1,4.7420265E1,5.4365894E1,3.6532054E0,8.591625E1,2.654264E0,4.4766003E1,4.5253204E1,9.112691E0,2.5780237E0,1.0751816E0,3.4686058E1,5.1230198E1],"tree_param":{"num_deleted":"0","num_feature":"46","num_nodes":"15","size_leaf_vector":"1"}},{"base_weights":[5.794773E-3,-3.7908676E-1,3.3097643E-1,-8.218684E-1,3.0114904E-2,-1.53556E-1,4.5907608E-1,-1.1374763E-2,-3.9234743E-3,2.5665993E-3,-1.0480819E-2,-1.028543E-2,1.9098305E-3,-5.989242E-3,5.2824793E-3],"categories":[],"categories_nodes":[],"categories_segments":[],"categories_sizes":[],"default_left":[0,0,0,0,0,0,0,0,0,0,0,0,0,0,0],"id":27,"left_children":[1,3,5,7,9,11,13,-1,-1,-1,-1,-1,-1,-1,-1],"loss_changes":[2.5028227E1,1.6619333E1,6.797776E0,5.5216846E0,1.2131166E1,7.254485E0,6.6081924E0,0E0,0E0,0E0,0E0,0E0,0E0,0E0,0E0],"parents":[2147483647,0,0,1,1,2,2,3,3,4,4,5,5,6,6],"right_children":[2,4,6,8,10,12,14,-1,-1,-1,-1,-1,-1,-1,-1],"split_conditions":[7.6306714E2,5.046824E-1,4.7637242E-1,2.210425E-2,9.759148E-1,-1.0312795E1,1.4178638E3,-1.1374763E-2,-3.9234743E-3,2.5665993E-3,-1.0480819E-2,-1.028543E-2,1.9098305E-3,-5.989242E-3,5.2824793E-3],"split_indices":[41,40,40,2,27,45,39,0,0,0,0,0,0,0,0],"split_type":[0,0,0,0,0,0,0,0,0,0,0,0,0,0,0],"sum_hessian":[1.979731E2,9.058816E1,1.0738494E2,4.30245E1,4.7563656E1,2.2412336E1,8.49726E1,2.3850868E1,1.9173634E1,3.9934734E1,7.62892E0,5.77103E0,1.6641306E1,4.7445846E0,8.022802E1],"tree_param":{"num_deleted":"0","num_feature":"46","num_nodes":"15","size_leaf_vector":"1"}},{"base_weights":[2.5389666E-2,-2.8546607E-1,4.1289976E-1,-5.545848E-1,4.8433763E-1,9.306771E-1,1.9415314E-1,-6.302928E-3,1.15493955E-2,-9.462136E-4,9.1516925E-3,1.1479145E-2,-7.1100597E-3,-3.7655472E-3,4.205878E-3],"categories":[],"categories_nodes":[],"categories_segments":[],"categories_sizes":[],"default_left":[0,0,0,0,0,0,0,0,0,0,0,0,0,0,0],"id":28,"left_children":[1,3,5,7,9,11,13,-1,-1,-1,-1,-1,-1,-1,-1],"loss_changes":[2.3660664E1,2.2857834E1,9.718786E0,1.1244913E1,7.2649503E0,9.979929E0,8.26204E0,0E0,0E0,0E0,0E0,0E0,0E0,0E0,0E0],"parents":[2147483647,0,0,1,1,2,2,3,3,4,4,5,5,6,6],"right_children":[2,4,6,8,10,12,14,-1,-1,-1,-1,-1,-1,-1,-1],"split_conditions":[8.118421E2,5.732221E-1,1.491413E3,3.758452E-1,1.3333334E-2,1.5674211E3,1.4982528E3,-6.302928E-3,1.15493955E-2,-9.462136E-4,9.1516925E-3,1.1479145E-2,-7.1100597E-3,-3.7655472E-3,4.205878E-3],"split_indices":[41,40,26,2,4,39,26,0,0,0,0,0,0,0,0],"split_type":[0,0,0,0,0,0,0,0,0,0,0,0,0,0,0],"sum_hessian":[1.9444121E2,1.08037895E2,8.640331E1,8.02593E1,2.7778593E1,2.4695055E1,6.1708256E1,7.74602E1,2.799099E0,1.2184812E1,1.5593782E1,2.207476E1,2.6202955E0,1.7340397E1,4.436786E1],"tree_param":{"num_deleted":"0","num_feature":"46","num_nodes":"15","size_leaf_vector":"1"}},{"base_weights":[-1.2227722E-3,-5.136418E-1,2.1702208E-1,-7.533736E-1,3.6404356E-1,-2.1781549E-2,5.9031594E-1,-1.2922279E-3,-9.848438E-3,7.245052E-3,-3.7754427E-3,4.70431E-3,-2.2856346E-3,9.088138E-3,2.1368493E-3],"categories":[],"categories_nodes":[],"categories_segments":[],"categories_sizes":[],"default_left":[0,0,0,0,0,0,0,0,0,0,0,0,0,0,0],"id":29,"left_children":[1,3,5,7,9,11,13,-1,-1,-1,-1,-1,-1,-1,-1],"loss_changes":[2.195564E1,1.2612769E1,1.2286932E1,6.5741596E0,3.816784E0,8.752263E0,6.253834E0,0E0,0E0,0E0,0E0,0E0,0E0,0E0,0E0],"parents":[2147483647,0,0,1,1,2,2,3,3,4,4,5,5,6,6],"right_children":[2,4,6,8,10,12,14,-1,-1,-1,-1,-1,-1,-1,-1],"split_conditions":[7.2857495E2,5.817171E-1,5.51414E-1,-5.897732E0,1.5308385E3,-1.6666667E-1,6.882391E-4,-1.2922279E-3,-9.848438E-3,7.245052E-3,-3.7754427E-3,4.70431E-3,-2.2856346E-3,9.088138E-3,2.1368493E-3],"split_indices":[41,40,40,8,38,4,44,0,0,0,0,0,0,0,0],"split_type":[0,0,0,0,0,0,0,0,0,0,0,0,0,0,0],"sum_hessian":[1.9432881E2,5.764055E1,1.3668826E2,4.5385532E1,1.2255015E1,8.3935E1,5.275326E1,1.2699655E1,3.268588E1,8.262109E0,3.9929066E0,2.4453114E1,5.9481888E1,2.7816902E1,2.4936361E1],"tree_param":{"num_deleted":"0","num_feature":"46","num_nodes":"15","size_leaf_vector":"1"}},{"base_weights":[-1.796742E-2,-5.8250237E-1,2.3134087E-1,-9.8183256E-1,-1.7439264E-1,-1.6504478E-2,6.2462944E-1,5.88985E-4,-1.1718577E-2,6.5040914E-3,-5.6453543E-3,1.7947444E-3,-6.833696E-3,-3.3520998E-3,7.7023683E-3],"categories":[],"categories_nodes":[],"categories_segments":[],"categories_sizes":[],"default_left":[0,0,0,0,0,0,0,0,0,0,0,0,0,0,0],"id":30,"left_children":[1,3,5,7,9,11,13,-1,-1,-1,-1,-1,-1,-1,-1],"loss_changes":[2.78954E1,9.722172E0,1.3416645E1,6.094406E0,1.0419678E1,1.1276227E1,7.692526E0,0E0,0E0,0E0,0E0,0E0,0E0,0E0,0E0],"parents":[2147483647,0,0,1,1,2,2,3,3,4,4,5,5,6,6],"right_children":[2,4,6,8,10,12,14,-1,-1,-1,-1,-1,-1,-1,-1],"split_conditions":[7.2857495E2,5.046824E-1,5.51414E-1,-1.6111288E1,-7.293644E0,8.245579E1,5E-1,5.88985E-4,-1.1718577E-2,6.5040914E-3,-5.6453543E-3,1.7947444E-3,-6.833696E-3,-3.3520998E-3,7.7023683E-3],"split_indices":[41,40,40,45,1,1,20,0,0,0,0,0,0,0,0],"split_type":[0,0,0,0,0,0,0,0,0,0,0,0,0,0,0],"sum_hessian":[1.9624315E2,5.9706646E1,1.365365E2,2.946738E1,3.0239267E1,8.4342804E1,5.2193703E1,4.656219E0,2.4811161E1,9.496207E0,2.074306E1,6.575077E1,1.8592028E1,6.703339E0,4.5490364E1],"tree_param":{"num_deleted":"0","num_feature":"46","num_nodes":"15","size_leaf_vector":"1"}},{"base_weights":[3.1627722E-2,-5.989966E-1,2.3962638E-1,-7.7219766E-1,7.797238E-1,2.9505728E-2,5.828555E-1,-8.725099E-3,7.2329496E-3,1.8538387E-3,1.2939036E-2,4.9369624E-3,-2.1723798E-3,-5.8014183E-3,7.184221E-3],"categories":[],"categories_nodes":[],"categories_segments":[],"categories_sizes":[],"default_left":[0,0,0,0,0,0,0,0,0,0,0,0,0,0,0],"id":31,"left_children":[1,3,5,7,9,11,13,-1,-1,-1,-1,-1,-1,-1,-1],"loss_changes":[2.6058561E1,1.237182E1,1.0748945E1,7.275223E0,1.5931985E0,1.0833465E1,9.345711E0,0E0,0E0,0E0,0E0,0E0,0E0,0E0,0E0],"parents":[2147483647,0,0,1,1,2,2,3,3,4,4,5,5,6,6],"right_children":[2,4,6,8,10,12,14,-1,-1,-1,-1,-1,-1,-1,-1],"split_conditions":[6.977163E2,3.1E-1,5.51414E-1,6.52843E-1,1.5061965E3,-1.3666667E-1,5E-1,-8.725099E-3,7.2329496E-3,1.8538387E-3,1.2939036E-2,4.9369624E-3,-2.1723798E-3,-5.8014183E-3,7.184221E-3],"split_indices":[41,4,40,40,25,4,20,0,0,0,0,0,0,0,0],"split_type":[0,0,0,0,0,0,0,0,0,0,0,0,0,0,0],"sum_hessian":[1.9656973E2,4.8287785E1,1.4828195E2,4.3289482E1,4.998304E0,9.264921E1,5.5632744E1,4.0958694E1,2.3307881E0,2.9495106E0,2.0487933E0,3.1808367E1,6.0840843E1,5.4655514E0,5.016719E1],"tree_param":{"num_deleted":"0","num_feature":"46","num_nodes":"15","size_leaf_vector":"1"}},{"base_weights":[-3.472317E-2,-6.6602236E-1,1.7800741E-1,-8.064668E-1,9.96122E-1,-5.1437676E-1,3.5635555E-1,-9.201556E-3,1.8814217E-3,9.0425566E-4,1.2872403E-2,1.1052928E-2,-6.9471863E-3,1.2057764E-3,7.655351E-3],"categories":[],"categories_nodes":[],"categories_segments":[],"categories_sizes":[],"default_left":[0,0,0,0,0,0,0,0,0,0,0,0,0,0,0],"id":32,"left_children":[1,3,5,7,9,11,13,-1,-1,-1,-1,-1,-1,-1,-1],"loss_changes":[2.6276232E1,1.2312437E1,1.8270578E1,5.3761673E0,1.0143719E0,9.650645E0,1.1201339E1,0E0,0E0,0E0,0E0,0E0,0E0,0E0,0E0],"parents":[2147483647,0,0,1,1,2,2,3,3,4,4,5,5,6,6],"right_children":[2,4,6,8,10,12,14,-1,-1,-1,-1,-1,-1,-1,-1],"split_conditions":[6.977163E2,3.0333334E-1,4.7637242E-1,6.2042725E-1,-1.6142945E0,-8.350769E1,1.8333334E-1,-9.201556E-3,1.8814217E-3,9.0425566E-4,1.2872403E-2,1.1052928E-2,-6.9471863E-3,1.2057764E-3,7.655351E-3],"split_indices":[41,4,40,40,5,1,3,0,0,0,0,0,0,0,0],"split_type":[0,0,0,0,0,0,0,0,0,0,0,0,0,0,0],"sum_hessian":[1.9377534E2,4.8302383E1,1.4547296E2,4.501371E1,3.2886727E0,2.9410652E1,1.1606231E2,4.0463394E1,4.550316E0,1.1187499E0,2.1699228E0,2.432774E0,2.6977879E1,7.445464E1,4.1607662E1],"tree_param":{"num_deleted":"0","num_feature":"46","num_nodes":"15","size_leaf_vector":"1"}},{"base_weights":[4.4120815E-2,-3.732245E-1,3.988543E-1,-6.814737E-1,5.12117E-2,2.3115374E-1,7.7171177E-1,1.95372E-3,-8.5454285E-3,-4.252991E-3,4.2653303E-3,-1.0973555E-2,3.159565E-3,-1.1887376E-3,8.942805E-3],"categories":[],"categories_nodes":[],"categories_segments":[],"categories_sizes":[],"default_left":[0,0,0,0,0,0,0,0,0,0,0,0,0,0,0],"id":33,"left_children":[1,3,5,7,9,11,13,-1,-1,-1,-1,-1,-1,-1,-1],"loss_changes":[2.9609083E1,1.2064194E1,6.57773E0,8.260395E0,7.2658386E0,8.903986E0,3.71867E0,0E0,0E0,0E0,0E0,0E0,0E0,0E0,0E0],"parents":[2147483647,0,0,1,1,2,2,3,3,4,4,5,5,6,6],"right_children":[2,4,6,8,10,12,14,-1,-1,-1,-1,-1,-1,-1,-1],"split_conditions":[7.6306714E2,5.3519595E-1,9.2068054E2,-1.0627691E1,-9.3333334E-2,1.4178638E3,-7.983435E-2,1.95372E-3,-8.5454285E-3,-4.252991E-3,4.2653303E-3,-1.0973555E-2,3.159565E-3,-1.1887376E-3,8.942805E-3],"split_indices":[41,40,41,30,3,39,44,0,0,0,0,0,0,0,0],"split_type":[0,0,0,0,0,0,0,0,0,0,0,0,0,0,0],"sum_hessian":[1.9799323E2,9.094452E1,1.0704871E2,5.23323E1,3.861222E1,7.4955734E1,3.2092976E1,8.605273E0,4.3727024E1,1.695406E1,2.1658163E1,3.7811193E0,7.117462E1,3.8861716E0,2.8206802E1],"tree_param":{"num_deleted":"0","num_feature":"46","num_nodes":"15","size_leaf_vector":"1"}},{"base_weights":[-4.5633264E-2,-2.7816713E-1,3.8072464E-1,-4.1593292E-1,4.3927026E-1,-1.05887316E-1,5.7300544E-1,-8.938376E-3,-2.5912588E-3,-1.2765276E-2,6.2981737E-3,-4.2389394E-3,1.1679697E-2,9.783187E-3,2.4223938E-3],"categories":[],"categories_nodes":[],"categories_segments":[],"categories_sizes":[],"default_left":[0,0,0,0,0,0,0,0,0,0,0,0,0,0,0],"id":34,"left_children":[1,3,5,7,9,11,13,-1,-1,-1,-1,-1,-1,-1,-1],"loss_changes":[1.9515896E1,1.2761148E1,6.5649824E0,7.807482E0,7.665569E0,8.812804E0,6.463915E0,0E0,0E0,0E0,0E0,0E0,0E0,0E0,0E0],"parents":[2147483647,0,0,1,1,2,2,3,3,4,4,5,5,6,6],"right_children":[2,4,6,8,10,12,14,-1,-1,-1,-1,-1,-1,-1,-1],"split_conditions":[5.51414E-1,9.1623627E2,7.216327E2,6.725611E2,-7.983435E-2,3.6666667E-1,-6.6956673E-3,-8.938376E-3,-2.5912588E-3,-1.2765276E-2,6.2981737E-3,-4.2389394E-3,1.1679697E-2,9.783187E-3,2.4223938E-3],"split_indices":[40,41,41,41,44,4,44,0,0,0,0,0,0,0,0],"split_type":[0,0,0,0,0,0,0,0,0,0,0,0,0,0,0],"sum_hessian":[1.9477841E2,1.2626278E2,6.851563E1,1.062755E2,1.9987284E1,1.9532738E1,4.8982895E1,2.509441E1,8.118108E1,1.4281455E0,1.8559137E1,1.6164625E1,3.3681133E0,2.1131317E1,2.7851578E1],"tree_param":{"num_deleted":"0","num_feature":"46","num_nodes":"15","size_leaf_vector":"1"}},{"base_weights":[2.0950248E-2,-2.397608E-1,4.9280328E-1,-4.4458485E-1,3.433477E-1,-1.3987403E-1,6.801875E-1,-7.780872E-3,-1.2830932E-3,1.2297821E-2,8.0322794E-4,4.7931643E-3,-7.1736085E-3,-6.003667E-3,8.131324E-3],"categories":[],"categories_nodes":[],"categories_segments":[],"categories_sizes":[],"default_left":[0,0,0,0,0,0,0,0,0,0,0,0,0,0,0],"id":35,"left_children":[1,3,5,7,9,11,13,-1,-1,-1,-1,-1,-1,-1,-1],"loss_changes":[2.506135E1,1.5831292E1,8.688843E0,1.0193277E1,7.989122E0,6.5631027E0,1.0037954E1,0E0,0E0,0E0,0E0,0E0,0E0,0E0,0E0],"parents":[2147483647,0,0,1,1,2,2,3,3,4,4,5,5,6,6],"right_children":[2,4,6,8,10,12,14,-1,-1,-1,-1,-1,-1,-1,-1],"split_conditions":[5.610184E-1,8.415927E2,6.977163E2,-5.072381E-4,-5.042732E0,-3.21726E-1,1.4178638E3,-7.780872E-3,-1.2830932E-3,1.2297821E-2,8.0322794E-4,4.7931643E-3,-7.1736085E-3,-6.003667E-3,8.131324E-3],"split_indices":[40,41,41,2,8,28,39,0,0,0,0,0,0,0,0],"split_type":[0,0,0,0,0,0,0,0,0,0,0,0,0,0,0],"sum_hessian":[2.0176166E2,1.3027385E2,7.148781E1,9.658481E1,3.3689045E1,1.6392916E1,5.5094894E1,4.630136E1,5.028345E1,6.8678384E0,2.6821205E1,7.992851E0,8.400065E0,4.851198E0,5.02437E1],"tree_param":{"num_deleted":"0","num_feature":"46","num_nodes":"15","size_leaf_vector":"1"}},{"base_weights":[4.507886E-2,-4.6975043E-1,2.6503834E-1,-6.35527E-1,9.6982634E-1,4.7242235E-2,6.5577173E-1,2.3141112E-3,-1.04184365E-2,1.4533683E-2,-5.8395346E-4,5.863613E-3,-1.2249936E-3,9.341816E-3,6.213246E-4],"categories":[],"categories_nodes":[],"categories_segments":[],"categories_sizes":[],"default_left":[0,0,0,0,0,0,0,0,0,0,0,0,0,0,0],"id":36,"left_children":[1,3,5,7,9,11,13,-1,-1,-1,-1,-1,-1,-1,-1],"loss_changes":[2.1708721E1,1.4319027E1,1.1388223E1,1.8590849E1,3.229652E0,8.054996E0,7.8665714E0,0E0,0E0,0E0,0E0,0E0,0E0,0E0,0E0],"parents":[2147483647,0,0,1,1,2,2,3,3,4,4,5,5,6,6],"right_children":[2,4,6,8,10,12,14,-1,-1,-1,-1,-1,-1,-1,-1],"split_conditions":[7.2857495E2,3.6666667E-1,5.610184E-1,-4.773719E0,1E1,-5.0146046E0,1.8873254E-2,2.3141112E-3,-1.04184365E-2,1.4533683E-2,-5.8395346E-4,5.863613E-3,-1.2249936E-3,9.341816E-3,6.213246E-4],"split_indices":[41,4,40,8,32,8,2,0,0,0,0,0,0,0,0],"split_type":[0,0,0,0,0,0,0,0,0,0,0,0,0,0,0],"sum_hessian":[1.8960327E2,5.641791E1,1.3318536E2,5.1092777E1,5.3251324E0,8.6237305E1,4.6948055E1,1.644192E1,3.465086E1,3.3406477E0,1.9844844E0,2.006239E1,6.617491E1,3.1568941E1,1.5379115E1],"tree_param":{"num_deleted":"0","num_feature":"46","num_nodes":"15","size_leaf_vector":"1"}},{"base_weights":[-1.0278488E-2,-2.5084382E-1,4.2662677E-1,-4.3717188E-1,6.334885E-1,1.3338456E0,2.8170592E-1,-9.319283E-3,-2.9847543E-3,-3.351001E-3,1.0381692E-2,1.4733554E-2,4.5065093E-3,-6.6542677E-3,4.515673E-3],"categories":[],"categories_nodes":[],"categories_segments":[],"categories_sizes":[],"default_left":[0,0,0,0,0,0,0,0,0,0,0,0,0,0,0],"id":37,"left_children":[1,3,5,7,9,11,13,-1,-1,-1,-1,-1,-1,-1,-1],"loss_changes":[2.0959856E1,2.146386E1,8.935475E0,7.050211E0,9.279006E0,5.04982E-1,1.0328886E1,0E0,0E0,0E0,0E0,0E0,0E0,0E0,0E0],"parents":[2147483647,0,0,1,1,2,2,3,3,4,4,5,5,6,6],"right_children":[2,4,6,8,10,12,14,-1,-1,-1,-1,-1,-1,-1,-1],"split_conditions":[5.51414E-1,9.1623627E2,-5.133333E-1,6.5658386E2,1.486012E3,1.0741323E0,-2.5E-1,-9.319283E-3,-2.9847543E-3,-3.351001E-3,1.0381692E-2,1.4733554E-2,4.5065093E-3,-6.6542677E-3,4.515673E-3],"split_indices":[40,41,3,41,25,13,3,0,0,0,0,0,0,0,0],"split_type":[0,0,0,0,0,0,0,0,0,0,0,0,0,0,0],"sum_hessian":[1.9740147E2,1.27580154E2,6.982132E1,1.0579491E2,2.1785252E1,8.4871235E0,6.1334194E1,2.191188E1,8.3883026E1,6.4704375E0,1.5314814E1,6.7523136E0,1.7348096E0,8.883434E0,5.245076E1],"tree_param":{"num_deleted":"0","num_feature":"46","num_nodes":"15","size_leaf_vector":"1"}},{"base_weights":[-3.5440173E-2,-5.1764953E-1,1.8151651E-1,-7.473497E-1,3.6429283E-1,4.594358E-2,6.1395097E-1,-2.7440593E-3,-9.822796E-3,-1.0931893E-2,6.0712653E-3,-4.4155642E-4,1.030626E-2,9.612801E-3,1.7379863E-3],"categories":[],"categories_nodes":[],"categories_segments":[],"categories_sizes":[],"default_left":[0,0,0,0,0,0,0,0,0,0,0,0,0,0,0],"id":38,"left_children":[1,3,5,7,9,11,13,-1,-1,-1,-1,-1,-1,-1,-1],"loss_changes":[2.0489578E1,1.2580103E1,7.897931E0,5.1224136E0,5.344776E0,9.273108E0,4.7537975E0,0E0,0E0,0E0,0E0,0E0,0E0,0E0,0E0],"parents":[2147483647,0,0,1,1,2,2,3,3,4,4,5,5,6,6],"right_children":[2,4,6,8,10,12,14,-1,-1,-1,-1,-1,-1,-1,-1],"split_conditions":[7.2857495E2,5.817171E-1,9.1623627E2,-4.2419434E0,1.4868572E3,1.02742635E-1,7.874399E-2,-2.7440593E-3,-9.822796E-3,-1.0931893E-2,6.0712653E-3,-4.4155642E-4,1.030626E-2,9.612801E-3,1.7379863E-3],"split_indices":[41,40,41,8,25,31,2,0,0,0,0,0,0,0,0],"split_type":[0,0,0,0,0,0,0,0,0,0,0,0,0,0,0],"sum_hessian":[1.9395221E2,5.975481E1,1.341974E2,4.752867E1,1.2226138E1,1.0300915E2,3.1188251E1,1.64934E1,3.103527E1,1.2459818E0,1.0980156E1,9.524895E1,7.7601976E0,1.6770494E1,1.4417755E1],"tree_param":{"num_deleted":"0","num_feature":"46","num_nodes":"15","size_leaf_vector":"1"}},{"base_weights":[-7.4165516E-2,-5.2995026E-1,1.3476445E-1,-6.9706684E-1,6.9708824E-1,-3.3318754E-2,5.311359E-1,-8.18156E-3,4.872302E-3,1.25948405E-2,-1.7011524E-3,-3.2173826E-3,2.4078332E-3,8.5549895E-3,-9.997142E-4],"categories":[],"categories_nodes":[],"categories_segments":[],"categories_sizes":[],"default_left":[0,0,0,0,0,0,0,0,0,0,0,0,0,0,0],"id":39,"left_children":[1,3,5,7,9,11,13,-1,-1,-1,-1,-1,-1,-1,-1],"loss_changes":[1.7131155E1,1.2074113E1,8.254764E0,7.602991E0,3.7618787E0,7.015527E0,7.6342144E0,0E0,0E0,0E0,0E0,0E0,0E0,0E0,0E0],"parents":[2147483647,0,0,1,1,2,2,3,3,4,4,5,5,6,6],"right_children":[2,4,6,8,10,12,14,-1,-1,-1,-1,-1,-1,-1,-1],"split_conditions":[7.2857495E2,6.1043847E-1,5.732221E-1,3.1E-1,1.1E1,8.302051E2,1.7378462E-2,-8.18156E-3,4.872302E-3,1.25948405E-2,-1.7011524E-3,-3.2173826E-3,2.4078332E-3,8.5549895E-3,-9.997142E-4],"split_indices":[41,40,40,4,32,41,2,0,0,0,0,0,0,0,0],"split_type":[0,0,0,0,0,0,0,0,0,0,0,0,0,0,0],"sum_hessian":[1.7814795E2,5.5511673E1,1.2263628E2,4.923766E1,6.2740145E0,8.6760864E1,3.5875412E1,4.4950798E1,4.286859E0,3.5314555E0,2.742559E0,4.219162E1,4.4569244E1,2.346158E1,1.2413832E1],"tree_param":{"num_deleted":"0","num_feature":"46","num_nodes":"15","size_leaf_vector":"1"}},{"base_weights":[6.1837543E-2,-4.6828184E-1,2.6727337E-1,1.1726791E-1,-7.345881E-1,4.7207084E-2,6.119329E-1,6.4338893E-3,-9.455456E-3,-1.1587322E-2,-2.8864231E-3,4.8437617E-3,-2.524739E-3,-3.07205E-3,7.1908026E-3],"categories":[],"categories_nodes":[],"categories_segments":[],"categories_sizes":[],"default_left":[0,0,0,0,0,0,0,0,0,0,0,0,0,0,0],"id":40,"left_children":[1,3,5,7,9,11,13,-1,-1,-1,-1,-1,-1,-1,-1],"loss_changes":[2.1426249E1,8.661202E0,1.0711281E1,1.0703348E1,6.841238E0,1.1586397E1,5.6469955E0,0E0,0E0,0E0,0E0,0E0,0E0,0E0,0E0],"parents":[2147483647,0,0,1,1,2,2,3,3,4,4,5,5,6,6],"right_children":[2,4,6,8,10,12,14,-1,-1,-1,-1,-1,-1,-1,-1],"split_conditions":[7.2857495E2,1.4989331E3,5.51414E-1,2.1622378E-2,8.0515485E-4,-6E-2,5E-1,6.4338893E-3,-9.455456E-3,-1.1587322E-2,-2.8864231E-3,4.8437617E-3,-2.524739E-3,-3.07205E-3,7.1908026E-3],"split_indices":[41,38,40,31,31,4,20,0,0,0,0,0,0,0,0],"split_type":[0,0,0,0,0,0,0,0,0,0,0,0,0,0,0],"sum_hessian":[1.9459239E2,5.3991055E1,1.4060133E2,1.705358E1,3.6937477E1,8.650474E1,5.4096603E1,1.1670839E1,5.38274E0,1.8112295E1,1.8825182E1,3.4931297E1,5.1573437E1,5.452921E0,4.8643684E1],"tree_param":{"num_deleted":"0","num_feature":"46","num_nodes":"15","size_leaf_vector":"1"}},{"base_weights":[5.183312E-3,-3.2292643E-1,2.99067E-1,-7.339227E-1,8.0588795E-2,1.1905302E0,2.1506786E-1,-1.0712898E-2,-4.7881156E-3,7.3457304E-3,-1.8371124E-3,1.4414655E-2,1.055499E-3,-6.785549E-3,2.8748102E-3],"categories":[],"categories_nodes":[],"categories_segments":[],"categories_sizes":[],"default_left":[0,0,0,0,0,0,0,0,0,0,0,0,0,0,0],"id":41,"left_children":[1,3,5,7,9,11,13,-1,-1,-1,-1,-1,-1,-1,-1],"loss_changes":[1.890831E1,1.5425866E1,7.489129E0,3.44631E0,8.372133E0,2.2127666E0,6.390756E0,0E0,0E0,0E0,0E0,0E0,0E0,0E0,0E0],"parents":[2147483647,0,0,1,1,2,2,3,3,4,4,5,5,6,6],"right_children":[2,4,6,8,10,12,14,-1,-1,-1,-1,-1,-1,-1,-1],"split_conditions":[7.6306714E2,5.046824E-1,7.816909E2,6.5658386E2,-6.1832423E0,1.5239774E3,8.118421E2,-1.0712898E-2,-4.7881156E-3,7.3457304E-3,-1.8371124E-3,1.4414655E-2,1.055499E-3,-6.785549E-3,2.8748102E-3],"split_indices":[41,40,41,41,1,38,41,0,0,0,0,0,0,0,0],"split_type":[0,0,0,0,0,0,0,0,0,0,0,0,0,0,0],"sum_hessian":[1.9408966E2,9.1658104E1,1.0243155E2,4.5002476E1,4.6655632E1,7.686231E0,9.4745316E1,1.7999735E1,2.7002739E1,1.2916274E1,3.3739357E1,5.97562E0,1.7106113E0,6.4745684E0,8.827075E1],"tree_param":{"num_deleted":"0","num_feature":"46","num_nodes":"15","size_leaf_vector":"1"}},{"base_weights":[2.7922286E-2,-4.368471E-1,2.3506583E-1,-5.45054E-1,1.0131176E0,-3.299335E-1,3.8181102E-1,-1.9874272E-3,-1.1264479E-2,1.3013398E-2,1.213074E-3,-1.16912555E-2,1.9578442E-4,8.690698E-3,1.8393764E-3],"categories":[],"categories_nodes":[],"categories_segments":[],"categories_sizes":[],"default_left":[0,0,0,0,0,0,0,0,0,0,0,0,0,0,0],"id":42,"left_children":[1,3,5,7,9,11,13,-1,-1,-1,-1,-1,-1,-1,-1],"loss_changes":[1.8800215E1,1.0000996E1,1.1317989E1,1.1190521E1,1.0070395E0,8.343418E0,1.0216436E1,0E0,0E0,0E0,0E0,0E0,0E0,0E0,0E0],"parents":[2147483647,0,0,1,1,2,2,3,3,4,4,5,5,6,6],"right_children":[2,4,6,8,10,12,14,-1,-1,-1,-1,-1,-1,-1,-1],"split_conditions":[7.2857495E2,6.52843E-1,4.7637242E-1,2.3223108E-1,1.5070089E3,1.4842323E3,1.491413E3,-1.9874272E-3,-1.1264479E-2,1.3013398E-2,1.213074E-3,-1.16912555E-2,1.9578442E-4,8.690698E-3,1.8393764E-3],"split_indices":[41,40,40,8,26,25,26,0,0,0,0,0,0,0,0],"split_type":[0,0,0,0,0,0,0,0,0,0,0,0,0,0,0],"sum_hessian":[1.9321164E2,5.922321E1,1.3398843E2,5.569122E1,3.531992E0,2.7367924E1,1.0662051E2,3.5742683E1,1.9948536E1,2.3222551E0,1.2097368E0,7.357427E0,2.0010498E1,2.9813467E1,7.680704E1],"tree_param":{"num_deleted":"0","num_feature":"46","num_nodes":"15","size_leaf_vector":"1"}},{"base_weights":[2.5054716E-2,-2.4784233E-1,3.070687E-1,-1.0055041E0,-7.403695E-2,-2.4697076E-1,5.3332204E-1,-1.0936321E-2,1.7943399E-3,-1.3989469E-5,-1.18620675E-2,1.13768745E-2,-4.468638E-3,9.983808E-3,2.5862146E-3],"categories":[],"categories_nodes":[],"categories_segments":[],"categories_sizes":[],"default_left":[0,0,0,0,0,0,0,0,0,0,0,0,0,0,0],"id":43,"left_children":[1,3,5,7,9,11,13,-1,-1,-1,-1,-1,-1,-1,-1],"loss_changes":[1.4850657E1,1.2846284E1,1.20223675E1,2.099783E0,6.533046E0,8.310427E0,8.386631E0,0E0,0E0,0E0,0E0,0E0,0E0,0E0,0E0],"parents":[2147483647,0,0,1,1,2,2,3,3,4,4,5,5,6,6],"right_children":[2,4,6,8,10,12,14,-1,-1,-1,-1,-1,-1,-1,-1],"split_conditions":[5.1882875E-1,6.5658386E2,-2.6639898E0,3.0333334E-1,1.0711911E2,1.482533E3,2.2708368E-1,-1.0936321E-2,1.7943399E-3,-1.3989469E-5,-1.18620675E-2,1.13768745E-2,-4.468638E-3,9.983808E-3,2.5862146E-3],"split_indices":[40,41,45,4,30,26,6,0,0,0,0,0,0,0,0],"split_type":[0,0,0,0,0,0,0,0,0,0,0,0,0,0,0],"sum_hessian":[1.9097507E2,9.7117935E1,9.385713E1,1.722865E1,7.988928E1,2.718822E1,6.6668915E1,1.6107718E1,1.1209311E0,7.593132E1,3.9579656E0,2.8379905E0,2.435023E1,2.377842E1,4.2890495E1],"tree_param":{"num_deleted":"0","num_feature":"46","num_nodes":"15","size_leaf_vector":"1"}},{"base_weights":[2.8442701E-2,-3.2414895E-1,3.3105287E-1,-7.214139E-1,6.749697E-2,2.5318673E-1,1.2595794E0,-1.5502539E-2,-5.304811E-3,4.4419174E-3,-6.2519577E-3,-1.2297563E-2,3.0853779E-3,1.4713617E-2,8.354721E-4],"categories":[],"categories_nodes":[],"categories_segments":[],"categories_sizes":[],"default_left":[0,0,0,0,0,0,0,0,0,0,0,0,0,0,0],"id":44,"left_children":[1,3,5,7,9,11,13,-1,-1,-1,-1,-1,-1,-1,-1],"loss_changes":[2.0295557E1,1.3723753E1,7.078644E0,6.0962944E0,1.2065144E1,8.230743E0,1.786087E0,0E0,0E0,0E0,0E0,0E0,0E0,0E0,0E0],"parents":[2147483647,0,0,1,1,2,2,3,3,4,4,5,5,6,6],"right_children":[2,4,6,8,10,12,14,-1,-1,-1,-1,-1,-1,-1,-1],"split_conditions":[7.6306714E2,5.046824E-1,9.979297E2,1.4805409E3,2.0401618E-2,1.4656577E3,5.288895E-1,-1.5502539E-2,-5.304811E-3,4.4419174E-3,-6.2519577E-3,-1.2297563E-2,3.0853779E-3,1.4713617E-2,8.354721E-4],"split_indices":[41,40,41,26,44,26,13,0,0,0,0,0,0,0,0],"split_type":[0,0,0,0,0,0,0,0,0,0,0,0,0,0,0],"sum_hessian":[1.8820956E2,8.68932E1,1.0131636E2,4.271915E1,4.4174057E1,9.4651566E1,6.6647935E0,6.665372E0,3.605378E1,2.8845997E1,1.5328059E1,2.642316E0,9.200925E1,5.4349356E0,1.2298582E0],"tree_param":{"num_deleted":"0","num_feature":"46","num_nodes":"15","size_leaf_vector":"1"}},{"base_weights":[-1.8636828E-2,-2.9126015E-1,3.450323E-1,-5.130245E-1,3.7130132E-1,-2.7146018E-1,5.2333754E-1,-1.5171531E-2,-4.1517387E-3,5.1791207E-3,-6.5926746E-3,-8.271361E-3,5.845613E-3,2.341689E-3,9.064053E-3],"categories":[],"categories_nodes":[],"categories_segments":[],"categories_sizes":[],"default_left":[0,0,0,0,0,0,0,0,0,0,0,0,0,0,0],"id":45,"left_children":[1,3,5,7,9,11,13,-1,-1,-1,-1,-1,-1,-1,-1],"loss_changes":[1.9177582E1,1.6429003E1,9.254732E0,7.547077E0,4.6165576E0,9.643133E0,6.9483967E0,0E0,0E0,0E0,0E0,0E0,0E0,0E0,0E0],"parents":[2147483647,0,0,1,1,2,2,3,3,4,4,5,5,6,6],"right_children":[2,4,6,8,10,12,14,-1,-1,-1,-1,-1,-1,-1,-1],"split_conditions":[5.3519595E-1,8.4359E2,6.977163E2,1.472593E3,1.9485832E0,6.1043847E-1,1.5E-1,-1.5171531E-2,-4.1517387E-3,5.1791207E-3,-6.5926746E-3,-8.271361E-3,5.845613E-3,2.341689E-3,9.064053E-3],"split_indices":[40,41,41,25,13,40,3,0,0,0,0,0,0,0,0],"split_type":[0,0,0,0,0,0,0,0,0,0,0,0,0,0,0],"sum_hessian":[1.9141664E2,1.0951684E2,8.189981E1,8.222215E1,2.7294685E1,1.8256231E1,6.3643578E1,6.0129857E0,7.620916E1,2.433079E1,2.9638972E0,1.109063E1,7.1656027E0,3.7184895E1,2.6458685E1],"tree_param":{"num_deleted":"0","num_feature":"46","num_nodes":"15","size_leaf_vector":"1"}},{"base_weights":[9.296661E-3,-2.967472E-1,2.9387015E-1,-5.7648236E-1,1.0379832E-1,-4.197046E-1,3.826391E-1,-1.0136102E-2,-3.3747396E-3,3.562466E-3,-1.2309429E-2,4.972911E-3,-1.0710856E-2,2.2941146E-3,9.282642E-3],"categories":[],"categories_nodes":[],"categories_segments":[],"categories_sizes":[],"default_left":[0,0,0,0,0,0,0,0,0,0,0,0,0,0,0],"id":46,"left_children":[1,3,5,7,9,11,13,-1,-1,-1,-1,-1,-1,-1,-1],"loss_changes":[1.735061E1,1.0816863E1,6.6986055E0,5.579674E0,1.4026206E1,7.6385016E0,7.505377E0,0E0,0E0,0E0,0E0,0E0,0E0,0E0,0E0],"parents":[2147483647,0,0,1,1,2,2,3,3,4,4,5,5,6,6],"right_children":[2,4,6,8,10,12,14,-1,-1,-1,-1,-1,-1,-1,-1],"split_conditions":[7.6306714E2,5.3519595E-1,4.302019E-1,1.4906498E3,9.759148E-1,1.6333333E-1,1.5256731E3,-1.0136102E-2,-3.3747396E-3,3.562466E-3,-1.2309429E-2,4.972911E-3,-1.0710856E-2,2.2941146E-3,9.282642E-3],"split_indices":[41,40,40,26,27,4,39,0,0,0,0,0,0,0,0],"split_type":[0,0,0,0,0,0,0,0,0,0,0,0,0,0,0],"sum_hessian":[1.972204E2,9.500487E1,1.0221553E2,5.5679718E1,3.932515E1,1.0896367E1,9.131917E1,1.8536676E1,3.7143044E1,3.3686836E1,5.6383133E0,4.623747E0,6.2726207E0,7.240591E1,1.891326E1],"tree_param":{"num_deleted":"0","num_feature":"46","num_nodes":"15","size_leaf_vector":"1"}},{"base_weights":[-5.4282244E-2,-4.3288806E-1,2.5906247E-1,-8.026737E-1,-6.634078E-2,3.3534557E-1,-7.875063E-1,-5.537423E-3,-1.3652113E-2,1.6341495E-3,-1.0540154E-2,1.944484E-3,8.825044E-3,5.714991E-3,-1.3963931E-2],"categories":[],"categories_nodes":[],"categories_segments":[],"categories_sizes":[],"default_left":[0,0,0,0,0,0,0,0,0,0,0,0,0,0,0],"id":47,"left_children":[1,3,5,7,9,11,13,-1,-1,-1,-1,-1,-1,-1,-1],"loss_changes":[2.3506678E1,1.21015835E1,8.928192E0,5.482502E0,1.0639002E1,7.680566E0,7.1460323E0,0E0,0E0,0E0,0E0,0E0,0E0,0E0,0E0],"parents":[2147483647,0,0,1,1,2,2,3,3,4,4,5,5,6,6],"right_children":[2,4,6,8,10,12,14,-1,-1,-1,-1,-1,-1,-1,-1],"split_conditions":[7.6306714E2,5.046824E-1,1.19620346E2,1E0,9.759148E-1,2.0727432E-1,3E0,-5.537423E-3,-1.3652113E-2,1.6341495E-3,-1.0540154E-2,1.944484E-3,8.825044E-3,5.714991E-3,-1.3963931E-2],"split_indices":[41,40,30,33,27,30,32,0,0,0,0,0,0,0,0],"split_type":[0,0,0,0,0,0,0,0,0,0,0,0,0,0,0],"sum_hessian":[1.9619899E2,8.867451E1,1.07524475E2,4.3549965E1,4.5124542E1,1.00853004E2,6.671472E0,3.1565933E1,1.1984034E1,3.7285603E1,7.8389397E0,8.1278595E1,1.9574413E1,2.0832238E0,4.5882483E0],"tree_param":{"num_deleted":"0","num_feature":"46","num_nodes":"15","size_leaf_vector":"1"}},{"base_weights":[-1.2725371E-2,-6.9057167E-1,1.2762606E-1,-9.182255E-1,5.3767306E-1,-3.3278534E-1,2.5017387E-1,-1.1209873E-2,-1.7050591E-3,-4.0202364E-3,1.12314345E-2,-1.5637236E-2,-1.1178489E-3,4.6992963E-3,-8.180895E-4],"categories":[],"categories_nodes":[],"categories_segments":[],"categories_sizes":[],"default_left":[0,0,0,0,0,0,0,0,0,0,0,0,0,0,0],"id":48,"left_children":[1,3,5,7,9,11,13,-1,-1,-1,-1,-1,-1,-1,-1],"loss_changes":[1.823458E1,9.686073E0,9.046835E0,4.069662E0,3.626676E0,9.026979E0,9.233728E0,0E0,0E0,0E0,0E0,0E0,0E0,0E0,0E0],"parents":[2147483647,0,0,1,1,2,2,3,3,4,4,5,5,6,6],"right_children":[2,4,6,8,10,12,14,-1,-1,-1,-1,-1,-1,-1,-1],"split_conditions":[6.5658386E2,6.1043847E-1,4.7637242E-1,2.6383972E-1,-4.76694E-3,1.4762985E3,1.5030599E3,-1.1209873E-2,-1.7050591E-3,-4.0202364E-3,1.12314345E-2,-1.5637236E-2,-1.1178489E-3,4.6992963E-3,-8.180895E-4],"split_indices":[41,40,40,2,31,26,25,0,0,0,0,0,0,0,0],"split_type":[0,0,0,0,0,0,0,0,0,0,0,0,0,0,0],"sum_hessian":[1.8974074E2,3.1875135E1,1.578656E2,2.710387E1,4.771266E0,3.2825363E1,1.2504024E2,2.0929214E1,6.1746545E0,1.9518396E0,2.8194263E0,4.071588E0,2.8753777E1,7.4987076E1,5.005316E1],"tree_param":{"num_deleted":"0","num_feature":"46","num_nodes":"15","size_leaf_vector":"1"}},{"base_weights":[-2.9186372E-2,-3.377009E-1,3.477532E-1,2.5126323E-1,-5.47612E-1,1.2604347E-1,7.424455E-1,-1.1351768E-2,4.5723743E-3,-6.9216983E-3,2.0131595E-3,-8.168386E-3,2.2801282E-3,-6.5183924E-3,8.824699E-3],"categories":[],"categories_nodes":[],"categories_segments":[],"categories_sizes":[],"default_left":[0,0,0,0,0,0,0,0,0,0,0,0,0,0,0],"id":49,"left_children":[1,3,5,7,9,11,13,-1,-1,-1,-1,-1,-1,-1,-1],"loss_changes":[2.279941E1,1.34605465E1,7.63153E0,8.801039E0,8.774769E0,5.736847E0,6.7345257E0,0E0,0E0,0E0,0E0,0E0,0E0,0E0,0E0],"parents":[2147483647,0,0,1,1,2,2,3,3,4,4,5,5,6,6],"right_children":[2,4,6,8,10,12,14,-1,-1,-1,-1,-1,-1,-1,-1],"split_conditions":[8.1316986E2,1.4937122E3,5.610184E-1,1.4735564E3,5.999098E-1,-3.6333334E-1,1.4178638E3,-1.1351768E-2,4.5723743E-3,-6.9216983E-3,2.0131595E-3,-8.168386E-3,2.2801282E-3,-6.5183924E-3,8.824699E-3],"split_indices":[41,38,40,26,40,3,39,0,0,0,0,0,0,0,0],"split_type":[0,0,0,0,0,0,0,0,0,0,0,0,0,0,0],"sum_hessian":[1.9404439E2,1.0676462E2,8.727977E1,2.8001528E1,7.876309E1,5.673146E1,3.0548306E1,3.0383995E0,2.4963129E1,6.6083466E1,1.2679621E1,4.8523664E0,5.1879093E1,2.4543235E0,2.8093983E1],"tree_param":{"num_deleted":"0","num_feature":"46","num_nodes":"15","size_leaf_vector":"1"}}]},"name":"gbtree"},"learner_model_param":{"base_score":"[5.1872206E-1]","boost_from_average":"1","num_class":"0","num_feature":"46","num_target":"1"},"objective":{"name":"binary:logistic","reg_loss_param":{"scale_pos_weight":"1"}}},"version":[3,2,0]}