{"learner":{"attributes":{"scikit_learn":"{\"_estimator_type\": \"classifier\"}"},"feature_names":["elo_diff","finish_diff","edge_speed_diff","edge_burst_diff","l5_goal_diff","l5_xg_diff","l5_corsi_diff","l5_pdo_diff","l5_st_net","l5_royal_road_diff","l5_pressure_diff","l5_rebound_diff","l5_lateral_diff","p1_xg_diff","p2_xg_diff","p3_xg_diff","p1_p2_dominance","h_preservation_rate","a_preservation_rate","h_comeback_rate","a_comeback_rate","l5_nzt_possession_diff","l5_ca_shots_diff","l5_rush_sv_pct_diff","home_sos","away_sos","l5_std_diff","l10_goal_diff","l10_xg_diff","elo_rest_inter","speed_finish_inter","season_month","is_late_season","h_desperation","a_desperation","home_xg","away_xg","home_elo","away_elo","away_win_rate","home_win_rate_away_sos","away_b2b_home_strength","pressure_index","xg_efficiency","power_momentum"],"feature_types":["float","float","float","float","float","float","float","float","float","float","float","float","float","float","float","float","float","float","float","float","float","float","float","float","float","float","float","float","float","float","float","int","int","float","float","float","float","float","float","float","float","float","float","float","float"],"gradient_booster":{"model":{"gbtree_model_param":{"num_parallel_tree":"1","num_trees":"100"},"iteration_indptr":[0,1,2,3,4,5,6,7,8,9,10,11,12,13,14,15,16,17,18,19,20,21,22,23,24,25,26,27,28,29,30,31,32,33,34,35,36,37,38,39,40,41,42,43,44,45,46,47,48,49,50,51,52,53,54,55,56,57,58,59,60,61,62,63,64,65,66,67,68,69,70,71,72,73,74,75,76,77,78,79,80,81,82,83,84,85,86,87,88,89,90,91,92,93,94,95,96,97,98,99,100],"tree_info":[0,0,0,0,0,0,0,0,0,0,0,0,0,0,0,0,0,0,0,0,0,0,0,0,0,0,0,0,0,0,0,0,0,0,0,0,0,0,0,0,0,0,0,0,0,0,0,0,0,0,0,0,0,0,0,0,0,0,0,0,0,0,0,0,0,0,0,0,0,0,0,0,0,0,0,0,0,0,0,0,0,0,0,0,0,0,0,0,0,0,0,0,0,0,0,0,0,0,0,0],"trees":[{"base_weights":[-3.3556668E-3,-7.889116E-1,2.662001E-1,-1.2088712E0,6.688589E-3,6.247277E-1,-3.012092E-1,-1.4794164E-2,-1.2722433E-3,-1.1392147E-3,8.840169E-3,-6.0189837E-3,6.4932206E-3],"categories":[],"categories_nodes":[],"categories_segments":[],"categories_sizes":[],"default_left":[0,0,0,0,0,0,0,0,0,0,0,0,0],"id":0,"left_children":[1,3,5,7,-1,9,11,-1,-1,-1,-1,-1,-1],"loss_changes":[5.6160445E0,4.956029E0,4.2070746E0,1.455122E0,0E0,2.4816127E0,2.7699838E0,0E0,0E0,0E0,0E0,0E0,0E0],"parents":[2147483647,0,0,1,1,2,2,3,3,5,5,6,6],"right_children":[2,4,6,8,-1,10,12,-1,-1,-1,-1,-1,-1],"split_conditions":[-7.809885E-1,1.5E-1,3.913657E-3,5E-1,6.688589E-3,-6.498492E-2,6.278581E-2,-1.4794164E-2,-1.2722433E-3,-1.1392147E-3,8.840169E-3,-6.0189837E-3,6.4932206E-3],"split_indices":[28,3,30,20,0,27,30,0,0,0,0,0,0],"split_type":[0,0,0,0,0,0,0,0,0,0,0,0,0],"sum_hessian":[2.4530144E1,5.774636E0,1.8755508E1,4.6156754E0,1.1589603E0,1.1431375E1,7.324134E0,3.398009E0,1.2176663E0,3.1158233E0,8.315551E0,5.8426566E0,1.4814771E0],"tree_param":{"num_deleted":"0","num_feature":"45","num_nodes":"13","size_leaf_vector":"1"}},{"base_weights":[-2.2336258E-2,-8.5954523E-1,2.5197592E-1,-1.280961E0,6.3059265E-3,5.936197E-1,-2.9027957E-1,-2.6035672E-3,-1.4787935E-2,-1.3421893E-3,8.591805E-3,-6.8396893E-3,5.999387E-3],"categories":[],"categories_nodes":[],"categories_segments":[],"categories_sizes":[],"default_left":[0,0,0,0,0,0,0,0,0,0,0,0,0],"id":1,"left_children":[1,3,5,7,-1,9,11,-1,-1,-1,-1,-1,-1],"loss_changes":[6.222927E0,5.003301E0,3.965005E0,7.331791E-1,0E0,2.6063538E0,3.4189725E0,0E0,0E0,0E0,0E0,0E0,0E0],"parents":[2147483647,0,0,1,1,2,2,3,3,5,5,6,6],"right_children":[2,4,6,8,-1,10,12,-1,-1,-1,-1,-1,-1],"split_conditions":[-7.809885E-1,1.5E-1,3.913657E-3,3.2199256E-4,6.3059265E-3,-6.498492E-2,1.5033973E3,-2.6035672E-3,-1.4787935E-2,-1.3421893E-3,8.591805E-3,-6.8396893E-3,5.999387E-3],"split_indices":[28,3,30,43,0,27,24,0,0,0,0,0,0],"split_type":[0,0,0,0,0,0,0,0,0,0,0,0,0],"sum_hessian":[2.515358E1,5.6811337E0,1.9472446E1,4.5381145E0,1.1430193E0,1.1887866E1,7.58458E0,1.1128812E0,3.4252331E0,3.310141E0,8.577725E0,5.4195337E0,2.1650465E0],"tree_param":{"num_deleted":"0","num_feature":"45","num_nodes":"13","size_leaf_vector":"1"}},{"base_weights":[2.8378848E-2,-8.840192E-1,3.2685357E-1,-1.3477961E0,2.847907E-3,7.123848E-1,-2.4354471E-1,-1.5183041E-2,-4.0747207E-3,-3.4827358E-4,9.8181125E-3,-6.4391303E-3,6.164244E-3],"categories":[],"categories_nodes":[],"categories_segments":[],"categories_sizes":[],"default_left":[0,0,0,0,0,0,0,0,0,0,0,0,0],"id":2,"left_children":[1,3,5,7,-1,9,11,-1,-1,-1,-1,-1,-1],"loss_changes":[7.288797E0,3.9646263E0,4.593171E0,1.6755676E-1,0E0,2.499772E0,3.4443083E0,0E0,0E0,0E0,0E0,0E0,0E0],"parents":[2147483647,0,0,1,1,2,2,3,3,5,5,6,6],"right_children":[2,4,6,8,-1,10,12,-1,-1,-1,-1,-1,-1],"split_conditions":[-7.809885E-1,8.1072015E2,3.9501307E-3,5E-1,2.847907E-3,-9E-2,1.5033973E3,-1.5183041E-2,-4.0747207E-3,-3.4827358E-4,9.8181125E-3,-6.4391303E-3,6.164244E-3],"split_indices":[28,40,30,20,0,2,24,0,0,0,0,0,0],"split_type":[0,0,0,0,0,0,0,0,0,0,0,0,0],"sum_hessian":[2.470378E1,5.605799E0,1.909798E1,3.903699E0,1.7021E0,1.1247135E1,7.850845E0,2.7841847E0,1.1195143E0,3.2114413E0,8.035694E0,5.528313E0,2.3225317E0],"tree_param":{"num_deleted":"0","num_feature":"45","num_nodes":"13","size_leaf_vector":"1"}},{"base_weights":[1.1094475E-2,-7.866269E-1,2.8427923E-1,-1.2099575E0,6.2422547E-3,6.3124955E-1,-2.2978364E-1,-1.4275702E-2,-2.3340478E-3,1.199458E-3,9.87588E-3,-6.866846E-3,7.482755E-3],"categories":[],"categories_nodes":[],"categories_segments":[],"categories_sizes":[],"default_left":[0,0,0,0,0,0,0,0,0,0,0,0,0],"id":3,"left_children":[1,3,5,7,-1,9,11,-1,-1,-1,-1,-1,-1],"loss_changes":[5.6725893E0,4.723375E0,3.5981848E0,8.251443E-1,0E0,2.03609E0,4.327746E0,0E0,0E0,0E0,0E0,0E0,0E0],"parents":[2147483647,0,0,1,1,2,2,3,3,5,5,6,6],"right_children":[2,4,6,8,-1,10,12,-1,-1,-1,-1,-1,-1],"split_conditions":[-7.809885E-1,1.5E-1,3.9501307E-3,5E-1,6.2422547E-3,2.7852087E0,1.5033973E3,-1.4275702E-2,-2.3340478E-3,1.199458E-3,9.87588E-3,-6.866846E-3,7.482755E-3],"split_indices":[28,3,30,20,0,6,24,0,0,0,0,0,0],"split_type":[0,0,0,0,0,0,0,0,0,0,0,0,0],"sum_hessian":[2.4003832E1,5.6438546E0,1.8359978E1,4.4507775E0,1.1930768E0,1.0825361E1,7.5346155E0,3.2620285E0,1.1887493E0,4.9948893E0,5.8304725E0,5.3385973E0,2.1960185E0],"tree_param":{"num_deleted":"0","num_feature":"45","num_nodes":"13","size_leaf_vector":"1"}},{"base_weights":[4.0827836E-3,-7.714172E-1,2.3528582E-1,-1.2238129E0,6.0923146E-3,5.6442904E-1,-3.189925E-1,-3.4068536E-3,-1.3934334E-2,-9.420365E-4,8.421251E-3,-7.047917E-3,6.3053872E-3],"categories":[],"categories_nodes":[],"categories_segments":[],"categories_sizes":[],"default_left":[0,0,0,0,0,0,0,0,0,0,0,0,0],"id":4,"left_children":[1,3,5,7,-1,9,11,-1,-1,-1,-1,-1,-1],"loss_changes":[4.662734E0,4.4767876E0,3.832337E0,2.4906206E-1,0E0,2.4427137E0,3.4108226E0,0E0,0E0,0E0,0E0,0E0,0E0],"parents":[2147483647,0,0,1,1,2,2,3,3,5,5,6,6],"right_children":[2,4,6,8,-1,10,12,-1,-1,-1,-1,-1,-1],"split_conditions":[-7.809885E-1,1.5E-1,3.913657E-3,3.2199256E-4,6.0923146E-3,-3.592996E-2,1.5033973E3,-3.4068536E-3,-1.3934334E-2,-9.420365E-4,8.421251E-3,-7.047917E-3,6.3053872E-3],"split_indices":[28,3,30,43,0,27,24,0,0,0,0,0,0],"split_type":[0,0,0,0,0,0,0,0,0,0,0,0,0],"sum_hessian":[2.3993206E1,4.9737487E0,1.9019457E1,3.8317866E0,1.141962E0,1.192174E1,7.0977163E0,1.1021208E0,2.7296658E0,3.7317154E0,8.190024E0,5.230348E0,1.8673685E0],"tree_param":{"num_deleted":"0","num_feature":"45","num_nodes":"13","size_leaf_vector":"1"}},{"base_weights":[9.044907E-2,-9.723245E-1,3.2526362E-1,-1.1961226E-3,-1.3037184E-2,-6.433009E-1,5.03338E-1,-1.0893615E-2,4.0615207E-4,6.283211E-3,-5.5588707E-3],"categories":[],"categories_nodes":[],"categories_segments":[],"categories_sizes":[],"default_left":[0,0,0,0,0,0,0,0,0,0,0],"id":5,"left_children":[1,3,5,-1,-1,7,9,-1,-1,-1,-1],"loss_changes":[6.6772327E0,1.2183394E0,4.053778E0,0E0,0E0,1.2027451E0,2.8418918E0,0E0,0E0,0E0,0E0],"parents":[2147483647,0,0,1,1,2,2,5,5,6,6],"right_children":[2,4,6,-1,-1,8,10,-1,-1,-1,-1],"split_conditions":[-4.539008E1,-5.3328933E-4,4.1902992E-1,-1.1961226E-3,-1.3037184E-2,6E-2,1.6283215E3,-1.0893615E-2,4.0615207E-4,6.283211E-3,-5.5588707E-3],"split_indices":[0,30,39,0,0,33,37,0,0,0,0],"split_type":[0,0,0,0,0,0,0,0,0,0,0],"sum_hessian":[2.4489285E1,3.863268E0,2.0626017E1,1.4620901E0,2.401178E0,2.7975144E0,1.7828503E1,1.3343812E0,1.4631332E0,1.6310732E1,1.5177718E0],"tree_param":{"num_deleted":"0","num_feature":"45","num_nodes":"11","size_leaf_vector":"1"}},{"base_weights":[-4.523249E-2,-8.210961E-1,2.2284E-1,-1.210785E0,5.803009E-3,-2.6362756E-1,5.159358E-1,-1.4055466E-2,-3.0754309E-3,-9.910236E-3,3.0616107E-3,6.9751465E-3,-4.483983E-3],"categories":[],"categories_nodes":[],"categories_segments":[],"categories_sizes":[],"default_left":[0,0,0,0,0,0,0,0,0,0,0,0,0],"id":6,"left_children":[1,3,5,7,-1,9,11,-1,-1,-1,-1,-1,-1],"loss_changes":[5.3946857E0,4.3331823E0,2.903486E0,5.3978443E-1,0E0,3.6022773E0,2.492854E0,0E0,0E0,0E0,0E0,0E0,0E0],"parents":[2147483647,0,0,1,1,2,2,3,3,5,5,6,6],"right_children":[2,4,6,8,-1,10,12,-1,-1,-1,-1,-1,-1],"split_conditions":[-7.809885E-1,1.5333334E-1,8.281947E-2,5E-1,5.803009E-3,7.676708E2,1.6093454E2,-1.4055466E-2,-3.0754309E-3,-9.910236E-3,3.0616107E-3,6.9751465E-3,-4.483983E-3],"split_indices":[28,3,7,20,0,40,0,0,0,0,0,0,0],"split_type":[0,0,0,0,0,0,0,0,0,0,0,0,0],"sum_hessian":[2.4057795E1,5.6480556E0,1.8409739E1,4.5256233E0,1.1224324E0,6.959389E0,1.1450349E1,3.2654064E0,1.2602167E0,2.7321827E0,4.227206E0,9.868796E0,1.5815531E0],"tree_param":{"num_deleted":"0","num_feature":"45","num_nodes":"13","size_leaf_vector":"1"}},{"base_weights":[-4.166632E-3,-8.146793E-1,3.1630233E-1,-1.17386E0,6.2241354E-3,6.2027544E-1,-1.9589958E-1,-1.4763488E-2,2.2414103E-3,-4.872924E-3,8.0124205E-3,-6.226249E-3,6.049016E-3],"categories":[],"categories_nodes":[],"categories_segments":[],"categories_sizes":[],"default_left":[0,0,0,0,0,0,0,0,0,0,0,0,0],"id":7,"left_children":[1,3,5,7,-1,9,11,-1,-1,-1,-1,-1,-1],"loss_changes":[6.993197E0,4.667726E0,3.1270437E0,3.0579634E0,0E0,2.8666768E0,3.0931296E0,0E0,0E0,0E0,0E0,0E0,0E0],"parents":[2147483647,0,0,1,1,2,2,3,3,5,5,6,6],"right_children":[2,4,6,8,-1,10,12,-1,-1,-1,-1,-1,-1],"split_conditions":[4.7842702E-1,1.5333334E-1,9.310805E-3,6.1450076E-1,6.2241354E-3,-2.149111E0,1.503263E3,-1.4763488E-2,2.2414103E-3,-4.872924E-3,8.0124205E-3,-6.226249E-3,6.049016E-3],"split_indices":[39,3,30,27,0,11,24,0,0,0,0,0,0],"split_type":[0,0,0,0,0,0,0,0,0,0,0,0,0],"sum_hessian":[2.4931334E1,6.627435E0,1.8303898E1,5.4487653E0,1.1786698E0,1.1354449E1,6.9494486E0,4.433447E0,1.0153185E0,1.3569299E0,9.9975195E0,4.6787605E0,2.2706878E0],"tree_param":{"num_deleted":"0","num_feature":"45","num_nodes":"13","size_leaf_vector":"1"}},{"base_weights":[2.4292834E-2,-9.934329E-1,2.5292376E-1,-1.3662042E-3,-1.3270218E-2,-3.7700805E-1,5.449506E-1,7.820299E-3,-7.4872416E-3,1.3994457E-2,2.2438318E-3],"categories":[],"categories_nodes":[],"categories_segments":[],"categories_sizes":[],"default_left":[0,0,0,0,0,0,0,0,0,0,0],"id":8,"left_children":[1,3,5,-1,-1,7,9,-1,-1,-1,-1],"loss_changes":[6.198222E0,1.2167487E0,4.191218E0,0E0,0E0,3.7969403E0,3.853149E0,0E0,0E0,0E0,0E0],"parents":[2147483647,0,0,1,1,2,2,5,5,6,6],"right_children":[2,4,6,-1,-1,8,10,-1,-1,-1,-1],"split_conditions":[-4.539008E1,-5.3328933E-4,-4.1780078E-1,-1.3662042E-3,-1.3270218E-2,1.4939385E3,0E0,7.820299E-3,-7.4872416E-3,1.3994457E-2,2.2438318E-3],"split_indices":[0,30,26,0,0,37,34,0,0,0,0],"split_type":[0,0,0,0,0,0,0,0,0,0,0],"sum_hessian":[2.4558144E1,3.891301E0,2.0666842E1,1.4854691E0,2.4058318E0,6.4539676E0,1.4212874E1,1.2991832E0,5.1547847E0,2.9592514E0,1.1253622E1],"tree_param":{"num_deleted":"0","num_feature":"45","num_nodes":"11","size_leaf_vector":"1"}},{"base_weights":[-3.5102107E-2,-8.228093E-1,2.161079E-1,-1.319259E0,5.4055206E-3,-7.930681E-1,3.843709E-1,-1.4779621E-2,-3.7645714E-3,-1.8479414E-3,-1.005803E-2,-1.7881859E-3,6.2344847E-3],"categories":[],"categories_nodes":[],"categories_segments":[],"categories_sizes":[],"default_left":[0,0,0,0,0,0,0,0,0,0,0,0,0],"id":9,"left_children":[1,3,5,7,-1,9,11,-1,-1,-1,-1,-1,-1],"loss_changes":[5.209216E0,5.015223E0,3.712924E0,1.8427372E-1,0E0,2.2752142E-1,2.518384E0,0E0,0E0,0E0,0E0,0E0,0E0],"parents":[2147483647,0,0,1,1,2,2,3,3,5,5,6,6],"right_children":[2,4,6,8,-1,10,12,-1,-1,-1,-1,-1,-1],"split_conditions":[-7.685559E-1,8.1072015E2,4.1902992E-1,5E-1,5.4055206E-3,1.5291023E3,-5.0143486E-1,-1.4779621E-2,-3.7645714E-3,-1.8479414E-3,-1.005803E-2,-1.7881859E-3,6.2344847E-3],"split_indices":[28,40,39,20,0,25,26,0,0,0,0,0,0],"split_type":[0,0,0,0,0,0,0,0,0,0,0,0,0],"sum_hessian":[2.4426533E1,5.356144E0,1.9070389E1,3.950112E0,1.406032E0,2.1946235E0,1.6875765E1,2.8951416E0,1.0549705E0,1.0528536E0,1.14177E0,5.104131E0,1.1771634E1],"tree_param":{"num_deleted":"0","num_feature":"45","num_nodes":"13","size_leaf_vector":"1"}},{"base_weights":[3.89048E-2,-3.9245385E-1,5.418971E-1,-1.0388077E-2,-9.6567404E-1,1.0702156E0,-1.5276949E-1,4.274841E-3,-5.968486E-3,-1.1911168E-2,-2.5541931E-3,3.5083522E-3,1.3405486E-2,-5.107604E-3,7.0282253E-3],"categories":[],"categories_nodes":[],"categories_segments":[],"categories_sizes":[],"default_left":[0,0,0,0,0,0,0,0,0,0,0,0,0,0,0],"id":10,"left_children":[1,3,5,7,9,11,13,-1,-1,-1,-1,-1,-1,-1,-1],"loss_changes":[5.5953994E0,3.0419044E0,4.5210757E0,2.6620173E0,5.864482E-1,8.655338E-1,2.1980445E0,0E0,0E0,0E0,0E0,0E0,0E0,0E0,0E0],"parents":[2147483647,0,0,1,1,2,2,3,3,4,4,5,5,6,6],"right_children":[2,4,6,8,10,12,14,-1,-1,-1,-1,-1,-1,-1,-1],"split_conditions":[6.7569554E-2,1.2294451E-2,2.579892E-4,3.913657E-3,-4.58425E-1,-2.875846E-2,8.477532E-2,4.274841E-3,-5.968486E-3,-1.1911168E-2,-2.5541931E-3,3.5083522E-3,1.3405486E-2,-5.107604E-3,7.0282253E-3],"split_indices":[13,43,30,30,5,30,30,0,0,0,0,0,0,0,0],"split_type":[0,0,0,0,0,0,0,0,0,0,0,0,0,0,0],"sum_hessian":[2.3808626E1,1.2935284E1,1.0873343E1,8.372754E0,4.5625296E0,5.8690815E0,5.004262E0,4.9488473E0,3.4239066E0,2.9493468E0,1.6131828E0,2.2307212E0,3.6383603E0,3.8122141E0,1.1920477E0],"tree_param":{"num_deleted":"0","num_feature":"45","num_nodes":"15","size_leaf_vector":"1"}},{"base_weights":[-1.38454875E-2,-1.0539207E0,2.0817459E-1,-1.2408263E-2,-2.4683082E-3,-5.414872E-1,4.5267057E-1,3.1326807E-3,-1.15810055E-2,7.90476E-3,-1.5360574E-3],"categories":[],"categories_nodes":[],"categories_segments":[],"categories_sizes":[],"default_left":[0,0,0,0,0,0,0,0,0,0,0],"id":11,"left_children":[1,3,5,-1,-1,7,9,-1,-1,-1,-1],"loss_changes":[6.09232E0,3.9351082E-1,4.2397256E0,0E0,0E0,3.4277143E0,3.598743E0,0E0,0E0,0E0,0E0],"parents":[2147483647,0,0,1,1,2,2,5,5,6,6],"right_children":[2,4,6,-1,-1,8,10,-1,-1,-1,-1],"split_conditions":[-4.539008E1,7.416755E2,-3.0584354E0,-1.2408263E-2,-2.4683082E-3,7.0627118E-3,1.3605437E-2,3.1326807E-3,-1.15810055E-2,7.90476E-3,-1.5360574E-3],"split_indices":[0,40,6,0,0,43,1,0,0,0,0],"split_type":[0,0,0,0,0,0,0,0,0,0,0],"sum_hessian":[2.4432974E1,3.6389565E0,2.0794018E1,2.51835E0,1.1206067E0,4.815194E0,1.5978824E1,2.2240913E0,2.5911028E0,1.0066271E1,5.912553E0],"tree_param":{"num_deleted":"0","num_feature":"45","num_nodes":"11","size_leaf_vector":"1"}},{"base_weights":[1.1989498E-2,-1.1357094E-2,2.5310892E-1,-5.191082E-1,5.264145E-1,4.958861E-3,-1.1959707E-2,8.2927495E-3,-3.3895278E-3],"categories":[],"categories_nodes":[],"categories_segments":[],"categories_sizes":[],"default_left":[0,0,0,0,0,0,0,0,0],"id":12,"left_children":[1,-1,3,5,7,-1,-1,-1,-1],"loss_changes":[7.295123E0,0E0,4.8624086E0,4.8439875E0,4.620345E0,0E0,0E0,0E0,0E0],"parents":[2147483647,0,0,2,2,3,3,4,4],"right_children":[2,-1,4,6,8,-1,-1,-1,-1],"split_conditions":[-4.539008E1,-1.1357094E-2,-3.0584354E0,3.163619E-3,5.7217408E-2,4.958861E-3,-1.1959707E-2,8.2927495E-3,-3.3895278E-3],"split_indices":[0,0,6,43,1,0,0,0,0],"split_type":[0,0,0,0,0,0,0,0,0],"sum_hessian":[2.4322884E1,3.5786753E0,2.074421E1,5.187554E0,1.5556655E1,2.182358E0,3.0051959E0,1.1554521E1,4.0021334E0],"tree_param":{"num_deleted":"0","num_feature":"45","num_nodes":"9","size_leaf_vector":"1"}},{"base_weights":[-1.2762954E-2,-8.1351393E-1,2.576E-1,-1.201423E0,5.849985E-3,9.96668E-1,5.6686185E-2,-1.3871197E-2,-2.5724764E-3,4.0471266E-4,1.2789944E-2,-2.3282112E-3,7.935024E-3],"categories":[],"categories_nodes":[],"categories_segments":[],"categories_sizes":[],"default_left":[0,0,0,0,0,0,0,0,0,0,0,0,0],"id":13,"left_children":[1,3,5,7,-1,9,11,-1,-1,-1,-1,-1,-1],"loss_changes":[5.850695E0,4.4013376E0,2.9488099E0,6.363535E-1,0E0,1.0997987E0,3.8054414E0,0E0,0E0,0E0,0E0,0E0,0E0],"parents":[2147483647,0,0,1,1,2,2,3,3,5,5,6,6],"right_children":[2,4,6,8,-1,10,12,-1,-1,-1,-1,-1,-1],"split_conditions":[-7.809885E-1,1.5E-1,0E0,5E-1,5.849985E-3,1.49301E3,1E-1,-1.3871197E-2,-2.5724764E-3,4.0471266E-4,1.2789944E-2,-2.3282112E-3,7.935024E-3],"split_indices":[28,3,34,20,0,25,34,0,0,0,0,0,0],"split_type":[0,0,0,0,0,0,0,0,0,0,0,0,0],"sum_hessian":[2.505684E1,5.8175797E0,1.9239262E1,4.664659E0,1.1529208E0,3.2656794E0,1.5973582E1,3.5059826E0,1.1586763E0,1.0050563E0,2.2606232E0,1.1958792E1,4.0147905E0],"tree_param":{"num_deleted":"0","num_feature":"45","num_nodes":"13","size_leaf_vector":"1"}},{"base_weights":[6.0940473E-3,-8.9112276E-1,2.0114887E-1,-9.290941E-4,-1.2165696E-2,-7.5611585E-1,3.4945112E-1,-1.108826E-2,-1.31882425E-5,-9.0719573E-4,6.059104E-3],"categories":[],"categories_nodes":[],"categories_segments":[],"categories_sizes":[],"default_left":[0,0,0,0,0,0,0,0,0,0,0],"id":14,"left_children":[1,3,5,-1,-1,7,9,-1,-1,-1,-1],"loss_changes":[4.6062527E0,1.108304E0,3.329913E0,0E0,0E0,8.5387266E-1,2.242912E0,0E0,0E0,0E0,0E0],"parents":[2147483647,0,0,1,1,2,2,5,5,6,6],"right_children":[2,4,6,-1,-1,8,10,-1,-1,-1,-1],"split_conditions":[-4.539008E1,-5.3328933E-4,1.4661309E3,-9.290941E-4,-1.2165696E-2,1.4819083E3,1.5863113E-1,-1.108826E-2,-1.31882425E-5,-9.0719573E-4,6.059104E-3],"split_indices":[0,30,25,0,0,24,4,0,0,0,0],"split_type":[0,0,0,0,0,0,0,0,0,0,0],"sum_hessian":[2.4296236E1,3.7014878E0,2.0594748E1,1.4443816E0,2.257106E0,2.2128317E0,1.8381916E1,1.1884434E0,1.0243882E0,7.005086E0,1.137683E1],"tree_param":{"num_deleted":"0","num_feature":"45","num_nodes":"11","size_leaf_vector":"1"}},{"base_weights":[7.283259E-2,-1.0230407E0,3.0924457E-1,-1.1920073E-2,-2.908955E-3,-2.8688738E-1,5.53448E-1,7.6013617E-3,-6.6883788E-3,1.062068E-2,-1.6406005E-3],"categories":[],"categories_nodes":[],"categories_segments":[],"categories_sizes":[],"default_left":[0,0,0,0,0,0,0,0,0,0,0],"id":15,"left_children":[1,3,5,-1,-1,7,9,-1,-1,-1,-1],"loss_changes":[6.713951E0,2.2403622E-1,3.2275097E0,0E0,0E0,3.2215738E0,5.756092E0,0E0,0E0,0E0,0E0],"parents":[2147483647,0,0,1,1,2,2,5,5,6,6],"right_children":[2,4,6,-1,-1,8,10,-1,-1,-1,-1],"split_conditions":[-4.539008E1,7.416755E2,-4.1780078E-1,-1.1920073E-2,-2.908955E-3,1.4939385E3,1.28412135E-2,7.6013617E-3,-6.6883788E-3,1.062068E-2,-1.6406005E-3],"split_indices":[0,40,26,0,0,37,1,0,0,0,0],"split_type":[0,0,0,0,0,0,0,0,0,0,0],"sum_hessian":[2.3693693E1,3.6139736E0,2.007972E1,2.4259934E0,1.1879803E0,5.7844205E0,1.4295299E1,1.2814626E0,4.502958E0,8.084337E0,6.210962E0],"tree_param":{"num_deleted":"0","num_feature":"45","num_nodes":"11","size_leaf_vector":"1"}},{"base_weights":[4.5800162E-3,-8.3166456E-1,3.1178394E-1,-1.1582133E0,5.7247123E-3,1.1449993E-2,8.225773E-2,-1.4237826E-2,-9.661938E-4,2.2549368E-3,-1.0302565E-2],"categories":[],"categories_nodes":[],"categories_segments":[],"categories_sizes":[],"default_left":[0,0,0,0,0,0,0,0,0,0,0],"id":16,"left_children":[1,3,5,7,-1,-1,9,-1,-1,-1,-1],"loss_changes":[6.7955995E0,3.9223566E0,3.6035042E0,1.5816011E0,0E0,0E0,2.81962E0,0E0,0E0,0E0,0E0],"parents":[2147483647,0,0,1,1,2,2,3,3,6,6],"right_children":[2,4,6,8,-1,-1,10,-1,-1,-1,-1],"split_conditions":[4.7842702E-1,1.5333334E-1,0E0,1.13730684E-1,5.7247123E-3,1.1449993E-2,4.1193523E0,-1.4237826E-2,-9.661938E-4,2.2549368E-3,-1.0302565E-2],"split_indices":[39,3,34,27,0,0,12,0,0,0,0],"split_type":[0,0,0,0,0,0,0,0,0,0,0],"sum_hessian":[2.4443209E1,6.1083546E0,1.8334854E1,5.0979147E0,1.0104396E0,3.0984547E0,1.5236401E1,3.804902E0,1.2930127E0,1.4204842E1,1.0315585E0],"tree_param":{"num_deleted":"0","num_feature":"45","num_nodes":"11","size_leaf_vector":"1"}},{"base_weights":[1.5305892E-1,-8.057517E-1,3.4591925E-1,5.4156187E-4,-1.1789028E-2,5.236248E-1,-5.798035E-1,-4.283234E-3,6.5514348E-3,-9.5778145E-3,2.469452E-3],"categories":[],"categories_nodes":[],"categories_segments":[],"categories_sizes":[],"default_left":[0,0,0,0,0,0,0,0,0,0,0],"id":17,"left_children":[1,3,5,-1,-1,7,9,-1,-1,-1,-1],"loss_changes":[4.7747726E0,1.4667149E0,3.7486722E0,0E0,0E0,2.5460544E0,1.438745E0,0E0,0E0,0E0,0E0],"parents":[2147483647,0,0,1,1,2,2,5,5,6,6],"right_children":[2,4,6,-1,-1,8,10,-1,-1,-1,-1],"split_conditions":[-4.539008E1,-5.3328933E-4,1.6079076E3,5.4156187E-4,-1.1789028E-2,4.1902992E-1,4.6154404E-1,-4.283234E-3,6.5514348E-3,-9.5778145E-3,2.469452E-3],"split_indices":[0,30,37,0,0,39,13,0,0,0,0],"split_type":[0,0,0,0,0,0,0,0,0,0,0],"sum_hessian":[2.3313929E1,3.3720052E0,1.9941923E1,1.2791458E0,2.0928593E0,1.7094713E1,2.8472097E0,1.8011358E0,1.5293577E1,1.845144E0,1.0020655E0],"tree_param":{"num_deleted":"0","num_feature":"45","num_nodes":"11","size_leaf_vector":"1"}},{"base_weights":[-1.0794013E-1,-6.675299E-1,1.8312894E-1,-9.6591663E-1,3.3242046E-3,3.1044865E-1,-8.904914E-3,-1.3129198E-2,3.865317E-3,-2.7128342E-3,6.715343E-3],"categories":[],"categories_nodes":[],"categories_segments":[],"categories_sizes":[],"default_left":[0,0,0,0,0,0,0,0,0,0,0],"id":18,"left_children":[1,3,5,7,-1,9,-1,-1,-1,-1,-1],"loss_changes":[4.244563E0,2.9692154E0,2.6595306E0,3.8355813E0,0E0,3.6117501E0,0E0,0E0,0E0,0E0,0E0],"parents":[2147483647,0,0,1,1,2,2,3,3,5,5],"right_children":[2,4,6,8,-1,10,-1,-1,-1,-1,-1],"split_conditions":[4.925634E-1,1.5333334E-1,1.6283215E3,6.681419E-1,3.3242046E-3,-3.5692906E-1,-8.904914E-3,-1.3129198E-2,3.865317E-3,-2.7128342E-3,6.715343E-3],"split_indices":[39,3,37,27,0,11,0,0,0,0,0],"split_type":[0,0,0,0,0,0,0,0,0,0,0],"sum_hessian":[2.4309046E1,7.8752494E0,1.6433796E1,6.091555E0,1.7836943E0,1.5327018E1,1.1067785E0,4.871008E0,1.2205472E0,5.9652762E0,9.361741E0],"tree_param":{"num_deleted":"0","num_feature":"45","num_nodes":"11","size_leaf_vector":"1"}},{"base_weights":[5.5287937E-3,-5.9478223E-1,2.437967E-1,-1.126722E-2,1.469906E-2,-6.7592376E-1,4.4788715E-1,-5.2996E-3,6.0982686E-3,-1.0743162E-2,1.328369E-3,-2.8213876E-4,8.646945E-3],"categories":[],"categories_nodes":[],"categories_segments":[],"categories_sizes":[],"default_left":[0,0,0,0,0,0,0,0,0,0,0,0,0],"id":19,"left_children":[1,3,5,-1,7,9,11,-1,-1,-1,-1,-1,-1],"loss_changes":[3.7709396E0,2.4460084E0,3.8422198E0,0E0,1.7751242E0,1.3744925E0,3.206125E0,0E0,0E0,0E0,0E0,0E0,0E0],"parents":[2147483647,0,0,1,1,2,2,4,4,5,5,6,6],"right_children":[2,4,6,-1,8,10,12,-1,-1,-1,-1,-1,-1],"split_conditions":[-4.0203586E-1,3.2724466E-2,4.1902992E-1,-1.126722E-2,5.970214E0,1.5594279E3,5.0960403E-2,-5.2996E-3,6.0982686E-3,-1.0743162E-2,1.328369E-3,-2.8213876E-4,8.646945E-3],"split_indices":[26,28,39,0,8,37,16,0,0,0,0,0,0],"split_type":[0,0,0,0,0,0,0,0,0,0,0,0,0],"sum_hessian":[2.4350002E1,6.4934974E0,1.7856504E1,3.0141587E0,3.4793384E0,2.8229914E0,1.5033513E1,1.8738755E0,1.6054628E0,1.6713446E0,1.1516467E0,7.452805E0,7.580708E0],"tree_param":{"num_deleted":"0","num_feature":"45","num_nodes":"13","size_leaf_vector":"1"}},{"base_weights":[-2.7829038E-3,-7.3946977E-1,2.4226502E-1,-1.1035863E0,5.89822E-3,5.47801E-1,-2.8169948E-1,-1.3198232E-2,-2.3573278E-3,-8.3428016E-4,8.014047E-3,-6.5933773E-3,5.616638E-3],"categories":[],"categories_nodes":[],"categories_segments":[],"categories_sizes":[],"default_left":[0,0,0,0,0,0,0,0,0,0,0,0,0],"id":20,"left_children":[1,3,5,7,-1,9,11,-1,-1,-1,-1,-1,-1],"loss_changes":[4.8024626E0,3.8644814E0,3.35151E0,7.3228836E-1,0E0,2.1406708E0,2.9234867E0,0E0,0E0,0E0,0E0,0E0,0E0],"parents":[2147483647,0,0,1,1,2,2,3,3,5,5,6,6],"right_children":[2,4,6,8,-1,10,12,-1,-1,-1,-1,-1,-1],"split_conditions":[-7.809885E-1,1.5E-1,3.913657E-3,5E-1,5.89822E-3,-6.498492E-2,1.5033973E3,-1.3198232E-2,-2.3573278E-3,-8.3428016E-4,8.014047E-3,-6.5933773E-3,5.616638E-3],"split_indices":[28,3,30,20,0,27,24,0,0,0,0,0,0],"split_type":[0,0,0,0,0,0,0,0,0,0,0,0,0],"sum_hessian":[2.4610588E1,5.639356E0,1.8971233E1,4.5600667E0,1.0792896E0,1.1954684E1,7.0165486E0,3.2335863E0,1.3264803E0,3.618681E0,8.336003E0,4.997148E0,2.019401E0],"tree_param":{"num_deleted":"0","num_feature":"45","num_nodes":"13","size_leaf_vector":"1"}},{"base_weights":[2.2398677E-2,-1.0083065E0,2.3774032E-1,-1.14973495E-2,-2.7872068E-3,-3.731118E-1,4.5417053E-1,5.66187E-3,-1.1059158E-2,1.0080705E-3,9.19597E-3],"categories":[],"categories_nodes":[],"categories_segments":[],"categories_sizes":[],"default_left":[0,0,0,0,0,0,0,0,0,0,0],"id":21,"left_children":[1,3,5,-1,-1,7,9,-1,-1,-1,-1],"loss_changes":[5.7101264E0,1.3873768E-1,2.9717665E0,0E0,0E0,4.821E0,2.555525E0,0E0,0E0,0E0,0E0],"parents":[2147483647,0,0,1,1,2,2,5,5,6,6],"right_children":[2,4,6,-1,-1,8,10,-1,-1,-1,-1],"split_conditions":[-4.539008E1,5E-1,-3.0584354E0,-1.14973495E-2,-2.7872068E-3,4.7722915E-3,2.4333334E-1,5.66187E-3,-1.1059158E-2,1.0080705E-3,9.19597E-3],"split_indices":[0,19,6,0,0,43,2,0,0,0,0],"split_type":[0,0,0,0,0,0,0,0,0,0,0],"sum_hessian":[2.3646627E1,3.4502225E0,2.0196405E1,2.4076347E0,1.0425878E0,5.094307E0,1.51020975E1,2.33224E0,2.7620668E0,9.276067E0,5.8260307E0],"tree_param":{"num_deleted":"0","num_feature":"45","num_nodes":"11","size_leaf_vector":"1"}},{"base_weights":[-9.598225E-2,-8.825142E-1,2.0307674E-1,-1.216484E0,1.9236634E-3,-3.7048876E-1,6.036418E-1,-3.5117269E-3,-1.4437484E-2,2.3941277E-3,-9.921793E-3,-4.6245212E-4,8.775529E-3],"categories":[],"categories_nodes":[],"categories_segments":[],"categories_sizes":[],"default_left":[0,0,0,0,0,0,0,0,0,0,0,0,0],"id":22,"left_children":[1,3,5,7,-1,9,11,-1,-1,-1,-1,-1,-1],"loss_changes":[6.125263E0,2.8010068E0,4.6182737E0,5.927429E-1,0E0,3.4548354E0,2.1131253E0,0E0,0E0,0E0,0E0,0E0,0E0],"parents":[2147483647,0,0,1,1,2,2,3,3,5,5,6,6],"right_children":[2,4,6,8,-1,10,12,-1,-1,-1,-1,-1,-1],"split_conditions":[-3.6421895E0,1.6E-1,-7.051074E-1,1E0,1.9236634E-3,-1.0006816E0,-9E-2,-3.5117269E-3,-1.4437484E-2,2.3941277E-3,-9.921793E-3,-4.6245212E-4,8.775529E-3],"split_indices":[6,3,7,18,0,27,2,0,0,0,0,0,0],"split_type":[0,0,0,0,0,0,0,0,0,0,0,0,0],"sum_hessian":[2.4278715E1,6.150855E0,1.812786E1,4.592277E0,1.5585783E0,7.485099E0,1.064276E1,1.4846553E0,3.1076217E0,4.088767E0,3.3963318E0,3.4020815E0,7.240679E0],"tree_param":{"num_deleted":"0","num_feature":"45","num_nodes":"13","size_leaf_vector":"1"}},{"base_weights":[-3.224731E-2,-8.200637E-1,2.0805046E-1,-1.24548E-2,2.3388045E-3,-2.952926E-1,5.26471E-1,-6.0446337E-3,7.002954E-3,7.48055E-3,-5.676522E-3],"categories":[],"categories_nodes":[],"categories_segments":[],"categories_sizes":[],"default_left":[0,0,0,0,0,0,0,0,0,0,0],"id":23,"left_children":[1,3,5,-1,-1,7,9,-1,-1,-1,-1],"loss_changes":[4.984527E0,3.0468187E0,3.4063072E0,0E0,0E0,3.039655E0,3.5237372E0,0E0,0E0,0E0,0E0],"parents":[2147483647,0,0,1,1,2,2,5,5,6,6],"right_children":[2,4,6,-1,-1,8,10,-1,-1,-1,-1],"split_conditions":[-7.809885E-1,8.1072015E2,8.281947E-2,-1.24548E-2,2.3388045E-3,3.9333335E-1,1.6093454E2,-6.0446337E-3,7.002954E-3,7.48055E-3,-5.676522E-3],"split_indices":[28,40,7,0,0,3,0,0,0,0,0],"split_type":[0,0,0,0,0,0,0,0,0,0,0],"sum_hessian":[2.442866E1,5.1457186E0,1.928294E1,3.5365038E0,1.6092147E0,7.499983E0,1.1782957E1,6.0225825E0,1.4774005E0,1.0061566E1,1.7213908E0],"tree_param":{"num_deleted":"0","num_feature":"45","num_nodes":"11","size_leaf_vector":"1"}},{"base_weights":[-1.2026857E-2,-8.656587E-1,2.502468E-1,-1.2043883E0,3.286279E-3,-4.107137E-1,5.60979E-1,-1.3344448E-2,-3.5222417E-3,-1.1263235E-2,2.405764E-3,-5.1034093E-3,6.9530127E-3],"categories":[],"categories_nodes":[],"categories_segments":[],"categories_sizes":[],"default_left":[0,0,0,0,0,0,0,0,0,0,0,0,0],"id":24,"left_children":[1,3,5,7,-1,9,11,-1,-1,-1,-1,-1,-1],"loss_changes":[5.8027053E0,2.858821E0,4.3097296E0,7.941818E-2,0E0,3.5003338E0,2.3598657E0,0E0,0E0,0E0,0E0,0E0,0E0],"parents":[2147483647,0,0,1,1,2,2,3,3,5,5,6,6],"right_children":[2,4,6,8,-1,10,12,-1,-1,-1,-1,-1,-1],"split_conditions":[4.4342017E-1,1.2666667E-1,-4.1780078E-1,-2.3951535E-1,3.286279E-3,3.2724466E-2,5.7354645E2,-1.3344448E-2,-3.5222417E-3,-1.1263235E-2,2.405764E-3,-5.1034093E-3,6.9530127E-3],"split_indices":[39,3,26,4,0,28,40,0,0,0,0,0,0],"split_type":[0,0,0,0,0,0,0,0,0,0,0,0,0],"sum_hessian":[2.3950636E1,5.0884557E0,1.8862179E1,3.9575403E0,1.1309156E0,5.928937E0,1.2933243E1,2.9425082E0,1.0150318E0,2.477449E0,3.451488E0,1.1290287E0,1.1804214E1],"tree_param":{"num_deleted":"0","num_feature":"45","num_nodes":"13","size_leaf_vector":"1"}},{"base_weights":[-7.704418E-2,1.948042E-1,-5.957755E-1,5.854519E-1,-3.8287577E-1,-1.1453242E0,3.5352707E-1,-4.703279E-4,8.73627E-3,-6.9923988E-3,5.0124465E-3,-4.759437E-3,-1.3999428E-2,8.159587E-3,-3.5735257E-3],"categories":[],"categories_nodes":[],"categories_segments":[],"categories_sizes":[],"default_left":[0,0,0,0,0,0,0,0,0,0,0,0,0,0,0],"id":25,"left_children":[1,3,5,7,9,11,13,-1,-1,-1,-1,-1,-1,-1,-1],"loss_changes":[3.7387211E0,4.198108E0,5.1418552E0,2.0279481E0,2.5066628E0,3.5406637E-1,1.6371899E0,0E0,0E0,0E0,0E0,0E0,0E0,0E0,0E0],"parents":[2147483647,0,0,1,1,2,2,3,3,4,4,5,5,6,6],"right_children":[2,4,6,8,10,12,14,-1,-1,-1,-1,-1,-1,-1,-1],"split_conditions":[1.2294451E-2,3.9501307E-3,6.150592E-2,-1.4019696E-1,6.278581E-2,1E0,-1.9508109E0,-4.703279E-4,8.73627E-3,-6.9923988E-3,5.0124465E-3,-4.759437E-3,-1.3999428E-2,8.159587E-3,-3.5735257E-3],"split_indices":[43,30,13,26,30,17,8,0,0,0,0,0,0,0,0],"split_type":[0,0,0,0,0,0,0,0,0,0,0,0,0,0,0],"sum_hessian":[2.4689672E1,1.6609627E1,8.080047E0,9.90086E0,6.7087665E0,4.9867435E0,3.0933032E0,3.3609843E0,6.5398755E0,5.0948076E0,1.6139586E0,2.164807E0,2.8219366E0,1.7845966E0,1.3087066E0],"tree_param":{"num_deleted":"0","num_feature":"45","num_nodes":"15","size_leaf_vector":"1"}},{"base_weights":[-5.1458463E-2,-7.905701E-1,1.8510352E-1,-1.1723067E0,2.9662638E-3,-2.8360114E-1,4.772465E-1,-1.3272853E-2,-3.576259E-3,2.8550886E-3,-8.766827E-3,8.771092E-3,-3.298653E-4],"categories":[],"categories_nodes":[],"categories_segments":[],"categories_sizes":[],"default_left":[0,0,0,0,0,0,0,0,0,0,0,0,0],"id":26,"left_children":[1,3,5,7,-1,9,11,-1,-1,-1,-1,-1,-1],"loss_changes":[4.4129877E0,2.882E0,2.7775326E0,1.21441364E-1,0E0,2.9628062E0,2.5301926E0,0E0,0E0,0E0,0E0,0E0,0E0],"parents":[2147483647,0,0,1,1,2,2,3,3,5,5,6,6],"right_children":[2,4,6,8,-1,10,12,-1,-1,-1,-1,-1,-1],"split_conditions":[-7.809885E-1,8.1072015E2,8.281947E-2,5E-1,2.9662638E-3,6.666667E-2,1.0333333E-1,-1.3272853E-2,-3.576259E-3,2.8550886E-3,-8.766827E-3,8.771092E-3,-3.298653E-4],"split_indices":[28,40,7,20,0,2,3,0,0,0,0,0,0],"split_type":[0,0,0,0,0,0,0,0,0,0,0,0,0],"sum_hessian":[2.3402376E1,5.1063232E0,1.8296053E1,3.7213857E0,1.3849374E0,7.03637E0,1.1259684E1,2.59796E0,1.1234256E0,3.8554006E0,3.1809692E0,5.909473E0,5.3502107E0],"tree_param":{"num_deleted":"0","num_feature":"45","num_nodes":"13","size_leaf_vector":"1"}},{"base_weights":[-2.690176E-2,-6.874555E-1,2.4442242E-1,-1.0386883E0,6.6695493E-3,4.8346337E-2,9.9713765E-3,-1.3536174E-2,2.9132962E-3,2.7952231E-3,-8.2595935E-3],"categories":[],"categories_nodes":[],"categories_segments":[],"categories_sizes":[],"default_left":[0,0,0,0,0,0,0,0,0,0,0],"id":27,"left_children":[1,3,5,7,-1,9,-1,-1,-1,-1,-1],"loss_changes":[4.630828E0,4.266473E0,2.6657143E0,3.0567918E0,0E0,3.3918393E0,0E0,0E0,0E0,0E0,0E0],"parents":[2147483647,0,0,1,1,2,2,3,3,5,5],"right_children":[2,4,6,8,-1,10,-1,-1,-1,-1,-1],"split_conditions":[4.7842702E-1,1.9E-1,1.5483328E3,8.32534E-1,6.6695493E-3,1E-1,9.9713765E-3,-1.3536174E-2,2.9132962E-3,2.7952231E-3,-8.2595935E-3],"split_indices":[39,3,38,4,0,33,0,0,0,0,0],"split_type":[0,0,0,0,0,0,0,0,0,0,0],"sum_hessian":[2.3900646E1,6.5123253E0,1.738832E1,5.3563857E0,1.1559397E0,1.4639169E1,2.749153E0,4.3165464E0,1.0398394E0,1.2115888E1,2.5232813E0],"tree_param":{"num_deleted":"0","num_feature":"45","num_nodes":"11","size_leaf_vector":"1"}},{"base_weights":[-9.2929415E-2,-7.741623E-1,1.5517445E-1,-1.1773549E0,6.088025E-3,4.588968E-1,-3.477001E-1,-1.3973114E-2,-2.5426226E-3,-2.2596922E-3,7.169265E-3,9.731895E-3,-8.776427E-3],"categories":[],"categories_nodes":[],"categories_segments":[],"categories_sizes":[],"default_left":[0,0,0,0,0,0,0,0,0,0,0,0,0],"id":28,"left_children":[1,3,5,7,-1,9,11,-1,-1,-1,-1,-1,-1],"loss_changes":[4.268842E0,4.4638786E0,3.0349565E0,7.703624E-1,0E0,2.31233E0,6.2145953E0,0E0,0E0,0E0,0E0,0E0,0E0],"parents":[2147483647,0,0,1,1,2,2,3,3,5,5,6,6],"right_children":[2,4,6,8,-1,10,12,-1,-1,-1,-1,-1,-1],"split_conditions":[-7.809885E-1,1.5E-1,1.6453749E-2,5E-1,6.088025E-3,1.728691E-1,-8.694962E-1,-1.3973114E-2,-2.5426226E-3,-2.2596922E-3,7.169265E-3,9.731895E-3,-8.776427E-3],"split_indices":[28,3,1,20,0,28,10,0,0,0,0,0,0],"split_type":[0,0,0,0,0,0,0,0,0,0,0,0,0],"sum_hessian":[2.3546194E1,5.72004E0,1.7826153E1,4.5439577E0,1.1760824E0,1.1168276E1,6.657878E0,3.254694E0,1.2892635E0,3.0902755E0,8.078E0,1.6668427E0,4.991035E0],"tree_param":{"num_deleted":"0","num_feature":"45","num_nodes":"13","size_leaf_vector":"1"}},{"base_weights":[-3.1714763E-3,-3.7395865E-1,4.79699E-1,9.048235E-2,-9.6892357E-1,7.094593E-1,-6.7502204E-3,6.3965903E-3,-6.7473766E-3,-1.1831475E-2,-2.720303E-3,9.323109E-3,-3.0764334E-3],"categories":[],"categories_nodes":[],"categories_segments":[],"categories_sizes":[],"default_left":[0,0,0,0,0,0,0,0,0,0,0,0,0],"id":29,"left_children":[1,3,5,7,9,11,-1,-1,-1,-1,-1,-1,-1],"loss_changes":[4.4275074E0,3.9515493E0,3.3293505E0,4.1160655E0,6.0607433E-1,2.428434E0,0E0,0E0,0E0,0E0,0E0,0E0,0E0],"parents":[2147483647,0,0,1,1,2,2,3,3,4,4,5,5],"right_children":[2,4,6,8,10,12,-1,-1,-1,-1,-1,-1,-1],"split_conditions":[6.7569554E-2,1.2294451E-2,2.6797447E1,3.913657E-3,3.1293198E-1,1.4706783E2,-6.7502204E-3,6.3965903E-3,-6.7473766E-3,-1.1831475E-2,-2.720303E-3,9.323109E-3,-3.0764334E-3],"split_indices":[13,43,8,30,26,0,0,0,0,0,0,0,0],"split_type":[0,0,0,0,0,0,0,0,0,0,0,0,0],"sum_hessian":[2.2726923E1,1.2983041E1,9.743883E0,7.767501E0,5.21554E0,8.448455E0,1.2954283E0,4.617638E0,3.1498628E0,3.4555597E0,1.7599801E0,6.9984336E0,1.4500211E0],"tree_param":{"num_deleted":"0","num_feature":"45","num_nodes":"13","size_leaf_vector":"1"}},{"base_weights":[6.995034E-2,-6.3773483E-1,2.8220353E-1,-1.0253149E0,5.97054E-3,-3.695267E-1,5.749299E-1,-1.3446193E-2,1.1426939E-3,1.2537017E-3,-1.0834949E-2,-7.1077584E-3,7.339895E-3],"categories":[],"categories_nodes":[],"categories_segments":[],"categories_sizes":[],"default_left":[0,0,0,0,0,0,0,0,0,0,0,0,0],"id":30,"left_children":[1,3,5,7,-1,9,11,-1,-1,-1,-1,-1,-1],"loss_changes":[3.8806674E0,3.4794166E0,3.9604726E0,1.9467869E0,0E0,2.5024524E0,3.3741384E0,0E0,0E0,0E0,0E0,0E0,0E0],"parents":[2147483647,0,0,1,1,2,2,3,3,5,5,6,6],"right_children":[2,4,6,8,-1,10,12,-1,-1,-1,-1,-1,-1],"split_conditions":[4.4342017E-1,1.5E-1,-2.547237E-1,7.965814E-2,5.97054E-3,6E-2,1.4615579E3,-1.3446193E-2,1.1426939E-3,1.2537017E-3,-1.0834949E-2,-7.1077584E-3,7.339895E-3],"split_indices":[39,3,26,4,0,33,37,0,0,0,0,0,0],"split_type":[0,0,0,0,0,0,0,0,0,0,0,0,0],"sum_hessian":[2.3637075E1,4.9911633E0,1.8645912E1,3.9279025E0,1.0632609E0,5.6978264E0,1.2948085E1,2.9276674E0,1.0002351E0,3.8520966E0,1.8457301E0,1.04363E0,1.1904455E1],"tree_param":{"num_deleted":"0","num_feature":"45","num_nodes":"13","size_leaf_vector":"1"}},{"base_weights":[-7.386564E-2,-9.3654174E-1,1.2800168E-1,-1.1572005E-2,-9.808745E-4,-5.927086E-1,3.7377307E-1,1.8331329E-3,-1.0251835E-2,5.2298377E-3,-8.769842E-3],"categories":[],"categories_nodes":[],"categories_segments":[],"categories_sizes":[],"default_left":[0,0,0,0,0,0,0,0,0,0,0],"id":31,"left_children":[1,3,5,-1,-1,7,9,-1,-1,-1,-1],"loss_changes":[4.462908E0,7.836876E-1,3.9571428E0,0E0,0E0,2.1175935E0,3.5081046E0,0E0,0E0,0E0,0E0],"parents":[2147483647,0,0,1,1,2,2,5,5,6,6],"right_children":[2,4,6,-1,-1,8,10,-1,-1,-1,-1],"split_conditions":[-4.539008E1,7.6210693E2,-3.0584354E0,-1.1572005E-2,-9.808745E-4,7.0627118E-3,1.6283215E3,1.8331329E-3,-1.0251835E-2,5.2298377E-3,-8.769842E-3],"split_indices":[0,40,6,0,0,43,37,0,0,0,0],"split_type":[0,0,0,0,0,0,0,0,0,0,0],"sum_hessian":[2.3939E1,3.849375E0,2.0089622E1,2.7464287E0,1.1029462E0,4.7497206E0,1.5339903E1,1.905919E0,2.8438017E0,1.4224803E1,1.1150999E0],"tree_param":{"num_deleted":"0","num_feature":"45","num_nodes":"11","size_leaf_vector":"1"}},{"base_weights":[-4.9961552E-2,-6.758365E-1,2.0623755E-1,-1.0629361E0,6.7767734E-3,3.330028E-1,-9.28062E-3,-1.35391755E-2,-1.8831849E-4,-3.8085994E-3,5.475257E-3],"categories":[],"categories_nodes":[],"categories_segments":[],"categories_sizes":[],"default_left":[0,0,0,0,0,0,0,0,0,0,0],"id":32,"left_children":[1,3,5,7,-1,9,-1,-1,-1,-1,-1],"loss_changes":[4.3090677E0,4.800103E0,3.0722864E0,1.9323759E0,0E0,2.9683251E0,0E0,0E0,0E0,0E0,0E0],"parents":[2147483647,0,0,1,1,2,2,3,3,5,5],"right_children":[2,4,6,8,-1,10,-1,-1,-1,-1,-1],"split_conditions":[4.7842702E-1,1.5333334E-1,1.6283215E3,1.13730684E-1,6.7767734E-3,-3.0584354E0,-9.28062E-3,-1.35391755E-2,-1.8831849E-4,-3.8085994E-3,5.475257E-3],"split_indices":[39,3,37,27,0,6,0,0,0,0,0],"split_type":[0,0,0,0,0,0,0,0,0,0,0],"sum_hessian":[2.5003876E1,6.786656E0,1.8217218E1,5.444294E0,1.3423619E0,1.7021393E1,1.1958255E0,4.0256567E0,1.4186373E0,3.7539806E0,1.3267413E1],"tree_param":{"num_deleted":"0","num_feature":"45","num_nodes":"11","size_leaf_vector":"1"}},{"base_weights":[4.981343E-3,-7.423495E-1,1.9817716E-1,-1.0617548E0,2.6685833E-3,-7.523407E-3,3.3981082E-1,-1.237609E-2,-3.6958451E-3,-1.6152404E-3,6.2270495E-3],"categories":[],"categories_nodes":[],"categories_segments":[],"categories_sizes":[],"default_left":[0,0,0,0,0,0,0,0,0,0,0],"id":33,"left_children":[1,3,5,7,-1,-1,9,-1,-1,-1,-1],"loss_changes":[3.7702973E0,2.0128677E0,3.0463161E0,6.312895E-2,0E0,0E0,2.7569234E0,0E0,0E0,0E0,0E0],"parents":[2147483647,0,0,1,1,2,2,3,3,6,6],"right_children":[2,4,6,8,-1,-1,10,-1,-1,-1,-1],"split_conditions":[-3.4333333E-1,1.9709243E0,1.4671594E3,5E-1,2.6685833E-3,-7.523407E-3,7.7097644E2,-1.237609E-2,-3.6958451E-3,-1.6152404E-3,6.2270495E-3],"split_indices":[2,6,25,19,0,0,40,0,0,0,0],"split_type":[0,0,0,0,0,0,0,0,0,0,0],"sum_hessian":[2.4094545E1,4.3654385E0,1.9729107E1,3.276415E0,1.0890237E0,1.9993547E0,1.7729752E1,1.984274E0,1.292141E0,6.5504003E0,1.1179352E1],"tree_param":{"num_deleted":"0","num_feature":"45","num_nodes":"11","size_leaf_vector":"1"}},{"base_weights":[5.1547077E-2,-5.7990813E-1,3.1606427E-1,-1.0428836E0,5.1806546E-3,-5.826192E-1,4.7801226E-1,-5.685954E-4,-1.2556899E-2,5.295051E-4,-9.656929E-3,-4.3668295E-4,7.534469E-3],"categories":[],"categories_nodes":[],"categories_segments":[],"categories_sizes":[],"default_left":[0,0,0,0,0,0,0,0,0,0,0,0,0],"id":34,"left_children":[1,3,5,7,-1,9,11,-1,-1,-1,-1,-1,-1],"loss_changes":[4.4275017E0,4.5329814E0,2.979039E0,1.1575332E0,0E0,8.506652E-1,2.3709228E0,0E0,0E0,0E0,0E0,0E0,0E0],"parents":[2147483647,0,0,1,1,2,2,3,3,5,5,6,6],"right_children":[2,4,6,8,-1,10,12,-1,-1,-1,-1,-1,-1],"split_conditions":[-3.0584354E0,1.6E-1,4.2579544E-1,-2.8739452E-2,5.1806546E-3,1.5279248E3,-9E-2,-5.685954E-4,-1.2556899E-2,5.295051E-4,-9.656929E-3,-4.3668295E-4,7.534469E-3],"split_indices":[6,3,39,43,0,25,2,0,0,0,0,0,0],"split_type":[0,0,0,0,0,0,0,0,0,0,0,0,0],"sum_hessian":[2.4409775E1,6.8544674E0,1.7555307E1,4.856734E0,1.9977335E0,2.2838998E0,1.5271407E1,1.0870676E0,3.7696664E0,1.1829706E0,1.100929E0,5.5676284E0,9.703779E0],"tree_param":{"num_deleted":"0","num_feature":"45","num_nodes":"13","size_leaf_vector":"1"}},{"base_weights":[-5.7745084E-2,-8.700061E-1,1.2525962E-1,-1.0891853E-2,-9.4927695E-5,-3.7611005E-1,4.4212854E-1,7.5870794E-3,-6.7024264E-3,8.823172E-3,-1.7196323E-3],"categories":[],"categories_nodes":[],"categories_segments":[],"categories_sizes":[],"default_left":[0,0,0,0,0,0,0,0,0,0,0],"id":35,"left_children":[1,3,5,-1,-1,7,9,-1,-1,-1,-1],"loss_changes":[3.9725056E0,9.147754E-1,3.675091E0,0E0,0E0,3.5437732E0,3.9342127E0,0E0,0E0,0E0,0E0],"parents":[2147483647,0,0,1,1,2,2,5,5,6,6],"right_children":[2,4,6,-1,-1,8,10,-1,-1,-1,-1],"split_conditions":[-4.539008E1,7.664704E2,-9.092851E-2,-1.0891853E-2,-9.4927695E-5,1.4939385E3,1.28412135E-2,7.5870794E-3,-6.7024264E-3,8.823172E-3,-1.7196323E-3],"split_indices":[0,40,26,0,0,37,1,0,0,0,0],"split_type":[0,0,0,0,0,0,0,0,0,0,0],"sum_hessian":[2.4991201E1,3.9049935E0,2.1086206E1,2.9004803E0,1.0045134E0,8.093388E0,1.2992819E1,1.3408121E0,6.752576E0,7.313574E0,5.6792455E0],"tree_param":{"num_deleted":"0","num_feature":"45","num_nodes":"11","size_leaf_vector":"1"}},{"base_weights":[-5.9337314E-2,-9.0507406E-1,1.3093108E-1,-1.1520421E-2,6.576136E-5,2.925039E-1,-7.115936E-1,1.1336535E-3,1.0049714E-2,-1.1108534E-2,1.6555176E-3],"categories":[],"categories_nodes":[],"categories_segments":[],"categories_sizes":[],"default_left":[0,0,0,0,0,0,0,0,0,0,0],"id":36,"left_children":[1,3,5,-1,-1,7,9,-1,-1,-1,-1],"loss_changes":[4.2320213E0,1.0930557E0,3.167838E0,0E0,0E0,2.3049169E0,1.511147E0,0E0,0E0,0E0,0E0],"parents":[2147483647,0,0,1,1,2,2,5,5,6,6],"right_children":[2,4,6,-1,-1,8,10,-1,-1,-1,-1],"split_conditions":[-4.539008E1,7.664704E2,1.6079076E3,-1.1520421E-2,6.576136E-5,1.5832359E0,9.1177795E2,1.1336535E-3,1.0049714E-2,-1.1108534E-2,1.6555176E-3],"split_indices":[0,40,37,0,0,5,40,0,0,0,0],"split_type":[0,0,0,0,0,0,0,0,0,0,0],"sum_hessian":[2.456299E1,3.821173E0,2.0741817E1,2.7991803E0,1.0219928E0,1.7951956E1,2.7898617E0,1.5271338E1,2.6806173E0,1.7340939E0,1.0557678E0],"tree_param":{"num_deleted":"0","num_feature":"45","num_nodes":"11","size_leaf_vector":"1"}},{"base_weights":[-7.6760976E-3,-8.8391656E-1,2.0815998E-1,-1.1345604E-2,-9.3003255E-5,3.913111E-1,-6.6503125E-1,2.1293918E-3,1.102197E-2,-1.1539696E-2,3.5190906E-3],"categories":[],"categories_nodes":[],"categories_segments":[],"categories_sizes":[],"default_left":[0,0,0,0,0,0,0,0,0,0,0],"id":37,"left_children":[1,3,5,-1,-1,7,9,-1,-1,-1,-1],"loss_changes":[4.9383707E0,1.1203928E0,3.6154604E0,0E0,0E0,2.044173E0,2.3989444E0,0E0,0E0,0E0,0E0],"parents":[2147483647,0,0,1,1,2,2,5,5,6,6],"right_children":[2,4,6,-1,-1,8,10,-1,-1,-1,-1],"split_conditions":[-4.1242863E1,7.694552E2,1.6079076E3,-1.1345604E-2,-9.3003255E-5,1.5832359E0,9.1932764E2,2.1293918E-3,1.102197E-2,-1.1539696E-2,3.5190906E-3],"split_indices":[0,40,37,0,0,5,40,0,0,0,0],"split_type":[0,0,0,0,0,0,0,0,0,0,0],"sum_hessian":[2.4138887E1,4.159015E0,1.9979872E1,3.001615E0,1.1573999E0,1.6971893E1,3.0079792E0,1.4606456E1,2.3654377E0,1.940333E0,1.0676461E0],"tree_param":{"num_deleted":"0","num_feature":"45","num_nodes":"11","size_leaf_vector":"1"}},{"base_weights":[8.895752E-2,4.293839E-1,-4.430145E-1,-4.5507777E-1,7.558595E-1,-6.891979E-1,2.3923722E-1,6.5439683E-3,-1.1216071E-2,-9.489779E-4,9.44188E-3,-1.0433754E-2,4.6256646E-6,5.251166E-3,-1.5794813E-3],"categories":[],"categories_nodes":[],"categories_segments":[],"categories_sizes":[],"default_left":[0,0,0,0,0,0,0,0,0,0,0,0,0,0,0],"id":38,"left_children":[1,3,5,7,9,11,13,-1,-1,-1,-1,-1,-1,-1,-1],"loss_changes":[4.7395945E0,4.9138737E0,1.8940091E0,4.3508806E0,2.0018787E0,1.9113E0,4.7719055E-1,0E0,0E0,0E0,0E0,0E0,0E0,0E0,0E0],"parents":[2147483647,0,0,1,1,2,2,3,3,4,4,5,5,6,6],"right_children":[2,4,6,8,10,12,14,-1,-1,-1,-1,-1,-1,-1,-1],"split_conditions":[3.9501307E-3,-3.7912102E0,2.4333334E-1,3.2199256E-4,-2.2802177E1,1.503263E3,4.5E-1,6.5439683E-3,-1.1216071E-2,-9.489779E-4,9.44188E-3,-1.0433754E-2,4.6256646E-6,5.251166E-3,-1.5794813E-3],"split_indices":[30,6,2,43,0,24,2,0,0,0,0,0,0,0,0],"split_type":[0,0,0,0,0,0,0,0,0,0,0,0,0,0,0],"sum_hessian":[2.4121141E1,1.4826208E1,9.294933E0,3.8910296E0,1.0935179E1,6.8228116E0,2.472122E0,1.4671241E0,2.4239056E0,2.071856E0,8.863322E0,4.1689506E0,2.653861E0,1.2501881E0,1.2219338E0],"tree_param":{"num_deleted":"0","num_feature":"45","num_nodes":"15","size_leaf_vector":"1"}},{"base_weights":[-3.2842193E-2,-8.1382793E-1,1.3302274E-1,-1.746641E-3,-1.1670859E-2,7.9688245E-1,-7.855037E-2,-2.091177E-3,1.1575112E-2,9.340982E-3,-3.084812E-3],"categories":[],"categories_nodes":[],"categories_segments":[],"categories_sizes":[],"default_left":[0,0,0,0,0,0,0,0,0,0,0],"id":39,"left_children":[1,3,5,-1,-1,7,9,-1,-1,-1,-1],"loss_changes":[3.3882682E0,8.2938194E-1,3.1167493E0,0E0,0E0,2.1811676E0,4.3395014E0,0E0,0E0,0E0,0E0],"parents":[2147483647,0,0,1,1,2,2,5,5,6,6],"right_children":[2,4,6,-1,-1,8,10,-1,-1,-1,-1],"split_conditions":[-4.539008E1,9.2050135E-1,0E0,-1.746641E-3,-1.1670859E-2,1.49301E3,0E0,-2.091177E-3,1.1575112E-2,9.340982E-3,-3.084812E-3],"split_indices":[0,42,34,0,0,25,33,0,0,0,0],"split_type":[0,0,0,0,0,0,0,0,0,0,0],"sum_hessian":[2.4320808E1,3.5760717E0,2.0744736E1,1.8048756E0,1.7711961E0,4.344958E0,1.6399778E1,1.2574209E0,3.087537E0,2.467969E0,1.3931809E1],"tree_param":{"num_deleted":"0","num_feature":"45","num_nodes":"11","size_leaf_vector":"1"}},{"base_weights":[-4.2197146E-2,-8.475363E-1,1.4532901E-1,-1.0712078E-2,1.030609E-4,-4.0677896E-1,3.8232893E-1,-7.947053E-3,4.8168353E-3,8.088804E-3,-2.1511996E-3],"categories":[],"categories_nodes":[],"categories_segments":[],"categories_sizes":[],"default_left":[0,0,0,0,0,0,0,0,0,0,0],"id":40,"left_children":[1,3,5,-1,-1,7,9,-1,-1,-1,-1],"loss_changes":[3.9815943E0,9.6501446E-1,2.978846E0,0E0,0E0,2.783299E0,4.1526055E0,0E0,0E0,0E0,0E0],"parents":[2147483647,0,0,1,1,2,2,5,5,6,6],"right_children":[2,4,6,-1,-1,8,10,-1,-1,-1,-1],"split_conditions":[-4.539008E1,7.664704E2,-4.1196415E-1,-1.0712078E-2,1.030609E-4,1.2739341E1,1.28412135E-2,-7.947053E-3,4.8168353E-3,8.088804E-3,-2.1511996E-3],"split_indices":[0,40,26,0,0,8,1,0,0,0,0],"split_type":[0,0,0,0,0,0,0,0,0,0,0],"sum_hessian":[2.454872E1,3.9718547E0,2.0576864E1,2.953138E0,1.0187165E0,5.9648824E0,1.4611981E1,4.2254615E0,1.739421E0,8.318826E0,6.2931557E0],"tree_param":{"num_deleted":"0","num_feature":"45","num_nodes":"11","size_leaf_vector":"1"}},{"base_weights":[5.185504E-2,-7.198418E-1,2.6340917E-1,-1.085989E0,3.0965372E-3,-2.6236886E-1,5.0100803E-1,-1.2432564E-2,-3.4545788E-3,-8.905217E-3,3.9796745E-3,7.930189E-3,-3.9189984E-3],"categories":[],"categories_nodes":[],"categories_segments":[],"categories_sizes":[],"default_left":[0,0,0,0,0,0,0,0,0,0,0,0,0],"id":41,"left_children":[1,3,5,7,-1,9,11,-1,-1,-1,-1,-1,-1],"loss_changes":[4.171156E0,2.4152365E0,2.614087E0,7.014942E-2,0E0,3.1923087E0,3.969311E0,0E0,0E0,0E0,0E0,0E0,0E0],"parents":[2147483647,0,0,1,1,2,2,3,3,5,5,6,6],"right_children":[2,4,6,8,-1,10,12,-1,-1,-1,-1,-1,-1],"split_conditions":[-3.4333333E-1,1.4654236E0,7.678036E2,5E-1,3.0965372E-3,1.2263779E-2,1.6045762E3,-1.2432564E-2,-3.4545788E-3,-8.905217E-3,3.9796745E-3,7.930189E-3,-3.9189984E-3],"split_indices":[2,6,40,19,0,27,37,0,0,0,0,0,0],"split_type":[0,0,0,0,0,0,0,0,0,0,0,0,0],"sum_hessian":[2.3388395E1,4.5152497E0,1.8873146E1,3.2901945E0,1.2250553E0,5.841765E0,1.3031381E1,2.1538975E0,1.136297E0,2.8151917E0,3.0265732E0,9.904232E0,3.1271482E0],"tree_param":{"num_deleted":"0","num_feature":"45","num_nodes":"13","size_leaf_vector":"1"}},{"base_weights":[-4.426045E-2,7.2116834E-1,-2.2929065E-1,1.2688984E-2,-4.8779696E-3,-8.9278674E-1,2.562464E-2,-1.3031852E-3,-1.0860359E-2,3.410914E-3,-4.55962E-3],"categories":[],"categories_nodes":[],"categories_segments":[],"categories_sizes":[],"default_left":[0,0,0,0,0,0,0,0,0,0,0],"id":42,"left_children":[1,3,5,-1,-1,7,9,-1,-1,-1,-1],"loss_changes":[3.634398E0,3.9362724E0,3.4875298E0,0E0,0E0,7.003479E-1,2.5515118E0,0E0,0E0,0E0,0E0],"parents":[2147483647,0,0,1,1,2,2,5,5,6,6],"right_children":[2,4,6,-1,-1,8,10,-1,-1,-1,-1],"split_conditions":[0E0,1.2294451E-2,-3.7912102E0,1.2688984E-2,-4.8779696E-3,-3.958093E-3,3.913657E-3,-1.3031852E-3,-1.0860359E-2,3.410914E-3,-4.55962E-3],"split_indices":[34,43,6,0,0,43,30,0,0,0,0],"split_type":[0,0,0,0,0,0,0,0,0,0,0],"sum_hessian":[2.3494125E1,4.0096254E0,1.9484499E1,2.7253246E0,1.284301E0,4.7136016E0,1.4770898E1,1.291666E0,3.4219358E0,9.100974E0,5.669924E0],"tree_param":{"num_deleted":"0","num_feature":"45","num_nodes":"11","size_leaf_vector":"1"}},{"base_weights":[1.0540627E-2,-8.162906E-1,1.9476461E-1,-1.1119883E-2,5.341186E-6,7.823306E-1,-2.6588503E-3,-2.069709E-3,1.1387658E-2,9.250971E-3,-2.2577855E-3],"categories":[],"categories_nodes":[],"categories_segments":[],"categories_sizes":[],"default_left":[0,0,0,0,0,0,0,0,0,0,0],"id":43,"left_children":[1,3,5,-1,-1,7,9,-1,-1,-1,-1],"loss_changes":[3.9529102E0,1.1432807E0,2.458513E0,0E0,0E0,2.1148777E0,3.6962256E0,0E0,0E0,0E0,0E0],"parents":[2147483647,0,0,1,1,2,2,5,5,6,6],"right_children":[2,4,6,-1,-1,8,10,-1,-1,-1,-1],"split_conditions":[-4.539008E1,7.416755E2,0E0,-1.1119883E-2,5.341186E-6,1.49301E3,0E0,-2.069709E-3,1.1387658E-2,9.250971E-3,-2.2577855E-3],"split_indices":[0,40,34,0,0,25,33,0,0,0,0],"split_type":[0,0,0,0,0,0,0,0,0,0,0],"sum_hessian":[2.3907248E1,3.730975E0,2.0176273E1,2.4740078E0,1.2569671E0,4.3291826E0,1.5847091E1,1.2577035E0,3.071479E0,2.4623172E0,1.3384773E1],"tree_param":{"num_deleted":"0","num_feature":"45","num_nodes":"11","size_leaf_vector":"1"}},{"base_weights":[-1.55960955E-2,3.0953184E-1,-4.8557281E-1,-1.3040823E-1,8.0067146E-1,-6.4855015E-1,5.345421E-3,-8.345151E-3,6.556041E-3,-1.5197872E-3,1.0471508E-2,-8.994803E-3,-1.109057E-3],"categories":[],"categories_nodes":[],"categories_segments":[],"categories_sizes":[],"default_left":[0,0,0,0,0,0,0,0,0,0,0,0,0],"id":44,"left_children":[1,3,5,7,9,11,-1,-1,-1,-1,-1,-1,-1],"loss_changes":[4.023447E0,3.473676E0,2.1346154E0,5.5752454E0,1.9220757E0,1.2121902E0,0E0,0E0,0E0,0E0,0E0,0E0,0E0],"parents":[2147483647,0,0,1,1,2,2,3,3,4,4,5,5],"right_children":[2,4,6,8,10,12,-1,-1,-1,-1,-1,-1,-1],"split_conditions":[3.913657E-3,8.026734E2,1.0053858E0,7.965814E-2,1E0,3.307816E-3,5.345421E-3,-8.345151E-3,6.556041E-3,-1.5197872E-3,1.0471508E-2,-8.994803E-3,-1.109057E-3],"split_indices":[30,40,16,4,18,43,0,0,0,0,0,0,0],"split_type":[0,0,0,0,0,0,0,0,0,0,0,0,0],"sum_hessian":[2.4347393E1,1.4593239E1,9.754153E0,8.08529E0,6.5079494E0,8.724528E0,1.0296247E0,4.2323017E0,3.8529878E0,1.4165072E0,5.091442E0,5.489472E0,3.2350566E0],"tree_param":{"num_deleted":"0","num_feature":"45","num_nodes":"13","size_leaf_vector":"1"}},{"base_weights":[-7.5742126E-2,-9.046611E-1,1.02172546E-1,-2.4191462E-3,-1.0953605E-2,-5.192541E-1,3.1051117E-1,3.438198E-3,-1.0519972E-2,6.343357E-3,-2.5687134E-3],"categories":[],"categories_nodes":[],"categories_segments":[],"categories_sizes":[],"default_left":[0,0,0,0,0,0,0,0,0,0,0],"id":45,"left_children":[1,3,5,-1,-1,7,9,-1,-1,-1,-1],"loss_changes":[3.824028E0,3.1293678E-1,2.9745872E0,0E0,0E0,3.042439E0,3.2680137E0,0E0,0E0,0E0,0E0],"parents":[2147483647,0,0,1,1,2,2,5,5,6,6],"right_children":[2,4,6,-1,-1,8,10,-1,-1,-1,-1],"split_conditions":[-4.539008E1,-1.3601312E-3,-3.0584354E0,-2.4191462E-3,-1.0953605E-2,7.0627118E-3,1.3605437E-2,3.438198E-3,-1.0519972E-2,6.343357E-3,-2.5687134E-3],"split_indices":[0,30,6,0,0,43,1,0,0,0,0],"split_type":[0,0,0,0,0,0,0,0,0,0,0],"sum_hessian":[2.4302929E1,3.5726867E0,2.0730242E1,1.3052067E0,2.2674801E0,4.8302755E0,1.5899966E1,1.9789265E0,2.8513489E0,1.0047508E1,5.852459E0],"tree_param":{"num_deleted":"0","num_feature":"45","num_nodes":"11","size_leaf_vector":"1"}},{"base_weights":[-3.3723403E-2,-5.94924E-1,2.009339E-1,-8.950307E-1,6.138645E-3,3.2732925E-1,-8.719468E-3,-1.2665945E-2,4.269474E-3,5.756854E-3,-1.8502346E-3],"categories":[],"categories_nodes":[],"categories_segments":[],"categories_sizes":[],"default_left":[0,0,0,0,0,0,0,0,0,0,0],"id":46,"left_children":[1,3,5,7,-1,9,-1,-1,-1,-1,-1],"loss_changes":[3.446107E0,3.3429127E0,2.802295E0,3.7707906E0,0E0,2.311822E0,0E0,0E0,0E0,0E0,0E0],"parents":[2147483647,0,0,1,1,2,2,3,3,5,5],"right_children":[2,4,6,8,-1,10,-1,-1,-1,-1,-1],"split_conditions":[4.7842702E-1,1.5333334E-1,1.6283215E3,6.681419E-1,6.138645E-3,1.03701515E1,-8.719468E-3,-1.2665945E-2,4.269474E-3,5.756854E-3,-1.8502346E-3],"split_indices":[39,3,37,27,0,8,0,0,0,0,0],"split_type":[0,0,0,0,0,0,0,0,0,0,0],"sum_hessian":[2.4260622E1,6.700525E0,1.7560097E1,5.5757847E0,1.12474E0,1.6331053E1,1.2290442E0,4.385158E0,1.1906269E0,1.0916037E1,5.415016E0],"tree_param":{"num_deleted":"0","num_feature":"45","num_nodes":"11","size_leaf_vector":"1"}},{"base_weights":[-2.8589603E-2,-5.9181434E-1,2.2453222E-1,-9.8895043E-1,5.101649E-3,-1.6714913E-1,6.1977667E-1,1.8994889E-3,-1.2916848E-2,2.4523102E-3,-7.381231E-3,1.0234222E-2,-1.3207928E-3],"categories":[],"categories_nodes":[],"categories_segments":[],"categories_sizes":[],"default_left":[0,0,0,0,0,0,0,0,0,0,0,0,0],"id":47,"left_children":[1,3,5,7,-1,9,11,-1,-1,-1,-1,-1,-1],"loss_changes":[3.6559682E0,3.978254E0,2.8553023E0,2.4491878E0,0E0,2.4685376E0,2.884593E0,0E0,0E0,0E0,0E0,0E0,0E0],"parents":[2147483647,0,0,1,1,2,2,3,3,5,5,6,6],"right_children":[2,4,6,8,-1,10,12,-1,-1,-1,-1,-1,-1],"split_conditions":[-4.1780078E-1,1.434187E1,5.0960403E-2,1E0,5.101649E-3,1.2294451E-2,2.579892E-4,1.8994889E-3,-1.2916848E-2,2.4523102E-3,-7.381231E-3,1.0234222E-2,-1.3207928E-3],"split_indices":[26,8,16,17,0,43,30,0,0,0,0,0,0],"split_type":[0,0,0,0,0,0,0,0,0,0,0,0,0],"sum_hessian":[2.3712234E1,6.937484E0,1.677475E1,5.175047E0,1.7624369E0,8.715208E0,8.059542E0,1.1335125E0,4.0415344E0,5.3916492E0,3.3235595E0,5.009122E0,3.0504196E0],"tree_param":{"num_deleted":"0","num_feature":"45","num_nodes":"13","size_leaf_vector":"1"}},{"base_weights":[2.9437885E-2,-6.9236267E-1,2.5811735E-1,-1.1157825E0,3.6325627E-3,-6.898247E-1,4.067972E-1,-1.2724967E-2,-2.8584963E-3,-8.75436E-3,-1.6430321E-3,5.227564E-3,-5.331385E-3],"categories":[],"categories_nodes":[],"categories_segments":[],"categories_sizes":[],"default_left":[0,0,0,0,0,0,0,0,0,0,0,0,0],"id":48,"left_children":[1,3,5,7,-1,9,11,-1,-1,-1,-1,-1,-1],"loss_changes":[4.4380198E0,3.3016593E0,3.145152E0,2.6972246E-1,0E0,1.611352E-1,2.2621727E0,0E0,0E0,0E0,0E0,0E0,0E0],"parents":[2147483647,0,0,1,1,2,2,3,3,5,5,6,6],"right_children":[2,4,6,8,-1,10,12,-1,-1,-1,-1,-1,-1],"split_conditions":[-7.809885E-1,8.1072015E2,4.1902992E-1,5E-1,3.6325627E-3,-1.7160675E1,1.6283215E3,-1.2724967E-2,-2.8584963E-3,-8.75436E-3,-1.6430321E-3,5.227564E-3,-5.331385E-3],"split_indices":[28,40,39,20,0,0,37,0,0,0,0,0,0],"split_type":[0,0,0,0,0,0,0,0,0,0,0,0,0],"sum_hessian":[2.4804457E1,5.479954E0,1.9324503E1,3.870473E0,1.6094807E0,2.1265485E0,1.7197954E1,2.8071523E0,1.0633206E0,1.0794501E0,1.0470983E0,1.5704357E1,1.4935969E0],"tree_param":{"num_deleted":"0","num_feature":"45","num_nodes":"13","size_leaf_vector":"1"}},{"base_weights":[1.075371E-2,-8.1794506E-1,1.8806477E-1,-1.0589175E-2,9.3585586E-5,-3.1289783E-1,4.153566E-1,7.0346347E-3,-6.4423466E-3,8.0256285E-3,-1.3002664E-3],"categories":[],"categories_nodes":[],"categories_segments":[],"categories_sizes":[],"default_left":[0,0,0,0,0,0,0,0,0,0,0],"id":49,"left_children":[1,3,5,-1,-1,7,9,-1,-1,-1,-1],"loss_changes":[3.798255E0,9.1866875E-1,2.5489216E0,0E0,0E0,2.8781042E0,3.281155E0,0E0,0E0,0E0,0E0],"parents":[2147483647,0,0,1,1,2,2,5,5,6,6],"right_children":[2,4,6,-1,-1,8,10,-1,-1,-1,-1],"split_conditions":[-4.539008E1,7.664704E2,-4.1780078E-1,-1.0589175E-2,9.3585586E-5,1.4939385E3,1.28412135E-2,7.0346347E-3,-6.4423466E-3,8.0256285E-3,-1.3002664E-3],"split_indices":[0,40,26,0,0,37,1,0,0,0,0],"split_type":[0,0,0,0,0,0,0,0,0,0,0],"sum_hessian":[2.3802582E1,3.5584412E0,2.024414E1,2.538948E0,1.0194931E0,6.200747E0,1.4043392E1,1.2483575E0,4.9523897E0,7.93688E0,6.1065125E0],"tree_param":{"num_deleted":"0","num_feature":"45","num_nodes":"11","size_leaf_vector":"1"}},{"base_weights":[-2.445049E-2,-8.5450953E-1,1.6007984E-1,-1.0523498E-2,-1.100831E-3,-4.0224698E-1,4.031303E-1,7.075065E-3,-7.7041606E-3,7.8081433E-3,-1.4091146E-3],"categories":[],"categories_nodes":[],"categories_segments":[],"categories_sizes":[],"default_left":[0,0,0,0,0,0,0,0,0,0,0],"id":50,"left_children":[1,3,5,-1,-1,7,9,-1,-1,-1,-1],"loss_changes":[4.0091734E0,5.8458924E-1,3.1041353E0,0E0,0E0,3.4037337E0,3.3008437E0,0E0,0E0,0E0,0E0],"parents":[2147483647,0,0,1,1,2,2,5,5,6,6],"right_children":[2,4,6,-1,-1,8,10,-1,-1,-1,-1],"split_conditions":[-4.539008E1,7.6210693E2,-4.1780078E-1,-1.0523498E-2,-1.100831E-3,1.4939385E3,1.28412135E-2,7.075065E-3,-7.7041606E-3,7.8081433E-3,-1.4091146E-3],"split_indices":[0,40,26,0,0,37,1,0,0,0,0],"split_type":[0,0,0,0,0,0,0,0,0,0,0],"sum_hessian":[2.4281427E1,3.7558846E0,2.0525543E1,2.640501E0,1.1153835E0,5.9966254E0,1.4528917E1,1.2642305E0,4.732395E0,8.318706E0,6.2102127E0],"tree_param":{"num_deleted":"0","num_feature":"45","num_nodes":"11","size_leaf_vector":"1"}},{"base_weights":[-2.2150112E-2,-8.1584656E-1,1.8473315E-1,-4.265193E-4,-1.04132565E-2,-7.5604594E-3,3.196094E-1,-4.571147E-3,5.120365E-3],"categories":[],"categories_nodes":[],"categories_segments":[],"categories_sizes":[],"default_left":[0,0,0,0,0,0,0,0,0],"id":51,"left_children":[1,3,5,-1,-1,-1,7,-1,-1],"loss_changes":[4.133985E0,8.622105E-1,2.7867658E0,0E0,0E0,0E0,2.9611187E0,0E0,0E0],"parents":[2147483647,0,0,1,1,2,2,6,6],"right_children":[2,4,6,-1,-1,-1,8,-1,-1],"split_conditions":[-3.4333333E-1,1.4932051E3,-4.3459618E1,-4.265193E-4,-1.04132565E-2,-7.5604594E-3,-2.0913417E0,-4.571147E-3,5.120365E-3],"split_indices":[2,24,44,0,0,0,11,0,0],"split_type":[0,0,0,0,0,0,0,0,0],"sum_hessian":[2.3258286E1,4.2003517E0,1.9057934E1,1.2168365E0,2.983515E0,1.8121912E0,1.7245743E1,3.1510673E0,1.4094675E1],"tree_param":{"num_deleted":"0","num_feature":"45","num_nodes":"9","size_leaf_vector":"1"}},{"base_weights":[2.509467E-2,-7.4207354E-1,1.6521217E-1,9.583771E-5,-1.0166071E-2,-2.737512E-1,4.5202368E-1,1.5863176E-3,-1.1624413E-2,7.7982834E-3,-2.294925E-3],"categories":[],"categories_nodes":[],"categories_segments":[],"categories_sizes":[],"default_left":[0,0,0,0,0,0,0,0,0,0,0],"id":52,"left_children":[1,3,5,-1,-1,7,9,-1,-1,-1,-1],"loss_changes":[2.8575575E0,8.581519E-1,2.9352798E0,0E0,0E0,3.8147573E0,3.2806556E0,0E0,0E0,0E0,0E0],"parents":[2147483647,0,0,1,1,2,2,5,5,6,6],"right_children":[2,4,6,-1,-1,8,10,-1,-1,-1,-1],"split_conditions":[-4.539008E1,1.2224136E-4,-9.092851E-2,9.583771E-5,-1.0166071E-2,1E-1,5.7217408E-2,1.5863176E-3,-1.1624413E-2,7.7982834E-3,-2.294925E-3],"split_indices":[0,30,26,0,0,33,1,0,0,0,0],"split_type":[0,0,0,0,0,0,0,0,0,0,0],"sum_hessian":[2.444296E1,3.1114018E0,2.1331558E1,1.0905709E0,2.0208309E0,8.447795E0,1.2883764E1,6.2354836E0,2.212311E0,8.602004E0,4.2817607E0],"tree_param":{"num_deleted":"0","num_feature":"45","num_nodes":"11","size_leaf_vector":"1"}},{"base_weights":[-4.8146643E-2,-6.296014E-1,1.4852343E-1,-9.304533E-1,4.862441E-3,4.1787893E-1,-2.9979104E-1,-1.1748982E-2,-6.8650115E-4,-1.6188486E-3,6.471381E-3,5.2880486E-3,-7.149007E-3],"categories":[],"categories_nodes":[],"categories_segments":[],"categories_sizes":[],"default_left":[0,0,0,0,0,0,0,0,0,0,0,0,0],"id":53,"left_children":[1,3,5,7,-1,9,11,-1,-1,-1,-1,-1,-1],"loss_changes":[2.9485345E0,2.634872E0,2.4758255E0,1.0703521E0,0E0,1.77649E0,3.091175E0,0E0,0E0,0E0,0E0,0E0,0E0],"parents":[2147483647,0,0,1,1,2,2,3,3,5,5,6,6],"right_children":[2,4,6,8,-1,10,12,-1,-1,-1,-1,-1,-1],"split_conditions":[-7.809885E-1,1.5E-1,3.913657E-3,5E-1,4.862441E-3,-6.498492E-2,-6.0193088E-2,-1.1748982E-2,-6.8650115E-4,-1.6188486E-3,6.471381E-3,5.2880486E-3,-7.149007E-3],"split_indices":[28,3,30,20,0,27,1,0,0,0,0,0,0],"split_type":[0,0,0,0,0,0,0,0,0,0,0,0,0],"sum_hessian":[2.3966375E1,5.5010934E0,1.846528E1,4.4637356E0,1.0373578E0,1.1577311E1,6.8879704E0,3.194371E0,1.2693646E0,3.3640323E0,8.213279E0,2.2075706E0,4.6804E0],"tree_param":{"num_deleted":"0","num_feature":"45","num_nodes":"13","size_leaf_vector":"1"}},{"base_weights":[-5.499246E-2,-4.1309875E-1,3.1293988E-1,-1.0383941E0,1.611384E-1,5.201439E-1,-7.3520597E-3,-8.226334E-4,-1.2200667E-2,1.0402976E-2,-5.5483705E-3,5.162532E-4,9.152932E-3],"categories":[],"categories_nodes":[],"categories_segments":[],"categories_sizes":[],"default_left":[0,0,0,0,0,0,0,0,0,0,0,0,0],"id":54,"left_children":[1,3,5,7,9,11,-1,-1,-1,-1,-1,-1,-1],"loss_changes":[3.4160914E0,4.8613014E0,3.178176E0,1.0100193E0,5.4115605E0,2.051046E0,0E0,0E0,0E0,0E0,0E0,0E0,0E0],"parents":[2147483647,0,0,1,1,2,2,3,3,4,4,5,5],"right_children":[2,4,6,8,10,12,-1,-1,-1,-1,-1,-1,-1],"split_conditions":[1.5863113E-1,7.694552E2,1.6093454E2,1.4823292E3,-1.0006816E0,2.220446E-16,-7.3520597E-3,-8.226334E-4,-1.2200667E-2,1.0402976E-2,-5.5483705E-3,5.162532E-4,9.152932E-3],"split_indices":[4,40,0,25,27,16,0,0,0,0,0,0,0],"split_type":[0,0,0,0,0,0,0,0,0,0,0,0,0],"sum_hessian":[2.394569E1,1.2072673E1,1.1873016E1,5.3924513E0,6.680222E0,1.0333896E1,1.539121E0,1.0929797E0,4.2994714E0,2.795095E0,3.8851268E0,5.24531E0,5.088586E0],"tree_param":{"num_deleted":"0","num_feature":"45","num_nodes":"13","size_leaf_vector":"1"}},{"base_weights":[-4.4534445E-2,-7.220709E-1,2.2780296E-1,-1.0114088E0,5.0778775E-3,3.501549E-1,-8.556798E-3,-1.2585882E-2,1.2460119E-3,-4.7531994E-3,4.877928E-3],"categories":[],"categories_nodes":[],"categories_segments":[],"categories_sizes":[],"default_left":[0,0,0,0,0,0,0,0,0,0,0],"id":55,"left_children":[1,3,5,7,-1,9,-1,-1,-1,-1,-1],"loss_changes":[4.894204E0,3.2140725E0,2.8241816E0,1.9757934E0,0E0,2.2566297E0,0E0,0E0,0E0,0E0,0E0],"parents":[2147483647,0,0,1,1,2,2,3,3,5,5],"right_children":[2,4,6,8,-1,10,-1,-1,-1,-1,-1],"split_conditions":[4.7842702E-1,1.5333334E-1,1.6283215E3,9.1177795E2,5.0778775E-3,-5.1598806E-2,-8.556798E-3,-1.2585882E-2,1.2460119E-3,-4.7531994E-3,4.877928E-3],"split_indices":[39,3,37,40,0,30,0,0,0,0,0],"split_type":[0,0,0,0,0,0,0,0,0,0,0],"sum_hessian":[2.4632734E1,6.588961E0,1.8043774E1,5.4778566E0,1.1111046E0,1.6821083E1,1.2226905E0,4.41033E0,1.0675265E0,2.053277E0,1.4767806E1],"tree_param":{"num_deleted":"0","num_feature":"45","num_nodes":"11","size_leaf_vector":"1"}},{"base_weights":[-1.7229209E-2,-5.65349E-1,2.2137491E-1,2.068382E-1,-1.1580276E-2,5.329485E-1,-2.6354808E-1,-7.8087864E-3,7.5991135E-3,-3.3321618E-3,7.378183E-3,-6.46401E-3,5.4969946E-3],"categories":[],"categories_nodes":[],"categories_segments":[],"categories_sizes":[],"default_left":[0,0,0,0,0,0,0,0,0,0,0,0,0],"id":56,"left_children":[1,3,5,7,-1,9,11,-1,-1,-1,-1,-1,-1],"loss_changes":[3.452968E0,3.9001608E0,2.927535E0,2.9542933E0,0E0,2.297456E0,2.8103693E0,0E0,0E0,0E0,0E0,0E0,0E0],"parents":[2147483647,0,0,1,1,2,2,3,3,5,5,6,6],"right_children":[2,4,6,8,-1,10,12,-1,-1,-1,-1,-1,-1],"split_conditions":[-3.0584354E0,4.7722915E-3,3.913657E-3,7.626869E2,-1.1580276E-2,9.4828475E-1,1.5025873E3,-7.8087864E-3,7.5991135E-3,-3.3321618E-3,7.378183E-3,-6.46401E-3,5.4969946E-3],"split_indices":[6,43,30,40,0,42,24,0,0,0,0,0,0],"split_type":[0,0,0,0,0,0,0,0,0,0,0,0,0],"sum_hessian":[2.4445183E1,6.9986134E0,1.744657E1,3.321769E0,3.6768441E0,1.05615225E1,6.885046E0,1.0445133E0,2.2772558E0,1.9003965E0,8.661126E0,4.820743E0,2.0643032E0],"tree_param":{"num_deleted":"0","num_feature":"45","num_nodes":"13","size_leaf_vector":"1"}},{"base_weights":[-1.4975822E-2,-9.308996E-3,1.7508101E-1,-4.9239963E-1,4.0345386E-1,-8.918107E-3,1.5451154E-3,7.94261E-3,-1.3120034E-3],"categories":[],"categories_nodes":[],"categories_segments":[],"categories_sizes":[],"default_left":[0,0,0,0,0,0,0,0,0],"id":57,"left_children":[1,-1,3,5,7,-1,-1,-1,-1],"loss_changes":[4.4259377E0,0E0,3.4184182E0,1.6454326E0,3.5073974E0,0E0,0E0,0E0,0E0],"parents":[2147483647,0,0,2,2,3,3,4,4],"right_children":[2,-1,4,6,8,-1,-1,-1,-1],"split_conditions":[-4.539008E1,-9.308996E-3,-5.0143486E-1,-2.6560182E-2,1.28412135E-2,-8.918107E-3,1.5451154E-3,7.94261E-3,-1.3120034E-3],"split_indices":[0,0,26,1,1,0,0,0,0],"split_type":[0,0,0,0,0,0,0,0,0],"sum_hessian":[2.3488821E1,3.3665764E0,2.0122244E1,4.834883E0,1.5287361E1,2.7552128E0,2.0796704E0,8.551243E0,6.7361183E0],"tree_param":{"num_deleted":"0","num_feature":"45","num_nodes":"9","size_leaf_vector":"1"}},{"base_weights":[2.929263E-3,-4.9152675E-1,3.2096088E-1,3.838361E-1,-8.7591684E-1,7.1348786E-1,-2.5716907E-1,7.6751355E-3,-2.6927078E-3,-1.031581E-2,1.2258954E-5,-5.089339E-4,9.7068455E-3,-7.475271E-3,3.8861316E-3],"categories":[],"categories_nodes":[],"categories_segments":[],"categories_sizes":[],"default_left":[0,0,0,0,0,0,0,0,0,0,0,0,0,0,0],"id":58,"left_children":[1,3,5,7,9,11,13,-1,-1,-1,-1,-1,-1,-1,-1],"loss_changes":[3.7465937E0,3.474993E0,3.4725907E0,1.0941457E0,9.27907E-1,1.7986283E0,2.3792982E0,0E0,0E0,0E0,0E0,0E0,0E0,0E0,0E0],"parents":[2147483647,0,0,1,1,2,2,3,3,4,4,5,5,6,6],"right_children":[2,4,6,8,10,12,14,-1,-1,-1,-1,-1,-1,-1,-1],"split_conditions":[7.678036E2,1.4857249E3,3.913657E-3,8.274651E0,4.2858243E0,8.1087646E2,1.4948369E3,7.6751355E-3,-2.6927078E-3,-1.031581E-2,1.2258954E-5,-5.089339E-4,9.7068455E-3,-7.475271E-3,3.8861316E-3],"split_indices":[40,24,30,8,7,40,24,0,0,0,0,0,0,0,0],"split_type":[0,0,0,0,0,0,0,0,0,0,0,0,0,0,0],"sum_hessian":[2.1822083E1,8.328271E0,1.3493812E1,2.5416563E0,5.7866144E0,7.897557E0,5.5962543E0,1.4907309E0,1.0509253E0,4.764926E0,1.0216886E0,2.190267E0,5.7072897E0,3.0913584E0,2.504896E0],"tree_param":{"num_deleted":"0","num_feature":"45","num_nodes":"15","size_leaf_vector":"1"}},{"base_weights":[-1.367134E-1,-5.3657883E-1,2.4052697E-1,-7.8046435E-1,4.7456487E-3,-4.1191298E-1,5.0203717E-1,-1.2249182E-2,-3.7331486E-3,-8.228056E-3,3.1204587E-3,-1.8411026E-3,8.5004205E-3],"categories":[],"categories_nodes":[],"categories_segments":[],"categories_sizes":[],"default_left":[0,0,0,0,0,0,0,0,0,0,0,0,0],"id":59,"left_children":[1,3,5,7,-1,9,11,-1,-1,-1,-1,-1,-1],"loss_changes":[3.7090988E0,3.2878478E0,2.408225E0,1.3359776E0,0E0,1.5183609E0,2.4634814E0,0E0,0E0,0E0,0E0,0E0,0E0],"parents":[2147483647,0,0,1,1,2,2,3,3,5,5,6,6],"right_children":[2,4,6,8,-1,10,12,-1,-1,-1,-1,-1,-1],"split_conditions":[1.5863113E-1,3.4333333E-1,-4.1780078E-1,-5.3534996E-2,4.7456487E-3,1.2739341E1,1E0,-1.2249182E-2,-3.7331486E-3,-8.228056E-3,3.1204587E-3,-1.8411026E-3,8.5004205E-3],"split_indices":[4,3,26,13,0,8,18,0,0,0,0,0,0],"split_type":[0,0,0,0,0,0,0,0,0,0,0,0,0],"sum_hessian":[2.2733158E1,1.08306055E1,1.1902553E1,8.909735E0,1.9208704E0,3.241135E0,8.661417E0,3.2994533E0,5.610282E0,1.9805248E0,1.2606101E0,3.0731556E0,5.5882616E0],"tree_param":{"num_deleted":"0","num_feature":"45","num_nodes":"13","size_leaf_vector":"1"}},{"base_weights":[-5.9287693E-2,-7.264147E-1,1.7852072E-1,1.2862003E-1,-1.15961945E-2,-1.2504542E-1,6.473398E-1,-5.434095E-3,7.043469E-3,-7.6036924E-3,1.0237229E-3,8.3833225E-3,-2.095267E-3],"categories":[],"categories_nodes":[],"categories_segments":[],"categories_sizes":[],"default_left":[0,0,0,0,0,0,0,0,0,0,0,0,0],"id":60,"left_children":[1,3,5,7,-1,9,11,-1,-1,-1,-1,-1,-1],"loss_changes":[4.003243E0,2.5988512E0,2.7568662E0,1.591499E0,0E0,1.8478744E0,1.4115293E0,0E0,0E0,0E0,0E0,0E0,0E0],"parents":[2147483647,0,0,1,1,2,2,3,3,5,5,6,6],"right_children":[2,4,6,8,-1,10,12,-1,-1,-1,-1,-1,-1],"split_conditions":[-3.7912102E0,4.7722915E-3,2.4333334E-1,7.711127E2,-1.15961945E-2,-1.7230256E-1,6.916577E-1,-5.434095E-3,7.043469E-3,-7.6036924E-3,1.0237229E-3,8.3833225E-3,-2.095267E-3],"split_indices":[6,43,2,40,0,13,16,0,0,0,0,0,0],"split_type":[0,0,0,0,0,0,0,0,0,0,0,0,0],"sum_hessian":[2.3416023E1,5.613573E0,1.780245E1,2.124148E0,3.489425E0,1.1250735E1,6.5517144E0,1.0060029E0,1.118145E0,2.3479397E0,8.902796E0,5.375226E0,1.1764882E0],"tree_param":{"num_deleted":"0","num_feature":"45","num_nodes":"13","size_leaf_vector":"1"}},{"base_weights":[4.4474553E-2,-6.967875E-1,2.0028743E-1,-5.947068E-4,-1.0089723E-2,4.6108213E-1,-2.1314238E-1,8.013469E-3,-1.0137174E-3,-4.896105E-3,8.791752E-3],"categories":[],"categories_nodes":[],"categories_segments":[],"categories_sizes":[],"default_left":[0,0,0,0,0,0,0,0,0,0,0],"id":61,"left_children":[1,3,5,-1,-1,7,9,-1,-1,-1,-1],"loss_changes":[2.9671116E0,8.304317E-1,2.363143E0,0E0,0E0,2.606885E0,3.090726E0,0E0,0E0,0E0,0E0],"parents":[2147483647,0,0,1,1,2,2,5,5,6,6],"right_children":[2,4,6,-1,-1,8,10,-1,-1,-1,-1],"split_conditions":[-4.1242863E1,9.2050135E-1,3.913657E-3,-5.947068E-4,-1.0089723E-2,1.2294451E-2,8.789587E-2,8.013469E-3,-1.0137174E-3,-4.896105E-3,8.791752E-3],"split_indices":[0,42,30,0,0,43,30,0,0,0,0],"split_type":[0,0,0,0,0,0,0,0,0,0,0],"sum_hessian":[2.3481373E1,3.4754353E0,2.0005938E1,1.534104E0,1.9413313E0,1.2196825E1,7.809112E0,7.334798E0,4.8620276E0,6.672146E0,1.1369663E0],"tree_param":{"num_deleted":"0","num_feature":"45","num_nodes":"11","size_leaf_vector":"1"}},{"base_weights":[1.4807602E-2,-5.8989364E-1,2.7761385E-1,-8.797994E-1,5.4780464E-3,-5.6489646E-1,4.3026555E-1,-1.1904505E-2,3.458944E-3,-9.651115E-3,1.210296E-3,7.836078E-3,-8.378964E-4],"categories":[],"categories_nodes":[],"categories_segments":[],"categories_sizes":[],"default_left":[0,0,0,0,0,0,0,0,0,0,0,0,0],"id":62,"left_children":[1,3,5,7,-1,9,11,-1,-1,-1,-1,-1,-1],"loss_changes":[4.0137615E0,3.0081477E0,2.5023518E0,2.8819866E0,0E0,9.752296E-1,2.8701289E0,0E0,0E0,0E0,0E0,0E0,0E0],"parents":[2147483647,0,0,1,1,2,2,3,3,5,5,6,6],"right_children":[2,4,6,8,-1,10,12,-1,-1,-1,-1,-1,-1],"split_conditions":[4.7842702E-1,1.5333334E-1,-5.1598806E-2,6.681419E-1,5.4780464E-3,5.7243854E-1,1.01529285E-2,-1.1904505E-2,3.458944E-3,-9.651115E-3,1.210296E-3,7.836078E-3,-8.378964E-4],"split_indices":[39,3,30,27,0,39,30,0,0,0,0,0,0],"split_type":[0,0,0,0,0,0,0,0,0,0,0,0,0],"sum_hessian":[2.3226128E1,6.659175E0,1.6566952E1,5.4875374E0,1.1716374E0,2.127019E0,1.4439934E1,4.400889E0,1.0866483E0,1.0862237E0,1.0407951E0,8.246934E0,6.1929994E0],"tree_param":{"num_deleted":"0","num_feature":"45","num_nodes":"13","size_leaf_vector":"1"}},{"base_weights":[-5.8233004E-2,-8.971857E-1,1.2560971E-1,-1.7842241E-3,-1.0527664E-2,-2.7116522E-1,3.7295204E-1,1.7126775E-3,-1.249212E-2,8.113158E-3,-2.8155365E-3],"categories":[],"categories_nodes":[],"categories_segments":[],"categories_sizes":[],"default_left":[0,0,0,0,0,0,0,0,0,0,0],"id":63,"left_children":[1,3,5,-1,-1,7,9,-1,-1,-1,-1],"loss_changes":[3.87258E0,3.1588984E-1,2.1495936E0,0E0,0E0,3.9328737E0,4.0382485E0,0E0,0E0,0E0,0E0],"parents":[2147483647,0,0,1,1,2,2,5,5,6,6],"right_children":[2,4,6,-1,-1,8,10,-1,-1,-1,-1],"split_conditions":[-4.539008E1,1.4853629E3,-9.092851E-2,-1.7842241E-3,-1.0527664E-2,1E-1,1.3605437E-2,1.7126775E-3,-1.249212E-2,8.113158E-3,-2.8155365E-3],"split_indices":[0,24,26,0,0,33,1,0,0,0,0],"split_type":[0,0,0,0,0,0,0,0,0,0,0],"sum_hessian":[2.3377584E1,3.5045676E0,1.9873018E1,1.0056071E0,2.4989605E0,7.594294E0,1.2278724E1,5.796882E0,1.7974118E0,7.210088E0,5.0686355E0],"tree_param":{"num_deleted":"0","num_feature":"45","num_nodes":"11","size_leaf_vector":"1"}},{"base_weights":[-2.6840108E-2,-6.558355E-1,2.225247E-1,3.1856176E-2,-1.0462591E-2,5.509984E-1,-2.518868E-1,5.5681425E-3,-6.8206405E-3,-5.151863E-3,8.288152E-3,-5.2671675E-3,8.406573E-3],"categories":[],"categories_nodes":[],"categories_segments":[],"categories_sizes":[],"default_left":[0,0,0,0,0,0,0,0,0,0,0,0,0],"id":64,"left_children":[1,3,5,7,-1,9,11,-1,-1,-1,-1,-1,-1],"loss_changes":[4.1280303E0,2.0365276E0,3.0882242E0,1.7560899E0,0E0,3.8325732E0,2.9739065E0,0E0,0E0,0E0,0E0,0E0,0E0],"parents":[2147483647,0,0,1,1,2,2,3,3,5,5,6,6],"right_children":[2,4,6,8,-1,10,12,-1,-1,-1,-1,-1,-1],"split_conditions":[-3.0584354E0,4.7722915E-3,3.913657E-3,2.4482388E1,-1.0462591E-2,9.4828475E-1,8.789587E-2,5.5681425E-3,-6.8206405E-3,-5.151863E-3,8.288152E-3,-5.2671675E-3,8.406573E-3],"split_indices":[6,43,30,44,0,42,30,0,0,0,0,0,0],"split_type":[0,0,0,0,0,0,0,0,0,0,0,0,0],"sum_hessian":[2.4388E1,6.4609466E0,1.7927055E1,2.6723244E0,3.7886224E0,1.0497409E1,7.4296455E0,1.666776E0,1.0055485E0,1.9932919E0,8.504117E0,6.350159E0,1.0794866E0],"tree_param":{"num_deleted":"0","num_feature":"45","num_nodes":"13","size_leaf_vector":"1"}},{"base_weights":[4.2293735E-2,-8.592144E-1,2.1756607E-1,-2.0121168E-3,-1.028E-2,-1.5354109E-1,6.2435746E-1,1.9772581E-3,-7.069686E-3,8.143908E-3,-4.7823368E-3],"categories":[],"categories_nodes":[],"categories_segments":[],"categories_sizes":[],"default_left":[0,0,0,0,0,0,0,0,0,0,0],"id":65,"left_children":[1,3,5,-1,-1,7,9,-1,-1,-1,-1],"loss_changes":[3.9965034E0,2.5144935E-1,3.2635622E0,0E0,0E0,2.428956E0,2.5282845E0,0E0,0E0,0E0,0E0],"parents":[2147483647,0,0,1,1,2,2,5,5,6,6],"right_children":[2,4,6,-1,-1,8,10,-1,-1,-1,-1],"split_conditions":[-4.539008E1,-1.4019696E-1,6.7569554E-2,-2.0121168E-3,-1.028E-2,1.2294451E-2,2.6797447E1,1.9772581E-3,-7.069686E-3,8.143908E-3,-4.7823368E-3],"split_indices":[0,26,13,0,0,43,8,0,0,0,0],"split_type":[0,0,0,0,0,0,0,0,0,0,0],"sum_hessian":[2.3109745E1,3.1265028E0,1.9983244E1,1.0857748E0,2.0407279E0,1.077552E1,9.207723E0,6.984868E0,3.7906525E0,8.07702E0,1.1307034E0],"tree_param":{"num_deleted":"0","num_feature":"45","num_nodes":"11","size_leaf_vector":"1"}},{"base_weights":[-5.8405623E-2,-5.5604714E-1,2.1165568E-1,-1.0721883E0,3.8497895E-2,-3.9136747E-1,4.6468332E-1,-3.4055477E-3,-1.2482885E-2,4.0609227E-3,-7.4289576E-3,5.229971E-3,-7.7775368E-3,-6.229035E-3,6.629378E-3],"categories":[],"categories_nodes":[],"categories_segments":[],"categories_sizes":[],"default_left":[0,0,0,0,0,0,0,0,0,0,0,0,0,0,0],"id":66,"left_children":[1,3,5,7,9,11,13,-1,-1,-1,-1,-1,-1,-1,-1],"loss_changes":[3.4685307E0,2.8173985E0,2.7584171E0,2.0327997E-1,1.7865027E0,2.3619251E0,3.0763547E0,0E0,0E0,0E0,0E0,0E0,0E0,0E0,0E0],"parents":[2147483647,0,0,1,1,2,2,3,3,4,4,5,5,6,6],"right_children":[2,4,6,8,10,12,14,-1,-1,-1,-1,-1,-1,-1,-1],"split_conditions":[4.925634E-1,1.5572141E3,-4.1196415E-1,1E0,1.1056679E-2,1.4939385E3,-9.8354546E1,-3.4055477E-3,-1.2482885E-2,4.0609227E-3,-7.4289576E-3,5.229971E-3,-7.7775368E-3,-6.229035E-3,6.629378E-3],"split_indices":[39,37,26,18,1,37,29,0,0,0,0,0,0,0,0],"split_type":[0,0,0,0,0,0,0,0,0,0,0,0,0,0,0],"sum_hessian":[2.3933014E1,8.046597E0,1.5886416E1,3.8772616E0,4.169335E0,4.5340333E0,1.1352384E1,1.3213586E0,2.555903E0,3.1620812E0,1.0072538E0,1.2418036E0,3.2922297E0,1.4200912E0,9.932292E0],"tree_param":{"num_deleted":"0","num_feature":"45","num_nodes":"15","size_leaf_vector":"1"}},{"base_weights":[-1.7794305E-2,-5.676306E-1,2.5836155E-1,-9.746465E-1,2.8565517E-1,5.456491E-1,-1.7824954E-1,-1.1709702E-2,-2.8854456E-5,-3.0112697E-3,6.5420554E-3,-4.8009413E-3,7.3876786E-3,1.9876466E-3,-8.136153E-3],"categories":[],"categories_nodes":[],"categories_segments":[],"categories_sizes":[],"default_left":[0,0,0,0,0,0,0,0,0,0,0,0,0,0,0],"id":67,"left_children":[1,3,5,7,9,11,13,-1,-1,-1,-1,-1,-1,-1,-1],"loss_changes":[3.8796341E0,3.2416909E0,2.2362156E0,1.1419568E0,9.601464E-1,2.440825E0,1.9633787E0,0E0,0E0,0E0,0E0,0E0,0E0,0E0,0E0],"parents":[2147483647,0,0,1,1,2,2,3,3,4,4,5,5,6,6],"right_children":[2,4,6,8,10,12,14,-1,-1,-1,-1,-1,-1,-1,-1],"split_conditions":[4.925634E-1,6E-2,9.310805E-3,7.8857595E-1,-6.333333E-2,-1.7359633E0,1.0326474E0,-1.1709702E-2,-2.8854456E-5,-3.0112697E-3,6.5420554E-3,-4.8009413E-3,7.3876786E-3,1.9876466E-3,-8.136153E-3],"split_indices":[39,3,30,4,2,11,42,0,0,0,0,0,0,0,0],"split_type":[0,0,0,0,0,0,0,0,0,0,0,0,0,0,0],"sum_hessian":[2.3584877E1,7.532308E0,1.6052568E1,5.003445E0,2.528863E0,9.531295E0,6.521274E0,3.991957E0,1.0114882E0,1.0461664E0,1.4826964E0,1.2747104E0,8.256584E0,4.5239887E0,1.9972852E0],"tree_param":{"num_deleted":"0","num_feature":"45","num_nodes":"15","size_leaf_vector":"1"}},{"base_weights":[1.4143549E-2,-7.620655E-1,1.5550423E-1,-1.3004927E-3,-9.491476E-3,-2.9131448E-1,4.4898516E-1,-9.318095E-3,2.4269389E-3,8.543465E-3,-1.1637497E-3],"categories":[],"categories_nodes":[],"categories_segments":[],"categories_sizes":[],"default_left":[0,0,0,0,0,0,0,0,0,0,0],"id":68,"left_children":[1,3,5,-1,-1,7,9,-1,-1,-1,-1],"loss_changes":[2.8462944E0,3.4945202E-1,2.9974525E0,0E0,0E0,3.397735E0,3.2134254E0,0E0,0E0,0E0,0E0],"parents":[2147483647,0,0,1,1,2,2,5,5,6,6],"right_children":[2,4,6,-1,-1,8,10,-1,-1,-1,-1],"split_conditions":[-4.539008E1,2.8446544E-4,-9.092851E-2,-1.3004927E-3,-9.491476E-3,1.6657192E0,1.28412135E-2,-9.318095E-3,2.4269389E-3,8.543465E-3,-1.1637497E-3],"split_indices":[0,30,26,0,0,44,1,0,0,0,0],"split_type":[0,0,0,0,0,0,0,0,0,0,0],"sum_hessian":[2.3860144E1,2.9994247E0,2.0860718E1,1.0722404E0,1.9271842E0,8.272852E0,1.2587866E1,3.4226987E0,4.8501534E0,7.0336256E0,5.5542407E0],"tree_param":{"num_deleted":"0","num_feature":"45","num_nodes":"11","size_leaf_vector":"1"}},{"base_weights":[-3.3362366E-2,-5.7116103E-1,1.8357712E-1,1.2683363E-1,-1.0210543E0,-2.3214325E-1,4.7666073E-1,-6.2680463E-3,6.088122E-3,-1.163962E-2,-2.7197322E-3,-9.622644E-3,1.3392959E-3,6.447508E-3,-5.776365E-3],"categories":[],"categories_nodes":[],"categories_segments":[],"categories_sizes":[],"default_left":[0,0,0,0,0,0,0,0,0,0,0,0,0,0,0],"id":69,"left_children":[1,3,5,7,9,11,13,-1,-1,-1,-1,-1,-1,-1,-1],"loss_changes":[3.0901833E0,2.5154915E0,2.4243796E0,1.7864096E0,1.8984985E-1,2.4072995E0,2.4042559E0,0E0,0E0,0E0,0E0,0E0,0E0,0E0,0E0],"parents":[2147483647,0,0,1,1,2,2,3,3,4,4,5,5,6,6],"right_children":[2,4,6,8,10,12,14,-1,-1,-1,-1,-1,-1,-1,-1],"split_conditions":[-3.0584354E0,4.7722915E-3,-7.051074E-1,7.648684E2,2.6458436E-1,4.4342017E-1,1.6093454E2,-6.2680463E-3,6.088122E-3,-1.163962E-2,-2.7197322E-3,-9.622644E-3,1.3392959E-3,6.447508E-3,-5.776365E-3],"split_indices":[6,43,7,40,26,39,0,0,0,0,0,0,0,0,0],"split_type":[0,0,0,0,0,0,0,0,0,0,0,0,0,0,0],"sum_hessian":[2.4587873E1,6.5981283E0,1.7989744E1,2.8674517E0,3.7306767E0,7.5245624E0,1.0465182E1,1.0013007E0,1.8661509E0,2.6678567E0,1.06282E0,1.9689457E0,5.5556164E0,9.361156E0,1.1040258E0],"tree_param":{"num_deleted":"0","num_feature":"45","num_nodes":"15","size_leaf_vector":"1"}},{"base_weights":[-7.4136905E-2,-6.8187535E-1,1.7116278E-1,-1.0127447E0,5.4789428E-3,2.8039718E-1,-8.000021E-3,-1.22701535E-2,-1.5002473E-3,-3.917505E-3,4.947703E-3],"categories":[],"categories_nodes":[],"categories_segments":[],"categories_sizes":[],"default_left":[0,0,0,0,0,0,0,0,0,0,0],"id":70,"left_children":[1,3,5,7,-1,9,-1,-1,-1,-1,-1],"loss_changes":[3.8302658E0,3.5511599E0,2.1917982E0,9.5346117E-1,0E0,2.7026792E0,0E0,0E0,0E0,0E0,0E0],"parents":[2147483647,0,0,1,1,2,2,3,3,5,5],"right_children":[2,4,6,8,-1,10,-1,-1,-1,-1,-1],"split_conditions":[4.7842702E-1,1.5333334E-1,1.6283215E3,1.4463957E-1,5.4789428E-3,-3.0584354E0,-8.000021E-3,-1.22701535E-2,-1.5002473E-3,-3.917505E-3,4.947703E-3],"split_indices":[39,3,37,4,0,6,0,0,0,0,0],"split_type":[0,0,0,0,0,0,0,0,0,0,0],"sum_hessian":[2.3910133E1,6.36381E0,1.7546324E1,5.1536875E0,1.2101225E0,1.6411655E1,1.1346678E0,3.7900915E0,1.3635958E0,3.7684858E0,1.264317E1],"tree_param":{"num_deleted":"0","num_feature":"45","num_nodes":"11","size_leaf_vector":"1"}},{"base_weights":[-3.511791E-2,-6.7199737E-1,1.7485993E-1,-1.0357409E0,2.6542894E-3,-2.9029816E-1,4.48895E-1,-1.1834304E-2,-3.0167564E-3,3.4373573E-3,-8.448383E-3,6.334049E-3,-5.062945E-3],"categories":[],"categories_nodes":[],"categories_segments":[],"categories_sizes":[],"default_left":[0,0,0,0,0,0,0,0,0,0,0,0,0],"id":71,"left_children":[1,3,5,7,-1,9,11,-1,-1,-1,-1,-1,-1],"loss_changes":[3.4948978E0,2.4805608E0,2.6525178E0,1.703353E-1,0E0,3.0830123E0,2.584352E0,0E0,0E0,0E0,0E0,0E0,0E0],"parents":[2147483647,0,0,1,1,2,2,3,3,5,5,6,6],"right_children":[2,4,6,8,-1,10,12,-1,-1,-1,-1,-1,-1],"split_conditions":[-7.809885E-1,8.1072015E2,8.281947E-2,5E-1,2.6542894E-3,-1.0202264E0,1.6093454E2,-1.1834304E-2,-3.0167564E-3,3.4373573E-3,-8.448383E-3,6.334049E-3,-5.062945E-3],"split_indices":[28,40,7,20,0,27,0,0,0,0,0,0,0],"split_type":[0,0,0,0,0,0,0,0,0,0,0,0,0],"sum_hessian":[2.4255201E1,5.468495E0,1.8786707E1,3.8642125E0,1.6042826E0,6.942642E0,1.1844064E1,2.7073503E0,1.1568623E0,3.416513E0,3.5261292E0,1.0208929E1,1.6351352E0],"tree_param":{"num_deleted":"0","num_feature":"45","num_nodes":"13","size_leaf_vector":"1"}},{"base_weights":[-1.8900957E-2,-6.308726E-1,2.1654664E-1,9.4905235E-2,-1.065619E-2,-6.583429E-1,3.799712E-1,6.795905E-3,-6.004231E-3,-1.2447733E-3,-8.50033E-3,-1.6827043E-3,5.9066783E-3],"categories":[],"categories_nodes":[],"categories_segments":[],"categories_sizes":[],"default_left":[0,0,0,0,0,0,0,0,0,0,0,0,0],"id":72,"left_children":[1,3,5,7,-1,9,11,-1,-1,-1,-1,-1,-1],"loss_changes":[3.6403017E0,2.3135085E0,2.8673434E0,1.8492002E0,0E0,2.2647977E-1,1.9542696E0,0E0,0E0,0E0,0E0,0E0,0E0],"parents":[2147483647,0,0,1,1,2,2,3,3,5,5,6,6],"right_children":[2,4,6,8,-1,10,12,-1,-1,-1,-1,-1,-1],"split_conditions":[-3.0584354E0,3.2199256E-4,4.2579544E-1,2.1860689E-1,-1.065619E-2,1.0520103E0,-5.239433E-1,6.795905E-3,-6.004231E-3,-1.2447733E-3,-8.50033E-3,-1.6827043E-3,5.9066783E-3],"split_indices":[6,43,39,26,0,28,26,0,0,0,0,0,0],"split_type":[0,0,0,0,0,0,0,0,0,0,0,0,0],"sum_hessian":[2.3316437E1,6.011634E0,1.7304804E1,2.5448647E0,3.466769E0,2.2470193E0,1.5057784E1,1.394715E0,1.1501496E0,1.0294166E0,1.2176028E0,4.236248E0,1.0821536E1],"tree_param":{"num_deleted":"0","num_feature":"45","num_nodes":"13","size_leaf_vector":"1"}},{"base_weights":[-5.1911015E-2,-3.6064458E-1,3.2147115E-1,-5.764126E-1,6.334718E-3,-5.529982E-3,8.586223E-1,-9.729716E-3,-1.4177009E-3,7.686203E-3,-4.723534E-3,2.3712164E-3,1.0089832E-2],"categories":[],"categories_nodes":[],"categories_segments":[],"categories_sizes":[],"default_left":[0,0,0,0,0,0,0,0,0,0,0,0,0],"id":73,"left_children":[1,3,5,7,-1,9,11,-1,-1,-1,-1,-1,-1],"loss_changes":[2.8758843E0,3.2773771E0,2.0010376E0,1.875113E0,0E0,3.2752042E0,1.632421E-1,0E0,0E0,0E0,0E0,0E0,0E0],"parents":[2147483647,0,0,1,1,2,2,3,3,5,5,6,6],"right_children":[2,4,6,8,-1,10,12,-1,-1,-1,-1,-1,-1],"split_conditions":[1.7846895E0,8.837298E2,-3.958093E-3,-3.822707E-2,6.334718E-3,1.5328108E3,4.4361304E-2,-9.729716E-3,-1.4177009E-3,7.686203E-3,-4.723534E-3,2.3712164E-3,1.0089832E-2],"split_indices":[6,40,43,1,0,37,13,0,0,0,0,0,0],"split_type":[0,0,0,0,0,0,0,0,0,0,0,0,0],"sum_hessian":[2.2942165E1,1.2576946E1,1.0365218E1,1.0679245E1,1.8977017E0,7.058142E0,3.3070757E0,4.936619E0,5.7426257E0,2.4119039E0,4.6462383E0,1.1462389E0,2.160837E0],"tree_param":{"num_deleted":"0","num_feature":"45","num_nodes":"13","size_leaf_vector":"1"}},{"base_weights":[-6.0516126E-2,-8.489201E-1,1.0452735E-1,-1.815128E-3,-1.0130278E-2,2.587288E-1,-6.343796E-1,-1.4963873E-3,5.2476437E-3,-9.314721E-3,1.1766924E-3],"categories":[],"categories_nodes":[],"categories_segments":[],"categories_sizes":[],"default_left":[0,0,0,0,0,0,0,0,0,0,0],"id":74,"left_children":[1,3,5,-1,-1,7,9,-1,-1,-1,-1],"loss_changes":[3.267499E0,2.912917E-1,2.5672421E0,0E0,0E0,2.051403E0,9.879439E-1,0E0,0E0,0E0,0E0],"parents":[2147483647,0,0,1,1,2,2,5,5,6,6],"right_children":[2,4,6,-1,-1,8,10,-1,-1,-1,-1],"split_conditions":[-4.539008E1,1.2224136E-4,1.6079076E3,-1.815128E-3,-1.0130278E-2,-1.0333704E-1,9.1177795E2,-1.4963873E-3,5.2476437E-3,-9.314721E-3,1.1766924E-3],"split_indices":[0,30,37,0,0,26,40,0,0,0,0],"split_type":[0,0,0,0,0,0,0,0,0,0,0],"sum_hessian":[2.3429302E1,3.3383873E0,2.0090916E1,1.0745155E0,2.263872E0,1.7159725E1,2.9311898E0,6.941685E0,1.02180395E1,1.9301255E0,1.0010643E0],"tree_param":{"num_deleted":"0","num_feature":"45","num_nodes":"11","size_leaf_vector":"1"}},{"base_weights":[-1.615519E-2,-1.8637244E-1,6.398388E-1,-5.747055E-1,1.420611E-1,9.86811E-1,-3.2528366E-3,1.0513659E-3,-9.804764E-3,-3.1657189E-3,5.8822534E-3,3.0425598E-3,1.1084427E-2],"categories":[],"categories_nodes":[],"categories_segments":[],"categories_sizes":[],"default_left":[0,0,0,0,0,0,0,0,0,0,0,0,0],"id":75,"left_children":[1,3,5,7,9,11,-1,-1,-1,-1,-1,-1,-1],"loss_changes":[2.9271817E0,2.726916E0,2.1314256E0,2.779426E0,2.6496367E0,1.3478756E-2,0E0,0E0,0E0,0E0,0E0,0E0,0E0],"parents":[2147483647,0,0,1,1,2,2,3,3,4,4,5,5],"right_children":[2,4,6,8,10,12,-1,-1,-1,-1,-1,-1,-1],"split_conditions":[3.4333333E-1,-2.1153222E-1,1.6008457E3,-1.2917352E0,1.7846895E0,-1.0211412E-1,-3.2528366E-3,1.0513659E-3,-9.804764E-3,-3.1657189E-3,5.8822534E-3,3.0425598E-3,1.1084427E-2],"split_indices":[3,4,37,27,6,1,0,0,0,0,0,0,0],"split_type":[0,0,0,0,0,0,0,0,0,0,0,0,0],"sum_hessian":[2.4146837E1,1.9740475E1,4.406363E0,8.701804E0,1.1038671E1,3.2246084E0,1.1817547E0,3.5294106E0,5.1723933E0,5.586503E0,5.4521675E0,1.0173042E0,2.2073042E0],"tree_param":{"num_deleted":"0","num_feature":"45","num_nodes":"13","size_leaf_vector":"1"}},{"base_weights":[-4.7899086E-2,-6.025231E-1,1.5158507E-1,-9.847688E-1,5.696763E-3,2.966183E-1,-8.840199E-3,-1.6036173E-3,-1.2496508E-2,-5.9450567E-3,4.25278E-3],"categories":[],"categories_nodes":[],"categories_segments":[],"categories_sizes":[],"default_left":[0,0,0,0,0,0,0,0,0,0,0],"id":76,"left_children":[1,3,5,7,-1,9,-1,-1,-1,-1,-1],"loss_changes":[2.7513463E0,3.500743E0,3.038071E0,9.600353E-1,0E0,2.1973078E0,0E0,0E0,0E0,0E0,0E0],"parents":[2147483647,0,0,1,1,2,2,3,3,5,5],"right_children":[2,4,6,8,-1,10,-1,-1,-1,-1,-1],"split_conditions":[-1.7230256E-1,2.9666665E-1,3.433594E1,-6.463548E0,5.696763E-3,-3.1950653E1,-8.840199E-3,-1.6036173E-3,-1.2496508E-2,-5.9450567E-3,4.25278E-3],"split_indices":[13,2,8,44,0,44,0,0,0,0,0],"split_type":[0,0,0,0,0,0,0,0,0,0,0],"sum_hessian":[2.3042336E1,5.560929E0,1.7481405E1,4.314046E0,1.2468828E0,1.5959857E1,1.5215489E0,1.4394315E0,2.8746145E0,1.5567466E0,1.44031105E1],"tree_param":{"num_deleted":"0","num_feature":"45","num_nodes":"11","size_leaf_vector":"1"}},{"base_weights":[-6.9892876E-2,-8.078518E-1,9.32042E-2,-1.7980174E-3,-1.000157E-2,-4.292637E-1,2.9606605E-1,6.3549066E-3,-7.9957945E-3,8.297967E-3,-3.322975E-4],"categories":[],"categories_nodes":[],"categories_segments":[],"categories_sizes":[],"default_left":[0,0,0,0,0,0,0,0,0,0,0],"id":77,"left_children":[1,3,5,-1,-1,7,9,-1,-1,-1,-1],"loss_changes":[3.0057745E0,3.6494303E-1,2.3356082E0,0E0,0E0,2.9669492E0,2.7695804E0,0E0,0E0,0E0,0E0],"parents":[2147483647,0,0,1,1,2,2,5,5,6,6],"right_children":[2,4,6,-1,-1,8,10,-1,-1,-1,-1],"split_conditions":[-4.539008E1,-1.3601312E-3,-5.0143486E-1,-1.7980174E-3,-1.000157E-2,1.4939385E3,-8.248783E0,6.3549066E-3,-7.9957945E-3,8.297967E-3,-3.322975E-4],"split_indices":[0,30,26,0,0,37,8,0,0,0,0],"split_type":[0,0,0,0,0,0,0,0,0,0,0],"sum_hessian":[2.3347832E1,3.510557E0,1.9837275E1,1.2765266E0,2.2340302E0,5.2359967E0,1.4601277E1,1.1663522E0,4.069645E0,4.9913173E0,9.609961E0],"tree_param":{"num_deleted":"0","num_feature":"45","num_nodes":"11","size_leaf_vector":"1"}},{"base_weights":[-2.6747223E-2,-6.073299E-1,1.6991168E-1,-9.588601E-1,5.5038063E-3,4.784982E-1,-3.0435556E-1,-2.0006585E-3,-1.1387911E-2,1.0556603E-3,8.149848E-3,-5.717467E-3,4.9426095E-3],"categories":[],"categories_nodes":[],"categories_segments":[],"categories_sizes":[],"default_left":[0,0,0,0,0,0,0,0,0,0,0,0,0],"id":78,"left_children":[1,3,5,7,-1,9,11,-1,-1,-1,-1,-1,-1],"loss_changes":[2.9278357E0,3.1641576E0,2.9645362E0,5.004144E-1,0E0,1.4270184E0,2.0344076E0,0E0,0E0,0E0,0E0,0E0,0E0],"parents":[2147483647,0,0,1,1,2,2,3,3,5,5,6,6],"right_children":[2,4,6,8,-1,10,12,-1,-1,-1,-1,-1,-1],"split_conditions":[-7.809885E-1,1.5E-1,3.913657E-3,1.0559685E-2,5.5038063E-3,-1.2108059E-2,6.278581E-2,-2.0006585E-3,-1.1387911E-2,1.0556603E-3,8.149848E-3,-5.717467E-3,4.9426095E-3],"split_indices":[28,3,30,43,0,30,30,0,0,0,0,0,0],"split_type":[0,0,0,0,0,0,0,0,0,0,0,0,0],"sum_hessian":[2.3739214E1,5.4781637E0,1.8261051E1,4.3339534E0,1.1442107E0,1.1057477E1,7.2035737E0,1.2355156E0,3.0984378E0,5.8678265E0,5.1896505E0,5.6094933E0,1.5940807E0],"tree_param":{"num_deleted":"0","num_feature":"45","num_nodes":"13","size_leaf_vector":"1"}},{"base_weights":[1.808026E-3,-2.3779581E-1,4.9389935E-1,-9.467121E-1,2.6018478E-2,-6.1127315E-3,7.7707833E-1,-1.1357922E-2,-1.7695188E-3,5.5193305E-3,-4.0397346E-3,-1.1463744E-3,9.879285E-3],"categories":[],"categories_nodes":[],"categories_segments":[],"categories_sizes":[],"default_left":[0,0,0,0,0,0,0,0,0,0,0,0,0],"id":79,"left_children":[1,3,5,7,9,-1,11,-1,-1,-1,-1,-1,-1],"loss_changes":[3.0000455E0,3.2259321E0,3.0822458E0,4.7859097E-1,3.2641087E0,0E0,1.442904E0,0E0,0E0,0E0,0E0,0E0,0E0],"parents":[2147483647,0,0,1,1,2,2,3,3,4,4,6,6],"right_children":[2,4,6,8,10,-1,12,-1,-1,-1,-1,-1,-1],"split_conditions":[2.4333334E-1,7.367285E2,-1.8009416E0,5.897616E-1,2.6405466E1,-6.1127315E-3,-1.19956E0,-1.1357922E-2,-1.7695188E-3,5.5193305E-3,-4.0397346E-3,-1.1463744E-3,9.879285E-3],"split_indices":[2,40,6,39,0,0,11,0,0,0,0,0,0],"split_type":[0,0,0,0,0,0,0,0,0,0,0,0,0],"sum_hessian":[2.3448074E1,1.6117216E1,7.3308573E0,3.6691089E0,1.2448108E1,1.2589396E0,6.071918E0,2.5638282E0,1.1052808E0,5.471921E0,6.9761868E0,1.2484311E0,4.823487E0],"tree_param":{"num_deleted":"0","num_feature":"45","num_nodes":"13","size_leaf_vector":"1"}},{"base_weights":[7.921284E-2,-9.048502E-3,2.6404878E-1,-6.512741E-1,4.20733E-1,-9.441493E-3,-5.588565E-4,-2.1164108E-3,6.1636083E-3],"categories":[],"categories_nodes":[],"categories_segments":[],"categories_sizes":[],"default_left":[0,0,0,0,0,0,0,0,0],"id":80,"left_children":[1,-1,3,5,7,-1,-1,-1,-1],"loss_changes":[4.653173E0,0E0,3.3152022E0,5.561217E-1,2.4454875E0,0E0,0E0,0E0,0E0],"parents":[2147483647,0,0,2,2,3,3,4,4],"right_children":[2,-1,4,6,8,-1,-1,-1,-1],"split_conditions":[-4.539008E1,-9.048502E-3,4.1902992E-1,6E-2,-3.0584354E0,-9.441493E-3,-5.588565E-4,-2.1164108E-3,6.1636083E-3],"split_indices":[0,0,39,33,6,0,0,0,0],"split_type":[0,0,0,0,0,0,0,0,0],"sum_hessian":[2.326875E1,3.0634704E0,2.0205278E1,2.491829E0,1.771345E1,1.2775993E0,1.2142296E0,4.1657286E0,1.3547722E1],"tree_param":{"num_deleted":"0","num_feature":"45","num_nodes":"9","size_leaf_vector":"1"}},{"base_weights":[3.887191E-2,-4.470168E-1,2.8787386E-1,-8.493135E-1,2.605508E-1,4.3107817E-1,-6.574654E-3,-1.14319E-2,8.152444E-4,6.7228214E-3,-1.9238294E-3,-3.7582708E-3,5.754374E-3],"categories":[],"categories_nodes":[],"categories_segments":[],"categories_sizes":[],"default_left":[0,0,0,0,0,0,0,0,0,0,0,0,0],"id":81,"left_children":[1,3,5,7,9,11,-1,-1,-1,-1,-1,-1,-1],"loss_changes":[2.9588778E0,2.5889597E0,2.4595618E0,1.6080043E0,8.342964E-1,1.912741E0,0E0,0E0,0E0,0E0,0E0,0E0,0E0],"parents":[2147483647,0,0,1,1,2,2,3,3,4,4,5,5],"right_children":[2,4,6,8,10,12,-1,-1,-1,-1,-1,-1,-1],"split_conditions":[4.925634E-1,6E-2,1.6091371E3,3.837222E-1,1.20981655E1,-5.1598806E-2,-6.574654E-3,-1.14319E-2,8.152444E-4,6.7228214E-3,-1.9238294E-3,-3.7582708E-3,5.754374E-3],"split_indices":[39,3,37,4,44,30,0,0,0,0,0,0,0],"split_type":[0,0,0,0,0,0,0,0,0,0,0,0,0],"sum_hessian":[2.2392496E1,7.317769E0,1.5074727E1,4.537555E0,2.7802138E0,1.3563989E1,1.5107387E0,3.2753565E0,1.2621989E0,1.2026671E0,1.5775467E0,1.8150789E0,1.174891E1],"tree_param":{"num_deleted":"0","num_feature":"45","num_nodes":"13","size_leaf_vector":"1"}},{"base_weights":[-7.74071E-2,-6.6072404E-1,1.1092654E-1,9.504563E-4,-9.650922E-1,-2.8504667E-1,3.6364076E-1,-1.1168352E-2,-2.224458E-3,2.6778858E-3,-8.133782E-3,9.786993E-3,2.5302533E-4],"categories":[],"categories_nodes":[],"categories_segments":[],"categories_sizes":[],"default_left":[0,0,0,0,0,0,0,0,0,0,0,0,0],"id":82,"left_children":[1,3,5,-1,7,9,11,-1,-1,-1,-1,-1,-1],"loss_changes":[2.841579E0,1.5395281E0,2.0954914E0,0E0,2.6730442E-1,2.646478E0,2.59514E0,0E0,0E0,0E0,0E0,0E0,0E0],"parents":[2147483647,0,0,1,1,2,2,4,4,5,5,6,6],"right_children":[2,4,6,-1,8,10,12,-1,-1,-1,-1,-1,-1],"split_conditions":[-7.809885E-1,7.0627118E-3,8.281947E-2,9.504563E-4,5E-1,1.1666889E-2,6.340197E-1,-1.1168352E-2,-2.224458E-3,2.6778858E-3,-8.133782E-3,9.786993E-3,2.5302533E-4],"split_indices":[28,43,7,0,20,1,4,0,0,0,0,0,0],"split_type":[0,0,0,0,0,0,0,0,0,0,0,0,0],"sum_hessian":[2.4198729E1,5.293904E0,1.8904823E1,1.717341E0,3.5765626E0,7.315057E0,1.1589767E1,2.5513859E0,1.025177E0,3.8156168E0,3.49944E0,3.4412744E0,8.148493E0],"tree_param":{"num_deleted":"0","num_feature":"45","num_nodes":"13","size_leaf_vector":"1"}},{"base_weights":[-1.0003755E-1,-6.7326355E-1,1.17251694E-1,-1.0339393E-2,2.623228E-3,-7.4441695E-1,2.701025E-1,-9.924067E-3,-1.1960308E-3,3.9218334E-3,-7.903303E-3],"categories":[],"categories_nodes":[],"categories_segments":[],"categories_sizes":[],"default_left":[0,0,0,0,0,0,0,0,0,0,0],"id":83,"left_children":[1,3,5,-1,-1,7,9,-1,-1,-1,-1],"loss_changes":[3.1490328E0,2.6074865E0,2.6672645E0,0E0,0E0,3.5968828E-1,2.463822E0,0E0,0E0,0E0,0E0],"parents":[2147483647,0,0,1,1,2,2,5,5,6,6],"right_children":[2,4,6,-1,-1,8,10,-1,-1,-1,-1],"split_conditions":[4.7842702E-1,6E-2,-5.1598806E-2,-1.0339393E-2,2.623228E-3,5.7243854E-1,1.6283215E3,-9.924067E-3,-1.1960308E-3,3.9218334E-3,-7.903303E-3],"split_indices":[39,3,30,0,0,39,37,0,0,0,0],"split_type":[0,0,0,0,0,0,0,0,0,0,0],"sum_hessian":[2.3648314E1,5.923415E0,1.77249E1,4.1993923E0,1.7240227E0,2.0873911E0,1.5637508E1,1.0731372E0,1.0142539E0,1.4588225E1,1.0492826E0],"tree_param":{"num_deleted":"0","num_feature":"45","num_nodes":"11","size_leaf_vector":"1"}},{"base_weights":[-5.767712E-2,-7.178337E-1,1.3209443E-1,-1.01676835E-2,2.7793732E-3,-3.7087283E-1,3.916461E-1,-6.8039494E-3,4.532663E-3,-6.861685E-3,5.551918E-3],"categories":[],"categories_nodes":[],"categories_segments":[],"categories_sizes":[],"default_left":[0,0,0,0,0,0,0,0,0,0,0],"id":84,"left_children":[1,3,5,-1,-1,7,9,-1,-1,-1,-1],"loss_changes":[3.1052327E0,1.9259617E0,2.6920617E0,0E0,0E0,2.1333613E0,2.7350159E0,0E0,0E0,0E0,0E0],"parents":[2147483647,0,0,1,1,2,2,5,5,6,6],"right_children":[2,4,6,-1,-1,8,10,-1,-1,-1,-1],"split_conditions":[4.4342017E-1,1.2666667E-1,-4.1780078E-1,-1.01676835E-2,2.7793732E-3,1.2739341E1,-9.8354546E1,-6.8039494E-3,4.532663E-3,-6.861685E-3,5.551918E-3],"split_indices":[39,3,26,0,0,8,29,0,0,0,0],"split_type":[0,0,0,0,0,0,0,0,0,0,0],"sum_hessian":[2.3029665E1,4.5207505E0,1.8508915E1,3.4607365E0,1.060014E0,6.154206E0,1.2354709E1,4.600727E0,1.5534787E0,1.2066898E0,1.1148019E1],"tree_param":{"num_deleted":"0","num_feature":"45","num_nodes":"11","size_leaf_vector":"1"}},{"base_weights":[-8.416403E-3,-6.9343007E-1,1.3929953E-1,4.4498922E-8,-9.826366E-3,-3.030348E-1,4.4134578E-1,1.0548766E-3,-1.1059648E-2,8.492654E-3,-1.1173042E-3],"categories":[],"categories_nodes":[],"categories_segments":[],"categories_sizes":[],"default_left":[0,0,0,0,0,0,0,0,0,0,0],"id":85,"left_children":[1,3,5,-1,-1,7,9,-1,-1,-1,-1],"loss_changes":[2.584744E0,9.08308E-1,2.947521E0,0E0,0E0,3.1142416E0,3.0101888E0,0E0,0E0,0E0,0E0],"parents":[2147483647,0,0,1,1,2,2,5,5,6,6],"right_children":[2,4,6,-1,-1,8,10,-1,-1,-1,-1],"split_conditions":[-4.539008E1,-5.3328933E-4,-9.092851E-2,4.4498922E-8,-9.826366E-3,1E-1,1.28412135E-2,1.0548766E-3,-1.1059648E-2,8.492654E-3,-1.1173042E-3],"split_indices":[0,30,26,0,0,33,1,0,0,0,0],"split_type":[0,0,0,0,0,0,0,0,0,0,0],"sum_hessian":[2.3589514E1,3.529156E0,2.0060356E1,1.3329966E0,2.1961594E0,8.138535E0,1.1921823E1,5.9697895E0,2.1687453E0,6.553085E0,5.3687377E0],"tree_param":{"num_deleted":"0","num_feature":"45","num_nodes":"11","size_leaf_vector":"1"}},{"base_weights":[1.8004624E-2,2.6613203E-1,-3.4257692E-1,-1.5397501E-1,8.18055E-1,-4.7885075E-1,4.8753247E-3,-6.6048866E-3,4.1718003E-3,1.0726703E-3,1.1823319E-2,-1.0277379E-3,-9.05554E-3],"categories":[],"categories_nodes":[],"categories_segments":[],"categories_sizes":[],"default_left":[0,0,0,0,0,0,0,0,0,0,0,0,0],"id":86,"left_children":[1,3,5,7,9,11,-1,-1,-1,-1,-1,-1,-1],"loss_changes":[2.3504887E0,3.7248702E0,1.4473397E0,3.068641E0,1.6511292E0,1.4670601E0,0E0,0E0,0E0,0E0,0E0,0E0,0E0],"parents":[2147483647,0,0,1,1,2,2,3,3,4,4,5,5],"right_children":[2,4,6,8,10,12,-1,-1,-1,-1,-1,-1,-1],"split_conditions":[3.913657E-3,8.1087646E2,1.0053858E0,7.965814E-2,1.5052104E3,9.512819E-2,4.8753247E-3,-6.6048866E-3,4.1718003E-3,1.0726703E-3,1.1823319E-2,-1.0277379E-3,-9.05554E-3],"split_indices":[30,40,16,4,38,10,0,0,0,0,0,0,0],"split_type":[0,0,0,0,0,0,0,0,0,0,0,0,0],"sum_hessian":[2.4252197E1,1.4521462E1,9.730735E0,8.65475E0,5.8667126E0,8.722039E0,1.008695E0,4.5040474E0,4.150703E0,2.4265065E0,3.4402058E0,5.2955956E0,3.4264436E0],"tree_param":{"num_deleted":"0","num_feature":"45","num_nodes":"13","size_leaf_vector":"1"}},{"base_weights":[-4.667562E-2,-5.202123E-1,1.5323979E-1,-8.438183E-1,4.1206293E-3,8.797296E-1,-6.969588E-2,-3.636974E-4,-1.0274523E-2,1.0341297E-2,2.8714228E-3,2.5414634E-3,-4.6871686E-3],"categories":[],"categories_nodes":[],"categories_segments":[],"categories_sizes":[],"default_left":[0,0,0,0,0,0,0,0,0,0,0,0,0],"id":87,"left_children":[1,3,5,7,-1,9,11,-1,-1,-1,-1,-1,-1],"loss_changes":[2.3548672E0,2.5686922E0,2.923367E0,8.215871E-1,0E0,8.942747E-2,1.9861526E0,0E0,0E0,0E0,0E0,0E0,0E0],"parents":[2147483647,0,0,1,1,2,2,3,3,5,5,6,6],"right_children":[2,4,6,8,-1,10,12,-1,-1,-1,-1,-1,-1],"split_conditions":[-3.0584354E0,2.1666667E-1,-8.185424E-1,-2.3456533E-2,4.1206293E-3,6.329419E-1,1.5149047E-3,-3.636974E-4,-1.0274523E-2,1.0341297E-2,2.8714228E-3,2.5414634E-3,-4.6871686E-3],"split_indices":[6,3,10,43,0,26,30,0,0,0,0,0,0],"split_type":[0,0,0,0,0,0,0,0,0,0,0,0,0],"sum_hessian":[2.3033123E1,6.361818E0,1.6671305E1,4.7929864E0,1.5688313E0,3.2228274E0,1.3448477E1,1.1100581E0,3.6829283E0,1.9655808E0,1.2572466E0,7.6239867E0,5.8244905E0],"tree_param":{"num_deleted":"0","num_feature":"45","num_nodes":"13","size_leaf_vector":"1"}},{"base_weights":[-2.821199E-2,-5.649422E-1,1.9170325E-1,2.2142829E-1,-9.079003E-1,3.274913E-1,-8.683383E-3,-1.4591145E-3,4.764845E-3,2.0988117E-4,-1.1478535E-2,-3.12034E-3,5.1072515E-3],"categories":[],"categories_nodes":[],"categories_segments":[],"categories_sizes":[],"default_left":[0,0,0,0,0,0,0,0,0,0,0,0,0],"id":88,"left_children":[1,3,5,7,9,11,-1,-1,-1,-1,-1,-1,-1],"loss_changes":[3.0064971E0,2.193995E0,2.8989043E0,3.551057E-1,1.2146983E0,2.131256E0,0E0,0E0,0E0,0E0,0E0,0E0,0E0],"parents":[2147483647,0,0,1,1,2,2,3,3,4,4,5,5],"right_children":[2,4,6,8,10,12,-1,-1,-1,-1,-1,-1,-1],"split_conditions":[-1.7230256E-1,-6.463548E0,3.433594E1,-2.4521294E0,-1.4210855E-14,-1.0605471E1,-8.683383E-3,-1.4591145E-3,4.764845E-3,2.0988117E-4,-1.1478535E-2,-3.12034E-3,5.1072515E-3],"split_indices":[13,44,8,11,23,44,0,0,0,0,0,0,0],"split_type":[0,0,0,0,0,0,0,0,0,0,0,0,0],"sum_hessian":[2.3553669E1,6.3897614E0,1.7163908E1,2.0480754E0,4.341686E0,1.5827511E1,1.3363972E0,1.0146582E0,1.0334172E0,1.0786463E0,3.2630396E0,3.368343E0,1.24591675E1],"tree_param":{"num_deleted":"0","num_feature":"45","num_nodes":"13","size_leaf_vector":"1"}},{"base_weights":[3.9394077E-2,-7.354892E-1,1.9064602E-1,-2.4101746E-3,-9.448654E-3,-2.0124158E-1,4.4869503E-1,2.479302E-3,-1.0948898E-2,6.991403E-3,-3.0131282E-3],"categories":[],"categories_nodes":[],"categories_segments":[],"categories_sizes":[],"default_left":[0,0,0,0,0,0,0,0,0,0,0],"id":89,"left_children":[1,3,5,-1,-1,7,9,-1,-1,-1,-1],"loss_changes":[2.9250386E0,1.9533277E-1,2.1810198E0,0E0,0E0,3.843478E0,2.6103625E0,0E0,0E0,0E0,0E0],"parents":[2147483647,0,0,1,1,2,2,5,5,6,6],"right_children":[2,4,6,-1,-1,8,10,-1,-1,-1,-1],"split_conditions":[-4.539008E1,-6.817949E1,-9.092851E-2,-2.4101746E-3,-9.448654E-3,1E-1,5E-1,2.479302E-3,-1.0948898E-2,6.991403E-3,-3.0131282E-3],"split_indices":[0,0,26,0,0,33,19,0,0,0,0],"split_type":[0,0,0,0,0,0,0,0,0,0,0],"sum_hessian":[2.2760738E1,3.086341E0,1.9674398E1,1.5580072E0,1.5283335E0,7.8988724E0,1.1775525E1,5.7375755E0,2.1612966E0,8.878581E0,2.8969443E0],"tree_param":{"num_deleted":"0","num_feature":"45","num_nodes":"11","size_leaf_vector":"1"}},{"base_weights":[-4.672689E-2,8.742226E-3,-1.789487E-1,-8.0521387E-1,7.518908E-3,5.8395755E-5,-1.0335766E-2,-2.2554693E-3,4.640554E-3],"categories":[],"categories_nodes":[],"categories_segments":[],"categories_sizes":[],"default_left":[0,0,0,0,0,0,0,0,0],"id":90,"left_children":[1,-1,3,5,7,-1,-1,-1,-1],"loss_changes":[3.0808735E0,0E0,2.5554457E0,9.354439E-1,2.000029E0,0E0,0E0,0E0,0E0],"parents":[2147483647,0,0,2,2,3,3,4,4],"right_children":[2,-1,4,6,8,-1,-1,-1,-1],"split_conditions":[-2E-2,8.742226E-3,-3.4333333E-1,1.4823292E3,8.508098E2,5.8395755E-5,-1.0335766E-2,-2.2554693E-3,4.640554E-3],"split_indices":[34,0,2,25,40,0,0,0,0],"split_type":[0,0,0,0,0,0,0,0,0],"sum_hessian":[2.3016108E1,2.1850486E0,2.083106E1,4.018014E0,1.6813046E1,1.0968537E0,2.92116E0,1.1465678E1,5.3473673E0],"tree_param":{"num_deleted":"0","num_feature":"45","num_nodes":"9","size_leaf_vector":"1"}},{"base_weights":[-7.4965525E-3,-2.9212144E-1,3.57836E-1,5.767357E-2,-8.127962E-1,5.7460696E-1,-5.187275E-3,4.5628306E-3,-5.5016214E-3,-9.510206E-3,-1.229031E-3,7.4753207E-3,-4.2410153E-3],"categories":[],"categories_nodes":[],"categories_segments":[],"categories_sizes":[],"default_left":[0,0,0,0,0,0,0,0,0,0,0,0,0],"id":91,"left_children":[1,3,5,7,9,11,-1,-1,-1,-1,-1,-1,-1],"loss_changes":[2.7555065E0,2.757073E0,2.5048366E0,2.633854E0,4.5966053E-1,2.0070198E0,0E0,0E0,0E0,0E0,0E0,0E0,0E0],"parents":[2147483647,0,0,1,1,2,2,3,3,4,4,5,5],"right_children":[2,4,6,8,10,12,-1,-1,-1,-1,-1,-1,-1],"split_conditions":[6.7569554E-2,1.2294451E-2,