{"learner":{"attributes":{"scikit_learn":"{\"_estimator_type\": \"classifier\"}"},"feature_names":["p1_target","elo_diff","finish_diff","edge_speed_diff","edge_burst_diff","l5_goal_diff","l5_xg_diff","l5_corsi_diff","l5_pdo_diff","l5_st_net","l5_royal_road_diff","l5_pressure_diff","l5_rebound_diff","l5_lateral_diff","p1_xg_diff","p2_xg_diff","p3_xg_diff","p1_p2_dominance","h_preservation_rate","a_preservation_rate","h_comeback_rate","a_comeback_rate","l5_nzt_possession_diff","l5_ca_shots_diff","l5_rush_sv_pct_diff","home_sos","away_sos","l5_std_diff","l10_goal_diff","l10_xg_diff","elo_rest_inter","speed_finish_inter","season_month","is_late_season","h_desperation","a_desperation","home_xg","away_xg","home_elo","away_elo","away_win_rate","home_win_rate_away_sos","away_b2b_home_strength","pressure_index","xg_efficiency","power_momentum"],"feature_types":["int","float","float","float","float","float","float","float","float","float","float","float","float","float","float","float","float","float","float","float","float","float","float","float","float","float","float","float","float","float","float","float","int","int","float","float","float","float","float","float","float","float","float","float","float","float"],"gradient_booster":{"model":{"cats":{"enc":[],"feature_segments":[],"sorted_idx":[]},"gbtree_model_param":{"num_parallel_tree":"1","num_trees":"50"},"iteration_indptr":[0,1,2,3,4,5,6,7,8,9,10,11,12,13,14,15,16,17,18,19,20,21,22,23,24,25,26,27,28,29,30,31,32,33,34,35,36,37,38,39,40,41,42,43,44,45,46,47,48,49,50],"tree_info":[0,0,0,0,0,0,0,0,0,0,0,0,0,0,0,0,0,0,0,0,0,0,0,0,0,0,0,0,0,0,0,0,0,0,0,0,0,0,0,0,0,0,0,0,0,0,0,0,0,0],"trees":[{"base_weights":[1.734974E-2,-4.0096855E-1,5.600602E-1,-1.0156101E0,-2.6341997E-2,3.3066472E-1,1.135229E0,1.8351806E-2,-5.5500068E-2,6.898478E-2,-7.8369E-3,2.3028387E-2,-5.450948E-2,6.089594E-2,6.090592E-3],"categories":[],"categories_nodes":[],"categories_segments":[],"categories_sizes":[],"default_left":[0,0,0,0,0,0,0,0,0,0,0,0,0,0,0],"id":0,"left_children":[1,3,5,7,9,11,13,-1,-1,-1,-1,-1,-1,-1,-1],"loss_changes":[4.0403732E1,2.3120697E1,9.843945E0,5.372257E0,1.1855694E1,1.0982405E1,1.6677761E0,0E0,0E0,0E0,0E0,0E0,0E0,0E0,0E0],"parents":[2147483647,0,0,1,1,2,2,3,3,4,4,5,5,6,6],"right_children":[2,4,6,8,10,12,14,-1,-1,-1,-1,-1,-1,-1,-1],"split_conditions":[7.8914496E2,5.0642675E-1,9.7773615E2,-1.1626644E2,1.4267366E3,1.05402695E2,2.7069716E0,1.8351806E-2,-5.5500068E-2,6.898478E-2,-7.8369E-3,2.3028387E-2,-5.450948E-2,6.089594E-2,6.090592E-3],"split_indices":[41,40,41,30,39,30,13,0,0,0,0,0,0,0,0],"split_type":[0,0,0,0,0,0,0,0,0,0,0,0,0,0,0],"sum_hessian":[1.7598067E2,9.9526985E1,7.645368E1,3.7041996E1,6.2484985E1,5.5781258E1,2.0672428E1,2.1826093E0,3.4859386E1,4.489939E0,5.7995045E1,5.172784E1,4.053417E0,1.892634E1,1.7460874E0],"tree_param":{"num_deleted":"0","num_feature":"46","num_nodes":"15","size_leaf_vector":"1"}},{"base_weights":[3.8227107E-2,-3.8625064E-1,5.461874E-1,-6.368283E-1,4.2612264E-1,8.3669734E-1,7.215259E-2,-3.504994E-2,4.9112316E-2,4.242023E-2,-1.2003331E-2,-2.3916308E-3,5.4516543E-2,2.3382662E-2,-3.9732125E-2],"categories":[],"categories_nodes":[],"categories_segments":[],"categories_sizes":[],"default_left":[0,0,0,0,0,0,0,0,0,0,0,0,0,0,0],"id":1,"left_children":[1,3,5,7,9,11,13,-1,-1,-1,-1,-1,-1,-1,-1],"loss_changes":[3.770343E1,1.9673271E1,1.0897657E1,8.298384E0,6.693068E0,1.1099445E1,1.1112109E1,0E0,0E0,0E0,0E0,0E0,0E0,0E0,0E0],"parents":[2147483647,0,0,1,1,2,2,3,3,4,4,5,5,6,6],"right_children":[2,4,6,8,10,12,14,-1,-1,-1,-1,-1,-1,-1,-1],"split_conditions":[7.885464E2,5.876938E-1,1.502936E3,3.87782E-1,1.1E1,-1.6334595E-1,9.150376E-2,-3.504994E-2,4.9112316E-2,4.242023E-2,-1.2003331E-2,-2.3916308E-3,5.4516543E-2,2.3382662E-2,-3.9732125E-2],"split_indices":[41,40,25,2,32,2,2,0,0,0,0,0,0,0,0],"split_type":[0,0,0,0,0,0,0,0,0,0,0,0,0,0,0],"sum_hessian":[1.7288387E2,9.431174E1,7.8572136E1,7.224405E1,2.2067686E1,4.8242126E1,3.0330008E1,7.00353E1,2.2087479E0,1.3338929E1,8.728757E0,1.0931312E1,3.7310814E1,2.1143257E1,9.18675E0],"tree_param":{"num_deleted":"0","num_feature":"46","num_nodes":"15","size_leaf_vector":"1"}},{"base_weights":[-5.4276876E-2,-3.908827E-1,4.7735617E-1,-6.138575E-1,5.777506E-1,-5.893279E-1,7.2870386E-1,-3.7168738E-2,-4.5169997E-3,3.8128126E-2,-6.2105246E-2,1.24774845E-2,-5.6942888E-2,-1.7974354E-4,5.0264295E-2],"categories":[],"categories_nodes":[],"categories_segments":[],"categories_sizes":[],"default_left":[0,0,0,0,0,0,0,0,0,0,0,0,0,0,0],"id":2,"left_children":[1,3,5,7,9,11,13,-1,-1,-1,-1,-1,-1,-1,-1],"loss_changes":[3.1773844E1,2.381692E1,1.8897419E1,5.953129E0,7.9571013E0,6.5945325E0,1.1385128E1,0E0,0E0,0E0,0E0,0E0,0E0,0E0,0E0],"parents":[2147483647,0,0,1,1,2,2,3,3,4,4,5,5,6,6],"right_children":[2,4,6,8,10,12,14,-1,-1,-1,-1,-1,-1,-1,-1],"split_conditions":[5.5207604E-1,9.054042E2,6.8172595E2,1.5456895E3,1.587951E3,-7.345209E-1,-1.6135703E0,-3.7168738E-2,-4.5169997E-3,3.8128126E-2,-6.2105246E-2,1.24774845E-2,-5.6942888E-2,-1.7974354E-4,5.0264295E-2],"split_indices":[40,41,41,39,39,5,45,0,0,0,0,0,0,0,0],"split_type":[0,0,0,0,0,0,0,0,0,0,0,0,0,0,0],"sum_hessian":[1.7551364E2,1.0763121E2,6.788243E1,8.778889E1,1.9842323E1,1.2688703E1,5.5193726E1,7.004094E1,1.774795E1,1.8540459E1,1.3018639E0,5.2382326E0,7.4504704E0,1.5401799E1,3.9791927E1],"tree_param":{"num_deleted":"0","num_feature":"46","num_nodes":"15","size_leaf_vector":"1"}},{"base_weights":[-6.889136E-2,-3.5164985E-1,3.7732792E-1,-5.7440925E-1,5.3791296E-1,-2.1568526E-1,6.43918E-1,-4.7933187E-2,-1.7928695E-2,4.749252E-2,1.5458277E-3,-3.7788317E-2,2.6529131E-2,-1.1540995E-3,4.4785924E-2],"categories":[],"categories_nodes":[],"categories_segments":[],"categories_sizes":[],"default_left":[0,0,0,0,0,0,0,0,0,0,0,0,0,0,0],"id":3,"left_children":[1,3,5,7,9,11,13,-1,-1,-1,-1,-1,-1,-1,-1],"loss_changes":[2.3081516E1,2.247347E1,1.1368517E1,7.115141E0,4.7567687E0,9.581766E0,8.292934E0,0E0,0E0,0E0,0E0,0E0,0E0,0E0,0E0],"parents":[2147483647,0,0,1,1,2,2,3,3,4,4,5,5,6,6],"right_children":[2,4,6,8,10,12,14,-1,-1,-1,-1,-1,-1,-1,-1],"split_conditions":[5.5207604E-1,9.054042E2,7.286059E2,4.6338597E-1,3.1325463E-3,1.3333334E-2,-1.6135703E0,-4.7933187E-2,-1.7928695E-2,4.749252E-2,1.5458277E-3,-3.7788317E-2,2.6529131E-2,-1.1540995E-3,4.4785924E-2],"split_indices":[40,41,41,40,31,4,45,0,0,0,0,0,0,0,0],"split_type":[0,0,0,0,0,0,0,0,0,0,0,0,0,0,0],"sum_hessian":[1.8088487E2,1.1085233E2,7.003254E1,8.89358E1,2.1916533E1,2.1778517E1,4.8254025E1,3.0749834E1,5.8185963E1,1.1609922E1,1.0306611E1,1.2627296E1,9.15122E0,1.3473117E1,3.4780907E1],"tree_param":{"num_deleted":"0","num_feature":"46","num_nodes":"15","size_leaf_vector":"1"}},{"base_weights":[9.378174E-3,-4.9607444E-1,2.5154668E-1,-7.6131475E-1,1.8379827E-1,-4.1745335E-2,6.7684764E-1,5.8590334E-2,-4.298714E-2,5.3490084E-2,-1.3543821E-2,2.7127778E-2,-1.4974669E-2,5.834734E-2,1.5926115E-2],"categories":[],"categories_nodes":[],"categories_segments":[],"categories_sizes":[],"default_left":[0,0,0,0,0,0,0,0,0,0,0,0,0,0,0],"id":4,"left_children":[1,3,5,7,9,11,13,-1,-1,-1,-1,-1,-1,-1,-1],"loss_changes":[2.1731611E1,1.0511489E1,1.4997379E1,8.916714E0,7.1166143E0,1.1000928E1,8.240086E0,0E0,0E0,0E0,0E0,0E0,0E0,0E0,0E0],"parents":[2147483647,0,0,1,1,2,2,3,3,4,4,5,5,6,6],"right_children":[2,4,6,8,10,12,14,-1,-1,-1,-1,-1,-1,-1,-1],"split_conditions":[7.2951917E2,5.7923245E-1,5.5207604E-1,-7.964149E1,1.7911904E0,-1.6333333E-1,1E1,5.8590334E-2,-4.298714E-2,5.3490084E-2,-1.3543821E-2,2.7127778E-2,-1.4974669E-2,5.834734E-2,1.5926115E-2],"split_indices":[41,40,40,30,1,4,32,0,0,0,0,0,0,0,0],"split_type":[0,0,0,0,0,0,0,0,0,0,0,0,0,0,0],"sum_hessian":[1.7551956E2,5.651446E1,1.19005104E2,4.0567844E1,1.5946615E1,7.096721E1,4.803789E1,1.437148E0,3.9130695E1,4.949283E0,1.0997333E1,2.1384565E1,4.9582645E1,1.9335335E1,2.8702555E1],"tree_param":{"num_deleted":"0","num_feature":"46","num_nodes":"15","size_leaf_vector":"1"}},{"base_weights":[-1.0852721E-2,-3.1430215E-1,3.7069213E-1,-9.143666E-1,5.8094535E-2,2.7331698E-1,1.1752565E0,-1.9968979E-2,-6.2128972E-2,1.0284558E-2,-4.2020272E-2,9.280094E-3,6.588083E-2,7.827705E-2,-2.066888E-2],"categories":[],"categories_nodes":[],"categories_segments":[],"categories_sizes":[],"default_left":[0,0,0,0,0,0,0,0,0,0,0,0,0,0,0],"id":5,"left_children":[1,3,5,7,9,11,13,-1,-1,-1,-1,-1,-1,-1,-1],"loss_changes":[2.1183449E1,2.2822155E1,6.0297956E0,6.1090126E0,8.635541E0,6.4987545E0,5.8856516E0,0E0,0E0,0E0,0E0,0E0,0E0,0E0,0E0],"parents":[2147483647,0,0,1,1,2,2,3,3,4,4,5,5,6,6],"right_children":[2,4,6,8,10,12,14,-1,-1,-1,-1,-1,-1,-1,-1],"split_conditions":[7.885464E2,5.0642675E-1,1.0427948E-2,-4E-2,9.38782E-1,1.535286E3,6.091859E0,-1.9968979E-2,-6.2128972E-2,1.0284558E-2,-4.2020272E-2,9.280094E-3,6.588083E-2,7.827705E-2,-2.066888E-2],"split_indices":[41,40,42,3,27,26,8,0,0,0,0,0,0,0,0],"split_type":[0,0,0,0,0,0,0,0,0,0,0,0,0,0,0],"sum_hessian":[1.8095732E2,1.0089219E2,8.0065125E1,3.807859E1,6.2813602E1,7.26162E1,7.448917E0,1.5684862E1,2.2393726E1,5.461334E1,8.200263E0,6.807595E1,4.5402555E0,5.9915032E0,1.4574138E0],"tree_param":{"num_deleted":"0","num_feature":"46","num_nodes":"15","size_leaf_vector":"1"}},{"base_weights":[-6.497409E-2,-3.2202232E-1,3.9264795E-1,-6.9168437E-1,2.8780128E-3,6.735059E-1,-7.564654E-2,-4.2839136E-2,1.9673829E-3,-1.9189173E-2,2.4730703E-2,-2.921383E-2,4.033289E-2,4.1546106E-2,-2.5128383E-2],"categories":[],"categories_nodes":[],"categories_segments":[],"categories_sizes":[],"default_left":[0,0,0,0,0,0,0,0,0,0,0,0,0,0,0],"id":6,"left_children":[1,3,5,7,9,11,13,-1,-1,-1,-1,-1,-1,-1,-1],"loss_changes":[2.078004E1,1.3570983E1,8.416154E0,6.412594E0,1.181188E1,7.1466656E0,9.994143E0,0E0,0E0,0E0,0E0,0E0,0E0,0E0,0E0],"parents":[2147483647,0,0,1,1,2,2,3,3,4,4,5,5,6,6],"right_children":[2,4,6,8,10,12,14,-1,-1,-1,-1,-1,-1,-1,-1],"split_conditions":[8.241032E2,5.2052885E-1,1.502936E3,7.817998E2,1.3333334E-2,-3.6333334E-1,-6.0129687E-2,-4.2839136E-2,1.9673829E-3,-1.9189173E-2,2.4730703E-2,-2.921383E-2,4.033289E-2,4.1546106E-2,-2.5128383E-2],"split_indices":[41,40,25,41,4,3,2,0,0,0,0,0,0,0,0],"split_type":[0,0,0,0,0,0,0,0,0,0,0,0,0,0,0],"sum_hessian":[1.7457965E2,1.1197765E2,6.2602005E1,5.1852493E1,6.012516E1,3.8858532E1,2.3743471E1,4.2159138E1,9.693355E0,3.3781586E1,2.6343575E1,3.395533E0,3.5462997E1,7.298585E0,1.6444887E1],"tree_param":{"num_deleted":"0","num_feature":"46","num_nodes":"15","size_leaf_vector":"1"}},{"base_weights":[3.644405E-2,-2.6382878E-1,5.268153E-1,-7.7425367E-1,3.423138E-2,4.0123475E-1,7.5072676E-2,-4.72243E-2,4.1046005E-2,1.0487578E-2,-4.199419E-2,4.681567E-2,1.057717E-2],"categories":[],"categories_nodes":[],"categories_segments":[],"categories_sizes":[],"default_left":[0,0,0,0,0,0,0,0,0,0,0,0,0],"id":7,"left_children":[1,3,5,7,9,11,-1,-1,-1,-1,-1,-1,-1],"loss_changes":[2.593629E1,1.6659405E1,7.5823364E0,1.1731808E1,1.0912896E1,5.9531565E0,0E0,0E0,0E0,0E0,0E0,0E0,0E0],"parents":[2147483647,0,0,1,1,2,2,3,3,4,4,5,5],"right_children":[2,4,6,8,10,12,-1,-1,-1,-1,-1,-1,-1],"split_conditions":[8.1651855E2,5.0642675E-1,1.0427948E-2,7.817998E2,9.38782E-1,1.4917422E3,7.5072676E-2,-4.72243E-2,4.1046005E-2,1.0487578E-2,-4.199419E-2,4.681567E-2,1.057717E-2],"split_indices":[41,40,42,41,27,26,0,0,0,0,0,0,0],"split_type":[0,0,0,0,0,0,0,0,0,0,0,0,0],"sum_hessian":[1.7419968E2,1.083282E2,6.5871475E1,3.9347824E1,6.898038E1,5.9603355E1,6.268117E0,3.592222E1,3.4256055E0,5.807842E1,1.0901961E1,1.4569614E1,4.503374E1],"tree_param":{"num_deleted":"0","num_feature":"46","num_nodes":"13","size_leaf_vector":"1"}},{"base_weights":[3.3579387E-2,-3.1014976E-1,4.0955666E-1,-8.460491E-1,1.7820794E-2,4.8980573E-1,-5.028692E-1,8.666492E-3,-4.882132E-2,-4.0467832E-2,9.785366E-3,-2.6607513E-2,2.828607E-2,-6.566753E-2,1.9171456E-2],"categories":[],"categories_nodes":[],"categories_segments":[],"categories_sizes":[],"default_left":[0,0,0,0,0,0,0,0,0,0,0,0,0,0,0],"id":8,"left_children":[1,3,5,7,9,11,13,-1,-1,-1,-1,-1,-1,-1,-1],"loss_changes":[2.2881939E1,1.62818E1,6.4352417E0,4.841873E0,8.750597E0,6.3677826E0,5.7663507E0,0E0,0E0,0E0,0E0,0E0,0E0,0E0,0E0],"parents":[2147483647,0,0,1,1,2,2,3,3,4,4,5,5,6,6],"right_children":[2,4,6,8,10,12,14,-1,-1,-1,-1,-1,-1,-1,-1],"split_conditions":[7.817998E2,5.0642675E-1,1.3074603E2,1.4673868E3,-3.0350782E-2,-4.2563434E0,9.0296747E2,8.666492E-3,-4.882132E-2,-4.0467832E-2,9.785366E-3,-2.6607513E-2,2.828607E-2,-6.566753E-2,1.9171456E-2],"split_indices":[41,40,30,38,44,13,41,0,0,0,0,0,0,0,0],"split_type":[0,0,0,0,0,0,0,0,0,0,0,0,0,0,0],"sum_hessian":[1.7507483E2,9.155119E1,8.3523636E1,3.4157944E1,5.739325E1,7.719722E1,6.326417E0,3.8360035E0,3.032194E1,9.5297575E0,4.786349E1,4.922474E0,7.227474E1,3.0528653E0,3.2735517E0],"tree_param":{"num_deleted":"0","num_feature":"46","num_nodes":"15","size_leaf_vector":"1"}},{"base_weights":[2.774441E-4,-2.6287723E-1,5.7300144E-1,-7.5949603E-1,-5.5211294E-2,-5.395008E-2,6.4489645E-1,-4.8118144E-2,8.006292E-3,-2.668183E-2,7.7343867E-3,-7.1840716E-4,4.3733172E-2],"categories":[],"categories_nodes":[],"categories_segments":[],"categories_sizes":[],"default_left":[0,0,0,0,0,0,0,0,0,0,0,0,0],"id":9,"left_children":[1,3,5,7,9,-1,11,-1,-1,-1,-1,-1,-1],"loss_changes":[2.6518873E1,1.2391519E1,7.2750683E0,6.7714176E0,8.727792E0,0E0,8.148411E0,0E0,0E0,0E0,0E0,0E0,0E0],"parents":[2147483647,0,0,1,1,2,2,3,3,4,4,6,6],"right_children":[2,4,6,8,10,-1,12,-1,-1,-1,-1,-1,-1],"split_conditions":[8.41284E2,4.7943446E-1,-2.1604693E0,2.0727432E-1,6.7373517E2,-5.395008E-2,-2.497804E0,-4.8118144E-2,8.006292E-3,-2.668183E-2,7.7343867E-3,-7.1840716E-4,4.3733172E-2],"split_indices":[41,40,27,30,41,0,8,0,0,0,0,0,0],"split_type":[0,0,0,0,0,0,0,0,0,0,0,0,0],"sum_hessian":[1.7395436E2,1.19560036E2,5.439432E1,3.4470028E1,8.509001E1,1.6843069E0,5.2710014E1,2.8202198E1,6.2678285E0,2.5477196E1,5.9612816E1,1.3864996E1,3.884502E1],"tree_param":{"num_deleted":"0","num_feature":"46","num_nodes":"13","size_leaf_vector":"1"}},{"base_weights":[-5.448934E-2,-5.582773E-1,2.2667906E-1,9.357563E-1,-6.70717E-1,2.545944E-3,5.616099E-1,1.41969025E-2,6.367702E-2,-3.8505442E-2,2.0823782E-2,-1.343697E-2,2.8756995E-2,-2.9224718E-2,3.664133E-2],"categories":[],"categories_nodes":[],"categories_segments":[],"categories_sizes":[],"default_left":[0,0,0,0,0,0,0,0,0,0,0,0,0,0,0],"id":10,"left_children":[1,3,5,7,9,11,13,-1,-1,-1,-1,-1,-1,-1,-1],"loss_changes":[2.577368E1,1.1571102E1,8.775404E0,7.3420954E-1,6.9303226E0,1.1190972E1,9.625398E0,0E0,0E0,0E0,0E0,0E0,0E0,0E0,0E0],"parents":[2147483647,0,0,1,1,2,2,3,3,4,4,5,5,6,6],"right_children":[2,4,6,8,10,12,14,-1,-1,-1,-1,-1,-1,-1,-1],"split_conditions":[7.3468524E2,-5.4340444E0,5.5207604E-1,1.4946615E3,3.6666667E-1,9.054042E2,5E-1,1.41969025E-2,6.367702E-2,-3.8505442E-2,2.0823782E-2,-1.343697E-2,2.8756995E-2,-2.9224718E-2,3.664133E-2],"split_indices":[41,13,40,26,4,41,20,0,0,0,0,0,0,0,0],"split_type":[0,0,0,0,0,0,0,0,0,0,0,0,0,0,0],"sum_hessian":[1.8006084E2,6.414409E1,1.1591675E2,3.9770515E0,6.0167034E1,7.004846E1,4.5868282E1,1.9857537E0,1.9912977E0,5.539449E1,4.7725444E0,4.7889767E1,2.21587E1,5.647931E0,4.0220352E1],"tree_param":{"num_deleted":"0","num_feature":"46","num_nodes":"15","size_leaf_vector":"1"}},{"base_weights":[3.0362425E-2,-4.695286E-1,3.2618135E-1,-5.932726E-1,4.0746766E-1,-4.636979E-1,4.4900185E-1,1.09686436E-4,-4.4395056E-2,5.3448655E-2,-2.3483764E-2,5.0473314E-2,-3.2732558E-2,3.525407E-2,3.7950207E-3],"categories":[],"categories_nodes":[],"categories_segments":[],"categories_sizes":[],"default_left":[0,0,0,0,0,0,0,0,0,0,0,0,0,0,0],"id":11,"left_children":[1,3,5,7,9,11,13,-1,-1,-1,-1,-1,-1,-1,-1],"loss_changes":[2.5245258E1,7.1321E0,1.060705E1,9.835142E0,5.401454E0,4.856889E0,8.858177E0,0E0,0E0,0E0,0E0,0E0,0E0,0E0,0E0],"parents":[2147483647,0,0,1,1,2,2,3,3,4,4,5,5,6,6],"right_children":[2,4,6,8,10,12,14,-1,-1,-1,-1,-1,-1,-1,-1],"split_conditions":[7.3468524E2,3.6666667E-1,4.443284E-1,-4.520402E0,1.4993857E3,-9.621947E-1,1.5035759E3,1.09686436E-4,-4.4395056E-2,5.3448655E-2,-2.3483764E-2,5.0473314E-2,-3.2732558E-2,3.525407E-2,3.7950207E-3],"split_indices":[41,4,40,8,39,27,25,0,0,0,0,0,0,0,0],"split_type":[0,0,0,0,0,0,0,0,0,0,0,0,0,0,0],"sum_hessian":[1.68682E2,6.2492146E1,1.06189865E2,5.504835E1,7.4437947E0,1.3916312E1,9.227355E1,1.8549984E1,3.6498367E1,4.118837E0,3.3249576E0,1.1050013E0,1.2811311E1,5.419016E1,3.8083393E1],"tree_param":{"num_deleted":"0","num_feature":"46","num_nodes":"15","size_leaf_vector":"1"}},{"base_weights":[3.2120477E-2,-2.2149989E-1,4.1475207E-1,-4.4759932E-1,2.2680004E-1,-2.0827486E-1,6.38796E-1,3.1476345E-2,-2.787762E-2,1.6474357E-2,-5.4818895E-2,-3.522803E-2,2.31278E-2,4.3758586E-2,6.029457E-3],"categories":[],"categories_nodes":[],"categories_segments":[],"categories_sizes":[],"default_left":[0,0,0,0,0,0,0,0,0,0,0,0,0,0,0],"id":12,"left_children":[1,3,5,7,9,11,13,-1,-1,-1,-1,-1,-1,-1,-1],"loss_changes":[1.7276215E1,1.0961724E1,1.0034515E1,8.826027E0,5.3321714E0,6.823193E0,6.315346E0,0E0,0E0,0E0,0E0,0E0,0E0,0E0,0E0],"parents":[2147483647,0,0,1,1,2,2,3,3,4,4,5,5,6,6],"right_children":[2,4,6,8,10,12,14,-1,-1,-1,-1,-1,-1,-1,-1],"split_conditions":[5.5207604E-1,8.226069E2,-2.6046033E0,9.131916E-1,1.635794E3,1.23333335E-1,1.1E1,3.1476345E-2,-2.787762E-2,1.6474357E-2,-5.4818895E-2,-3.522803E-2,2.31278E-2,4.3758586E-2,6.029457E-3],"split_indices":[40,41,45,43,38,4,32,0,0,0,0,0,0,0,0],"split_type":[0,0,0,0,0,0,0,0,0,0,0,0,0,0,0],"sum_hessian":[1.7607939E2,1.0614454E2,6.993485E1,7.055951E1,3.558503E1,1.8515863E1,5.141899E1,6.097874E0,6.446164E1,3.371919E1,1.865838E0,1.0613578E1,7.9022856E0,3.483874E1,1.658025E1],"tree_param":{"num_deleted":"0","num_feature":"46","num_nodes":"15","size_leaf_vector":"1"}},{"base_weights":[-1.016398E-2,-3.6579564E-1,1.7953978E-1,-6.939599E-1,1.5867528E-1,8.1609204E-2,1.1217641E0,-3.844939E-3,-4.7921654E-2,-4.39692E-2,2.4974927E-2,1.8026622E-2,-1.3838661E-2,7.147332E-2,-3.317306E-2],"categories":[],"categories_nodes":[],"categories_segments":[],"categories_sizes":[],"default_left":[0,0,0,0,0,0,0,0,0,0,0,0,0,0,0],"id":13,"left_children":[1,3,5,7,9,11,13,-1,-1,-1,-1,-1,-1,-1,-1],"loss_changes":[1.1683382E1,1.0477021E1,1.0332581E1,6.0031796E0,8.929134E0,1.04370985E1,6.7479677E0,0E0,0E0,0E0,0E0,0E0,0E0,0E0,0E0],"parents":[2147483647,0,0,1,1,2,2,3,3,4,4,5,5,6,6],"right_children":[2,4,6,8,10,12,14,-1,-1,-1,-1,-1,-1,-1,-1],"split_conditions":[5.0642675E-1,8.020798E2,1.5462855E3,-1.5333334E-1,-3.8524903E-2,1.5028652E3,1.0271057E0,-3.844939E-3,-4.7921654E-2,-4.39692E-2,2.4974927E-2,1.8026622E-2,-1.3838661E-2,7.147332E-2,-3.317306E-2],"split_indices":[40,41,39,3,44,25,27,0,0,0,0,0,0,0,0],"split_type":[0,0,0,0,0,0,0,0,0,0,0,0,0,0,0],"sum_hessian":[1.7120433E2,5.9233295E1,1.1197104E2,3.6236664E1,2.2996634E1,1.0241328E2,9.557764E0,1.1258778E1,2.4977884E1,5.293582E0,1.7703053E1,5.7587704E1,4.4825573E1,8.322562E0,1.2352021E0],"tree_param":{"num_deleted":"0","num_feature":"46","num_nodes":"15","size_leaf_vector":"1"}},{"base_weights":[-3.713412E-2,-2.3492289E-1,4.2357728E-1,-4.2874643E-1,3.3126643E-1,1.416107E-1,8.4062904E-1,-6.38402E-2,-1.572994E-2,4.7775444E-2,-6.796609E-3,4.805933E-2,-5.9382096E-3,5.4628726E-2,-9.617537E-3],"categories":[],"categories_nodes":[],"categories_segments":[],"categories_sizes":[],"default_left":[0,0,0,0,0,0,0,0,0,0,0,0,0,0,0],"id":14,"left_children":[1,3,5,7,9,11,13,-1,-1,-1,-1,-1,-1,-1,-1],"loss_changes":[1.5615612E1,1.3286163E1,5.937215E0,8.278187E0,9.202901E0,6.9277997E0,5.5640287E0,0E0,0E0,0E0,0E0,0E0,0E0,0E0,0E0],"parents":[2147483647,0,0,1,1,2,2,3,3,4,4,5,5,6,6],"right_children":[2,4,6,8,10,12,14,-1,-1,-1,-1,-1,-1,-1,-1],"split_conditions":[8.4191986E2,5.7923245E-1,1.6E-1,1.4764781E3,9.8628825E-1,3E0,6.130684E0,-6.38402E-2,-1.572994E-2,4.7775444E-2,-6.796609E-3,4.805933E-2,-5.9382096E-3,5.4628726E-2,-9.617537E-3],"split_indices":[41,40,3,25,43,32,8,0,0,0,0,0,0,0,0],"split_type":[0,0,0,0,0,0,0,0,0,0,0,0,0,0,0],"sum_hessian":[1.6927545E2,1.1877434E2,5.0501118E1,8.866456E1,3.0109777E1,3.0929436E1,1.9571684E1,9.310064E0,7.93545E1,1.2441293E1,1.7668486E1,6.808122E0,2.4121313E1,1.568773E1,3.8839536E0],"tree_param":{"num_deleted":"0","num_feature":"46","num_nodes":"15","size_leaf_vector":"1"}},{"base_weights":[4.4194125E-2,-1.1979337E-1,4.220182E-1,-9.373798E-1,-1.0679719E-2,9.7538835E-1,1.555001E-1,-6.2896065E-2,2.2259125E-2,-8.430264E-3,2.4571348E-2,-1.7628117E-2,5.7256598E-2,-7.060235E-2,1.9065201E-2],"categories":[],"categories_nodes":[],"categories_segments":[],"categories_sizes":[],"default_left":[0,0,0,0,0,0,0,0,0,0,0,0,0,0,0],"id":15,"left_children":[1,3,5,7,9,11,13,-1,-1,-1,-1,-1,-1,-1,-1],"loss_changes":[1.0761418E1,1.0813679E1,7.5975895E0,6.885886E0,8.651069E0,4.2110195E0,1.3512035E1,0E0,0E0,0E0,0E0,0E0,0E0,0E0,0E0],"parents":[2147483647,0,0,1,1,2,2,3,3,4,4,5,5,6,6],"right_children":[2,4,6,8,10,12,14,-1,-1,-1,-1,-1,-1,-1,-1],"split_conditions":[8.41284E2,1.4764781E3,1.4925093E3,7.044121E1,5.7923245E-1,-2.0297943E1,1.4954983E3,-6.2896065E-2,2.2259125E-2,-8.430264E-3,2.4571348E-2,-1.7628117E-2,5.7256598E-2,-7.060235E-2,1.9065201E-2],"split_indices":[41,25,26,1,40,1,26,0,0,0,0,0,0,0,0],"split_type":[0,0,0,0,0,0,0,0,0,0,0,0,0,0,0],"sum_hessian":[1.718718E2,1.2032843E2,5.1543373E1,1.3274206E1,1.0705422E2,1.5890424E1,3.565295E1,1.084905E1,2.4251568E0,8.1944695E1,2.5109526E1,1.6789004E0,1.4211523E1,3.8276575E0,3.182529E1],"tree_param":{"num_deleted":"0","num_feature":"46","num_nodes":"15","size_leaf_vector":"1"}},{"base_weights":[1.2198114E-2,-6.673382E-1,1.471539E-1,-7.429579E-2,-2.9640186E-1,-1.9719303E-1,3.3507758E-1,-3.0457318E-2,2.8195202E-2,-2.984598E-2,9.649956E-3,2.9830828E-2,-7.586541E-4],"categories":[],"categories_nodes":[],"categories_segments":[],"categories_sizes":[],"default_left":[0,0,0,0,0,0,0,0,0,0,0,0,0],"id":16,"left_children":[1,3,5,-1,7,9,11,-1,-1,-1,-1,-1,-1],"loss_changes":[1.5496813E1,8.062184E0,9.184369E0,0E0,5.8643274E0,7.97276E0,8.393535E0,0E0,0E0,0E0,0E0,0E0,0E0],"parents":[2147483647,0,0,1,1,2,2,4,4,5,5,6,6],"right_children":[2,4,6,-1,8,10,12,-1,-1,-1,-1,-1,-1],"split_conditions":[4.6116695E-1,1.4849176E3,7.3468524E2,-7.429579E-2,8.5244794E2,1.542121E1,1.5025199E3,-3.0457318E-2,2.8195202E-2,-2.984598E-2,9.649956E-3,2.9830828E-2,-7.586541E-4],"split_indices":[40,25,41,0,41,45,25,0,0,0,0,0,0],"split_type":[0,0,0,0,0,0,0,0,0,0,0,0,0],"sum_hessian":[1.6691032E2,2.7002264E1,1.3990805E2,7.483008E0,1.9519257E1,4.9378582E1,9.052947E1,1.4529376E1,4.9898796E0,2.4129581E1,2.5249E1,5.142559E1,3.910388E1],"tree_param":{"num_deleted":"0","num_feature":"46","num_nodes":"13","size_leaf_vector":"1"}},{"base_weights":[-7.660743E-2,-4.7150332E-1,1.1806712E-1,-6.227601E-1,5.3077424E-1,-9.26016E-2,4.4621256E-1,2.505788E-2,-3.6684353E-2,-4.965655E-3,6.336144E-2,-2.1830607E-2,9.45898E-3,-1.2749172E-2,3.3625014E-2],"categories":[],"categories_nodes":[],"categories_segments":[],"categories_sizes":[],"default_left":[0,0,0,0,0,0,0,0,0,0,0,0,0,0,0],"id":17,"left_children":[1,3,5,7,9,11,13,-1,-1,-1,-1,-1,-1,-1,-1],"loss_changes":[1.3196474E1,8.917611E0,8.011473E0,6.560852E0,3.822827E0,6.969177E0,7.351306E0,0E0,0E0,0E0,0E0,0E0,0E0,0E0,0E0],"parents":[2147483647,0,0,1,1,2,2,3,3,4,4,5,5,6,6],"right_children":[2,4,6,8,10,12,14,-1,-1,-1,-1,-1,-1,-1,-1],"split_conditions":[7.2951917E2,3.1E-1,5.5207604E-1,1.4528596E3,1.5060532E3,-3.3330582E-3,-4.936769E0,2.505788E-2,-3.6684353E-2,-4.965655E-3,6.336144E-2,-2.1830607E-2,9.45898E-3,-1.2749172E-2,3.3625014E-2],"split_indices":[41,4,40,38,25,2,45,0,0,0,0,0,0,0,0],"split_type":[0,0,0,0,0,0,0,0,0,0,0,0,0,0,0],"sum_hessian":[1.6993468E2,5.5642426E1,1.1429226E2,4.8675335E1,6.9670906E0,7.0042755E1,4.4249504E1,4.056522E0,4.4618813E1,4.2209373E0,2.7461536E0,3.12914E1,3.8751354E1,1.0765065E1,3.348444E1],"tree_param":{"num_deleted":"0","num_feature":"46","num_nodes":"15","size_leaf_vector":"1"}},{"base_weights":[-1.3015256E-3,-6.4392316E-1,1.7148319E-1,-2.1769062E-1,-1.0342274E0,-2.1085772E-1,3.404366E-1,-3.7948083E-2,1.4352414E-2,-6.042985E-2,-2.5206213E-3,-2.0695116E-2,6.454732E-2,-1.1426708E-2,2.661264E-2],"categories":[],"categories_nodes":[],"categories_segments":[],"categories_sizes":[],"default_left":[0,0,0,0,0,0,0,0,0,0,0,0,0,0,0],"id":18,"left_children":[1,3,5,7,9,11,13,-1,-1,-1,-1,-1,-1,-1,-1],"loss_changes":[1.9138199E1,5.8508415E0,8.8470125E0,5.333427E0,3.1638927E0,1.3417518E1,1.0445512E1,0E0,0E0,0E0,0E0,0E0,0E0,0E0,0E0],"parents":[2147483647,0,0,1,1,2,2,3,3,4,4,5,5,6,6],"right_children":[2,4,6,8,10,12,14,-1,-1,-1,-1,-1,-1,-1,-1],"split_conditions":[6.8478485E2,1.1280127E-2,-3.143919E0,-1.8759511E-2,6.2011383E-2,1.542645E3,4.653651E-1,-3.7948083E-2,1.4352414E-2,-6.042985E-2,-2.5206213E-3,-2.0695116E-2,6.454732E-2,-1.1426708E-2,2.661264E-2],"split_indices":[41,44,45,44,44,39,40,0,0,0,0,0,0,0,0],"split_type":[0,0,0,0,0,0,0,0,0,0,0,0,0,0,0],"sum_hessian":[1.703671E2,3.5523014E1,1.3484409E2,1.7724588E1,1.7798426E1,4.1249226E1,9.359486E1,8.309736E0,9.414853E0,1.4924717E1,2.8737082E0,3.6974636E1,4.2745905E0,2.354968E1,7.004517E1],"tree_param":{"num_deleted":"0","num_feature":"46","num_nodes":"15","size_leaf_vector":"1"}},{"base_weights":[5.043158E-2,-1.7852098E-1,2.928422E-1,-3.249216E-2,-8.663233E-1,7.4371827E-1,1.3117075E-1,-2.9851666E-2,1.0560959E-2,-1.5657654E-2,-7.741787E-2,5.9337713E-2,1.9141762E-2,1.6607368E-2,-1.1145338E-2],"categories":[],"categories_nodes":[],"categories_segments":[],"categories_sizes":[],"default_left":[0,0,0,0,0,0,0,0,0,0,0,0,0,0,0],"id":19,"left_children":[1,3,5,7,9,11,13,-1,-1,-1,-1,-1,-1,-1,-1],"loss_changes":[9.31712E0,8.656866E0,5.8405113E0,1.008258E1,5.213813E0,2.9490156E0,4.4273686E0,0E0,0E0,0E0,0E0,0E0,0E0,0E0,0E0],"parents":[2147483647,0,0,1,1,2,2,3,3,4,4,5,5,6,6],"right_children":[2,4,6,8,10,12,14,-1,-1,-1,-1,-1,-1,-1,-1],"split_conditions":[7.8134344E2,8.9460605E-1,-1.6666667E-1,4.7943446E-1,8.655878E-3,-4.5862353E-1,1.502936E3,-2.9851666E-2,1.0560959E-2,-1.5657654E-2,-7.741787E-2,5.9337713E-2,1.9141762E-2,1.6607368E-2,-1.1145338E-2],"split_indices":[41,27,4,40,2,28,25,0,0,0,0,0,0,0,0],"split_type":[0,0,0,0,0,0,0,0,0,0,0,0,0,0,0],"sum_hessian":[1.6593245E2,8.5470566E1,8.0461876E1,7.1365944E1,1.410462E1,2.0286333E1,6.0175545E1,2.1081738E1,5.0284206E1,8.593736E0,5.510885E0,8.079326E0,1.2207008E1,3.842641E1,2.1749136E1],"tree_param":{"num_deleted":"0","num_feature":"46","num_nodes":"15","size_leaf_vector":"1"}},{"base_weights":[1.482778E-3,-2.2423874E-1,2.6578137E-1,-6.4184433E-1,-2.4722507E-3,3.5298777E-1,-5.6030405E-1,1.5916636E-2,-3.8851585E-2,3.4756362E-2,-1.2923251E-2,-8.051681E-3,2.4387171E-2,2.619034E-2,-5.5192746E-2],"categories":[],"categories_nodes":[],"categories_segments":[],"categories_sizes":[],"default_left":[0,0,0,0,0,0,0,0,0,0,0,0,0,0,0],"id":20,"left_children":[1,3,5,7,9,11,13,-1,-1,-1,-1,-1,-1,-1,-1],"loss_changes":[1.0417582E1,8.72127E0,5.992302E0,4.487442E0,1.1345023E1,5.1605444E0,5.3317757E0,0E0,0E0,0E0,0E0,0E0,0E0,0E0,0E0],"parents":[2147483647,0,0,1,1,2,2,3,3,4,4,5,5,6,6],"right_children":[2,4,6,8,10,12,14,-1,-1,-1,-1,-1,-1,-1,-1],"split_conditions":[7.885464E2,4.9239212E-1,1.3074603E2,1.4698882E3,-4.773719E0,-2.9618008E1,-8.245857E-3,1.5916636E-2,-3.8851585E-2,3.4756362E-2,-1.2923251E-2,-8.051681E-3,2.4387171E-2,2.619034E-2,-5.5192746E-2],"split_indices":[41,40,30,38,8,30,44,0,0,0,0,0,0,0,0],"split_type":[0,0,0,0,0,0,0,0,0,0,0,0,0,0,0],"sum_hessian":[1.7262306E2,9.31882E1,7.943486E1,3.1665352E1,6.1522846E1,7.236797E1,7.0668874E0,3.7408645E0,2.7924486E1,1.605536E1,4.5467487E1,1.4990845E1,5.7377125E1,2.372088E0,4.6947994E0],"tree_param":{"num_deleted":"0","num_feature":"46","num_nodes":"15","size_leaf_vector":"1"}},{"base_weights":[-9.041007E-3,-2.2014762E-1,2.2876777E-1,-7.1579957E-1,5.6926303E-2,9.252754E-1,1.5059406E-1,2.144574E-2,-4.1156176E-2,2.3030348E-2,-1.2184401E-2,5.850869E-2,-4.9447245E-4,-2.3857958E-3,2.8207023E-2],"categories":[],"categories_nodes":[],"categories_segments":[],"categories_sizes":[],"default_left":[0,0,0,0,0,0,0,0,0,0,0,0,0,0,0],"id":21,"left_children":[1,3,5,7,9,11,13,-1,-1,-1,-1,-1,-1,-1,-1],"loss_changes":[8.687601E0,1.2627179E1,4.2925954E0,4.3994274E0,7.35859E0,1.8481803E0,6.1266303E0,0E0,0E0,0E0,0E0,0E0,0E0,0E0,0E0],"parents":[2147483647,0,0,1,1,2,2,3,3,4,4,5,5,6,6],"right_children":[2,4,6,8,10,12,14,-1,-1,-1,-1,-1,-1,-1,-1],"split_conditions":[7.8134344E2,5.0642675E-1,-4.1333333E-1,-1.1626644E2,-6.4251995E-1,8.8611945E2,2.7E-1,2.144574E-2,-4.1156176E-2,2.3030348E-2,-1.2184401E-2,5.850869E-2,-4.9447245E-4,-2.3857958E-3,2.8207023E-2],"split_indices":[41,40,3,30,28,41,3,0,0,0,0,0,0,0,0],"split_type":[0,0,0,0,0,0,0,0,0,0,0,0,0,0,0],"sum_hessian":[1.7104623E2,9.0649506E1,8.0396736E1,3.1936148E1,5.8713356E1,7.0194144E0,7.337732E1,2.4806924E0,2.9455456E1,2.4833462E1,3.3879894E1,5.363527E0,1.6558876E0,5.0192753E1,2.3184566E1],"tree_param":{"num_deleted":"0","num_feature":"46","num_nodes":"15","size_leaf_vector":"1"}},{"base_weights":[1.5038899E-1,-2.9848091E-2,5.465689E-1,1.9197732E-1,-3.450842E-1,-8.500259E-2,7.5073224E-1,-1.7558958E-2,1.8788652E-2,3.9503913E-2,-2.5221173E-2,2.853497E-2,-3.306431E-2,4.6156634E-2,-5.1752008E-3],"categories":[],"categories_nodes":[],"categories_segments":[],"categories_sizes":[],"default_left":[0,0,0,0,0,0,0,0,0,0,0,0,0,0,0],"id":22,"left_children":[1,3,5,7,9,11,13,-1,-1,-1,-1,-1,-1,-1,-1],"loss_changes":[1.1994087E1,8.194547E0,6.8336134E0,7.007325E0,9.147205E0,5.5633254E0,5.953663E0,0E0,0E0,0E0,0E0,0E0,0E0,0E0,0E0],"parents":[2147483647,0,0,1,1,2,2,3,3,4,4,5,5,6,6],"right_children":[2,4,6,8,10,12,14,-1,-1,-1,-1,-1,-1,-1,-1],"split_conditions":[5.6162524E-1,1.502936E3,-5.900095E0,-3.1666666E-1,-4.6E-1,1.4999141E3,9.38782E-1,-1.7558958E-2,1.8788652E-2,3.9503913E-2,-2.5221173E-2,2.853497E-2,-3.306431E-2,4.6156634E-2,-5.1752008E-3],"split_indices":[40,25,45,3,3,26,27,0,0,0,0,0,0,0,0],"split_type":[0,0,0,0,0,0,0,0,0,0,0,0,0,0,0],"sum_hessian":[1.6674112E2,1.1523916E2,5.1501953E1,6.787081E1,4.7368347E1,1.2724099E1,3.8777855E1,1.6929562E1,5.094125E1,5.3432903E0,4.2025055E1,5.9564605E0,6.767638E0,3.219888E1,6.5789747E0],"tree_param":{"num_deleted":"0","num_feature":"46","num_nodes":"15","size_leaf_vector":"1"}},{"base_weights":[-4.3498572E-2,-1.91082E-1,2.4801871E-1,-8.229849E-1,-9.177489E-2,3.328047E-1,-6.134329E-1,-5.3635348E-2,1.9863728E-2,7.157912E-3,-1.7613871E-2,-4.3707073E-2,1.9679355E-2,-4.5174655E-2,1.7384568E-2],"categories":[],"categories_nodes":[],"categories_segments":[],"categories_sizes":[],"default_left":[0,0,0,0,0,0,0,0,0,0,0,0,0,0,0],"id":23,"left_children":[1,3,5,7,9,11,13,-1,-1,-1,-1,-1,-1,-1,-1],"loss_changes":[7.5207963E0,7.196729E0,4.5002112E0,5.1839876E0,6.2485023E0,4.3199697E0,1.8814759E0,0E0,0E0,0E0,0E0,0E0,0E0,0E0,0E0],"parents":[2147483647,0,0,1,1,2,2,3,3,4,4,5,5,6,6],"right_children":[2,4,6,8,10,12,14,-1,-1,-1,-1,-1,-1,-1,-1],"split_conditions":[8.241032E2,1.4764781E3,1.3074603E2,7.163533E1,1.5033229E3,-2.1604693E0,3.6039218E-1,-5.3635348E-2,1.9863728E-2,7.157912E-3,-1.7613871E-2,-4.3707073E-2,1.9679355E-2,-4.5174655E-2,1.7384568E-2],"split_indices":[41,25,30,1,25,27,27,0,0,0,0,0,0,0,0],"split_type":[0,0,0,0,0,0,0,0,0,0,0,0,0,0,0],"sum_hessian":[1.727067E2,1.1488805E2,5.781865E1,1.461348E1,1.0027457E2,5.319659E1,4.6220584E0,1.2231302E1,2.3821769E0,5.296171E1,4.731285E1,1.9089694E0,5.128762E1,3.596595E0,1.0254633E0],"tree_param":{"num_deleted":"0","num_feature":"46","num_nodes":"15","size_leaf_vector":"1"}},{"base_weights":[5.7446416E-2,-1.01058595E-2,6.967347E-1,-6.466355E-2,6.890664E-1,1.2171654E0,-2.1735825E-1,-2.8650839E-2,4.14177E-4,3.3821014E-3,5.7805967E-2,7.070079E-2,4.78448E-3,3.3172593E-2,-5.524674E-2],"categories":[],"categories_nodes":[],"categories_segments":[],"categories_sizes":[],"default_left":[0,0,0,0,0,0,0,0,0,0,0,0,0,0,0],"id":24,"left_children":[1,3,5,7,9,11,13,-1,-1,-1,-1,-1,-1,-1,-1],"loss_changes":[7.279507E0,5.8919477E0,7.927623E0,5.3117213E0,3.1671472E0,2.1641302E0,5.965098E0,0E0,0E0,0E0,0E0,0E0,0E0,0E0,0E0],"parents":[2147483647,0,0,1,1,2,2,3,3,4,4,5,5,6,6],"right_children":[2,4,6,8,10,12,14,-1,-1,-1,-1,-1,-1,-1,-1],"split_conditions":[1.0427948E-2,1.5964734E3,1.5089742E3,1.4791145E3,1.2966355E0,8E-1,5.7947004E-1,-2.8650839E-2,4.14177E-4,3.3821014E-3,5.7805967E-2,7.070079E-2,4.78448E-3,3.3172593E-2,-5.524674E-2],"split_indices":[42,38,25,25,5,27,8,0,0,0,0,0,0,0,0],"split_type":[0,0,0,0,0,0,0,0,0,0,0,0,0,0,0],"sum_hessian":[1.6740111E2,1.5229283E2,1.5108276E1,1.4211115E2,1.018168E1,9.415876E0,5.6924E0,1.69732E1,1.25137955E2,4.8600717E0,5.3216076E0,7.78801E0,1.6278663E0,2.9838302E0,2.7085698E0],"tree_param":{"num_deleted":"0","num_feature":"46","num_nodes":"15","size_leaf_vector":"1"}},{"base_weights":[-1.038446E-2,-2.246771E-1,2.5837037E-1,2.142218E-1,-4.0213278E-1,-4.3680975E-1,3.7670368E-1,-2.5140347E-3,7.915395E-2,6.7452006E-2,-2.3879519E-2,2.5027782E-2,-5.21706E-2,2.322657E-2,-4.3272153E-2],"categories":[],"categories_nodes":[],"categories_segments":[],"categories_sizes":[],"default_left":[0,0,0,0,0,0,0,0,0,0,0,0,0,0,0],"id":25,"left_children":[1,3,5,7,9,11,13,-1,-1,-1,-1,-1,-1,-1,-1],"loss_changes":[9.933634E0,7.5583396E0,6.4606013E0,1.0316765E1,9.717554E0,7.1158104E0,7.5957193E0,0E0,0E0,0E0,0E0,0E0,0E0,0E0,0E0],"parents":[2147483647,0,0,1,1,2,2,3,3,4,4,5,5,6,6],"right_children":[2,4,6,8,10,12,14,-1,-1,-1,-1,-1,-1,-1,-1],"split_conditions":[7.885464E2,-4.520402E0,-2.7309555E1,-1.4930583E0,-7.703771E1,-5.9432793E0,1.5686139E2,-2.5140347E-3,7.915395E-2,6.7452006E-2,-2.3879519E-2,2.5027782E-2,-5.21706E-2,2.322657E-2,-4.3272153E-2],"split_indices":[41,8,45,5,1,8,30,0,0,0,0,0,0,0,0],"split_type":[0,0,0,0,0,0,0,0,0,0,0,0,0,0,0],"sum_hessian":[1.7047438E2,9.493868E1,7.55357E1,2.7274303E1,6.766438E1,1.0595906E1,6.493979E1,2.3664845E1,3.6094594E0,2.0979671E0,6.5566414E1,4.231661E0,6.3642454E0,6.1236034E1,3.7037532E0],"tree_param":{"num_deleted":"0","num_feature":"46","num_nodes":"15","size_leaf_vector":"1"}},{"base_weights":[2.7801938E-2,-4.1183305E-1,1.302784E-1,1.0370288E0,-6.318635E-1,3.6068824E-1,-1.079404E-1,-5.1789717E-3,7.511687E-2,-4.4418298E-2,-4.1116057E-3,-1.6647901E-2,2.6339596E-2,-1.48175135E-2,1.7499754E-2],"categories":[],"categories_nodes":[],"categories_segments":[],"categories_sizes":[],"default_left":[0,0,0,0,0,0,0,0,0,0,0,0,0,0,0],"id":26,"left_children":[1,3,5,7,9,11,13,-1,-1,-1,-1,-1,-1,-1,-1],"loss_changes":[7.536768E0,1.0741348E1,7.4740744E0,2.5703878E0,3.8869019E0,8.135656E0,5.9164815E0,0E0,0E0,0E0,0E0,0E0,0E0,0E0,0E0],"parents":[2147483647,0,0,1,1,2,2,3,3,4,4,5,5,6,6],"right_children":[2,4,6,8,10,12,14,-1,-1,-1,-1,-1,-1,-1,-1],"split_conditions":[4.6116695E-1,-7.964149E1,1.5003547E3,-2.0004308E0,8.263965E2,1.4757562E3,1.8666667E-1,-5.1789717E-3,7.511687E-2,-4.4418298E-2,-4.1116057E-3,-1.6647901E-2,2.6339596E-2,-1.48175135E-2,1.7499754E-2],"split_indices":[40,30,25,5,41,25,3,0,0,0,0,0,0,0,0],"split_type":[0,0,0,0,0,0,0,0,0,0,0,0,0,0,0],"sum_hessian":[1.6509865E2,3.0638288E1,1.3446036E2,3.5498745E0,2.7088413E1,6.808913E1,6.637123E1,1.2538114E0,2.2960632E0,1.8048998E1,9.039415E0,1.2960747E1,5.512838E1,4.727399E1,1.9097237E1],"tree_param":{"num_deleted":"0","num_feature":"46","num_nodes":"15","size_leaf_vector":"1"}},{"base_weights":[-1.4802509E-2,-1.0028352E-1,4.62136E-1,-5.2699022E-2,-1.0405037E0,5.9109706E-1,-4.5870878E-2,-3.635868E-4,-5.119654E-2,6.157648E-5,-6.585333E-2,4.23589E-2,-4.058889E-3],"categories":[],"categories_nodes":[],"categories_segments":[],"categories_sizes":[],"default_left":[0,0,0,0,0,0,0,0,0,0,0,0,0],"id":27,"left_children":[1,3,5,7,9,11,-1,-1,-1,-1,-1,-1,-1],"loss_changes":[7.0307984E0,6.481692E0,5.2064147E0,6.17453E0,2.0139222E0,4.300967E0,0E0,0E0,0E0,0E0,0E0,0E0,0E0],"parents":[2147483647,0,0,1,1,2,2,3,3,4,4,5,5],"right_children":[2,4,6,8,10,12,-1,-1,-1,-1,-1,-1,-1],"split_conditions":[9.2635614E2,1.4630533E2,1.577747E3,1.4210855E-14,-3.952556E-1,1.502936E3,-4.5870878E-2,-3.635868E-4,-5.119654E-2,6.157648E-5,-6.585333E-2,4.23589E-2,-4.058889E-3],"split_indices":[41,30,39,7,27,25,0,0,0,0,0,0,0],"split_type":[0,0,0,0,0,0,0,0,0,0,0,0,0],"sum_hessian":[1.7031699E2,1.4510056E2,2.521643E1,1.3911595E2,5.9846015E0,2.358338E1,1.6330512E0,1.3386232E2,5.253636E0,1.4643495E0,4.5202518E0,1.6889656E1,6.6937237E0],"tree_param":{"num_deleted":"0","num_feature":"46","num_nodes":"13","size_leaf_vector":"1"}},{"base_weights":[-3.4173455E-2,-7.973226E-1,3.1613827E-2,3.1773366E-2,-1.024608E0,8.377038E-2,-8.095337E-1,-5.7909515E-2,7.7468604E-3,8.950174E-4,3.9066404E-2,2.0865532E-2,-5.7316344E-2],"categories":[],"categories_nodes":[],"categories_segments":[],"categories_sizes":[],"default_left":[0,0,0,0,0,0,0,0,0,0,0,0,0],"id":28,"left_children":[1,3,5,-1,7,9,11,-1,-1,-1,-1,-1,-1],"loss_changes":[8.423199E0,4.986659E0,6.8660707E0,0E0,2.0503063E0,6.7320137E0,4.255462E0,0E0,0E0,0E0,0E0,0E0,0E0],"parents":[2147483647,0,0,1,1,2,2,4,4,5,5,6,6],"right_children":[2,4,6,-1,8,10,12,-1,-1,-1,-1,-1,-1],"split_conditions":[5.887055E2,5E-1,1.4630533E2,3.1773366E-2,1.8666667E-1,1.2400695E-2,1.482221E3,-5.7909515E-2,7.7468604E-3,8.950174E-4,3.9066404E-2,2.0865532E-2,-5.7316344E-2],"split_indices":[41,21,30,0,4,42,25,0,0,0,0,0,0],"split_type":[0,0,0,0,0,0,0,0,0,0,0,0,0],"sum_hessian":[1.6627232E2,1.2313453E1,1.5395888E2,1.4399866E0,1.08734665E1,1.4581766E2,8.141221E0,9.783589E0,1.0898772E0,1.3417339E2,1.1644264E1,1.7020509E0,6.4391704E0],"tree_param":{"num_deleted":"0","num_feature":"46","num_nodes":"13","size_leaf_vector":"1"}},{"base_weights":[2.6163496E-2,-5.010271E-1,1.20018855E-1,9.3640155E-1,-7.8152835E-1,1.0455968E0,4.6388738E-2,6.7831255E-2,1.4216627E-5,3.7437954E-3,-5.483503E-2,6.688019E-2,-3.1312596E-2,-2.83148E-4,6.2490053E-2],"categories":[],"categories_nodes":[],"categories_segments":[],"categories_sizes":[],"default_left":[0,0,0,0,0,0,0,0,0,0,0,0,0,0,0],"id":29,"left_children":[1,3,5,7,9,11,13,-1,-1,-1,-1,-1,-1,-1,-1],"loss_changes":[8.260685E0,1.0908611E1,9.594494E0,1.7997465E0,5.929534E0,5.9051914E0,8.282753E0,0E0,0E0,0E0,0E0,0E0,0E0,0E0,0E0],"parents":[2147483647,0,0,1,1,2,2,3,3,4,4,5,5,6,6],"right_children":[2,4,6,8,10,12,14,-1,-1,-1,-1,-1,-1,-1,-1],"split_conditions":[6.2900934E2,1.4542688E3,1.4741764E3,7.874941E-1,-7.4028254E0,3.646346E0,1.5478598E-1,6.7831255E-2,1.4216627E-5,3.7437954E-3,-5.483503E-2,6.688019E-2,-3.1312596E-2,-2.83148E-4,6.2490053E-2],"split_indices":[41,39,38,5,45,13,31,0,0,0,0,0,0,0,0],"split_type":[0,0,0,0,0,0,0,0,0,0,0,0,0,0,0],"sum_hessian":[1.6473581E2,2.424002E1,1.4049579E2,3.57608E0,2.066394E1,9.380183E0,1.311156E2,2.1581023E0,1.4179778E0,5.764025E0,1.4899916E1,8.155637E0,1.2245464E0,1.2663357E2,4.4820404E0],"tree_param":{"num_deleted":"0","num_feature":"46","num_nodes":"15","size_leaf_vector":"1"}},{"base_weights":[2.2161482E-2,-3.8610005E-1,1.3508873E-1,-4.9585333E-1,6.391413E-1,3.249189E-1,-1.8393858E-1,-3.9060045E-2,4.477905E-3,-1.805303E-2,5.7436377E-2,-5.0985864E-3,2.8959418E-2,1.8331096E-2,-1.9805253E-2],"categories":[],"categories_nodes":[],"categories_segments":[],"categories_sizes":[],"default_left":[0,0,0,0,0,0,0,0,0,0,0,0,0,0,0],"id":30,"left_children":[1,3,5,7,9,11,13,-1,-1,-1,-1,-1,-1,-1,-1],"loss_changes":[7.8315854E0,4.4600234E0,8.109364E0,5.7198696E0,2.4521585E0,9.143609E0,6.011853E0,0E0,0E0,0E0,0E0,0E0,0E0,0E0,0E0],"parents":[2147483647,0,0,1,1,2,2,3,3,4,4,5,5,6,6],"right_children":[2,4,6,8,10,12,14,-1,-1,-1,-1,-1,-1,-1,-1],"split_conditions":[6.7373517E2,6.630784E-1,1.5035759E3,1.1E1,1.2413533E1,-4.433721E-2,-6.3061014E-2,-3.9060045E-2,4.477905E-3,-1.805303E-2,5.7436377E-2,-5.0985864E-3,2.8959418E-2,1.8331096E-2,-1.9805253E-2],"split_indices":[41,40,25,32,45,2,2,0,0,0,0,0,0,0,0],"split_type":[0,0,0,0,0,0,0,0,0,0,0,0,0,0,0],"sum_hessian":[1.6773705E2,3.581986E1,1.3191719E2,3.2822525E1,2.9973347E0,8.269367E1,4.922352E1,2.1841742E1,1.0980785E1,1.1100407E0,1.887294E0,3.1092207E1,5.1601463E1,1.3489918E1,3.57336E1],"tree_param":{"num_deleted":"0","num_feature":"46","num_nodes":"15","size_leaf_vector":"1"}},{"base_weights":[5.706878E-2,-1.375033E-1,3.4460595E-1,1.9123755E-1,-3.3928165E-1,-6.125581E-1,4.7701308E-1,3.673205E-2,-5.692018E-3,-3.0530596E-2,4.671084E-3,-4.5671474E-2,2.2031518E-2,-1.0052769E-3,3.8875695E-2],"categories":[],"categories_nodes":[],"categories_segments":[],"categories_sizes":[],"default_left":[0,0,0,0,0,0,0,0,0,0,0,0,0,0,0],"id":31,"left_children":[1,3,5,7,9,11,13,-1,-1,-1,-1,-1,-1,-1,-1],"loss_changes":[9.662142E0,6.911227E0,9.118499E0,6.6974955E0,7.608182E0,3.2229934E0,9.239009E0,0E0,0E0,0E0,0E0,0E0,0E0,0E0,0E0],"parents":[2147483647,0,0,1,1,2,2,3,3,4,4,5,5,6,6],"right_children":[2,4,6,8,10,12,14,-1,-1,-1,-1,-1,-1,-1,-1],"split_conditions":[5.5207604E-1,-1.3333334E-1,5E-1,1.5016315E3,1.9E-1,4.246511E0,-4.6666667E-2,3.673205E-2,-5.692018E-3,-3.0530596E-2,4.671084E-3,-4.5671474E-2,2.2031518E-2,-1.0052769E-3,3.8875695E-2],"split_indices":[40,4,20,39,4,8,3,0,0,0,0,0,0,0,0],"split_type":[0,0,0,0,0,0,0,0,0,0,0,0,0,0,0],"sum_hessian":[1.7085562E2,1.0221205E2,6.864356E1,3.8895336E1,6.331672E1,7.9010396E0,6.0742523E1,1.347884E1,2.5416494E1,3.8662144E1,2.4654577E1,6.248648E0,1.6523914E0,2.3236109E1,3.7506416E1],"tree_param":{"num_deleted":"0","num_feature":"46","num_nodes":"15","size_leaf_vector":"1"}},{"base_weights":[-3.2190995E-3,-3.5372794E-1,1.0941253E-1,2.3263006E-1,-6.301816E-1,1.3684062E-2,8.1135017E-1,-3.405392E-2,2.8704474E-2,-5.085625E-2,-1.3379896E-2,6.2710033E-3,-2.7577221E-2,5.7837874E-2,2.8757793E-3],"categories":[],"categories_nodes":[],"categories_segments":[],"categories_sizes":[],"default_left":[0,0,0,0,0,0,0,0,0,0,0,0,0,0,0],"id":32,"left_children":[1,3,5,7,9,11,13,-1,-1,-1,-1,-1,-1,-1,-1],"loss_changes":[6.515093E0,6.6519494E0,8.382784E0,4.630668E0,3.5920267E0,7.075948E0,3.8324738E0,0E0,0E0,0E0,0E0,0E0,0E0,0E0,0E0],"parents":[2147483647,0,0,1,1,2,2,3,3,4,4,5,5,6,6],"right_children":[2,4,6,8,10,12,14,-1,-1,-1,-1,-1,-1,-1,-1],"split_conditions":[4.653651E-1,-1.4666666E-1,9.7773615E2,6.490217E2,1.497991E3,1E0,1.0832554E2,-3.405392E-2,2.8704474E-2,-5.085625E-2,-1.3379896E-2,6.2710033E-3,-2.7577221E-2,5.7837874E-2,2.8757793E-3],"split_indices":[40,3,41,41,26,27,1,0,0,0,0,0,0,0,0],"split_type":[0,0,0,0,0,0,0,0,0,0,0,0,0,0,0],"sum_hessian":[1.6304904E2,3.9131504E1,1.2391754E2,1.2588925E1,2.6542578E1,1.0994325E2,1.3974286E1,3.15415E0,9.434775E0,1.19667E1,1.4575878E1,9.2446304E1,1.7496946E1,9.216695E0,4.7575912E0],"tree_param":{"num_deleted":"0","num_feature":"46","num_nodes":"15","size_leaf_vector":"1"}},{"base_weights":[3.2731507E-2,8.129627E-2,-7.532855E-1,1.2931818E-1,-7.573911E-1,1.6187754E-2,-1.0025631E0,3.2906146E-3,4.6038564E-2,1.934618E-2,-5.39662E-2,-6.951432E-3,-6.425204E-2],"categories":[],"categories_nodes":[],"categories_segments":[],"categories_sizes":[],"default_left":[0,0,0,0,0,0,0,0,0,0,0,0,0],"id":33,"left_children":[1,3,5,7,9,-1,11,-1,-1,-1,-1,-1,-1],"loss_changes":[6.522326E0,6.554589E0,2.9950943E0,7.6035695E0,3.6697693E0,0E0,1.851161E0,0E0,0E0,0E0,0E0,0E0,0E0],"parents":[2147483647,0,0,1,1,2,2,3,3,4,4,6,6],"right_children":[2,4,6,8,10,-1,12,-1,-1,-1,-1,-1,-1],"split_conditions":[7.1054274E-15,1.4630533E2,-5.9484765E-2,1.2400695E-2,1.482221E3,1.6187754E-2,-1.7681974E-1,3.2906146E-3,4.6038564E-2,1.934618E-2,-5.39662E-2,-6.951432E-3,-6.425204E-2],"split_indices":[7,30,31,42,25,0,27,0,0,0,0,0,0],"split_type":[0,0,0,0,0,0,0,0,0,0,0,0,0],"sum_hessian":[1.6825922E2,1.5931252E2,8.946694E0,1.5148456E2,7.8279552E0,1.6253515E0,7.321343E0,1.4123506E2,1.0249491E1,1.6744006E0,6.153555E0,2.1724224E0,5.148921E0],"tree_param":{"num_deleted":"0","num_feature":"46","num_nodes":"13","size_leaf_vector":"1"}},{"base_weights":[-9.2032805E-2,-2.7272302E-1,1.1652172E-1,-4.8547933E-1,1.1962999E-4,-1.9954877E-1,4.6381375E-1,-3.3770127E-3,-4.012706E-2,8.857876E-3,-5.4913968E-2,4.489329E-2,-1.8957434E-2,2.8801942E-2,-3.0203233E-2],"categories":[],"categories_nodes":[],"categories_segments":[],"categories_sizes":[],"default_left":[0,0,0,0,0,0,0,0,0,0,0,0,0,0,0],"id":34,"left_children":[1,3,5,7,9,11,13,-1,-1,-1,-1,-1,-1,-1,-1],"loss_changes":[6.34502E0,5.2280593E0,8.706138E0,6.651348E0,8.062099E0,8.575265E0,4.8647566E0,0E0,0E0,0E0,0E0,0E0,0E0,0E0,0E0],"parents":[2147483647,0,0,1,1,2,2,3,3,4,4,5,5,6,6],"right_children":[2,4,6,8,10,12,14,-1,-1,-1,-1,-1,-1,-1,-1],"split_conditions":[5.3046274E-1,7.817998E2,4.6666667E-2,-1.1E-1,7.301696E0,-6.6E-1,2.7069716E0,-3.3770127E-3,-4.012706E-2,8.857876E-3,-5.4913968E-2,4.489329E-2,-1.8957434E-2,2.8801942E-2,-3.0203233E-2],"split_indices":[40,41,3,3,8,3,13,0,0,0,0,0,0,0,0],"split_type":[0,0,0,0,0,0,0,0,0,0,0,0,0,0,0],"sum_hessian":[1.6653214E2,8.906187E1,7.747027E1,4.9603153E1,3.9458717E1,4.0780945E1,3.6689323E1,2.1920883E1,2.7682268E1,3.470392E1,4.7547994E0,5.172994E0,3.5607952E1,3.361703E1,3.072292E0],"tree_param":{"num_deleted":"0","num_feature":"46","num_nodes":"15","size_leaf_vector":"1"}},{"base_weights":[-3.7712194E-3,3.6553685E-2,-8.48223E-1,-4.092317E-1,1.1499711E-1,1.0079938E-2,-1.1879321E0,-2.9414026E-2,2.7627412E-2,-2.0321545E-3,2.2738703E-2,-7.266887E-2,-1.9862927E-3],"categories":[],"categories_nodes":[],"categories_segments":[],"categories_sizes":[],"default_left":[0,0,0,0,0,0,0,0,0,0,0,0,0],"id":35,"left_children":[1,3,5,7,9,-1,11,-1,-1,-1,-1,-1,-1],"loss_changes":[5.9064274E0,5.8391514E0,3.0587053E0,4.630941E0,7.508347E0,0E0,1.8068056E0,0E0,0E0,0E0,0E0,0E0,0E0],"parents":[2147483647,0,0,1,1,2,2,3,3,4,4,6,6],"right_children":[2,4,6,8,10,-1,12,-1,-1,-1,-1,-1,-1],"split_conditions":[1.4210855E-14,6.3406824E2,-1.2020242E1,6.171808E-1,1.9333333E-1,1.0079938E-2,8.539926E2,-2.9414026E-2,2.7627412E-2,-2.0321545E-3,2.2738703E-2,-7.266887E-2,-1.9862927E-3],"split_indices":[7,41,9,40,3,0,41,0,0,0,0,0,0],"split_type":[0,0,0,0,0,0,0,0,0,0,0,0,0],"sum_hessian":[1.7154042E2,1.6463533E2,6.905079E0,2.400435E1,1.4063098E2,1.7875307E0,5.1175485E0,2.056435E1,3.4400003E0,9.705417E1,4.3576817E1,3.9407375E0,1.176811E0],"tree_param":{"num_deleted":"0","num_feature":"46","num_nodes":"13","size_leaf_vector":"1"}},{"base_weights":[1.4145551E-2,-4.1853096E-2,7.3341894E-1,-1.5876088E-1,2.9827857E-1,1.1082901E0,-2.3707168E-1,-1.0411228E-2,4.7875628E-2,-2.9568477E-2,2.3579035E-2,6.7149654E-2,-1.1339924E-2,3.455047E-2,-5.245152E-2],"categories":[],"categories_nodes":[],"categories_segments":[],"categories_sizes":[],"default_left":[0,0,0,0,0,0,0,0,0,0,0,0,0,0,0],"id":36,"left_children":[1,3,5,7,9,11,13,-1,-1,-1,-1,-1,-1,-1,-1],"loss_changes":[6.645011E0,6.1431746E0,4.597675E0,6.5347095E0,6.37823E0,3.0531378E0,3.847575E0,0E0,0E0,0E0,0E0,0E0,0E0,0E0,0E0],"parents":[2147483647,0,0,1,1,2,2,3,3,4,4,5,5,6,6],"right_children":[2,4,6,8,10,12,14,-1,-1,-1,-1,-1,-1,-1,-1],"split_conditions":[1.2400695E-2,2.7E-1,1.4445927E0,1.5478598E-1,1.4836586E3,8E-1,1.502936E3,-1.0411228E-2,4.7875628E-2,-2.9568477E-2,2.3579035E-2,6.7149654E-2,-1.1339924E-2,3.455047E-2,-5.245152E-2],"split_indices":[42,3,6,31,25,27,25,0,0,0,0,0,0,0,0],"split_type":[0,0,0,0,0,0,0,0,0,0,0,0,0,0,0],"sum_hessian":[1.632152E2,1.5229979E2,1.0915407E1,1.1373931E2,3.856048E1,7.7715163E0,3.1438906E0,1.0969216E2,4.047154E0,5.8935447E0,3.266693E1,6.604544E0,1.166972E0,1.5365504E0,1.6073402E0],"tree_param":{"num_deleted":"0","num_feature":"46","num_nodes":"15","size_leaf_vector":"1"}},{"base_weights":[4.3728054E-3,-4.7035497E-1,9.70907E-2,-6.1454505E-1,5.567033E-2,5.199702E-2,6.409611E-2,-1.51752075E-2,-6.337814E-2,4.732839E-3,-4.1818555E-2],"categories":[],"categories_nodes":[],"categories_segments":[],"categories_sizes":[],"default_left":[0,0,0,0,0,0,0,0,0,0,0],"id":37,"left_children":[1,3,5,7,-1,9,-1,-1,-1,-1,-1],"loss_changes":[7.4731817E0,7.0198193E0,7.520349E0,4.911067E0,0E0,5.302934E0,0E0,0E0,0E0,0E0,0E0],"parents":[2147483647,0,0,1,1,2,2,3,3,5,5],"right_children":[2,4,6,8,-1,10,-1,-1,-1,-1,-1],"split_conditions":[6.3406824E2,7.826921E1,1.5478598E-1,1.5043995E3,5.567033E-2,1.4210855E-14,6.409611E-2,-1.51752075E-2,-6.337814E-2,4.732839E-3,-4.1818555E-2],"split_indices":[41,1,31,26,0,7,0,0,0,0,0],"split_type":[0,0,0,0,0,0,0,0,0,0,0],"sum_hessian":[1.6774672E2,2.6743504E1,1.410032E2,2.5072779E1,1.6707245E0,1.3683911E2,4.164095E0,1.7975557E1,7.097222E0,1.3142165E2,5.417465E0],"tree_param":{"num_deleted":"0","num_feature":"46","num_nodes":"11","size_leaf_vector":"1"}},{"base_weights":[1.0779906E-2,-1.1144659E-1,5.2301353E-1,-5.541275E-1,5.6369635E-3,6.7985415E-1,-3.819855E-1,-3.4822304E-2,4.3522365E-2,-4.6588876E-3,4.4750225E-2,4.0642448E-2,-1.8668862E-2,2.818025E-2,-4.6038337E-2],"categories":[],"categories_nodes":[],"categories_segments":[],"categories_sizes":[],"default_left":[0,0,0,0,0,0,0,0,0,0,0,0,0,0,0],"id":38,"left_children":[1,3,5,7,9,11,13,-1,-1,-1,-1,-1,-1,-1,-1],"loss_changes":[1.0280187E1,6.87786E0,4.749054E0,6.233058E0,9.38884E0,4.1298304E0,3.225227E0,0E0,0E0,0E0,0E0,0E0,0E0,0E0,0E0],"parents":[2147483647,0,0,1,1,2,2,3,3,4,4,5,5,6,6],"right_children":[2,4,6,8,10,12,14,-1,-1,-1,-1,-1,-1,-1,-1],"split_conditions":[9.054042E2,4.6338597E-1,1.9051373E0,1.5021389E0,1.5462855E3,5.466667E-1,1.3487786E-2,-3.4822304E-2,4.3522365E-2,-4.6588876E-3,4.4750225E-2,4.0642448E-2,-1.8668862E-2,2.818025E-2,-4.6038337E-2],"split_indices":[41,40,13,27,39,4,2,0,0,0,0,0,0,0,0],"split_type":[0,0,0,0,0,0,0,0,0,0,0,0,0,0,0],"sum_hessian":[1.6226688E2,1.3163843E2,3.062844E1,2.6753489E1,1.0488495E2,2.6316454E1,4.311987E0,2.4788204E1,1.9652834E0,9.520254E1,9.68241E0,2.3568607E1,2.747847E0,1.5483948E0,2.763592E0],"tree_param":{"num_deleted":"0","num_feature":"46","num_nodes":"15","size_leaf_vector":"1"}},{"base_weights":[-4.259378E-3,-2.4313371E-1,1.8217221E-1,-1.0227115E0,-1.3355897E-1,6.7762065E-1,1.4160839E-3,-1.0806096E-3,-6.0115952E-2,-1.4341724E-2,1.6882274E-2,-2.81968E-2,4.3141466E-2,-1.9485028E-2,1.05645405E-2],"categories":[],"categories_nodes":[],"categories_segments":[],"categories_sizes":[],"default_left":[0,0,0,0,0,0,0,0,0,0,0,0,0,0,0],"id":39,"left_children":[1,3,5,7,9,11,13,-1,-1,-1,-1,-1,-1,-1,-1],"loss_changes":[6.700704E0,5.496788E0,7.5683813E0,1.4082928E0,4.35596E0,5.681382E0,5.247987E0,0E0,0E0,0E0,0E0,0E0,0E0,0E0,0E0],"parents":[2147483647,0,0,1,1,2,2,3,3,4,4,5,5,6,6],"right_children":[2,4,6,8,10,12,14,-1,-1,-1,-1,-1,-1,-1,-1],"split_conditions":[5.2052885E-1,1.4764781E3,0E0,-8.491899E-2,2.8291391E-2,-1.2045141E1,7.3241956E2,-1.0806096E-3,-6.0115952E-2,-1.4341724E-2,1.6882274E-2,-2.81968E-2,4.3141466E-2,-1.9485028E-2,1.05645405E-2],"split_indices":[40,25,9,44,31,8,41,0,0,0,0,0,0,0,0],"split_type":[0,0,0,0,0,0,0,0,0,0,0,0,0,0,0],"sum_hessian":[1.4846902E2,6.494763E1,8.3521385E1,6.976848E0,5.7970783E1,2.1591303E1,6.1930084E1,1.2317319E0,5.745116E0,4.403738E1,1.3933403E1,2.5373251E0,1.9053978E1,2.132765E1,4.0602436E1],"tree_param":{"num_deleted":"0","num_feature":"46","num_nodes":"15","size_leaf_vector":"1"}},{"base_weights":[6.1524265E-2,1.4880645E-1,-3.326141E-1,1.9298987E-1,-7.0786697E-1,-6.1369014E-1,5.9158474E-1,5.941884E-3,4.742262E-2,-5.736023E-2,2.6768519E-2,-4.979899E-4,-4.7764838E-2,4.3303505E-2,-2.6381403E-2],"categories":[],"categories_nodes":[],"categories_segments":[],"categories_sizes":[],"default_left":[0,0,0,0,0,0,0,0,0,0,0,0,0,0,0],"id":40,"left_children":[1,3,5,7,9,11,13,-1,-1,-1,-1,-1,-1,-1,-1],"loss_changes":[5.7223635E0,5.2728367E0,8.209723E0,7.160099E0,4.3663654E0,4.868601E0,2.7774272E0,0E0,0E0,0E0,0E0,0E0,0E0,0E0,0E0],"parents":[2147483647,0,0,1,1,2,2,3,3,4,4,5,5,6,6],"right_children":[2,4,6,8,10,12,14,-1,-1,-1,-1,-1,-1,-1,-1],"split_conditions":[8.8614E-1,1.4630533E2,1.7464653E1,1.2400695E-2,1.5009971E3,-1.4E-1,1.0427948E-2,5.941884E-3,4.742262E-2,-5.736023E-2,2.6768519E-2,-4.979899E-4,-4.7764838E-2,4.3303505E-2,-2.6381403E-2],"split_indices":[27,30,30,42,26,3,42,0,0,0,0,0,0,0,0],"split_type":[0,0,0,0,0,0,0,0,0,0,0,0,0,0,0],"sum_hessian":[1.6390294E2,1.3469673E2,2.920622E1,1.2882712E2,5.869611E0,2.2652811E1,6.5534096E0,1.1836622E2,1.0460895E1,4.3940706E0,1.4755404E0,8.557707E0,1.4095104E1,5.444366E0,1.1090438E0],"tree_param":{"num_deleted":"0","num_feature":"46","num_nodes":"15","size_leaf_vector":"1"}},{"base_weights":[-2.0750403E-2,-1.0957308E-1,3.9364886E-1,5.922011E-1,-1.5636058E-1,5.0321174E-1,-4.438884E-2,-4.413485E-2,4.582729E-2,-3.962093E-2,-4.7987634E-3,3.811235E-2,-1.2784399E-2],"categories":[],"categories_nodes":[],"categories_segments":[],"categories_sizes":[],"default_left":[0,0,0,0,0,0,0,0,0,0,0,0,0],"id":41,"left_children":[1,3,5,7,9,11,-1,-1,-1,-1,-1,-1,-1],"loss_changes":[6.0289392E0,4.5153823E0,4.5072713E0,4.936494E0,4.8046103E0,5.558046E0,0E0,0E0,0E0,0E0,0E0,0E0,0E0],"parents":[2147483647,0,0,1,1,2,2,3,3,4,4,5,5],"right_children":[2,4,6,8,10,12,-1,-1,-1,-1,-1,-1,-1],"split_conditions":[9.2204065E2,-7.033333E-1,1.587951E3,1.490531E3,-4.4159813E1,1.5028652E3,-4.438884E-2,-4.413485E-2,4.582729E-2,-3.962093E-2,-4.7987634E-3,3.811235E-2,-1.2784399E-2],"split_indices":[41,3,39,26,45,25,0,0,0,0,0,0,0],"split_type":[0,0,0,0,0,0,0,0,0,0,0,0,0],"sum_hessian":[1.6162218E2,1.3370032E2,2.7921852E1,7.6280828E0,1.2607224E2,2.6282022E1,1.6398299E0,1.0647676E0,6.5633154E0,9.880029E0,1.16192215E2,1.9590714E1,6.6913095E0],"tree_param":{"num_deleted":"0","num_feature":"46","num_nodes":"13","size_leaf_vector":"1"}},{"base_weights":[-2.3359088E-2,4.370444E-1,-9.131253E-2,-2.4521279E-3,1.2155596E0,-1.4786993E-1,6.0788995E-1,-2.0893987E-2,3.9635684E-2,6.861359E-2,1.4422553E-2,2.2165118E-2,-1.0298752E-2,-2.5693057E-2,4.346267E-2],"categories":[],"categories_nodes":[],"categories_segments":[],"categories_sizes":[],"default_left":[0,0,0,0,0,0,0,0,0,0,0,0,0,0,0],"id":42,"left_children":[1,3,5,7,9,11,13,-1,-1,-1,-1,-1,-1,-1,-1],"loss_changes":[5.2186394E0,7.346281E0,5.826567E0,5.1923795E0,7.2959805E-1,4.729093E0,3.68688E0,0E0,0E0,0E0,0E0,0E0,0E0,0E0,0E0],"parents":[2147483647,0,0,1,1,2,2,3,3,4,4,5,5,6,6],"right_children":[2,4,6,8,10,12,14,-1,-1,-1,-1,-1,-1,-1,-1],"split_conditions":[-7.4826007E0,-2.2684915E0,4.7333333E-1,1.5213956E3,2.3333333E-1,1.4741764E3,1.4836586E3,-2.0893987E-2,3.9635684E-2,6.861359E-2,1.4422553E-2,2.2165118E-2,-1.0298752E-2,-2.5693057E-2,4.346267E-2],"split_indices":[8,28,4,38,4,38,25,0,0,0,0,0,0,0,0],"split_type":[0,0,0,0,0,0,0,0,0,0,0,0,0,0,0],"sum_hessian":[1.6452872E2,2.0461927E1,1.4406679E2,1.3715783E1,6.7461443E0,1.3401505E2,1.0051753E1,9.3207245E0,4.3950586E0,5.3599687E0,1.3861761E0,1.1399998E1,1.2261504E2,1.7168956E0,8.334858E0],"tree_param":{"num_deleted":"0","num_feature":"46","num_nodes":"15","size_leaf_vector":"1"}},{"base_weights":[-2.9412871E-2,-1.6550635E-1,2.6496738E-1,6.6162634E-1,-2.3138712E-1,-5.613118E-1,4.2205077E-1,-7.0342133E-3,7.5988896E-2,-1.3905088E-2,5.224693E-2,-4.1010693E-2,3.4419727E-2,-3.34409E-2,2.7006114E-2],"categories":[],"categories_nodes":[],"categories_segments":[],"categories_sizes":[],"default_left":[0,0,0,0,0,0,0,0,0,0,0,0,0,0,0],"id":43,"left_children":[1,3,5,7,9,11,13,-1,-1,-1,-1,-1,-1,-1,-1],"loss_changes":[6.5794373E0,6.2656627E0,6.980811E0,6.0898757E0,6.5294957E0,3.388932E0,6.0579867E0,0E0,0E0,0E0,0E0,0E0,0E0,0E0,0E0],"parents":[2147483647,0,0,1,1,2,2,3,3,4,4,5,5,6,6],"right_children":[2,4,6,8,10,12,14,-1,-1,-1,-1,-1,-1,-1,-1],"split_conditions":[1.9333333E-1,9.131916E-1,6.2900934E2,-1.4930583E0,1.5478598E-1,3.917796E-2,-5.1726665E-2,-7.0342133E-3,7.5988896E-2,-1.3905088E-2,5.224693E-2,-4.1010693E-2,3.4419727E-2,-3.34409E-2,2.7006114E-2],"split_indices":[3,43,41,5,31,44,44,0,0,0,0,0,0,0,0],"split_type":[0,0,0,0,0,0,0,0,0,0,0,0,0,0,0],"sum_hessian":[1.6213171E2,1.1117345E2,5.0958263E1,7.534541E0,1.036389E2,7.7290606E0,4.3229202E1,4.3260517E0,3.2084892E0,1.00734055E2,2.9048483E0,6.6873207E0,1.0417396E0,3.7664309E0,3.9462772E1],"tree_param":{"num_deleted":"0","num_feature":"46","num_nodes":"15","size_leaf_vector":"1"}},{"base_weights":[1.0277543E-1,3.7423621E-3,4.1675246E-1,-5.3546853E-2,4.4645984E-2,-8.8464254E-1,5.227245E-1,-3.4149867E-3,2.1120092E-2,2.5576104E-3,-6.902637E-2,-4.9687266E-2,3.1423982E-2],"categories":[],"categories_nodes":[],"categories_segments":[],"categories_sizes":[],"default_left":[0,0,0,0,0,0,0,0,0,0,0,0,0],"id":44,"left_children":[1,3,5,-1,7,9,11,-1,-1,-1,-1,-1,-1],"loss_changes":[4.941289E0,5.4044037E0,5.717948E0,0E0,5.0782857E0,1.5745335E0,6.376712E0,0E0,0E0,0E0,0E0,0E0,0E0],"parents":[2147483647,0,0,1,1,2,2,4,4,5,5,6,6],"right_children":[2,4,6,-1,8,10,12,-1,-1,-1,-1,-1,-1],"split_conditions":[5.7923245E-1,1.4661772E3,-1.4787427E0,-5.3546853E-2,1.5233051E1,4.0625023E1,1.4108033E3,-3.4149867E-3,2.1120092E-2,2.5576104E-3,-6.902637E-2,-4.9687266E-2,3.1423982E-2],"split_indices":[40,26,27,0,30,1,39,0,0,0,0,0,0],"split_type":[0,0,0,0,0,0,0,0,0,0,0,0,0],"sum_hessian":[1.5796417E2,1.2085623E2,3.7107952E1,3.5079632E0,1.1734827E2,2.2408757E0,3.4867073E1,9.096863E1,2.6379635E1,1.0867996E0,1.154076E0,1.7256434E0,3.314143E1],"tree_param":{"num_deleted":"0","num_feature":"46","num_nodes":"13","size_leaf_vector":"1"}},{"base_weights":[8.872604E-3,-4.8278663E-1,6.548684E-2,-8.788899E-1,4.2350936E-1,2.922934E-1,-1.2766026E-1,1.4626037E-3,-5.476402E-2,5.7598185E-2,-5.679065E-2,-3.6431316E-2,1.815932E-2,1.996638E-2,-1.3011611E-2],"categories":[],"categories_nodes":[],"categories_segments":[],"categories_sizes":[],"default_left":[0,0,0,0,0,0,0,0,0,0,0,0,0,0,0],"id":45,"left_children":[1,3,5,7,9,11,13,-1,-1,-1,-1,-1,-1,-1,-1],"loss_changes":[4.5375953E0,6.415858E0,6.4352007E0,2.3981123E0,7.89092E0,5.148176E0,5.663147E0,0E0,0E0,0E0,0E0,0E0,0E0,0E0,0E0],"parents":[2147483647,0,0,1,1,2,2,3,3,4,4,5,5,6,6],"right_children":[2,4,6,8,10,12,14,-1,-1,-1,-1,-1,-1,-1,-1],"split_conditions":[1.4764781E3,6.7806725E1,1.5003033E3,-3.359982E1,1E1,5.887055E2,1.497395E3,1.4626037E-3,-5.476402E-2,5.7598185E-2,-5.679065E-2,-3.6431316E-2,1.815932E-2,1.996638E-2,-1.3011611E-2],"split_indices":[25,1,25,1,32,41,38,0,0,0,0,0,0,0,0],"split_type":[0,0,0,0,0,0,0,0,0,0,0,0,0,0,0],"sum_hessian":[1.6088228E2,1.5835266E1,1.4504701E2,1.1040273E1,4.794993E0,6.647463E1,7.857239E1,2.2908611E0,8.749412E0,3.446271E0,1.3487219E0,3.7138724E0,6.276076E1,1.5388656E1,6.318373E1],"tree_param":{"num_deleted":"0","num_feature":"46","num_nodes":"15","size_leaf_vector":"1"}},{"base_weights":[-5.726112E-3,-7.483759E-2,4.8185167E-1,-1.9640602E-1,2.5227025E-1,-2.6529193E-1,6.2118244E-1,1.3195092E-3,-2.2029005E-2,3.6616143E-2,-1.0817769E-5,-6.0232427E-2,2.9298661E-2,-1.56717E-3,4.4243585E-2],"categories":[],"categories_nodes":[],"categories_segments":[],"categories_sizes":[],"default_left":[0,0,0,0,0,0,0,0,0,0,0,0,0,0,0],"id":46,"left_children":[1,3,5,7,9,11,13,-1,-1,-1,-1,-1,-1,-1,-1],"loss_changes":[5.563478E0,5.797058E0,2.2986965E0,5.7745695E0,4.79982E0,3.842545E0,3.051928E0,0E0,0E0,0E0,0E0,0E0,0E0,0E0,0E0],"parents":[2147483647,0,0,1,1,2,2,3,3,4,4,5,5,6,6],"right_children":[2,4,6,8,10,12,14,-1,-1,-1,-1,-1,-1,-1,-1],"split_conditions":[9.7773615E2,2.6E-1,4.443284E-1,2.480768E-2,1.4917422E3,1.4937644E3,-5.667544E-1,1.3195092E-3,-2.2029005E-2,3.6616143E-2,-1.0817769E-5,-6.0232427E-2,2.9298661E-2,-1.56717E-3,4.4243585E-2],"split_indices":[41,3,40,27,26,26,8,0,0,0,0,0,0,0,0],"split_type":[0,0,0,0,0,0,0,0,0,0,0,0,0,0,0],"sum_hessian":[1.6303188E2,1.4353333E2,1.949855E1,1.049344E2,3.8598923E1,2.9225743E0,1.6575975E1,5.5335526E1,4.959888E1,1.2648981E1,2.594994E1,1.1920455E0,1.730529E0,5.0242043E0,1.1551771E1],"tree_param":{"num_deleted":"0","num_feature":"46","num_nodes":"15","size_leaf_vector":"1"}},{"base_weights":[-3.2479092E-2,8.2448654E-2,-3.016408E-1,-4.7095317E-1,1.7509203E-1,-8.091905E-2,-8.84168E-1,-4.885557E-2,2.982021E-2,5.2010706E-3,4.7683757E-2,-1.0080687E-2,5.6854006E-2,-6.3778214E-2,-5.413032E-3],"categories":[],"categories_nodes":[],"categories_segments":[],"categories_sizes":[],"default_left":[0,0,0,0,0,0,0,0,0,0,0,0,0,0,0],"id":47,"left_children":[1,3,5,7,9,11,13,-1,-1,-1,-1,-1,-1,-1,-1],"loss_changes":[5.116176E0,6.0359826E0,6.2881126E0,9.725531E0,5.445304E0,5.664258E0,3.9588776E0,0E0,0E0,0E0,0E0,0E0,0E0,0E0,0E0],"parents":[2147483647,0,0,1,1,2,2,3,3,4,4,5,5,6,6],"right_children":[2,4,6,8,10,12,14,-1,-1,-1,-1,-1,-1,-1,-1],"split_conditions":[1.5087294E3,1.4754475E3,1.0033333E0,1.0070584E0,1.0427948E-2,9.9899226E-1,1.288635E0,-4.885557E-2,2.982021E-2,5.2010706E-3,4.7683757E-2,-1.0080687E-2,5.6854006E-2,-6.3778214E-2,-5.413032E-3],"split_indices":[25,25,43,43,42,43,29,0,0,0,0,0,0,0,0],"split_type":[0,0,0,0,0,0,0,0,0,0,0,0,0,0,0],"sum_hessian":[1.635853E2,1.15123215E2,4.8462086E1,1.592318E1,9.9200035E1,3.5971325E1,1.2490761E1,1.0858468E1,5.0647116E0,9.194108E1,7.258961E0,3.348744E1,2.4838855E0,7.874573E0,4.616188E0],"tree_param":{"num_deleted":"0","num_feature":"46","num_nodes":"15","size_leaf_vector":"1"}},{"base_weights":[-2.2433296E-2,-2.8471556E-1,1.15437165E-1,-3.8642955E-1,7.6157725E-1,-5.494541E-2,4.3935886E-1,-5.637997E-3,-4.341574E-2,-1.508285E-2,6.49213E-2,3.2788638E-2,-7.222378E-3,-3.3245828E-2,2.9593384E-2],"categories":[],"categories_nodes":[],"categories_segments":[],"categories_sizes":[],"default_left":[0,0,0,0,0,0,0,0,0,0,0,0,0,0,0],"id":48,"left_children":[1,3,5,7,9,11,13,-1,-1,-1,-1,-1,-1,-1,-1],"loss_changes":[5.8080072E0,6.1810064E0,5.8407884E0,6.637986E0,3.381222E0,4.5444965E0,6.5302796E0,0E0,0E0,0E0,0E0,0E0,0E0,0E0,0E0],"parents":[2147483647,0,0,1,1,2,2,3,3,4,4,5,5,6,6],"right_children":[2,4,6,8,10,12,14,-1,-1,-1,-1,-1,-1,-1,-1],"split_conditions":[7.328842E2,4.0333334E-1,1.9333333E-1,2.337817E-1,-1.6126357E0,-7.3609557E0,-5.1726665E-2,-5.637997E-3,-4.341574E-2,-1.508285E-2,6.49213E-2,3.2788638E-2,-7.222378E-3,-3.3245828E-2,2.9593384E-2],"split_indices":[41,4,3,5,5,8,44,0,0,0,0,0,0,0,0],"split_type":[0,0,0,0,0,0,0,0,0,0,0,0,0,0,0],"sum_hessian":[1.5870644E2,5.4314472E1,1.0439197E2,5.0076973E1,4.237499E0,6.895307E1,3.5438892E1,3.272562E1,1.7351355E1,1.5687236E0,2.668776E0,7.0045433E0,6.194853E1,3.8927414E0,3.1546148E1],"tree_param":{"num_deleted":"0","num_feature":"46","num_nodes":"15","size_leaf_vector":"1"}},{"base_weights":[3.0294584E-2,-2.3657648E-1,1.6900581E-1,-3.5544375E-1,6.521741E-1,-9.857913E-3,4.3086883E-1,8.664656E-3,-3.327166E-2,-1.901357E-2,5.420686E-2,-7.0687756E-3,2.7729347E-2,-1.7816562E-2,3.2328464E-2],"categories":[],"categories_nodes":[],"categories_segments":[],"categories_sizes":[],"default_left":[0,0,0,0,0,0,0,0,0,0,0,0,0,0,0],"id":49,"left_children":[1,3,5,7,9,11,13,-1,-1,-1,-1,-1,-1,-1,-1],"loss_changes":[6.019943E0,6.1124325E0,5.010132E0,8.268728E0,3.4981961E0,4.865033E0,7.599202E0,0E0,0E0,0E0,0E0,0E0,0E0,0E0,0E0],"parents":[2147483647,0,0,1,1,2,2,3,3,4,4,5,5,6,6],"right_children":[2,4,6,8,10,12,14,-1,-1,-1,-1,-1,-1,-1,-1],"split_conditions":[7.3241956E2,3.6666667E-1,5.5207604E-1,-8.377742E0,-4.0952964E0,1.5142394E3,-2.4760342E1,8.664656E-3,-3.327166E-2,-1.901357E-2,5.420686E-2,-7.0687756E-3,2.7729347E-2,-1.7816562E-2,3.2328464E-2],"split_indices":[41,4,40,1,8,26,30,0,0,0,0,0,0,0,0],"split_type":[0,0,0,0,0,0,0,0,0,0,0,0,0,0,0],"sum_hessian":[1.605419E2,5.4664856E1,1.05877045E2,4.8745396E1,5.919461E0,6.3479897E1,4.239715E1,1.8179058E1,3.056634E1,1.781388E0,4.1380725E0,5.209185E1,1.1388049E1,8.978411E0,3.341874E1],"tree_param":{"num_deleted":"0","num_feature":"46","num_nodes":"15","size_leaf_vector":"1"}}]},"name":"gbtree"},"learner_model_param":{"base_score":"[5.23642E-1]","boost_from_average":"1","num_class":"0","num_feature":"46","num_target":"1"},"objective":{"name":"binary:logistic","reg_loss_param":{"scale_pos_weight":"1"}}},"version":[3,2,0]}