{"learner":{"attributes":{"scikit_learn":"{\"_estimator_type\": \"classifier\"}"},"feature_names":["elo_diff","rest_diff","home_b2b","away_b2b","gsax_diff","finish_diff","edge_speed_diff","edge_burst_diff","l5_goal_diff","l5_xg_diff","l5_corsi_diff","l5_pdo_diff","l5_pp_diff","l5_pk_diff","l5_st_net","l5_rush_diff","l5_nzt_diff","l5_ozs_diff","l5_hdc_diff","l5_pizza_diff","home_venue_goal_diff","away_venue_goal_diff","home_sos","away_sos","l5_std_diff","l10_goal_diff","l10_xg_diff"],"feature_types":["float","int","int","int","float","float","float","float","float","float","float","float","float","float","float","float","float","float","float","float","int","int","float","float","float","float","float"],"gradient_booster":{"model":{"gbtree_model_param":{"num_parallel_tree":"1","num_trees":"100"},"iteration_indptr":[0,1,2,3,4,5,6,7,8,9,10,11,12,13,14,15,16,17,18,19,20,21,22,23,24,25,26,27,28,29,30,31,32,33,34,35,36,37,38,39,40,41,42,43,44,45,46,47,48,49,50,51,52,53,54,55,56,57,58,59,60,61,62,63,64,65,66,67,68,69,70,71,72,73,74,75,76,77,78,79,80,81,82,83,84,85,86,87,88,89,90,91,92,93,94,95,96,97,98,99,100],"tree_info":[0,0,0,0,0,0,0,0,0,0,0,0,0,0,0,0,0,0,0,0,0,0,0,0,0,0,0,0,0,0,0,0,0,0,0,0,0,0,0,0,0,0,0,0,0,0,0,0,0,0,0,0,0,0,0,0,0,0,0,0,0,0,0,0,0,0,0,0,0,0,0,0,0,0,0,0,0,0,0,0,0,0,0,0,0,0,0,0,0,0,0,0,0,0,0,0,0,0,0,0],"trees":[{"base_weights":[3.3780854E-2,2.4755925E-1,-2.781001E-1,-1.7315587E-1,5.3937596E-1,-1.7772986E-1,-1.2857649E0,3.936727E-3,-5.302937E-2,1.1544832E-2,4.6335623E-2,-2.4368784E-4,-3.6863595E-2,-1.4013906E-2,-7.728989E-2],"categories":[],"categories_nodes":[],"categories_segments":[],"categories_sizes":[],"default_left":[0,0,0,0,0,0,0,0,0,0,0,0,0,0,0],"id":0,"left_children":[1,3,5,7,9,11,13,-1,-1,-1,-1,-1,-1,-1,-1],"loss_changes":[9.311692E0,1.0256356E1,5.5211964E0,7.831062E0,5.6551657E0,5.1090465E0,8.712292E-1,0E0,0E0,0E0,0E0,0E0,0E0,0E0,0E0],"parents":[2147483647,0,0,1,1,2,2,3,3,4,4,5,5,6,6],"right_children":[2,4,6,8,10,12,14,-1,-1,-1,-1,-1,-1,-1,-1],"split_conditions":[1.5030599E3,1.4903259E3,1.4210855E-14,9.0974027E-1,4.0625023E1,1.1648931E-1,-3.7E-1,3.936727E-3,-5.302937E-2,1.1544832E-2,4.6335623E-2,-2.4368784E-4,-3.6863595E-2,-1.4013906E-2,-7.728989E-2],"split_indices":[22,22,14,24,0,5,6,0,0,0,0,0,0,0,0],"split_type":[0,0,0,0,0,0,0,0,0,0,0,0,0,0,0],"sum_hessian":[1.3762866E2,8.177935E1,5.584931E1,3.3659184E1,4.8120167E1,5.1860077E1,3.9892366E0,2.6927347E1,6.731837E0,2.767533E1,2.0444838E1,4.039102E1,1.1469055E1,1.2466364E0,2.7426002E0],"tree_param":{"num_deleted":"0","num_feature":"27","num_nodes":"15","size_leaf_vector":"1"}},{"base_weights":[3.503926E-2,2.7420822E-1,-3.0380237E-1,1.7087175E-1,1.3274244E0,4.0205106E-1,-4.3282384E-1,-2.3185423E-2,1.6179388E-2,7.763719E-2,8.064701E-3,4.0787306E-2,-3.657317E-2,-4.4348694E-2,-5.0300354E-4],"categories":[],"categories_nodes":[],"categories_segments":[],"categories_sizes":[],"default_left":[0,0,0,0,0,0,0,0,0,0,0,0,0,0,0],"id":1,"left_children":[1,3,5,7,9,11,13,-1,-1,-1,-1,-1,-1,-1,-1],"loss_changes":[1.103182E1,8.449958E0,5.308176E0,7.2970314E0,1.5823679E0,4.925253E0,9.234841E0,0E0,0E0,0E0,0E0,0E0,0E0,0E0,0E0],"parents":[2147483647,0,0,1,1,2,2,3,3,4,4,5,5,6,6],"right_children":[2,4,6,8,10,12,14,-1,-1,-1,-1,-1,-1,-1,-1],"split_conditions":[1.5030599E3,1.1592304E2,-4.3666667E-1,1.4778949E3,5.0333333E-1,8.090585E-1,6E-2,-2.3185423E-2,1.6179388E-2,7.763719E-2,8.064701E-3,4.0787306E-2,-3.657317E-2,-4.4348694E-2,-5.0300354E-4],"split_indices":[22,0,6,22,6,24,6,0,0,0,0,0,0,0,0],"split_type":[0,0,0,0,0,0,0,0,0,0,0,0,0,0,0],"sum_hessian":[1.3409947E2,7.872367E1,5.53758E1,7.274821E1,5.9754643E0,8.230739E0,4.714506E1,1.3716344E1,5.9031864E1,4.7299995E0,1.2454647E0,6.235374E0,1.9953649E0,2.2199461E1,2.49456E1],"tree_param":{"num_deleted":"0","num_feature":"27","num_nodes":"15","size_leaf_vector":"1"}},{"base_weights":[-5.499309E-2,-1.2003634E-1,7.114777E-1,-3.7710974E-1,1.1518547E-1,1.2282492E0,7.656123E-2,2.0868655E-2,-2.4944708E-2,3.481766E-2,-1.5882002E-4,7.390231E-2,7.7123228E-3,-2.4196481E-2,3.4960285E-2],"categories":[],"categories_nodes":[],"categories_segments":[],"categories_sizes":[],"default_left":[0,0,0,0,0,0,0,0,0,0,0,0,0,0,0],"id":2,"left_children":[1,3,5,7,9,11,13,-1,-1,-1,-1,-1,-1,-1,-1],"loss_changes":[6.978664E0,7.802217E0,3.5020723E0,6.1626673E0,4.6638703E0,1.3752155E0,2.4268403E0,0E0,0E0,0E0,0E0,0E0,0E0,0E0,0E0],"parents":[2147483647,0,0,1,1,2,2,3,3,4,4,5,5,6,6],"right_children":[2,4,6,8,10,12,14,-1,-1,-1,-1,-1,-1,-1,-1],"split_conditions":[4.7333333E-1,-4.183762E-3,1.5E3,-1.2203537E0,-6.9541907E0,9.0974027E-1,1.5070121E3,2.0868655E-2,-2.4944708E-2,3.481766E-2,-1.5882002E-4,7.390231E-2,7.7123228E-3,-2.4196481E-2,3.4960285E-2],"split_indices":[7,5,22,24,11,24,22,0,0,0,0,0,0,0,0],"split_type":[0,0,0,0,0,0,0,0,0,0,0,0,0,0,0],"sum_hessian":[1.3726964E2,1.27309456E2,9.960179E0,6.0541058E1,6.67684E1,4.9757833E0,4.9843965E0,7.7241306E0,5.281693E1,1.0471096E1,5.6297302E1,3.7316532E0,1.24413E0,2.7403643E0,2.2440321E0],"tree_param":{"num_deleted":"0","num_feature":"27","num_nodes":"15","size_leaf_vector":"1"}},{"base_weights":[-5.1661037E-2,1.762938E-1,-3.8495082E-1,6.4635664E-2,7.103343E-2,9.400076E-2,-6.2520397E-1,-2.2526717E-2,9.367456E-3,4.0327843E-2,-1.7168595E-2,3.6753338E-2,-3.498126E-2],"categories":[],"categories_nodes":[],"categories_segments":[],"categories_sizes":[],"default_left":[0,0,0,0,0,0,0,0,0,0,0,0,0],"id":3,"left_children":[1,3,5,7,-1,9,11,-1,-1,-1,-1,-1,-1],"loss_changes":[1.083907E1,1.1701292E1,6.7209053E0,5.074557E0,0E0,6.575407E0,4.4306374E0,0E0,0E0,0E0,0E0,0E0,0E0],"parents":[2147483647,0,0,1,1,2,2,3,3,5,5,6,6],"right_children":[2,4,6,8,-1,10,12,-1,-1,-1,-1,-1,-1],"split_conditions":[1.5029027E3,1.1592304E2,-4.3258116E-1,1.4778949E3,7.103343E-2,-1.3666667E-1,-7.133333E-1,-2.2526717E-2,9.367456E-3,4.0327843E-2,-1.7168595E-2,3.6753338E-2,-3.498126E-2],"split_indices":[22,0,24,22,0,6,6,0,0,0,0,0,0],"split_type":[0,0,0,0,0,0,0,0,0,0,0,0,0],"sum_hessian":[1.40773E2,8.387643E1,5.689656E1,7.793522E1,5.9412093E0,1.9209871E1,3.7686687E1,1.4478944E1,6.3456276E1,6.985379E0,1.2224492E1,1.4944259E0,3.619226E1],"tree_param":{"num_deleted":"0","num_feature":"27","num_nodes":"13","size_leaf_vector":"1"}},{"base_weights":[3.0960608E-2,2.321394E-1,-2.4609192E-1,-3.256303E-2,7.035E-1,4.6362427E-1,-5.077355E-1,-2.6642064E-2,8.001766E-3,2.3639632E-2,6.913814E-2,-3.9819445E-2,4.0159628E-2,-2.062679E-3,-3.8762145E-2],"categories":[],"categories_nodes":[],"categories_segments":[],"categories_sizes":[],"default_left":[0,0,0,0,0,0,0,0,0,0,0,0,0,0,0],"id":4,"left_children":[1,3,5,7,9,11,13,-1,-1,-1,-1,-1,-1,-1,-1],"loss_changes":[7.8323827E0,1.0170483E1,1.1222595E1,5.195627E0,3.9366312E0,7.682356E0,5.4222784E0,0E0,0E0,0E0,0E0,0E0,0E0,0E0,0E0],"parents":[2147483647,0,0,1,1,2,2,3,3,4,4,5,5,6,6],"right_children":[2,4,6,8,10,12,14,-1,-1,-1,-1,-1,-1,-1,-1],"split_conditions":[1.5028917E3,5.753337E1,-5.1027524E-1,1.4850453E3,1.10776665E2,1.4896843E3,1.4958375E3,-2.6642064E-2,8.001766E-3,2.3639632E-2,6.913814E-2,-3.9819445E-2,4.0159628E-2,-2.062679E-3,-3.8762145E-2],"split_indices":[22,0,24,22,0,23,23,0,0,0,0,0,0,0,0],"split_type":[0,0,0,0,0,0,0,0,0,0,0,0,0,0,0],"sum_hessian":[1.3849876E2,8.033005E1,5.8168713E1,5.203796E1,2.829209E1,1.5460276E1,4.2708435E1,1.3973891E1,3.8064068E1,2.238515E1,5.9069386E0,2.996408E0,1.2463867E1,1.5986039E1,2.6722397E1],"tree_param":{"num_deleted":"0","num_feature":"27","num_nodes":"15","size_leaf_vector":"1"}},{"base_weights":[7.0024945E-2,3.197711E-2,6.572566E-2,2.0554592E-1,-1.9423322E-1,-4.3096556E-4,2.8586853E-2,2.864894E-2,-1.608468E-2],"categories":[],"categories_nodes":[],"categories_segments":[],"categories_sizes":[],"default_left":[0,0,0,0,0,0,0,0,0],"id":5,"left_children":[1,3,-1,5,7,-1,-1,-1,-1],"loss_changes":[6.638213E0,5.455149E0,0E0,6.163454E0,6.0902443E0,0E0,0E0,0E0,0E0],"parents":[2147483647,0,0,1,1,3,3,4,4],"right_children":[2,4,-1,6,8,-1,-1,-1,-1],"split_conditions":[1.4678354E2,1.5028917E3,6.572566E-2,5.841087E1,-4.3666667E-1,-4.3096556E-4,2.8586853E-2,2.864894E-2,-1.608468E-2],"split_indices":[0,22,0,0,6,0,0,0,0],"split_type":[0,0,0,0,0,0,0,0,0],"sum_hessian":[1.4008205E2,1.3692163E2,3.1604211E0,7.752718E1,5.9394444E1,4.9533943E1,2.7993242E1,7.96372E0,5.1430725E1],"tree_param":{"num_deleted":"0","num_feature":"27","num_nodes":"9","size_leaf_vector":"1"}},{"base_weights":[-6.002431E-2,1.4578165E-1,-3.5467273E-1,-2.0441891E-1,4.9966225E-1,4.2783856E-1,-4.8837626E-1,-1.9058472E-2,2.605538E-2,5.7199993E-3,4.9215004E-2,-4.8756946E-2,4.5160685E-2,-3.4092702E-2,1.455038E-3],"categories":[],"categories_nodes":[],"categories_segments":[],"categories_sizes":[],"default_left":[0,0,0,0,0,0,0,0,0,0,0,0,0,0,0],"id":6,"left_children":[1,3,5,7,9,11,13,-1,-1,-1,-1,-1,-1,-1,-1],"loss_changes":[8.508842E0,1.03659115E1,6.2399335E0,5.627669E0,7.632929E0,6.846584E0,4.9957256E0,0E0,0E0,0E0,0E0,0E0,0E0,0E0,0E0],"parents":[2147483647,0,0,1,1,2,2,3,3,4,4,5,5,6,6],"right_children":[2,4,6,8,10,12,14,-1,-1,-1,-1,-1,-1,-1,-1],"split_conditions":[1.5030599E3,3.7841137E1,-4.3666667E-1,3.4333333E-1,1.4935734E3,1.4898123E3,2.7E-1,-1.9058472E-2,2.605538E-2,5.7199993E-3,4.9215004E-2,-4.8756946E-2,4.5160685E-2,-3.4092702E-2,1.455038E-3],"split_indices":[22,0,6,6,22,23,6,0,0,0,0,0,0,0,0],"split_type":[0,0,0,0,0,0,0,0,0,0,0,0,0,0,0],"sum_hessian":[1.3846375E2,8.181963E1,5.6644115E1,4.133592E1,4.048371E1,7.9450617E0,4.8699055E1,3.362012E1,7.7157984E0,2.3242872E1,1.724084E1,1.7446783E0,6.200383E0,3.5214993E1,1.3484065E1],"tree_param":{"num_deleted":"0","num_feature":"27","num_nodes":"15","size_leaf_vector":"1"}},{"base_weights":[4.747388E-2,2.1804254E-1,-1.871889E-1,-1.0045113E-1,5.328212E-1,-1.0842427E-1,-7.021489E-2,-2.2011649E-2,1.0564086E-2,-8.040603E-4,3.519551E-2,2.14398E-3,-3.3674363E-2],"categories":[],"categories_nodes":[],"categories_segments":[],"categories_sizes":[],"default_left":[0,0,0,0,0,0,0,0,0,0,0,0,0],"id":7,"left_children":[1,3,5,7,9,11,-1,-1,-1,-1,-1,-1,-1],"loss_changes":[5.588489E0,8.146476E0,5.492057E0,4.4322257E0,3.8388767E0,4.849386E0,0E0,0E0,0E0,0E0,0E0,0E0,0E0],"parents":[2147483647,0,0,1,1,2,2,3,3,4,4,5,5],"right_children":[2,4,6,8,10,12,-1,-1,-1,-1,-1,-1,-1],"split_conditions":[1.5028917E3,4.183762E-3,1.4210855E-14,1.4923802E3,-3.3666667E-1,1.1648931E-1,-7.021489E-2,-2.2011649E-2,1.0564086E-2,-8.040603E-4,3.519551E-2,2.14398E-3,-3.3674363E-2],"split_indices":[22,5,13,22,7,5,0,0,0,0,0,0,0],"split_type":[0,0,0,0,0,0,0,0,0,0,0,0,0],"sum_hessian":[1.3760135E2,7.972367E1,5.7877686E1,3.9966434E1,3.9757233E1,5.53827E1,2.4949827E0,1.8925667E1,2.1040768E1,9.66266E0,3.0094574E1,4.4414253E1,1.096845E1],"tree_param":{"num_deleted":"0","num_feature":"27","num_nodes":"13","size_leaf_vector":"1"}},{"base_weights":[4.9545657E-2,-4.7197893E-2,5.316815E-1,-1.5294676E-1,3.2686803E-1,1.0227308E0,-4.4729212E-1,2.472967E-2,-1.4397356E-2,-1.726752E-2,2.7197892E-2,7.2639465E-2,2.8708069E-2,3.0564029E-2,-3.567262E-2],"categories":[],"categories_nodes":[],"categories_segments":[],"categories_sizes":[],"default_left":[0,0,0,0,0,0,0,0,0,0,0,0,0,0,0],"id":8,"left_children":[1,3,5,7,9,11,13,-1,-1,-1,-1,-1,-1,-1,-1],"loss_changes":[6.5090237E0,4.6661835E0,1.1664694E1,8.155061E0,3.9876602E0,2.2196293E0,2.826295E0,0E0,0E0,0E0,0E0,0E0,0E0,0E0,0E0],"parents":[2147483647,0,0,1,1,2,2,3,3,4,4,5,5,6,6],"right_children":[2,4,6,8,10,12,14,-1,-1,-1,-1,-1,-1,-1,-1],"split_conditions":[1E0,2.7E-1,1.5075685E3,-6.9541907E0,-5.4043117E0,-2.4689662E-1,-6.935242E-1,2.472967E-2,-1.4397356E-2,-1.726752E-2,2.7197892E-2,7.2639465E-2,2.8708069E-2,3.0564029E-2,-3.567262E-2],"split_indices":[3,7,22,11,11,24,24,0,0,0,0,0,0,0,0],"split_type":[0,0,0,0,0,0,0,0,0,0,0,0,0,0,0],"sum_hessian":[1.3801025E2,1.1569704E2,2.2313223E1,9.065881E1,2.5038227E1,1.4829904E1,7.4833198E0,1.5180528E1,7.547828E1,5.9678793E0,1.9070349E1,6.4282303E0,8.401673E0,1.2429994E0,6.24032E0],"tree_param":{"num_deleted":"0","num_feature":"27","num_nodes":"15","size_leaf_vector":"1"}},{"base_weights":[-1.3234662E-2,-7.042728E-2,7.384504E-1,3.5829272E-2,-4.8094463E-1,6.057797E-2,1.850008E-1,-1.4298434E-2,8.349559E-3,-4.1476995E-2,1.3692497E-2,-2.2253579E-2,4.580838E-2],"categories":[],"categories_nodes":[],"categories_segments":[],"categories_sizes":[],"default_left":[0,0,0,0,0,0,0,0,0,0,0,0,0],"id":9,"left_children":[1,3,5,7,9,-1,11,-1,-1,-1,-1,-1,-1],"loss_changes":[5.9810143E0,5.647499E0,2.351962E0,4.4148006E0,7.228493E0,0E0,3.0403247E0,0E0,0E0,0E0,0E0,0E0,0E0],"parents":[2147483647,0,0,1,1,2,2,3,3,4,4,6,6],"right_children":[2,4,6,8,10,-1,12,-1,-1,-1,-1,-1,-1],"split_conditions":[4.7333333E-1,8.1696355E-1,1.5E3,-7.823675E-2,5.637007E1,6.057797E-2,1.5011113E3,-1.4298434E-2,8.349559E-3,-4.1476995E-2,1.3692497E-2,-2.2253579E-2,4.580838E-2],"split_indices":[7,24,22,5,0,0,23,0,0,0,0,0,0],"split_type":[0,0,0,0,0,0,0,0,0,0,0,0,0],"sum_hessian":[1.3691325E2,1.2807487E2,8.838383E0,1.0246579E2,2.5609087E1,4.123963E0,4.71442E0,2.9328873E1,7.313692E1,1.7450636E1,8.15845E0,2.742444E0,1.9719759E0],"tree_param":{"num_deleted":"0","num_feature":"27","num_nodes":"13","size_leaf_vector":"1"}},{"base_weights":[-1.844131E-2,-1.4012344E-1,2.2338817E-1,-6.295959E-2,-1.08386E0,-5.417119E-2,7.335804E-1,-5.0683767E-3,4.994409E-2,-4.0732687E-3,-6.6502444E-2,3.22156E-2,-1.43460585E-2,5.83834E-2,3.5669305E-3],"categories":[],"categories_nodes":[],"categories_segments":[],"categories_sizes":[],"default_left":[0,0,0,0,0,0,0,0,0,0,0,0,0,0,0],"id":10,"left_children":[1,3,5,7,9,11,13,-1,-1,-1,-1,-1,-1,-1,-1],"loss_changes":[4.26245E0,6.9424224E0,6.910181E0,3.7740161E0,1.672121E0,5.444662E0,4.8507004E0,0E0,0E0,0E0,0E0,0E0,0E0,0E0,0E0],"parents":[2147483647,0,0,1,1,2,2,3,3,4,4,5,5,6,6],"right_children":[2,4,6,8,10,12,14,-1,-1,-1,-1,-1,-1,-1,-1],"split_conditions":[5.6665394E1,1.5226447E3,8.0759704E-2,1.5188783E3,-6.79925E0,-2.2666667E-1,1.7888284E0,-5.0683767E-3,4.994409E-2,-4.0732687E-3,-6.6502444E-2,3.22156E-2,-1.43460585E-2,5.83834E-2,3.5669305E-3],"split_indices":[0,23,5,23,11,6,8,0,0,0,0,0,0,0,0],"split_type":[0,0,0,0,0,0,0,0,0,0,0,0,0,0,0],"sum_hessian":[1.4278786E2,9.5270744E1,4.751712E1,8.905588E1,6.214868E0,3.135365E1,1.6163471E1,8.682004E1,2.2358382E0,1.4878346E0,4.727033E0,7.3944955E0,2.3959154E1,9.3025875E0,6.8608828E0],"tree_param":{"num_deleted":"0","num_feature":"27","num_nodes":"15","size_leaf_vector":"1"}},{"base_weights":[-7.216416E-2,8.235816E-2,-3.6372572E-1,-5.831758E-2,5.3588885E-1,-2.5818682E-1,-1.0322909E0,-1.798992E-2,1.39460685E-2,5.8895256E-2,1.189713E-2,-8.883941E-3,-6.167518E-2,-6.897539E-2,8.031826E-3],"categories":[],"categories_nodes":[],"categories_segments":[],"categories_sizes":[],"default_left":[0,0,0,0,0,0,0,0,0,0,0,0,0,0,0],"id":11,"left_children":[1,3,5,7,9,11,13,-1,-1,-1,-1,-1,-1,-1,-1],"loss_changes":[6.03465E0,5.6411514E0,3.0041242E0,7.015371E0,3.7204428E0,3.028993E0,2.7010617E0,0E0,0E0,0E0,0E0,0E0,0E0,0E0,0E0],"parents":[2147483647,0,0,1,1,2,2,3,3,4,4,5,5,6,6],"right_children":[2,4,6,8,10,12,14,-1,-1,-1,-1,-1,-1,-1,-1],"split_conditions":[1.5055607E3,3.4333333E-1,8.649996E1,3.8139126E1,4.3666667E-1,1.4210855E-14,3.5666665E-1,-1.798992E-2,1.39460685E-2,5.8895256E-2,1.189713E-2,-8.883941E-3,-6.167518E-2,-6.897539E-2,8.031826E-3],"split_indices":[22,6,0,0,6,14,6,0,0,0,0,0,0,0,0],"split_type":[0,0,0,0,0,0,0,0,0,0,0,0,0,0,0],"sum_hessian":[1.3228136E2,8.692841E1,4.535295E1,6.70136E1,1.9914806E1,4.0366867E1,4.986084E0,3.534733E1,3.1666277E1,5.3763666E0,1.4538439E1,3.838087E1,1.9859933E0,3.7408552E0,1.2452289E0],"tree_param":{"num_deleted":"0","num_feature":"27","num_nodes":"15","size_leaf_vector":"1"}},{"base_weights":[-2.1103041E-2,-2.1153195E-1,1.4926934E-1,-4.0340152E-1,1.1684306E-1,8.474273E-1,7.030683E-3,-3.1664766E-2,1.5711091E-2,-4.1017815E-2,1.04993805E-2,2.1098207E-3,5.3246867E-2,-3.771064E-2,6.696982E-3],"categories":[],"categories_nodes":[],"categories_segments":[],"categories_sizes":[],"default_left":[0,0,0,0,0,0,0,0,0,0,0,0,0,0,0],"id":12,"left_children":[1,3,5,7,9,11,13,-1,-1,-1,-1,-1,-1,-1,-1],"loss_changes":[4.58048E0,4.244603E0,7.4009695E0,7.1734624E0,2.3848155E0,2.1646557E0,6.184647E0,0E0,0E0,0E0,0E0,0E0,0E0,0E0,0E0],"parents":[2147483647,0,0,1,1,2,2,3,3,4,4,5,5,6,6],"right_children":[2,4,6,8,10,12,14,-1,-1,-1,-1,-1,-1,-1,-1],"split_conditions":[-4.183762E-3,1.2666667E-1,2.6968278E-2,1.5081526E3,-2.8E-1,2.9659625E-3,-1.0330303E0,-3.1664766E-2,1.5711091E-2,-4.1017815E-2,1.04993805E-2,2.1098207E-3,5.3246867E-2,-3.771064E-2,6.696982E-3],"split_indices":[5,6,5,23,7,5,24,0,0,0,0,0,0,0,0],"split_type":[0,0,0,0,0,0,0,0,0,0,0,0,0,0,0],"sum_hessian":[1.3920865E2,6.562102E1,7.358762E1,4.127535E1,2.434567E1,1.1615725E1,6.1971897E1,3.134981E1,9.925538E0,1.4950879E0,2.2850582E1,2.724291E0,8.891434E0,8.148922E0,5.3822975E1],"tree_param":{"num_deleted":"0","num_feature":"27","num_nodes":"15","size_leaf_vector":"1"}},{"base_weights":[1.4990686E-1,3.4917542E-1,-1.3909052E-1,-2.4536568E-1,4.655393E-1,-5.488666E-2,-1.0469912E0,-2.6808796E-2,4.4477306E-2,-4.6421237E-2,2.5536263E-2,-1.634952E-2,1.1444739E-2,-1.012399E-2,-6.4460956E-2],"categories":[],"categories_nodes":[],"categories_segments":[],"categories_sizes":[],"default_left":[0,0,0,0,0,0,0,0,0,0,0,0,0,0,0],"id":13,"left_children":[1,3,5,7,9,11,13,-1,-1,-1,-1,-1,-1,-1,-1],"loss_changes":[7.8556385E0,5.6852093E0,4.226891E0,5.043294E0,4.7377825E0,4.116514E0,7.0065737E-1,0E0,0E0,0E0,0E0,0E0,0E0,0E0,0E0],"parents":[2147483647,0,0,1,1,2,2,3,3,4,4,5,5,6,6],"right_children":[2,4,6,8,10,12,14,-1,-1,-1,-1,-1,-1,-1,-1],"split_conditions":[1.5029027E3,-9.797959E-1,1.4210855E-14,3.1333333E-1,1.4656577E3,6E-2,1.494244E3,-2.6808796E-2,4.4477306E-2,-4.6421237E-2,2.5536263E-2,-1.634952E-2,1.1444739E-2,-1.012399E-2,-6.4460956E-2],"split_indices":[22,24,14,6,23,6,23,0,0,0,0,0,0,0,0],"split_type":[0,0,0,0,0,0,0,0,0,0,0,0,0,0,0],"sum_hessian":[1.3456743E2,7.9525215E1,5.5042213E1,1.2835554E1,6.668967E1,5.134101E1,3.7012022E0,1.0637388E1,2.1981668E0,1.4801792E0,6.520949E1,2.6132046E1,2.5208965E1,1.2341893E0,2.467013E0],"tree_param":{"num_deleted":"0","num_feature":"27","num_nodes":"15","size_leaf_vector":"1"}},{"base_weights":[-4.3328807E-2,-1.7197295E-3,-1.2020308E0,-1.02350056E-1,4.2719135E-1,-1.3383785E-2,-7.281282E-2,-6.8706633E-3,5.9403997E-2,3.7725613E-2,-2.287256E-2],"categories":[],"categories_nodes":[],"categories_segments":[],"categories_sizes":[],"default_left":[0,0,0,0,0,0,0,0,0,0,0],"id":14,"left_children":[1,3,5,7,9,-1,-1,-1,-1,-1,-1],"loss_changes":[6.5521793E0,5.7511263E0,7.2926235E-1,5.0458984E0,7.677458E0,0E0,0E0,0E0,0E0,0E0,0E0],"parents":[2147483647,0,0,1,1,2,2,3,3,4,4],"right_children":[2,4,6,8,10,-1,-1,-1,-1,-1,-1],"split_conditions":[3.0050604E0,1E0,1.4960537E3,1.5917961E1,1.5089742E3,-1.3383785E-2,-7.281282E-2,-6.8706633E-3,5.9403997E-2,3.7725613E-2,-2.287256E-2],"split_indices":[12,3,23,11,22,0,0,0,0,0,0],"split_type":[0,0,0,0,0,0,0,0,0,0,0],"sum_hessian":[1.349449E2,1.3123376E2,3.7111306E0,1.0691171E2,2.4322056E1,1.2328697E0,2.4782608E0,1.0495346E2,1.9582529E0,1.7860651E1,6.461405E0],"tree_param":{"num_deleted":"0","num_feature":"27","num_nodes":"11","size_leaf_vector":"1"}},{"base_weights":[1.8846067E-2,-1.0574696E0,5.8674913E-2,-7.477122E-2,7.305016E-3,-9.2395175E-1,1.0550524E-1,-5.9944298E-2,5.230713E-3,5.589744E-2,3.6373541E-3],"categories":[],"categories_nodes":[],"categories_segments":[],"categories_sizes":[],"default_left":[0,0,0,0,0,0,0,0,0,0,0],"id":15,"left_children":[1,3,5,-1,-1,7,9,-1,-1,-1,-1],"loss_changes":[5.9737997E0,2.8401127E0,6.2605495E0,0E0,0E0,1.8773069E0,4.1883025E0,0E0,0E0,0E0,0E0],"parents":[2147483647,0,0,1,1,2,2,5,5,6,6],"right_children":[2,4,6,-1,-1,8,10,-1,-1,-1,-1],"split_conditions":[1.4665505E3,8E-2,-8.6581804E-2,-7.477122E-2,7.305016E-3,-1.3333334E-2,-8.666667E-1,-5.9944298E-2,5.230713E-3,5.589744E-2,3.6373541E-3],"split_indices":[23,6,18,0,0,7,6,0,0,0,0],"split_type":[0,0,0,0,0,0,0,0,0,0,0],"sum_hessian":[1.3690463E2,3.9736013E0,1.3293103E2,2.7356594E0,1.2379421E0,5.195052E0,1.27735985E2,3.9686487E0,1.2264034E0,2.9651747E0,1.24770805E2],"tree_param":{"num_deleted":"0","num_feature":"27","num_nodes":"11","size_leaf_vector":"1"}},{"base_weights":[5.623096E-3,5.2790844E-1,-8.564663E-2,-2.5272575E-1,9.3755454E-1,-5.9923434E-1,3.7834868E-2,1.4761822E-2,-3.572E-2,-1.1355955E-2,5.656367E-2,-1.1084287E-2,-5.5789795E-2,3.5671327E-2,-1.9879134E-3],"categories":[],"categories_nodes":[],"categories_segments":[],"categories_sizes":[],"default_left":[0,0,0,0,0,0,0,0,0,0,0,0,0,0,0],"id":16,"left_children":[1,3,5,7,9,11,13,-1,-1,-1,-1,-1,-1,-1,-1],"loss_changes":[6.438494E0,6.6615543E0,7.3175955E0,2.1593692E0,3.2776318E0,4.1124754E0,4.9388313E0,0E0,0E0,0E0,0E0,0E0,0E0,0E0,0E0],"parents":[2147483647,0,0,1,1,2,2,3,3,4,4,5,5,6,6],"right_children":[2,4,6,8,10,12,14,-1,-1,-1,-1,-1,-1,-1,-1],"split_conditions":[-7.369301E0,-3.2468357E0,-1.08074E0,-1.4356746E1,-1.336464E-1,-4.558046E0,-6.423002E-1,1.4761822E-2,-3.572E-2,-1.1355955E-2,5.656367E-2,-1.1084287E-2,-5.5789795E-2,3.5671327E-2,-1.9879134E-3],"split_indices":[11,9,9,11,5,11,26,0,0,0,0,0,0,0,0],"split_type":[0,0,0,0,0,0,0,0,0,0,0,0,0,0,0],"sum_hessian":[1.3311865E2,1.9090483E1,1.1402817E2,6.702003E0,1.238848E1,2.1355003E1,9.267316E1,3.229459E0,3.472544E0,1.7421194E0,1.0646361E1,1.316328E1,8.191725E0,8.703E0,8.397016E1],"tree_param":{"num_deleted":"0","num_feature":"27","num_nodes":"15","size_leaf_vector":"1"}},{"base_weights":[-8.056085E-2,-2.3123126E-1,2.2612986E-1,-1.2837933E-1,-7.2334176E-1,-9.346956E-2,7.7768654E-1,5.6786485E-2,-8.4227035E-3,1.51999025E-2,-5.073626E-2,-3.1055419E-2,4.745973E-3,6.264791E-2,5.480439E-3],"categories":[],"categories_nodes":[],"categories_segments":[],"categories_sizes":[],"default_left":[0,0,0,0,0,0,0,0,0,0,0,0,0,0,0],"id":17,"left_children":[1,3,5,7,9,11,13,-1,-1,-1,-1,-1,-1,-1,-1],"loss_changes":[6.329575E0,4.542788E0,8.050564E0,4.0905447E0,4.9834347E0,2.995937E0,5.168664E0,0E0,0E0,0E0,0E0,0E0,0E0,0E0,0E0],"parents":[2147483647,0,0,1,1,2,2,3,3,4,4,5,5,6,6],"right_children":[2,4,6,8,10,12,14,-1,-1,-1,-1,-1,-1,-1,-1],"split_conditions":[5.6665394E1,1.45609E-1,9.7213455E-2,-2.0863197E0,-1.2286134E1,1.4884158E3,1.5008694E3,5.6786485E-2,-8.4227035E-3,1.51999025E-2,-5.073626E-2,-3.1055419E-2,4.745973E-3,6.264791E-2,5.480439E-3],"split_indices":[0,5,5,24,0,23,23,0,0,0,0,0,0,0,0],"split_type":[0,0,0,0,0,0,0,0,0,0,0,0,0,0,0],"sum_hessian":[1.3484491E2,9.0587364E1,4.425754E1,7.5970314E1,1.4617049E1,2.8546698E1,1.5710844E1,1.4942946E0,7.447602E1,3.2201989E0,1.1396851E1,6.9063864E0,2.164031E1,8.668553E0,7.042291E0],"tree_param":{"num_deleted":"0","num_feature":"27","num_nodes":"15","size_leaf_vector":"1"}},{"base_weights":[-5.857469E-2,-1.2064044E-1,6.62122E-1,-6.3151285E-2,-9.987012E-1,1.08529E0,-5.84408E-1,3.2885247E-3,-1.6083812E-2,-6.3445285E-2,1.2567251E-2,6.312618E-2,-1.2270302E-3,-5.4822218E-2,9.363119E-3],"categories":[],"categories_nodes":[],"categories_segments":[],"categories_sizes":[],"default_left":[0,0,0,0,0,0,0,0,0,0,0,0,0,0,0],"id":18,"left_children":[1,3,5,7,9,11,13,-1,-1,-1,-1,-1,-1,-1,-1],"loss_changes":[6.3152747E0,6.4584002E0,6.545933E0,4.0980387E0,2.9776006E0,1.745575E0,1.5844342E0,0E0,0E0,0E0,0E0,0E0,0E0,0E0,0E0],"parents":[2147483647,0,0,1,1,2,2,3,3,4,4,5,5,6,6],"right_children":[2,4,6,8,10,12,14,-1,-1,-1,-1,-1,-1,-1,-1],"split_conditions":[1.10776665E2,2.842171E-14,1.5029027E3,1.5043767E3,8.834878E0,1E0,1.7333333E-1,3.2885247E-3,-1.6083812E-2,-6.3445285E-2,1.2567251E-2,6.312618E-2,-1.2270302E-3,-5.4822218E-2,9.363119E-3],"split_indices":[0,14,22,23,13,2,7,0,0,0,0,0,0,0,0],"split_type":[0,0,0,0,0,0,0,0,0,0,0,0,0,0,0],"sum_hessian":[1.3839896E2,1.281918E2,1.0207155E1,1.2132052E2,6.8712807E0,7.7168245E0,2.4903314E0,8.144897E1,3.9871548E1,5.637596E0,1.2336848E0,6.535552E0,1.1812723E0,1.2440075E0,1.2463238E0],"tree_param":{"num_deleted":"0","num_feature":"27","num_nodes":"15","size_leaf_vector":"1"}},{"base_weights":[3.167415E-2,9.617769E-2,-7.045729E-1,2.2004764E-1,-1.568385E-1,-1.0258611E0,3.4261912E-2,3.5582301E-3,3.957703E-2,2.4285382E-2,-1.4112109E-2,1.0426312E-2,-6.1755057E-2],"categories":[],"categories_nodes":[],"categories_segments":[],"categories_sizes":[],"default_left":[0,0,0,0,0,0,0,0,0,0,0,0,0],"id":19,"left_children":[1,3,5,7,9,11,-1,-1,-1,-1,-1,-1,-1],"loss_changes":[6.4951205E0,3.9621E0,5.624722E0,7.1373134E0,3.5029402E0,2.6732988E0,0E0,0E0,0E0,0E0,0E0,0E0,0E0],"parents":[2147483647,0,0,1,1,2,2,3,3,4,4,5,5],"right_children":[2,4,6,8,10,12,-1,-1,-1,-1,-1,-1,-1],"split_conditions":[1.4210855E-14,1.5043767E3,1.7407829E0,3.4333333E-1,-4.2333335E-1,-4.1955754E-1,3.4261912E-2,3.5582301E-3,3.957703E-2,2.4285382E-2,-1.4112109E-2,1.0426312E-2,-6.1755057E-2],"split_indices":[14,23,25,6,6,10,0,0,0,0,0,0,0],"split_type":[0,0,0,0,0,0,0,0,0,0,0,0,0],"sum_hessian":[1.3433974E2,1.2431749E2,1.0022245E1,8.354594E1,4.0771553E1,8.353096E0,1.6691488E0,6.717127E1,1.6374664E1,6.1886835E0,3.4582867E1,1.211196E0,7.1419E0],"tree_param":{"num_deleted":"0","num_feature":"27","num_nodes":"13","size_leaf_vector":"1"}},{"base_weights":[2.1520898E-2,-1.1021401E0,6.7196295E-2,-6.431905E-2,-1.2879612E-2,1.19853966E-1,-6.7588377E-1,2.9321153E-2,2.4423986E-3,-5.0282534E-2,3.1586684E-2],"categories":[],"categories_nodes":[],"categories_segments":[],"categories_sizes":[],"default_left":[0,0,0,0,0,0,0,0,0,0,0],"id":20,"left_children":[1,3,5,-1,-1,7,9,-1,-1,-1,-1],"loss_changes":[7.1787157E0,5.189333E-1,5.3228607E0,0E0,0E0,4.143918E0,4.522924E0,0E0,0E0,0E0,0E0],"parents":[2147483647,0,0,1,1,2,2,5,5,6,6],"right_children":[2,4,6,-1,-1,8,10,-1,-1,-1,-1],"split_conditions":[1.4692101E3,1.1071259E0,2.842171E-14,-6.431905E-2,-1.2879612E-2,-4.5666668E-1,1.5468489E0,2.9321153E-2,2.4423986E-3,-5.0282534E-2,3.1586684E-2],"split_indices":[23,24,14,0,0,6,25,0,0,0,0],"split_type":[0,0,0,0,0,0,0,0,0,0,0],"sum_hessian":[1.3742847E2,4.4646134E0,1.3296385E2,3.2355974E0,1.229016E0,1.2494822E2,8.015633E0,1.5545096E1,1.0940313E2,6.585716E0,1.4299167E0],"tree_param":{"num_deleted":"0","num_feature":"27","num_nodes":"11","size_leaf_vector":"1"}},{"base_weights":[-2.9023455E-2,1.8591123E-2,-6.3443273E-1,4.112658E-1,-4.467919E-2,-1.0547423E0,3.91967E-2,-3.13507E-2,4.0988322E-2,-4.4499412E-2,9.385922E-4,-6.681822E-2,-2.0071598E-2],"categories":[],"categories_nodes":[],"categories_segments":[],"categories_sizes":[],"default_left":[0,0,0,0,0,0,0,0,0,0,0,0,0],"id":21,"left_children":[1,3,5,7,9,11,-1,-1,-1,-1,-1,-1,-1],"loss_changes":[4.058167E0,3.2756908E0,6.945447E0,8.272091E0,6.121307E0,9.98662E-1,0E0,0E0,0E0,0E0,0E0,0E0,0E0],"parents":[2147483647,0,0,1,1,2,2,3,3,4,4,5,5],"right_children":[2,4,6,8,10,12,-1,-1,-1,-1,-1,-1,-1],"split_conditions":[1.4210855E-14,-7.369301E0,1.4515407E0,-7.823675E-2,-1.5612686E0,3.710242E-2,3.91967E-2,-3.13507E-2,4.0988322E-2,-4.4499412E-2,9.385922E-4,-6.681822E-2,-2.0071598E-2],"split_indices":[14,11,25,5,25,5,0,0,0,0,0,0,0],"split_type":[0,0,0,0,0,0,0,0,0,0,0,0,0],"sum_hessian":[1.393708E2,1.3010733E2,9.263465E0,1.729142E1,1.1281592E2,7.3436604E0,1.9198046E0,4.731225E0,1.2560196E1,6.9674597E0,1.0584846E2,4.4009976E0,2.9426627E0],"tree_param":{"num_deleted":"0","num_feature":"27","num_nodes":"13","size_leaf_vector":"1"}},{"base_weights":[3.50278E-2,2.1684845E-1,-2.357397E-1,6.07003E-2,6.775507E-1,1.7119913E-1,-4.9637374E-1,-1.3548222E-2,2.2757104E-2,4.9337503E-2,-1.16941E-2,5.3310055E-2,-6.479868E-3,2.2058345E-2,-3.131637E-2],"categories":[],"categories_nodes":[],"categories_segments":[],"categories_sizes":[],"default_left":[0,0,0,0,0,0,0,0,0,0,0,0,0,0,0],"id":22,"left_children":[1,3,5,7,9,11,13,-1,-1,-1,-1,-1,-1,-1,-1],"loss_changes":[6.762668E0,5.863578E0,5.9445558E0,8.286827E0,6.0585165E0,6.145128E0,4.4106855E0,0E0,0E0,0E0,0E0,0E0,0E0,0E0,0E0],"parents":[2147483647,0,0,1,1,2,2,3,3,4,4,5,5,6,6],"right_children":[2,4,6,8,10,12,14,-1,-1,-1,-1,-1,-1,-1,-1],"split_conditions":[1.5030599E3,1E0,-2.706742E-2,3.8139126E1,1.2711757E0,-8.7291265E-1,-2.2763693E0,-1.3548222E-2,2.2757104E-2,4.9337503E-2,-1.16941E-2,5.3310055E-2,-6.479868E-3,2.2058345E-2,-3.131637E-2],"split_indices":[22,1,5,0,26,24,9,0,0,0,0,0,0,0,0],"split_type":[0,0,0,0,0,0,0,0,0,0,0,0,0,0,0],"sum_hessian":[1.3532736E2,8.108071E1,5.424665E1,6.1401382E1,1.9679327E1,2.1312967E1,3.293368E1,3.3525036E1,2.7876347E1,1.4632636E1,5.0466914E0,4.7210813E0,1.6591887E1,3.7177138E0,2.9215967E1],"tree_param":{"num_deleted":"0","num_feature":"27","num_nodes":"15","size_leaf_vector":"1"}},{"base_weights":[3.9206343E-3,-1.8099463E-1,1.8917538E-1,-1.064635E0,-9.042386E-2,-5.211231E-1,2.9978594E-1,-8.227316E-3,-6.223596E-2,-2.9039124E-2,2.2268298E-3,3.0752545E-2,-4.6099138E-2,6.593589E-2,9.219744E-3],"categories":[],"categories_nodes":[],"categories_segments":[],"categories_sizes":[],"default_left":[0,0,0,0,0,0,0,0,0,0,0,0,0,0,0],"id":23,"left_children":[1,3,5,7,9,11,13,-1,-1,-1,-1,-1,-1,-1,-1],"loss_changes":[4.822279E0,5.542818E0,5.6802473E0,8.4193754E-1,4.3276772E0,5.048149E0,6.984355E0,0E0,0E0,0E0,0E0,0E0,0E0,0E0,0E0],"parents":[2147483647,0,0,1,1,2,2,3,3,4,4,5,5,6,6],"right_children":[2,4,6,8,10,12,14,-1,-1,-1,-1,-1,-1,-1,-1],"split_conditions":[2.9659625E-3,1.4754475E3,-1.0330303E0,-2.2550216E0,1.4878041E3,1.4918441E3,-6.418473E-1,-8.227316E-3,-6.223596E-2,-2.9039124E-2,2.2268298E-3,3.0752545E-2,-4.6099138E-2,6.593589E-2,9.219744E-3],"split_indices":[5,22,24,8,23,23,24,0,0,0,0,0,0,0,0],"split_type":[0,0,0,0,0,0,0,0,0,0,0,0,0,0,0],"sum_hessian":[1.3877054E2,6.94604E1,6.931013E1,5.4577684E0,6.400264E1,8.838884E0,6.047124E1,1.228959E0,4.2288094E0,1.3100516E1,5.0902122E1,2.1658342E0,6.67305E0,5.090715E0,5.5380527E1],"tree_param":{"num_deleted":"0","num_feature":"27","num_nodes":"15","size_leaf_vector":"1"}},{"base_weights":[3.9996557E-2,8.325161E-2,-6.596222E-1,4.4989223E-3,4.4284678E-1,-1.0958704E0,3.370603E-2,-4.225205E-3,1.6804209E-2,4.7195833E-2,7.6537565E-3,-7.085123E-2,-1.1136925E-2],"categories":[],"categories_nodes":[],"categories_segments":[],"categories_sizes":[],"default_left":[0,0,0,0,0,0,0,0,0,0,0,0,0],"id":24,"left_children":[1,3,5,7,9,11,-1,-1,-1,-1,-1,-1,-1],"loss_changes":[4.2536354E0,3.7235165E0,5.5044775E0,3.2431555E0,3.2857013E0,1.5218558E0,0E0,0E0,0E0,0E0,0E0,0E0,0E0],"parents":[2147483647,0,0,1,1,2,2,3,3,4,4,5,5],"right_children":[2,4,6,8,10,12,-1,-1,-1,-1,-1,-1,-1],"split_conditions":[2.842171E-14,1E0,1.4515407E0,2.7E-1,-2.7027166E-1,8.414169E0,3.370603E-2,-4.225205E-3,1.6804209E-2,4.7195833E-2,7.6537565E-3,-7.085123E-2,-1.1136925E-2],"split_indices":[14,3,25,7,24,14,0,0,0,0,0,0,0],"split_type":[0,0,0,0,0,0,0,0,0,0,0,0,0],"sum_hessian":[1.3774544E2,1.3055469E2,7.1907487E0,1.0793011E2,2.2624584E1,5.5528426E0,1.6379058E0,8.567789E1,2.2252222E1,7.462706E0,1.5161879E1,3.604221E0,1.9486217E0],"tree_param":{"num_deleted":"0","num_feature":"27","num_nodes":"13","size_leaf_vector":"1"}},{"base_weights":[-2.3285136E-2,-8.540756E-2,8.559663E-1,-7.809369E-1,-2.531146E-2,1.1583074E0,1.8192854E-2,-6.3322E-2,1.6747514E-2,5.644928E-4,-4.951377E-2,6.310244E-2,1.6455324E-2,-3.0900178E-2,3.226295E-2],"categories":[],"categories_nodes":[],"categories_segments":[],"categories_sizes":[],"default_left":[0,0,0,0,0,0,0,0,0,0,0,0,0,0,0],"id":25,"left_children":[1,3,5,7,9,11,13,-1,-1,-1,-1,-1,-1,-1,-1],"loss_changes":[7.683721E0,5.4578896E0,2.3309007E0,6.0526214E0,4.308075E0,1.7022514E-1,1.7864159E0,0E0,0E0,0E0,0E0,0E0,0E0,0E0,0E0],"parents":[2147483647,0,0,1,1,2,2,3,3,4,4,5,5,6,6],"right_children":[2,4,6,8,10,12,14,-1,-1,-1,-1,-1,-1,-1,-1],"split_conditions":[1.1592304E2,1.4742792E3,1.5029027E3,6.776528E1,1.0538112E2,5.466667E-1,6.97829E-2,-6.3322E-2,1.6747514E-2,5.644928E-4,-4.951377E-2,6.310244E-2,1.6455324E-2,-3.0900178E-2,3.226295E-2],"split_indices":[0,22,22,0,0,7,5,0,0,0,0,0,0,0,0],"split_type":[0,0,0,0,0,0,0,0,0,0,0,0,0,0,0],"sum_hessian":[1.3833437E2,1.3004878E2,8.285574E0,9.389024E0,1.2065977E2,5.807224E0,2.4783504E0,6.448483E0,2.9405406E0,1.17202545E2,3.457221E0,4.697512E0,1.1097114E0,1.237393E0,1.2409574E0],"tree_param":{"num_deleted":"0","num_feature":"27","num_nodes":"15","size_leaf_vector":"1"}},{"base_weights":[1.5482435E-2,1.2949215E-1,-2.5545242E-1,7.597959E-4,6.972673E-1,2.9782188E-1,-4.6579936E-1,-3.5490703E-2,5.085829E-3,3.3439603E-3,5.7856113E-2,-3.2821313E-2,2.8097743E-2,-3.0696085E-2,2.809367E-2],"categories":[],"categories_nodes":[],"categories_segments":[],"categories_sizes":[],"default_left":[0,0,0,0,0,0,0,0,0,0,0,0,0,0,0],"id":26,"left_children":[1,3,5,7,9,11,13,-1,-1,-1,-1,-1,-1,-1,-1],"loss_changes":[4.175679E0,6.947149E0,4.8004785E0,5.702686E0,5.015211E0,3.3037167E0,4.822158E0,0E0,0E0,0E0,0E0,0E0,0E0,0E0,0E0],"parents":[2147483647,0,0,1,1,2,2,3,3,4,4,5,5,6,6],"right_children":[2,4,6,8,10,12,14,-1,-1,-1,-1,-1,-1,-1,-1],"split_conditions":[1.5075685E3,1E0,-4.4248514E0,-1.0645844E0,1.493384E3,-1.1231714E1,3.4E-1,-3.5490703E-2,5.085829E-3,3.3439603E-3,5.7856113E-2,-3.2821313E-2,2.8097743E-2,-3.0696085E-2,2.809367E-2],"split_indices":[22,3,11,24,22,11,7,0,0,0,0,0,0,0,0],"split_type":[0,0,0,0,0,0,0,0,0,0,0,0,0,0,0],"sum_hessian":[1.3311159E2,9.405514E1,3.905646E1,7.748761E1,1.6567522E1,1.0643932E1,2.8412529E1,8.889427E0,6.859818E1,7.4711704E0,9.096353E0,1.9855202E0,8.658412E0,2.5185114E1,3.2274146E0],"tree_param":{"num_deleted":"0","num_feature":"27","num_nodes":"15","size_leaf_vector":"1"}},{"base_weights":[-4.5030024E-2,1.5027373E-1,-2.0769323E-1,4.947075E-2,8.653242E-1,-1.4568415E-1,-7.3772633E-1,-1.4765367E-3,4.1491847E-2,-1.4683832E-2,6.168996E-2,-1.12763E-2,1.724334E-2,-5.864823E-2,8.206137E-3],"categories":[],"categories_nodes":[],"categories_segments":[],"categories_sizes":[],"default_left":[0,0,0,0,0,0,0,0,0,0,0,0,0,0,0],"id":27,"left_children":[1,3,5,7,9,11,13,-1,-1,-1,-1,-1,-1,-1,-1],"loss_changes":[4.4955263E0,4.6016984E0,2.4262075E0,3.5715652E0,3.7364712E0,2.8296611E0,3.2651806E0,0E0,0E0,0E0,0E0,0E0,0E0,0E0,0E0],"parents":[2147483647,0,0,1,1,2,2,3,3,4,4,5,5,6,6],"right_children":[2,4,6,8,10,12,14,-1,-1,-1,-1,-1,-1,-1,-1],"split_conditions":[1.4988867E3,2.4898633E-1,2E0,2E0,-1.1332997E0,1E0,1.2E-1,-1.4765367E-3,4.1491847E-2,-1.4683832E-2,6.168996E-2,-1.12763E-2,1.724334E-2,-5.864823E-2,8.206137E-3],"split_indices":[22,5,1,1,25,3,7,0,0,0,0,0,0,0,0],"split_type":[0,0,0,0,0,0,0,0,0,0,0,0,0,0,0],"sum_hessian":[1.395254E2,6.343614E1,7.608927E1,5.653535E1,6.9007864E0,6.92612E1,6.8280773E0,5.2211777E1,4.3235755E0,1.7136543E0,5.187132E0,6.0030865E1,9.230335E0,4.402689E0,2.425388E0],"tree_param":{"num_deleted":"0","num_feature":"27","num_nodes":"15","size_leaf_vector":"1"}},{"base_weights":[1.7947078E-2,-7.988547E-2,4.463485E-1,-1.4126556E-1,5.841884E-1,1.019295E0,9.421221E-2,1.2558757E-2,-1.4389603E-2,5.707527E-2,-1.0031143E-2,-1.7011931E-2,6.280783E-2,-2.4663178E-2,2.757723E-2],"categories":[],"categories_nodes":[],"categories_segments":[],"categories_sizes":[],"default_left":[0,0,0,0,0,0,0,0,0,0,0,0,0,0,0],"id":28,"left_children":[1,3,5,7,9,11,13,-1,-1,-1,-1,-1,-1,-1,-1],"loss_changes":[5.671765E0,4.579422E0,4.9785886E0,5.9257765E0,4.396945E0,3.4777384E0,4.753463E0,0E0,0E0,0E0,0E0,0E0,0E0,0E0,0E0],"parents":[2147483647,0,0,1,1,2,2,3,3,4,4,5,5,6,6],"right_children":[2,4,6,8,10,12,14,-1,-1,-1,-1,-1,-1,-1,-1],"split_conditions":[1E0,1.10776665E2,-2.4689662E-1,-4.8089094E0,2.2627025E0,-2.2763693E0,-8E-2,1.2558757E-2,-1.4389603E-2,5.707527E-2,-1.0031143E-2,-1.7011931E-2,6.280783E-2,-2.4663178E-2,2.757723E-2],"split_indices":[3,0,24,11,8,8,7,0,0,0,0,0,0,0,0],"split_type":[0,0,0,0,0,0,0,0,0,0,0,0,0,0,0],"sum_hessian":[1.3347609E2,1.0932374E2,2.4152355E1,1.007946E2,8.529131E0,8.472498E0,1.5679858E1,2.7208393E1,7.358621E1,4.721653E0,3.8074775E0,1.1923313E0,7.2801666E0,6.828982E0,8.850877E0],"tree_param":{"num_deleted":"0","num_feature":"27","num_nodes":"15","size_leaf_vector":"1"}},{"base_weights":[7.332957E-3,-7.7137405E-1,4.551514E-2,-9.5611984E-1,-4.614189E-3,1.5366128E-2,8.3023965E-1,-6.1256517E-2,-1.8320363E-2,4.030816E-3,-2.1278216E-2,4.8725005E-2,1.1325461E-2],"categories":[],"categories_nodes":[],"categories_segments":[],"categories_sizes":[],"default_left":[0,0,0,0,0,0,0,0,0,0,0,0,0],"id":29,"left_children":[1,3,5,7,-1,9,11,-1,-1,-1,-1,-1,-1],"loss_changes":[4.0777903E0,7.1607876E-1,3.0760326E0,3.336749E-1,0E0,3.6808577E0,1.9832349E-1,0E0,0E0,0E0,0E0,0E0,0E0],"parents":[2147483647,0,0,1,1,2,2,3,3,5,5,6,6],"right_children":[2,4,6,8,-1,10,12,-1,-1,-1,-1,-1,-1],"split_conditions":[-3.3847318E0,8.716136E-2,3.6570582E-1,-2.4608896E1,-4.614189E-3,1.9853458E-1,3.1333333E-1,-6.1256517E-2,-1.8320363E-2,4.030816E-3,-2.1278216E-2,4.8725005E-2,1.1325461E-2],"split_indices":[9,5,5,0,0,5,6,0,0,0,0,0,0],"split_type":[0,0,0,0,0,0,0,0,0,0,0,0,0],"sum_hessian":[1.3496735E2,5.410961E0,1.2955638E2,3.9330401E0,1.4779212E0,1.25744865E2,3.8115194E0,1.9609877E0,1.9720525E0,1.10247314E2,1.5497557E1,2.5807273E0,1.2307919E0],"tree_param":{"num_deleted":"0","num_feature":"27","num_nodes":"13","size_leaf_vector":"1"}},{"base_weights":[2.9494196E-2,-1.481207E-1,2.1507865E-1,-3.5462625E-2,-5.800726E-1,3.127726E-1,-7.554637E-1,-9.999788E-3,1.7222567E-2,-6.16658E-2,7.573433E-3,-2.2547312E-2,2.0838344E-2,-6.206323E-2,1.3733494E-2],"categories":[],"categories_nodes":[],"categories_segments":[],"categories_sizes":[],"default_left":[0,0,0,0,0,0,0,0,0,0,0,0,0,0,0],"id":30,"left_children":[1,3,5,7,9,11,13,-1,-1,-1,-1,-1,-1,-1,-1],"loss_changes":[4.6309385E0,3.4775662E0,6.7443943E0,3.6993837E0,7.261763E0,5.1970415E0,3.6288738E0,0E0,0E0,0E0,0E0,0E0,0E0,0E0,0E0],"parents":[2147483647,0,0,1,1,2,2,3,3,4,4,5,5,6,6],"right_children":[2,4,6,8,10,12,14,-1,-1,-1,-1,-1,-1,-1,-1],"split_conditions":[2.9659625E-3,-2.706742E-2,1.5253352E3,4.5655915E-1,-5.522398E-2,-1.1141182E0,1.5362316E3,-9.999788E-3,1.7222567E-2,-6.16658E-2,7.573433E-3,-2.2547312E-2,2.0838344E-2,-6.206323E-2,1.3733494E-2],"split_indices":[5,5,23,24,11,24,23,0,0,0,0,0,0,0,0],"split_type":[0,0,0,0,0,0,0,0,0,0,0,0,0,0,0],"sum_hessian":[1.3852438E2,7.088513E1,6.7639244E1,5.7080086E1,1.380505E1,6.206915E1,5.5700927E0,4.0160816E1,1.691927E1,6.9304566E0,6.8745937E0,7.0390587E0,5.503009E1,3.64581E0,1.9242827E0],"tree_param":{"num_deleted":"0","num_feature":"27","num_nodes":"15","size_leaf_vector":"1"}},{"base_weights":[1.3377226E-2,1.6899885E-1,-2.0067492E-1,-2.2866397E-1,2.9279986E-1,4.0355402E-1,-3.592212E-1,-2.2333493E-2,3.9387133E-2,3.0143693E-2,2.620598E-3,5.3090703E-2,-2.0853726E-2,-6.941321E-2,-1.3588821E-2],"categories":[],"categories_nodes":[],"categories_segments":[],"categories_sizes":[],"default_left":[0,0,0,0,0,0,0,0,0,0,0,0,0,0,0],"id":31,"left_children":[1,3,5,7,9,11,13,-1,-1,-1,-1,-1,-1,-1,-1],"loss_changes":[4.702043E0,4.088463E0,5.8402395E0,4.77348E0,4.6443024E0,7.372395E0,3.9080024E0,0E0,0E0,0E0,0E0,0E0,0E0,0E0,0E0],"parents":[2147483647,0,0,1,1,2,2,3,3,4,4,5,5,6,6],"right_children":[2,4,6,8,10,12,14,-1,-1,-1,-1,-1,-1,-1,-1],"split_conditions":[1.5030599E3,-1.04012184E-1,-8.7291265E-1,2.0910532E0,-2.4535649E-1,-1.2400695E-2,-3.148924E0,-2.2333493E-2,3.9387133E-2,3.0143693E-2,2.620598E-3,5.3090703E-2,-2.0853726E-2,-6.941321E-2,-1.3588821E-2],"split_indices":[22,5,24,8,26,5,8,0,0,0,0,0,0,0,0],"split_type":[0,0,0,0,0,0,0,0,0,0,0,0,0,0,0],"sum_hessian":[1.3913716E2,8.068645E1,5.845072E1,1.895472E1,6.1731724E1,1.182804E1,4.6622684E1,1.6068727E1,2.8859916E0,2.6299864E1,3.543186E1,6.40024E0,5.4278E0,2.4864502E0,4.413623E1],"tree_param":{"num_deleted":"0","num_feature":"27","num_nodes":"15","size_leaf_vector":"1"}},{"base_weights":[2.642465E-2,-1.7900689E-2,5.928127E-1,6.9146717E-1,-5.359467E-2,9.839837E-1,-2.3203823E-1,5.0780613E-2,-1.6356148E-2,2.1117836E-2,-5.388017E-3,6.012838E-2,1.3496915E-2,-5.666078E-2,3.8164932E-2],"categories":[],"categories_nodes":[],"categories_segments":[],"categories_sizes":[],"default_left":[0,0,0,0,0,0,0,0,0,0,0,0,0,0,0],"id":32,"left_children":[1,3,5,7,9,11,13,-1,-1,-1,-1,-1,-1,-1,-1],"loss_changes":[3.4033027E0,3.2350116E0,3.4024968E0,2.3537574E0,3.169508E0,7.466812E-1,4.4293337E0,0E0,0E0,0E0,0E0,0E0,0E0,0E0,0E0],"parents":[2147483647,0,0,1,1,2,2,3,3,4,4,5,5,6,6],"right_children":[2,4,6,8,10,12,14,-1,-1,-1,-1,-1,-1,-1,-1],"split_conditions":[1.10776665E2,-7.7666664E-1,1.5029027E3,-1.3333334E-2,-3.4954258E1,3.5E-1,1.2E-1,5.0780613E-2,-1.6356148E-2,2.1117836E-2,-5.388017E-3,6.012838E-2,1.3496915E-2,-5.666078E-2,3.8164932E-2],"split_indices":[0,6,22,7,0,7,6,0,0,0,0,0,0,0,0],"split_type":[0,0,0,0,0,0,0,0,0,0,0,0,0,0,0],"sum_hessian":[1.3413821E2,1.2530063E2,8.83759E0,5.1226687E0,1.20177956E2,5.863843E0,2.973747E0,3.8882408E0,1.2344282E0,1.1584851E1,1.0859311E2,3.9657E0,1.898143E0,1.4879938E0,1.4857532E0],"tree_param":{"num_deleted":"0","num_feature":"27","num_nodes":"15","size_leaf_vector":"1"}},{"base_weights":[4.963772E-2,5.9823024E-1,-4.0989984E-2,-6.9707346E-1,8.6716753E-1,-6.3989496E-1,3.9837595E-2,-5.874276E-2,9.54726E-3,9.184629E-3,6.0991373E-2,-2.0216389E-2,-5.797198E-2,6.1468937E-2,-4.522163E-4],"categories":[],"categories_nodes":[],"categories_segments":[],"categories_sizes":[],"default_left":[0,0,0,0,0,0,0,0,0,0,0,0,0,0,0],"id":33,"left_children":[1,3,5,7,9,11,13,-1,-1,-1,-1,-1,-1,-1,-1],"loss_changes":[6.923235E0,7.479968E0,5.835461E0,1.8992666E0,3.8227167E0,1.2850676E0,6.2148504E0,0E0,0E0,0E0,0E0,0E0,0E0,0E0,0E0],"parents":[2147483647,0,0,1,1,2,2,3,3,4,4,5,5,6,6],"right_children":[2,4,6,8,10,12,14,-1,-1,-1,-1,-1,-1,-1,-1],"split_conditions":[-7.369301E0,-1.336464E-1,-1.5128196E0,-2.5620978E0,-1.1231714E1,1E0,-4.8089094E0,-5.874276E-2,9.54726E-3,9.184629E-3,6.0991373E-2,-2.0216389E-2,-5.797198E-2,6.1468937E-2,-4.522163E-4],"split_indices":[11,5,8,25,11,1,11,0,0,0,0,0,0,0,0],"split_type":[0,0,0,0,0,0,0,0,0,0,0,0,0,0,0],"sum_hessian":[1.3775774E2,1.8736994E1,1.1902075E2,2.947717E0,1.5789276E1,1.3330378E1,1.0569038E2,1.7065386E0,1.2411783E0,5.8917007E0,9.897575E0,1.039528E1,2.935098E0,3.2184896E0,1.02471886E2],"tree_param":{"num_deleted":"0","num_feature":"27","num_nodes":"15","size_leaf_vector":"1"}},{"base_weights":[-2.6014104E-2,-4.8798297E-2,2.9746946E-3,3.8700223E-2,-6.252302E-1,8.610475E-3,-6.6268938E-3,-5.9038755E-2,-4.8099463E-3],"categories":[],"categories_nodes":[],"categories_segments":[],"categories_sizes":[],"default_left":[0,0,0,0,0,0,0,0,0],"id":34,"left_children":[1,-1,3,5,7,-1,-1,-1,-1],"loss_changes":[3.6909194E0,0E0,2.9632342E0,2.8771524E0,1.97455E0,0E0,0E0,0E0,0E0],"parents":[2147483647,0,0,2,2,3,3,4,4],"right_children":[2,-1,4,6,8,-1,-1,-1,-1],"split_conditions":[1.4656577E3,-4.8798297E-2,2.842171E-14,1.5024324E3,3.7841137E1,8.610475E-3,-6.6268938E-3,-5.9038755E-2,-4.8099463E-3],"split_indices":[23,0,14,22,0,0,0,0,0],"split_type":[0,0,0,0,0,0,0,0,0],"sum_hessian":[1.329248E2,2.9688756E0,1.2995593E2,1.23851006E2,6.1049166E0,6.958891E1,5.4262093E1,2.3769174E0,3.7279992E0],"tree_param":{"num_deleted":"0","num_feature":"27","num_nodes":"9","size_leaf_vector":"1"}},{"base_weights":[3.94026E-2,7.7798456E-2,-7.2651756E-1,-3.4117196E-2,2.9254723E-1,-9.8697996E-1,9.582617E-3,3.1190454E-3,-2.406602E-2,3.445221E-2,-2.9788562E-5,-1.4685802E-2,-6.666002E-2],"categories":[],"categories_nodes":[],"categories_segments":[],"categories_sizes":[],"default_left":[0,0,0,0,0,0,0,0,0,0,0,0,0],"id":35,"left_children":[1,3,5,7,9,11,-1,-1,-1,-1,-1,-1,-1],"loss_changes":[4.264313E0,3.3063374E0,1.8457618E0,3.9597082E0,5.474164E0,9.42677E-1,0E0,0E0,0E0,0E0,0E0,0E0,0E0],"parents":[2147483647,0,0,1,1,2,2,3,3,4,4,5,5],"right_children":[2,4,6,8,10,12,-1,-1,-1,-1,-1,-1,-1],"split_conditions":[6.0825657E-2,5.6665394E1,5.3333335E-2,9.0974027E-1,7.4075943E-1,-8.036133E-1,9.582617E-3,3.1190454E-3,-2.406602E-2,3.445221E-2,-2.9788562E-5,-1.4685802E-2,-6.666002E-2],"split_indices":[10,0,7,24,9,9,0,0,0,0,0,0,0],"split_type":[0,0,0,0,0,0,0,0,0,0,0,0,0],"sum_hessian":[1.4208243E2,1.3615533E2,5.927092E0,9.0061295E1,4.6094036E1,4.558901E0,1.3681914E0,7.478467E1,1.5276628E1,1.9018972E1,2.7075064E1,2.134059E0,2.4248416E0],"tree_param":{"num_deleted":"0","num_feature":"27","num_nodes":"13","size_leaf_vector":"1"}},{"base_weights":[8.862775E-3,-3.9477665E-2,6.4844245E-1,9.927982E-4,-9.672654E-1,9.579188E-1,-1.0376385E-1,-1.0836276E-3,5.2141167E-2,1.2651733E-3,-6.7679815E-2,5.8624227E-2,1.2281337E-2,-3.418105E-2,2.929811E-2],"categories":[],"categories_nodes":[],"categories_segments":[],"categories_sizes":[],"default_left":[0,0,0,0,0,0,0,0,0,0,0,0,0,0,0],"id":36,"left_children":[1,3,5,7,9,11,13,-1,-1,-1,-1,-1,-1,-1,-1],"loss_changes":[4.240391E0,4.795338E0,2.3427725E0,2.9352884E0,2.0811477E0,7.7045727E-1,1.8849162E0,0E0,0E0,0E0,0E0,0E0,0E0,0E0,0E0],"parents":[2147483647,0,0,1,1,2,2,3,3,4,4,5,5,6,6],"right_children":[2,4,6,8,10,12,14,-1,-1,-1,-1,-1,-1,-1,-1],"split_conditions":[1.10776665E2,6.0825657E-2,1.5029027E3,1.5917961E1,-4.4866757E0,3.5E-1,2.4666667E-1,-1.0836276E-3,5.2141167E-2,1.2651733E-3,-6.7679815E-2,5.8624227E-2,1.2281337E-2,-3.418105E-2,2.929811E-2],"split_indices":[0,10,22,11,11,7,7,0,0,0,0,0,0,0,0],"split_type":[0,0,0,0,0,0,0,0,0,0,0,0,0,0,0],"sum_hessian":[1.3532353E2,1.2668663E2,8.6369E0,1.2234866E2,4.337967E0,5.925516E0,2.7113836E0,1.2070196E2,1.6467111E0,1.4772054E0,2.8607614E0,4.0572634E0,1.8682528E0,1.4778211E0,1.2335624E0],"tree_param":{"num_deleted":"0","num_feature":"27","num_nodes":"15","size_leaf_vector":"1"}},{"base_weights":[-1.2232917E-2,4.1649457E-2,-6.4025176E-1,6.2099643E-2,1.0666504E-2,-1.0058391E0,2.8694108E-1,-2.292001E-2,4.027556E-3,5.274636E-3,-6.0919493E-2,5.1229298E-2,-3.5949476E-2],"categories":[],"categories_nodes":[],"categories_segments":[],"categories_sizes":[],"default_left":[0,0,0,0,0,0,0,0,0,0,0,0,0],"id":37,"left_children":[1,3,5,-1,7,9,11,-1,-1,-1,-1,-1,-1],"loss_changes":[4.6610217E0,4.7124977E0,3.9775481E0,0E0,4.130593E0,2.0246649E0,3.5975966E0,0E0,0E0,0E0,0E0,0E0,0E0],"parents":[2147483647,0,0,1,1,2,2,4,4,5,5,6,6],"right_children":[2,4,6,-1,8,10,12,-1,-1,-1,-1,-1,-1],"split_conditions":[1.524511E3,-5.0506053E0,1E0,6.2099643E-2,1.4778949E3,1.4830293E3,7.1693554E0,-2.292001E-2,4.027556E-3,5.274636E-3,-6.0919493E-2,5.1229298E-2,-3.5949476E-2],"split_indices":[23,14,1,0,22,22,11,0,0,0,0,0,0],"split_type":[0,0,0,0,0,0,0,0,0,0,0,0,0],"sum_hessian":[1.3595248E2,1.2606971E2,9.882771E0,2.1886985E0,1.2388101E2,7.027171E0,2.8555992E0,1.5342501E1,1.0853851E2,1.2090864E0,5.8180847E0,1.6367971E0,1.2188021E0],"tree_param":{"num_deleted":"0","num_feature":"27","num_nodes":"13","size_leaf_vector":"1"}},{"base_weights":[-1.1002385E-2,-1.07077286E-1,3.3574867E-1,4.295213E-2,-3.5916024E-1,7.705351E-1,1.2251454E-2,5.271155E-3,-4.0163707E-2,-2.6368767E-2,9.087549E-3,4.8900843E-2,-2.4020502E-2,-1.408252E-2,3.2433048E-2],"categories":[],"categories_nodes":[],"categories_segments":[],"categories_sizes":[],"default_left":[0,0,0,0,0,0,0,0,0,0,0,0,0,0,0],"id":38,"left_children":[1,3,5,7,9,11,13,-1,-1,-1,-1,-1,-1,-1,-1],"loss_changes":[4.573206E0,4.07749E0,4.1806974E0,3.6913896E0,3.7518234E0,3.7643242E0,3.5677166E0,0E0,0E0,0E0,0E0,0E0,0E0,0E0,0E0],"parents":[2147483647,0,0,1,1,2,2,3,3,4,4,5,5,6,6],"right_children":[2,4,6,8,10,12,14,-1,-1,-1,-1,-1,-1,-1,-1],"split_conditions":[3.4333333E-1,4.0931904E-1,4.9333334E-1,7.1054274E-15,1.9423285E0,9.8008335E-1,1E0,5.271155E-3,-4.0163707E-2,-2.6368767E-2,9.087549E-3,4.8900843E-2,-2.4020502E-2,-1.408252E-2,3.2433048E-2],"split_indices":[6,26,6,10,26,24,1,0,0,0,0,0,0,0,0],"split_type":[0,0,0,0,0,0,0,0,0,0,0,0,0,0,0],"sum_hessian":[1.3519633E2,1.0640556E2,2.8790771E1,6.722539E1,3.9180176E1,1.1693113E1,1.7097658E1,6.3419025E1,3.806363E0,2.9905155E1,9.275021E0,1.02167425E1,1.4763708E0,1.20775385E1,5.0201197E0],"tree_param":{"num_deleted":"0","num_feature":"27","num_nodes":"15","size_leaf_vector":"1"}},{"base_weights":[2.7577471E-2,4.4886604E-1,-4.73455E-2,-2.4272238E-1,7.4671066E-1,-1.702195E-1,3.192861E-1,-3.7081253E-2,2.7799651E-2,2.3397662E-2,5.9483953E-2,-2.4620828E-4,-2.1495655E-2,3.3115868E-2,3.1074823E-3],"categories":[],"categories_nodes":[],"categories_segments":[],"categories_sizes":[],"default_left":[0,0,0,0,0,0,0,0,0,0,0,0,0,0,0],"id":39,"left_children":[1,3,5,7,9,11,13,-1,-1,-1,-1,-1,-1,-1,-1],"loss_changes":[4.0179105E0,4.1390095E0,4.937996E0,3.0178163E0,1.1319156E0,3.5112488E0,2.389746E0,0E0,0E0,0E0,0E0,0E0,0E0,0E0,0E0],"parents":[2147483647,0,0,1,1,2,2,3,3,4,4,5,5,6,6],"right_children":[2,4,6,8,10,12,14,-1,-1,-1,-1,-1,-1,-1,-1],"split_conditions":[-4.3666667E-1,-3E-1,3.4333333E-1,1E0,2.7520452E0,1.503251E3,4.9333334E-1,-3.7081253E-2,2.7799651E-2,2.3397662E-2,5.9483953E-2,-2.4620828E-4,-2.1495655E-2,3.3115868E-2,3.1074823E-3],"split_indices":[6,7,6,3,11,22,6,0,0,0,0,0,0,0,0],"split_type":[0,0,0,0,0,0,0,0,0,0,0,0,0,0,0],"sum_hessian":[1.2562003E2,1.8213772E1,1.07406265E2,5.538522E0,1.267525E1,8.084676E1,2.6559502E1,3.453091E0,2.0854309E0,9.041739E0,3.6335106E0,5.0024845E1,3.0821918E1,1.0704068E1,1.5855433E1],"tree_param":{"num_deleted":"0","num_feature":"27","num_nodes":"15","size_leaf_vector":"1"}},{"base_weights":[4.388653E-2,1.4848699E-1,-4.3359712E-1,-1.0174329E-1,3.6952293E-1,-5.8495474E-1,2.6141745E-1,7.8006665E-4,-3.649169E-2,-7.7377893E-3,2.5131116E-2,-3.6001332E-2,1.8907689E-2,4.567714E-2,-2.118255E-2],"categories":[],"categories_nodes":[],"categories_segments":[],"categories_sizes":[],"default_left":[0,0,0,0,0,0,0,0,0,0,0,0,0,0,0],"id":40,"left_children":[1,3,5,7,9,11,13,-1,-1,-1,-1,-1,-1,-1,-1],"loss_changes":[6.825548E0,6.220728E0,2.7387815E0,3.9336271E0,4.2349215E0,2.938376E0,2.6596696E0,0E0,0E0,0E0,0E0,0E0,0E0,0E0,0E0],"parents":[2147483647,0,0,1,1,2,2,3,3,4,4,5,5,6,6],"right_children":[2,4,6,8,10,12,14,-1,-1,-1,-1,-1,-1,-1,-1],"split_conditions":[9.0974027E-1,-8.090717E-3,1.5146359E3,-2.706742E-2,-1.0330303E0,5.733333E-1,1.5196501E3,7.8006665E-4,-3.649169E-2,-7.7377893E-3,2.5131116E-2,-3.6001332E-2,1.8907689E-2,4.567714E-2,-2.118255E-2],"split_indices":[24,5,23,5,24,6,23,0,0,0,0,0,0,0,0],"split_type":[0,0,0,0,0,0,0,0,0,0,0,0,0,0,0],"sum_hessian":[1.3437218E2,1.1079072E2,2.358146E1,5.221682E1,5.85739E1,1.9494402E1,4.0870595E0,4.4818626E1,7.398195E0,1.1826518E1,4.674738E1,1.7318016E1,2.1763859E0,1.9230131E0,2.1640463E0],"tree_param":{"num_deleted":"0","num_feature":"27","num_nodes":"15","size_leaf_vector":"1"}},{"base_weights":[8.313131E-3,1.337368E-1,-1.752744E-1,-3.811826E-1,2.4363552E-1,-8.766543E-2,-8.1238997E-1,-3.044261E-2,3.8048677E-2,-1.5875123E-2,1.7312033E-2,-3.6655053E-2,-7.872753E-4,-5.4674875E-2,1.0765798E-2],"categories":[],"categories_nodes":[],"categories_segments":[],"categories_sizes":[],"default_left":[0,0,0,0,0,0,0,0,0,0,0,0,0,0,0],"id":41,"left_children":[1,3,5,7,9,11,13,-1,-1,-1,-1,-1,-1,-1,-1],"loss_changes":[3.124677E0,4.6530356E0,3.0042336E0,4.2504015E0,3.9686642E0,2.2889743E0,2.1247416E0,0E0,0E0,0E0,0E0,0E0,0E0,0E0,0E0],"parents":[2147483647,0,0,1,1,2,2,3,3,4,4,5,5,6,6],"right_children":[2,4,6,8,10,12,14,-1,-1,-1,-1,-1,-1,-1,-1],"split_conditions":[1.5030599E3,-9.797959E-1,2E0,1.7722636E-1,1.4764781E3,1.504157E3,1.8333334E-1,-3.044261E-2,3.8048677E-2,-1.5875123E-2,1.7312033E-2,-3.6655053E-2,-7.872753E-4,-5.4674875E-2,1.0765798E-2],"split_indices":[22,24,1,5,22,22,7,0,0,0,0,0,0,0,0],"split_type":[0,0,0,0,0,0,0,0,0,0,0,0,0,0,0],"sum_hessian":[1.3368279E2,7.958399E1,5.40988E1,1.3563778E1,6.602021E1,4.8559097E1,5.5397043E0,1.1698755E1,1.8650227E0,9.8820095E0,5.6138203E1,3.9466975E0,4.46124E1,4.299616E0,1.2400883E0],"tree_param":{"num_deleted":"0","num_feature":"27","num_nodes":"15","size_leaf_vector":"1"}},{"base_weights":[-2.255143E-2,-6.604693E-2,8.6754817E-1,3.9661235E-1,-1.4458211E-1,2.3138076E-3,1.0525625E0,-1.2924484E-2,4.0108822E-2,-5.1348306E-2,-3.74863E-3,8.647199E-3,6.357695E-2],"categories":[],"categories_nodes":[],"categories_segments":[],"categories_sizes":[],"default_left":[0,0,0,0,0,0,0,0,0,0,0,0,0],"id":42,"left_children":[1,3,5,7,9,-1,11,-1,-1,-1,-1,-1,-1],"loss_changes":[5.281123E0,4.7653503E0,9.1721725E-1,5.2739706E0,6.7717266E0,0E0,7.705679E-1,0E0,0E0,0E0,0E0,0E0,0E0],"parents":[2147483647,0,0,1,1,2,2,3,3,4,4,6,6],"right_children":[2,4,6,8,10,-1,12,-1,-1,-1,-1,-1,-1],"split_conditions":[5.133333E-1,-6.9541907E0,1.4839965E3,-1.1231714E1,-1.5612686E0,2.3138076E-3,8E-2,-1.2924484E-2,4.0108822E-2,-5.1348306E-2,-3.74863E-3,8.647199E-3,6.357695E-2],"split_indices":[7,11,22,11,26,0,6,0,0,0,0,0,0],"split_type":[0,0,0,0,0,0,0,0,0,0,0,0,0],"sum_hessian":[1.3392911E2,1.2857211E2,5.3569913E0,1.8069952E1,1.1050217E2,1.2147735E0,4.1422176E0,7.0480213E0,1.102193E1,7.074256E0,1.0342791E2,1.1823913E0,2.9598262E0],"tree_param":{"num_deleted":"0","num_feature":"27","num_nodes":"13","size_leaf_vector":"1"}},{"base_weights":[-7.0830286E-3,-1.172719E-1,4.110903E-1,-4.455278E-1,-2.031441E-2,5.604389E-1,-1.3922846E-1,-4.1172863E-3,-5.3762E-2,5.6433935E-2,-5.0916043E-3,4.913857E-2,1.5235883E-2,-5.0639063E-2,1.1461835E-2],"categories":[],"categories_nodes":[],"categories_segments":[],"categories_sizes":[],"default_left":[0,0,0,0,0,0,0,0,0,0,0,0,0,0,0],"id":43,"left_children":[1,3,5,7,9,11,13,-1,-1,-1,-1,-1,-1,-1,-1],"loss_changes":[6.2121787E0,3.385363E0,2.3891854E0,5.462286E0,7.924695E0,2.1107025E0,2.4219985E0,0E0,0E0,0E0,0E0,0E0,0E0,0E0,0E0],"parents":[2147483647,0,0,1,1,2,2,3,3,4,4,5,5,6,6],"right_children":[2,4,6,8,10,12,14,-1,-1,-1,-1,-1,-1,-1,-1],"split_conditions":[3.4333333E-1,-1.5128196E0,1.5100168E3,-6.9541907E0,-4.872664E0,4.3666667E-1,1.5116471E3,-4.1172863E-3,-5.3762E-2,5.6433935E-2,-5.0916043E-3,4.913857E-2,1.5235883E-2,-5.0639063E-2,1.1461835E-2],"split_indices":[6,8,23,11,11,6,23,0,0,0,0,0,0,0,0],"split_type":[0,0,0,0,0,0,0,0,0,0,0,0,0,0,0],"sum_hessian":[1.3277237E2,1.0565245E2,2.7119911E1,2.3271202E1,8.238125E1,2.1316525E1,5.8033867E0,1.5476187E1,7.795015E0,4.6065154E0,7.7774734E1,6.9670553E0,1.4349468E1,1.2029052E0,4.6004815E0],"tree_param":{"num_deleted":"0","num_feature":"27","num_nodes":"15","size_leaf_vector":"1"}},{"base_weights":[-5.6454893E-3,-7.6497465E-1,4.0376753E-2,-6.770873E-2,-1.2015382E-1,7.985806E-2,-6.393127E-1,-3.4003507E-2,3.2800622E-2,2.2834986E-2,9.056558E-4,-5.0513156E-2,2.2295655E-3],"categories":[],"categories_nodes":[],"categories_segments":[],"categories_sizes":[],"default_left":[0,0,0,0,0,0,0,0,0,0,0,0,0],"id":44,"left_children":[1,3,5,-1,7,9,11,-1,-1,-1,-1,-1,-1],"loss_changes":[4.4627976E0,2.6097884E0,3.2853227E0,0E0,2.4372528E0,2.662821E0,1.7518086E0,0E0,0E0,0E0,0E0,0E0,0E0],"parents":[2147483647,0,0,1,1,2,2,4,4,5,5,6,6],"right_children":[2,4,6,-1,8,10,12,-1,-1,-1,-1,-1,-1],"split_conditions":[1.4721353E3,2.6345343E1,2.842171E-14,-6.770873E-2,4.6666667E-2,-7.369301E0,8.414169E0,-3.4003507E-2,3.2800622E-2,2.2834986E-2,9.056558E-4,-5.0513156E-2,2.2295655E-3],"split_indices":[23,0,14,0,6,11,14,0,0,0,0,0,0],"split_type":[0,0,0,0,0,0,0,0,0,0,0,0,0],"sum_hessian":[1.2582157E2,6.297423E0,1.1952415E2,2.7158017E0,3.5816212E0,1.13796524E2,5.727621E0,2.1525836E0,1.4290376E0,1.5119943E1,9.867658E1,3.4040568E0,2.3235645E0],"tree_param":{"num_deleted":"0","num_feature":"27","num_nodes":"13","size_leaf_vector":"1"}},{"base_weights":[-3.056612E-2,-5.6793913E-2,5.545677E-2,-8.481333E-2,7.1972996E-1,-3.049353E-3,-5.799008E-2,4.6683367E-2,1.9991759E-3],"categories":[],"categories_nodes":[],"categories_segments":[],"categories_sizes":[],"default_left":[0,0,0,0,0,0,0,0,0],"id":45,"left_children":[1,3,-1,5,7,-1,-1,-1,-1],"loss_changes":[4.073153E0,2.9350028E0,0E0,3.2175477E0,6.4697456E-1,0E0,0E0,0E0,0E0],"parents":[2147483647,0,0,1,1,3,3,4,4],"right_children":[2,4,-1,6,8,-1,-1,-1,-1],"split_conditions":[1.7980627E1,3.6570582E-1,5.545677E-2,3.4832734E-1,5.447142E-1,-3.049353E-3,-5.799008E-2,4.6683367E-2,1.9991759E-3],"split_indices":[11,5,0,5,5,0,0,0,0],"split_type":[0,0,0,0,0,0,0,0,0],"sum_hessian":[1.3315565E2,1.3108908E2,2.0665672E0,1.2738347E2,3.705616E0,1.2565515E2,1.7283149E0,2.5344067E0,1.1712095E0],"tree_param":{"num_deleted":"0","num_feature":"27","num_nodes":"9","size_leaf_vector":"1"}},{"base_weights":[2.79877E-2,-1.6327035E-2,6.535672E-1,2.413074E-2,-7.1779436E-1,5.9280634E-2,-1.8503542E-1,-2.7203152E-3,1.7264593E-2,5.401287E-3,-5.256554E-2,-3.7027363E-2,2.60343E-2],"categories":[],"categories_nodes":[],"categories_segments":[],"categories_sizes":[],"default_left":[0,0,0,0,0,0,0,0,0,0,0,0,0],"id":46,"left_children":[1,3,5,7,9,-1,11,-1,-1,-1,-1,-1,-1],"loss_changes":[3.7977798E0,3.6654615E0,4.262287E0,3.1087286E0,2.0531914E0,0E0,2.1036217E0,0E0,0E0,0E0,0E0,0E0,0E0],"parents":[2147483647,0,0,1,1,2,2,3,3,4,4,6,6],"right_children":[2,4,6,8,10,-1,12,-1,-1,-1,-1,-1,-1],"split_conditions":[1.1592304E2,1.4210855E-14,7.1693554E0,3.4333333E-1,-4.4866757E0,5.9280634E-2,4.6666667E-2,-2.7203152E-3,1.7264593E-2,5.401287E-3,-5.256554E-2,-3.7027363E-2,2.60343E-2],"split_indices":[0,10,11,6,11,0,6,0,0,0,0,0,0],"split_type":[0,0,0,0,0,0,0,0,0,0,0,0,0],"sum_hessian":[1.3560832E2,1.2754705E2,8.061264E0,1.2150475E2,6.0422993E0,4.678945E0,3.3823185E0,9.829757E1,2.3207186E1,1.9327407E0,4.1095586E0,1.8649594E0,1.5173591E0],"tree_param":{"num_deleted":"0","num_feature":"27","num_nodes":"13","size_leaf_vector":"1"}},{"base_weights":[-5.3680674E-3,8.844464E-2,-4.0151086E-1,5.620438E-3,5.3825384E-1,-5.8008856E-1,3.4167615E-1,-5.413448E-3,1.1269984E-2,-1.2729359E-2,4.6913844E-2,-3.5875957E-2,3.8907673E-2,5.3633656E-2,-2.669246E-2],"categories":[],"categories_nodes":[],"categories_segments":[],"categories_sizes":[],"default_left":[0,0,0,0,0,0,0,0,0,0,0,0,0,0,0],"id":47,"left_children":[1,3,5,7,9,11,13,-1,-1,-1,-1,-1,-1,-1,-1],"loss_changes":[5.111153E0,4.1414466E0,3.6927848E0,2.4012444E0,5.721879E0,4.5903926E0,4.240253E0,0E0,0E0,0E0,0E0,0E0,0E0,0E0,0E0],"parents":[2147483647,0,0,1,1,2,2,3,3,4,4,5,5,6,6],"right_children":[2,4,6,8,10,12,14,-1,-1,-1,-1,-1,-1,-1,-1],"split_conditions":[8.9460605E-1,4.9021432E-1,1.6456611E0,5.446806E-2,-1.5E-1,6.433333E-1,9.68516E1,-5.413448E-3,1.1269984E-2,-1.2729359E-2,4.6913844E-2,-3.5875957E-2,3.8907673E-2,5.3633656E-2,-2.669246E-2],"split_indices":[24,24,25,5,6,6,0,0,0,0,0,0,0,0,0],"split_type":[0,0,0,0,0,0,0,0,0,0,0,0,0,0,0],"sum_hessian":[1.3557697E2,1.102458E2,2.5331165E1,9.395769E1,1.628811E1,2.0600586E1,4.7305803E0,6.222179E1,3.1735899E1,5.5840864E0,1.0704023E1,1.9136076E1,1.4645103E0,2.4553628E0,2.2752173E0],"tree_param":{"num_deleted":"0","num_feature":"27","num_nodes":"15","size_leaf_vector":"1"}},{"base_weights":[-4.7133632E-2,-7.548276E-2,8.3493453E-1,-9.734582E-2,5.478962E-2,5.1609702E-2,1.3178526E-2,-7.171847E-3,2.3610054E-2],"categories":[],"categories_nodes":[],"categories_segments":[],"categories_sizes":[],"default_left":[0,0,0,0,0,0,0,0,0],"id":48,"left_children":[1,3,5,7,-1,-1,-1,-1,-1],"loss_changes":[3.4016776E0,3.442693E0,2.0586395E-1,3.449017E0,0E0,0E0,0E0,0E0,0E0],"parents":[2147483647,0,0,1,1,2,2,3,3],"right_children":[2,4,6,8,-1,-1,-1,-1,-1],"split_conditions":[3.6570582E-1,9.7E-1,4.3860692E-1,1.10776665E2,5.478962E-2,5.1609702E-2,1.3178526E-2,-7.171847E-3,2.3610054E-2],"split_indices":[5,6,5,0,0,0,0,0,0],"split_type":[0,0,0,0,0,0,0,0,0],"sum_hessian":[1.3251482E2,1.2927444E2,3.2403767E0,1.2780571E2,1.4687356E0,1.8092144E0,1.4311624E0,1.1892939E2,8.876319E0],"tree_param":{"num_deleted":"0","num_feature":"27","num_nodes":"9","size_leaf_vector":"1"}},{"base_weights":[-1.9793136E-2,5.1053643E-2,-4.9772743E-2,-1.3921325E-2,-6.8728364E-1,-8.9265965E-3,7.223585E-3,-4.5396984E-2,8.30305E-3],"categories":[],"categories_nodes":[],"categories_segments":[],"categories_sizes":[],"default_left":[0,0,0,0,0,0,0,0,0],"id":49,"left_children":[1,-1,3,5,7,-1,-1,-1,-1],"loss_changes":[4.294189E0,0E0,3.033233E0,3.3387432E0,1.4815614E0,0E0,0E0,0E0,0E0],"parents":[2147483647,0,0,2,2,3,3,4,4],"right_children":[2,-1,4,6,8,-1,-1,-1,-1],"split_conditions":[-3.2782478E0,5.1053643E-2,1.4210855E-14,-4.183762E-3,1.5468489E0,-8.9265965E-3,7.223585E-3,-4.5396984E-2,8.30305E-3],"split_indices":[12,0,10,5,25,0,0,0,0],"split_type":[0,0,0,0,0,0,0,0,0],"sum_hessian":[1.3498465E2,2.8535333E0,1.3213112E2,1.26063576E2,6.0675445E0,6.1756123E1,6.430746E1,4.7701197E0,1.297425E0],"tree_param":{"num_deleted":"0","num_feature":"27","num_nodes":"9","size_leaf_vector":"1"}},{"base_weights":[3.2881536E-2,-4.4077083E-2,3.7227988E-1,1.1097263E-2,-7.062428E-1,6.388033E-1,-2.946343E-1,-2.0560103E-3,3.833867E-2,3.4856703E-2,-5.5043567E-2,-5.6433E-3,4.8551377E-2,-4.4382643E-2,6.4130365E-3],"categories":[],"categories_nodes":[],"categories_segments":[],"categories_sizes":[],"default_left":[0,0,0,0,0,0,0,0,0,0,0,0,0,0,0],"id":50,"left_children":[1,3,5,7,9,11,13,-1,-1,-1,-1,-1,-1,-1,-1],"loss_changes":[3.5007405E0,4.0133367E0,4.5898066E0,4.0638075E0,5.4461403E0,4.606639E0,2.0586677E0,0E0,0E0,0E0,0E0,0E0,0E0,0E0,0E0],"parents":[2147483647,0,0,1,1,2,2,3,3,4,4,5,5,6,6],"right_children":[2,4,6,8,10,12,14,-1,-1,-1,-1,-1,-1,-1,-1],"split_conditions":[1E0,1.5253352E3,1.5089742E3,1.1592304E2,-2.1982044E-1,-9.424749E-2,-3.8275993E-1,-2.0560103E-3,3.833867E-2,3.4856703E-2,-5.5043567E-2,-5.6433E-3,4.8551377E-2,-4.4382643E-2,6.4130365E-3],"split_indices":[3,23,22,0,5,5,26,0,0,0,0,0,0,0,0],"split_type":[0,0,0,0,0,0,0,0,0,0,0,0,0,0,0],"sum_hessian":[1.3239899E2,1.086359E2,2.3763075E1,1.0118777E2,7.4481363E0,1.7008146E1,6.7549286E0,9.553206E1,5.6557117E0,1.4664818E0,5.9816546E0,5.415547E0,1.1592599E1,2.354401E0,4.4005275E0],"tree_param":{"num_deleted":"0","num_feature":"27","num_nodes":"15","size_leaf_vector":"1"}},{"base_weights":[2.935791E-2,-2.0326488E-1,1.5078527E-1,-3.4335963E-2,-1.3203408E0,7.8785944E-1,8.30583E-2,-1.6337395E-2,1.77894E-2,-2.8358191E-2,-7.6476835E-2,5.7517696E-2,1.6032265E-2,6.355602E-3,-2.9853074E-2],"categories":[],"categories_nodes":[],"categories_segments":[],"categories_sizes":[],"default_left":[0,0,0,0,0,0,0,0,0,0,0,0,0,0,0],"id":51,"left_children":[1,3,5,7,9,11,13,-1,-1,-1,-1,-1,-1,-1,-1],"loss_changes":[3.8498483E0,8.785715E0,3.7923665E0,4.870658E0,9.687996E-2,1.0663128E0,2.5308628E0,0E0,0E0,0E0,0E0,0E0,0E0,0E0,0E0],"parents":[2147483647,0,0,1,1,2,2,3,3,4,4,5,5,6,6],"right_children":[2,4,6,8,10,12,14,-1,-1,-1,-1,-1,-1,-1,-1],"split_conditions":[1.494244E3,1.4928301E3,-5.8E-1,8E-2,-1.4947892E0,1.5008694E3,2.842171E-14,-1.6337395E-2,1.77894E-2,-2.8358191E-2,-7.6476835E-2,5.7517696E-2,1.6032265E-2,6.355602E-3,-2.9853074E-2],"split_indices":[23,23,6,6,8,23,14,0,0,0,0,0,0,0,0],"split_type":[0,0,0,0,0,0,0,0,0,0,0,0,0,0,0],"sum_hessian":[1.3420834E2,4.579783E1,8.841052E1,4.067719E1,5.120638E0,7.4739437E0,8.093658E1,2.3343126E1,1.7334063E1,1.9198133E0,3.2008247E0,3.3852751E0,4.0886683E0,7.6776596E1,4.1599855E0],"tree_param":{"num_deleted":"0","num_feature":"27","num_nodes":"15","size_leaf_vector":"1"}},{"base_weights":[-2.7254378E-2,-1.7678551E-1,1.1718919E-1,-5.1623445E-2,-7.8477097E-1,6.356163E-1,-2.4919724E-3,-6.679062E-3,3.0924207E-2,-5.639803E-2,3.0599288E-3,3.9687827E-2,1.1888434E-3,2.7094807E-3,-6.388491E-2],"categories":[],"categories_nodes":[],"categories_segments":[],"categories_sizes":[],"default_left":[0,0,0,0,0,0,0,0,0,0,0,0,0,0,0],"id":52,"left_children":[1,3,5,7,9,11,13,-1,-1,-1,-1,-1,-1,-1,-1],"loss_changes":[2.9171312E0,5.003829E0,4.2710934E0,3.1604893E0,3.3341417E0,1.2302556E0,4.1821556E0,0E0,0E0,0E0,0E0,0E0,0E0,0E0,0E0],"parents":[2147483647,0,0,1,1,2,2,3,3,4,4,5,5,6,6],"right_children":[2,4,6,8,10,12,14,-1,-1,-1,-1,-1,-1,-1,-1],"split_conditions":[-4.183762E-3,-2.706742E-2,3.1779602E-2,4.6E-1,2.4333334E-1,5.15538E-1,7.5E-1,-6.679062E-3,3.0924207E-2,-5.639803E-2,3.0599288E-3,3.9687827E-2,1.1888434E-3,2.7094807E-3,-6.388491E-2],"split_indices":[5,5,5,7,6,25,6,0,0,0,0,0,0,0,0],"split_type":[0,0,0,0,0,0,0,0,0,0,0,0,0,0,0],"sum_hessian":[1.3310062E2,6.528857E1,6.781205E1,5.5042274E1,1.0246291E1,1.1910033E1,5.590202E1,4.975734E1,5.284935E0,7.0520916E0,3.1941996E0,9.22766E0,2.682373E0,5.4439735E1,1.4622846E0],"tree_param":{"num_deleted":"0","num_feature":"27","num_nodes":"15","size_leaf_vector":"1"}},{"base_weights":[-9.27088E-2,2.8365696E-2,-2.613137E-1,-1.813651E-1,2.3958398E-1,-1.7459744E-1,-1.0888257E0,-1.4960388E-2,2.3743466E-2,-5.235797E-3,3.37425E-2,2.1422593E-2,-1.3356862E-2,-6.3830934E-2,-1.3282974E-2],"categories":[],"categories_nodes":[],"categories_segments":[],"categories_sizes":[],"default_left":[0,0,0,0,0,0,0,0,0,0,0,0,0,0,0],"id":53,"left_children":[1,3,5,7,9,11,13,-1,-1,-1,-1,-1,-1,-1,-1],"loss_changes":[2.7339635E0,3.5272064E0,3.8228247E0,3.2376254E0,6.007126E0,3.0057201E0,4.513054E-1,0E0,0E0,0E0,0E0,0E0,0E0,0E0,0E0],"parents":[2147483647,0,0,1,1,2,2,3,3,4,4,5,5,6,6],"right_children":[2,4,6,8,10,12,14,-1,-1,-1,-1,-1,-1,-1,-1],"split_conditions":[1.5030599E3,3.7841137E1,9.650862E1,1E0,1.4935734E3,-4.7666666E-1,1.7333333E-1,-1.4960388E-2,2.3743466E-2,-5.235797E-3,3.37425E-2,2.1422593E-2,-1.3356862E-2,-6.3830934E-2,-1.3282974E-2],"split_indices":[22,0,0,3,22,6,6,0,0,0,0,0,0,0,0],"split_type":[0,0,0,0,0,0,0,0,0,0,0,0,0,0,0],"sum_hessian":[1.325644E2,7.764186E1,5.492255E1,3.902903E1,3.8612835E1,5.080917E1,4.11338E0,3.3548622E1,5.480407E0,2.1983263E1,1.662957E1,6.2766333E0,4.453254E1,2.9007528E0,1.212627E0],"tree_param":{"num_deleted":"0","num_feature":"27","num_nodes":"15","size_leaf_vector":"1"}},{"base_weights":[4.0449098E-2,9.284957E-2,-5.709956E-1,-2.4357516E-2,3.7028843E-1,3.29056E-2,-8.3394176E-1,-3.548708E-2,2.066869E-3,2.2656647E-2,-3.2465946E-2,-5.3053696E-2,-3.3952023E-3],"categories":[],"categories_nodes":[],"categories_segments":[],"categories_sizes":[],"default_left":[0,0,0,0,0,0,0,0,0,0,0,0,0],"id":54,"left_children":[1,3,5,7,9,-1,11,-1,-1,-1,-1,-1,-1],"loss_changes":[4.358357E0,4.061626E0,4.022026E0,4.0165095E0,3.4259243E0,0E0,1.5449991E0,0E0,0E0,0E0,0E0,0E0,0E0],"parents":[2147483647,0,0,1,1,2,2,3,3,4,4,6,6],"right_children":[2,4,6,8,10,-1,12,-1,-1,-1,-1,-1,-1],"split_conditions":[1.524511E3,5.6665394E1,-2.1982044E-1,1.4768114E3,1.7669756E0,3.29056E-2,1.51832E3,-3.548708E-2,2.066869E-3,2.2656647E-2,-3.2465946E-2,-5.3053696E-2,-3.3952023E-3],"split_indices":[23,0,5,23,13,0,22,0,0,0,0,0,0],"split_type":[0,0,0,0,0,0,0,0,0,0,0,0,0],"sum_hessian":[1.3337396E2,1.2362732E2,9.746646E0,8.7552155E1,3.607516E1,1.4528143E0,8.293831E0,6.800461E0,8.075169E1,3.38781E1,2.1970618E0,6.100015E0,2.193816E0],"tree_param":{"num_deleted":"0","num_feature":"27","num_nodes":"13","size_leaf_vector":"1"}},{"base_weights":[5.76674E-3,-1.907546E-1,1.0908282E-1,-8.320657E-1,6.1394166E-2,7.4537396E-1,3.982229E-2,-6.353139E-2,-8.578925E-3,8.284382E-3,-4.3209527E-2,6.1148103E-2,-1.2839057E-2,1.7389206E-2,-9.077549E-3],"categories":[],"categories_nodes":[],"categories_segments":[],"categories_sizes":[],"default_left":[0,0,0,0,0,0,0,0,0,0,0,0,0,0,0],"id":55,"left_children":[1,3,5,7,9,11,13,-1,-1,-1,-1,-1,-1,-1,-1],"loss_changes":[2.7503412E0,7.6005454E0,3.8814337E0,3.618412E0,3.4679577E0,4.4567156E0,5.5915875E0,0E0,0E0,0E0,0E0,0E0,0E0,0E0,0E0],"parents":[2147483647,0,0,1,1,2,2,3,3,4,4,5,5,6,6],"right_children":[2,4,6,8,10,12,14,-1,-1,-1,-1,-1,-1,-1,-1],"split_conditions":[1.494244E3,-2.0666666E-1,1.4960537E3,2.4593408E-1,1.4930028E3,1.4E-1,2.7377237E1,-6.353139E-2,-8.578925E-3,8.284382E-3,-4.3209527E-2,6.1148103E-2,-1.2839057E-2,1.7389206E-2,-9.077549E-3],"split_indices":[23,6,23,24,23,6,0,0,0,0,0,0,0,0,0],"split_type":[0,0,0,0,0,0,0,0,0,0,0,0,0,0,0],"sum_hessian":[1.334345E2,4.568639E1,8.774811E1,1.2244367E1,3.3442024E1,7.655522E0,8.009258E1,6.8032494E0,5.441118E0,3.0793276E1,2.6487474E0,5.0354776E0,2.6200442E0,3.3256718E1,4.6835865E1],"tree_param":{"num_deleted":"0","num_feature":"27","num_nodes":"15","size_leaf_vector":"1"}},{"base_weights":[7.742588E-3,-8.8218486E-1,3.3524785E-2,-1.3930947E-2,-5.330008E-2,-4.4296148E-1,8.636788E-2,-6.479314E-2,-4.601533E-3,4.1117236E-2,1.6455994E-3],"categories":[],"categories_nodes":[],"categories_segments":[],"categories_sizes":[],"default_left":[0,0,0,0,0,0,0,0,0,0,0],"id":56,"left_children":[1,3,5,-1,-1,7,9,-1,-1,-1,-1],"loss_changes":[2.9846034E0,1.0936165E-1,3.2140532E0,0E0,0E0,3.69832E0,4.472674E0,0E0,0E0,0E0,0E0],"parents":[2147483647,0,0,1,1,2,2,5,5,6,6],"right_children":[2,4,6,-1,-1,8,10,-1,-1,-1,-1],"split_conditions":[1.4656577E3,-8.645424E-2,-2.245554E0,-1.3930947E-2,-5.330008E-2,-1.1648931E-1,-7.225268E0,-6.479314E-2,-4.601533E-3,4.1117236E-2,1.6455994E-3],"split_indices":[23,25,25,0,0,5,11,0,0,0,0],"split_type":[0,0,0,0,0,0,0,0,0,0,0],"sum_hessian":[1.2779148E2,2.6627898E0,1.2512869E2,1.2089429E0,1.4538469E0,1.1754627E1,1.1337406E2,2.6416714E0,9.112955E0,6.7030706E0,1.0667099E2],"tree_param":{"num_deleted":"0","num_feature":"27","num_nodes":"11","size_leaf_vector":"1"}},{"base_weights":[-3.2763727E-2,1.0937058E-2,-5.762219E-1,-1.8784674E-2,5.0376713E-2,-6.5427415E-2,-1.7029093E-1,-2.4601428E-2,1.9719373E-3,4.1415524E-2,-2.798427E-2],"categories":[],"categories_nodes":[],"categories_segments":[],"categories_sizes":[],"default_left":[0,0,0,0,0,0,0,0,0,0,0],"id":57,"left_children":[1,3,5,7,-1,-1,9,-1,-1,-1,-1],"loss_changes":[3.1718028E0,3.7021866E0,2.731722E0,3.373499E0,0E0,0E0,3.3970776E0,0E0,0E0,0E0,0E0],"parents":[2147483647,0,0,1,1,2,2,3,3,6,6],"right_children":[2,4,6,8,-1,-1,10,-1,-1,-1,-1],"split_conditions":[1.524511E3,1.5203335E3,1.527202E3,1.4778949E3,5.0376713E-2,-6.5427415E-2,1.5306017E3,-2.4601428E-2,1.9719373E-3,4.1415524E-2,-2.798427E-2],"split_indices":[23,23,23,22,0,0,23,0,0,0,0],"split_type":[0,0,0,0,0,0,0,0,0,0,0],"sum_hessian":[1.3228677E2,1.23347946E2,8.938831E0,1.20728584E2,2.6193633E0,2.3948283E0,6.5440025E0,1.24098425E1,1.0831874E2,1.5196605E0,5.024342E0],"tree_param":{"num_deleted":"0","num_feature":"27","num_nodes":"11","size_leaf_vector":"1"}},{"base_weights":[1.0664483E-2,2.4025792E-1,-6.5834306E-2,3.896611E-1,-6.884499E-1,-1.631128E-1,3.017154E-1,-3.0292897E-2,2.795722E-2,1.2697755E-4,-5.7626326E-2,-5.8304053E-2,-5.991547E-3,2.3027122E-2,-2.5294168E-2],"categories":[],"categories_nodes":[],"categories_segments":[],"categories_sizes":[],"default_left":[0,0,0,0,0,0,0,0,0,0,0,0,0,0,0],"id":58,"left_children":[1,3,5,7,9,11,13,-1,-1,-1,-1,-1,-1,-1,-1],"loss_changes":[2.3022103E0,4.812278E0,3.568497E0,5.2063503E0,1.574146E0,3.2670557E0,2.9201918E0,0E0,0E0,0E0,0E0,0E0,0E0,0E0,0E0],"parents":[2147483647,0,0,1,1,2,2,3,3,4,4,5,5,6,6],"right_children":[2,4,6,8,10,12,14,-1,-1,-1,-1,-1,-1,-1,-1],"split_conditions":[-4.5322876E0,3.5E-1,2.7E-1,-1.0793301E0,-1.0086275E1,-1.341459E0,1.5168376E3,-3.0292897E-2,2.795722E-2,1.2697755E-4,-5.7626326E-2,-5.8304053E-2,-5.991547E-3,2.3027122E-2,-2.5294168E-2],"split_indices":[11,7,7,24,11,8,22,0,0,0,0,0,0,0,0],"split_type":[0,0,0,0,0,0,0,0,0,0,0,0,0,0,0],"sum_hessian":[1.291778E2,3.174921E1,9.742859E1,2.7849438E1,3.8997712E0,7.747871E1,1.9949888E1,3.6769369E0,2.41725E1,1.9664067E0,1.9333645E0,2.1320183E0,7.534669E1,1.7030342E1,2.919547E0],"tree_param":{"num_deleted":"0","num_feature":"27","num_nodes":"15","size_leaf_vector":"1"}},{"base_weights":[-5.0405134E-2,2.024512E-1,-1.5900889E-1,5.5618234E-2,7.8599E-1,-1.0701483E0,-1.0052572E-1,-5.315551E-3,3.320163E-2,8.27686E-3,5.8301516E-2,-1.806435E-2,-6.7631334E-2,3.05391E-2,-8.831524E-3],"categories":[],"categories_nodes":[],"categories_segments":[],"categories_sizes":[],"default_left":[0,0,0,0,0,0,0,0,0,0,0,0,0,0,0],"id":59,"left_children":[1,3,5,7,9,11,13,-1,-1,-1,-1,-1,-1,-1,-1],"loss_changes":[3.720544E0,3.4517107E0,4.928869E0,3.3877425E0,1.7228818E0,6.320729E-1,4.975579E0,0E0,0E0,0E0,0E0,0E0,0E0,0E0,0E0],"parents":[2147483647,0,0,1,1,2,2,3,3,4,4,5,5,6,6],"right_children":[2,4,6,8,10,12,14,-1,-1,-1,-1,-1,-1,-1,-1],"split_conditions":[-4.6292883E-1,-6.418473E-1,-3.2468357E0,1E0,1.4947198E3,-1.5657807E1,-7.369301E0,-5.315551E-3,3.320163E-2,8.27686E-3,5.8301516E-2,-1.806435E-2,-6.7631334E-2,3.05391E-2,-8.831524E-3],"split_indices":[24,24,9,3,23,11,11,0,0,0,0,0,0,0,0],"split_type":[0,0,0,0,0,0,0,0,0,0,0,0,0,0,0],"sum_hessian":[1.3331166E2,3.979499E1,9.351668E1,3.266977E1,7.12522E0,4.5971355E0,8.891954E1,2.6454247E1,6.2155232E0,3.251845E0,3.8733752E0,1.9593246E0,2.6378107E0,7.9151955E0,8.100435E1],"tree_param":{"num_deleted":"0","num_feature":"27","num_nodes":"15","size_leaf_vector":"1"}},{"base_weights":[2.4276713E-2,5.9188213E-2,-3.9969277E-1,2.9534314E-2,6.404985E-1,-7.0149267E-1,3.3366617E-2,9.6317325E-3,-3.0769724E-3,4.47203E-2,-1.0497898E-2,-4.4618487E-2,1.00810295E-2],"categories":[],"categories_nodes":[],"categories_segments":[],"categories_sizes":[],"default_left":[0,0,0,0,0,0,0,0,0,0,0,0,0],"id":60,"left_children":[1,3,5,7,9,11,-1,-1,-1,-1,-1,-1,-1],"loss_changes":[2.0295649E0,2.1544993E0,3.8299088E0,1.8093681E0,1.4987862E0,1.6667695E0,0E0,0E0,0E0,0E0,0E0,0E0,0E0],"parents":[2147483647,0,0,1,1,2,2,3,3,4,4,5,5],"right_children":[2,4,6,8,10,12,-1,-1,-1,-1,-1,-1,-1],"split_conditions":[1.033881E1,2.4942646E0,1.7980627E1,-1.3E-1,1.5060446E3,1.10776665E2,3.3366617E-2,9.6317325E-3,-3.0769724E-3,4.47203E-2,-1.0497898E-2,-4.4618487E-2,1.00810295E-2],"split_indices":[11,9,11,7,22,0,0,0,0,0,0,0,0],"split_type":[0,0,0,0,0,0,0,0,0,0,0,0,0],"sum_hessian":[1.345214E2,1.2508199E2,9.439402E0,1.2001079E2,5.0712037E0,7.625234E0,1.8141676E0,4.26018E1,7.740899E1,3.8654726E0,1.2057309E0,6.3046203E0,1.320614E0],"tree_param":{"num_deleted":"0","num_feature":"27","num_nodes":"13","size_leaf_vector":"1"}},{"base_weights":[1.3254673E-2,2.4768552E-1,-7.4062355E-2,7.727451E-2,6.255999E-2,-1.3076909E-1,5.142229E-1,-2.604332E-2,1.4517172E-2,1.1683076E-2,-1.538962E-2,-3.6527093E-2,4.0451232E-2],"categories":[],"categories_nodes":[],"categories_segments":[],"categories_sizes":[],"default_left":[0,0,0,0,0,0,0,0,0,0,0,0,0],"id":61,"left_children":[1,3,5,7,-1,9,11,-1,-1,-1,-1,-1,-1],"loss_changes":[2.777093E0,6.1973267E0,3.3687465E0,4.2967763E0,0E0,5.9466343E0,3.8583343E0,0E0,0E0,0E0,0E0,0E0,0E0],"parents":[2147483647,0,0,1,1,2,2,3,3,5,5,6,6],"right_children":[2,4,6,8,-1,10,12,-1,-1,-1,-1,-1,-1],"split_conditions":[-4.4248514E0,-9.895308E-1,4.6E-1,-2.7E-1,6.255999E-2,-4.3258116E-1,-6.277548E-1,-2.604332E-2,1.4517172E-2,1.1683076E-2,-1.538962E-2,-3.6527093E-2,4.0451232E-2],"split_indices":[11,26,7,7,0,24,24,0,0,0,0,0,0],"split_type":[0,0,0,0,0,0,0,0,0,0,0,0,0],"sum_hessian":[1.3377162E2,3.5804966E1,9.796665E1,3.1528057E1,4.2769094E0,9.006291E1,7.9037457E0,7.9015956E0,2.3626463E1,2.9340622E1,6.0722286E1,1.2304096E0,6.673336E0],"tree_param":{"num_deleted":"0","num_feature":"27","num_nodes":"13","size_leaf_vector":"1"}},{"base_weights":[2.083316E-2,-9.077484E-1,4.7909074E-2,-1.3289538E-2,-5.4492157E-2,1.6719823E-1,-1.7219146E-1,1.5429598E-2,-5.7735066E-3,-2.3880994E-2,3.1179693E-3],"categories":[],"categories_nodes":[],"categories_segments":[],"categories_sizes":[],"default_left":[0,0,0,0,0,0,0,0,0,0,0],"id":62,"left_children":[1,3,5,-1,-1,7,9,-1,-1,-1,-1],"loss_changes":[3.4212847E0,1.6114378E-1,3.4811707E0,0E0,0E0,3.4641209E0,3.3759704E0,0E0,0E0,0E0,0E0],"parents":[2147483647,0,0,1,1,2,2,5,5,6,6],"right_children":[2,4,6,-1,-1,8,10,-1,-1,-1,-1],"split_conditions":[1.4656577E3,1.4902211E3,1.5041182E3,-1.3289538E-2,-5.4492157E-2,4.909362E-1,-2.117474E-1,1.5429598E-2,-5.7735066E-3,-2.3880994E-2,3.1179693E-3],"split_indices":[23,22,23,0,0,26,8,0,0,0,0],"split_type":[0,0,0,0,0,0,0,0,0,0,0],"sum_hessian":[1.3334767E2,2.856502E0,1.3049117E2,1.1747307E0,1.6817714E0,8.478183E1,4.570934E1,5.645215E1,2.832968E1,1.9404627E1,2.6304714E1],"tree_param":{"num_deleted":"0","num_feature":"27","num_nodes":"11","size_leaf_vector":"1"}},{"base_weights":[2.5321726E-2,-5.589776E-1,8.084279E-2,-6.628524E-2,-1.032355E0,8.1215674E-1,2.3477703E-2,-5.3439047E-2,2.3382245E-2,-4.425216E-3,-6.275016E-2,5.11807E-2,8.639365E-3,2.2707943E-2,-2.845273E-3],"categories":[],"categories_nodes":[],"categories_segments":[],"categories_sizes":[],"default_left":[0,0,0,0,0,0,0,0,0,0,0,0,0,0,0],"id":63,"left_children":[1,3,5,7,9,11,13,-1,-1,-1,-1,-1,-1,-1,-1],"loss_changes":[4.299336E0,2.615048E0,5.0415664E0,4.0895295E0,1.107626E0,1.0053549E0,3.9338737E0,0E0,0E0,0E0,0E0,0E0,0E0,0E0,0E0],"parents":[2147483647,0,0,1,1,2,2,3,3,4,4,5,5,6,6],"right_children":[2,4,6,8,10,12,14,-1,-1,-1,-1,-1,-1,-1,-1],"split_conditions":[-2.535064E0,-1.9333333E-1,-2.0468888E0,-1.7671911E-1,-9.2349425E-2,2.2666667E-1,-2.0009647E-1,-5.3439047E-2,2.3382245E-2,-4.425216E-3,-6.275016E-2,5.11807E-2,8.639365E-3,2.2707943E-2,-2.845273E-3],"split_indices":[26,7,8,5,5,7,5,0,0,0,0,0,0,0,0],"split_type":[0,0,0,0,0,0,0,0,0,0,0,0,0,0,0],"sum_hessian":[1.3013521E2,1.0505743E1,1.1962946E2,5.706465E0,4.799278E0,7.7442946E0,1.1188517E2,1.6349653E0,4.0714993E0,1.1827734E0,3.6165047E0,5.36798E0,2.3763146E0,1.6866581E1,9.5018585E1],"tree_param":{"num_deleted":"0","num_feature":"27","num_nodes":"15","size_leaf_vector":"1"}},{"base_weights":[-5.3578876E-2,-8.6108345E-1,-2.9368693E-2,-1.0777248E-2,-5.340748E-2,-9.113484E-2,2.6417726E-1,-2.7669498E-3,-3.354704E-2,-1.1435602E-2,2.5158515E-2],"categories":[],"categories_nodes":[],"categories_segments":[],"categories_sizes":[],"default_left":[0,0,0,0,0,0,0,0,0,0,0],"id":64,"left_children":[1,3,5,-1,-1,7,9,-1,-1,-1,-1],"loss_changes":[2.5905137E0,2.8566074E-1,2.3982172E0,0E0,0E0,2.223534E0,2.826655E0,0E0,0E0,0E0,0E0],"parents":[2147483647,0,0,1,1,2,2,5,5,6,6],"right_children":[2,4,6,-1,-1,8,10,-1,-1,-1,-1],"split_conditions":[1.4656577E3,-1.2285889E0,1E0,-1.0777248E-2,-5.340748E-2,1.5306017E3,-7.096684E-2,-2.7669498E-3,-3.354704E-2,-1.1435602E-2,2.5158515E-2],"split_indices":[23,8,3,0,0,23,5,0,0,0,0],"split_type":[0,0,0,0,0,0,0,0,0,0,0],"sum_hessian":[1.3280179E2,2.8594928E0,1.299423E2,1.1901354E0,1.6693573E0,1.0792328E2,2.2019018E1,1.02679535E2,5.2437453E0,7.2042637E0,1.48147545E1],"tree_param":{"num_deleted":"0","num_feature":"27","num_nodes":"11","size_leaf_vector":"1"}},{"base_weights":[1.4216587E-3,-9.085897E-2,2.463386E-1,-4.2926498E-2,-7.7529866E-1,6.7417085E-1,-6.4233067E-3,-2.2395378E-2,2.4287465E-3,-5.822561E-2,2.471246E-2,-4.061568E-2,4.624958E-2,-4.237246E-2,8.355371E-3],"categories":[],"categories_nodes":[],"categories_segments":[],"categories_sizes":[],"default_left":[0,0,0,0,0,0,0,0,0,0,0,0,0,0,0],"id":65,"left_children":[1,3,5,7,9,11,13,-1,-1,-1,-1,-1,-1,-1,-1],"loss_changes":[3.026077E0,3.157524E0,3.9665937E0,3.4292111E0,3.6919563E0,5.828376E0,3.647651E0,0E0,0E0,0E0,0E0,0E0,0E0,0E0,0E0],"parents":[2147483647,0,0,1,1,2,2,3,3,4,4,5,5,6,6],"right_children":[2,4,6,8,10,12,14,-1,-1,-1,-1,-1,-1,-1,-1],"split_conditions":[2.6E-1,1.4210855E-14,1.4922583E3,1.4864934E3,1.6135012E0,0E0,-1.3584432E-1,-2.2395378E-2,2.4287465E-3,-5.822561E-2,2.471246E-2,-4.061568E-2,4.624958E-2,-4.237246E-2,8.355371E-3],"split_indices":[6,13,23,23,9,1,5,0,0,0,0,0,0,0,0],"split_type":[0,0,0,0,0,0,0,0,0,0,0,0,0,0,0],"sum_hessian":[1.3190044E2,9.6260216E1,3.564023E1,9.0953316E1,5.306898E0,1.2617039E1,2.3023188E1,1.6044779E1,7.490854E1,4.125004E0,1.1818942E0,1.498368E0,1.1118671E1,3.2736585E0,1.9749529E1],"tree_param":{"num_deleted":"0","num_feature":"27","num_nodes":"15","size_leaf_vector":"1"}},{"base_weights":[-1.0631439E-2,1.4428209E-1,-2.2388402E-1,-7.39188E-2,4.5972666E-1,-1.5466681E-1,-9.0604216E-1,-1.2467708E-2,2.433271E-2,6.786906E-3,4.003802E-2,-2.3695452E-2,1.3636469E-4,-6.374876E-2,7.7088745E-3],"categories":[],"categories_nodes":[],"categories_segments":[],"categories_sizes":[],"default_left":[0,0,0,0,0,0,0,0,0,0,0,0,0,0,0],"id":66,"left_children":[1,3,5,7,9,11,13,-1,-1,-1,-1,-1,-1,-1,-1],"loss_changes":[4.502808E0,5.4709826E0,2.5669167E0,4.798045E0,3.4753141E0,2.67726E0,2.1819005E0,0E0,0E0,0E0,0E0,0E0,0E0,0E0,0E0],"parents":[2147483647,0,0,1,1,2,2,3,3,4,4,5,5,6,6],"right_children":[2,4,6,8,10,12,14,-1,-1,-1,-1,-1,-1,-1,-1],"split_conditions":[1.5030599E3,2.8446542E-2,9.650862E1,1E0,5.0011852E1,-1.8666667E-1,2.4666667E-1,-1.2467708E-2,2.433271E-2,6.786906E-3,4.003802E-2,-2.3695452E-2,1.3636469E-4,-6.374876E-2,7.7088745E-3],"split_indices":[22,5,0,1,0,7,7,0,0,0,0,0,0,0,0],"split_type":[0,0,0,0,0,0,0,0,0,0,0,0,0,0,0],"sum_hessian":[1.3432344E2,7.79914E1,5.633204E1,4.65543E1,3.1437103E1,5.2256416E1,4.0756207E0,3.5880436E1,1.06738615E1,1.683836E1,1.45987425E1,1.6591972E1,3.5664444E1,2.8732395E0,1.2023813E0],"tree_param":{"num_deleted":"0","num_feature":"27","num_nodes":"15","size_leaf_vector":"1"}},{"base_weights":[3.133959E-2,6.762157E-1,4.710302E-3,4.9894046E-5,8.6509967E-1,-9.230838E-2,2.0844398E-1,5.1205936E-3,5.7449874E-2,-2.0399472E-2,1.0056184E-3,3.640304E-2,1.2728112E-3],"categories":[],"categories_nodes":[],"categories_segments":[],"categories_sizes":[],"default_left":[0,0,0,0,0,0,0,0,0,0,0,0,0],"id":67,"left_children":[1,3,5,-1,7,9,11,-1,-1,-1,-1,-1,-1],"loss_changes":[2.2684872E0,6.672926E-1,2.5501928E0,0E0,7.6847196E-1,3.1111262E0,3.9381585E0,0E0,0E0,0E0,0E0,0E0,0E0],"parents":[2147483647,0,0,1,1,2,2,4,4,5,5,6,6],"right_children":[2,4,6,-1,8,10,12,-1,-1,-1,-1,-1,-1],"split_conditions":[-7.133333E-1,-2.2763693E0,2.2E-1,4.9894046E-5,-9.433333E-1,-1.1976203E0,-3.5022376E0,5.1205936E-3,5.7449874E-2,-2.0399472E-2,1.0056184E-3,3.640304E-2,1.2728112E-3],"split_indices":[6,8,6,0,6,25,11,0,0,0,0,0,0],"split_type":[0,0,0,0,0,0,0,0,0,0,0,0,0],"sum_hessian":[1.3128476E2,4.2388835E0,1.27045876E2,1.146322E0,3.0925617E0,8.643307E1,4.061281E1,1.2080052E0,1.8845565E0,2.2007154E1,6.442592E1,9.801494E0,3.0811316E1],"tree_param":{"num_deleted":"0","num_feature":"27","num_nodes":"13","size_leaf_vector":"1"}},{"base_weights":[8.52697E-2,4.5208596E-2,6.1850224E-2,8.522146E-2,-4.6260763E-2,3.2798683E-3,4.0427614E-2],"categories":[],"categories_nodes":[],"categories_segments":[],"categories_sizes":[],"default_left":[0,0,0,0,0,0,0],"id":68,"left_children":[1,-1,3,5,-1,-1,-1],"loss_changes":[2.445764E0,0E0,3.0291488E0,1.73334E0,0E0,0E0,0E0],"parents":[2147483647,0,0,2,2,3,3],"right_children":[2,-1,4,6,-1,-1,-1],"split_conditions":[-4.32909E0,4.5208596E-2,2.4737658E-1,1.7980627E1,-4.6260763E-2,3.2798683E-3,4.0427614E-2],"split_indices":[14,0,18,11,0,0,0],"split_type":[0,0,0,0,0,0,0],"sum_hessian":[1.2944394E2,2.5533667E0,1.26890564E2,1.2484814E2,2.0424297E0,1.2261233E2,2.235808E0],"tree_param":{"num_deleted":"0","num_feature":"27","num_nodes":"7","size_leaf_vector":"1"}},{"base_weights":[-2.1941999E-2,-1.9922256E-1,1.3295168E-1,-1.0343924E-1,-1.0422544E0,1.7167789E-1,-4.2201947E-2,-9.654565E-3,4.0532514E-2,6.6462182E-3,-7.134837E-2,1.4326026E-2,-7.986671E-3],"categories":[],"categories_nodes":[],"categories_segments":[],"categories_sizes":[],"default_left":[0,0,0,0,0,0,0,0,0,0,0,0,0],"id":69,"left_children":[1,3,5,7,9,11,-1,-1,-1,-1,-1,-1,-1],"loss_changes":[3.577542E0,4.793784E0,2.778873E0,4.7145114E0,2.9398384E0,2.6260052E0,0E0,0E0,0E0,0E0,0E0,0E0,0E0],"parents":[2147483647,0,0,1,1,2,2,3,3,4,4,5,5],"right_children":[2,4,6,8,10,12,-1,-1,-1,-1,-1,-1,-1],"split_conditions":[-8.090717E-3,1.5226787E3,6.0825657E-2,2.0629914E0,-1.4801925E0,1.9853458E-1,-4.2201947E-2,-9.654565E-3,4.0532514E-2,6.6462182E-3,-7.134837E-2,1.4326026E-2,-7.986671E-3],"split_indices":[5,22,10,26,26,5,0,0,0,0,0,0,0],"split_type":[0,0,0,0,0,0,0,0,0,0,0,0,0],"sum_hessian":[1.2831908E2,5.9702057E1,6.861702E1,5.4619064E1,5.0829916E0,6.679371E1,1.8233081E0,5.0458916E1,4.1601467E0,1.4150221E0,3.6679697E0,4.9705067E1,1.7088644E1],"tree_param":{"num_deleted":"0","num_feature":"27","num_nodes":"13","size_leaf_vector":"1"}},{"base_weights":[-5.556422E-2,3.001498E-1,-1.1577402E-1,-3.7816817E-1,8.4086883E-1,-1.6440105E-1,4.2913595E-1,-2.8263032E-2,1.8524645E-2,-6.0084695E-3,4.854562E-2,-2.1364393E-2,-3.553255E-4,-3.4416135E-2,3.3711143E-2],"categories":[],"categories_nodes":[],"categories_segments":[],"categories_sizes":[],"default_left":[0,0,0,0,0,0,0,0,0,0,0,0,0,0,0],"id":70,"left_children":[1,3,5,7,9,11,13,-1,-1,-1,-1,-1,-1,-1,-1],"loss_changes":[2.882534E0,7.4799643E0,3.1028767E0,1.5192192E0,1.5133629E0,4.37129E0,3.107705E0,0E0,0E0,0E0,0E0,0E0,0E0,0E0,0E0],"parents":[2147483647,0,0,1,1,2,2,3,3,4,4,5,5,6,6],"right_children":[2,4,6,8,10,12,14,-1,-1,-1,-1,-1,-1,-1,-1],"split_conditions":[-7.1696105E0,-1.1231714E1,4.7333333E-1,8.716136E-2,-2.8704324E-1,1.4951251E3,-6.277548E-1,-2.8263032E-2,1.8524645E-2,-6.0084695E-3,4.854562E-2,-2.1364393E-2,-3.553255E-4,-3.4416135E-2,3.3711143E-2],"split_indices":[11,11,7,5,5,23,24,0,0,0,0,0,0,0,0],"split_type":[0,0,0,0,0,0,0,0,0,0,0,0,0,0,0],"sum_hessian":[1.3196548E2,1.8526651E1,1.13438835E2,8.35107E0,1.0175581E1,1.04786156E2,8.6526785E0,6.877368E0,1.4737024E0,1.2218544E0,8.953727E0,3.858405E1,6.620211E1,1.2310946E0,7.4215837E0],"tree_param":{"num_deleted":"0","num_feature":"27","num_nodes":"15","size_leaf_vector":"1"}},{"base_weights":[-4.469701E-2,-6.555753E-2,4.854821E-2,-2.8935192E-2,-9.299134E-1,2.0809656E-3,-1.8220413E-2,-6.415938E-3,-5.9787422E-2],"categories":[],"categories_nodes":[],"categories_segments":[],"categories_sizes":[],"default_left":[0,0,0,0,0,0,0,0,0],"id":71,"left_children":[1,3,-1,5,7,-1,-1,-1,-1],"loss_changes":[2.8573165E0,4.092611E0,0E0,2.99467E0,9.669342E-1,0E0,0E0,0E0,0E0],"parents":[2147483647,0,0,1,1,3,3,4,4],"right_children":[2,4,-1,6,8,-1,-1,-1,-1],"split_conditions":[1.7980627E1,1.2331082E1,4.854821E-2,9.0974027E-1,-6.277548E-1,2.0809656E-3,-1.8220413E-2,-6.415938E-3,-5.9787422E-2],"split_indices":[11,11,0,24,24,0,0,0,0],"split_type":[0,0,0,0,0,0,0,0,0],"sum_hessian":[1.30856E2,1.2913908E2,1.7169161E0,1.2488139E2,4.257688E0,1.0390476E2,2.0976631E1,1.429599E0,2.8280892E0],"tree_param":{"num_deleted":"0","num_feature":"27","num_nodes":"9","size_leaf_vector":"1"}},{"base_weights":[9.163357E-3,8.1150275E-1,-1.6736895E-2,-3.8661584E-3,5.9603103E-2,-3.3550444E-1,4.617632E-2,-4.7462445E-2,-1.2354822E-4,2.0835074E-2,-1.770879E-3],"categories":[],"categories_nodes":[],"categories_segments":[],"categories_sizes":[],"default_left":[0,0,0,0,0,0,0,0,0,0,0],"id":72,"left_children":[1,3,5,-1,-1,7,9,-1,-1,-1,-1],"loss_changes":[2.721964E0,1.4775977E0,2.5671544E0,0E0,0E0,4.3090935E0,3.253931E0,0E0,0E0,0E0,0E0],"parents":[2147483647,0,0,1,1,2,2,5,5,6,6],"right_children":[2,4,6,-1,-1,8,10,-1,-1,-1,-1],"split_conditions":[-6.635297E1,-4.3333334E-1,-1.0330303E0,-3.8661584E-3,5.9603103E-2,-2E-1,-5.953452E0,-4.7462445E-2,-1.2354822E-4,2.0835074E-2,-1.770879E-3],"split_indices":[0,7,24,0,0,7,11,0,0,0,0],"split_type":[0,0,0,0,0,0,0,0,0,0,0],"sum_hessian":[1.2933101E2,3.095847E0,1.2623516E2,1.1670132E0,1.9288338E0,2.0093412E1,1.0614175E2,6.417095E0,1.3676317E1,1.8414204E1,8.772755E1],"tree_param":{"num_deleted":"0","num_feature":"27","num_nodes":"11","size_leaf_vector":"1"}},{"base_weights":[-1.4960461E-2,-9.8077886E-2,3.0203232E-1,-1.4380959E-1,6.147806E-1,7.192754E-1,4.9121607E-2,3.0484004E-2,-8.430914E-3,-1.3402988E-2,4.6248425E-2,4.345118E-2,-1.252485E-2,-8.814261E-3,3.16624E-2],"categories":[],"categories_nodes":[],"categories_segments":[],"categories_sizes":[],"default_left":[0,0,0,0,0,0,0,0,0,0,0,0,0,0,0],"id":73,"left_children":[1,3,5,7,9,11,13,-1,-1,-1,-1,-1,-1,-1,-1],"loss_changes":[3.464287E0,3.4799438E0,2.848202E0,1.9454327E0,2.0173435E0,1.7046323E0,2.492997E0,0E0,0E0,0E0,0E0,0E0,0E0,0E0,0E0],"parents":[2147483647,0,0,1,1,2,2,3,3,4,4,5,5,6,6],"right_children":[2,4,6,8,10,12,14,-1,-1,-1,-1,-1,-1,-1,-1],"split_conditions":[3.4333333E-1,4.7333333E-1,4.5666668E-1,-9.3333334E-1,-1.7693195E0,8.6581804E-2,1E0,3.0484004E-2,-8.430914E-3,-1.3402988E-2,4.6248425E-2,4.345118E-2,-1.252485E-2,-8.814261E-3,3.16624E-2],"split_indices":[6,7,6,6,8,18,1,0,0,0,0,0,0,0,0],"split_type":[0,0,0,0,0,0,0,0,0,0,0,0,0,0,0],"sum_hessian":[1.2935954E2,1.03034004E2,2.6325539E1,9.757273E1,5.4612765E0,9.239142E0,1.7086395E1,2.3587115E0,9.521402E1,1.4552461E0,4.0060306E0,8.093299E0,1.1458439E0,1.2832649E1,4.2537465E0],"tree_param":{"num_deleted":"0","num_feature":"27","num_nodes":"15","size_leaf_vector":"1"}},{"base_weights":[-5.26935E-2,-8.8657364E-2,5.595537E-1,-5.2822072E-2,-7.216358E-1,8.04239E-1,-2.097462E-2,-1.4399083E-2,1.0323898E-3,-5.0339337E-2,1.3406405E-2,-1.19835595E-2,5.5008765E-2],"categories":[],"categories_nodes":[],"categories_segments":[],"categories_sizes":[],"default_left":[0,0,0,0,0,0,0,0,0,0,0,0,0],"id":74,"left_children":[1,3,5,7,9,11,-1,-1,-1,-1,-1,-1,-1],"loss_changes":[2.9137857E0,2.7683344E0,2.099028E0,2.04767E0,2.1186414E0,2.187141E0,0E0,0E0,0E0,0E0,0E0,0E0,0E0],"parents":[2147483647,0,0,1,1,2,2,3,3,4,4,5,5],"right_children":[2,4,6,8,10,12,-1,-1,-1,-1,-1,-1,-1],"split_conditions":[5.133333E-1,2.842171E-14,1.2910696E0,-2.4666667E-1,7.3554724E-1,-1.668125E-1,-2.097462E-2,-1.4399083E-2,1.0323898E-3,-5.0339337E-2,1.3406405E-2,-1.19835595E-2,5.5008765E-2],"split_indices":[7,14,24,7,26,5,0,0,0,0,0,0,0],"split_type":[0,0,0,0,0,0,0,0,0,0,0,0,0],"sum_hessian":[1.2907887E2,1.227251E2,6.353772E0,1.1717484E2,5.550259E0,5.226182E0,1.1275904E0,2.719866E1,8.997618E1,4.295521E0,1.2547383E0,1.1963178E0,4.029864E0],"tree_param":{"num_deleted":"0","num_feature":"27","num_nodes":"13","size_leaf_vector":"1"}},{"base_weights":[-7.0997305E-2,-1.4937824E-1,2.897787E-1,-1.9258825E-1,4.116266E-1,9.430652E-1,-1.7879725E-2,3.988305E-2,-1.0938475E-2,4.024668E-2,-8.207162E-3,5.5396713E-2,3.1603035E-3,-3.8891934E-2,1.1676999E-2],"categories":[],"categories_nodes":[],"categories_segments":[],"categories_sizes":[],"default_left":[0,0,0,0,0,0,0,0,0,0,0,0,0,0,0],"id":75,"left_children":[1,3,5,7,9,11,13,-1,-1,-1,-1,-1,-1,-1,-1],"loss_changes":[3.85588E0,2.7802517E0,4.921777E0,2.8742962E0,2.0087492E0,1.0660658E0,3.5391283E0,0E0,0E0,0E0,0E0,0E0,0E0,0E0,0E0],"parents":[2147483647,0,0,1,1,2,2,3,3,4,4,5,5,6,6],"right_children":[2,4,6,8,10,12,14,-1,-1,-1,-1,-1,-1,-1,-1],"split_conditions":[1E0,1.10776665E2,-3.8567767E-1,-8.414169E0,2.2627025E0,1.4372723E0,-1.5511383E-1,3.988305E-2,-1.0938475E-2,4.024668E-2,-8.207162E-3,5.5396713E-2,3.1603035E-3,-3.8891934E-2,1.1676999E-2],"split_indices":[3,0,24,14,8,8,24,0,0,0,0,0,0,0,0],"split_type":[0,0,0,0,0,0,0,0,0,0,0,0,0,0,0],"sum_hessian":[1.3382562E2,1.1042173E2,2.3403885E1,1.0313474E2,7.2869906E0,6.8318124E0,1.6572071E1,1.897538E0,1.01237206E2,4.093035E0,3.1939554E0,5.535371E0,1.2964417E0,3.5991726E0,1.2972899E1],"tree_param":{"num_deleted":"0","num_feature":"27","num_nodes":"15","size_leaf_vector":"1"}},{"base_weights":[-1.8771939E-2,4.434451E-2,-4.359879E-2,-1.15579665E-1,2.8051695E-1,-7.023842E-3,4.7467336E-2,2.8404439E-2,-1.5494867E-2],"categories":[],"categories_nodes":[],"categories_segments":[],"categories_sizes":[],"default_left":[0,0,0,0,0,0,0,0,0],"id":76,"left_children":[1,-1,3,5,7,-1,-1,-1,-1],"loss_changes":[2.954303E0,0E0,2.999201E0,2.9110413E0,4.1492133E0,0E0,0E0,0E0,0E0],"parents":[2147483647,0,0,2,2,3,3,4,4],"right_children":[2,-1,4,6,8,-1,-1,-1,-1],"split_conditions":[-4.32909E0,4.434451E-2,1E0,1.5917961E1,1.5089742E3,-7.023842E-3,4.7467336E-2,2.8404439E-2,-1.5494867E-2],"split_indices":[14,0,3,11,22,0,0,0,0],"split_type":[0,0,0,0,0,0,0,0,0],"sum_hessian":[1.2867178E2,2.5066946E0,1.26165085E2,1.03764145E2,2.2400942E1,1.022419E2,1.5222502E0,1.5089262E1,7.311681E0],"tree_param":{"num_deleted":"0","num_feature":"27","num_nodes":"9","size_leaf_vector":"1"}},{"base_weights":[-3.1179746E-3,-1.9595537E-2,5.0414313E-2,1.6115575E-1,-1.2000559E-1,2.0131746E-2,-7.7623697E-3,-3.4438353E-2,-2.502021E-3],"categories":[],"categories_nodes":[],"categories_segments":[],"categories_sizes":[],"default_left":[0,0,0,0,0,0,0,0,0],"id":77,"left_children":[1,3,-1,5,7,-1,-1,-1,-1],"loss_changes":[2.2780895E0,2.4571137E0,0E0,3.760145E0,3.4244986E0,0E0,0E0,0E0,0E0],"parents":[2147483647,0,0,1,1,3,3,4,4],"right_children":[2,4,-1,6,8,-1,-1,-1,-1],"split_conditions":[9.7E-1,-1.1666667E-1,5.0414313E-2,1.978652E-1,-5.666667E-2,2.0131746E-2,-7.7623697E-3,-3.4438353E-2,-2.502021E-3],"split_indices":[6,7,0,8,7,0,0,0,0],"split_type":[0,0,0,0,0,0,0,0,0],"sum_hessian":[1.3450958E2,1.3331822E2,1.1913642E0,4.7395367E1,8.592286E1,2.6725727E1,2.0669638E1,8.443058E0,7.74798E1],"tree_param":{"num_deleted":"0","num_feature":"27","num_nodes":"9","size_leaf_vector":"1"}},{"base_weights":[1.856471E-3,-1.4522532E-1,1.3815467E-1,5.738933E-3,-8.219644E-1,9.526901E-1,3.966395E-2,1.3488948E-2,-1.35639375E-2,2.0316176E-2,-5.2241188E-2,1.55925425E-2,6.8545915E-2,1.28383385E-2,-1.2641348E-2],"categories":[],"categories_nodes":[],"categories_segments":[],"categories_sizes":[],"default_left":[0,0,0,0,0,0,0,0,0,0,0,0,0,0,0],"id":78,"left_children":[1,3,5,7,9,11,13,-1,-1,-1,-1,-1,-1,-1,-1],"loss_changes":[2.5990582E0,6.3759894E0,5.360016E0,3.8753564E0,3.5400248E0,1.5061326E0,3.9428558E0,0E0,0E0,0E0,0E0,0E0,0E0,0E0,0E0],"parents":[2147483647,0,0,1,1,2,2,3,3,4,4,5,5,6,6],"right_children":[2,4,6,8,10,12,14,-1,-1,-1,-1,-1,-1,-1,-1],"split_conditions":[-4.183762E-3,-2.7517863E-2,1.3605437E-2,0E0,-5.5E-1,4.183762E-3,1.5016896E3,1.3488948E-2,-1.35639375E-2,2.0316176E-2,-5.2241188E-2,1.55925425E-2,6.8545915E-2,1.28383385E-2,-1.2641348E-2],"split_indices":[5,5,5,11,6,5,22,0,0,0,0,0,0,0,0],"split_type":[0,0,0,0,0,0,0,0,0,0,0,0,0,0,0],"sum_hessian":[1.2764754E2,6.1363552E1,6.628399E1,5.0982174E1,1.038138E1,6.2146716E0,6.0069313E1,2.6115887E1,2.4866285E1,1.4678895E0,8.91349E0,3.1435483E0,3.0711234E0,3.4548016E1,2.55213E1],"tree_param":{"num_deleted":"0","num_feature":"27","num_nodes":"15","size_leaf_vector":"1"}},{"base_weights":[-2.6387306E-2,1.631152E-1,-1.335517E-1,2.6974566E-3,6.880732E-1,8.443801E-2,-3.190042E-1,-6.5712333E-3,3.835112E-2,5.3863477E-2,-4.152898E-2,-4.598722E-3,2.3692831E-2,1.0068792E-2,-2.1879537E-2],"categories":[],"categories_nodes":[],"categories_segments":[],"categories_sizes":[],"default_left":[0,0,0,0,0,0,0,0,0,0,0,0,0,0,0],"id":79,"left_children":[1,3,5,7,9,11,13,-1,-1,-1,-1,-1,-1,-1,-1],"loss_changes":[2.6927302E0,4.0369573E0,3.4455268E0,3.969468E0,7.52723E0,2.7682998E0,2.9206467E0,0E0,0E0,0E0,0E0,0E0,0E0,0E0,0E0],"parents":[2147483647,0,0,1,1,2,2,3,3,4,4,5,5,6,6],"right_children":[2,4,6,8,10,12,14,-1,-1,-1,-1,-1,-1,-1,-1],"split_conditions":[-1.1666667E-1,-1.9E-1,-2.706742E-2,6.970779E0,1.5186849E3,4.765643E-1,1.9960161E0,-6.5712333E-3,3.835112E-2,5.3863477E-2,-4.152898E-2,-4.598722E-3,2.3692831E-2,1.0068792E-2,-2.1879537E-2],"split_indices":[7,7,5,11,23,24,0,0,0,0,0,0,0,0,0],"split_type":[0,0,0,0,0,0,0,0,0,0,0,0,0,0,0],"sum_hessian":[1.3052237E2,4.6959732E1,8.356263E1,3.6738304E1,1.0221428E1,3.8662075E1,4.4900555E1,3.195837E1,4.7799363E0,8.367634E0,1.853794E0,2.7133852E1,1.1528224E1,8.203577E0,3.6696976E1],"tree_param":{"num_deleted":"0","num_feature":"27","num_nodes":"15","size_leaf_vector":"1"}},{"base_weights":[-1.817296E-2,8.853038E-2,-2.0391764E-1,-5.0663225E-2,4.6083924E-1,-3.6873618E-1,2.0684224E-1,3.4532472E-3,-3.2310273E-2,1.1897474E-2,5.0335176E-2,-2.5062684E-2,1.5313123E-2,5.2610394E-2,-1.8269562E-3],"categories":[],"categories_nodes":[],"categories_segments":[],"categories_sizes":[],"default_left":[0,0,0,0,0,0,0,0,0,0,0,0,0,0,0],"id":80,"left_children":[1,3,5,7,9,11,13,-1,-1,-1,-1,-1,-1,-1,-1],"loss_changes":[2.5596862E0,4.2804193E0,3.2644496E0,4.37224E0,2.492293E0,3.191792E0,2.9447384E0,0E0,0E0,0E0,0E0,0E0,0E0,0E0,0E0],"parents":[2147483647,0,0,1,1,2,2,3,3,4,4,5,5,6,6],"right_children":[2,4,6,8,10,12,14,-1,-1,-1,-1,-1,-1,-1,-1],"split_conditions":[5.522799E-1,4.020526E1,2.0629914E0,8.9460605E-1,1.7167115E-1,1.5173646E3,2.222382E0,3.4532472E-3,-3.2310273E-2,1.1897474E-2,5.0335176E-2,-2.5062684E-2,1.5313123E-2,5.2610394E-2,-1.8269562E-3],"split_indices":[25,0,26,24,25,23,25,0,0,0,0,0,0,0,0],"split_type":[0,0,0,0,0,0,0,0,0,0,0,0,0,0,0],"sum_hessian":[1.27238525E2,8.114637E1,4.609216E1,5.969308E1,2.1453287E1,3.296655E1,1.3125612E1,5.043719E1,9.255892E0,1.6252787E1,5.2004986E0,2.7771732E1,5.1948166E0,2.1912374E0,1.0934375E1],"tree_param":{"num_deleted":"0","num_feature":"27","num_nodes":"15","size_leaf_vector":"1"}},{"base_weights":[2.0645365E-2,-4.6167427E-1,7.2788686E-2,-7.1536255E-1,3.922381E-2,4.6318676E-2,4.664476E-2,-4.8259716E-2,6.128002E-3,3.4446582E-2,9.241295E-4],"categories":[],"categories_nodes":[],"categories_segments":[],"categories_sizes":[],"default_left":[0,0,0,0,0,0,0,0,0,0,0],"id":81,"left_children":[1,3,5,7,-1,-1,9,-1,-1,-1,-1],"loss_changes":[3.3273675E0,4.6435814E0,2.6135728E0,2.4738507E0,0E0,0E0,2.095763E0,0E0,0E0,0E0,0E0],"parents":[2147483647,0,0,1,1,2,2,3,3,6,6],"right_children":[2,4,6,8,-1,-1,10,-1,-1,-1,-1],"split_conditions":[1.4778949E3,1.5116471E3,1.4801835E3,9.05244E-2,3.922381E-2,4.6318676E-2,-7.860406E1,-4.8259716E-2,6.128002E-3,3.4446582E-2,9.241295E-4],"split_indices":[22,23,22,5,0,0,0,0,0,0,0],"split_type":[0,0,0,0,0,0,0,0,0,0,0],"sum_hessian":[1.2996605E2,1.191351E1,1.1805254E2,1.0252312E1,1.6611985E0,2.485001E0,1.1556754E2,7.7805915E0,2.4717207E0,3.8688445E0,1.116987E2],"tree_param":{"num_deleted":"0","num_feature":"27","num_nodes":"11","size_leaf_vector":"1"}},{"base_weights":[9.120995E-3,1.4596993E-1,-1.4268425E-1,-2.2540022E-1,2.373959E-1,-9.7279596E-1,-7.580307E-2,-2.2312235E-2,3.0136159E-2,1.6940253E-2,-1.3634053E-2,-1.1954755E-2,-5.8557957E-2,5.060587E-2,-5.818428E-3],"categories":[],"categories_nodes":[],"categories_segments":[],"categories_sizes":[],"default_left":[0,0,0,0,0,0,0,0,0,0,0,0,0,0,0],"id":82,"left_children":[1,3,5,7,9,11,13,-1,-1,-1,-1,-1,-1,-1,-1],"loss_changes":[2.721764E0,2.3918087E0,3.3764148E0,2.850974E0,2.9761798E0,3.8204527E-1,2.7036872E0,0E0,0E0,0E0,0E0,0E0,0E0,0E0,0E0],"parents":[2147483647,0,0,1,1,2,2,3,3,4,4,5,5,6,6],"right_children":[2,4,6,8,10,12,14,-1,-1,-1,-1,-1,-1,-1,-1],"split_conditions":[1.5003134E3,1.4764781E3,-4.8333332E-1,9.650862E1,4.3666667E-1,-8.819347E-1,-6.635297E1,-2.2312235E-2,3.0136159E-2,1.6940253E-2,-1.3634053E-2,-1.1954755E-2,-5.8557957E-2,5.060587E-2,-5.818428E-3],"split_indices":[22,22,7,0,6,24,0,0,0,0,0,0,0,0,0],"split_type":[0,0,0,0,0,0,0,0,0,0,0,0,0,0,0],"sum_hessian":[1.2901282E2,6.7868965E1,6.1143864E1,1.31181135E1,5.4750847E1,3.549035E0,5.7594826E1,1.0720344E1,2.3977704E0,4.5951035E1,8.799814E0,1.2246546E0,2.3243806E0,1.2094177E0,5.638541E1],"tree_param":{"num_deleted":"0","num_feature":"27","num_nodes":"15","size_leaf_vector":"1"}},{"base_weights":[5.3362153E-3,-6.951796E-2,1.9017512E-1,-3.9470696E-1,1.0821143E-1,6.1789834E-1,-5.4982588E-2,-7.8922035E-3,-3.7246194E-2,1.602274E-2,-6.6893655E-3,5.5889647E-2,1.1170347E-2,-9.735211E-3,4.3273967E-2],"categories":[],"categories_nodes":[],"categories_segments":[],"categories_sizes":[],"default_left":[0,0,0,0,0,0,0,0,0,0,0,0,0,0,0],"id":83,"left_children":[1,3,5,7,9,11,13,-1,-1,-1,-1,-1,-1,-1,-1],"loss_changes":[1.8803444E0,5.6362977E0,4.1408E0,2.7374759E0,3.2974422E0,2.5803733E0,3.4883957E0,0E0,0E0,0E0,0E0,0E0,0E0,0E0,0E0],"parents":[2147483647,0,0,1,1,2,2,3,3,4,4,5,5,6,6],"right_children":[2,4,6,8,10,12,14,-1,-1,-1,-1,-1,-1,-1,-1],"split_conditions":[2.4333334E-1,1.494244E3,1.4918921E3,5.4761216E-2,1.501906E3,4.3666667E-1,1.0538112E2,-7.8922035E-3,-3.7246194E-2,1.602274E-2,-6.6893655E-3,5.5889647E-2,1.1170347E-2,-9.735211E-3,4.3273967E-2],"split_indices":[6,23,23,26,22,6,0,0,0,0,0,0,0,0,0],"split_type":[0,0,0,0,0,0,0,0,0,0,0,0,0,0,0],"sum_hessian":[1.3394713E2,9.578215E1,3.816498E1,3.3417603E1,6.236455E1,1.3351097E1,2.4813885E1,2.0800358E1,1.2617243E1,3.305217E1,2.9312382E1,5.0801234E0,8.270973E0,2.222822E1,2.5856643E0],"tree_param":{"num_deleted":"0","num_feature":"27","num_nodes":"15","size_leaf_vector":"1"}},{"base_weights":[-2.1008367E-3,-2.0629289E-2,5.0693136E-2,2.640144E-2,-4.1565502E-1,-3.1710122E-4,3.2610204E-2,-3.0144328E-2,2.9203195E-2],"categories":[],"categories_nodes":[],"categories_segments":[],"categories_sizes":[],"default_left":[0,0,0,0,0,0,0,0,0],"id":84,"left_children":[1,3,-1,5,7,-1,-1,-1,-1],"loss_changes":[2.4966407E0,2.4288063E0,0E0,2.4064298E0,2.9549751E0,0E0,0E0,0E0,0E0],"parents":[2147483647,0,0,1,1,3,3,4,4],"right_children":[2,4,-1,6,8,-1,-1,-1,-1],"split_conditions":[9.533333E-1,5.133333E-1,5.0693136E-2,4.2E-1,4.1E-1,-3.1710122E-4,3.2610204E-2,-3.0144328E-2,2.9203195E-2],"split_indices":[6,6,0,6,7,0,0,0,0],"split_type":[0,0,0,0,0,0,0,0,0],"sum_hessian":[1.30518E2,1.2914249E2,1.3755178E0,1.162368E2,1.2905684E1,1.1139806E2,4.8387423E0,1.1204249E1,1.701435E0],"tree_param":{"num_deleted":"0","num_feature":"27","num_nodes":"9","size_leaf_vector":"1"}},{"base_weights":[-2.226895E-2,4.2401922E-1,-9.1255404E-2,-2.92967E-2,5.739333E-1,-5.8508605E-1,-4.4995178E-2,4.0232625E-2,-1.713611E-2,-3.866964E-2,1.330508E-2,-1.0476376E-2,5.879548E-3],"categories":[],"categories_nodes":[],"categories_segments":[],"categories_sizes":[],"default_left":[0,0,0,0,0,0,0,0,0,0,0,0,0],"id":85,"left_children":[1,3,5,-1,7,9,11,-1,-1,-1,-1,-1,-1],"loss_changes":[3.8867598E0,2.8966665E0,2.4654818E0,0E0,3.496789E0,1.6899261E0,2.72155E0,0E0,0E0,0E0,0E0,0E0,0E0],"parents":[2147483647,0,0,1,1,2,2,4,4,5,5,6,6],"right_children":[2,4,6,-1,8,10,12,-1,-1,-1,-1,-1,-1],"split_conditions":[-4.5666668E-1,-1.0645844E0,-3.6333334E-1,-2.92967E-2,8.8614E-1,1.2213188E0,2.9659625E-3,4.0232625E-2,-1.713611E-2,-3.866964E-2,1.330508E-2,-1.0476376E-2,5.879548E-3],"split_indices":[6,24,6,0,24,25,5,0,0,0,0,0,0],"split_type":[0,0,0,0,0,0,0,0,0,0,0,0,0],"sum_hessian":[1.2398656E2,1.5910661E1,1.080759E2,1.6805478E0,1.4230113E1,8.259331E0,9.981657E1,1.1466275E1,2.7638373E0,6.837974E0,1.4213564E0,4.9467854E1,